{"layers": [1200, 10, 2], "weights": [[], [[0.035987327727868806, -0.6898902137354401, 0.310369571604745, -0.7411684900334101, 0.29580212266975886, -0.5422419889946631, -0.3274919588944855, 1.2575951444519413, -0.021105635041136682, 0.17498710898037106, -1.7883455513671982, -1.4622698102095693, 0.6992536614385146, 0.058428552546705495, -0.47842828081462074, 0.008828292020386437, 0.1508585007709634, 0.012760178706147804, 0.23878038081818528, 1.0026642735683962, -1.2810582830855637, -1.0982834917482311, -0.038575675874351484, -1.2585095757018496, 2.0148360078036536, -1.3225537819216897, -0.26397809711607256, -0.060272230035081045, 0.05332014834379058, 1.0100737665839992, -0.5638282664816202, -0.7524397496120653, 0.41624554381503326, -0.8811436689933854, -0.5414525914848662, -0.12798604007719264, -0.3450097306325728, 0.24269967583871044, -1.0237472446632425, 1.4614959284259166, -1.0875154414037063, -0.7360017659091946, 0.1492404838189559, -0.910742931127686, 0.5502581119709521, -0.5518449537354521, -0.7775455542692574, 0.6326152730297779, -0.38870481197943724, -0.32165605233918176, 1.4590580527196069, -2.4932068360994744, -1.9398383301218178, 0.21727655104781482, -1.3741490552279438, 2.0671490981489393, 0.9587757357811495, 0.8788697580890487, -0.1625186402254856, 0.47983627083886315, -1.7163814007930442, -0.2796584442377618, 0.7989824779011783, 0.6427961414006251, -0.44324700459101163, 1.6150948982536852, 1.0227397665651061, -0.39871002193271304, -1.2493871243538344, 1.1817776317511366, 0.35963492798724717, 1.2217700376645029, -0.6044487859478953, 0.7166926361340612, 2.7598691739284096, -0.04180690845147022, -1.3151175878093595, -1.6772044066685414, -1.601991869119691, 0.6693189047352817, -0.3291569181931523, -0.28815886359699966, -0.220106702776838, 1.0810973361565823, -0.004374055976440652, 0.22377723173182337, 0.4324846514936424, -0.8966007596136785, 0.8426810237658069, 0.46839393798155, -0.6135159499606561, 1.0454123774793898, -1.0511880666259688, -0.15311605367651154, 1.832944796235661, 0.15601313465486905, 1.2069744259724249, -0.6721595155510205, 0.5260975345143067, 0.8060472950802189, -1.6660062198245693, -0.3105780020908007, 0.8301071937903718, -1.0906995136309114, 1.4180958958787988, -0.24790636893329573, 1.2266070584235806, 1.2071792373168453, -1.5346512847826712, 0.8680857800077423, 0.02175440986560609, 0.6699418517371668, -1.7336854701476037, 1.2051741810108394, 0.6623870410358175, -0.25722358405547696, 0.9707530596698503, 0.0019275223402984362, 0.7034092089063686, 1.904618202369134, 1.0154583819560425, -0.5667522815609205, 0.6463103952925311, -0.6644371343566549, 0.7987690971404363, 1.788733303327287, 0.2979619718018027, 0.058347833814086605, -0.8905639523273005, 1.4342579614411135, 0.22398125059899035, 0.34837117559565367, -0.12474695474825584, 0.9497917712412732, 0.7417136230692689, -0.015867715353829803, -0.6648691669028115, -1.0901195459703237, 0.9705110274097681, 0.18933716694091518, 0.39098283830892777, 0.08996645912746021, -0.4994638923552685, 0.8437170872562796, 0.28758899979004604, 0.16222452293755418, 1.405145494023907, -2.313984389002306, -1.0705690329612088, 0.7364718306851291, -0.09996916716293675, 0.2289638810076983, 0.512244915091375, 2.0624217126642366, -0.5921795390954976, -0.7375292997035597, -0.5278800436032953, 1.499819534934576, -0.5125464981396269, 1.626338519546475, -0.3507451758557808, -1.6727035979722804, -1.241039002799514, 1.425305378928591, 0.6822832186319392, -0.19247550940679697, 2.3721962495997815, -0.9734755648128796, -1.035740761055509, 1.4171363858300896, 2.0758088929284164, 0.7138261705317682, 0.3582329606432821, -1.3451609260665216, -1.3744354981612197, -0.7864284555402571, -1.040149132860255, 0.3403605597716643, 3.6076029823271605, -0.1416818964186644, -1.8584353232324382, 0.5134166799107721, 0.0851864101901266, 1.0810820022685865, 0.6652389737365428, -0.9859461339863093, 0.3569477949910908, -0.2589075134732907, 0.6229674523025136, -1.8263831259989307, 0.9509378012199845, -1.4545884829227778, 1.7463884082538872, -0.0938714217655955, -1.6005143965376836, -0.9625499105803654, -0.8562112749456132, -0.7407833444560372, 0.5620627729077288, 1.5463205695578952, -1.3292715943047861, -0.9055739282779383, 1.5941342362927309, -1.6891469988643668, 1.7239776727713332, -0.785906434802163, 0.04283610825780021, 0.9738815773448071, -0.4089518120851427, 1.2974491040925051, 0.11485003388805895, 0.957552530339701, -0.2471947882875547, 0.7332695992472755, 0.7794239367605746, 0.3259488312141161, 1.379728292463401, 0.3183929007192702, -0.36914830933614173, 0.6226224114951476, 0.3768241670018324, 1.4334975984201241, -0.1385001089908252, 0.7598221057552365, -0.4955949783273156, -0.43321409474826983, 0.14673538349926402, -0.34193485620247827, -1.1544575631251917, 1.382212798156774, -0.42709302240204217, 0.8996066078727113, -0.6971841424954844, -0.4357771534335835, 0.6904971609685568, 1.2391716515364144, -0.695156036104748, -0.6016400425944702, 0.24668561917329532, -0.2920002646499469, -0.7011905043816823, 0.16582562321507133, -0.45869805387418616, 0.20172905965840857, -0.375945302672582, -1.1669825401425755, -0.6705872730957494, -0.44023132484600286, -1.8114297910019515, 2.0226931965400947, 1.0317732072029133, -0.10306099310000731, 0.5087254824220058, 0.46631342548639576, -0.33754266756275325, -0.434996460845735, 0.9917114340271875, 0.9216537864632453, -0.6775859400444249, 1.053248721625596, 0.4959698832974709, -1.735403530913768, 1.394805033770526, 0.023691898853004933, 0.3354333690333996, -0.2792459397316648, -1.7508552455209776, 0.403963149168475, 0.9344041498614429, 1.4640518315160664, 1.7903094977917349, 0.5752491972650249, 0.2514906424293222, 1.3244940677573447, 1.1776624849694288, -0.9733889512471272, -0.22644853249671315, -0.5315092416963757, -0.7703772883418548, 0.16296623232873608, 1.2169747874423418, -1.2880954742459354, -0.24843810308245567, 1.3640585347462033, -1.4738808434357495, -1.4250932389421687, 0.09320818398304534, -1.050596591755224, 2.166758124497523, 2.8695657772795076, -0.09576704368511728, -0.5744850920593093, 0.7620748657134356, 0.6091744125909762, -0.16976403668374931, -0.2976793739833684, -0.969348361648458, 1.0223064074291004, -1.3243116196495461, 1.4212227792116543, -0.08423159688607998, -0.21729022322147257, 1.0267073658309473, -0.5641548931930176, -0.054186750035544726, 0.13738519706757468, 1.143627378292348, 1.1692341452496058, 0.13539809213404203, -0.2629233695818204, 0.9256621524722385, 1.2615913082176355, 0.6376038954059186, -0.22282465485754718, 1.8045181917021056, 0.21659463803164805, 0.13552014949779073, 0.10753496287906203, -1.7064900062209631, 1.1549014097676955, -0.010791974694533968, -0.0502970141785498, -0.8829125763555558, -1.6734934033592077, -0.9126359464438774, 1.6039135378897313, -1.5823844968567486, 0.2534140716844292, -0.1279679553688755, 0.10591667269592256, 0.5649090459072335, 0.4125956564484305, 2.5559568138869415, 2.383913183196356, -0.5483131560155106, 0.6992654651378931, 1.6979366416213004, -0.8114057267965805, 0.4230476373043033, -0.1739509529405966, 1.279615943974944, 0.5421854908227682, 0.011592336656305657, -1.1448751553306857, 0.5204260567437846, -1.4132429600779473, -1.2363862692961436, 0.5886765494820503, 0.7061942809309293, -0.1328946892283691, 0.9443468474045598, 2.6034064569081656, -0.886723167204383, -0.5394891906507376, 0.5080493769579852, 0.3524949126129807, 0.29262052830978313, 0.29852241095673204, 1.1091940434191105, 0.6305377300546596, 0.5645049605052885, -0.7512688484007907, 0.2427199935125549, 0.5952323680380193, 1.6046807806674683, -0.72529147112111, -1.8820024703465068, -1.0271933819829453, 0.5850659138408802, 0.6732743940262289, 0.4094573997496642, -0.518322964980282, 1.096846453521526, -0.847720954695269, 3.1428851763353043, 0.8557403752015441, 1.960187962990446, -1.3097097146777403, -0.14392714254353503, 2.2223101327325416, -0.11572361888726146, 0.9773152317568333, -0.4797443824989822, -0.7727978554464909, -0.10223178342051463, 0.362941084935186, 2.0536283455234527, -0.3888592552810197, 0.7601916404758934, -1.4944034794318728, 0.1427971276909234, -0.9936625402360804, 0.9793257468243508, -1.186187161965493, -1.4903852205261074, -1.9206380281820579, -0.7072032037012117, -0.01569106941804073, -0.07065025901766828, -1.4541183775971078, -0.21365714869610586, -2.358568710238956, -0.38298552830775245, 0.6277607700161453, -0.24123744135432704, 0.3730427721537125, -0.23107873691165393, -0.4375217422153449, -1.8947615073034625, 0.02572180285198509, 0.09603627411536245, -0.459496833492193, 0.5266093610747835, 0.7760389123531174, -0.77792749189161, -0.6224950657629339, 1.0691382632487891, -1.3551513765762042, -0.561097981475856, -1.5275233196273834, -1.001956455832615, 0.9044585451871894, 0.48468632069206313, -0.5933471951705984, -2.0260968571976856, 1.7022157719575401, 0.7765932048453609, -1.445589996735305, 0.10347891533094913, -0.591449844389235, 0.8138525331265933, -0.7029376182771889, 0.6075940005626898, -1.726769518338352, -0.41839696330136555, 0.2916933083584992, 0.14222308687113439, 0.6950621341205615, -1.5737459309577915, 0.26312298706538556, 0.2024944580440357, -0.3290857085736616, 0.59571344546671, -0.15900040841051977, -0.7069250162468529, 1.7222441720186816, 1.118480618305286, -0.33053226967223875, 1.1887208183098823, 0.9112126090986905, 0.15847871153244186, -1.150106736800527, 0.5080499051366876, 1.3959386879564306, -1.1776221552981683, 0.9085978189676966, 1.6944016626883502, -0.7592160505512502, 0.8716486654777023, -0.9007377317139653, -1.3754463681025149, 0.9211051588237119, 1.458041841205754, 0.13213802598730387, -0.5097608077944041, -0.056676220297431065, 0.59626858559068, 0.6760156115429304, 0.38481238093632475, 0.3828763963500531, 0.44580115983092516, 0.9471781598442852, -2.1380487794215424, 1.4897379716193446, -0.005766144936413808, -1.112366614510416, 0.4452934732183401, -1.4679339976396801, -0.11671282456150733, -0.9782690814661515, -0.9264372678233294, 0.43866630827163855, 1.7358495603621595, -1.3889084951987578, 0.10235891605430725, 1.0022885225687304, -0.43875547099438994, 1.1676577053528172, 0.3435294423807625, 0.06923393196579153, 0.5775280297223158, 1.35047010485315, 0.2976287749605201, 0.03872977377107048, 0.5376317589312009, 0.36832460673655426, 1.207220319537339, 0.05605963462778074, -0.9158213794027075, 1.1333826808528327, 2.4628073158082504, 0.524173869371628, 0.9317534526479699, 0.6499440483267741, -0.7552344997131145, -1.599678483646049, -0.11174988837894671, 0.2705399197392526, -1.4000651554016539, 0.10800963469123499, -1.278259042414142, 0.5794239308116204, 0.16214097831853447, -2.018703993851631, -0.23177268794022188, 0.1237060447804974, 0.5805813080178541, 0.3472139343547647, -0.7051676359072434, -0.9726769989527547, 0.09159975421188893, 0.44315051614480067, -0.05326454077642355, 0.48356131432980387, 1.9812525870165278, 2.1828105868753096, 2.2717915854101323, 0.6412863141134566, 0.28216456977376414, -0.7749685095331637, 1.5100508538651385, 1.8404102694240523, 0.6536533182466221, -0.8653187827043636, 0.8713506646989597, 2.4681432086985535, 0.3785563287547242, 1.0706683235509538, -1.041070379930777, -0.03037284108871164, 0.4624226229241236, -1.4743841289276673, -0.3380637669244705, -1.0999872179796224, 1.2903497965721105, -1.8911641406910746, -0.6003034726273532, -1.4162009890179623, 1.6332003598111682, 0.033165972653702906, 0.45002591025460237, 0.6270977353059259, -1.0288766970113057, 0.24489562271674248, 1.174969947197226, 0.9253357838120925, 1.3213878608286538, 0.9220619568009519, 1.7428078527890587, 0.6413990432897047, -1.8338344401740396, -0.2612315840017467, -1.439644276153356, 0.6852691921476852, -0.48604211769194655, -0.8633869739855577, 0.1628091771961498, -0.014431260465702173, -1.7167316741080567, -0.6413733975901862, -0.25011922596644676, 0.6518450569448468, -0.15077758323591658, 0.7894157814607938, 0.24206034828844275, 2.016148519159844, -0.42957190136609935, 1.409259096565526, 0.5723821810054496, -0.026316680148272355, -1.7006362804260495, -0.21481627670652623, 0.09601528320280468, 1.0144005239989142, -0.6350287781597558, 0.9016691493075062, 0.09998812727939939, 0.6810882337059675, -1.3076392923324927, 1.320349485875376, 0.6763489121914019, -0.612135881780119, -0.13061764497198264, 1.1436059489515096, 0.36737019021933065, -0.5295215487549058, 0.2158239065177691, 1.2389004853576768, 1.82781820663025, -0.36096086938138083, -1.373370536115821, 0.9221207564155182, 0.912494274387077, 0.9395465273649112, 1.3491295565312793, -1.494257903726715, 0.6168994312210688, -0.17237762609934237, -1.3961780119919076, -0.3793608352891237, -0.21517123234748703, 0.37387441162314794, -1.9135165707809363, -0.25050700111742, 0.43902357145881515, -0.12028775535509079, -0.05436303507342796, 1.1101965535788476, -0.5482680437665988, -2.0676159700802046, -0.6111200931253805, 0.15301169536724443, -0.06773730622015645, -1.0021767971522533, -1.1778974836274048, 0.784184634561892, 0.619910594007262, -0.30914728641515243, 2.1466978891568913, -1.5558409759164242, 0.7940435392835158, 0.31705001881894374, -0.08667514525381326, 0.6058608689628637, 0.5145208572965309, 0.2769106799419288, -0.38193122930047757, -0.9874442651618408, -0.637665285958246, 1.029822718635442, -1.1559099766456529, 0.7020147656261722, 0.02295263992751581, 0.652278618618075, 0.4309853230252682, -1.9779774911585444, -0.30520889000211265, 0.3994654412720084, 0.45041639401691763, 0.12528779867575834, -1.1558936682111582, 0.2316271700743513, 0.3301882073310003, -0.8737447010685635, -0.07523614950060804, 0.27026940903083835, 1.6046042976915054, 1.1019024983313683, 0.49905167851408205, 1.117193071294281, 0.7345727719135199, -0.28597464114784865, -0.12219651182704568, 0.5753871487920147, -0.3589895444708593, 0.8514475499389065, 0.4374095797340691, 2.411839001794101, 1.9714276930413712, 0.1806813622970138, -1.365116052115257, 1.1590129209256674, 0.5764472350592126, -0.013414006465143066, 1.0173162762231864, -0.5366353572130123, -0.6838576314110179, -0.5419718249362807, 1.2826711580716266, -1.052633102496816, 1.6033361341713828, 0.2873438428014056, -2.217869829031828, -0.11289504559159495, -1.3626110253280854, 0.669916570891977, 0.26824797324428334, 1.1395657357530122, 0.49494972069369253, 0.685150435401693, -1.3214207348119236, 0.2738622014102763, -0.4774990915943074, -0.29128855788289176, 1.631183948436481, 0.5382317033853153, 0.7775597919075523, 0.7856618770391842, -1.2599643202917166, 1.3525105022849293, 1.3886265639749262, 1.3880172481613353, -0.09840940635898451, -0.08623708256498663, -0.22350903727307375, 1.1448362362164655, -1.6560433943629906, -0.30494289571238886, -0.6523956327113403, 0.4434235249159867, 2.582499588302984, -0.6684750225475209, -0.07321987987419545, 0.48405207456524213, 0.46274634046557056, 0.36571651383447734, 0.605689586904164, 0.5610841217476978, 1.310661009057961, -0.8712409689826739, -0.527944644596057, 2.024777106968982, -0.47456980174407326, 0.7078503174631074, -0.32436261882926243, 0.5206749456802158, -0.8164307456498494, -0.22769331528282083, -0.6272114296549994, -0.7765936829861207, 1.8029104597297136, 0.7070390570342991, -0.464035256660794, 0.11111361660889355, -0.8982856462550868, 0.153576879482028, -0.40048563140983373, -0.06358667403722702, 1.3488746663016535, 1.3693059193772568, 0.30502255738478845, -1.0628282396157502, 1.6501265100206641, -0.19964567917729914, -0.46781104327356177, 0.22472300461795763, -0.23629110382148416, 0.1629832397482024, -0.820646118951236, -0.7315954856924443, 0.6992016573359421, -0.2604344554365417, -0.735317862162253, -0.8599118577496238, -1.1564657657156974, -0.14960839270131698, 0.930093156946628, 1.2743092600164916, 1.639725840335913, 0.7678958131014425, 0.3133373141146284, 1.2302771901573732, -1.1620876853574915, -0.8214369292679506, 1.7358141773645321, 2.1408063005253695, -0.08417138480953786, -0.2463872474808697, 0.15118085980821444, 0.40348362947820793, 1.7325032968359455, -1.6284940798626735, 1.5742178918932217, 1.557725706415198, -1.4216276169422946, -0.0426732952853434, -0.4933497703049227, -1.424041423083127, 1.6428603064985345, 0.9338093221288141, -1.3822641271761884, -3.00574055074323, -1.2801990927897702, -0.1842588834417278, -0.22193901582371162, 0.8385646253520478, 0.49021319293867527, 0.7947121964090326, -0.3485950495899841, -1.2053326611133195, -0.742085765158248, 0.37413799588357954, -2.996105324447331, 1.1748949947388867, 0.1534997144650482, -1.0486719497513284, 1.0881794092455364, -0.5611552628518831, 1.270484024504877, -0.7834496087943932, -0.4780557115101494, -0.5156731886454355, -0.6889819584805789, -0.8184323135187027, -0.036889630758101574, -0.9272235295807424, -1.2501947558462458, -1.1694183911167642, -1.683759989421803, 2.274131532703021, -0.15862368110472122, 0.6367916689132135, 0.861701006182354, -0.19136754589913715, 1.045495873385076, 0.6576855593132507, 0.4512083675629458, -0.08796104848745051, 0.8122723094862443, 0.8692088065873432, -0.0288347559456735, 1.2466598509511848, -0.3272941251177497, 0.21067342239278225, 1.4406478498789006, 1.025348644421783, 0.6552313917833036, 0.1204511091804357, 0.22730315146639674, 0.22583358982198948, -0.9058736719293001, 1.3892546103322603, 0.298702432385636, -0.3925064673557073, -0.95272095310067, -0.42918037261813013, 0.6944176638198225, 0.9952745861647768, -1.681451163547079, 1.1151151170913498, 0.488228536055572, -0.1204127821232237, 0.5888368688969402, -0.34385225521871443, -1.3177095750513965, -0.3574823709016881, 0.02534183122161561, 0.4208632632090182, -0.1753002248955597, -0.16749459347294549, -1.3395178743084926, -0.0121585972798747, -1.0818499222158398, -0.11252601969729381, -0.4238498900940662, 0.7919810121789179, -0.7228913085193865, 0.2277835798828739, -0.3043057857988246, 0.5661668438690783, -0.4985605500541177, 0.8573703820833936, 1.0884756617756928, 1.5932280435657469, 1.141166188370761, -1.4142664577672786, 0.3315856455000226, -1.504220005165591, -0.7794396370701212, -1.221476723810487, -1.1846871288012588, -0.7025806850318587, 0.24115414482779085, -0.8518499895302736, 0.4690685819550732, 0.261978634553636, -1.1489102884976445, -0.6671615993476973, 0.14735283367617083, -1.8371462287155174, 1.5858669166060915, -0.9567324230547971, 0.32495472946578313, 0.7303819915310452, 1.274518572338144, -1.0166724938444733, -0.03738679720696848, -0.13734655079255106, 0.9921275132426964, -1.1656081569680148, 1.49479019420478, -2.288777406458917, -0.20740468788065136, 0.5264615053104607, -0.9129240851646142, 0.9607504208004922, -1.1997660910696528, 0.5527325153536267, 1.8407618354263737, 0.9285219814478377, -0.46921361792501015, -0.6246276097119773, 0.15193431825054293, -0.046975138677481, 0.911768443772829, 0.021580631343118224, -0.5092708401787209, 1.5595629825971808, 0.8054182623648374, -0.320050318984054, 0.9777369197759745, 0.8908941643741008, -0.10435528554130816, 1.0235052204870705, 0.6738485899750838, 1.5020927920817106, -0.45860386117601804, 0.3353161546337141, -0.5406577175994646, 1.166009711743608, -0.4788319781081771, -0.9636870083700169, -0.5936004613118967, 0.2873272285721847, 1.526191161518504, -1.53465346533455, 0.039210654729301714, 2.0922303579507475, -3.8226464823815784, 0.9563717157438866, 0.40256921024725145, 1.0628767594713615, -0.38111632946905866, 0.7033224075601787, -0.08057378111546316, -0.5357415402831187, -0.22675900338350255, 1.1136865342449815, -0.14428426354147306, -0.2871146317261884, 0.8833476866085147, 0.07385580500604068, -1.2817747107052277, -0.724068014473011, 0.7415695920904808, 0.3956190901684515, -1.0365540220566352, -0.5183226509654385, -1.9113504316851229, 0.18459459180092386, 0.029854378234569944, -0.3899505507204942, 1.0045765559283228, 1.1219557493712928, -0.4283536845635108, 0.47569852484853986, 0.6063950377090543, 0.504501870942632, -1.538469108259992, -1.5095218290286967, -0.06822158826932177, -1.195052784333702, -0.053154550618015134, 0.9165942390569539, 0.9965241101379274, -1.1330718994403184, -0.7179933491688432, 0.31742312050929705, -0.561704971869771, 0.4048436055334142, 0.11333320007200262, -0.4262903010978068, 0.5878136259357816, 0.4590140551948916, 0.9770774759409787, 1.8669272892700801, -0.5699435922087777, 1.0310308813313167, -0.6847439163967568, -1.4756159804457971, -1.1551373139937882, 0.3421816515440817, 1.0916419541801792, -0.49153647621832597, 1.7019724259183724, -0.7169049687305659, 1.8814766183962395, -1.4179125238956736, -1.0618632513770727, -0.06300427692068196, 1.1062773331020794, 0.4133776129138965, -0.21929601998213838, 1.2748811773962003, 0.5070750679564556, 0.6185007449191021, 0.7844798828339908, 1.6407138644939943, 1.3604966953436046, -1.097456769224189, 1.3840385644625768, 2.054848900827474, 0.6018267963298323, -0.25025270151146717, 0.35852709844574127, -1.201777374690348, -0.6751697879875165, -1.8325645569734377, 0.622492822529048, -1.588508310103118, -0.621548758915022, 1.8714044121875062, -1.7254583449104706, 0.6651181749798966, 0.07024480886190082, -1.802456137856635, 1.79958276388531, -1.2013886311217574, 0.25482099193315166, 1.5481564046869312, -0.3068880190258601, -0.06732443591770994, -0.9147107039368718, -0.2546269676902181, 0.15177371856366106, 0.19200525135509663, -0.47479459759108633, 0.37745380588951677, 0.05920041599194158, 0.19146476641223803, -1.957489875246372, 0.9199161995287912, -0.41881174372090063, 0.2942337049644475, -0.6472332090063838, 0.08214113977181248, -0.28502980744844086, -0.23809120888808002, -0.8278551762962157, -0.24727354733729637, -0.636442352303107, 0.587371137601857, -1.173632643763274, -0.7730890082470193, -0.6777240176419866, -0.4821900065588761, 0.3692775131618629, -2.624344470890582, -0.6994684792215393, -0.7070795426038138, -1.1293785561798433, -1.1427333309825947, 1.0482338400778486, 0.8219509499198168, -0.17345234570664217, 0.506237761303059, -0.890152266687737, -0.8081747032779223, 1.5905943664087339, -2.5362550192608206, -1.2632924117935027, -0.25563402779958244, 0.34652023763819184, -0.984704978362055, 0.41767899724835283, 3.3167387283454692, 0.5663712444593675, -0.04080893206212169, 0.9168484724251241, 1.4138050591625009, 0.37611082011032204, 0.26116511454365876, -1.250156181924194, -1.0766112597374458, -0.21420613358706386, 0.4372456989987945, -0.6330669380271597, 0.770447929962827, 1.4974311424264752, -0.696240487642763, -1.6761578403549617, 0.8685202472964659, 0.4674490145128149, -0.29297909017454304, 0.1724104166742096, -0.3585257100483865, 0.11698518523023183, -1.151280577728795, 0.5829071943905636, -0.10435029206395582, -0.9997787534475779, 0.22862336157953386, -2.6878922500220783, 0.7150298486533727, -0.17848427943717762, 0.8871769462823498, 0.07505795213020286, 0.38987308383744546, 1.8615878815547449, -0.4555634751417224, -0.5534058260520129, -0.4307729172129739, 0.6506635915107816, -1.1585142179897345, -0.44247870534646283, 1.1297131799663342, 0.850456395964514, 0.07277343177642459, 0.2559706573344917, 0.49917956534232855, -0.9742092244173448, -1.7365857860894547, -0.19948600585799303, 1.6445330347032148, 0.5823447680452846, 1.0362741517715144, -2.1409566634683954, 0.49595701393390657, -0.8551721978209884, 0.10393117529372844, -0.7531978449913845, 0.059690448005283725, -0.4696103867978074, -0.6074160817324543, -0.8097124418991525, 1.952718826219789, -0.1690770195400381, 1.2028974846121823, 0.5351154291381348, 2.3046590677852143, 1.2781880669914036, -0.6383642265655453, -2.1643843875678814, 1.4815438658352154, -0.7581213490737716, -0.06975769357261645, -0.8873606144438293, -0.38971857855487485, 0.8038061128319632, 1.7996147564542162, 0.8535887737152511, -0.5148408516195905, 0.5608221900802641, 1.7366840670081498, -0.14743714231430716, 0.40709139640372083, 1.7554653044515482, 0.47281697749594503, 1.4207814111391928, -0.764687466112022, -0.6926127830544713, 1.0917319375159942, -0.25021783100547146, -0.26243355724679274, 1.3432793800082574, -0.3841409848381651, -1.241089169765888, 1.2418165887842298, 1.5899304640352914, 1.1864656208663393, -0.19104961773457563, 0.5771073195277493, 1.562590343095363, 0.05326601897199056, 0.48521543574457604, -0.3696790014713707, -0.4022093885508546, 1.3471699567059074, -0.17892801397889174, -0.2879471059480244, 0.5647079925692698, 0.04869408513557888, 0.16557804624812958, 0.27675309515577023, -1.287041641179391, 1.033602373291199, -0.4606067946569927, 1.7133744244837552, -1.9510225182593905, 1.3042403733972394, -0.5561882166865338, 0.11241931641188299, 1.5266744797270648, -1.076136251362842, -0.2894429399200098, 0.30815801381856006, 0.6814069776781123, 0.45485719499104377, 0.23420581601572335, 0.5520535403544279, 0.11320433745616884, 1.404074107897273, 0.8187837739590675, 0.6360370216813933, -0.1403748047608307, -0.2120067069413457, -2.1744094445523774, -1.6585135242132616, 0.09261527144280998, 2.0177886232659046], [-0.1443707575671044, -0.040579843853664886, 0.27959285302076325, -0.521187253282629, -0.46869411131326233, 0.5269225658692624, 1.4431454672989354, -1.3538437373049557, 1.6124916253921708, -0.7276518013481087, 0.9258881536425031, -0.07283877371766931, 1.2164687256982134, -0.6015082337232791, -0.6683922971781832, 0.6864180894049121, -0.26146062917456697, -1.3087565884217394, 0.5779380162210674, 0.6902754471919165, -1.2996520151516495, -1.61475519979913, 1.4015910388655286, -0.6809476054442251, 1.4134723678812047, -0.12012506363500287, 1.2641219867815192, 1.2931479357469315, 0.19335241966534905, 0.3632667120900306, -0.6570651437211734, -0.29845031835614527, 0.0051445970008728754, 1.0564190970215384, 1.3213344007873171, -0.566692119364377, 0.9200561411150201, -0.2970580935890559, 0.2529225069840431, -1.2226223350614538, 1.5613449593311204, 0.5797918731866885, -0.04519090917851968, 1.1761323722907027, -2.69299338637293, -0.335948743180737, 0.009985589147994616, -0.13338778242584834, -0.7449458315333103, 0.03299309220758634, -1.1866286691946133, -1.9291728219638453, 0.7249159439444189, 0.2668317320896475, 0.7433394922453435, 0.4306980582248739, 1.2204370832667768, 1.3350237069641537, -0.1239517481545071, 0.6575792403185181, -1.0596382753585123, -0.08211519321137324, -2.4513220311790427, -1.288623067639113, 0.36995270621733034, -0.05905238611437566, -1.1301906604147898, 0.7391190158584573, -0.8870732202489617, -1.4879310587961385, 1.015209786990946, 0.3157309093737888, 0.3470414999919483, -0.7337031875281904, 0.6376388132666049, 0.45450999254636787, -0.3415505174128157, 0.2819070974180089, 0.21595304182393105, 0.8628240914269368, 0.17128558140058717, 1.4427871390819103, -0.5242672649402118, -0.010120994818987214, -0.017579496998167188, -0.22423509778602818, -0.992925606739498, -1.2540629777907095, 0.40646204015369536, -0.9249480472629775, -0.09719283428332222, -1.0888917263603726, 1.11603877798051, -0.09647140372914481, 0.5654771704249699, 0.6399012048464547, -2.7483851239418655, -0.28746842301052056, 0.9095509560489788, 1.0464805662858783, -2.111912735035108, 1.044357595685103, 0.6730442631660636, 0.047023673097549665, 1.0489888955359916, 1.3016650420574807, 1.7327288956152243, -0.13636515763543508, -2.1877566425465105, -0.3465229073305864, -0.182990583508413, -0.036511206963557565, -1.0457024027365696, 0.9042508818752091, -0.7527194143146023, -0.760027193220916, -1.1006712740263256, -1.1847977309479119, 0.8986474927543203, -1.9136681202301054, 0.8441395641447446, 0.8639335715722011, 0.08987928604310456, 1.0119579298692567, -0.7436477746385007, 1.4835446490451245, -0.2902536643765008, 1.8285986437683774, -1.146802306054802, -0.7766973795816009, 0.762181757793386, -0.4418064888314464, -1.9730501444411943, 0.2514122276997367, -0.09320181235142322, 0.86101744028347, -0.166390207767328, -0.7590683928141565, 0.5513560739410803, 0.34431498782387154, 0.7400530662170409, -0.002356158508515971, -0.2883711617639113, -0.2575135597426546, 0.03670542229976248, 3.0869868824963085, -2.027546827372807, -0.8488526015232973, 0.20642778312466797, 0.02244489745658234, 2.644510556279741, -0.5444063820194617, -2.6536123907529805, 0.6660377681350461, -0.6012994858341612, 0.8156801972909637, 1.5326376302218478, -0.13964486544699964, -1.4428694906141009, -0.40901199421325946, 1.9822157938356146, -0.031342833302897416, 1.5047782916847725, 0.5928646233086728, -1.2062440460577752, 1.6346738964697354, -0.49377115197985405, 0.5885596401016234, -0.6150324822065208, 1.88059407189164, -0.47056511405253443, -0.11316349501478942, 0.5568630447627511, 0.2407449196344189, -0.8891802793400075, 0.8028269291256241, 0.06330245661000794, 0.49920956756346274, 1.1174454273073045, 0.6228498259612673, 2.0069433652216464, -0.6164840720931568, 0.3680426929451611, -0.5079962975183235, -1.5660522525671137, -1.015869295527214, -1.492761315774364, -1.162542572167886, 0.1777781472996604, 1.4135900471760776, 0.49786105272005854, -0.11132655373071948, 0.6722679008648086, 2.230104513654807, 1.5151440364778508, 0.6554401810082828, -0.02869020377508182, 1.3758054275857987, 0.5708639886020349, 0.5150099616506838, -1.7203819244349772, -0.33897695895811747, -0.5850523747625633, -0.426767585907253, -0.3112552667588667, 0.24929622518699726, -0.3619338825076563, 0.06613136932009658, -0.4569514261251989, 1.3822134233667878, -1.4526513384075708, -1.7178258457614914, -0.28914922710924135, 0.0038441819008320326, -0.5575992443374447, 2.2000205374299577, 0.5130941987654585, -0.6388676550634229, -1.1920874866445033, -1.5532855425812566, -0.5055414559109851, -0.7218792145326639, -1.351615831025743, -0.46052917030802465, 1.9973502546146316, 0.2070382061912541, -3.1343779948630908, 0.061592023673246635, -0.8566920441689192, -0.2425344263922406, 0.5099506468970201, -0.3679096244007641, -0.6764111128577248, 2.0935493896073467, 1.1540760357498114, 1.6521966264531045, 1.8198572088986487, 1.1834496728016637, 1.580657985756748, 0.5164668651303203, -2.3513095427331097, 1.5575174793119795, -0.10604526112117604, 0.28176127039249593, 0.4760776997012467, -0.022773467400968698, 0.3750132198450488, 1.6515340076074112, -2.3507205779393363, -1.6050217105329845, -0.34463281487729264, -0.6483620800450125, 0.8157633749441973, -1.5850820707349804, -0.8391934637293164, 0.44742349117211466, 0.8906221858953006, 0.5470140602334403, -0.4056846065454258, -0.011138873884577821, -0.10175091379172782, 2.0073514256389395, 0.02386209575266771, 0.19000615068117532, 1.5261518295940883, 0.15502171204091958, -0.9387667034267665, -1.2585584293028096, -0.6043848364220423, -1.092637294782153, -1.8405848692735365, -0.9649412765317645, 0.6116005700513741, 0.9011226053222307, 0.7876381085419957, -0.1662818497969177, -1.2798430214421812, 1.1748764085706018, 0.8679431659563853, 0.9858518794578419, 1.0628722636949122, 1.4705225978149858, -0.43095128038900793, -1.8362082794042671, 0.006008615722561322, 0.3245975410738835, 0.3160242355294202, 0.13396657311863003, -0.26181883311624976, -0.9519153956790796, -1.9304833963283448, 0.17286735532396239, 0.7909175162651584, 1.6927938656722372, -1.9404994006227345, 0.4078346888188737, 0.05486304228419471, 0.19049801122848598, 0.8356201505306364, 0.31184018148322884, -1.3317622521474437, 1.5488651499575732, 1.0302659559494793, -0.2955289160182832, -1.153422542741271, 0.28953877146955254, -0.6474468101330487, 0.7207614372683, -1.6574677992384923, 0.43442798748145234, -0.8132499853313757, -2.041777346019366, -0.2501535478128167, -1.3042060395363315, 0.598150326839604, 2.0808830579058393, 0.5091946019648201, -0.589638270687197, -0.7465315135876304, -3.1074432826244878, 1.214409886089285, 0.9058460466872198, 0.5114062443547086, 2.148047223418516, 0.724665972689834, 0.8057902144475426, -0.9957735147980104, 1.0005274165308657, 0.8795663177426816, 0.7571624663841547, -0.4253881190590858, -1.5412740138652168, -0.33672533951417194, -1.8613356360882571, 1.2182759003927983, 1.4199969078942674, -0.7463097056143956, 1.7006598785402407, 0.06537777329160492, -1.1129753206088833, -0.22550078912553914, 0.45406698742287577, -1.3485493900570191, -0.3409994016215632, 0.14545512759401288, -1.6588355403072514, 0.325790646162193, 1.5177192677277693, -0.6012471493428787, 1.092414339819826, 0.7900705101457701, 0.12333369105030768, 0.5992048226016203, -0.12230119383274397, -1.6326587533637882, 2.6161423997836764, -0.5837478682193209, 0.7725654601603145, -1.4672291112325668, -0.9911096817479192, -0.9119459445346986, 0.5583394862703751, 1.2680924800285909, -0.6775512409853477, 0.6493817053210096, 0.8252798371999991, -0.13690302837205554, 1.9951383255471629, -2.10401904150105, -1.282635372014219, -0.5489318074650864, 1.0049387254606494, 0.06754746777618237, 2.1031914666206895, -0.31632655038712715, 0.7672246089250051, -0.9988917632852543, 0.4610782592836342, -1.0707316589738942, 1.7755833578487163, 0.7855425212399763, -0.4445910642591661, -0.49825701130384187, 0.4624361140374017, 0.20491882793749816, -0.5941869437808465, -0.5640904117773576, 0.23818418665891744, 0.6468797135647244, 1.3028508883349816, 0.725100446449167, 0.1994815531880172, -0.6639050093052534, -0.29018650502797194, 1.3262183651891395, 0.09788249575641245, 1.3861255131882353, -0.3063548445098514, 0.845844913374588, -1.5122193884170216, 1.8885753466810813, -0.10289553164222709, 1.08494490318326, -0.14068905790101907, -1.432762889562068, 0.4863659657819191, 1.7927648353224657, 1.2533553264576511, 0.9375403809739269, -0.44721141138383075, 0.5837114174050803, 0.6727056690961867, 0.23520192612125335, -0.8284365311477182, 0.005629518546498093, -0.35897092055879753, 2.861109664275424, -0.9756858900995701, -0.7795473004719714, -1.6677109239383832, -1.0895333706103452, 1.1023647179651548, 0.4180561943588502, -0.8420487640562954, -0.018682371255628986, 1.4771782955708304, -0.8479062989651056, -2.0801583273135082, 0.45786593080392973, 1.3286703737453935, -0.6907751077077131, -0.5267449865413771, 1.27395312288354, -0.9597141976482725, -0.9625533479370046, 0.22382473125896674, -0.5806875355425632, -0.1869505575943062, 0.48551504322586264, 1.5921633382862563, -0.31945451144656056, -1.0034222566934268, -0.9775712201928919, 0.1401312333324733, 1.2847431343700995, 2.142585470925523, 0.529812381409329, 1.1862793279752162, -0.461537838617066, -0.2532771087388753, 1.7144740874637616, -0.38759030231249797, 2.9721104819534023, 0.2364425461782222, -1.567696899378018, -0.6180122077873903, -0.05856295502865446, 1.866924713790086, 0.7085056142424948, 0.4032970306795506, 0.9377423331040757, -0.609828357110159, -0.6383326798307862, -0.25128234633958085, 0.13097825925824474, -0.7661053368032884, -1.6275532935408417, 0.9970529331433668, -1.6655772773085913, 0.6744543847289975, 0.4531329597391725, 1.2232435568413818, -0.32716644023527774, 0.04045332962274455, 0.693423833125967, 0.7040257144497906, -0.008812013163196842, -0.9097148263576614, 1.4585294809842424, -0.19563897298858807, 0.6631341720419915, -0.48107137060480093, -0.9566023497126487, -1.0930390651511517, 0.8662165728453689, -0.3426062902055011, -0.40730806017454263, -0.6277159527438553, -0.8352027402751556, 0.5577168706057296, -0.8217812130400367, -0.6412654524980559, -1.049041363384523, 0.05418915296566974, 0.6825908181392624, 1.3902825101413447, -0.3819958934810707, -1.8614886427308657, -0.4635752180934528, -0.3344434256430419, 1.4389547357175665, 1.1727067273025424, -0.1969506535034629, -0.5883095180105313, -0.28953390965787407, -0.3061992330691781, -0.5199262137817757, 0.6012779251461021, 1.3556333238537595, -0.20435993493105462, -0.5227225720358036, 1.2855952452689656, 0.717241718961467, -1.4662800320644338, 1.6047199329836845, -0.6104996817850851, -0.7712496717247876, -0.6481003101481518, 0.011452159150730475, -0.5322902026553953, 0.7825731035441853, -0.17134529902427176, 1.4360380378573363, -1.3544365813761277, -1.5610860612015507, -0.529173980362516, 3.8391090066806495, 0.6584714716666512, 2.8035325792024937, 1.535060742490311, -0.6630218550293508, 2.191364461772093, 0.1776289534632113, -0.30514684825351657, 0.2359508534819655, -2.638894880343981, 1.4837767118786096, -0.1621630803191266, 1.22661381101705, 0.16001508944323545, -1.6467353199104888, -0.15695951970732802, 1.4451721286936918, 0.17112349732180798, 0.30103504727735403, 1.0406503385785988, 1.246532038428351, 0.6030883537175906, -2.362093081250485, 0.013667657648617458, -0.19618307596944637, 0.8364275996893772, -0.29762534604157376, -0.8622706233858627, 1.1463205334496291, 0.6410369841817468, 0.06854714931874961, -0.38670425875948117, -1.396483525028754, -0.9738293810493358, -0.5312000091129314, -1.093545154463427, 1.7463562986826051, 1.9490435653856073, 0.3917662620031019, 1.132073045528034, 0.64077700853559, 0.08276115640415306, 0.8705353478355569, 1.664412318722989, -1.3006483584090824, -1.173281202490447, 1.254869040986511, 1.2982287987176848, 0.8959671350697308, -3.008128110607412, 0.25203268294489256, 1.125277018732094, 0.9851022885187376, -0.4968627130691195, -0.35896796303644596, 0.3461731413843092, 1.3786040511971098, -0.13492145240154368, -1.2865825777749749, -0.17915036511593316, 1.6010981023214859, 1.6376528488036162, 0.5986254234497909, 1.6302694762844008, -0.5903247349384063, -1.8683582923677513, -0.10060556244289613, 0.5862862991319016, -1.563355167401359, -1.8399259590076533, -1.3584548460303905, 0.8430440301487292, 0.14041217045597754, 0.61758286876959, -1.4102839419374338, 1.9337067757282551, -0.4132479686578913, -0.2854979561255001, -0.39614443888612394, -1.4811847344867564, 1.5527905091657284, -0.7560827060214736, 0.7450543257551974, 0.5773346373919146, -0.6756391742120844, 0.3137782738406328, 0.5334744025693967, -0.09639994566957362, 0.7583787972627533, 0.1921625951164569, -0.11476263618370813, -0.059757251778259676, 1.2530014341428588, 1.2286065732377625, 1.462733844508189, 1.0211441648919832, -0.5825382910711595, 0.6518146529652966, 1.6126070750201849, -1.5956720282540207, -0.09834813010339283, 0.524982264949929, 0.3953328930154928, -0.4049099662100043, 0.0010551071340476406, 0.688238665046968, 0.3927826643393533, 0.3669091657506365, 0.07130595946071637, -0.5220606407642179, 1.4297965405668223, -0.2256697603907231, -0.019244529671363007, -0.533519082783929, -0.5414750799484824, -0.22299667037013868, 1.48924964213485, -0.7495817235982732, -0.610221930104673, 0.14898275335500488, 0.08273323743765883, -0.5458082987047449, 0.2979488723686542, -0.7926974420369012, -0.5083087108948006, 0.2383428321822536, 0.5049147080412477, 1.0457905178032372, 0.767495319824162, -0.2505137604975853, 0.1089325848812293, 1.2325576078555247, -1.1392437465443253, -0.7986809835774278, -0.5345246173752819, -0.05459587293536203, -0.3892904053821889, -1.819030267328762, -0.03182791283460427, -0.028358634088357332, -0.6516387418052634, 1.221218430416947, 0.5497278630675252, -1.1932920207475293, 1.542931209657882, 0.6543120074302725, -0.9572890761173266, 0.2840674808170094, 1.331129859954645, -0.6416179040128681, 0.6341313549891822, 0.3785020290289728, -0.7690917555818823, 0.3649250257109929, -1.162504754768262, -1.1004254337261266, -0.01001855963133691, -0.18592862096149473, 1.0987322354083482, 0.7827651049512255, 0.008670869107664816, 1.590881593910673, 1.399990009399618, 0.16141412962323082, -2.9341509402004595, -0.2892828246111546, 1.0509973098375627, -0.6650894049858442, 0.904248145064581, 1.2525141842265848, 0.15461685025364752, 0.18931698593071872, -1.2127757825577357, -0.07993300012627971, -0.9480408779147582, -0.757396710301047, -0.7616836688401111, -0.025582116605266863, 0.047374691984643814, -0.6596729534486571, 1.0378950338050283, -0.38553714364563546, 0.22001046973845206, -1.4882076361014418, 0.06750540724726378, -1.0646172572806356, -0.2942637439956039, 0.6554392362589678, -0.7137727852019135, 0.002842538855984428, -0.1773832862574385, -0.23704416567569275, -1.9227413537789244, -1.7851944715595935, -1.6678622789817454, 0.5020814277939375, -1.1415071975124473, 1.2033650499166757, -0.040774383984188284, -1.103074713359576, -1.6706963530925627, 0.08674795922301207, 0.8382763427531488, -0.30201992871684824, -0.8381623398015321, 1.2918822560154697, -0.24473810492978607, -1.8397979215765965, 0.8926558365701864, 0.045754190971939966, -1.2202788241364122, -1.0976929990260083, 0.9330755132738167, 0.496023853143416, -0.7060774285434883, -0.9680679038903228, 0.45330141462392415, -0.5568404571364295, -0.5145814077750404, -0.4661628012385869, 0.30597518765434967, 0.24759286079661533, -1.0263413073838115, -0.7385865251525419, 2.2040545745267814, 0.70848197563752, -0.052183050120619946, 0.00294431911604116, 0.591160196284118, 1.170663841194736, -0.5421360720601516, 0.35029483983598025, 0.2700855328439129, -1.2327447232188022, 0.8029722485938884, 1.8681685651820432, -1.422423724705143, -0.9163679545705621, 0.36260410265485765, 0.5803252620397412, 0.7274919276674565, -0.6243347662949352, 0.19937152525920754, 1.3118298910477755, -0.3748002914963009, -1.7218857986333984, -0.7787276985367007, 0.5307259588120095, -1.2585971692046847, 1.6156688888977326, 0.7578059006559517, -1.7398738033858245, -0.701302651727931, -1.1568923925542005, -1.3986508864140124, 0.4709633888934588, 0.8160387822850078, -1.3598900752649237, -0.9281545002280466, 1.0923837413899693, 0.1194082845820528, -1.7567420909640592, -0.6006437083011078, -1.1346799343398315, 0.769970140758904, 0.30174533003396736, -1.6597962115888376, -0.019410292518535873, -0.43575844174033757, 0.4052932882458941, 0.34280586091186693, -0.29497495431392534, 1.5027691666617908, 0.28271950228397, 0.493722900330515, 0.5957993599057125, 0.06261226071647519, 0.3203402715829933, -0.46109440187722184, 0.7864089309999674, -0.8752420801260362, -0.332795808718356, 0.6174235722499528, 0.4285993476459962, 0.5641686668662519, 0.8895944410402402, -0.921131290819259, -0.12260117190434348, -0.9600457430152711, 0.7742642160637779, 0.948718019426545, 0.13508057503043133, -0.4337348360179239, -0.2707115792965096, 0.4416911116520123, -0.581618368786057, 1.5963656950907028, 0.5124219877125732, -0.6030451786390711, -0.21809512559919764, -0.745861492201217, 0.09709871301732889, 0.7516222248071991, -0.4421972482356645, 0.024259079346656068, -0.7499259035724772, -2.1592813115568488, 0.6778397976832525, -0.6543247230200447, 0.027535676699330137, -1.588974324312007, 0.24611156956550354, -3.3104481962841317, 0.4078941553156413, -1.2674536231014186, 1.8146536859373215, -0.007652430126036069, -0.19969764797836131, -0.6794333752347366, 1.3340633543342857, -0.41472920823764003, -0.35351694068224904, 1.0819426024962626, 0.004368167030856849, 0.15310728673127796, -0.6227964988723786, -1.396765723978358, 0.2996428809974595, -1.3825065083124621, 0.04875183971324387, 0.14119613206180615, -1.3227092124987683, 0.09660875208422166, 0.7121332470567315, -0.41979984969267214, -1.7845613644783218, -0.21166266016252988, -0.36255915362598623, -0.8715936656216065, 0.4821262416657946, 0.1061475089292909, 1.0491787968904247, -2.410461698389008, 0.043199806144890746, 0.8521420547415719, -0.4203178826593062, -0.7554647528120848, 0.48968682656779333, 0.44715723308865246, 1.486315226241579, -0.1453901053583708, -0.6701214442151882, -0.2954442247681847, 0.20400626247406226, -1.6239030368903973, 1.1359770026478007, -1.6963926675856138, 0.5981503391846821, 1.3002345907455437, -0.6844657446271659, 0.8309901751294607, -0.39556692108155556, -0.1438011155524444, 1.410801090200171, 0.713978559827795, -0.7755792396360855, 0.19657279396951866, -0.43719319874072293, -0.1796414231176364, -0.9059952078869336, 0.425432421298439, -1.4881140764960177, -0.04249996676508001, 0.32781177971844105, 0.6573134836180792, 0.05448281216278536, 2.085438402461357, -0.2668414741329418, -0.5714476682420491, 1.417718034969103, -0.185681832945316, -0.7032385279248845, -0.8190804827979877, -0.11152991370399247, -0.3834557410137721, 0.3441173297889111, -0.8364919963782892, 1.1957588771871024, 0.49785664630104837, -1.639141023508126, 1.1452479954144275, -0.3501206832632112, -0.7279269793273421, 0.11835019454179058, -0.6426760386848432, -1.494597783589708, -0.5414088602283084, 0.19008447070315967, 0.7814142992369001, 1.237178203022966, -0.8395171320386697, 1.2303747310262225, 0.014134525735800539, 0.4520547917887845, 1.4020498254037776, 0.800279476323345, -0.6154053696976731, 0.2996221859039139, 0.11192624887313797, -1.2694050212435435, -0.009351651682530774, -0.6973937696365617, -0.48326654478004416, 1.6475051044755251, -1.4337170471078893, 1.071684626086897, 0.015799843482202487, -0.2687128257922462, 0.7687960356055443, -1.8013305690951096, -0.6581016247692106, -0.4930200370797726, 0.14054909509982907, 0.3043414070066741, -0.5369205460565578, -0.29903891239306923, 1.689758106822414, -1.761930130472097, -0.8188894732763308, 0.511160918277923, 0.13686164773448126, -1.3657878124484901, 1.444256606058768, 0.6955447564796781, 0.14186662215098228, -1.7923100860555627, 0.7323681399073455, 0.5223778479347855, 0.5390612368934713, -1.214972329264607, 0.2865337990483753, -0.8661210140442231, 1.2856108483116702, 1.2781664783134468, -0.09332557153473188, -0.4037264139961684, 1.110909316206409, 2.317489952456999, 0.44270257988971395, 0.72687886113369, 0.9569474115741234, 0.7098869258744384, -0.23407592574330666, 1.0114508576813537, 0.33641353269142077, 0.3766639550177666, -1.4511102649371286, -0.8617194145816233, 2.1450945829172774, -1.4160624897742093, 1.0674223775541376, 1.2377089280710556, 0.5376833926065999, -0.9242011785018192, 0.5955937854832896, 1.6160550164832646, -1.0093493920393242, 0.24670618860076085, 1.0847383192372866, -1.1695052166260813, -0.715264759263186, 1.3595111086270255, 0.1280105061679225, -0.05582805151944195, 0.3488808508724564, 0.22448857964778052, 0.9138694427130448, -0.8566955196569329, -2.291394108711476, -0.33298239676862246, 0.14407478406564764, 1.8645787232895277, -0.0950415190575917, 0.32386037007895574, 0.6060627851935352, 0.12169685920632145, -0.6824282666111325, 0.07841106649342952, 1.441904688780341, 0.4312064499460813, -1.1561904219234587, -0.5013990056381048, 1.4769328573000238, -1.2808934677696004, 0.17938005356731496, 2.541852603470191, 1.2018246357580291, -1.0001315323961484, 0.5265549246371566, -0.47726188970907313, 0.8297837981369975, -0.4783093303097878, -0.4159391631703912, -0.8567685702242565, 0.26310388323976613, -0.8318090470082403, -0.09033767707829157, 0.5745716070705085, 0.18131874749190172, -1.3227980893383229, -0.30074549692418157, -0.33181031199080957, 0.8996550892193877, 0.5553846591047557, 0.4969534826070389, 0.5403940481043457, -1.488473961710648, 1.51274766568421, 1.734371911105577, -0.007036306132921322, 0.7755534962103564, 0.6919926745185441, -0.25939437052783754, -0.11752169835208637, 0.45108431664898135, -0.2238462900924853, 0.8292800994405083, 0.11889035206969811, -0.4922447222128961, -0.3183425168248197, 0.34496862154442354, -0.37946751039181925, -2.0326369864067946, -1.0478260924168323, -0.20217143305952884, -0.9340507202756134, 0.6099593838680342, 2.041172935220713, -0.013952212854479784, -1.3485531949395344, -0.1953079900128856, 1.2846560190429446, -1.5036969860309635, -1.0765031324171954, 1.9383813295237526, 2.075869855569615, 0.5386987454666393, -1.766991367558941, -0.20986695428274554, -1.1323900825417936, -0.3762121696927086, 0.09640769740486121, 0.6299957304273048, -0.3892397975747396, 0.8069512756285631, -0.44737882380635874, 1.8072829870696878, -1.4638562325939464, 0.5847619416571954, -1.8935741372645034, 0.4006552324231086, 0.16204696897106843, -0.6842566946101627, -0.9208409512081102, 1.2327708208775683, -0.36594020322771426, 0.24101829275747944, 1.4159715146868153, 0.8569986223753626, 0.9178450114195911, -1.1631502892980599, -1.5167134187826465, 1.076861307004312, -0.1285723924515221, -1.025510560316237, 1.2877456787639787, 1.2373760430152423, -0.4829020902337731, -0.21640429294225288, 2.682665551406177, 1.1116229530076192, 1.1402976512735337, 1.1526712977294575, -0.5813016761261892, -1.0101558880437806, 1.438084578325456, 0.15340365798784994, 0.26914050464035594, 0.6519011674555147, 0.38589449294887984, 0.8060315674046818, -0.22577238867629734, -1.6725561924068688, 1.2299736637643566, 0.17677635821428264, -0.02414659944028978, 0.06919350164953862, -0.8168045051109089, -0.9691746090651909, -0.6643447969641466, 2.344143030186132, 1.7947846328139734, 1.4398710304749394, -3.144236959325766, -1.2952444915837595, -0.30512309904106233, 0.18207411684357327, 0.22642758270948454, -1.6815938181813577, -0.2751990178824778, -0.34064699348404287, -0.5449413500459467, 0.34502486383856784, -1.4285533552274683, -0.7913139928292204, 1.2575229917311304, 0.37201102439044814, -2.116554962783291, -0.35004009931945934, 0.4018830976954899, 1.1079655248439777, -0.3390902022050771, 0.9538382057373362, 0.6371075350896103, -1.240424876482189, 0.27015570687207147, 0.2639505294799722, -1.1689886816278092, 2.134335769430762, -0.43408724501346596, 1.0421531091074034, -0.5446457526880991, 0.5597073770504727, -0.6604792747274665, 1.0801822348095829, 0.24143818372969494, -1.1932430280377246, 0.8918703533259886, 0.25513369738520114, 0.2143664921478282, 1.4153488828747363, -1.909652799788064, 1.608215377792105, -1.0039091536054428, 0.015140164029161619, 0.031373145021718785, -0.5164545530499355, -1.2067112471470325, -0.9789274033323612, -0.6957365323895729, 1.184147838734503, -0.9588724302449912, -0.9803882512583446, -1.0349720432838272, -0.4076830437731406, -1.576158446096219, -0.1898882931957183, 0.24489956929977313, 0.6244800694422175, -0.01848811813946174, -0.6784495814238537, -0.8050972241280385, 0.18452946183246033, 1.3410351049567337, -1.769732012239733, -1.367024511206103, 1.0017726435741556, 2.2594377258152654, -0.00463810515855571, 0.39356312825395806, 0.5058042582374142, 0.6883688551894428, 0.5636187730306926, -0.9177287281975429], [0.47274037569799754, -1.1976697621703003, 0.2163599809718161, 1.8746811297388972, -1.0064198437147414, -2.0169977215478196, 0.33730567994671695, 0.17182915084911485, -0.45999980601399665, -0.1576495957765139, 1.6066138787976176, -0.3405951146303423, -0.3060826723766356, -0.047813516725366205, -0.0097556784181907, -0.9856814005246914, 1.2809965227825926, -1.4050772584262825, -0.8240359267898976, -1.5970204435245317, 1.2461787853436237, 0.4441847013437203, -0.25976415967830646, 1.5212619753267376, -0.22964715934148314, -0.79569120977894, -0.6308537201410329, 1.221499443134661, -0.190264440881944, -1.775812882751575, 0.2583167974147088, -1.1355237752244303, 0.8101593819213014, -1.223768206341153, 2.23046320867932, -0.977467425540311, 1.2105962911323411, 1.1325147055288916, 1.1396705283546886, -0.27157288584906014, 0.3004059345233049, -0.9088348378681026, -0.1995621520217622, -0.4397631597236314, -1.618340219445067, -0.556872952429663, -1.0924140931917654, 0.4451947774827776, -1.1219631184990095, 1.4201678664728583, 1.0322260674706893, 0.12903676609944834, 3.0099122423627045, 0.33496581058163644, -0.4781946616691716, 0.6546068699434122, 1.2585576043714206, -0.5043674851915911, 0.27242508078991007, -0.3362471690266195, 0.596630349070943, -0.5421687145336501, 0.9141523980605992, -0.266920618270251, 0.5093039180960242, -0.41779097662953774, -0.35465700441166836, -0.9358130794003203, 1.6911478384759104, -0.0036778828090297225, 1.4880826322704253, 1.1594134800567955, -1.0031196866288383, -1.208379275513019, 0.1683495573020961, 1.0808551982009311, 1.3651895660906301, 0.9617818877367921, -1.4882352317532512, -0.4536757071230041, -0.19964156925482943, -1.6539520258653448, 1.5561744461235905, 0.5040480399987484, 0.2591587963626815, -0.6612753371412462, -0.1543933085737475, -0.7415007568129278, -1.1737411958383974, -0.1601369846125417, 1.3136205212033134, -0.8651476621354176, -1.50147661678285, 0.46682011299482123, 1.2588359754295544, 1.2664333924422544, -0.45593520761322237, 0.6299987999092423, -0.8565038448764805, 0.31015876906608986, 1.2224216471924363, -1.9814215335961092, 0.3450843232537196, -0.46272539683555397, -1.1439865589372413, 1.7832925102370747, -0.9937890539909667, 2.782476420989936, -1.1822512321420553, 0.7732888374382486, -1.5924281168158365, -0.013658968005119173, 1.1476835870770428, 0.38969373429533155, 0.16430781647652276, -0.598340551851752, -0.6298116264984058, 1.0207195539817622, 0.3453017021732781, -0.027397438686743218, -0.2942130818845214, -0.39904653387119116, 1.0511938396150682, 0.5661363518282625, 0.4329540593088297, -0.4156432088004646, -0.4983422929933908, -1.247081502253607, -1.1225011974703907, -2.2467586538322415, 0.49352296492869024, 0.1735368555654785, -0.4670745696930529, -0.6682744942776206, 0.7222740583621907, -0.4600822266547372, -1.2520754302074655, 0.9653184451998523, -0.312738640951627, -0.0041947482544457204, -0.5053822782980382, 0.4082906653543218, -2.476403321543964, 0.025583875296095494, -0.32701077802370004, 0.7368127803790502, 0.5709550581342131, -0.3695768203816969, -0.20784751619624436, -0.12391000829242049, -0.3105965025188366, 0.4974103671390632, 0.48099081468515836, -1.264015497694653, -0.2014397880613065, -0.16411217509429088, -0.5787422719137362, 1.381457670523969, -1.9099753651976423, 0.009775951853156384, -0.46649306123269596, -1.0073895042829164, 0.7086737012787544, -0.7270049139764886, -1.4605338114888256, 0.8191791316574677, 1.2513856036877182, -0.658931235254976, -0.4275382382854287, 1.305797021042707, 0.30113368711746563, -1.259992413347276, 0.6758115457341957, -0.5153233766990926, 0.39433539502527015, 1.1450084922230794, -0.15564222917818, -0.47979513896530607, 0.24217131685531834, 1.0075559152137483, 2.276021838602949, 0.5867316156030655, -0.9725259082292467, 0.20676369102294714, 0.3952981171691784, 0.1404435480893917, 0.418822762220152, -0.6095239507779389, 0.2397401173185117, 1.1342551502219342, 0.019656346816931947, 0.691600473896882, -0.20029103426130085, -0.3663546494842529, 1.1324227513981586, -0.05762109601196102, 0.6118139007533603, 1.4349144973926595, -0.17936653880589123, 0.5026188955516618, 0.6240052137422184, -0.5965151516191805, 1.2959630885457651, -0.4573922952388738, -0.16335275531140742, -0.052023573494070725, 0.5407830479872613, -0.17861758438310002, -0.22611269668786652, -0.3714207983690503, 1.7577391279889947, -0.21021947523424592, 0.24381612706751557, -1.041930809357316, 1.4312052273888007, 0.6706431873902285, -1.5102510025946891, 0.7382105297579699, 1.1810304793162514, -0.6420299392684444, -0.643422804224192, 1.9846671728730096, -0.33665267204244304, -0.34746854978724345, 1.126982854493923, 0.4852874527373941, 1.2908176755564313, -0.11669775660109825, 2.061581470175832, -0.7622381820713097, 0.3440310511482105, -0.48832809037003644, -0.7650360068647956, -0.9810179022729169, 0.03830586291393245, -0.7615875577211897, 0.10150302019469343, 1.832669328103225, 0.4803190432051764, 0.36625226903517566, -1.9343109157224117, 0.057219952911250434, 1.6854572894721414, 0.40915618178531443, -0.17737634197504765, 0.3074763165029558, 0.5251931638363005, -0.9284738191072461, -0.3603379212149884, 0.4207237110263005, 0.07838023629517141, 1.679575147787583, 0.0582527872729175, 0.052465501435358525, 0.35728802036487656, 0.5173659859525553, -0.9929200833457927, -0.4851406443260934, 1.2678744307596164, 0.14931655608104344, 0.39540498527625406, -1.2102559213800763, -0.035140812335665766, -0.11699380932774418, 0.6730497130505098, -0.7645336738914409, -0.6914701152596144, 0.6256645066414549, 0.7632241214690281, 0.9728645956953034, -0.8747293949251502, -1.4790982248384594, -0.5830506027247846, 0.07394221059525684, 1.2285924669252593, -0.1727548815129811, 1.7742174997338513, 0.8262647664962901, -1.182499657705566, -0.8912545707001523, -0.8810652477065799, 1.4196141205109594, -0.8958672626176182, 2.311532166901812, 0.8148993672366198, -0.32284116463023066, 1.2246834823327888, 0.9773566713824514, -0.38903539321304625, 1.3016657754635532, 0.39154139070308885, 1.1166292761552303, 0.4933486222282918, -1.6025578237416724, 1.0652241364587736, 0.30649155917844384, -0.42346719366484337, 0.8258044217722795, 0.6423335689187015, -0.5078076333048915, -0.14346154578798534, -1.0514636681835794, -0.24450091594295953, -1.104013515415327, 0.1405795780169984, 0.747283195431621, -1.3898033718914824, -0.6222972314855976, -0.10302708319322955, -0.8705748881265081, -1.4180525539843987, 0.21450671023735396, 1.4946342830859038, -0.5116992695708598, -0.844262679667781, 0.045395393790300886, 1.259082734745853, -0.3343424696196067, 0.7725404915130576, 0.15029989150261314, -0.1439561466497242, 0.5792009719467257, 0.7907617890579108, -1.5724674170355275, 1.5817823680060838, -0.1657503956173668, 0.22402198092371317, -0.7577604893726714, -0.9029472884246723, 0.38681880298429344, 1.102483188018297, 1.7120029961971752, -1.4613037463049279, -0.9483843276197375, 1.5604586687814128, 0.5589172417148317, -1.1900204111326804, -0.6055609783315254, -0.158605878193992, 0.3097554798798311, -2.5871899819843645, -2.7436318145885332, 1.1904697616556374, -0.2809689511108289, 0.2204197928885931, 0.6839623837052762, -0.02112244561567034, 0.31626210145053335, -0.5595906412981749, 0.9945216483550682, 0.20400520260657903, -1.7454096685892366, -1.4715232199099875, -1.2971334823397607, 1.0303697116599417, -1.0198588794165495, 0.7452110303999893, 0.507852018349764, 0.047535125693878744, 0.31772232224591934, 0.7414157508391837, -1.4026414198449926, 0.40604104506721916, 0.9593607872935972, -1.3854214485877512, -0.1809453336871084, -1.2572492830436102, -0.3901204233543371, -0.19733409941483507, -1.1932439889345416, -0.4862221527672946, 0.45810590608267643, -0.5064062892906439, 0.7325305800986611, 0.925978449434636, 1.1021210234481231, -1.42950854859537, 1.6775748463694307, -1.9621769700389393, 0.11336162077204075, 1.6802962259028504, 0.7842436930472565, -0.2168414537405413, -0.10075364704441127, 0.9087441374468149, 0.04603105090642426, 0.8602743896183536, 0.3738569013476133, -0.9769041072646266, -0.4548663827520589, -0.8135237190436015, 0.6035091732948525, -0.0603752922792858, 0.4786406480061958, 2.3086807545230017, -0.5354949656014943, -0.023731851984257254, -0.3957778606322169, 0.9405846747159666, 0.47089681896353036, 1.5689586719745559, 0.024726101782078878, -2.0204746985814426, -0.2865761736880188, 0.3503711260756432, 1.3033564341728416, -1.568424598203346, 0.5482163701731783, 0.07767685323440729, 1.1718678245147158, -0.6533886772295084, 1.6447566012577006, 0.04065480565885673, -1.3147109889162905, -0.3296318902888881, -0.3828091130466546, 2.016875938103068, 0.028957615325506218, -0.016995492967580867, -1.0603613673778929, 0.14064582637277526, -2.920453615044824, -1.7058140063639222, 0.3346254617021889, 1.508517979163333, -0.41727739846216705, 0.6700307918621905, 0.9909975303054284, -1.5776010653300534, 1.0233336673028763, 0.38304691911342553, -0.6125757820794508, 0.26585412035848005, -0.23593699102898066, 1.6073240502521078, 1.030116043640895, -0.3388092467424041, 0.792038967196029, 0.9745457749586017, 0.3567134376905701, 0.6516600036994022, -0.5925350830800081, -1.2321117493813527, 2.125993627821425, 0.7125174516799063, -1.90124253779576, -0.6148091950505593, 1.5971026015676055, 1.4808444442869655, -0.0400156132256023, -0.04805434975258982, 0.29669953651626585, 0.0761780174101827, 0.3988561879769624, 0.7525377345233772, -2.1077675945294763, -0.15847403710339705, 0.37034692177094386, 1.1306664161645612, -0.40204662288936743, 0.09915936997845451, 0.47025267064646215, -0.4623407612021726, -0.6129913026612382, 2.419393549076607, -0.21505556089254013, 0.5837989265696013, 1.09086941040042, -1.0785096631969109, -0.29492659166744384, -1.4505718024625276, 0.36827076374584006, -0.5524661907266601, 0.764599249168024, -0.17270829140178137, -0.6343634996726065, 0.01040178930249212, 1.664045288900465, -0.655448432455336, -1.4545044211201865, 0.6263993436892396, -0.8687118583692702, -0.23742354589307146, -0.2806847549428628, 1.7921892338167018, -0.6742095944007368, -0.07086640860524338, -0.8933636445235754, 0.036928136799448556, 1.2843397461218247, -0.7890272519073533, 0.7421402038797317, 1.3321824405469946, -0.4557653177216196, 0.5937067255559212, -0.5643218567616152, 0.7205740545814637, -1.6540305513972473, -0.2586158120259679, 1.0194858274815353, 0.0017844051906701019, -0.4363976425252646, 1.3439421255221882, 1.0647404931052586, -0.623673418290818, 1.3091180120728387, -1.3546483551268924, -0.0028879298357328913, -0.04841606854642014, -0.9257350423500847, -0.5114010860825604, -0.1364788164668646, 0.7674911113827281, -0.010278489358375477, 2.3453330702882296, -0.9033420017162426, 1.364022034878678, 1.1937869300583106, 2.6576257079731715, 0.515618358095839, 1.419067120412853, -0.16969466577305486, -1.1302558504297722, 0.44799637381049967, 0.4515470171590247, 1.4489061609117946, -1.463890450691753, -0.4095077156989673, -1.1698519289573306, 0.6917081802425256, -0.5566805982845252, 0.5541699020365621, 1.7882515692844991, -0.2101485543988905, -1.654324396591353, 1.122301737222133, -1.0378216567689342, 1.4593101861221727, 0.09215114433787672, 0.5384280741778606, -0.7481577365847939, -1.7026143330522157, 0.21998862556925355, -0.8030832779980411, -0.9589942663354404, -0.15732132618889216, 1.6629466335259298, -0.7708473187820996, -1.4006643471509237, 2.2007460193765116, 1.0280149452080316, -1.4295333442491869, 0.298100699747021, 1.0597071063806065, -0.6416521183099958, 0.388158562889516, 0.09497237440432582, 0.39226447576656004, 0.6339139623938393, -1.066138694352563, -0.4905761645608209, -0.9764950713563437, 1.7296893582448147, 0.055894488609188143, -0.842055758504401, 1.3003908193039149, 1.6687216906171414, 0.3273327939882749, -0.1282659492545013, 0.5023793225890346, -0.636980181778783, -1.6351247481226499, 0.4406451357880987, -0.29135453149258045, -0.5641658818626907, 2.0057506164030925, 0.012628740305893137, -0.324034518149594, -0.0025213702134266316, 0.897307046532414, -0.4738331414420561, 1.9177130434164877, 0.7763556907951937, -1.056842255587847, -1.109473766812278, 1.0543060317258008, 1.3073962820861915, 0.7827746717380584, -0.48352327282863233, -0.06198397904288718, -0.8540413578498219, -1.5796070002337876, 1.5142577818645802, -0.04675953258688705, 0.30566350034907486, -0.07680502531477756, 0.43033828842067734, 0.19526414290365413, -0.015353715872811709, -0.515393257647972, 1.059715867077338, 0.30617380996885396, -0.9373028528538827, 0.5909468409661485, 1.668062783871872, -0.9389978880686012, 0.07688150894920223, 0.5307116878525243, -0.1643830406542774, -0.01526016208033667, 0.8695794474007807, 0.7839659549793537, 0.32077083582924176, -1.7767591300828958, 1.4759201878062254, 0.9386210529478897, -0.8750250843745716, -0.458216803668224, -2.2511616332263475, 0.9875660643531313, 0.22563497006302158, 0.8852521082213662, -1.0915106775909127, 0.9464191841225427, 0.5392303165607764, -0.5314769465198327, 0.5492666053038797, -0.5671931209375731, -0.3945852717983731, 1.5571186080471615, 1.65553981928822, -2.472271166612763, -0.7236982103274879, 0.7786677123514686, 0.6796997689225056, 0.6410718935168457, -1.8967071530758766, -0.5979048246326836, -0.5294285147028215, 0.9007086769563678, -1.1350031756539014, -1.099551308457518, 0.3176524581493234, 0.6166514591142972, -0.35661525037308356, 0.7282517264869117, 2.596022505072026, -0.2558135787095198, 0.20561386268708567, -1.1903890183573669, 0.13777483003469396, -0.5530844118481706, 0.7126917831186342, -0.5246561485434055, 0.018320872215019247, -1.4069009833313229, 0.9041310266884975, 0.4592450907099943, -0.7791581264335262, 0.29167210713502617, 0.4255861978292081, -1.0829231160115027, -0.3915914276275983, 1.925364297613768, -1.0714843407367105, 0.8298312345153146, -1.2762914989261325, 0.40149228097320583, 1.3120490440453902, 1.9269763396013633, -0.003404965293500213, 0.6767003129117786, 0.28185854183547865, 1.1541452923247242, 0.725679868439423, 0.9400838667667586, 0.24060302951992474, 0.04018701702395832, 0.29418837048311147, -0.049358149314170575, -0.7056154749733194, 0.7291549370999565, -0.7249538326469873, -0.9258934877291137, 0.8332653394088545, 0.18070481190750765, -0.9942483668640919, 1.3098980720368447, 0.24730363235985042, -0.44994470631379696, 0.03403967406922502, -0.6147328881993722, -0.5898959532944877, 0.9843375391621084, 0.9825841150594474, -2.2203070297178953, 0.3365637572620593, 2.216834618336998, -0.8432763773044981, 0.5697970568078262, -0.03831544851561805, 0.20809381455019615, -1.4186979423217954, 3.0066243012122755, 0.5988584245014421, 0.5889008104312435, -2.2624408658028097, -0.03309702141822843, 0.020453665611126645, -0.2530000667216166, 1.6678587672279859, 0.259446057647957, -0.05324758134430287, -0.038110789607270504, 1.3577965134725667, 0.676042582764289, -1.3517309193026668, 0.7190021925423021, -0.04606331290513694, 0.5972863951406484, 0.42298071279613775, -0.9165645596721272, 0.9591638156669643, 1.7213929153848337, 0.8299637754075686, 0.9721051253442392, 0.6599454633546005, -0.27166279943837557, -0.8183678689598294, 0.47774119404268744, 0.8777453926435221, 2.229669601692598, 0.42125485218105563, 1.3836381929694503, -1.7512805345368572, -0.02883614442602611, 0.9687036006421789, -0.7463152364858813, -0.3999768873084292, 1.0183485254100606, -1.0280851871502397, -1.231487124495214, 1.3132776976510703, -0.0191107350402212, 0.1970762655199469, -0.838383132291741, 0.02878023529554107, 0.012366997712082326, 0.5944923321459402, 0.37856054833109787, -0.2561476792862716, 1.0395315961974925, 0.7679068993751625, -0.7870417122394128, 1.0023801229771425, -1.4287384996601364, -0.12473965553889722, -0.14071130585388733, -0.40292848102363193, -1.0858217805193098, -1.234016332884726, -1.6525802051044616, -0.9347883207502163, -0.34841571460116355, -0.21687162657986997, 2.1058716725727513, 2.4621718765013014, 1.4817495890617598, -3.3827771232314, -0.7552680818838288, 1.4505686454578568, 2.7858456161780807, 1.0007503433133027, 0.08002701558517315, -0.3884115104665716, 0.42257470552004267, -2.112737787793518, 0.8846194864331418, -1.4498453364239179, 1.58655991473824, 1.7121716005242629, 0.7740581648608417, -2.1611281144949124, 0.24225136925927168, -0.47477860124800436, -0.06730291882032621, 0.26941553247763594, -0.810120299375746, 1.4841430507946705, -0.8747718684255056, -0.73055725688296, 1.511829965024603, 1.3721042885041446, -0.4274344305346015, 0.6688704740110705, 0.8008291144016134, -0.40195478027914266, -0.3409650129604386, -0.7624484619087666, 1.092022645287296, -0.6964952931486248, -0.08794729769130796, -0.8755712110762675, -0.2451439183238646, -0.36154888252940404, 0.34846963381914026, -0.4160112269599527, -1.0759564721519863, 0.16417340944307715, -0.8178796044063713, 0.5818987853783578, -0.0013107863079208136, 0.06410867802774096, 0.4086205782632111, -0.8245173385406815, 2.0629838889861034, 0.706387932043582, -0.8910833401880106, -0.596817997368582, -1.6167782635233336, -0.8364091435344725, 1.1112207753531962, 1.0284129758351928, 0.7269147635872951, -0.42569467460150184, -0.6481014807875017, 0.6576675251517385, -0.42200848987702094, -0.11357560808339728, -0.838964788635644, 0.3736248883205859, -0.2674996138337044, -0.7406711668005947, 0.585514021550953, -0.9364583539669109, 3.0561233126648473, 0.1334774000905888, -1.5718345158399258, -0.7242043294403463, -0.7733218607218252, 0.9213495083638283, 1.0378542317233392, -0.26490622122669805, 0.004678794078927367, 0.5240621371666693, 0.671323658142955, -0.8907610794346982, -1.2324066671053835, -0.23227750421396745, 0.609900512674041, -0.06758819522284656, -0.8657257584734833, -1.320065201004607, 0.20629273633937528, 0.3645995718994022, 1.1927159232599884, 0.9003929422508038, -0.1428134194829431, -0.5902015223199345, 1.4783948161946192, 0.13226410571871566, -0.07879245850276066, 0.9574977803714736, 1.1386913838128778, -0.03626511017035304, 0.2971101431471733, -0.6406288005033784, -0.5881531293277603, -0.24389370034140445, -0.7197933755622371, 0.3090093267858779, 0.8374990019263701, 0.9021761691249742, 0.5007454950824027, 0.27851260986239107, 0.5389575631175615, 0.23604127677360703, -0.7683234121516767, -0.7221442376479281, 0.5414908556891281, -0.4965755724101382, -0.8052338403614299, 0.8363499592951906, 0.47965936832563777, -3.1314002557573866, -1.4566583348039246, -0.3123719714958767, 0.09797253306540123, 1.550401741506077, -1.251417755613484, -0.34093720674808575, 0.7874227362982796, -0.23606775541972946, -0.38585177379595625, -0.5158648119859925, -0.21464293668662102, -0.76221843263227, 0.731075577253394, -0.7462417786565481, 0.3964483656253585, 0.7251774327790547, 0.12032393744833843, 0.25850389408168944, 1.1204044248751481, 2.330063238305322, -1.5913735741221755, -1.0270730304714544, 2.1289119963755554, 1.2662487781682734, 1.5988096757435093, -1.05350940119829, 0.508753551066884, 1.01321966128239, 1.323639868602839, -0.9870478326909446, 0.675371135235109, 2.4742049989852704, 2.408488111164095, -0.21289396193072427, 0.22032587406971668, -0.7840446740963358, 2.637535898517775, 0.08765513130402122, 0.5536209434945775, 0.3526128270041145, 1.298066198938894, 1.9266406132096294, -0.8636938734221384, -0.2816412731207351, -0.49338587743044793, 0.7442561542560787, 0.7909841436156647, 1.2447592352134993, 2.1561977286948215, -2.417980015120525, 1.0659735434344104, -0.24061887546260427, 0.38215751552881033, -0.2835437993122599, 0.6328566615732626, -1.709353737445865, 0.7347716045733002, 0.26369616319672723, 1.8491822369866988, -0.1888528189437321, 0.27803301722782436, -0.00847125570419073, -0.9520956863625953, 0.40419945953526887, 0.029818743937774197, 0.40643365549392946, 1.6570956296571668, -0.9950228185556863, -0.3951186746223426, -2.9227891823495638, -0.5564615532975024, -0.5085681766458362, 0.2261958699955539, 1.0158968918240097, -0.6003348700241062, 0.3105432743853519, 1.7020835910333956, -0.06441318933060526, 1.247348044019937, 0.3888743592153055, -1.9924850105097276, 0.17492856378200855, 0.9485322593149234, -0.08379710708109137, 1.446689843958007, -1.0886890415365513, 0.018454014052532913, -0.549098770741769, -0.45461443261212753, -0.1502798106866272, -2.0112678597247853, -0.7811225043738295, -0.22141646271298826, 1.2184715536012334, 1.1103421711144539, 2.9032024608699056, 0.11648215909233461, -0.6006533270149053, 0.7804948069673906, -0.1615797084458364, -0.11659619288525284, -0.5738902931301042, 0.9603399947348568, 1.0191306901093014, 0.7229434622432879, -1.8108869392335083, -1.9053917077753642, 1.2457823217922839, 0.0930990847042615, -0.06045578653259005, -1.8316664677921377, -0.6842673080674702, 0.557715658753199, 0.7235473986272053, 0.705318934699315, -0.3389563016826916, -0.3688299519450868, 0.2858722840111491, 0.7578436013219436, -0.17232857892900552, -1.0260354074536162, -1.3072872997395073, 0.4559771428110382, -0.2868681385725553, -0.6238510037221073, 0.3194763307858564, -0.9718375603607312, -0.7324060439553075, 1.2262820732643152, -0.040496066740487474, 0.32648595825899984, 0.3208329274875909, 0.9240635847127747, -0.30930060457366626, -0.5434233018765686, 0.6028663452067121, -0.30213947574353944, -0.1671952271954225, 0.08620759964479169, 0.0892821670220361, -0.5262802186309108, -1.9881112062259727, -0.5453142662037582, 0.809790802402556, -0.6330758035216131, -1.7058723600652164, -0.8558494462147719, 0.8773975982176395, 0.4986126271163539, 1.1840638625000284, -1.2844196792770544, -1.7893251187113033, 0.5128842188198799, -0.5274899412090676, 0.3301877652479761, -0.7876204757127422, -0.8013358923802787, -0.42845590994472554, -1.1895953191073956, 1.286952375387275, 0.7519306377610542, -0.7197512821613543, -1.428144616375017, 1.1958565053150774, 0.7152786203333531, 0.7349363208112253, -0.0024982363641807017, -0.6642214914296695, -0.1943784086982781, -0.5617611006578545, -0.38177058425366783, 0.44334176852729307, -0.4243200968286069, -1.7724499895280943, -0.6395802241719764, -0.10138662940022829, 0.8953100091162118, 0.8167205243897221, -0.22900980634987142, 0.7650108810717521, 2.3642612283568365, -0.5971796289110622, 0.9707496847189788, -0.32611463968591287, -0.014016796897871815, -0.2888059956170761, 0.0488212407239245, -0.18418591864345346, -0.3964599484215496, -1.0294912531318594, 0.5269683994857095, 0.6988351462051101, -0.11086578482045817, 0.2448596104746171, -0.498338375250007, -0.039602188536393704, -1.0067801396408202, -0.42006155556597685, 0.5250553335836002, 1.4065032906554364, -0.781312782691441, -0.12266707147621465, 0.5729076527836693, -0.5080540971011243, 1.0876967923701613, -1.8338621726613225, -0.9642266183871065, 1.2547434538160422, -0.1420180944888229, -0.5524895986622875, 0.9154358141476364, 0.18023567310948854, 1.279943962832621, 1.4538713824949006, 1.0459514360810065, -0.39405070169028816, -0.9759798646244774, 0.9360904602164559, -0.08645074187582671, -0.07913310544392924, 0.39693779020503206, -0.8103613423347522, -0.8002040115690864, 1.0921977004574899, -0.12862192653865093, -1.9433114090217052, -2.2186334487452752, 0.5476920907397812, -0.45004760309876596, 0.2696909373675005, -0.9345798877643734, 0.8493850981637777, 1.742987044203407, -0.9269299875613153, 0.2857650270399449, -0.978614141345399, -1.4957785858501322, -0.07496143785901788, 0.5879096706796053, -1.8865881200877699, -0.857084224853047, 0.14054977098475385, 0.028510706664366035, -1.2512278173195306, 0.5943155246101739, 0.6731624080857064, -1.2967682181874773, -2.3115942067783877, 0.35346012954499656, -1.1804676919923545, -0.8578302942814596, -1.3768209552051986, 0.012997654231229543, 1.3546422042645356, 0.03747403927527128, 0.025516824654815556, -0.5152549857512728, 0.6136898392947535, 0.3765050767109333, -0.8424883353578045, -2.0786027615001066, 0.11846687541855898, -1.7229985209082017, 0.23279032202628736, -0.11431946990456958, -0.7735714021961502, -0.47798917690986187, -1.6858217704381746, -0.618169148662964, 0.1639616481445244, -0.11328446980608754, -0.9464056886050222, -0.8099303350890621, 0.241063903258261, -1.5390056764237314, -0.03866066650058041, 0.21830218116146372, -0.3940339882901602, -0.5108564351336161, 1.324154681061106, -0.16223349232458037, -0.6778274140029438, 1.51237675944586, 0.6188752754070144, 0.33352054572455236, -0.9738105614343957, -1.3994840225128469, -1.502712718807369, -0.5149152350961569, -0.1532017172760914, -1.291467017939806, -1.857431578604892, -0.45132080929536234, 0.3699839219926727, -0.10206921794827295, -0.5850139939751586, -0.40890196651943256, -1.3196711124323703, 0.22575668620574027, 0.8416877896167339, -1.3164962123795863, -0.04730288958497275, 0.03251567745355046, 0.1803892158410657, -1.2511504291530382, -1.8838528877047231, -0.10282736587841557, -0.7554033466859952, 0.10919018391670143, 1.3495158557603066, 0.09479304683892623, 0.4587928522902213, -0.14482599646980174, 0.9606218740709964, -1.5437579841265012], [-0.20881540955079098, 1.9344681765449503, -0.7141487967037552, -1.2300627841512062, -0.614060066087376, -0.03552338738794776, 0.8097940101172918, 1.3334158715005626, 0.3102171201691381, 2.112877618850755, 0.13745390993747006, 0.013553757269667111, -0.16233652136390828, 0.0934338075287024, 0.03956152100352092, -0.40573324444054937, 0.23951767475226715, -0.1887580918546579, -0.09327065060547458, 1.5827487906344133, -0.6000977836829108, 0.08986995235101766, 0.2314268797655159, 0.001708905947128057, -1.3283477516736855, -0.12332674429582818, 0.4250280169889385, 0.9759449657150839, 0.045928466618570404, -1.0484605158467952, 1.2435420438411389, -0.03165051270950182, 0.09775389623578735, 1.535549072488699, -0.6417193403383411, -0.13598138765635676, -0.5293775372050843, -0.880950303994973, 0.8063833238653727, -1.7371843220164758, 0.003531448830784277, -1.4539880312336781, 0.21800418344178968, -0.534354344861995, -0.67412977576714, 1.2926694713265265, -0.6269514227175556, 0.12576880542893942, 0.7940136744277333, 0.6441704264172272, 0.842917718201425, 0.9950636065005629, 1.1353284618879969, 0.15118001401106596, 1.6712375539969764, -1.3630204683649942, -0.9717378499998428, -1.062400059579665, 0.34894169668140346, -0.11427595747215956, 0.8748323950316598, -0.93955102451371, 0.6311423720725583, 0.11558929424700974, 1.2215795025905973, 1.0391082707511858, -0.36170605834311725, 1.3619259291783208, 1.1725266226745739, -0.6382333369579405, -1.5467181755788733, 1.219223096146008, -0.364303453903334, 0.25185390425657034, 0.09625210897242299, 0.9648877571919954, 0.7224679161822362, 0.5330302916144914, 1.2786927672268642, 2.5811018162888875, -1.4536219926362006, -1.172966406208408, 0.36894310709518935, 0.6878791228356673, -0.6346978019096726, 0.580958006418604, 0.007210153228187955, 2.142250637459562, -0.7072211698430733, 0.11043159197002576, -0.9339430604703428, -1.5300340413462783, 0.03615124909443275, 0.37855806745552045, -0.981469293682704, 0.3369683416688397, 0.024475286151715302, -0.5306585738608842, 1.9125047885538895, -0.1028668804642793, -0.5996437647679655, -0.1911955967902963, 1.4165774903847566, -3.3411317058334884, 0.4474534935176144, 0.9599720035722793, -0.7556198521088496, -0.8404537705426687, -0.1269015476351726, 1.02818469386573, -0.259131093580465, -0.5687099304210943, -0.8862966287007444, -0.010068213655896571, 0.18682040333730512, -0.9792649386079695, -0.2794960985008407, 0.7419621174507001, -1.762564131208484, -1.004222394576624, -1.3223484242820691, 0.1587311793376725, -0.1982891717228935, -1.36979182239389, -0.3403470217846977, 0.7833279229402517, 0.7694311207160155, 0.18507211774836532, 0.08923909878940402, 1.9311703665528885, -1.0424111364544288, 3.455452805609174, 0.5286401085116404, -2.156361523729231, -0.18584923310336635, -0.3717264309502425, 0.0007003472354979712, -2.189397498021499, -0.575639563694087, -0.9950925107682571, -1.3137916184679392, -0.5230361601174845, -1.2792249024817628, 0.7529911640883269, -0.028367761268830113, -0.30150477068634923, 0.8083873964189439, -0.9211107154822612, 0.11128661573749357, -0.33668279753364433, -0.9039163237979462, 0.1073856288288595, 0.08449694384311549, 0.37582031242671843, -0.23896319707049096, 2.2337976957584593, -1.0366293791057801, -1.0942473821442948, 0.3785178021802149, -0.8711862203543468, 1.1413824313792713, -0.5079109457735884, 0.8217449844910405, 1.1422028900926524, -1.1468993074373515, -1.1343219872878132, 1.4348502620943622, 0.09666371262886438, -0.9102829587163731, -0.3576814020247626, 2.194847649922116, -1.2382235619954378, 0.13842666146295274, -0.148118583885798, -0.323816769604585, -0.28708691744183, -2.085721374136161, 1.0246142705196295, -0.4543920868742081, 0.3908292362517828, 0.7539237490369138, -1.2811769320650368, -0.8821240333749709, 0.35907004186762975, -1.404313500398232, -0.9884807089600215, 1.0126293859840185, -0.5202325513954092, -1.2214978676324018, 0.21498603203619585, -0.22869966950463394, -1.3869770556990038, -0.3252553476322943, -0.7508785231764529, 0.732514022462588, 1.5435290390961243, 1.0717385510002673, -0.29590438092790816, 1.122685580984582, 1.5727277852549117, -0.45101605238073694, 1.2505420623499302, -0.2789857413624866, -0.1709265426085625, 0.27523921489783104, 0.9457571834090279, -0.5675704933123076, 0.3048533660781524, -0.5611322726192893, -0.26230058220676167, -0.44261568434785187, -1.271821019415302, -1.3562174096961301, -1.0074358164275972, -2.7545856076772375, -1.4118740153619882, -0.1914248711593007, -0.24540202745977502, 0.11003868476842103, -1.2175102865903398, 1.065691337803091, 0.7459153945104186, 0.4242917460452863, -0.09972815690090607, 0.13654493606912146, 1.1590121845363182, 0.6801390607506891, 0.8899633372383, -0.7386801919300162, -1.130063857764213, -0.2750917938139339, -0.572784194788913, 0.5128387778878934, 0.07765583777944517, -0.31307658641188896, 1.312838769133419, 1.1266092360904052, 1.015474824753403, 0.23757237249275268, 0.12764449385473509, -0.7935410058438243, -0.660931128619729, -3.226094429794457, 0.7291135689209775, -1.7673343812306577, -0.42160455966582794, 0.7578385298211421, 0.268036706558248, -1.210216451140664, 1.2302658442673478, 0.3361619903983047, 0.11311724579725477, -0.6134118645269145, -0.40945578157929424, 0.6108577516609713, 0.5332558138453427, 2.2677369280448887, 0.4151443434716711, 0.5742183223501773, 0.3932563102159067, 1.8155992841431376, 0.061705636146629085, 0.15618844661761272, -0.15477618169525348, -0.8924138781458936, -2.553621066618187, 0.479214524683819, 1.830322265591696, 1.9531815907420527, -0.5760921118246405, 0.15784269222630495, -2.005815739823342, 1.4478093752282106, -1.1252761736086991, -0.1486471848875916, -0.07811098072696467, 0.745049269815667, 1.7136470464647955, 1.4610262854147313, -0.5230407439573258, -0.4181004636268242, -0.18997164627522325, 0.2949849804956048, -0.9609749156257138, -0.1887664978298632, -0.3643261695312576, -2.715426006723747, -1.0390722324786035, -0.046466956358861396, -1.6649067704295513, 0.28617660980243015, -0.2706072781739297, 1.2225904828170382, -0.13875832764848672, -1.4529013552201662, -1.020923776370109, -0.5392908194729847, -0.1691436549481258, -0.6714584192575795, -0.3330132896025226, 1.5272211124798263, -0.022496224058947516, 1.3720620746534031, 1.2445326338033973, 0.39470106236258296, 0.2597713788530814, 1.2996716539352327, -0.8378434193213058, -0.016325924962446663, 1.61982391290026, 0.7159224605472593, -0.4021360139504576, 0.7936947059304772, -1.5064191175968271, -0.5226203566041688, -1.1379899009011984, 0.5843776641529697, 0.24878433749539514, 0.38462512473861393, 1.0525204505970096, -0.14537927565286962, -0.6636681833049458, 2.3578802860148316, -0.5135336737808097, -0.1213742688078312, -0.8856697297210413, -0.8387925927691342, -0.5813314281226873, -1.4383734281640077, 0.16677778223696943, 0.8184987875682452, -0.7449469805716963, -0.6215850252132655, 0.03468935151846499, -0.4561172848792342, 0.5208163821779725, -1.7732806335084523, -0.6355806312318593, -0.7857858898088064, 1.4979784059712076, 2.334333134215101, -0.9022725440071706, 2.253804658943456, 1.462009106885442, -0.5812359388051566, 0.15974327992078194, -2.270844123966776, -0.6490612353614357, -0.9278086280476754, -0.9186897446988188, -0.11668408341783916, -0.5791310974570857, 1.378634386784004, -1.0396271680871185, 1.5561558789802068, 1.0827897019761532, 0.3434067113360969, 0.9169459130610997, -1.6332318457289074, -0.5150422378276363, 0.7051473221898876, -0.13189568710377675, -0.7919896553944885, 0.7625519472842144, -0.5909216972561013, -0.8968231108138552, 0.3081591500789617, -1.2219026370210795, -0.4146352572266285, 0.6732688304816129, 0.15007679990354442, -0.17976415161342324, 0.7719568478493142, 0.7975711444895229, 1.3321145426874692, 1.9628186090688167, -1.4828376197100868, 0.9750912635351348, -0.0793950589263484, 0.8362888402712192, -0.3204520675704285, -0.5575653797393813, -1.6073681658015375, -1.3245748057589783, -0.10935914393249267, 1.211260878287389, 0.8436209322653243, 0.030677260110377864, 0.15474924874842194, 1.6250230713305405, 1.0239813213797546, 1.2876727068329628, 1.1269963930530815, 0.2438779127035053, 1.2262824558792194, -0.06779954945390866, 1.1107889635144148, 1.1903909415915357, -1.3984181804071554, 0.1371539428923043, -0.699964491928844, -0.19368295408801425, 1.8071868448774493, -1.0463270667945561, 0.2676355307823828, 0.4627207872537405, -1.8192271985161135, 1.156636938652215, 0.6018780367823451, 1.0414438456137718, -0.6097193443316831, -0.9046985009292674, -0.36435937345360947, 0.39775600389170734, -1.349486995644069, -0.5455965149519195, 0.49221076419318566, -0.8809765357799281, -0.5322674968819898, -0.2590448705160816, -1.5071934885691483, 0.3225056859532702, 0.26749721692982487, -0.014990246690521498, -0.37504180724621894, 0.5699710676771189, 0.518478981751432, -0.6118301972788216, -1.68468970249298, 1.0759454295195907, 0.029208667652943006, -1.1084135235945347, -0.012304905741759676, 1.1002306020947297, -0.10404036211410152, -0.18739732851621502, -0.12564854148411028, 0.9182775622574767, 0.1362850800859631, -1.1243116327759461, -0.5088009424793812, -0.8944429908492468, 0.8108436847918099, -0.7182792781601675, -0.5027799291363043, 0.2755444456503046, -0.12193727318361681, 0.9098166679097526, 3.813587682000562, 1.5373400799257628, 0.5031990849808657, 0.4050773961533198, 0.11359877769754166, 0.9522866316081543, -1.5863996225873729, 1.6542339402224953, 0.4900302773219805, 0.42172199623269446, -0.1463978004796879, 0.32563111472805467, -0.6450142932727281, -0.44001198492374366, -0.5566265682114615, -1.1220619572449053, 0.3291685803882842, 0.630650836129527, -2.011814872302428, 0.19304031739838953, -1.0333337001824132, 1.3773079105784336, -2.2107522156324393, 0.9393355509136107, 0.4660122678452068, -0.8007533492372235, 0.13795600135316755, -0.05252809039113149, 0.23223536886249796, -2.5141461034230623, -0.7576981796745668, -0.4763311138942481, 0.9601313148087626, -0.802930050489783, -0.7370834701655516, 0.8791206204458896, -0.6590232497063041, 1.6092357438968006, -0.7677130318188345, 0.1374478060908974, -0.4947677733441251, -0.35485466510643876, -1.7746203978508002, 1.3521510079528627, 1.477066815462189, 1.503517319014854, -0.1270959844269034, 0.36734743734811753, -0.1944011151887758, -0.5947449771476836, 2.1596520053516466, 1.286781859518582, -0.0532011708527234, -0.8108722996832263, -0.9265374022475393, 0.5323920990299563, -0.5430909832031598, -1.6989931531932934, -0.09462182361312853, 0.31345353751007676, -0.19918244729708962, 2.6873029527702657, 0.46505213665583506, -0.4386117210628739, 0.816474481697766, -0.028371507846629538, 0.9589583624038093, 1.6782163795440508, 1.2924182711244543, -0.8979002484254589, 0.33165774172193546, -1.2554783224261854, -1.100691788209494, 0.174793928482723, 0.11606519927773874, 1.2855390801468947, 1.8287337356786204, -1.6825769291208734, -1.0541857926297862, 1.41091097854952, -0.419089255979059, -0.1878695247420784, 0.8169579434010492, -0.7048955879151756, 0.010654761082193298, 0.7922904225184944, 1.158335342244541, 2.31884233274144, -0.5051321757637253, 0.06368608393099355, -0.3596475303845041, 0.42630007984469553, 0.7382162743519242, -0.9935322639539007, 1.987552893940785, -0.05930639021850134, -0.3589972447795777, -1.7526914842422998, 0.39685712017333885, -1.8150757607379784, -0.8564033696452189, -2.2663406891069804, -0.8396480569695209, -0.9505414030279435, 0.3680457953755808, -0.9049709626525675, 0.03905033269279747, -1.1546587578715075, -1.397190976344797, -0.12827419753468286, -0.5436672964394644, 0.08742212420021779, -0.07484554494098523, 0.23442636724750252, -0.5714055734040503, -1.4301056876282898, 0.18319578659192398, -1.3770500118615798, 0.2866762644078359, -0.3240802919029587, -0.3369036196412919, 0.26508907444191965, -0.548307355103342, -0.9409842334726322, -1.6625297604207894, -1.8643009110087154, 1.1069878856772783, -0.9707194845594244, -0.9779046374605715, -0.29768332187829943, -0.019224320388265, 0.21784792268474043, 0.13989038185370134, 0.4906905728923771, 0.8959061574024418, -0.8480172735751383, 2.73242192098763, 0.705718136748175, 0.02285809099148308, -1.167918907949029, 0.500843463437217, -0.23738579285337746, -0.0627534209603289, 0.7452006065976682, -0.10769825262325516, -0.2524124590291903, -1.8609716889832266, 0.6373763997741215, 0.7830413477700148, -0.32882834217267426, 0.03653010272886539, -0.5227498508553479, -0.45998018349509284, -1.320124157880658, -1.0785604312936927, 0.12384214968791073, 1.1943498519205664, 0.9493239818984857, -1.7613743231634678, -0.11523210492500101, -0.4027623975319035, 1.4362145869599932, -0.05302185372445438, 0.2710302416645731, 0.4216751888845436, -0.09878619158410214, 0.46433681149949957, -0.7776524385075927, -0.35120135806631064, -0.0170850491933749, -1.1314080702486897, 0.12406052381341501, -1.8778852151731673, -0.9640026762304461, -0.6870232332603762, -0.4871676764892718, -0.579124536774682, 0.22192784977169772, -0.18319400516511034, -1.1104715972406878, 0.37356776436131967, 0.09660649234976437, 0.7812581831175358, -0.9273943459885123, 0.8514647873379111, -0.5698477263586149, -0.2875518357562868, 0.08535205811002311, -1.4831283995510802, -0.8372351491277756, -0.07476862282282341, -0.05979590592713147, 0.48397531752122336, 0.29528388875839945, -0.5267550396408586, 0.48078567751681284, -0.6424198850753507, -0.2236925789490145, -0.6673440716853805, -0.23478790593004834, -1.0171521521338074, 1.2805160891782321, 0.775510944668029, -0.4957166332706767, 0.5457154591053434, 0.33312706011216847, 2.223493226154152, -1.5022105289075856, 0.14739915165880627, 1.047908956160899, 0.27516026019932305, -1.2482397662046119, -0.5000460420170797, 0.4180209961664247, 1.9471309116775382, -1.2245480116924468, -1.710057194058282, 0.16445422129793946, 0.10265167253446794, -1.6307843841855771, 0.07895506244571823, 0.6107086873097598, 0.24339505428965252, 0.8642771767122153, 0.3983285593430941, 1.1534610028233157, 0.9235265915380267, -1.3506260304463866, 2.3747022190694933, 0.8346462158031263, -0.6645143040127247, 0.28281839343480425, 0.5765300673985227, -0.20570404377909549, -0.15396826098388927, -1.692134048443425, 0.5498601898275802, 0.7818928924532509, 0.47172358115515944, -0.0425467925641619, 1.0880561356141876, -2.0825100516844453, -1.572839441826863, -1.536148042682568, 0.7672017084489643, -0.893454672474083, -0.25246907652624945, 0.7736707552676119, 1.0759109984791708, 1.033578866665877, 0.12377867850641018, 1.133314137383129, 0.47285045059475866, 0.5786518527160123, -2.1161900804466067, 0.36334053606168437, 2.0238862882802433, -1.0429277295149357, -0.5717105736342035, 0.07908340196254263, 0.41623700371034617, 0.4182280383201158, -0.6079520221874569, 0.6212335122325621, -0.8940286882557057, 1.200309613947981, 0.3841748871668835, 0.6640730896758626, -2.1756576217704784, -0.9162787860155759, 1.5531693502669264, -1.292225590294085, 0.5538641786783886, -1.4387959058584934, 0.7582669377815117, 0.5759633445443689, 0.16842235230105027, -0.8623752385883908, 0.3236549247493397, -0.6249719549358971, -0.9455615854182388, 0.2106544997875585, -0.06637785624027283, -0.22474520147568022, 0.18212555628588023, 0.12542073310111196, -0.8584400032950584, -0.5098774461555651, -1.0619094633380202, 1.6494355203076019, -0.327286929288946, -2.1534942244710646, -0.18911208432606552, 0.49904986571502136, 0.2917213424412851, 0.6650651234734232, -1.2993042936034696, 0.09856923837294032, -2.0262820221700326, 0.6283036119232457, -0.10566748513088314, -0.7650504871489373, 1.529468016820869, 0.5859151096256411, -0.40485884131001126, 0.859322017960127, -1.1761720851880426, 1.6299133336067433, 0.10255573871771516, 2.319079479371883, 0.8319767449716361, -0.04212103878065223, -0.7798741967151287, 1.7055943482538374, -1.4012369614361766, 1.3786827126018268, 1.5128977518909486, -0.1703957066618619, 1.2523516932393017, -0.20873623366969585, 1.5914681399640098, 1.1879972720003271, -0.2922199252152255, -0.5871122227623325, 0.33726037579977686, 1.2158497121400715, -0.04982568593549122, -0.22379228129421674, -0.6103448973755946, 0.3266381232653194, -1.0580079879345219, -0.9896454173418374, 0.7633404451112336, -0.2565384136243197, 1.620094565137113, 0.3573970635458985, -2.515799919658692, 2.2449890342635426, -0.5880965122611584, -2.233270992957002, -0.2278215130746977, 0.962628431506371, 1.395599125136615, -0.5069654997926347, -0.460830993810559, -1.7192072765007937, 0.3656421090417216, 1.0037750144612219, -1.8856362971902234, 0.3621635269700594, -0.4834190776830153, -1.2223346191185787, -0.02847980594900656, -0.49061010076973816, -1.5075317030600146, 1.067733560243167, -0.0983205774795909, 1.040931032989778, 2.1372091006551033, -3.1108789994855552, 0.4475916876301425, 0.80792154324148, -1.322448724696813, -0.35319913982417767, -0.5481963656189018, -0.4757847069821136, 0.8524081397789013, -0.8169267632992934, -1.5973251327957694, -0.7657201832420978, 0.0004462800274229556, 0.4986360039722163, -0.49121055780892037, -0.250540976244396, -0.7941615172189408, -0.8628620424841619, 0.5045900045735677, -0.39222349923429156, -0.3749604113699034, 0.2847655702383291, 0.9507915624840275, -0.5932001675649843, -0.2162275715703901, -0.30216822468034704, -0.14943284259543813, -0.5216730742763833, 0.6657656436116549, -1.18248486820322, 1.5156256691931767, 1.1823950838001067, 1.3340478545604526, 0.2035164711915735, 0.5516913820991065, -0.5388398227934419, 0.40148383187339937, -0.460560686265599, 0.939621286950589, -0.6567408697971888, -0.6725851953392348, 1.8969148736447703, 0.5932477181302374, 0.09118448585388791, 0.5029401196999438, 0.39746897262622605, 1.4199786279217503, -0.5665985528167368, 0.03899532938364583, 1.260823020456727, 0.6096470622506446, -0.6027205257137617, -1.0134749457976544, 0.453873878545763, -0.10355063996748433, 0.20525581375483656, -0.5876223726199239, -0.18060820037377529, -0.6067108076499171, -0.7037533618487006, -1.208846952070542, 0.39354103855212835, 0.35882501569600783, 0.2430541539494547, -1.3634342843650884, 2.5091867401585684, -0.10566504181165062, 1.4649223467737749, -0.3982703284214159, 1.7990079979424367, 0.2867756628936773, 1.1221630261456248, -1.2988178002013335, 0.5963051937491948, -2.2372857267936013, -0.675763776661737, 0.083585082308127, 0.31157509699431724, 0.6658407411788715, 0.317875054583433, 0.47835926212653324, -0.40872214840795296, 0.20703975679854716, 0.14126078640301745, -1.1525231497132873, -0.6194407857986901, -1.551581951485344, -0.6814268916354828, 0.7250661605679933, -0.9870967728027129, -0.25962746080347354, 1.1613586589767866, -0.672995445932381, 0.04365023190513011, 0.150806470542573, 1.0622392009074382, -0.818632243952256, 0.2602321296486074, 1.8546344372418397, -0.7983019616222911, -1.7757833940259955, -2.4270826025967276, 0.467010589902991, -0.5613880211043805, 1.0154644223567277, -0.3677744037784643, -1.4611645699001128, -0.023914525885800175, -0.4291353501370407, 0.8798015366797176, 1.2051104344975743, -1.2882380213125115, 2.1920578403816213, -0.031728958426785386, -1.4090899289198082, -0.8042776130780449, 1.6730246582642436, -0.5410038779125425, 0.132527974946953, -0.037300516309055995, 1.0783497076556918, -0.9375300234228635, -0.4190862875059914, 0.9953106183253251, 0.7197741901026398, 1.137815925172945, -0.34521263308981864, -0.7977669989772099, 0.6601242308362862, 1.2771060751873229, -1.0398514947564947, 0.20541835679565285, -0.6371854201767954, 1.2494175311719289, -1.1297587155668702, -1.448298583889674, -0.7523124510945624, -0.592864726753513, -0.7286769935602736, -0.0899938163523348, 1.3555710062213158, 0.2043104779026966, 1.647671575068493, 0.27940891254861944, -0.6964708794162927, -1.4448959341424756, -0.12980317367171254, 0.06304401690780119, 0.07068114513081232, -0.32303413751434523, -1.2404982839710503, 1.3680903553550634, 0.9612685315365977, 1.0363360672915765, -1.5602171656441477, -1.5456212166978334, -2.0971897006740052, -0.030553190863011004, -0.5028333323699797, 0.4583852432396176, -0.0812888888915434, 1.4271797551106618, 1.1332131656150914, 1.395210135253256, -0.3572517869410422, -1.203911322138094, 0.16638530107821173, 0.2895995500979594, -1.3446034958726498, 2.0083517164364615, 1.2295319828146205, -0.032908371566714896, 0.5903560662275357, -0.4108728369434314, -0.7717285132696786, 0.5425923694224171, 0.41810069406438943, -1.0902697261091512, 0.004111156375563793, 0.29951402203482635, 0.38158322316467946, 0.1429714705951419, -0.6085667680893704, -0.08903381384619118, 1.5690691403946948, 0.2800548106802726, -0.10484514287748643, 0.2450160560138392, -0.7200504950890434, -1.5378092152253124, -0.19000234951342504, 0.6989598791522169, 1.747628020838913, 0.5561137724485212, 0.3267557050986289, 1.3514974698537339, 0.6964128929220289, -0.8934144064713605, -1.3036060621360028, -0.6476849048360144, -0.6715927916216579, -0.6953353477013107, -0.1123913137270022, -1.4575878519420395, 1.049448189046143, 1.1586519955802939, -1.139525127072587, -0.3171040978567606, -1.806057880245029, 0.148239822076561, -0.8835559691175014, -1.0308887949865306, 0.8151477424097971, -1.168853821677001, -0.42069252820660014, -0.5252561736205601, -0.9615009025399076, -0.39246478220237485, -0.07537469477424523, 0.3606600373541217, 1.521641284589607, -0.6062952021451711, 0.7296053290295225, -1.2074700625208343, 0.2403388785603709, 1.0242419693679718, 0.08102650843246414, -0.305654404093209, 0.7242601978082583, -1.1015145686711958, 0.9979135267974116, -1.1028032303314237, 0.32822356098819805, 0.20237454268209387, 1.798800211938837, 1.138972305649014, 0.3044182540089096, 1.9631220346709728, -0.5010853969476594, -0.16936728860972822, -0.14289307480514685, 0.6116139223607585, 0.497838444560972, 0.16667993157949954, -0.7465640778460619, -0.19622546773384922, 0.5424832858722027, 1.3666156520594128, -0.4957984711448603, -0.39369513857589383, -0.48657457901303497, 0.6037022223833732, -2.197000097745172, -1.4252869531862258, -1.1731080921045123, -0.7915847461385582, 0.8067676945307166, -0.817094762868919, -0.025468597292488206, 1.7145502678416558, 0.2025184353194651, 1.507099665000121, -0.6025728822335753, 0.6285835746025011, -0.08670726708175291, -0.8396270925647952, 0.17936835990754402, 1.3217310450287323, 0.08032782507390179, 0.28984059411744717, 0.37245523416718207, 0.9969356898439277, -1.1085372314671755, 0.6517024341261014, 0.5318482194698205, 0.7328197610791202, 0.16041232659028412, 0.6508521521846361, -1.224745594346184, 0.2522937083664604, 0.28067006285949386, -0.9998550691675406, 0.8018859285154387, -1.0330217217722495, 0.013066384965714103, -1.2481145230891943, -1.608692897579602, 1.2873246617373413, 0.07242980429015763, -1.1360344478642623, -1.1609760049675801, 0.04520365913663606, -0.1285434227650394, -1.4275218535160663, -1.240051785507054, 0.34258456550362704, -1.8456775740691238, -0.3808214318402776, -0.5283224631987793, -0.1674545639357609, 2.169527377476561, -3.075135621296192, 0.02698081630534091, 0.14906819693974338, 0.7921385684596269, 0.21216774989279039, -1.9076439929101356, 0.6182394981010341, 0.14957322853556437, 0.8325898959306296, 0.37138736955727436, -1.7924118723067368, 0.5367843091349498, -0.18266351533257455, -2.0826005913986614, 0.31512688122017446, -0.07738151762143568, 1.1146662998900563, 0.1813735839442309, -1.658187568821678, 0.9605057534918727, -2.1493431657881605, -1.9903994462761008, -0.2607632226489301, -1.4311978866636914, 0.631595046925197, -0.0744460277991799, -0.35737195995748466, 2.238602689874977, -0.32472608240846446, 0.39484818473078587, -1.2064484771135282, -0.8041088758439396, 1.7592673755076995, 0.5199880241187884, -0.9729303820642149, -0.3084670198232022, 0.6300366456331457, -0.7919028677139693, 1.0290680878590728, -0.04792833855059591, -0.8155435533478406, 1.702656770736589, 0.3766470783298721, 0.9446593941783137, 0.012424257198937087, 0.8328206433401859, -1.0702852085728143, -0.6668266797862125, -0.2982256024831378, -1.4118916979490157, 1.4476216422331123, 1.3267932800183981, -0.020122582598225493, 1.0976265397905325, -2.0515098890683534, 1.7582355308160758, 0.1120065989645349, -0.7365622076747926, -0.3399822491299124, -1.6189733006342384, -1.3825467111366483, 0.5911859296725567, -1.4912288284842303, -1.9490756051918565, -0.03278881563471883, 0.3988899655963637, 1.4302754544665401, 0.7949074080839664, 0.4781239713683417, -1.4083267887728306, -0.15641609989446206, -0.23112321011898518, -0.42661081860369143, 0.6315270780492318, -0.2957171795586832, 0.29023776413896174, 0.17011119326099886, 0.2827830743248046, -0.9977081564215354, 0.3699023118559957, 0.05353880388076929, 0.5155128816713066, -0.2218315313209924, -1.7819777238847514, 1.3345795101062194, -0.7834492606693176, 0.09289514728250568, -1.254656054442807, 0.46784343249628196, 0.09082058456080404, -3.0520290760715705, 1.3595826430657336, -1.7440792852492748], [0.5789175475144405, 0.03801425198384035, 1.0884103938377734, 0.24323345301996935, 0.2545744034415049, 0.36022744476350393, -0.33182118296639934, -0.16540837984427345, -0.27798999468476177, 0.827402243827455, -1.028183807314888, 1.3799826357319114, -1.4029171187245206, 0.5581248849912358, 1.3947919824523205, 0.4730158931912848, 0.45980214407853637, 0.5702167245031539, 0.033862914479518676, 1.3846169861145259, 0.9675758944833265, 0.03403412561181561, 1.5235453361917193, -0.45796845023786054, 0.04794246564458727, -0.3443764384483165, -0.4619682829492495, 1.9496842841747233, 0.9611988690255869, 0.6208991576290621, -0.5259038700003167, 0.843368975607903, -0.2014843024233821, 0.342885638573677, 1.506400412675427, 0.33860510835035584, 1.668684180374444, -1.0620232695848262, -0.3971279007747849, -2.6890929978433338, -1.655049719621448, 0.4171910011282344, 0.06969952177274784, -0.2014991509899321, 1.7452141906840755, 1.370429639911426, 