{"layers": [400, 30, 2], "weights": [[], [[-0.9679638382853525, -0.751144576772485, -0.8214030672424013, 0.8759487942665636, -2.161313691179362, -1.2413624773606968, -1.4343786734981974, -0.4869312760161906, -2.165065408366635, 0.4585958862540417, -1.2096051951677724, -1.412389062480418, 0.007284454161287313, -1.994828230558333, -0.7282129849571763, -0.38302177982722635, -0.418173553104535, -1.0186768417769922, -0.9496856854008708, 0.2508804906198884, -0.8182785953384317, -0.49108008068047426, -0.3755332952038961, -1.3253079342272462, -1.670653161436614, -1.007233408223182, -0.6067945163528552, -2.53314313035471, -1.0884314660035894, -0.20441397325003685, 0.20172559662323752, -1.8494024641852398, -0.5864417750734265, -1.5406594535425573, -0.5104375914777874, -1.0548753993639686, -1.7647436178430165, 0.07272289470238302, -1.4712629255125673, -1.577390097710127, -1.700106796860958, -2.2216638844251477, -2.4873305509692205, -0.5638117005735861, -1.059833257167343, 1.0174136227730703, 0.632414542477793, -0.8263682430282918, -0.3727553427420356, 0.15486283105604537, -0.1746416343316467, -0.2547705222621628, -1.7154602374908665, 1.871894153644563, -0.7784697082491799, -0.4753809918151506, -2.282668413057541, 0.03980990953630792, -2.4456851510244473, -0.6610445519432058, -2.317103031429295, -0.725837263758276, -0.28191374685709336, -2.7816494557932243, -3.6364424967684874, -0.29427114814701927, -1.562773817129365, -2.6160664318725857, -0.6362824906359088, -0.4148658530927297, -0.31031346635087187, -1.4755835008247535, -2.3008553613470473, -1.0072771042805049, -2.5116541891586155, -1.6612153723426546, -0.9558811144188153, -1.3307257692697259, -0.6666705115271341, 0.5693297698769716, -1.4749836245137362, -1.5149465141942313, -0.8500840032710817, 0.4618157599374816, -0.32408026981401794, -1.1565410944468022, -1.3586395619211071, -0.5116301695279808, 0.41007160530263287, -0.5379521790142296, 0.16580224638988095, -2.7643043010905064, -0.8394018145671486, -1.7792820428648075, 0.12446385101518131, -0.9807353755081314, -0.8279200508487872, -0.11693794567665505, 0.5405213483303936, 0.8732850343155499, -0.7113804972486091, 0.10477825129554241, -0.8602778754951844, -2.145159864252102, -1.0062445788236984, -1.7170993636463685, -3.228545592549672, -1.0719045479036011, 0.012690463740332225, 0.6312843419868385, -2.6750526107384056, -2.0540919309874694, -1.3771235968068696, -1.581861056000366, -0.7596339098585231, -0.3923840947380965, 1.1887634633363167, -2.6805498981904794, -0.8412470903473347, -2.1506829452156717, -0.2754321787385806, -2.3920028249373733, -2.7115267503864855, -2.648691750758485, -0.8088408121722142, -0.22256827466100937, -0.7739519764288599, -0.6562802322392749, 0.22010284719749607, -0.24627039162939623, -1.4411486665981383, -0.8141317418204902, -0.3754521175704466, -0.8233158555816914, 2.182054676656036, -0.9099730694644605, -0.6403754311035739, -0.9416399826046257, -1.2516136158907958, -2.186146777483349, -0.6671136241579747, -0.09479233252264796, -0.6300453373408689, -0.6431233680357024, -1.7676592983674544, -1.3639787632847238, -0.9081799273560169, -0.8461751514483837, -1.2864648788800115, -0.8092501074829184, -2.3338834478112034, -2.865430007390997, 0.053382732143423595, -1.9717774959186127, -0.661652230582926, 0.5342519591105908, 1.0745746564913388, -0.6968843851021602, -1.2467786376521528, 0.03955801474677134, -1.465706683132755, -1.1525912722091285, -1.906323815779015, -2.0947505918625318, -0.675990692259762, -1.119136617455546, -1.8287791309407027, -1.5397705039969558, -0.3361500441923563, -0.519795459814774, -1.7064495639343882, -0.9076711246222148, 0.032239595513132935, 0.5257421551007023, -0.14247651588695212, -0.8684902379171879, 0.5007409126937711, -0.15829521097513816, 0.5897988849742801, -1.897197333641088, -0.543444178232441, -1.4442116535778204, -0.7770914737421322, 0.47121398741395215, -2.0314118569136133, -0.9719251677426382, -2.396797313774744, -0.7018090239211247, -1.1643635353609891, -1.4668936921765847, -0.4059868907985609, -1.0298211212681203, -2.831398201810555, 1.2953110085078343, -0.8244867937512259, 0.8146974162566254, -0.09638677537542945, 1.2169069865236106, 0.04008470388043506, -1.279545628859868, -1.5394773317805277, -0.8856991013867275, -0.6081171954776925, 0.8731369467891026, -2.9132085199147815, -0.05611049204616203, -2.1135710481186303, -0.5806763495265609, -2.529846976710918, -1.990324975609009, -2.622127767075956, 0.1940645140442746, -1.8485718541216483, -1.259986607385335, -0.82423665916322, -0.3234022484351635, -1.7422626988108685, 0.23136446011884937, -1.4624134543104703, 0.4530148086049516, -1.4802987009918347, -0.45661033386805916, -1.0002784532286741, -2.0044477161950933, 0.05392787118228015, -0.17823118704815416, -0.38730288557697595, -0.921037090454527, -0.7267565886496516, -0.38373296085192315, -0.43410666052407576, 0.6423158283522654, 1.9724839951627913, 1.0618855485989889, 0.19449866082830475, 1.9793724098696122, 0.4929645954213724, -2.852849962150743, 0.36500833070993266, -1.1257686643216618, -1.967119599661201, -1.801278026614161, -0.30523547389546646, 0.4688437722111891, -0.13102735694151124, 0.1274901589868923, 0.7215030780889152, -0.40203971717527753, -0.29404016139110745, 0.6268873650719909, -0.91124635277523, 0.37404648739498936, -0.5348998674592779, -1.5403981068636452, -1.52567332403342, 0.14499729504146497, 1.3189683197614492, -0.13105285987290627, -0.43089329109835883, 0.6460681696083413, -1.6811709335628735, 0.19977447710989293, 0.7082743199053739, -2.262385465171808, 0.2359279357480658, -2.06223149960259, -1.3241745534313196, 0.7500279552307044, 0.6210789069835992, 1.2258595741314013, -0.4661929823053544, -0.29768613440301356, -0.5211740872134758, -0.5538038600571143, -1.0032703667918241, 0.5823387606535777, -0.21725433025769947, 0.43406687356223794, -0.8033016500607179, -1.4100173719716387, -2.2051258029768452, -1.2065178348480594, -2.0992674467746935, -0.6455714825814258, -0.25835745127212656, -0.7591988088727661, -1.116182931393665, -1.3668786357262488, 0.9984095804594955, 0.8264303413238117, -0.6248436242992789, -1.5334883470160858, -0.9485892778254841, -0.8346634556285987, 0.5020792307038279, -1.0932874305148101, 0.13041987504609864, -0.6207354205629716, -2.373676948633237, -1.4487273057537093, -0.5182413093739808, -0.5058347103722646, -0.708918324948201, -2.3980608605617504, -1.1476396688753463, -1.5435135622139486, -1.974219705495884, -0.411789089532229, -0.3991990882381613, -1.5596618646482943, -0.045745092392580955, 0.09545178907227747, -1.6601279674985518, -1.5535654396484817, -1.3035995318720612, -1.6046271734424638, -1.5480349720255555, -1.9874968013534002, 1.1738286003510736, -1.4537109431887583, -1.375166267876939, -0.20168000645743223, -0.37216707436630725, -0.6545785594140054, -1.9597834240568468, -0.464622416257177, 1.7063723904455017, 0.8189096813892074, -0.7621879196247314, -0.8094201491675137, 1.0289799988294557, -0.13239450248113904, -1.819088100601232, -2.6381666768600347, -1.1516701456873937, -0.5477784319216725, 0.05504650222391927, -1.1891209183281684, -2.2508934112121257, -0.19993978451322003, 0.053983642206787974, -2.2507443037402988, -1.1706564136375381, 0.1670918494839212, 0.08134438399777777, -0.19864250793980198, -2.357373420228919, 0.07268868962943281, -0.2329856181024465, -0.37986207434009855, -1.620893792860656, -1.3516408191501081, -1.673620422949146, -0.031318053006410995, -0.8958586157029147, -2.5178369468266197, -0.09797445819375139, -0.7427263472237307, -1.2992826935913766, -0.12789088096326573, 0.08278149320925354, 0.4086015188434339, -0.3321060509410618, 1.060917411873889, 0.5438413924245623, -1.3101441100890652, -1.9613106084264766, -0.4417425789415716, -1.6283890886746137, -0.7681277960663597, -1.4631260605151564, 0.12291786540541727, -0.6641482975717403, -1.595140527113979, 0.6321376885745122, -0.7409494557395229, -1.7805166162167758, 1.0124088112292127, -1.76475418186198, -0.5103173768699412, -0.48957322332652037, -0.26492189296445967, 0.8126705455813682, -1.5574844872718745, -2.134489702557338, 1.2048743516442086, 1.3189320145160062, -1.5461477137857684, -1.0330703425987489, -0.4246885617961885, 0.08007298804187513, -0.3927464574396081, -1.8294937753476996, -1.0506227301523055, -1.7493109932980613, -0.7338445784527872, -0.6717890883563002, -1.092376016725269, -1.3362380018443503, -0.4441947291102163], [0.9853947149928396, 2.2423553783121344, 0.2629352983385526, -1.235913272957703, -1.0288840404546182, 0.15242324842264454, 0.8889596136430512, 1.0554812070293862, -0.40898578066094465, -0.0942885435286912, 1.6981440402319798, 0.8035041603128389, -1.3094075471713167, 0.44422820752520586, 1.4317819241955971, -1.7657998237809387, -0.058493788026510986, 1.1464212106793814, 0.3180254109052292, 1.5665272583048824, 1.426546827919489, -1.855952095471253, 0.597679929948563, -1.4326825681131479, -2.5424238781679236, -0.5074567285161761, 1.1614761581512285, -1.388591073132836, 0.26517902726440734, -0.42393386021900925, -0.2559714935046924, -1.9497669462554883, 0.18387557275075403, 2.247845354372225, 0.3324647026724242, 1.532985761505833, 1.1710305572668849, -0.47292676505199127, -0.053468944125019166, -0.014300421503076751, -0.399681022919532, -1.5336269551399893, -0.7122347970873906, 0.1721255146568697, -0.354848985123008, -1.5970304870507435, -0.4406402133582058, -3.4122674073527017, -0.10691045738996091, -0.9499406806963991, 1.4903791880876134, 0.4627873703621254, 0.3604512545489767, -1.516368185349422, -0.9349375884870218, 0.2803497004165154, 1.8592296239101822, 0.22865580726442006, -1.3461064205328876, 0.4293780779822256, -1.431672623163355, -1.2880929779561907, 0.8664912720552135, -0.948596767519805, 0.6410248748749532, 0.07219290926237892, 1.6494179995799172, 2.5298004105875536, 1.3898522754851244, -0.030642216704744964, 0.11242679339648885, -1.0407268742191222, -0.26771483648082234, -0.7207454651088498, 0.15090657871571803, 0.6017210026510978, -0.3751132546291047, 0.6088663496445916, -0.5462748711876306, -2.619118389060994, -1.1563160725331167, 0.49864535364258705, -0.7118635697576514, 0.1858163589729841, 0.1639155231314562, -1.413331942185043, -0.292511887417261, 0.2398597885638595, -2.042905256009506, -1.9163770909067088, 0.5854698958796452, 1.0125027399780115, -0.646169159352127, 0.7368223549097892, -0.26151203083495483, -0.8080704821566029, 0.7201787072832244, 0.939437685438469, 0.44472733672435033, -1.1499618911182594, -1.542869004222746, 0.49106022146117917, 0.61833149267372, 1.0640982153876075, -1.0051797757164491, -0.5997786045791462, -1.2490395353871633, 0.5700209123964471, 0.3301911425376194, -0.8430456279402077, -0.6037495391871289, -0.752208931038216, -0.2755161459651659, -0.5025323158775605, 0.3255476142185714, 0.1469656503760185, 0.5076147584734092, -0.5255852527028331, 0.4391494957601747, -0.4961840081275507, -0.41637432142422276, -1.1533810399848574, 1.3698590279091138, -2.5793058393085193, 0.6399719763575309, -0.19987529565484943, 0.371426909138991, -1.9536077349252676, -0.7622911590736745, -0.49079674216928476, -0.6174873005063006, -0.26941809573420783, 1.2656151101096853, -1.43265816663198, 1.7632971370014914, 1.8751685903676387, -0.3368811296891546, 1.0671948193864773, 1.013731250859949, 0.8844351358726052, -1.0013836048867206, -1.7071441021989544, 0.2080580124851587, 0.33793143846150664, -0.6039335464950656, -0.03439372564714603, -0.07484987672411632, -0.5952206996151628, 0.29378934387928074, -1.483255553778519, -0.6304596827228071, -2.6517451561119194, 0.4403733931208309, 0.6924025235862072, 0.6375969767715244, -0.06688381568693708, -0.6089552457624048, 0.28301844643988766, -0.6697709979706545, 0.7308662653136, 0.64880326265393, 0.6160953256182993, -1.1554036861067178, 0.15604399472934985, -0.15240880644390606, 0.40176574805256865, -0.15844911430607392, -0.528414757474347, -0.37270929534937286, 1.517095116751655, -1.747676871350795, -0.9023302246420631, -0.23409959894833698, 0.008000805682689235, 0.030361825330400487, -0.5306687103881783, 0.06831359078665689, 1.7959348156235708, 1.4628055858281197, 0.03984823610578855, 1.8253676926871631, 0.12135293136434934, -0.8596803914963496, -0.569183072499065, 0.2512434967101411, 0.33417366669123955, -1.2271022224548547, -0.3938603075242733, -0.7524655211599768, -1.3188422234613009, -0.9547447210641167, -0.611281088181583, -0.15191037664210041, 0.7259528157990409, 1.7215893238575732, 0.035538141838528305, 1.3083651653649084, -0.6981936028828665, 1.8848064347128572, -0.4328298117451323, -0.11185810082070925, -1.2477782410492055, 0.015151046219201898, 1.4701438731942877, -0.728652117917983, 0.3489150811542434, -0.30333042864212395, 1.2352033641766629, -2.382922768874679, 1.2721195611967062, 0.5224128760012651, -1.2872770389228412, -1.2469042469195548, 1.6682747788132752, 1.1767137679538862, -0.3256941236179815, 0.1405913836446668, -0.9124740519381055, 2.301302703876595, 1.093016277292164, 0.21770330404480898, 0.9573174114930517, -0.5898423697079453, -0.03204144862808664, -0.5580500122378041, -1.7353721427865, -1.1138744939496898, 1.5199255662588727, -2.2763904196353053, -0.3282306496837127, -0.7908449257845944, 1.3480037313623359, 1.17088528624194, -1.1481874500567664, -0.28271503293335015, -0.8107968707646768, 0.4793363241577938, -0.22212938325459014, -1.171879571070588, 0.21449204844796108, 0.07530436770095192, 1.5196079137568161, 0.7434056278202502, 1.6005144324820186, 0.9000569808629985, -0.7480416846461183, 0.494453640058218, -0.6652344107257735, 1.3858123525467443, -1.0440498773379203, 0.7956793549401889, -0.08960946223781888, 0.30124756010760617, 0.12888812916339104, -0.28248015149401084, -1.790530942059776, 0.63241473477219, 0.40318668496019056, 0.564318614861503, 0.566544629938264, -0.2424970985372956, 1.3517954690478702, 0.2064130353713599, -0.5951118892230279, -0.8568491303139903, -2.49146818994951, 1.9052405380312187, 0.835226983270528, 1.203489835462122, 0.2092043083461494, -3.244623857893749, -0.19403243854630578, 1.3217928015733704, -0.6455545094142856, 0.13591303033192675, -1.340833693993058, 0.564011208269524, -0.031826909207144254, -1.2930722449957122, 0.9975151413462097, 0.39895164361052554, 0.4337399057781808, -0.8728413099197511, -0.7918057483080325, -0.41024013791340347, 0.3611700804648316, -1.8068006628497653, 0.4463394980032065, -0.6065589478344453, 0.257214869400746, -1.1844190070340523, 1.2434042903745912, 1.0626850135204575, -0.19828652761876414, -1.1656880712897975, -0.6272591562350978, 0.2977220008992315, -0.18785256554740057, -1.7902795319160898, -1.2354962602157948, 0.7512346610145204, -1.036430564548925, 0.6231063463937871, -0.15725586534192387, -2.0997949575626675, -0.6187934466794135, -0.9365034987688687, 0.7142254412734776, -1.4441092232864414, 0.48517971141437677, -0.7277952073588955, 0.07877842325333341, 0.26123612542285357, 1.7367288662226645, -2.0743921600993875, -0.7866718185845065, 0.30019150412535583, -0.19247388846035862, 1.3934590623563126, -1.377717368306071, -0.8197584538234263, 0.6329187116381183, 1.6769993801087808, 0.09599904867513537, 0.28726207456092623, 0.2829258433990206, -0.2122539968474188, -0.4336704288487924, 0.9672589313253483, 0.5196716729282925, 0.8914345525981936, 0.5222114257229046, -0.2915128389758906, -0.9339077013324008, -1.819149923575542, -0.05087648816317501, 0.5715670027808661, -0.6059684381733202, 1.6425327047572977, 0.5458100504878317, 0.13160229311031285, 0.1129010491173144, 0.5154208209263887, -0.8063962535199403, 0.7502154169500703, -1.5300348606533651, -2.3901466478396305, 0.33488959591713285, 0.46254878847446707, -0.837132650590862, -0.6059538009027307, -1.1175948294456859, -0.6760818067490628, 0.19661708010881718, -0.6088942005166035, 0.013102902857660241, 0.17767987996101475, -0.5044557291871189, 0.16235743646716413, 1.4178076340528645, -0.3149946472158623, -0.44672208045185624, 0.30035462341957947, -0.6775699596394664, -0.5099401391542615, -1.3647955261517501, 1.6371017512520838, 1.431459089512559, -0.5780179271174154, -0.3235501495591247, -0.1565724371756357, -0.30640805317606046, 0.49109203966324844, 1.4047083256165822, -0.7167205708020292, 1.8897337912106922, 0.369180883719407, -0.9812996231357934, -0.6808873955354308, -1.1476207024532619, -0.7207210317755633, -0.2613044013289344, -0.9102243633340902, -0.08169229833709192, 0.8509676131135612, 1.1286722223505203, 0.8094778661726457, -1.7266022170052182, -0.4924728609440414, 0.34071959063176305, -0.8367570581695493, -0.6608599007689601, 0.5002538861013468, -0.6936174857505217, -0.4526425400275528, 0.630600357379738, 0.02613058797436556, 0.3808374280975879, 1.908344864755241, -0.8826694368707181], [1.3990477392228968, 0.598749498844615, 0.3128696521880734, -0.1570622069632825, 0.3424445390564465, -1.0937947324896284, 0.4151539567926091, 0.3775274761133041, 1.3369848243800957, 0.6939826205762893, 1.5340932954552895, 0.48563977183212104, -1.119652811255992, 0.20600641813296344, 1.3044869861056092, 0.47329530543975995, 1.6429335304812633, 0.7305350255814843, 1.0887359756936936, 0.6998857095859714, 1.4798211349977028, -1.0031658050164733, 0.7217998764187019, -0.30822789367410885, 0.6394326723539909, 0.42975929725452333, 1.7598372701304141, -0.31956571930719224, 0.507655645245253, 0.42789697573887386, 1.401059154259379, -1.546950115068061, 0.3497776854307697, -0.01749491598409919, -0.5003869745111624, 0.00874000861756935, 0.263481103874052, -0.1034118444439937, 0.5046364931068661, 0.01979177317064562, -0.8665444223375972, 1.9935257607805892, -0.2881768359257483, -0.056647208671214866, -0.33681667208570665, 1.1155374466048988, -2.263656994865659, 0.7137401218749788, -0.6617571140266997, -0.3257636747804151, -0.2802478369640836, 0.8252445199994238, -0.15390229182945653, 0.5650527261468039, -0.3105653559419682, -0.23282562831511533, 1.9923557562504164, -0.1565619258332334, 0.9117592652241964, 0.01701403643377769, -1.8612834286348048, -0.9456324596593397, 0.7363937916288171, -0.6281354331635459, 0.9983668725275225, -0.6059149750840415, 0.20128691229426288, 1.5117580204039829, -0.084792115986836, 1.6976798598851248, 1.1990040068345547, 0.18743124027111194, -0.16170838932889595, -1.0145394670392447, 0.45673057158212493, 1.6295138704918837, -2.2843429114779252, 1.9040023922094345, -1.0459609596307369, -0.4448688931406144, 0.42608336523109813, 0.40047204047135165, -0.09915004938371905, -0.8744316989568701, 0.20215341261320613, 0.37825789018052575, -0.10931948592277527, 0.0950092022198913, 1.3094758433149816, 1.0125215648711339, 0.4192348913215682, 0.2683458911419299, 0.4579393270598945, -0.24224421794263834, -1.6732117650856857, 0.41399158045719675, -0.052579823123797165, -2.4237168466648997, -0.9174637500858772, -0.47904545117377345, 2.2803269398084023, 0.22623489384948425, -0.5976662636642494, 0.4782658716715532, 1.025678482656435, 0.3265317232873209, 1.3904104462495293, 0.0522031405087435, 0.8429126463820549, -0.864237734636919, -0.6100814677331619, -2.112560001000636, 0.8353909507703947, 2.327523938181446, 0.3810284297614916, -1.0948960131077077, 0.9357047167773456, 1.3069696409793123, -1.2703687781400588, -0.5437711675609486, 0.823919720233903, -1.3435677260595402, -0.6593314303349823, -0.26172950305632, 0.4377810181052999, 0.5948026533892722, 1.531789326539012, -1.632278368524606, -0.5759963998812807, 0.29744846749473786, 0.9073743537842591, 2.9139673104657073, 0.7358583325969377, -2.364223095261218, -0.4828297937001945, -0.34195727819002086, -0.7823820620651137, -0.2706126676698888, 0.0756819076897058, -1.1057148676045667, 0.489496646863148, -1.1764496078966773, 0.9287759669915437, -0.00893452177813589, 0.7424029919001875, -0.3635437195808163, -1.5359575725580157, -1.575483522683293, 0.663669575273039, -1.4640463283690675, -0.6616094865162387, 1.3398358102972676, -1.031274307500931, 0.4849605607750921, 0.7161575840906351, 1.4276086091215263, 0.22704835835066894, 0.3773670115595691, 0.08491393829419167, 1.0767144159037771, -1.2626239190999173, -0.02626795023897785, 0.7428498122586099, -0.6931022611430928, -0.3582795016049917, 1.9656414548699632, 0.5917279899469653, -0.08596356147994255, 0.017831373931841255, 1.241161540466663, 1.3630124383351472, 1.8225985777464464, 0.16451419482742125, -1.1369920213179334, -0.13288074217723506, 1.2914656569645966, 0.18643638522773498, 0.6962575122817563, -0.5666433815663213, 0.23946017273817527, 0.9259578725366394, -0.8074483454028504, -0.5659635751200114, 0.8688492209153434, -0.16066473806665219, -0.973740011030296, 1.5668258183240216, 0.11935318531924415, -0.21527705466431507, 1.128619588444924, 2.684997788885371, -0.5122598054240862, 1.035347053592218, -0.4632007185609551, -0.0919873181195977, 0.7210972026850759, 1.4396629168348862, -0.2100065659971582, -0.43352255628547054, -0.19500549299789802, 1.223254983045595, 0.3323220961000784, 1.146818270252418, 2.229569272200472, -0.056330282725186254, 0.11047833176882278, 0.3580840973132912, 0.08683349414427755, -0.5326692129806385, 0.9107418058031349, -0.18030440076060014, 2.7546864533112587, -1.518040580231371, 1.8910549967662884, -0.2816839248762634, 1.0298979723433452, -0.17163268441262608, -0.44042045219737846, 0.003982590770867378, 0.5952182728644257, 0.1050558236012812, 1.0237305446596092, -0.2583760431918718, -1.5862897093309682, 0.411965939966698, -0.20019092836473387, 1.2922837875903403, 0.09283381154099182, 0.9513858186177171, -0.047740493952968865, 1.6276857261019613, -0.1355673071977639, -0.39339568154864824, 1.4975067394462138, -2.3712869927661306, -0.7539030472121178, 0.26466422421002245, 1.577571904219639, -2.1865811323641133, -0.49513833646818, 0.3787968227000015, 1.4457366969553, -0.7708789196235175, 0.10440251957619169, 2.0754803514866764, -0.23288529306108577, 1.3497452157940668, 2.0180715774055513, -0.08209498896570105, -1.0037515830981834, 1.1661444436341482, 0.13220830474781214, -0.2714780926405419, -1.722942005656062, 1.0350540440356764, 1.3275550990111658, 0.5397631493989006, 0.7048733023750653, 1.0838827954506975, 1.3444389244507637, -0.0012288691299059407, -0.377372170006793, 2.013133558073496, -0.1350506328044668, 0.19179939425878123, -1.0308987407854595, 0.25203212303868283, -0.7843483615230618, -0.3464123449311237, 0.31494173176982354, -0.936811020180246, -0.1221475765612435, -0.2287962742626723, 0.7247993173952603, -0.632863894993093, 0.5414949065762696, 1.8519439523410082, 3.1275306598861317, -0.746769318885209, 1.3128632625141314, 1.2715875715536529, 0.4231722920566802, -0.10350764377311975, -0.3591681366827097, -0.010567697069574472, 0.43806077210070804, 1.3427084372406994, 0.29434302529060813, -1.0575732262357032, -0.5294175580586618, -1.3768744409698177, -0.2679016479107242, -0.8553041836661615, -1.1848092426847852, -0.7024515151482367, -0.9022219039024366, -0.3833586186223558, 1.4153710075874164, 0.6305661895605882, -0.35219177711224625, -0.01684119081818583, -1.7342773419295756, 1.1230500742338076, 0.9939434271161418, -0.5533904277168431, 0.4647829434742279, -0.937969188673542, 0.2842261760895578, 1.247943525985936, -0.4165204776756716, -0.7691626709732247, -0.05950421917987353, -0.04784756704872947, 0.5697440454588983, 0.38968243770536504, 0.2781591193299371, 0.7734918494490541, 0.06914509431711474, 0.09055578076618431, 1.1578157262364184, 0.4650889727069316, 1.1580079562729289, -0.5084099800977682, -1.0219207079845423, -0.6866477057569685, -0.2992162540817703, -0.3966223166086152, 0.31634276759325486, -1.4731875654169926, -0.4516357851161399, 1.9517499198698354, -1.5450113882109906, 0.04581160574197346, -0.11290062027283018, 0.5702061493528529, -1.701640307620278, 2.088058654888862, 0.8273450932715832, 0.7676172625382005, 1.160426132782537, -0.6015065870809485, -0.24636728694600377, -0.4280343345376544, 0.6076663543060443, 0.14363624184879115, 1.239149451868791, -0.3872050786964588, -0.49862046943533334, 0.3884322949977334, -2.2954257494663777, -0.050265371487869887, 1.0320150895336118, 1.2061249869968498, -1.987699425143806, 0.3664421604299021, 0.9323428383245851, 0.6237062990880817, -0.9562532601079918, 0.29741816645478153, 2.0061153416702906, -0.852986118259379, 0.9200549531025207, 0.6491474281307011, -0.3201462632927915, -1.7525243561419028, 1.043786724117715, -0.6715779514673514, -2.628382883961426, -0.18183232060112567, -0.058108357564264856, 1.1848870260603634, 0.8947199208191733, 0.6649162137917634, -1.0204912044169774, 1.3467019937938338, -0.6483165698194611, 0.565924139891145, -0.021594838420970264, 0.854724875889172, 0.35490382594958647, 1.6393416022397544, -0.10747772224745919, 0.6579972025902396, 0.24835756323357336, -1.6232781273767156, 2.6814186190850693, -0.08844687820560407, -1.2966632546074333, -0.31936188715753244, 0.9874459240307674, 0.031116055387891445, -1.9522570488830513, 0.839843243101118, 2.1770424236235284, 0.3074810046555868, -0.05793165460677108, 0.14818062830899073, -1.7313720955212486, 1.4752343647933508, 0.2038075682016238], [-0.017385853847041943, 3.1258728879679962, 1.2483034741058658, -0.8399063332414468, -1.5786109505361865, -0.5548186068681921, 0.28552504232198234, 0.2991591259468535, 0.3425456774934464, 0.5739240061978567, 0.7262110845386524, -0.7933290611221466, -0.11736435134365546, -1.4885084575781526, 0.43987853934913057, 1.0726465217200807, -1.9277109105852581, -0.20105100992042213, 0.049200076320126, -0.31507402976684845, -0.28240956030523234, 0.44495981541489765, 1.667435001604326, -0.5270077782915736, -1.3923773820412082, 1.690748051807706, 0.769076314060436, 0.9474178378385953, -1.2518817712006836, -2.0951436284111806, -2.277882982031764, 0.7282382299224421, 0.19548275288048994, -1.1023454262157941, -1.0790955820878272, -1.229491748007091, -1.0199873973670972, -0.02291462911765771, -0.45159598038856735, -0.7331644048294815, -1.1262717149995292, 0.11711260842645907, -0.7653642535743833, 0.321170227503792, -1.0237690101805672, 0.14330472192266985, -0.31613295223735793, 2.769507029171517, 0.6397851069432311, 0.034536921365857905, 0.8623783701317574, 1.6222780645848, -1.5873328655827443, -0.09071606485775222, -1.1332821653961551, 0.809466359414835, 1.936953850544859, -0.08258100393083669, -0.3202516368101857, -0.10921646180283935, -1.1800340525481787, 0.1607196051662048, -0.017600611167873304, 0.7612993086741333, 0.8817776161888782, -1.3862854166357765, 1.148914835022705, 0.6393070350275339, 1.1050453276664607, 0.2702280493876152, -0.11414318423702653, -2.0193424608325277, -1.2531651540440396, 0.665787969021412, -1.6574044723388575, -0.010810843276180458, 0.5384083090985357, -1.4886064997503283, -0.24665182173314665, -0.09690599664455425, 0.8739144511936698, 0.8973162139331016, 0.540766650909439, 0.09733826156321719, -1.1994413070323169, -1.6327322479064057, 1.4200755736079962, 1.6184284711290917, -1.1580452252317806, 0.916220224219166, 0.8956007864700677, -0.5305942493731228, 1.0101093904096687, 0.023317874838877144, 1.3656370404647074, 1.2960262259428166, -0.21695024703885377, -0.059246135319823826, -1.931965864385348, 1.6240572291131241, 0.20316440150390727, -0.8341967625695877, -0.5748646328510201, 0.12261923250002292, 0.46984914805198524, -0.5027432990109607, -0.29554938631952815, 2.0271361263067926, -0.0163719822268513, -0.27593153995377484, -0.39520399472040874, 0.1784427532614579, 0.18899055509513044, 0.0597152662763188, -1.911759786386904, 0.11829529691990441, 2.9689541136865545, -0.8439323780148672, 0.6601237590143545, -0.856579925035816, 1.4276742246581835, 0.3402687589328826, -0.5750109062745058, -0.21035380857064837, -0.3459915281992286, -0.05878286787105335, 0.41403424642559133, 0.9035397608392516, 0.4346901440289261, -1.0665767401652522, 0.3890269260913897, -0.6722026537157861, 0.1476781623945682, -0.4130203241712022, -1.4370852511261025, -0.891446396683304, 1.1113851641463746, -0.6985885987587048, -0.6466788531593418, 0.5101824670374864, -2.311433718662173, 0.017304662098589996, 1.2758614298470463, 0.15343029227844443, 0.12476116111167876, 0.07724039571672715, -0.2952255309587736, 0.30343456822912906, -0.5209484732692603, -0.4917237894510772, 2.1719968071372313, -0.9016793026809965, -1.7414469350845596, -2.622869852828161, 0.8539060270889577, 0.2113363993123561, -0.5005352646887561, 1.2692566376707946, 1.42425978569036, 0.14153218400715073, 0.5915786958021545, 0.6798462484410535, -0.06807427280235545, -0.39387471906049426, -2.9223054976254277, 0.8505554479999536, -0.16484847306491882, -0.24162133933148794, -0.6865382626597801, -1.049257072576778, -0.14045915204657095, -0.35862162866506253, 0.4759731140162117, -0.818339110767078, -0.3937537721845122, -0.704927438095342, 0.06301379612803326, 0.030199302877121397, -0.6007806742727745, 1.0270872139413711, 0.35560118631812326, 2.5021181467684532, 0.7347472853197661, 0.060987156438695254, 0.18050920166118453, 1.0768093667398546, 0.25907869723298244, -0.43481635764804955, -0.11022512199368245, -0.8563038399686335, 1.1581239997535162, 1.2925408453881129, -0.7287017474248373, 0.026096270701046847, 0.2344889154198046, -0.5499130010616476, 0.4306029891143261, -1.0479827275149354, -0.23823874118898794, -0.9994113712691239, 0.6532264173027728, 0.09560340774193513, -1.6932310510554147, 0.05994806608885026, -1.3486784208482447, 1.0953410562963788, 0.5191212199041513, -0.6290650049117421, 0.9425346426687784, 0.2501615844901606, 0.9486544181332539, 0.3542224870999494, 0.4023697545353104, -1.6597498133767898, 0.5443932615685342, 0.7753995306295057, -0.683631871194352, -1.7761422234498576, 0.9328675549609698, -1.2574667823930215, -0.6535077360046235, -0.8922655889311023, 1.2101194982723544, 0.5775308587564814, 0.9573059308202014, 0.3817062542037764, -0.9477883911308117, 0.981055514317115, 0.44490267925114224, -2.594489837147653, 0.7511558552809529, -2.3060342818483415, 0.19901792550633934, -0.10338507740353686, 0.5048569550563057, -1.1970549837983928, 1.4288864325961639, -1.0150532953126155, -0.6912924135646489, 1.028187160666997, -0.9140977956250643, 0.21370416956359975, -1.1093187132884677, -1.5611012250119989, 0.06277017324604828, -0.31830929850442974, -0.612692413507774, -1.118612883960036, 0.38798022906028734, 0.043598759180723486, -0.8311232752505667, 2.3567152250900096, -0.0968122636318554, -1.0060272966247212, -0.34973335728600013, 0.12889682354239124, -0.3368090526305353, -0.6346201334758235, 1.2033582662225988, 0.7573835281146304, -1.1591640055782344, 0.5021265851314112, -0.4208329375422841, 0.6740451648974537, -0.12721320343608697, -0.4501063662070567, 0.42824174563175404, 0.11828803787815184, -0.871513226609638, 1.4645983043502129, 0.30909129467985946, -1.0507942608331848, 1.7442816718447187, 0.3481684070377879, -0.12135029714636357, 0.4333108321101384, -0.18148783037678265, 0.7723389079347972, 0.4342623410534641, -0.5650272682762789, -0.8179915406436458, -0.33366342059909426, -1.1992767858634135, -1.8054285426635506, -0.3314190140314648, -0.874128789538415, -0.20676948250318491, -0.5159902277922149, -1.9825315564358656, -1.0309329498411586, -1.0354102265343061, 0.5258980064380597, -0.5608850324487401, 1.4901619402898372, -0.062256498766071325, -0.6295834878840896, 0.6960464719916094, 0.8466396438849656, 0.8505221100184811, -0.7026677020860276, 0.9935390550973698, 2.079845169472735, 1.2573848986752274, 0.29505530075145114, -1.070864699840477, -0.19094459514311962, 0.8215236943504667, 0.10317257466086596, -0.4148657342357456, -1.3856834396116624, 0.47614303031087274, -0.006933951890021504, 0.0425968983592628, -0.0528334573904763, -0.2922487953253158, 0.520581352788562, -0.34061650685765305, -1.2926079933688335, 0.9279335531201232, -1.727295281232439, -0.34157487238797113, 0.28910774144812607, 1.0485699167417633, 0.31998179539057126, -0.5935883024079884, 1.5225431527785909, 1.1969167834062342, -2.249720997232928, -1.1266987300406694, 0.9083555907090803, -0.6497943241477568, 0.5698959550831777, -1.7021792237722293, -0.23921974818214342, 0.5436556298821051, 0.43138968686048984, 2.5467482246086766, -1.1972758585620682, -0.7440633762785496, 1.2821763422932613, -0.4153861158456659, -1.1013544677632914, -0.1221968805398411, 1.5170127611582827, -0.9582064928310101, 0.175339243993304, -0.39477624032732717, 1.1010377361152517, -1.826151664987232, 0.2162043327188211, -1.267820421095741, -0.7884602211768095, 1.1470015374834326, 1.2215107115260018, -0.9752605384689019, 1.2006463577146724, -0.20214336984992348, -0.10115476208420611, 0.08576719248346246, 1.3395256784963452, -1.2317015579496418, 0.3331663595450938, 0.09765931322343753, 2.828834178643468, 1.0641641041478214, -1.2207914426740767, -2.5013700837331085, -0.12834905810037336, -1.5593647331615847, 0.6877833573963916, -0.22003610023054387, -2.4066323887922403, 1.316398280728843, 0.425494834212741, 1.4160326269389136, -1.2112678801047274, -1.2246899260781074, 1.8663598450585492, -0.20091179957411895, -0.7489766657006643, 0.01932482297282186, -0.9421045600430894, 0.5199972522731703, -1.0354646622101324, 0.7798063995020512, 1.4320781176053212, -0.06260497042720595, -2.2264031228141623, 1.3580157855737072, 0.4371131496620128, 0.2892387352900586, 0.09776760200124604, -0.26954420306625204, -1.5327529203346328, -1.3350280756101827, 0.6478689978093476, -0.661410589425698, -1.4414729519775469, 0.6995774085499813, 0.5056970439171874], [-0.3655404338495325, -0.9744584047742, -0.14495412663052726, 0.618397258444457, -1.8079802017999727, 1.203697562708709, -0.45847952299289224, -0.12479270040541479, 1.5137600677724856, -2.0535069999221385, 0.48048468782332376, 0.662575724863831, -2.4873783610883597, -0.771445265960603, -0.9651539601562493, -0.7529452237032966, -0.1500176900113269, -0.22014681047209889, -0.8235225364304859, -0.7377660290161505, -0.010642014930716204, 0.0012219115155566729, -0.008035100215720292, 1.1513108569733719, -1.4629340668669892, 2.1166612161366665, 0.019547261251601722, 0.41837645282302877, -1.997315852961794, -1.2650008456312616, -0.716620009042554, -1.0405235936049353, 0.1598139013522895, -0.47899874337958737, 0.19641071750684186, 0.6677497698938223, 1.673090528237565, -0.8883564454971369, 0.46098049549544173, -1.4376539356699796, -0.35607246392167724, 0.5246434027681024, 0.2698558869143408, -0.5092724533368651, -1.4592106754218153, 0.420770927815299, -0.4972422494372074, -0.8953876896840169, -0.14336770975065963, 2.9710440532787046, 0.17145371296469397, -0.044547069512769266, 0.4185699779718495, -2.0592241408615, -0.5431035926648744, -1.3469616156332804, 1.0810086922076163, -0.2690920559320682, 0.7750373965612662, -0.7312054910693041, 0.25387165044627624, -1.0146203511173217, -0.34772613629281673, -1.2918508062452068, 0.07787895969762632, -0.5188059448609328, -1.1405167354728696, -1.6501895369483282, 1.2536785225791844, -0.08647509514059143, -0.10621230894743452, 0.1790996280849152, 1.0458569265495088, 0.7456091337403067, 0.8620135017826858, 0.5383369713219398, 0.4327604846396501, -0.019178220847758498, -0.08480628747831595, -0.47098119826634066, 0.3812996284852647, -1.060334946009322, -0.2906355073041055, 0.36217715338590883, -0.3654489789980149, 0.33257521363648856, 0.333803634738616, 0.18058395851861403, -2.0647415856127593, 0.8813284167122462, -1.1751059153023793, 0.7679934392797039, -0.40745988993477805, -1.3721567295957198, -1.9418840171448246, -1.4913749924732975, -0.7529676644342436, -0.7866976679657673, -0.663267798935171, 0.06947874771256374, -1.356590263071873, 0.3108223651437643, 0.8830813769997559, -1.2373767639228483, -1.2683894041201242, -0.32495129677536716, -0.5247747895295498, 0.44439522511252627, -0.7082525932646161, -0.7976804438511127, -0.16325263929320105, -0.4678814733180374, -0.4553232391271531, -1.0044054154794788, -1.115629292630967, -1.5373584101913744, 0.5029228191610773, -0.2859389346360027, -0.9042387432543092, -0.9307504354548156, 1.1845460157360135, 0.053335884688223756, 0.6668977829467726, -1.4900957966476627, -1.017896889638401, -0.9027200055144604, -0.34226391132248424, -0.07218405374534129, -0.20628855856416936, -1.1794294327794845, -0.571052146101318, -0.2387818508219866, -1.9632898557821703, 1.4407425192776406, -0.5842374581385692, 0.1565340173212103, -0.5245742247205525, -0.19249400343774714, -0.9232737627326044, -1.5962392622711783, -1.4885223844173212, -0.7053501105018036, 0.35927932569398785, 1.6095949079672274, -1.1812096881507437, 0.7845193986774049, 0.11668002683317613, 0.7648648170280791, -0.028026978541336012, 0.6942916464580058, 1.2702693785279981, -0.6695750919249923, -1.6461064276713353, 0.7409410632655853, -2.049949754780781, -1.8840687842744637, 0.47391986076609643, -2.086591708481177, 0.09972005337415876, -1.2794552581976684, 0.0809133667188962, 0.06118988385835866, 0.6262192427819957, -0.8813035755367068, 1.473556739074449, 0.08711477662012929, -0.7817705782391164, 1.1750428344100692, 0.3614428347702636, 0.8814037299532691, -0.8244845196618569, -1.8377973370178866, 0.972573038494202, -0.8120021625172715, -1.3091179323658464, -1.755246945069816, -0.33066147849529565, -0.6801903366711428, -0.1913855166863913, -0.37558649095841645, -0.7079792001059736, 1.0150910828219835, -1.2148077863863003, -0.49855867820554334, 0.22786275707385695, 0.054779517367377406, 0.8438494445286812, 0.6232675631510993, -0.7328052833179648, -1.0049479074063596, 1.0782317987492762, 1.3684732733964928, 1.0617846336325585, -1.3568739003841137, -1.038661928889698, -0.32918140483066954, 0.625930704260514, -0.5436213048772717, -0.6932721727651732, -0.04045280318659242, -1.3013786242547483, -0.5919244925840317, -1.0493584525785518, -1.7651346745944294, -0.7424627657138727, 0.5889039261480413, -1.7764448971442623, 0.04664342942456337, 0.062205829490237674, 0.38575401902961065, 0.4976835541663256, -0.626368176257983, 0.12849532215890846, 0.7328373755862332, -0.7478930838175458, 0.6709089420096398, -1.193531619134588, 0.28259444335375156, 1.6789056862067313, 0.8692238450853889, 0.9046716050593201, 0.9646879271937447, -1.3148340255681936, -0.08106491378916786, 0.6047722561449955, -0.5436864895065829, -0.30826525258787585, -0.5188326261303041, -1.5286005903705469, 0.3436657644276942, -0.22022890332483236, 1.2464772480333914, -0.8268120410349353, -0.9616487047249164, -0.1818406538190951, -1.9428422207778402, -1.6013517870646676, -0.46172985459586335, -0.711526534057151, -0.1674919998566401, -2.4323701498628303, -0.03099875427972812, -1.200589069315706, 1.2864014142409195, 0.7432629676008164, -1.943148750451057, -0.35205891141239587, -0.23778685248971068, -0.4445556495271202, 1.4714854926255723, -0.05306528497949026, 1.6546634979557289, -0.1403715025538717, -2.7995529496898803, -1.083712390773412, 1.4597517469387153, 0.6532003899787671, -0.3073231518295274, 0.37378441139813245, -0.5522390990973526, -0.008668718878071968, -0.6082119343547588, 2.27934872885975, 0.7757808841571486, -0.6215476995300543, 0.09319611193704569, -0.6018763038386667, -0.17131287974142517, -0.9977390563098698, 0.7003731661063975, -0.2328098760924887, -1.1363819841884422, 0.1738054025724603, -1.2063994153954818, -1.509175100100089, 0.2558595493939767, 0.3802320217555091, 0.439366508228132, -2.0425773822493793, -1.9588135851457906, -0.4833104339165815, 0.16324944127627927, -0.14828721831843222, -1.794475366505959, 0.9049555299471483, -0.4024044818130161, 0.21903262406336865, -1.167299761168257, -0.5876914975555358, -0.8077397421782593, 1.2004436621995809, -0.46683324879597093, -1.100132990821044, 0.3326888199895026, -2.173027388761667, -0.07480950965526711, 0.8718424455066913, 1.3370745342096004, -0.47394132515119053, 0.3260584931730856, 0.3102257517037084, -0.03031042803055517, 0.3622427911733677, 0.5602059589809303, -0.9147386165061169, -0.27779806208329044, 0.5001517201872188, 0.4785816665554597, 0.5548355295199867, -0.3194430699775568, 0.02939610705662682, -0.379564113810421, -1.3953538115532191, 1.2116018635681072, 0.4801991332698191, -0.35475611075422936, 0.2876134413200617, 0.5040072966818634, 0.5674845890315996, -1.5726138842630384, -1.052551312630437, -1.3324504713182082, -0.4080906120730575, -0.09419514026388567, 0.5530284667616177, 0.9173469685572917, -0.3119764099007352, -1.0404910355614378, -1.2148168369575165, 1.1382662972474746, -0.7001250634879326, 0.41179428419442465, -3.6762591103620506, -0.6356566952125593, 1.1543905235352145, -0.16596190465636154, -0.23855602878738857, -1.8473016253236156, -0.961608578476175, -1.60045475954884, 1.468123198140424, -1.5669929604565715, -1.5777207886841365, -0.8370956828895006, 1.3590585666193244, 0.42563277563473106, -0.2292609303039087, 0.7886468254482548, -2.006754978677634, 0.1716410063036904, -0.2319127143444113, -1.3502893986401863, -0.3594272251480336, -0.3891041999428658, 0.45599971588286303, -0.534090777825325, 0.3560592581837144, -0.18655095382241552, 0.10276014454968802, 0.9912897299391819, -2.101494667704212, -0.2966241548458565, -1.2482141899107808, -0.10408202276617565, -1.340334145171816, -0.750726187100822, -0.9934855429680463, -0.2190767847994234, 0.0960024460477093, -0.3072236078436643, 1.8717760418318043, -1.0979382953683965, -0.24092960119909043, -0.08044238631469314, -0.04066310036263929, -0.14732850641426287, -0.8355439938191365, 1.579356210957599, 0.7193568721007302, -1.4942064293433555, 1.9236789467033526, -1.1937338829939153, 0.8307201310311677, -3.037612264838435, -1.1805615749485552, 0.05964660185148407, 0.5020914251724784, -0.16426727653294082, -0.6754932599698225, -0.11713154823390501, 0.9072509737752844, 1.005779667292916, 0.17105648757807684, -0.05036422289848799, -2.2293039180370013, 0.17522180229139314, -1.5597962740562985, 1.6143460761618698, -1.1100451262053745, -0.5319887238574277], [-1.0230262573566151, 0.6460293584946545, 0.1965782822861307, 0.9476048638516726, -0.5052813965336486, 1.2238333175278002, -1.1749021334641756, -0.07434535783511419, -0.7901532159074259, 0.015758526970369342, -1.1947743431442057, 0.726541873644529, 0.3280203635827382, -0.40538159853796724, 0.4625921943034757, -0.6660583423124199, 1.55880483738744, -0.3852047606642102, 1.317326034425524, 0.9357031385224018, 1.029929566156229, 1.173395316170958, 0.20904743544701085, 0.6779725192269982, -0.45295071288694055, -0.6849581488939293, -0.7130357974475756, 0.02241188882238162, -0.7191706203845948, 0.3141183710902498, 0.23437030818629964, 0.3688745899542955, -1.6234337553735472, 0.2027207659824549, -0.5780875319615469, -1.2627147146771633, -0.45526919245136993, -0.33667764554400587, 0.17044099276225355, -0.5328863245629002, 1.710746077737499, 0.7134695946758131, -1.5568266359733738, 0.37268930894264735, -1.181038751904936, 0.4203619503964774, -0.6342820963390051, -0.03187159056668098, 0.13992002634634104, -1.784592438419504, 0.46819890754217897, 0.2520660698072942, -0.45884815011342167, 0.46957028534832657, -0.5023807419230878, -0.8161025220397398, -0.43722321824601135, -0.4721335068633769, 0.08080115070214317, 0.45577636606280797, -0.001645862842692006, -0.14166238322681707, 1.155224054090185, -0.336227088261553, 0.03446021399548411, -0.010582815600431778, -1.4030642026325213, 1.283782006614544, 1.3440678025632833, 0.27962579508204977, -0.1653827369241979, 1.6525706779784448, 2.8076554881595404, 0.7349469335834339, -0.5877643997160173, 1.270839380276685, -1.0516399235060514, 1.4029823627405031, 0.9893349397567658, 1.0942876760439686, 1.8869346991616567, 0.7444904172785395, -1.120101268282699, 2.015649627642374, -0.08163194343116315, 1.3625737410070788, 0.17931134032884544, -0.9033811537376659, -0.7690827327500893, 0.33918042505619533, 0.29028150001868763, 1.4045831231266452, -0.4287008874777198, 2.087296411978512, -1.0463769181119393, -0.44834106872541435, -1.4098718365078717, 0.6118961308944268, -0.3488280948492869, 0.06551680457550624, -1.5637843461153973, 0.06091277917494838, -0.8535405478103976, -0.6904282810212473, -0.045165397326560774, 0.7827151712715467, -0.8425964836406936, -0.40801035232978494, 0.2846936044032486, 0.7522098298760241, 0.05117883649088947, -0.1362089366570144, -1.1241498045564413, -0.859869246616462, -1.504809606452295, -0.34242284989157223, -0.07383571331745552, 0.09215493288666332, -0.5032191906689992, -0.026175316722826244, -2.0443319652225336, -0.049307478335867704, 0.6146912827422404, 0.9842729128529623, -0.3645654490598786, 0.7422206034619601, -0.45107019278171584, 1.5374759414333359, -0.4395219352680685, -1.3066289378603855, 1.1039982881682728, -0.707449286597569, 0.19622696114559918, 0.9016192397955018, 1.1612581424686057, -0.6162670620534485, -1.1435159552816334, 2.1914839604258334, 0.35917012092138034, -0.2172444786169332, -0.5229064619649658, -1.03716938306504, 0.17815583017167427, -2.2294362047159244, 0.06664351990291022, -1.0952571653198218, -0.20722180321688896, 0.44995829882342053, 1.1702577588515501, -0.9290707133619179, -0.5753912348626985, 0.3505958650223947, -0.8478000551969015, 0.9071564247116892, 1.7406312164684667, -0.033736184437943025, 1.3277984106950402, -1.0839813391228963, -0.3084310944447041, 0.34331533974856815, -1.5340137986552425, -0.7593650312755383, -0.26412042312058187, -0.9189895816019665, 0.85224370455714, -1.7967256114087966, 0.08967787421151575, 0.991332632186499, 1.6783417867731374, 0.005836206435510436, -0.8175394544606314, 1.1490284837986255, 0.8690703453891021, -0.4544780246831636, 1.1089654228838839, -0.8674008481038199, 0.3522186559432118, -0.26852602380917495, -0.8082010331808529, 0.06474474593060638, 0.8634444323352972, 0.1070714171286722, -1.7991943686554737, -0.9544792274579209, 1.492884008868654, -2.3215998012992327, 1.9903416118887367, -1.808596728233151, -1.5191176518686909, -1.6163629872679797, 1.2340768014917582, -0.7380800315698143, -2.263755810232334, 0.12581331011684163, -1.231845225078716, 0.5405379137124706, -0.9444470547232903, -0.26240486788280953, -0.26092226275419284, 0.8789006025733751, -1.2112739598943063, 1.4027505315569133, -1.1389153986864302, 0.12216205077711022, 0.2405620691530938, 0.16406157705100982, -0.19073808177433943, 0.4146089674161889, -1.0776066198056549, 0.8333204886722078, 0.330697869541892, -0.20374135893283238, -1.4522325243241923, -0.38274485858114154, 0.24125749224713264, 0.5383931086325755, -0.7923866910609986, 2.4272200975856517, -1.8690125156655701, 1.077668195945799, -0.9875257991163969, 0.12701218579065437, -0.8340382364569111, 0.8324110874831356, -0.26887072787264577, -0.4958256020343777, -0.2970447986027133, 0.8684014569039489, -0.6036800493293708, 0.36142727865590196, 0.30487718639102956, -1.1154495541623786, -0.292977859471509, 0.9917278372935341, -0.3189428983100712, 1.345145220600016, 2.5907676971386957, 1.3857296481258112, -0.9737141187946475, -0.2638914120832105, -1.1008185008505202, 1.6425923693419042, -0.5983319303929368, -0.7267739400853289, -1.7048686393555716, -0.044891881879378974, 1.07767978512022, -0.9182024108526574, -1.4139309031481848, -0.8169201769492389, -0.5317453757606415, -0.32314547171573543, 0.3398271264618725, 0.7282097783454176, -0.18173985429561482, -0.15554450155603128, -1.7909457988729298, 0.8913731703502873, 1.632244343585426, 1.977172866856293, 1.220227466621149, -0.17469709520870172, 0.6596090615036592, -0.08184855315730794, -0.3865682024953616, -1.2454209782484418, -0.8720169314786358, 0.6210614109659671, 1.2018301940500475, 0.22459957066132116, 0.8918141509360592, -0.44720579519911036, 0.935298364810788, 0.5515799585158752, -0.17519485357361803, 0.0872044178274997, 0.4062478756421765, 0.6217671774656806, -1.0557900670996396, 0.8966384425989665, 0.1492951489243426, 0.4426618827623411, 0.1888276451077562, -0.2794263522722817, -0.9729034298058334, -0.6994467801057644, -0.5109741149870735, 1.108056763558717, -0.3698147407157748, -0.275449184400675, -2.9917787825517563, -0.5415655584343093, -0.6005582297836277, -0.0687144672992197, -0.5571765793190053, 1.2049250080896077, 0.2502843918060156, 0.10117554218803308, -0.5840306113447812, -1.0475101081165485, -0.9525392417238103, -0.5623181899830534, -2.4149759644371267, -0.1904317673992704, -1.532065665527035, 0.6617456239572495, -0.2678634447006101, -1.483821630738336, -1.331067438839042, -0.90321571097407, 1.2507709109204164, 1.719519381363671, 0.15851442387421258, 0.0020474514052844636, -1.18019192951677, 0.3249423411583015, 0.01609961993863617, 0.40437456814579364, -0.0526433094819336, 0.0035151251661621414, 1.059674101751391, 0.1817679822555307, -0.6908612921724014, 1.8291487755415554, 1.3391882696557174, -0.8803869347156755, 0.1344160742651962, 0.7904959861828955, 0.6136514276999673, 1.573493174296584, -0.2393918789998147, -0.7297630153164799, 0.4103014994581841, 0.5140787731904033, 1.0916899070328994, -0.10601648643566117, 0.16653171356130608, 0.29260004545093676, -0.5865139947868359, 0.7863052750450881, -0.514752885983205, -0.8954876016102447, -0.9215032539959352, 0.5437323761873257, 0.6806221081300132, -0.35397368935803064, -1.843118139171406, 0.89043967462144, -0.6295642624062473, -0.6872866386679731, -0.2246045084233259, -0.7573991127374755, -0.19262200031912338, -0.05787503589546006, -2.150463432596652, 0.8863233201707237, 0.34779332344253183, -0.4174037895782302, -1.231589799883035, -0.9110834234757302, 0.290898577164826, 0.07233782831717273, 0.22610936857529218, -0.3893130933682982, 2.2234625269590014, 0.5208029270192154, -0.9832693486376213, -0.06953749593985172, 1.302658601612563, 0.6788646547661882, 0.260762307463552, 0.26163813512326767, 0.4022849587006093, -0.3651898451968863, 1.7350505301726011, 0.034398678749090555, 1.2497024631810256, -3.035170020082039, 0.5222150492616838, 0.5930139199504671, -0.28117087169183785, 0.38329721941834255, -1.4284009767392578, 0.4247798055732518, -1.1877714546310512, -0.9569374505525381, -0.8648919929345782, -0.6448436869358706, -0.19810883936670096, 0.632425118869209, 0.08465943511057, -0.0047059899018722755, -0.44911344865038616, -2.2398304243709357, -1.0148184515635064, -0.24984597001725933, 0.30335785259714954, -0.28969658980587676, 0.5713895412357974, 1.212247898039671], [-1.541852131095817, -0.2348973728351746, -1.0188102581182714, -1.3101258728658882, -0.4106110361930366, -0.15947221439194886, 0.8289390906847848, -1.2115678958997138, -0.07885000493725866, -0.7463152820665747, -0.6946413425394202, 0.6309260900315714, 0.8089622577519999, 0.27485615511020567, 0.010627714833147839, -0.5329728832189058, 0.5971404295787532, -1.2621625434197337, -1.8941912444554219, -2.7579228869567585, -1.3483727411384518, -1.0174231535646407, 0.9151771970772615, 0.17769370330201062, -0.4986860549986213, -1.4304708851482162, 0.305511816887967, -0.6511973968007488, -1.2131516589011029, 1.0442359900485398, -0.19758636195567897, -1.0816921751412525, -1.1572736601730793, 1.2119940494674328, 0.8845241004689663, -0.8607826551661348, -0.6749464106244298, 0.7334666030248171, 3.0276121421459328, 0.7760768006978982, 0.45891337349583605, -0.006724602757511189, -0.7006541573854086, 0.509700080012986, 1.7115827232436305, -2.152988655466646, -0.15286127425234858, -0.8030873619030046, 1.8775338168491469, 2.067655860751877, -1.1978504331597206, -0.08798940139391057, 0.873268274249575, -1.6766081994340132, -0.9811332660609917, -1.4728372796063862, -2.2934765628087614, -0.635695863990761, -0.4206837415846973, -1.3240206281695839, -0.03725365364447658, -1.624307161748951, -2.4052468219624683, -2.0254499284399157, 0.5404037031829502, -0.5666588808196398, -0.8610732398150832, -1.0347005833431608, -0.591961276529684, -0.16561793120062968, -0.3204277276215054, 0.1290537298242207, -1.2826224588387425, 0.8583422341311339, 1.0916111527636205, 0.30532253988164043, 0.6710501766382724, 0.29393499860708977, -1.877067395291509, -0.05912988267137659, -0.9149373560979515, -0.8186485390237945, 1.474963301800361, -0.2176113316735015, -1.0723452521720465, -0.7760893421910859, 0.5765580322339272, -2.055695903140785, -1.222205800896457, 0.9924194970220988, -0.2316313671231882, 1.4001438930558054, 0.032089611521335826, 1.0766170852809556, -1.547396454798023, -0.08842915348551492, 1.0961375014777617, -0.030921102508249976, -2.5559233391025793, 0.8608127140458545, -0.7782451013117079, -0.486756305699348, -0.42184515896241803, 0.8741861718360866, -1.9274277438428784, 0.8329272197269368, 0.9329615882536682, 0.2841935369562193, 0.7498726385475755, -0.3720395570112547, -1.186166791157494, 0.67267868565919, 1.729498316024669, -1.2122131234501257, -0.7966638844541201, -0.01704158942156836, -0.4355092068669073, -0.39445012418861186, -1.21614781927603, -1.2652115497700704, -0.974232547596126, -0.6778483840968035, 0.5999056813304386, 0.31703256055350604, -0.7569009813767846, 0.13436256340055402, 0.4519998015764883, -0.49629526623634135, -0.7275553979995957, -0.32711741562536295, 0.04277735826508233, -0.5925165310417031, 0.7655919296101834, -1.3789092550821986, 0.6225329899090914, -0.5307774700447421, 0.0957362109785021, -1.8943164463319344, -0.5444600480590911, 2.355379691885923, -0.34997357146577773, -1.615353329874646, -2.068881577963142, 0.7622064032228939, -0.3208734698604383, -1.3182613173545294, -0.7978952313153593, -0.4877528001315824, 0.004733346164975394, 1.3986169322920416, -0.39179901370308245, 0.7455373904531555, 0.7021784252111181, -1.6147024668473016, 0.03995899541919845, 1.1434003444550433, 1.5410643668356152, 0.7711001458707072, -0.6589879041868054, -0.31831112266054284, -0.6932730055722852, 0.6841911685851942, 1.5131672155631943, -1.5481148259316762, -0.30842876051756596, -0.639442492719094, -0.4512468863023131, -2.3189575138402176, -0.7122006705613451, -0.2452762633103996, 0.3138127544859593, -0.5724605330338095, -1.5766417473570797, 1.4020745668997265, -1.3746185269049782, 0.7853846969454128, -0.33843802808539797, 1.1269929231863007, -1.745810712591508, -0.11043104391513017, 1.0470194839938212, -0.49517641265680346, 0.3992184454721749, 0.19727923738607306, 1.2016506068606756, 0.916168483050835, -1.0655739176290902, -0.6210935834130761, 0.30709507149914156, -2.3162704109374883, -1.884957493593237, -2.0864185105114874, 0.2723536158396307, -1.7734525716129586, -1.1733451772844128, -1.2783909942086105, -2.2270090297422045, 0.17416955715231203, -0.571476824828657, -0.7185538603595206, -2.0256709921280986, 0.6711054607517162, -0.16360102910592342, 0.5185833049948038, -0.24660529345096177, 0.9231892488715732, -0.5148588666898231, -0.41764124170311523, -0.1838899007149175, -0.896791253879688, -0.9796639001865579, -0.4749108105536286, 0.399373588724009, 0.4117976718055974, -0.8719402681837676, -2.4541444824710927, 1.1142291516062344, -1.0570574648201871, -0.2957792685339539, 1.5786936733621268, -0.4642524421930462, -0.6455762735676729, -0.30417619335605484, 1.4928759752405365, -0.7339247482159044, 2.1044199968053525, 2.0181796164803516, 0.3569089522087902, 0.04286612641867399, -0.2707041150794796, -2.4860518091434356, -1.5732944686814516, -0.36320479646018966, 0.49512015965840056, -0.35697206189115094, -0.8657728955807249, -0.658602898321175, -0.05233078650272571, -0.6128710471169552, 2.24317738645078, -0.3500829039850367, -0.7586897617971129, 0.43457783748532874, -0.08038998232736777, 0.6232789654457149, 0.8826277460081317, 0.5315884292539661, -0.4887148307164224, -0.7883660473926581, -0.4369974616571775, 0.4223277050591796, -0.6233805695410216, 0.004206590915242836, 0.1944870870222158, 1.7134773296156223, -0.717332067876313, -0.3463669347345357, -0.7859264786205373, -0.4779546636393611, -2.2421425730520896, -0.9194382366233919, 0.8852212786470548, -0.6839746446793301, 0.949513935058307, -1.0109293107840616, -0.4097076249433691, -1.6009328871396031, 0.1298460432072423, 0.9939004220496033, -0.8744323723596745, -0.6528875726521208, -1.2949067817062372, -1.0858358417738048, -1.8970297054817555, -0.28285659930917595, -1.769593209014022, -1.5687499561156921, -1.1571136744317394, -0.3348137464809186, 0.11680727829962043, 0.05148096895025672, 0.01037250595147532, 0.040778600101311846, -1.681144519215185, -1.4220142547183463, -0.1693281687226258, -0.8494389879483966, -0.49769642899847566, -1.1633398285183394, -0.5553315914996109, 0.8798616537107229, -0.837274789978338, 0.18164609774311558, -1.22492745342852, -1.2453831815344945, 0.022921541154198366, -0.8072041321116152, -1.58539245495011, -0.13426677238382873, -0.4502426352471094, -0.2938643795631043, 0.13207806907765035, -0.6608920655308128, 1.3402461561990429, 0.6357773799848865, 0.18491848224541657, -0.42962032110277915, -1.6926058361639464, 0.7621925985062636, 0.7983253044209268, -0.6995512544086805, 1.3632563413989565, 0.4868190440018891, 0.9087457382019785, -0.7950476805408119, 1.4102653413972694, 0.8503805656954756, 0.8415490002699767, -0.7609870703866779, -0.31718526333375785, 1.074290457134089, -0.3545214837703839, -0.7620421019326469, -1.8317748121059392, -0.8073226793301684, -1.5024196883280212, -0.5906158817398995, -0.36088617679519064, -3.3928004017768547, 0.002745753808478496, -1.9798555643478075, -0.20023698152734443, -0.0023549103176542796, 1.2651429419588356, -1.3743954954444089, -0.9486626436282302, -0.06402494118732274, -0.9639971281701032, -0.844029385642235, -1.7578690241845858, -0.5859036284701145, 0.534192646990884, -0.8440678144175386, 0.540743983966248, 1.618952549425227, 0.9958806306694401, 1.4233817188363174, -0.5517330694628911, -0.38904719094908646, -0.40005442413849646, -1.6516365304208538, 0.3531714288993568, -0.4557424255933732, -0.32443947411620844, -0.4499614003623404, -0.3286796336739825, -0.8768529982884601, 0.3730290221953362, -0.14091973523258441, -0.9289893729706198, -0.16639965108416482, 1.3149901473956538, 1.2110330231107835, -0.6130348420004477, -0.6327637597996032, 0.009170405815982663, -1.0239358510129144, -0.5205021746271385, -0.035694517196083325, 0.5723058292209715, 0.4809044089635275, -0.7003069216816852, -0.3548976943077793, -0.8914933869431181, -2.093497327745689, -0.05433052293976115, 0.7272274366915439, -0.2556083930599797, 1.069233852692967, -0.13874264628707156, -0.04297289198501286, -0.6666192140151537, -1.1941414127498675, 1.069746229051562, -0.004162957717407212, 0.48531942026204733, 0.18727861528858342, -0.5534600917714854, -1.0072597364559315, 1.489824834847243, 0.4263846321251912, 1.033058412338788, -0.04791922803512216, -2.2486830600585064, 0.39427387260207786, -0.8967305087669317, 0.5667507238649647, -0.7347064583681403, -0.3614069886294688, 1.4827456644249022], [-1.3826895433558946, -0.4803001228040599, -0.6210683042836146, -0.0019474738641521716, -1.5612870752363452, 0.48827127913151797, -0.7427304021625124, -0.9368818806985499, 0.5246639295240546, 0.42597116566672144, -0.682232620861229, -0.08049419775059097, 0.34783808333258753, 0.052429000831934185, 0.23035694013590502, -0.15594420671492104, -0.28783019852350317, 0.2225616011819462, 0.42940883535913765, -1.6706631661666316, 0.760489092554051, -0.1739047575564155, 0.6098451166382717, 0.07986972216630553, -0.07166205701412762, 0.49476872770286595, 0.7596245323702459, -1.098814981105014, -1.5542231537426165, 1.188228864194069, 0.40632056402605865, -0.6651274085200466, 0.20449422838066086, 0.670652453505435, 0.6562394066096664, -0.16400196388944865, 0.21791137347895165, 1.093501484219983, 1.149213118397091, -0.929244322908211, 0.5438628221457377, -0.8834205630639436, -0.6573264208664779, -0.025692536744016215, -1.045825050209147, 3.3376499709895824, -0.2797210716133212, 0.9243904172386714, 0.7878112465373313, -1.1115357019136387, -1.2549589760121975, -0.4479379810111996, 0.06008277691051741, 0.11109231441309461, -0.7415295643419282, -1.2992613210048822, 1.645769696703118, 0.5075061152511224, 0.4641292464396554, 0.37258214317110033, 2.201992963580767, -0.890289058238433, 1.5749660099689062, -0.6568904472228289, 0.750007510135564, -1.633725020154202, -0.1985236402277689, 0.04472170477745844, 0.2006936452957476, -0.6428401263302177, -0.5126360488247415, 0.6272058689990908, 0.5356970720918857, 2.296397876933135, -0.7962636504753854, -0.5703138623116213, -1.0256823766464134, 0.8853047783075333, 0.2336515806847614, -0.7406148218264782, 0.09356855780006836, -0.015642530893840694, -0.28312334614324014, -1.7207859999045063, -0.5581196317915815, -0.48819173140578953, -0.3080553925639716, 0.555740499385426, -0.5624000872894035, -0.7696213317275421, -0.3535886149929605, -0.16361507657227284, -0.7437435229055958, -0.5477513515253425, 1.1354729687686196, 0.20122983992728885, -0.6352882520024813, 0.7911901977910109, 0.5952000423534898, -2.817308914087407, 0.9260348802534588, -0.36237585054310634, 1.3352438418848398, 1.6486050421715817, -0.5446718114946754, -1.1965961657778075, -0.13000105872713769, 0.4654848729094613, 0.9736394275262458, -0.22907458963915564, -1.7011914020964114, -0.34060163888196765, -0.43302981814477215, 0.46289798163716933, 0.2955491807828729, -0.4776111034072291, -0.12596310099832006, -0.25183161972410156, 0.46022291082081807, 0.08209213079462643, -0.2928946265728194, -1.3988581448954327, -0.8340368108616282, 0.08307397699694098, 0.2165009174874121, 1.7172132103547444, -1.883807468314629, -0.8192135083682685, 0.9503219908831666, -0.9181166288774913, -0.34276879661812637, 0.8198072726479008, 2.1603536464209347, -0.061195848047354076, 0.052587817969056705, 0.44982893830646486, -1.3240335264803744, 0.8562706233383496, -0.10609145336572405, 0.13770850032407855, 0.7872448874663912, -0.7558338900238736, -0.21322509967656983, -0.17048747462145852, 0.13703726861804416, -0.7208318257435841, 0.2206759227572718, -0.7728687176569301, 2.0201663291113485, 0.31522401842349207, 0.4044905737945056, -2.676189176694182, 1.269578286469911, -1.6140004936292345, 0.3654443616970639, -1.9101760220674724, -0.057151517349471104, -1.3008756914316595, 2.769609039471657, -0.0014091388768522305, -0.4904074828215342, 0.5874872860513042, -1.854934910165174, 2.7309234386580497, 0.14305411786240077, -0.8535232184806791, -0.7109456897452117, -0.9228968492392177, 0.0571064331651921, -0.35061688270714664, 0.7834160791504479, -0.21564455776734603, 0.6338562536534511, -1.2060922156416398, 0.7368673934584442, -0.7637005921721837, -1.6897151855227404, -0.650052809220134, 0.17619400514000869, -1.77966190735537, 1.0204376423853248, -1.4779890593891074, 0.5531858460864374, 1.330832401720238, -0.7915552743688214, 0.30105864625444667, -1.9517359391773443, 1.4081937491722583, -1.6359118035817206, -0.6245218940352765, 1.6643430209737722, -1.067241025814963, -1.7092808656565388, -0.468549857475228, -0.35403857409620565, 0.8365516022426406, -0.5965251098979363, 0.24067926440203463, 0.6092334290348183, -0.04153895268146212, 0.45329494494824185, 0.20018536404482765, -0.185570574051274, -1.5408594443894472, -0.2334611953661357, 0.00246927574256587, 1.2080784895772076, -1.3011422693665813, 0.8579660902892259, -0.31829966768738993, -0.6898974179912811, 0.6348463871464205, 0.0721176464968549, 0.34778587376201575, -0.8920609931563089, -0.08976530678564854, -0.6637084562598785, 0.17540779476664067, -0.49131797838915975, 0.2941068187374501, 0.7383909403476625, -0.1335385974801212, 1.940847012172286, 0.3275369509425474, 0.4338934690841886, -1.8379568479592983, 0.07127622165249063, -0.7302707130676126, 2.468544439229873, -0.14352679266333052, 0.41528818446617854, -0.4613381982126562, -0.5428705447273233, 0.777040434659023, 0.4810433932169338, 1.0405465180121605, -0.31139117277881395, 0.22933294841784557, 2.809996798889713, -0.3075934883862962, 0.25142499510860983, -0.7162845393384706, 0.32677079854157626, 1.0863222354694053, 0.22064075063781505, -0.312995254808053, 0.6131957318886746, 0.6550508851460224, -1.2867906230468018, 0.5104651861224456, 0.35999253949610655, 1.0043621706957868, -0.9497387305186865, -0.9778623965166106, 0.11180966232803613, 0.5442361134505016, -1.3267969913855648, 1.2039526712594673, -0.7037940192546753, 1.5160495779678111, 0.25342002133226926, -0.4563462301332536, -1.2477731580090323, -1.656031281642173, 0.681671182745349, -1.0006869119870099, -0.48758187943587916, -1.0273728743836874, 0.8053572314954504, 0.40044232144385333, -0.9566214857619276, -1.7430523168057177, 1.5523832846144416, -1.3774950637039496, 0.4190074519170961, 2.612251983899751, -0.6959576472705801, -0.9686304235846308, 1.265018900441292, 0.5933919305129239, -0.044204493263522174, -0.20905464295956303, 0.16055684971290018, 0.6376985038643821, -0.04963126426405473, 0.3652454230137999, -0.03267895909566873, 0.6593348090661294, -0.49456792550743855, 0.15621479370828834, -0.9270557650421785, 0.6503425972437824, 0.6943267306831032, -0.7764189635549475, -0.3216709225602676, 1.4806083295093713, -0.9137734229747054, -0.5227159498153464, -0.5809072559958556, 0.11317736946066456, 0.8586565947229655, -2.321515002309473, -2.3148569843037845, 0.3327745823979418, -0.2420151954713049, 0.17400038641251578, 1.1674902588986626, 0.5364657219254623, -1.3080269425576834, -2.1050452666812993, 0.0566862174820402, -0.6736662405056331, -0.6591274193086133, 0.23743399190044112, -0.4766990302235916, -0.8801951113511871, 1.9090744672129492, -0.19732975255547489, 0.03618008910020676, 0.12375254605049295, -0.1483821453785315, 1.0191710479454577, -0.3841865461359741, -1.1930377880339702, 0.17558352816562836, -1.4448526850928658, -0.8088373143688415, -1.7914892820036274, 1.5189930974139407, -3.118630141040456, 0.9510399121939341, -0.25244554373866746, -0.31316565556792053, -0.025641340154396564, -0.9032965785749547, 0.053189433670145274, 0.9668068447782789, -1.1253469363865718, -0.5236793932105404, 1.8116049274323511, -0.4629656521600468, -1.3952631008928693, 0.543656305031228, -0.7436432500969171, -0.1492952493590975, -1.1868393601717084, -0.26740786724991394, 1.295405730998346, 0.09957322713171556, -1.217086622506031, -1.1469156814008064, -1.1222860344460721, -1.1988606075143327, -0.06522297655502204, 1.8635514394189778, 0.9650220979041249, -0.6843965357045818, 2.4833219566032247, 1.7800180039757634, 1.0662865414601246, 0.4598533086204573, -0.17888536337207786, -0.7690292262301018, 0.6725700610393566, -1.0069349033243205, 0.3942475462922783, 1.1774471557191322, -0.4640353997134894, -0.07294913264468071, -1.3534452986640535, -1.7170500979163996, -0.5902233860166517, -0.14148635410154534, 0.1764456391697778, 0.13298236349521558, -1.1698759170518838, 0.7346339654721254, 0.8354896577326695, 0.09453331369309706, -1.4839572389668787, -0.008645008342407064, 0.1963250136871549, -1.5671991161410892, 0.09206146156499846, -1.4343915562329042, 0.6218097671552509, -0.9065907710246549, 0.48071254882639836, -0.7304880078911291, -0.056616032348281095, -0.7300698746393689, -0.14062833559793436, -0.6670082455190829, -1.0948008000058658, 0.7852316366589307, -0.33128677005421187, 0.6490471472532708, 1.3618176851218762, 2.3299390356964857, 0.5842220543447947], [1.4425865356064684, 1.6887657615727296, 1.5915923938422223, -2.1750567419724307, -0.4612102486588404, 1.864560893125634, 1.1318221816975989, 0.7723623687322041, -0.29206268614084563, 0.4667885474855803, -0.6344538366201565, -0.6708151056028586, -1.1445490034697998, 1.478976461919104, 1.0477116635643735, 0.5511656555274571, -0.4109364368464341, -0.7269206222899185, 1.1673436979781724, -0.6959579557103466, 0.5712921298192438, 0.09739815637662122, 0.3214195063847793, 0.945194928548001, -0.27436575339242547, 2.446695603767874, -0.972782154806981, -0.33802801863468446, 0.10128329033440721, -0.20098889409906562, -1.0011886824341292, -0.36527867152625487, 0.26550085807184526, 1.4015293644938704, -0.6332591919105649, 0.46824927982111625, 0.5220996955019384, -0.12609884367608928, 0.1985136544409092, -0.18224274094525741, -0.9477504172952655, 0.46036638379155553, 0.35717583749279463, -0.6079545060699767, 0.062263450525892876, -0.8681423447136505, -1.3784433156931164, -1.4660610342649822, 0.3238407270209188, 1.7846182140375793, -0.743450281390309, -1.726231861379601, -0.9853539585407638, -0.38893422172672176, 0.48401753655762564, 0.5949175092588826, 1.8616355025937281, -0.7551067535619704, 0.005051307960393655, -0.47961291873560297, 0.5126538074277411, 1.712935294447081, 1.5769248448341666, 0.19379558133226926, 2.0631683135922425, -0.47073695338798816, 0.25002776946734395, -0.628831554089685, -1.3306113819251917, 0.24840801197798848, -0.5521491702517543, 0.5116660630642004, -1.2498750574384137, 2.295830506579889, -0.7115065406587552, -0.9680329749534387, 0.434930841408446, 0.6390160268140791, 0.6937006266221526, -0.4997208438647702, -0.3393338408351806, 0.7957589496071316, -0.3315965223886153, -0.9698800465548337, 0.367395604848271, 1.5255295082667715, -0.3045564936438961, -0.3748698079985455, 1.0088835682724686, -1.5740160478750165, -0.3928589547726882, -1.2150957231008537, 1.0951823526053575, -0.052723795340582864, -1.219842493540909, -0.2737403357503894, 0.9582797364127189, 0.10094724121477672, -0.45494664995681683, -1.043608965395058, 0.5127086116845619, 1.472635173688227, -0.13973376036221005, -0.453727483116685, -0.00709795744545967, 0.5172725484505871, 0.8484774984059711, -0.30915261704634467, 0.07899090768608918, -1.0832732473908482, 1.197871517947416, -0.15591260207663601, 0.9019524359301321, 0.23643805459149553, -0.7641320080405585, -0.3676328536907309, 1.3325369774429676, -0.10494673954533519, -0.7024649792865305, -0.7832705477168351, -0.31749536683601276, 1.121835867742544, 1.5544643977317043, -0.4710952276626267, 1.509833191617418, 2.575831535753267, 0.7389718794091423, -0.8175585442176003, 0.2612155287474864, 0.12955290774482747, 0.6382204478697403, 1.0278975399370627, 0.22596299285996274, -0.04888665636525588, -0.5125292610411228, 0.12305279325846923, 0.5968996392173577, -0.8555156470591346, 1.8011318357216617, -1.2941531823443597, 0.530964440084946, -0.3228579716899992, -1.224859462196122, 0.29263557173794585, -1.182550956244863, 1.6639508008584145, -2.2153276939450666, 1.4875969226174777, -0.3260067134856299, 0.4098753212136348, -0.8021650828692677, 0.7710143797496357, 0.16498565871438114, -0.3719359375310722, -0.3111570984520133, 2.184349899630455, -0.2672520747131518, 0.5855055719750724, 0.13186478949027983, 0.9943609286689334, 0.24562739041912815, -2.0015836358336787, -0.32021267951950894, 0.03476229678217412, -1.069962523389326, 1.625781084099311, -0.23591366349394524, -0.5580135223600106, -2.134173260712025, 0.9668999890871214, -1.0424774404236137, -0.042498213687363035, -0.6080047243543261, 0.7854691968041024, 0.2716721000940903, -0.25053923172059633, 0.6280935203255321, -0.3435961819724289, -0.6407155401738739, -1.2096852315830162, -0.917813052669522, -0.8682879558131262, -0.7648445957778128, -0.14534650666447396, 0.7946298304213582, -0.20122783614020917, -0.38524654154329413, 0.2852904512402848, -1.4291421430199551, 0.3743595570583686, -1.0921241415287215, 1.002989768065513, 0.37338521771923333, 1.436590235510653, 0.9475294894914302, 1.2556393981484943, 0.33343238696241795, -0.8225454743017985, 1.0604104742674199, 0.3208317348495619, 0.08968178561655135, 0.7701887582992082, 0.9685488906780204, 0.033887283518162836, 0.664080613666949, 1.7674432416887171, 1.2129675458214875, -0.054911030785883996, -0.30233759953436384, 2.4299080457637587, 0.21007720998453977, -1.420324397904299, 0.39489755978452007, 0.2831092651867069, 1.2697189515283154, 0.5961612344598441, 0.00833564885064928, -0.4136283750233308, 1.0236503645400503, 0.21311907366122804, -0.07951309460712011, 0.6378906785683424, 1.819775600206791, 0.8490006628981439, 0.7190819260115053, 1.5003912076645531, 0.42958597581935093, 0.2456105541630847, -1.3137412217722122, 0.13070543064597612, 0.29291896972595477, -0.4156402941783961, 0.07206232998971085, -1.188875189858947, 0.17674321248919675, 0.22501541136919584, 0.7131856938942785, -0.11464154846501835, 0.44368214628765085, 1.268375106997345, -0.8613699034220423, -1.396886178990592, -0.2918940717554399, -0.12280920542369037, -0.9286934069747159, -1.3566766451001397, 1.2409057648980566, 0.10246528529360512, 1.4024227546951389, -0.9636057554007202, -0.04965609752522351, -2.023240302359462, -1.3567756737880174, 0.8069254677512548, -0.6479801848145095, -3.321145592041682, -1.036439022654842, 0.7851652425056813, -0.8465738540489782, 0.638577637966283, 0.19222584639033974, 0.5068423982578002, -0.723526729841114, 0.2451688787995001, -0.1985527382634046, 0.6099029204246623, 0.47633753702050596, 0.3542685459759159, 0.5812751963841675, -0.7055522241876783, -0.06629328088483351, -0.5609843888667604, 0.41072682517193254, 1.3797289680522662, 0.7290041615681471, 0.10552188454798475, -0.824799071867971, 0.32677703808705083, 0.410798770185746, -0.802668827033202, 1.1619594075671054, -0.015498501791324634, 0.14577228057717206, -0.8879903088036218, -0.7737274643720806, -1.1124172807073076, 0.4130766159728356, -0.03335634043469488, -0.8576893158831995, -0.42162472221340036, 0.41382300727368704, 0.47888426537452194, -0.42503710826504665, -0.07827350328343538, -0.271847279428821, 0.2179690509865583, 1.5448300194067905, 0.7489521330157805, 0.4297944106477006, -0.481111035975805, -1.1312570014924423, -0.17439693816959767, -0.06306790668565797, -0.4538829338469816, 0.385037466234636, -0.5005074766719629, -0.7291562812658393, -1.3108235876384566, -1.3176303344605045, 1.4534332050247951, -0.7192470925810804, -0.6730238630390906, 0.5335822284840203, -0.9553159282930459, 0.06729986324798677, 0.8981043875799106, -0.32534584451183945, -0.011188424398243729, -0.05495714425650739, 0.5256098760764126, -0.17624831762167562, -1.264749268474665, -1.5348760873321923, 1.857354382307385, 0.3321000275941301, 0.9801141472334388, 0.5437622786009512, -0.14586351429665964, 1.7480034522904964, 0.7662730101210867, -1.950802514697432, 1.6708280963129174, -0.5916941093254103, -1.222939356456711, 0.1304731837066322, 0.7570473805805334, -1.217667600017459, 1.100747508393313, -2.277025598677215, -1.5057703092946628, -0.1387773424187988, -0.7536610570525987, -1.1093473648171968, -2.699625136356662, -0.0948085099528187, -0.36469042680934505, 0.177779075204875, -0.7381812334089137, -1.0260325706831759, -0.3998560666353671, 3.5289162710905524, -1.3744800738102587, 0.23157791863379748, -0.3946999259519351, 0.624343205974334, 1.554102223889842, -1.575492647694951, 0.6850783374350368, 0.97665406929617, 0.37551150787145676, 0.7500481354666184, -0.7922749464114216, -1.2125336762631753, 1.158312853821013, -0.657040819566903, -0.26322456525259585, 0.2262326586434219, 0.5160300780528664, 0.020350391980399406, 1.0309170511478603, -0.6231415995533126, -0.4988921515920098, 0.23227293819478756, 0.0717941023151819, -0.2672028728400341, 1.2805911152730654, 1.5038362406134256, -0.3890759601224615, 0.053298154392298486, 0.09747629015506319, 0.6224405476554534, 0.3251158801073444, 0.5801800267663607, -0.17795173877044654, 0.3458212068987255, 0.29549431688593, -0.5356283713853236, 0.11254655039291983, -1.433941896233916, 1.006910993431654, 0.17429714292142706, 0.7054962936282251, -1.0512686075723257, 1.1292854073901342, 0.07130363079543085, 1.1686562204867235, -0.14328772861647684, -0.42745390168713115, -0.06465372293331345, 0.8704706698893591], [0.5986502605451761, 0.4390654659035127, 0.1061366406430087, -0.056599815279933983, 0.7132875690473588, 0.875760525885054, -0.3663140672532333, -0.4203764015206531, 0.6345783778948859, -1.2932270976159852, 0.8549904145035672, -0.0030548936417781245, -0.10269602688507282, -1.6254289736269367, -0.08028835753239966, -0.9241081573361895, 1.0018704746604044, 0.6113869343638495, 0.0539952675838374, -1.1494085650749313, 0.9098465180591262, 0.5405632559610278, 1.7241729891375346, 0.3643202140383547, -0.684259662894488, -0.02319217279332866, -1.3176118687585563, 0.6359060568862573, 0.08489167568242907, 1.5118615786706966, 0.7030292678797948, 2.144107401377808, 1.8150302290004452, 0.0382072579811857, 0.9827535576880132, -0.04798780875709926, 2.417668291396655, 0.3182636138826055, 0.20551440511599123, -1.0692846757211563, 1.1126668964526976, 1.7426961937577277, -2.2072770631694976, -2.291073006333447, 0.4921535008180823, 0.33998709581966635, 1.51637469066161, 0.6019155042133929, -1.5411040711932353, -1.1010554784341695, -0.7866155491598903, 2.1074152900577126, 0.2046570285021375, 0.6151849866978945, 0.6230489990285804, 1.001618165589492, 1.0867112385649074, 0.09287239990956733, -0.0018446431199918435, -0.21023009837569423, -0.4936155911281657, -0.6675309276096583, -0.78259296568408, 1.1852940225670259, 0.30426555752824164, -1.1796352434171349, 0.3715355227339021, -0.9469204440606431, 0.18840494440819083, 0.35272577220678264, -1.206609017079019, 1.2990068221283195, 0.6569965079619168, -1.641147627158928, -0.27270230641817045, 0.3318777721037531, 0.6389614848499752, 0.49350117695082446, 1.9623211523020934, 0.44389867702377156, 0.9444906366987059, -1.7514333550527001, 0.6690378029399895, -0.7163137378389072, -0.8977521548060818, 0.7003994573169222, -0.9807138625350892, 0.44959328312376595, 0.5402973858412548, 0.8523788218163303, -1.9181208079425272, -0.04948107736149979, -1.9414912705879852, -0.9609904420997383, 0.29524736682300046, -0.3644994783221654, -1.9161149716493704, 0.14258728519317937, 0.8093834576926355, -0.6113784873663168, -0.42300299567941585, 0.21779790717001954, -0.5429639732114484, -1.391297117562298, -1.3858275123226582, 1.0827239365362757, 1.840611712068129, -0.00623955730369385, 0.15015828753426178, -0.42585579913326527, -0.21143810695224352, 1.1207787341253388, 0.7148641654586186, 0.29646446846579516, -1.770283858030708, -0.3502736245714534, 0.6796028552061772, 0.8267612361326626, -1.3551983667562195, 0.03172751181708277, 1.8633023287248425, -0.1938051558818448, -1.0195540889438492, -1.6364161214770931, -0.9068574574964847, 0.4956150153640257, -1.6902394311281703, -0.8940618646114461, 0.5933570998139716, 0.016806704238778836, -0.596586148824688, 0.2949717386471014, -0.5444363437835279, -0.41308923115601925, -0.29519990927168716, 1.1308967325134764, 0.31192719659665624, 1.0859020830495962, 1.9624513327452977, -1.0792230829339609, 0.7461406567313659, -0.8651229046006332, -0.6276831902292154, 0.02164511997571888, -0.0071632490169087045, 0.8975935420748478, -0.5168478621857078, 1.0130982668984363, -0.03307519748574465, 1.8438711094121434, 0.40569929791476633, 0.6987544400463924, 0.32046227077130385, 0.2894186700049341, 1.1645890962086212, -0.9306707183581365, 0.33938588965465144, -1.4374240372571223, 0.2210907445034317, -1.2624080484268876, -0.2317404851714023, 0.6891039404218261, -1.103082416585441, -1.3032512540509753, 0.5314752192968095, 0.6492798709563926, 1.5651647350770224, 0.31119678626339203, 0.827414952426126, 1.6502618993952407, 0.47839132772301823, -0.39469740373057227, 0.6425562745566211, -1.098761250016941, 0.336294166591772, 0.9053815376557255, 1.328182994196184, 1.014337754254297, 1.5883968829031831, -0.5014588630780544, -0.11492951727930902, 0.40565141841537794, 0.14702124542200623, 0.21532374240725777, 1.147976065191092, 0.5837905161562281, 0.5375105109844852, 0.48462111062318286, 0.027020196998335647, -0.551691349392078, -1.2662638938521165, -2.2947183507212183, -0.12087308762614031, 1.0214097270501172, -1.8598977608734446, 2.394473821678718, 0.19427900903944004, -0.08835561224807768, 0.04050811187631015, -1.7699316181158407, -0.6604074854169185, 0.6940117794393805, -1.38541702358476, -0.24594968487839208, -0.5456830747020603, 0.29159288887635365, -1.3835687423262715, 0.6324587287770531, 1.2401207754088908, 0.1606449362631348, -0.5585415663876383, -0.15453470976213363, 2.7256507172034694, -0.9325613852015582, -1.302285062251134, -0.8674550583891383, -0.34664825159467927, -0.978176927346834, 1.4283113736296258, 0.44296278649307563, 0.48646582392952364, -0.20523744785247242, 0.05028870862815522, 0.12974582740696686, 0.9226846238672888, -1.2258578575772472, 0.8196135272409952, 2.1760144723224144, 0.09266937257307398, 0.15457895961942592, -0.8024003786569234, -1.2718435012840066, -0.06495470006528453, -0.17207066784078617, 0.22532291388182005, -0.21145977754928902, -0.04224566529072887, 0.5177844050862762, -0.14258190700414614, 0.2516632957494129, -0.8070649183268962, 0.09987060692176794, -0.1692894209150984, 0.05745452635482021, 1.257174439906448, -0.33182565909205725, 1.1631383963438504, 0.842638840569966, 1.0200197794229784, -0.6191912924567513, 1.0190503650654767, -0.02379079389131706, 0.8019965427513592, -1.4774429897756487, -0.9583140648488924, 0.06905856393558318, -0.005992041120262483, 1.270683153356516, 1.1977085780496919, -0.12142372261050753, -0.23957160314873857, 0.1794734578104609, -1.4382825417774037, 0.6196588343106103, -0.16379004094963845, -1.656679613561225, -0.56607878881949, 0.5179146048635846, 0.46327826234793407, 0.8794247269396207, 0.3755869579340225, -0.1452600126459315, -1.0353771571014994, -1.3032832772056449, -1.0191770516936358, -0.9458149676311922, 1.3627041109019733, 0.4397524202425054, 0.38780465121327734, -0.6712162898489021, 0.9144912414152544, -0.12019637658389601, -0.11074125930701989, 0.17771114139386207, 0.11556697286907702, 1.9778263636509117, 0.5117835714243184, 1.968733207339588, -0.8099444894483525, -0.36688296395698394, 0.5483527340863198, 0.24826149048939566, -0.04144854438019494, 1.0604793323422461, 0.5204613315967435, -0.8638693787361471, -1.0205825343213568, 0.004691056378676561, -0.24122221249495304, 1.3826011382748231, 0.09363033458921562, -0.052856641434793954, 0.8226366106240903, -0.628670037922685, -1.019558667493646, 0.6019076413753873, -1.2265839679416117, 0.18586424092602402, 0.7397872969755303, 1.043549352510194, -1.901747782796367, 0.4553984494566173, -0.5493193231925579, -0.09696957426687722, 0.5052121076012077, 0.28409869675990923, -0.013933904779238487, -1.6498834305584007, 0.5799170739246245, 0.5426082047074952, -1.0801623736124728, 0.15480800951057977, 0.2587898659889089, -1.2789455011136606, 0.22360499049946095, 0.5245761879903837, -1.3144359077060583, -0.19893615287239622, 0.63324792775484, 0.2818140594550224, -1.7530702007708638, 0.3812986495019763, -1.427218740153814, -0.22812086116021377, -0.06014732708993501, 0.768705866584907, -0.027815419424740598, -0.2336941913004084, -2.068668391354515, 0.27695958957270306, -0.49508031050574186, -1.1194575849409707, 0.13963345364438226, 0.12078662058514274, 0.044164515861338294, 0.5749906644727295, 1.4267892408791674, 1.015130126530852, 0.9172657675148868, 0.4575898784508365, -0.6932463349285864, -0.41471455732288176, -0.05635076515794607, -0.24063458700713433, 0.7470952672047356, 0.011287072512766954, 0.6908538117334383, 0.0920116933571444, 1.5619378376354207, -0.3778881364395003, 0.3072150546276556, -1.0473805550164879, 0.24570506775658393, -1.4391060509109357, 0.5293837787802396, -0.8668650399192984, 0.33985246945027003, 1.801714124874446, 0.7802692713617942, 0.05064544267658929, 1.0565296930645525, -0.17342770781069503, 0.26225580574948, 1.2293651295911614, -0.7053972175068005, 0.017529769978315107, -0.3565827379841596, -1.0676586704580722, 0.3057551458692242, 1.5448970442784908, 0.33511129081165597, -1.4361495420968375, 0.48669137071229507, 0.484385549041313, -0.7827744617490036, 0.6609436411270518, -0.5114429781120847, -0.6179958853419204, -0.7085449409854112, -0.6620887897814002, -1.080982757431535, -0.6840706970122861, 0.2599599108732283, -1.2510737666220972, -0.9968589635619344, 1.021547056256866, -0.8669043412729887, 0.03696617704999825, 1.394340171703639, -2.1895120583747216], [-0.8604678199912528, -0.6481039816065242, 0.6298047127037916, -0.7827399011879002, 0.6544070959954891, 1.0578689692383476, 0.16934956489813932, 0.5039127053186735, 0.8021036449298397, -0.5633790916678374, -2.123278024547096, -0.9058332587252605, 0.6614995414080974, 0.24817546582371447, 1.0172548297366948, -0.3268584553567383, -0.9429114098680298, 0.949521631089198, -1.4653313399360797, -1.8526292931173831, -1.117364727457975, 0.7126238267542265, 1.654105355694476, 0.7844079826468155, 0.0016051024544821435, 1.2710576276537275, -1.2766403137636397, -1.7462255426628635, 0.5734552672037608, 0.38595490727650517, -0.04373558462996599, 1.2432053939766647, 1.4553569806106719, -1.154358973390055, 1.2037117288421435, 1.3981165334001089, -1.4717315426964985, -0.021957184074565206, 1.6415007620332729, 0.8944949349578982, 0.3759528798950684, -0.36655691200734697, 0.3041086539889598, 0.0936426254311204, -1.1927138851138044, 2.5835418926794707, -0.6098957468126524, -1.206976971658212, 0.1226699177064858, -1.2990653218166623, -0.11069270285875149, 0.16739492654228277, 0.2857520162793272, -0.3574420518574062, 0.03255368890412459, 0.8275092983454121, -0.0759549844977, -0.13712242637354327, 1.690364372331597, 0.05366725884707481, -1.0501251850493425, 0.9760116482254027, 0.0752579653948943, -0.0276592186627804, 0.2046309287645184, 0.47969303002694597, 2.3784311503856936, 0.25929449603330174, 0.090233516077983, 0.24067631148134352, -2.110046327326735, 0.3464728315629825, 0.26633201848912114, -1.8406241853380647, -0.03960655626553042, 1.2709677413970832, 2.0286464128363493, 1.6947086438253824, 0.5245409855906755, 1.2232287752371498, -0.07460195689323817, -0.3143937850741522, -0.08117878332495132, 1.2882660345928616, 0.4777966662648624, -0.7215257615936899, -0.4667099981112088, 0.016125856881509054, 1.3732765413414019, 0.3810217054835799, -1.6414289556461399, -0.8739935383147767, 1.2122228576945802, -1.5031691973806616, 0.9636720898785347, 0.21880088674803932, 1.4870397885125335, 0.24693344597994227, 0.5482128855631486, -0.14013881768236447, -0.06241683427808761, 0.42369316623933784, -1.264577921327772, 0.6247891992909896, -0.7580866824880373, -0.223727916910534, 1.6109727697776635, -1.4413240833719727, -2.1205607249787297, 0.7096638109759559, 1.1867662675101212, -0.16511835289085247, 0.41332343521062875, -0.0395988346904739, 0.5673430367066804, 1.0133726428382932, -1.030283712494661, -0.9416754489733741, 0.26674899780725836, 0.9306997809528506, -0.4452418812157293, -0.575218851137745, -0.4182115460626979, 0.5668076263148343, -0.04664134486428964, -0.21508177390543193, 1.9359409795578506, -0.2810344511563766, -0.9293422096693016, 1.5485552616894114, 0.6469267719051921, -1.24482222006374, 2.388005295141159, 0.5886479133655151, 1.3509916575313554, 0.7461287259237006, -1.2579456136596234, 1.085204042696216, -1.501827048118563, 1.4538544836967136, 0.21511382883269975, 2.306961276055617, -0.28220056923030307, -0.09400261898598564, -0.8534553797009332, -0.2956801534734639, -0.32490643849168105, -0.5619304676180634, -0.26153582366182, 1.1120309109964162, 0.8673469560878712, 0.7469335610741643, 2.4153506653111463, 0.2780677555319796, -0.2854202225468061, -0.2891244941719774, -0.31749911257409213, 1.1277482234141807, -0.7991245304992285, -1.6055200866739425, 0.4965201875117082, 0.01956160895845449, 1.1312013325762185, -0.17751444092507193, -1.7725310114893793, 1.4729992000592471, -0.5908052220304304, 2.190632897639338, -0.9275479544949377, 0.30354012279456566, 0.5564457708068273, 0.4723230316401881, -0.41275075879156564, 0.05138019745944661, -0.6572889631251456, -0.2506831802472823, -1.508832588764536, -0.6989748841965933, -0.4215095207725028, -0.06326893252014806, -0.7247020446978485, 1.6318461623500282, -1.0073920989212175, -0.9027130772518152, -0.4402207028155213, 0.7816771447847272, 0.4194001038921229, -0.201522750464977, 1.0623753262808449, 1.4183800973426337, 0.08173125777603321, -0.26555417906418444, 0.8132784913259277, -0.6860152998356676, 0.49925967168167346, -1.6976315774072546, -0.5230401169341876, 0.25358192861826556, -1.825773452604934, -0.0823807538761204, 1.013052028305474, -0.9233712264076512, 0.50732199661759, 0.7750721433570817, -0.011663488502380831, -0.5407773154549862, 2.2238354600365486, -0.8460795245669201, -0.22931689271995429, 2.1573551523039636, 0.6108616378534887, -0.7917124677334292, 1.3219765509351886, 2.180778336755615, -0.4718126720296673, 0.07239472676337767, 0.25055364304197214, -1.6056743805843219, 0.42665627533271744, -1.2146388975964284, -0.06586088029964404, 1.265149130522497, 1.16031051065668, 1.2214867970868561, 0.14903231270954032, -0.4770495665045128, -0.11428233363106063, 0.6268597602603795, 0.5234049710980366, -0.10629293986996402, -0.7685663828640986, 0.2945369274997233, 1.865163693803199, -0.9744242885380734, -0.254715710718327, -0.5399545014028326, -0.18613735044207863, 0.9069356084771436, -0.9381537106510112, -0.20947015606072691, -1.2209643544409887, -0.8672725448055232, -1.903391202482954, 0.03131967310077788, 0.046231753163685774, -0.27213272017859247, -0.22938769298724332, -0.5200098070378528, -0.27539335979672397, -0.24111293744731666, 0.4840903521522709, -1.1371336488447112, -3.2021434028692024, 1.1475479813404859, 0.09088137630578719, -0.6680477602659404, 1.6268459041419805, 2.209483967873576, 1.886664557033789, -0.8398464740478742, -0.9487896809770955, 0.9441554676989319, -0.41650826777801925, -1.2722622532510766, 0.45241569508427293, -0.36581992507113037, 0.0004744967821339735, 0.027786503869756604, -0.6640966561225087, 0.4842534344401085, 0.6035836576546465, -0.30396027999925573, 0.3352575907804125, 0.12451531162716686, -1.158410696781596, -0.9633063870092706, 1.1412328807241907, -0.17233902415035618, 0.350633376347795, 1.4215110849842614, 0.1204983624788131, 0.22981507016360694, 0.10277015694606743, 0.5479922242446589, 1.4730047262968107, -0.966629689886781, -1.0847528821890748, -1.3835555329541909, 0.2867346267654971, -0.05308679793335541, 0.41614333832375844, 0.06930133329069887, -0.671315265633232, -0.1810967174946325, 0.951290850930327, 0.3894245435832549, -0.43592862841623947, -0.48344893116028875, 0.041575500635177606, 0.3587920623313717, -0.3183189344241832, -1.9173693105055987, 1.3422593143961148, -0.227441714951359, 0.7341013610246915, -1.2740952847527316, -0.9586348791804282, -0.6379787986874349, -0.5608374583112765, 0.019447348381146423, -0.008351968161890932, 0.9399431203665399, 0.5615424992240425, 0.2780636807142482, -1.2622601871244434, 0.02787156841933991, -1.4302465592180074, 0.23042944397621634, 0.2185528027264011, 1.358032235469848, -1.9305657522678261, 0.7103851229648279, 0.7068982832071031, 0.6027109801502892, 0.7865318561255193, 0.2066215398378334, 0.10628268483063782, 0.309772525482525, -0.4828892997559685, 0.9500669543391337, -0.17802051439064656, 1.2375984637942818, 1.5192139864153587, -1.1180654041877762, 0.6966564674656066, -0.5982363046923569, -0.5616575321226787, -0.3697951201982712, 0.14168776412053563, -0.25296655569955084, -1.2779990365298484, 1.2572700740685463, -1.0679663063094307, 1.2980385405465793, -0.14549472652099915, -0.2657116981106713, 1.340256841061103, 1.1977186904987145, 0.17256564559963317, 0.029851649766779453, -1.3942224607438967, -0.16653229999637714, -1.0598600194874486, -0.5936845753448351, 0.36348001893087545, 1.385224095169241, 0.03359632182408265, 0.3608774589307254, 0.8678668612981196, 0.453690641127554, -2.004089371449179, -0.237758041412201, 0.6480648981261847, -0.31792689909049415, 0.49526369913577484, -1.0500679271805644, -0.5902646867369064, 1.233202923371153, -0.41748126521696144, 0.0778076854583738, 1.3704520007292993, 1.461987246630273, 0.1615635351970478, 1.3476587021086104, 2.053662355677441, 1.382591143714925, 1.2468732532506286, 0.5066715046966075, -0.7831440567006568, 0.5521933476908947, 0.6471927097077491, -1.10469118920798, 1.9118460589931243, 1.6548742330527848, 0.5992074583970123, -0.23290022969103225, -0.17962302565889887, 1.7485584105900713, -0.2827160621263056, 0.6221983270257226, 2.451299665598405, 1.6976056538285502, -1.4194764078619322, 1.6026392382401704, 0.3228923555035763, 0.5358488606092416, 1.0547457339131436, -0.9563819345398626, -0.23313951012282533, 0.8662365463419683], [2.1130449861895912, 4.114946758405285, 0.8887881114585914, 2.140844645658271, 4.019962014813916, 2.9825522535434756, 1.409736581373763, 1.2033345437581175, 1.8189036062513595, 0.84867393165314, 3.6327482459893776, 2.024213736947348, 1.9310609609404028, 0.5837474132090481, 1.8240717722038204, 1.799504132817722, 2.075303969707735, 2.809596157442975, 1.9014829705161491, 1.9852472345066747, 0.8277086789628715, 2.4453690889538806, 0.7741835712446687, 1.095307190247881, 1.469653653442486, 1.805848889660079, 1.4965094790849442, 2.050873165377513, 2.5682464520984825, 1.7368457089011953, 3.0527167665347026, 3.7032937702721185, 0.8939762046610071, 3.236175905763957, 2.3754127234170617, 0.9772943449819355, -0.5363841899024504, 0.5415036110232248, 2.375212504750815, 1.6187502738990223, 2.7624923060807394, 2.94311822244053, 1.4353941031533712, 1.571994070336357, 3.068000440455198, 2.688690982949264, 2.7467923554549047, 0.9607979453809763, 1.1537244095073391, 3.9210750312332054, 1.717945890748882, 1.7095265567977531, 2.5889393808990806, 0.7182314838131134, 2.8165358955208646, 1.2176939238077047, 0.5588283089033619, 0.3234777269785407, 1.176714381359946, 2.130227675494111, 1.3960167227505162, 1.0867430321261042, 0.9480942632915128, 0.0017637705717366003, 1.8770675769305902, 3.2698314362584835, 1.71057537175783, 1.657451157157376, 0.36842584715605686, 2.523004643811982, 2.4768959139064752, 3.687343849144552, 2.2884418931653605, 2.2209416179240766, 1.9543839370190093, 1.8333896180572702, -0.26688385481798527, 3.880123574555788, 1.5990000966904316, 2.5551574826531853, 1.1575392140552867, 1.8099258042007789, 1.2937144976296586, 2.1409759600271445, 3.832890780256059, 0.9747074374901866, 1.8808523421299541, 2.005887493661573, 3.5592001074968214, 3.4397690287842, 0.23335929307159597, 1.5520326506432027, 1.0933203626782755, 1.5366673957010983, 2.5618020286288825, 1.226868240510584, 3.731293516534781, 2.0774943596571758, -0.08932626518225595, 1.4653766835787505, 1.6326885120328303, 0.8518307787388737, 3.416103581925149, 2.6675036891168755, 3.3976266662670698, 2.7593293925273676, 2.4677616127008086, 3.0616959034606275, 1.8661134946828892, 1.9043693746789305, 0.8050587082652187, 2.9844008693725166, 0.4334188395581493, 2.044864635838991, 1.4327916849354347, 3.7940757074985836, 0.646732315432132, 2.743893316997071, 2.506016995708223, 1.9097372046502612, 3.420081322835829, 2.6159065445093432, 2.9180869108442415, 2.5370889862813724, 0.9114074682019511, 3.4588051657421515, 1.1020462726776568, 1.5937833807258983, 2.3135447495965735, 2.523950372824829, 2.2576090046373847, 2.0724335036882793, 1.171578876906974, 1.498581866783, 4.965917112125651, 3.5483569398852595, 1.8267616931403035, 2.830132078243028, 2.165144694606281, 1.7002073374179734, 1.948309282043876, 0.3994897489191742, 1.878714740128072, 2.0572736829030314, 3.736865691649224, 1.4508906309536698, 2.122276582802569, 0.42701172317956604, 0.6709845385649835, 3.164141773877402, 3.1485237682204184, 1.8373993070812897, 0.44707497636352134, 3.5298971187851276, 2.670681081543654, 3.117505075390001, 2.80276030138455, 3.1242613590612596, 1.6286235586137352, 1.876490807607515, 2.08194730871085, 2.3252967760852563, 1.0076804288315757, 2.8541240923131865, 3.009676055773364, 2.005148663937129, 3.5373035543709523, 2.0946391369049615, 2.0313190638485183, 1.0305823208460279, 4.132833602393532, 1.4400382752629495, 1.4110356489287286, 3.1961631897234115, 2.7966924579636085, 1.3182651268062442, 2.9858650599404153, 1.3053233005529434, 2.6128528258096493, 1.2532676420519402, 1.3462602835848076, 1.1057425909679113, 1.6548903557161974, 3.348265015295975, 2.9694867533932463, 2.078713867046573, 3.4537524451997976, 1.6103255050711862, 0.9507053853285137, 2.7677649153303503, 2.149639405560751, 5.185046053706127, 1.771818637060456, 3.61473627996732, 3.539780909579123, 2.639704291110414, 1.8625748844946084, 1.8921865107002411, 1.7400833379112923, 1.5409062197262633, 0.6212364479219732, 2.0177911334115834, 1.9899230779473185, 0.21045505141803988, 2.348860633932922, 2.247623952698773, 3.3610888761435707, 2.6078248732249576, 2.530599375281186, 0.9828095164004309, 1.6054104502793995, 3.0857309162978392, 1.5345943245047033, 2.6322765577448783, 3.2007348860596423, 2.6479862641748673, 0.2428661232221836, -0.5753782425289942, 1.5959094120000716, 3.2904380528451087, 1.7774651649919984, 0.535519675812357, 1.3277956276702987, 1.6314859821406036, 1.1918532151890875, -0.27684949478555154, 2.9489182951779727, 5.2001170184123335, 1.858490973440645, 3.6555684160066413, 2.8571166368598293, 3.205307594061775, 1.2106574984651464, 1.4487165224239198, 1.4056455982314255, 1.0339955338666085, 2.6858026190200124, 2.9273436147857113, 4.414696644057739, 1.2057776069365114, 1.5581676100386248, 0.746719435914789, 1.971198309007087, 3.0824826395787372, 0.7522126833904318, 1.474242836789543, 1.345174231679751, 1.3604296771302822, 3.590407417709568, 1.9793982017550806, 2.935881520997372, 1.5392198383891864, 2.7099738081506777, 4.17157052683607, 2.2018439747300858, 2.3068638765330807, 3.415465918870367, 1.5758320110025754, 2.7511993926553204, -0.1998337577130158, 1.0571643862327156, 3.4641355256588238, 0.7872604221696979, 2.0028705082831237, 2.267950215433347, 0.8608958132624154, 0.45936807108477096, 2.4711957025207596, -0.06396425532773886, 5.08343167529857, 0.8970338972680814, 3.193497457668023, 2.949922377379621, 0.4200981793294971, 1.283694468873237, 2.4052269101705868, 1.6719738505949917, 2.8079454853198125, 2.874352653272136, 1.3133615057465944, 1.3580376532290814, 1.8978153218293101, 3.1933514789383937, 1.7567039520154355, 1.8047923579787233, 0.4979429222744851, 2.468069092625222, 1.4134611773863452, 0.5479590086302972, 1.748911540842365, 2.3590079032963853, 2.6253237878655526, 2.8841548878259813, 4.8325826828107115, 1.6778072227419292, 1.3842114824649396, 0.6335875002324123, 1.3933418148673684, 1.5852862333120172, 1.4741066813830812, 3.427295896442495, 1.2548002797042586, 0.9552619568452607, 2.5118293340916003, 0.8176329972635482, 3.61351983476649, 1.8876673386704217, 0.23339732612790653, 0.6427578850755822, 3.7925100056796723, 1.830205320552519, 2.8009681873460863, 0.8827241620310138, 3.00050814489276, 1.5722763354865807, 2.584208959890762, 2.5246123894910166, 1.107736799402325, 0.17710821168517987, 1.656992931289142, 1.38339127939844, 1.4996689437847983, 1.1089514803758753, 2.0088193294319203, 1.1424540618397077, 1.5407506717324577, 0.7372810940287606, 1.9571099198232733, 0.4871982259400329, 2.9999486682956586, 2.4760591657926314, 2.4147123887600253, 2.1889442654955094, 3.0125558886812502, 0.48110237598067274, 0.1972065487360979, 1.2880289318437117, 3.8218230903395884, 3.3667416374867645, 2.4230547071069215, 1.121370283675315, 1.3968996872306776, 0.9304112778177885, 1.1997814297302272, 2.150368845157039, 1.7848889161873875, 1.9500758210127134, -0.06474746154730582, 1.8172780346758608, 1.8523478019013846, 1.4180004550696614, 3.8789948557199847, 3.6653088747058877, 1.5473218268034332, 1.1238266728029103, 4.166194648985242, 1.911513362820513, 1.7343669843250622, 1.59332846273011, 1.308054710929031, 1.7345031753674207, 4.1763386930074065, 3.221282839971517, 2.0827644723840804, 3.8304807233892157, 1.1160131717548651, 2.100435588128706, 1.1817538572790733, -0.4170432831868083, 0.37643901125854795, 2.4767250008298882, 3.1500684192513972, 2.437195837913131, 1.6639560483889901, 1.2304073298283846, 3.063294788188832, 2.8361464805244925, 1.694682040752453, 0.3608362352934267, 1.2395579879458456, 1.9928088149634464, 1.5630392985786232, 2.030821234859669, 1.9083351120927214, 0.7090030771405944, 2.9729640436868285, 0.34245075507842593, 2.549507185785186, 1.7792053260251968, 0.6128547313006676, 2.438898922143331, 3.611304304414024, 2.3593606962561053, 1.7834582693014138, 3.9397856163384617, -0.36006674506236336, 0.6511461618744856, 2.0426636010084125, 1.7095581256915537, 1.0590880315560052], [0.48354571968693444, -0.6433462702213766, -1.92163345800034, 0.2953822710393726, -1.5354199666919142, -0.25628416641328544, 1.2603357103979225, -1.5930897819467837, 0.2154888973648706, 0.2571139146237759, -1.548690056641429, 0.6508939456965082, -0.15459173895209147, -1.0175598325256625, 0.5408160662824026, -1.577808702246247, 0.2965987818517336, -1.113077661044985, -1.8596273714412759, -1.6233631047607713, 0.29079134411012236, 0.21580027245959243, -1.194327215381893, -1.2732456970508372, -0.2114168115671703, -1.940047925775833, 1.0131530307009207, -0.652157188425339, -2.5663131159858845, -1.7018489069917624, 0.41613304577914956, -0.7724043892651231, 0.09932101091630896, -0.3701444462008395, 0.2582273613418281, -0.9478927138105906, -0.12150223392648624, -0.8778298602994232, 0.6885717649921659, 0.4321930233531944, -1.8397484304747187, 0.044197953335343654, 0.5883202780053043, -0.15464415359132316, 2.2339559187680265, 0.01023960854935102, -0.7590365122144109, -0.5138791010914947, -0.8546097086516843, 0.6560511122573649, -1.0264175729713436, 1.9256680099929768, 