{"layers": [400, 50, 2], "weights": [[], [[2.098900503769728, -0.5328344313650235, 0.2691193144126049, 0.6796541295811327, 1.727181727959508, -0.24037288533639545, -0.06145591592790272, 1.2219310237514223, -0.012005357769634163, -0.6870584138995681, -0.9148673279090961, 0.06211252215090756, -0.5219477380631502, 1.3696795636175578, -0.23304979049345576, 2.191856649973648, 0.23224721497668877, 1.102546832797, 0.2124897477656385, -0.011632811834146127, -0.2694556151700728, 0.5973052047431452, 0.17430098429261515, -0.45792822857359855, 1.8843496191030868, 1.1538480593913953, 0.3360886187703936, -0.6852477671022437, -2.6240915751932254, -0.8329286792233581, 0.9919121520111834, -0.4213956355543323, 0.1020925574734478, -0.09596597254043909, -1.0829582499544677, 1.166916277622985, 0.014535792936821935, 0.12248442574075705, -0.15951801848484026, 1.2558593174401504, 0.4008755409248666, -0.6932173508941187, 0.44227605971842243, -2.043728729777348, -1.0004660897398638, 0.18574581966143108, -0.6278250916954327, -0.4257501383461784, -2.2922153443177837, -0.8956699281885528, -1.2926426568228309, -0.3447565662964234, 0.6081776530389948, 0.3450334773269282, -1.1570217989235485, 0.7909672231720329, -1.8998808378177776, 1.1117742070588676, -0.2911813726437388, -1.4064829744489364, 1.966167128374603, 1.4546302768050605, 0.45358451607196115, 1.6241837719976482, 0.7848846087086669, 0.11303529681304902, 0.7635951534974909, -0.2602921899576943, -0.19349426353539848, 0.6069589400469069, 0.6695461361324331, 0.5775949895256325, 1.0951677994226863, -1.000117115984791, 0.05571636052720121, -0.5512834677762488, 0.2562251167593145, 0.06195728526010858, -2.287749583540444, 0.21137381635648178, 1.297584723272461, 0.47542845810852746, 1.6945955909634707, -0.30856040130139456, 1.4277449319932056, 0.1539390429265799, -1.3270146467600854, 2.534074987014093, -1.276957601421937, -0.914361488777541, -0.46965893058632485, 1.4959593512016491, -0.45865317482379897, 1.165173313413817, 1.8171104427492824, -1.4962806330809402, -1.3803135616296978, -0.5366021270400109, -1.405854070137271, 0.5263221384570941, -0.09725778172660766, 1.0783709575345322, 0.9250669668219069, 0.5163044917286087, -1.5597723512937942, 0.8210487610146455, 1.2152441410134212, -0.24901970141316263, 0.5093468195184785, 0.011577276580288337, -2.5671424352198033, 0.49852659468416, 1.2721629114732245, -0.5725990380679592, 1.8982278664584524, 0.9423123726811946, 0.8932159175588599, -0.195640145974717, 0.9889677418731466, -1.2239820692512444, -0.21308503080413008, 1.4646543883799636, -1.7392611325780478, 0.26996702867730504, -0.43335528464552586, 1.6301860610101184, -1.1131196699969728, 1.6410252895930773, 0.024436174353196963, -1.0900152750748187, -0.7647328731605657, 0.22136685985492036, -0.42826006296012503, 1.175790679191697, 0.0381889209765775, 0.4132166950247127, -0.46925073695312525, 2.115515250331873, 0.19079627889817835, 0.3329498439445867, -0.8559994659977495, 1.2573483870268298, 0.8126424893126767, 0.9397262995861727, -0.061757341220214736, -0.373712604419068, -0.3892068983327971, 0.7291678232095501, -1.3198142321311717, 0.3923420225906953, 0.13092804396449703, -1.4769994128022295, 0.5079111873876342, 0.36037528782305367, 2.2937494225614814, 0.4066555737228187, 0.2079753857730375, 0.7685993651921916, -0.8950407221722827, 1.979305084179935, 0.7669152507955843, 2.2738029977232608, -0.11830949677604374, 0.8061313889092059, -0.09552118220524745, 0.1513262622998949, 0.15998933451577094, -2.137938205123013, 1.4641518416842192, 0.3865817521305082, -0.5195567296844626, 0.4975883100082338, 0.3963769333500974, 0.040211702591591486, 0.9371945996015758, 0.6550724626557052, -1.2879110036342458, 0.8956077151674516, -0.8691656367430753, -0.6883780650876827, 2.060629748175267, 3.2133731476018177, 2.02927471607369, 1.0713741805393153, 0.6348453954913957, -0.30527544506783777, 3.0851980079330645, 1.5870261795637386, -0.8567093535109607, 1.2433930701742522, -1.5401281529946615, -1.0868924836685352, 2.782960121313864, -3.147887565540439, -0.046808362071488654, 0.2581408597293724, 0.4432111559519852, -0.7875412637152062, 2.5736614100552573, -0.059253593960325486, 0.09388558217445571, 1.0183562402580117, 0.3318142830037163, 0.6044115547573713, -0.7300945657082462, 0.854785689848146, -1.2964539681081004, -0.5019766285592252, -0.564613434838107, -1.1341061263880314, 0.7127258842608672, 0.36575255729079725, -1.7633914361559575, 1.374639822832577, -1.3813650240212467, 0.4444043695042539, 0.3989742183517526, 1.3652292003869793, -0.7119872922177264, 3.0252223945602186, -0.005929400374624466, -0.12550439917597736, 0.13778140276741055, 0.16840090100807487, 0.31827603843199703, -2.0725479450888913, 0.7756217083607316, 0.5514037504433482, 1.8235361901997553, -0.570556385552453, 0.603973364240861, 0.44340312620526806, -1.3635690376998446, -1.4434764367583959, 1.101888980916417, 0.08140485952232904, 0.4333820532903684, 0.4544519502467804, -0.009589453119352673, 0.519257037163574, 0.5654009901253151, 2.4972524787443247, 1.3505457789959328, -2.215157646825151, -0.9247848747823731, -0.8989524881313141, -0.8322937159675191, -0.3933669908966292, -0.16756756990704116, -0.5180080924821904, -0.7323315144918978, -1.837322740632981, 0.05421074016983461, 0.22822703356482832, -0.12711378435611664, 0.9928465047554614, 2.070499927448659, 0.3046773062115815, -0.9758808826595352, 0.46748327268487416, 0.04154961518970899, 3.5433636556307064, 1.269800837512668, 0.2989564781052036, 2.1446186290035794, 0.37656173521676184, 1.1168660046879426, 0.12511483828726339, -0.4019209242171244, 0.6913330288579655, -0.4586886845337847, -0.27243719505401837, 0.7266047616741955, -0.33247412433556844, -1.1578262335028189, 1.3887562336121697, -0.6674293236286257, -0.6875568564914074, -0.0006962191591870624, 2.0536126101084125, 1.8379537305104892, -0.6310451326679024, 2.0380057349367497, 0.44378941707311736, 0.47556411145377825, -0.10564138622801786, 0.385773669025358, -0.5565675016704612, 0.6012869782840239, 0.20714546445738782, -0.016971401152595943, -1.128270059289793, -0.4326107124535119, 1.4128504791131675, -0.21866345479771349, 0.20808523476220536, 0.3962053725301017, 0.05896557713822555, -0.3283204436463508, 1.3771920129589366, 0.7499538052753298, 3.113772080161265, 0.34037854675677226, -1.2936202981242249, 0.7053273006251328, 0.11332514750399847, 1.3443163974439147, 0.5385503121435753, -0.4996697363010381, -0.24952179845129951, 2.499700572955374, 0.9022817205929033, 0.5587643524671694, 0.8708051680514306, -1.7659181417988121, -1.2550970553597607, -1.8521164124646172, 0.5680969286138833, -0.3013183341566156, -0.9344161567702279, 1.017698996191116, -1.1151750365071131, 1.5468706765709204, -0.005732878960846661, -0.20971373483757014, -2.1714876673476873, 0.5991849317549117, -0.8950937812503982, -1.7286849830600655, 1.6467318283871262, 1.014373019151657, -0.34620968231898, 0.6155277499737374, -0.02344677349390372, 0.21452325267175326, -0.91762043471447, 1.3260230669568984, -1.4312441580618818, 1.6917501990331074, 1.8758064941237025, 0.025609294035935683, -0.1580863698613094, 1.4490260471210257, 1.0776798038996707, 2.461343915708511, -0.4975317794164111, 0.1997765412407542, -1.345762988223117, 0.4391954559905162, 0.14578223178731264, 0.0839075599869881, 0.8892353744000889, 0.17938357668349503, -0.9189638052675455, 0.9588393082802226, 1.0549231941251422, -0.8431127068737599, 0.547630255547901, -0.3393127249696145, -0.5870288735804365, 2.1787057561743137, -0.8455424152404177, 1.9164186392370772, -1.3091586157557287, -0.09298201854109017, -1.093539554024332, -2.117596653801014, 0.4265884529583349, 0.45708278265765695, -2.292430828664161, 0.7816736987121219, -0.2193879158759674, 1.2580368541242373, -1.1350264639492844, 1.0624967488714567, 0.6512228530399301, 0.022502062203178415, 2.156879953128285, 0.44772237223761785, 0.2702283543308326, 2.636470303341414, 0.3973175961513354, 0.735796178453933, -0.6846340884198518, -0.4237734631106767, 0.10185250229036932, 1.6885038571258977, -0.1951563241518566, 1.1539398918818131, 2.2292543886127643, -1.2895248573580202, 0.03302825352022405, -0.31703434804605835, 1.7473702680398504, -0.8662496031429344, 1.0610301315520831, 0.8075103517415322, 0.4296925943847842, 0.754640105301266, -0.801646846629247], [-1.0828487463310943, 0.8208107124361647, -0.6421365745236067, -0.23614986309915334, 1.644952842752498, -1.7567979792960438, 0.3989231790668716, -0.20503699721807123, -0.38777006607149633, 0.7800698323637196, -1.17306652734421, -1.3102975107426054, 1.0788702802914838, -1.0785831171679723, -0.9343745741345125, -2.3326416615908876, -0.49173952938362525, -1.4570794964978808, 0.48898332387954996, -0.14181077233799722, 1.31513426793434, 1.238998512607933, 0.5360516976326414, 1.4073560039293425, 0.3590371659362807, -1.0832277727639745, -0.42632780515524327, 0.18839294063030096, 0.5274535123505029, -0.837366335751737, -0.6615057120608538, 1.7319586375822706, -0.6345467566699726, 0.01066444390411221, 0.936989245699116, 0.5250067200009145, 1.6755451221672966, 0.30723832025159126, 0.007180436718671623, 0.0998395157713821, -1.2962627606378159, -0.8536366455752213, 1.2341345057500497, 0.38541272479543837, 0.5979306376019837, 0.5964623685951691, 0.5055034114353113, 0.39998974782865593, 0.7182871344231602, -0.7092521651897989, 0.16915195935128405, -2.0624397268624945, -1.63003993407849, -0.13685583718272307, -0.2895315965190922, -0.936836842679859, -0.8024628677783447, 0.7636413629737402, -0.6702354304672609, -0.8197125146849567, -1.628819049837109, 0.9102937583666686, 0.13857006743166514, 0.041400267500179055, 0.2805658937024441, -1.1684123110683458, 0.7687174894749772, 0.9351537851031196, 0.6879833861845023, 0.3993742752253914, 0.14959535325159773, -1.3508270997137057, 1.268537168332526, 1.0373630779009813, 0.5062868892425508, -0.10550757941336333, 0.6100749912194033, -1.7795527100940896, -1.250369010403625, 1.3001491932964386, 0.7192148161860362, -0.277763529870251, -0.7309291925658207, -0.6047233400990127, -0.20043677520153333, -0.49986112725239035, 0.2550417753601034, 0.7571180154129732, 0.9122392945990687, -0.019060551139095463, -2.557818241458274, 2.595106306325935, -0.3563475609708666, 0.7295213183990363, -0.4439787470298207, -0.05071626365661239, 0.158260182958074, -1.4329525758362243, -2.5613215630855626, -1.2015875166112917, 1.4818581478269122, -0.7497246750259391, 0.30803807215920936, -0.5916817682525285, 0.5026541003139839, -0.9238535979548679, 0.5944182893437632, 0.40743094614483893, -0.15502891672088442, 1.3573115663806947, -0.1355608662532613, 1.282789192900441, 2.206112216695257, -0.35872377524659566, 1.0214982601637939, -1.3372345898771554, -0.2005342038729688, -0.11457878178164314, -1.6921136500483167, 0.7612506343398584, 1.2145514023585562, 0.4001007685424566, 0.4569134616915066, 1.4970579670066024, -1.082006996419424, 0.5358394363209489, -1.1156046881438377, 0.5660366698845349, -1.2144043917384146, -0.1897857731321419, 0.16463626860808153, -1.6693718197043912, 2.7216688440667007, 0.13650334230722133, 0.7295896243442385, -1.100941030395518, -1.358875645469038, -2.268035904562093, -0.2546331767810108, -0.3203977277016818, 0.7490465413050932, 0.4359392808136418, 0.18556323273409575, 2.110647535564133, 0.06622418471728059, 0.6623511049510454, 1.9594648909340395, -0.45659879253275504, -1.9555494081881573, -0.46564630268593793, -1.2200313415205506, 2.3504961298665368, -1.6801736863089138, -2.459124766085341, 0.44935989547498734, -1.530061919968019, 1.3123054363971713, 2.384440433723324, -0.23415651767368817, 1.6944589721737076, -0.2105248563751067, -0.020475531314005563, 1.4606010274016976, 1.1366329394911316, 1.8758781283561525, 1.972274085076384, 1.4494334281181696, -1.85515497777779, -1.9370297998714885, 1.6623035786226403, -0.3004740760713662, -3.4551728167428197, 0.9170083430592936, -1.4764638467415234, -1.7679733095407006, -0.9675748444338829, 0.7027209299697604, 1.3992943289937345, 0.7148019484385217, -0.3667827937464095, -1.7710996835006827, 0.7058240128697725, -0.17695716146341783, -0.3347949533451768, 0.6599458630995513, 0.8765533260105093, -1.1347730966236325, -2.0743188705412194, -2.1106962345711295, -1.7083495429017928, 1.299976840819706, 2.415211653338536, 0.28604715444126244, -0.6854257993886975, -0.7609764727619417, -0.5309909121977726, 1.008165054176229, 0.1906287300438939, 2.165713084307013, -0.00655166130802664, 1.3134635872699105, -2.4361517716399637, -0.41477915969481655, -0.9386086190877325, 0.28137153535093395, 0.20226873468875814, -0.16946226433043782, -0.7524601705848218, -0.05089397653573778, 0.9246467048931278, -0.0013286655914723118, 1.2577766217080153, 0.6160188649081083, 2.0135268392459844, 0.1833510201335066, 0.4365012147867759, 1.8893977386178136, 3.093338975900462, -1.0002443742139804, 1.3527933575128874, -1.01361236434432, -0.22808133456634133, -1.3322131034108167, 0.34595393411654374, -0.1437074301217001, 0.26980371467772285, 0.3452340278426513, 0.10910975491994387, -0.3420024947733693, -0.1728045265478772, -1.018917763048424, -0.9728900667673582, 2.124592260648603, -2.5457328229580787, 0.7209988540095895, -0.8223018966936968, -0.4578049767023949, -1.2262782073898766, -0.8385849978593537, 0.7876214977229176, 0.624797967889943, 2.437690878052937, -0.08104383515158943, 0.4085707456466731, 1.2119135816306832, 2.2138345306079783, 1.1681321832678864, -0.7949809450855689, 1.656299285392228, -0.05140161134665497, 1.2987345533945986, 1.2285468607965129, -0.6811196713815462, -0.118116053369165, -0.04756744595641815, -0.4339425705758656, -0.49968502611764176, -0.6616752799190168, 0.4676101466348645, -1.1271592356024729, 0.7909490673749449, 1.161385006513326, 0.5488189326184137, -0.9124897037766372, 0.2540545805239122, 0.5246762444472514, 0.6436079463708332, 0.2662518952106048, 0.6260729386634748, -1.1452583576709894, -0.9723502243296231, 0.05527354963905635, 1.9730327888886083, -1.1053929458273057, -0.07813838220154969, 0.6007234138483574, -1.4451670002535988, -0.2728169185074015, -0.912520256429916, 0.2244299385963898, 0.646024931110245, 1.0121640375977268, 1.1045248765620652, 1.6349784850689983, 1.4889682693394537, 1.524103218410573, 0.5839468367934928, -1.2445074537255247, -1.6524342079568073, -2.0672813568919244, -0.49450988323473466, -1.4365438049093273, -0.49413584638878943, -0.2821340586135174, -0.20531481596457807, -1.5826267950445487, 0.17798964150470295, -0.7087546660932826, 0.8870525266831687, 0.5895027778214622, 0.9663224613471494, 0.9075317425530655, 0.435459495014396, 1.581649400303005, -0.5522101712805614, 0.2677605452022712, -0.13070690219939235, 0.2675984606232085, -0.5675884428099852, 1.3209819088225019, 0.40199316927130246, 0.5768281578909059, 1.1614525007992635, -0.4266250774468626, -0.21795817184293872, -0.20722084032723012, -0.031373487998591416, 0.2798170337844928, 0.12890314409361223, 1.841058903257354, -0.752891946059181, -0.5804809580618986, -0.9749159251735742, -0.5125303913340581, 1.037065338293291, -1.1513204110737714, 1.2358274148533552, 0.42982301778009285, 1.4422382183414948, -1.1123780309202542, -1.4871172775447128, 1.3054873407755845, -0.39323325380085944, 1.7320128285135656, 0.20934059954587964, 0.13366045601982143, 0.04533731909259587, -1.67361800622873, 0.7353982818721173, -0.37232038812583995, 0.22698779474669784, 0.0569127523790506, -0.9339016584175533, 0.542266638939631, 1.0416080187119428, 0.18105533524005454, 1.704873284059305, 1.1868901101974465, 1.3748863328145746, 1.3943989800000476, -0.012543214675583626, 0.6532547334100239, 2.426623993702012, 0.9195305120397345, 0.357959216927646, 1.4651903612913866, 1.3580477995227433, 2.15739413375247, -0.42991574299784113, -0.257333830134704, 1.0928678895877422, -0.6345310784319697, -1.4360498917915572, 1.162485024321774, 0.5023363062411162, 0.2562939763072254, 0.6105052597544031, 0.7997451379039153, 2.540956038120617, 1.342180006966553, -0.008648505489752361, 2.7937607845651335, -0.10005686777128334, 1.364524665730173, 0.8732500599827856, -0.6071613449348179, -1.6446333979765833, -1.1662139623252874, -1.4948593102907213, -0.37872769314432647, 0.593331743608383, 1.8493874876395633, 0.7124519144683569, -0.05883131799866659, 0.24720051041092508, 0.34008277849898866, 0.498985049862701, 1.8207405266941736, 1.583249224235292, 2.6644877132366753, -0.2682060720766561, -2.5450022720510876, 0.175124019469049, 0.7641472586248974, -1.8273613292177673, 1.2330256005359375, 0.40373569219637845, -0.19287859581590416, 0.1846262650999556, 0.22006728204983256], [0.9787535564253321, -0.38885625556482567, 1.189018094968257, 0.9493055302108192, 1.3441162798167934, -1.5588853120657773, 1.2403153092152652, 0.5027656386255023, 0.11016798587768774, 0.19505382146308362, 1.5432699302108315, 0.448797377976289, 1.1028082268257204, -1.454094753367111, 0.3167035035671988, -2.1493404271414, -0.21105934372869117, -0.8792646168365704, -0.04159761504316294, -0.3309618214284209, 0.5202199111134753, -0.6944398153716554, 0.4689163779883443, 1.838895622698926, 1.2911337329615205, 0.3963530771208865, -0.2250956074519394, 0.6342747270275368, 0.9337901261820752, 0.6569881571117041, -1.0086424673929282, -2.128234608930856, -2.9728230339792825, 0.6403321386714622, -1.1625584849170891, -2.2388505519545854, 0.5320224973572664, -1.3048382909760483, -0.03972766805592829, -1.2086639101232701, -0.3180501943642765, -1.2680818192066767, 0.367139679898729, 1.1273325295822318, 1.2607147025297771, -0.7017213221215183, 1.4719045852153592, 0.029559576869440902, -0.3439360559454223, 1.3679574589262178, 0.21471745153122926, 0.11217041692718285, 0.27935541012664017, -3.693906553675102, 0.32866654204627554, -1.832240159433788, 0.569820929531012, 0.13182508511971822, -0.6304203267364974, -1.7090267535374157, -0.7393453355337822, -0.8978004685709154, 1.2722618271356, -1.441462391696361, 1.4674065100583726, -0.3636921430514401, 1.961248994581999, 0.17127243917983126, 0.8763546407494354, -0.9544691800932251, -1.1247543379035363, 0.8813749731724723, -0.23540933386877172, -0.02911910662269961, -0.6092384283986697, 1.0373319733598882, -1.1295619190887813, -0.40543166316410084, 0.46026746019266634, -0.035729085276730015, 1.1070211634773193, 0.696776206115207, 2.1146374343689223, 2.6718667532032225, -1.5972817865298137, -0.1070856695248902, 0.6343302169451717, 2.0095860725478567, -0.2828715693495653, 1.0284689610468454, 1.8345881443874867, -0.4836158309188675, 1.2788322786702722, -0.019562341157195896, -0.7022875057870359, -0.9693612927128193, 0.04184434339313358, -2.8411970825181703, 2.787187085216675, 0.3609916903045748, 0.3978900532698547, -2.4550180104021133, 0.5922657182626657, 0.9338593564925173, -0.2155183046847405, 0.46421363626279155, -1.1996927957176418, 0.15135304824242757, -1.354960923869399, -2.754700773966888, 2.1301123467994203, 0.7929460751967456, 0.1457281429142404, 0.2261676192613784, 1.6822213301721973, -0.6233245442191516, -0.6361370132506023, 1.1916484111964034, -1.199457609564441, 1.1703409946274101, 2.0896978200099534, 1.6304826595184536, 0.11922788098519853, 2.072446017571832, 1.208719028537228, 0.46647122564792787, -1.0300869335194809, -0.1891825502384617, -0.4277750513546123, -0.5352265713487113, 0.22236580344770737, 0.9115408883469623, -0.9161481347918135, 0.9021638778520648, -0.9372555339218045, 1.1423997849568883, 0.44875435710889067, 0.5930542734418397, 1.2637839104700002, 0.11190611891799712, 0.32580882510853715, -0.171079876484232, 0.3847131698134916, 0.6287009528091326, 1.038943043743502, 1.0273435858997157, 0.05633761534341832, -0.8880581259544459, -0.8969334436205258, -0.5041515647549906, -0.2007425339764017, -3.5384223638066645, 0.611734936174985, 0.160963298982021, 1.0681601335133657, 0.3102838073281218, -1.0216394141292557, -0.200064902124356, 0.09864118831224242, 0.7041281433901319, 2.095925269861934, 0.04126824997269226, 1.0001096586944562, -0.026082747866203692, 0.5247512529893903, 0.5531158755299362, 0.26868207808256556, -0.3182776596932676, 0.852574069853451, -1.3392032165080365, 0.35492434964022734, -1.9726709029982632, -2.0544032546311746, -0.10976958690469037, -1.3601894728138013, -0.9240434821149616, -0.012349940864161288, -0.7905554830412286, 0.8030236411053444, -0.7235412279108017, 2.293196623411199, 1.6765819782980753, 0.44319588682573224, 0.4308052105067101, -2.275217050047554, 0.8366448884967347, 0.48804625591491935, 1.1411240844502228, -1.3323589832455398, -0.10334410504571691, -5.476462799243046, -1.9230130489243695, -0.9301588556703008, 0.7868339502533143, 1.1354617424722475, -1.1739473373470461, 1.2600504976670535, 0.15085332098680734, 0.5303340630162108, 2.2753386377220477, 1.3436742614184884, 2.0916810919870916, 3.0639513800753466, -2.64382447640383, -1.9519771340928225, -1.512714161111054, -0.8038867254398481, -0.815166155956661, -1.035742105307965, -2.5748017948457056, -1.6721062559334983, -2.731100597743349, 0.5386521587287135, -0.6901841767464648, -0.31039024856499764, 0.9205929676819267, 1.7078819440211483, 0.3247428947302524, 0.16318729209847602, 1.9043298216639861, 0.21884507553863777, 1.023553205436103, -0.017990374272630744, 1.898644776287065, -0.3978459788929437, 2.3044783173128103, 0.8723600282399689, -2.43557915546707, -0.03828086941765703, -0.3995772965324991, -1.1009767852889416, 0.6374040014567204, -1.5504200717392718, 0.16407102180259264, -2.2082851420903897, 0.043728614772234164, -0.3945377872243038, -0.724705942258307, 0.7593060911975353, -0.174811725520117, 0.09032686425066389, -0.8245271423399948, -1.2220342183531678, -0.5743216843596025, 1.2456527487194515, 0.06088565642561954, 1.1149696918718655, 1.016505308243095, 2.329476303741618, 0.28381249256897484, -0.3648979971590625, 0.08362489805672751, 3.061679026797593, -0.8438742291716183, 1.3679996991615795, -0.31188678350896704, 1.7269557559417519, 0.2926108047270187, 0.38422858118024644, 2.1310542179790524, 0.6628648201639863, -0.19781033183319116, 1.3402490239423825, 1.8744884025945205, 0.019027663031043206, 0.9114368027523181, -1.0582694488687512, 0.41179989757855967, 1.6177608848614577, -0.6053454663871201, 1.7926664503603758, 0.8931405861523599, -0.17751932751331975, 0.6302747957256266, 0.6536326707024954, 1.1387193311474118, 1.4349911282745647, 1.2367659062448624, 0.3321581980304245, 1.6838574741790688, -1.6697684435392, 0.13316977027309015, 0.5879552626235249, -0.5348936060652473, -0.20498392092903409, 0.22113315797797484, -1.6976808346759458, -1.4696916698403926, -0.8226275216781727, 0.9928533928525848, -1.778017648212247, -0.05974782106781345, -0.7213425680234722, -2.070353946170533, 0.8509638990677034, -1.8870892182125165, -0.039528322806111675, 0.25536770253355484, 0.12312262519043247, -0.6472410421197852, 3.888066607352326, 0.5617188839857457, 0.20328119488958, 0.6856033780411349, -1.0445694699933388, 0.7585264635992145, -0.6408579238627186, 1.3969065383135735, -1.0862431266004933, -0.41456941487871135, 0.15163969420326723, -1.7647954389034946, -0.3220447649780548, -1.6195271656847332, 0.6067971746580789, -0.9664215272721314, 0.921690417770983, 0.7497001336267122, 1.046500965727678, 1.4833704175696116, 0.8875708687509765, -0.8433115256442076, 1.563383469323721, -0.5613000743521958, -0.39832829558396227, 2.1460163124392007, 1.0211146968020877, 0.3115677021687803, 0.026659797954640303, -1.1352067348146657, 1.6479353622395676, -1.2692761380016178, 0.34407590576138214, -1.0620545993032524, -0.01749002664830026, 0.518196599641452, -0.0794185617109234, 0.767569957701785, 1.816384523536324, 0.24825222603990402, 0.19400959260225803, 1.2594151694376188, 0.2726260400385532, -0.5784183675361402, 0.7839562251145185, -1.7874652451833304, -1.4481727110389266, -0.7276079530168679, 0.8810282319822257, 0.4276123495085377, 1.1358969114298183, 0.0293771241710989, 0.16650537555024086, 1.0839264100850208, 0.5782019233213619, 1.6636821707139724, -0.6278857867289859, 1.4659527828152659, 1.1948379612881983, -0.29540790557609226, 0.42786294022143395, 0.40763364986004713, 1.0318669856635727, -1.329748660402041, 0.25242222477906284, -1.0200822461627468, -1.2405159919216877, -0.8359823711608753, -1.8168839321123524, 0.0002993099254763019, -1.9254556595432823, -0.31504431230850916, -0.5817992129324789, 0.8689384136534516, -0.9536040452902312, -0.07600923345530464, -1.375070851418708, -0.13643804416425037, 1.673828703365125, 0.3220864141480803, 0.29031865649813965, -1.7307813520847768, -1.562494293806144, 0.3974530546334696, -1.3122353286258424, -0.05970859405210872, -0.7468998896038301, 2.3281043475674466, -1.4130610542151207, 1.3392659983762474, -0.6328689820356012, 0.4588011554888261, -1.788579160915548, 1.4885086870946669, -0.37108146024737854, -0.4037814832607851, 0.668523040360827, -0.38052518783172645, 0.10513092875778857, 0.3508831523044057], [-0.3361713914051902, -2.094807021513029, -0.05498840386723928, -1.0869386971660029, 0.7329070794440398, 1.2314271814960722, -1.9879654353054745, 0.06704715621884692, -1.6206480241599, -0.06590680516646692, 0.9444754509773421, 2.37111013577683, 1.3666747604125198, -0.3802850063479046, 0.7737322268333886, -0.5420854341212411, -0.22568503941650073, 0.32422096082870233, 0.6305553776026621, -1.1014722649797108, -0.7233018148840963, -1.2652471626525548, 0.06531812590024844, -0.857495644800818, 0.31334221212713503, -0.5421844842940214, 0.2602497690960916, -0.005307827680335732, -1.947516891244464, 0.45644712484967115, 0.5706159610246238, -0.5926471850961064, 1.7277041416478573, -1.6909984712714046, -1.810950852324829, -1.1581214463910094, -1.7686553698061558, -0.2759355188439127, -0.873734123257278, -0.014036703581867033, 1.9341968313560605, -2.297366374321487, -0.5228533615842806, -2.03766586255319, 0.8596034341056746, 2.6786385621448727, 1.2050976313138957, 0.6699970166181801, -0.6625893279111095, 1.0408169469323385, -1.0572341581966376, 0.27342579179525295, -0.40130903559869585, 0.057461154270328586, -0.7990327935663888, -1.1831502470617123, -0.7361838280670481, -1.4265426193186053, -0.6213350203068055, -1.316913206193319, -0.10845647768518596, -0.2898316886173627, -0.9142279071193288, 0.21317649476796321, 1.7896107521490712, 2.60501166962431, 1.4760087414009404, -0.5606139632807883, -0.28094331011112744, -0.26662431468642017, -0.1571149880114673, -0.17189998034414974, -0.2502000452360943, -0.8799951756778743, -1.550491250544869, -3.1593638380770797, -0.7454302208092338, -1.7200561682764786, -0.6078801304098135, -1.959281811989573, 0.39234389832410044, 0.2956562742847061, -0.9442439006260861, 0.9937072131611747, 0.4061463283294606, 0.5234056579375688, 0.7832952854838435, -0.4656054873388012, -1.010539958223037, -0.7446124699771575, 0.6787716435261415, 0.24711818439564032, -0.06884322209542572, 0.5660324787425953, 0.45613320891791487, -1.7373918250147677, -1.8840821916070505, 0.9628859408071864, -1.7552230828214541, 0.06513286097198903, 0.9132998997213089, -1.898533190740485, -1.8562354724633048, 0.7836748689959879, -0.34644183758307084, 0.7203447770203311, 0.26622646713109765, 0.8821789586337737, 0.6743687887132888, -1.4391516105209046, 1.0977909909061634, -1.6683086937001348, 0.05823404538780728, -0.40288970218339193, -0.6868472160199898, 0.9791789291551753, -2.548297900876471, 0.08828581379009555, -1.2708675431887086, 0.25327696510260644, -0.6437761257128314, -1.7807042084381395, -0.13288285829327776, 0.8378996826036538, 0.5481236999093599, 1.1905599297199683, 0.3541964276177676, -1.3566102961415483, 1.033750141564924, -3.8264542207303864, -0.4730690690092939, 0.21798037810879023, -1.4407488787749534, 2.074149028305584, 1.0900440484781606, -1.295690219989004, -1.0728245983127682, -1.0702202475761038, 0.9354137509675889, -1.2508675987853173, 1.1036679608401991, 0.5136841830299164, -1.332285474374872, 0.17359586351098724, 1.7126423137918967, -0.5867402138006577, 1.930711339988629, -1.5719675570238119, -0.6191886017915571, -1.4097038441943894, -1.359941264014905, -2.921376722441568, -1.919084554241364, 2.421050836562684, 0.11685087940583025, -1.725182160522106, -1.9172477988023982, -1.413166808059847, -2.144806863696873, -1.569485929716224, 0.7037256275809946, 2.058421243958682, -0.7453428532318623, 1.6620989983391787, 0.575228519544284, -0.5812990370660015, -0.24979248804720502, 1.310628858722715, -3.7769079619164323, -0.2837905316236183, -4.50855507550846, -1.9292439115429498, -0.6937245738153495, 0.7869959181662255, -0.10745124465237803, 1.12480635152298, -1.5551043553511992, -1.1329076848456623, -0.7210887020452224, -0.9591733008191137, 1.8479225731838038, 1.9133860598328793, -0.6468394847595659, 0.004880327045466024, -0.04013003098154033, 0.6360801939585766, -0.057643535899607364, -0.5049337711200644, 0.4236869055528465, -2.315278936991268, -3.7909271729122263, -2.484959338393682, -2.8655117560503873, 0.4611662339889731, -1.1570536147094879, -1.3126928222532246, -0.844722529713519, -1.9670484180097603, 1.0300012558701035, -0.05982265690160116, 0.9724270861533487, 0.8474112158647302, 1.7398554219038158, 1.7034473086194872, 0.15761477375001698, -0.21849474745277858, 0.3297330100773713, 0.2278610748300153, -0.3650476929350917, -1.9442321439451355, -4.600592586015848, -1.4108633820502985, -2.9654513345569042, -1.0848731139570997, -0.4111200984893592, 0.10661235863787231, 1.1296268824251388, -0.9584146150452016, -0.7639043229567754, 0.031645936516789513, 1.8579122031932036, 1.07644398687207, 0.5114120330455972, -0.4554873372924502, 1.1894737377038145, -0.6447865090625492, -0.15094932477498982, 0.7770024032758714, -0.5764621368142852, -0.5383179177274723, -1.8799082004325156, -3.770264941630837, -0.572362008137152, -0.972296799768464, 0.6578272647061066, 1.3364671514537596, -0.7349598608469654, -0.8299736472824503, -0.3642594461330873, -0.29015101517943925, 0.07926107877804132, 0.9921524739163659, 0.12250747273961675, -3.0955108779745846, -0.9949588476766211, 0.6851208669239348, -0.2630868211909516, 0.07164958835507398, 1.622671891039705, -1.3085847858776227, 0.13798387252273506, -2.7241665278801372, -0.7979655035454071, 1.6911147239385842, 0.8739800655675185, 1.3957634967342203, 1.2067733240384133, 1.120667523902941, -0.4809106978180258, -0.23167137235741483, 1.339587317771388, 0.6605812082059098, 0.07904716802844054, 0.5981761401873579, -0.8551706217975391, -0.6735227542692943, 1.4503202174031853, 1.9262188579471204, 3.057894981819589, 2.6507398655550567, -0.29017084828969314, 0.1549364024062644, -0.5576498885198864, 0.6243001702578447, 1.658541757108838, 1.170449401865187, -0.38815147071829903, -0.47256133573112374, -2.1579667385332515, -0.41055340356645065, 0.6963535892727586, 1.1473768936902453, 1.2713137562737158, -1.1857319283604701, -0.5370826779176509, -1.3927879249868975, -0.5069675198093344, 0.9128322792131605, 1.3410109038539173, 0.7823381241516659, 1.7673733026676932, -0.4428445419091982, -0.146679780473344, 1.0082245937429601, 0.424553070324954, 0.7340600756483492, 1.239697471928793, -2.0815813335900772, -0.08501930542378167, -2.0090169883066933, 1.6271613242415723, -0.7863163807429218, 1.1241412567242535, 0.9176095007895124, 0.5658209465693108, -0.4266931309251119, 0.6813154355909696, 1.5632856035748348, -0.207466548196908, 0.7476287581189431, 2.7894220070835942, -0.6978902016482459, -0.5168362496649923, -0.8419735541242241, -0.6981818014721479, -0.17305103017689913, -1.4595910990670287, 1.106586302098675, -0.525200465715994, -0.15790799647510023, -1.2041690610973432, 0.2278535794614377, -0.281910950835048, 1.615479348588215, 0.8566932857586773, 1.3216165409628788, 0.22483289280401136, 1.3096126592843178, 0.9569576700262523, 0.6621909887673009, -0.30226206886453866, -0.7360497438743123, -0.4356384933350831, -2.7035909334674586, 0.24687235455531015, -0.15387003902826418, 0.14353112307051927, -1.1484893316226328, -3.433264654612272, -0.4928427476183855, 0.8475925471450301, -1.034436448113298, 0.9625108467867326, 0.374658498386334, 1.9384079669793994, -0.5915800106807205, -1.476913704646703, -1.7398332160722838, 1.3329790827087784, -0.12868671120781583, 1.440409614595756, -2.115131570206015, -1.3168382620254597, -2.172090804859739, -0.436099703679275, 2.0239054468567383, 0.10827473188744799, 0.33460750530960304, -0.5689768083320661, -0.09320684534805192, -0.39787830957510617, 1.6249686103260026, 0.5127144138888724, 0.6243661843743687, -0.035779580290192105, -0.8915977348400435, -1.0306734789854999, -1.8223615094290715, -1.1418877785861672, 1.3243426396506675, 1.0121221101981839, 1.665879660225689, 0.36205096217779326, -1.7730786737614515, -0.6881288385689412, -1.7899224766833342, 1.1871089798686585, -0.8175465390318694, 2.612494928595328, 1.4344221600120317, -1.2266948877928425, -1.3578918691470911, 0.009456665404631621, 1.7887450165854777, -1.1187620958636328, -0.010215444557097383, -3.1339620847121417, -1.7257460056736988, -0.6744520232149996, -2.1847258557362594, -0.7301636434581814, -1.8669982654852275, 1.9692765955561402, -0.17110154976325512, -1.3956169507206881, 0.39504197068722013, 0.33569090354813297, 1.584967359315216, 1.570044260816096, 2.026418303998947], [0.09720574100181646, -0.388725768371579, -0.29501988676940616, -0.0904226749514164, -1.4708640163188473, -0.09028227936233767, -1.395847573582913, 0.9008118407390083, 1.6228282711076318, 1.5581680066661128, 0.7912387117621867, 0.9370287579721452, -0.3238015844309531, 0.634775985438678, 0.2986816285976933, 0.12289092787589888, 0.032562997338869734, -0.5380882936018689, 0.5186707247452754, 0.4805069711875652, -0.12136126440493256, 1.920872888018584, -1.79328585936691, 0.13708041107807564, -0.949911272724743, 0.6466950620483516, -0.804453735635604, 1.810135858198487, 1.5566073585226765, -0.2532577785638957, -2.3120277095079986, 2.650249246980632, 0.7218032674676239, 0.07685066078495506, 0.14105064705512066, 0.7685178056761434, -0.5498631584442061, -0.6168474776873031, -0.46107995314084355, -0.9898448824319643, 1.535015376163625, -2.0792429375972437, -0.19264719195546032, 0.16650437182861208, 0.06464850386708586, -0.9462821380948395, 0.45301620493997474, 0.06204574425094019, 1.7499434719348999, -0.1381945400850925, 1.1161287488862084, -1.5261955276588028, -0.8458671546731034, 0.18211364166620744, -1.050625478058324, 0.6954802068890261, 1.7295034046510775, -0.5074851533483462, 1.4685972214797312, -0.861932154856933, 0.4679322620782146, 1.15411789967819, -1.746334119445772, 0.9376597813304338, -0.834130820670898, -0.21670706172475793, -0.6304937761051972, 1.9980017011105375, 0.2281245248891256, 1.5607072519759586, 0.2414217178597171, -0.8173146628748962, 1.0740320108232289, -0.5165118834239563, 0.919713719859194, 0.9510482299317368, 0.5121624560012529, 2.2915386504140933, -0.5941897317064756, 1.671566141016465, 1.7255295203366212, 0.39454832472338913, -0.32648877412020755, -0.38072318596431665, -0.0031672587635116164, -0.011202553538490093, 1.3323172361554494, -1.1471120810169908, 0.6417888598984849, 2.0062816720227774, 0.0389306592968072, -0.4179920920531214, 1.160242868373455, 2.8683784558185046, -0.4845329551085675, 0.5453223797988589, -0.47118364766600673, 1.214931671499229, -0.19967761429759887, -2.9887180121180124, 1.4036247495972873, 0.034747766645069615, -1.419115605928461, 0.0669579794085989, 1.2186143809734469, -1.216968811644912, 0.07777157683604108, -0.2745667367577409, 1.988904575772529, -0.11819919092361593, 1.099300389350698, 1.4549035364986693, -0.3412080725848084, -2.70748858761623, 0.7430739136523354, 1.5535904099996372, 0.6061151923475225, -1.0462362329794928, -0.11885057744397166, 0.37629897077767815, -2.3337089436422334, -0.11506799494897581, 0.5078612498235989, 0.5259129417198709, 2.0251994979703607, -0.29916736331244237, 0.18619911584264734, 0.9585754743931306, 1.7839808646988216, 0.6407374857292082, -1.8648632883599252, 0.7037392034505324, 0.44235638277985445, 0.5024113756438535, -0.34264185275640285, -0.2932612852419485, -0.617285035562714, 1.5726455601536262, -1.710333268582961, -1.2744468288020927, 1.14899531577696, -1.947639547552852, 2.0177281564432072, -0.6240152614421761, -0.08492150130492662, -0.08502520099442866, -0.4938159540728968, 2.615712056850672, -0.8502320792326394, 1.2293777094586633, 1.8371674149925985, -0.8762580823526709, 1.876820687302562, -2.680324515999772, -0.01799376019347965, 0.7474152331639625, 0.8460807579131138, 0.23167817048687517, 1.5793426762705127, 1.1962029189351042, -0.06247328688135666, 1.8449059781597252, -0.9729314719506036, 0.6598201199162047, 0.4339857745443552, -0.24509932355050215, -0.38720599075822815, -0.6148062346527223, -0.3995121816244715, -1.0050312349810508, -1.7020704702378713, 1.318095917205144, -1.8001306954469252, 0.2832610653630661, 0.11129245415754657, -0.1675451203809754, -0.3284446666856886, -0.5268091131524982, 2.2433735656555682, -0.3939682846536324, -2.8250360450357688, 0.09353161904142478, 0.9468408111702206, 1.4305852892599957, 2.233084399679067, -2.4247860445251948, 0.14112302261245516, 0.7223696757290092, -1.3284082585294505, -0.825076968824006, 1.2280503110398666, -2.0119353223571736, 1.332200231278294, 0.5999551688782112, 0.05576452232752817, 0.35053988147807824, -0.3735012015995102, 1.8173300509063333, -1.0354300353184192, 0.7443292259413182, 0.30099875144403393, -1.2990753423092454, 1.2686116320403809, 0.15302189411066988, -0.24206847827456307, 0.4264569563035493, -2.6851401003293547, 0.4710838780597655, 0.23692756558917888, -0.20222006261196107, -1.7700253664462755, 0.6584919917414247, -0.5427651533325842, -0.020760158516546296, -0.22277096199442284, 1.9461301257030499, -0.07246313840055109, 1.0723286805136685, 0.2228180591752425, -0.34631568456697925, -2.110255027686445, 1.932856614921885, 0.8478111694016125, -3.099307859350258, -0.7640740633504162, -1.7474047268896895, -0.6156367237004936, -0.21673433779808118, -0.00020145930005105046, -0.5291856664168805, 0.179779524488954, -0.9908721091703889, 0.6134834252429116, 0.7975301161937773, -0.4568294932407848, -0.39236371677385806, 0.7944427672271084, 1.8266756729339018, -1.9452413911944357, 1.0082806455979116, -0.8905816846321081, -0.4793165593702275, 1.3202068038751085, -0.6099888445797508, -0.7167374229064647, -0.09646865288153034, 0.20684317851793177, 1.445570684598937, 0.5779218418863125, 0.23484671059234188, -1.4699852447651829, 1.4891860226714104, -0.43915911193655155, 0.7919579884144863, 1.4375915057060855, 0.9572334851591878, -1.713042634400528, 0.7861042321650341, 1.8504062790995455, 0.07515336766630089, -1.001964833860837, 0.2500269781701758, 1.184101743999378, 0.8660248154528274, -0.7785736861680823, 0.28780005092871397, 0.0032744103967920187, 2.5323881369322856, -0.5931350220407612, 3.016082890637993, 0.07758800456979968, 1.6365425983627695, 1.72078976924275, 1.7563028284188371, 0.9763544378814658, 0.11126983667165499, -0.04004908703511691, 2.5254486084229164, 1.8631818378416247, 1.5506699793948815, -0.5366638132206557, 0.7363314510464282, 0.22195927173174243, -0.2844085057840892, -0.16269258854668958, 0.04201847576539977, -0.11914267027443862, -0.1635125815960062, -1.340068804295615, -1.0256301334247595, -0.18477260320701397, 1.3916455526157832, 0.1775706381750687, -0.0701693207035218, 0.1849364997510538, 0.9951077158527722, 0.378483157338523, 2.235898890920916, -0.4305625898251064, -0.2548507058534713, -0.003908250170350168, 0.1498096211769181, 1.269009199432128, -0.14210371701614952, 0.7331067397844587, 0.02151544558128975, 1.1244479808703323, -0.5718242491007381, 0.10992227294681782, 1.6080608367478855, 0.8529470513172551, 2.5018875220242602, 1.7459355968422976, 1.3941709004748322, 1.0643712941246368, 0.5864073430935525, -0.6357044701036585, 1.4646992397721061, 0.8126424384254992, 1.2079392913054037, 0.03468250706199537, 0.8180484715830685, 0.5366631056944078, 1.400635176992921, -1.4532999006454272, -1.6773870443963004, 1.6254799206829607, -0.957322826884787, 2.6839277925143623, -0.8460929106999076, 0.4768410138949711, 0.5571771020660605, 0.18180374375738387, 0.9879956896858173, 1.9442705150656305, -0.15619953184305146, -0.12369290194132943, 0.44484741713232046, 1.9605292232386018, 0.8390870002722509, 0.14687532052859958, -1.219726490487667, 0.4107765683838864, -0.6741977198002822, -0.7384055692862375, 0.0696987862129098, 0.5267284352733849, -1.404158958163297, -0.5562690750841658, 1.5896855106301633, -0.08309700900621636, 0.3755215763360021, 0.5100823259130913, 1.4871361046051403, 0.48852502786884544, -1.0972414887620499, -0.4702529775889548, 0.38870137347599665, -0.41563993250029085, 1.0034414872780144, 0.21092232242764486, -0.9628768763502494, -0.2440274873921619, -0.7857584200176952, -2.0138919064326717, -0.9545937646386804, 0.11097449242523347, -0.4161511823076032, 0.7127093392978113, 2.292114219596223, 0.5304024921573788, -0.8335323175252766, 1.8356364781961465, -0.7546253651666467, 0.7537541296311524, -1.2614616322243941, 1.7942082893789335, -0.22846227789055942, -0.3318166231075825, -1.4669962933604017, 0.32714226788796025, -1.302792434894409, 0.0715093809565345, 1.4817063223601499, 0.21808931597516104, 0.18994403891508294, 1.368204142144174, 0.06697408448894747, -2.521908076043412, 1.2313746451694747, 0.49331108963086145, 1.6888226251853722, 0.9711599505461715, 0.4043631150945123, -1.5274511623292735, 1.815672179774236, 0.48436765195354126, 0.07854899311042957, 0.23032619323002118, 0.1044512604070319], [-0.3543754712528139, -0.4523300095587062, 0.4645448177515901, 1.476782427878056, -0.46658388223321595, 0.9945831450339114, 1.970851431133037, 1.7505415933699366, 1.3472766615568748, 0.5633210668297447, 0.38780885111333613, 2.000285840615825, -0.0017000671793201724, 1.4383408271986855, 0.48698245762914044, 0.0265086424814699, -1.1847418976704926, -1.0117416462324744, -0.8177577363509961, 2.25974959523431, 1.1905312113648188, -2.0748417389078075, 0.5650520795056262, -0.5033157743038222, 0.6019199004091402, -0.6038112189204725, 0.5795901406353249, 0.823285621513073, 1.748398150651987, 1.2142954414863363, 2.0538502803344665, 0.40657486904775814, 1.356954198724389, 0.8625363601956318, -0.57503721331218, 0.5013328776561207, -0.08235851708997259, 0.33291501514858846, 0.030367260164144472, -0.7887279007938631, 1.7665160428932962, 1.7002762065730128, -1.1700187455267475, 0.1777787699630446, -0.02561697159694331, 1.8229488888000132, 0.732360500051009, 1.596121981449578, 0.6620956716596521, -0.39041352608290175, -0.023679702524299268, 0.05936745359123962, 2.006318190668402, -0.23280978866045693, -0.22094568816179486, 0.06828518003233694, 0.578531405256369, -0.6897000396511801, -0.21066739552631292, 1.7842330916417284, 3.0047128895364676, -1.6651694696189423, -1.2363209058097666, -1.518342153641102, -1.88932957438204, 0.07245789076554937, 2.1294154398237315, -1.425856198853653, 0.8053908943175394, -2.8028787868020806, 0.9002773352518723, -0.11516732769583561, 1.4239383320160366, 3.2281761583819475, -0.4826179660133884, 0.4821794875170931, -0.9725402699565988, 0.47523772347915766, 0.962736320178477, -0.8799554682237563, -1.7077707845276613, -0.005540552943040985, -0.1767501914300624, 0.15810789437902195, 0.1564961567360233, 1.0488480102504887, 0.3950274948341582, 2.6900372819900245, 0.027921960313484435, 0.3811413736243078, 0.08298431362062388, 0.8774792611949396, 0.42817843824103824, 1.4475132684614345, 0.10239676350956795, 1.4923202673818563, 1.4901169291004528, 0.20329869242972962, 0.7969373391671273, 0.31877719928092857, -0.493716038344296, 0.41783062612668104, -1.8034478192438117, -0.5035370346574592, -1.199564718226023, 0.281032473625618, 0.21627651112582116, 1.135160665922486, 0.19820811212327405, -0.33708182513914436, 0.41434548830844453, 2.053175565612664, 1.3285614759405626, 0.9930058220470955, 0.5990784167063056, 0.9204767039117643, 0.3021331145831264, 0.8221813544737492, -1.3466977747577924, 1.4319551122057967, 0.06402282321922499, -0.8898771355945134, 2.273213064673094, -0.3564506961497131, -2.1932410127964137, 1.3542087664369649, 0.2066571529693055, -0.3911134621316927, 0.6080411784138965, 0.43330389502804634, -1.34939075172512, -0.46544236225481067, 1.616452885741652, -0.33109660014331765, 0.1408640826497084, -0.003417323363753002, -0.4332267801371167, -2.7395790730467864, -0.3537624788777145, -0.8389833224835443, 2.0809596123507017, 0.36140215543393656, -0.06622632301220155, 0.4192428402001511, 1.1668430005327455, -1.627717118069566, 0.5168764440321223, 0.8312739296004068, -0.8677862104843894, -1.5586352267809496, -0.048348135551600814, -1.6284477827635684, 0.1994794358450843, 0.165440371847209, -0.12588560474381819, 0.15489415220565364, -0.5965351470621835, -0.6288208068785321, -0.8170293072339887, -0.5470255350294511, 1.07285000174124, 1.4732327453452874, 0.09188413310406934, -0.9949429138460504, 0.2776973037674651, 0.6989388173895656, 0.3143335093058947, 0.06870883371415835, 0.9029963881767763, -1.770311849623509, -0.790727651987062, -0.612004261847222, 0.3773215732739262, -0.6262354689208375, 0.9862371257224679, 1.1535943008829774, 0.08672468386889373, -0.35899909064792684, -0.6108312798309115, -0.3346278778845148, -0.2110473858650601, -0.8288956192124539, 1.0297341464090717, -0.893756705873658, 0.9138235943960146, 0.8420048558603047, -1.4693586554650269, -2.241091310313023, 2.395096507447136, -1.7278299580603738, -0.8415360048512183, -2.5346226106412773, 1.3157104579011718, 0.6367464055251378, -0.3018115818754675, -0.8929213004382505, 1.160085309909309, -0.8822921111622988, -0.19427729302711697, -0.5752640945615742, -0.5837064535938585, -1.1778659749233285, 1.2729967908463202, -0.363961121207915, 0.7874062498705566, -1.9757853801727099, 1.910075063682052, -2.469471714096788, 0.1239052383777385, -1.9784794662851308, 1.6745632581793055, -2.8592360960532264, 0.4693182861953848, -0.3031557575363053, -0.318681618754479, 1.0553586261592542, 0.9863731699546118, 0.06988739538551393, 0.5961085858323932, -1.07485389270898, -0.7929020567601437, 0.5425762449517239, -0.30441116839076654, 0.9529864453331164, -0.9965807631718605, -0.6061511118240027, 0.6426109584697707, 0.24977025101079023, 2.8095605834063666, -3.997630428800589, 2.1142663088797877, -2.324722948339573, -0.021972598086215916, -0.78802662857829, -0.5609494057457435, 1.3469086013204083, 1.2363420559303537, -0.6204384084697623, -1.5911651495495807, 0.3763652597102158, -1.694415173695567, 2.0124712058580596, -0.08903908822008949, -1.0283091352887663, 0.19188974901166816, -0.8029989605430023, 1.2617363340918486, -2.3680232218421797, 0.28711082414046035, 0.9542870485350355, 0.7599626863464258, 0.2087330699195889, -0.5050262488113659, 0.7926425389276893, -1.9365772026128816, 0.5444228660828434, 0.8704860303942634, 0.8339134549009737, 0.3333588794819174, -0.9688235864866758, -0.1570816817529422, -0.19515643728523605, -0.17899675001590953, -0.3206747202825311, 0.37871925242460724, 3.0186922359177646, 1.113894074512962, 0.7302315267532131, -0.12499653155319246, 1.9045120107055755, 0.4974990818594387, 1.778534126453166, -0.009707639655253874, -0.7463887409082085, -0.170778370459579, 0.2101491873592694, 0.6623175268898712, -0.7202859430232115, -2.1756744832966977, -0.7003430752744401, 1.5221701741126756, 0.32713009326071274, 0.31525854968893835, -0.7168992575208033, 0.858135508903624, 0.36280238005090215, -0.9693288858585563, 0.11526601867432956, 2.295207095432785, -1.7441388396011235, 0.30145442030104574, 0.34435065454194064, 0.38171172526755087, -2.187230885988302, 0.7914099321281259, -0.7748611000973352, 0.014634827979380089, -0.2809161262329343, 1.2178062444232427, -1.3279818614364496, 0.3388376215581287, 0.2026087165921916, -0.29782015556535, -0.7668569831118447, 0.07502529685312234, 0.29088329814977026, -0.2352695790818721, -0.31881351101086874, 0.5065277077152694, 0.7322629851401325, 1.4395970096577932, -0.04908218647504152, -0.034058747101441245, -1.5196080768230749, 0.3313916151034379, -1.2032069412254935, 0.6504242041293575, 1.1634705972202795, -0.6220877967438994, 0.7722728885492987, -1.573908975308611, 1.8572867775183157, -0.9305223948419734, -0.06253715363870455, 0.5530893706520064, -1.299493745201263, -1.961523489811811, 1.5805912009763967, 1.822906536926811, -1.4102023415107998, 0.06715151354352897, 0.5452696321592555, -0.5961590069633277, -0.48960819704898456, 1.249210192668579, -1.8952135097899288, 1.2002641192104735, -0.5951992305374639, -0.2562849927520633, 0.3773999857327532, 0.5225230275303655, -1.482759937138264, 2.0968810433135623, -0.6416504029968872, 1.8999757209055392, -1.7288611834966503, 0.9462979803293841, -1.964803213287516, -0.004122596684706326, -0.798607518743351, 1.3929140359431256, -0.17668842129539078, -0.09375377825087064, -1.4433310871631058, 0.004911102386968419, -0.4975661263630834, 1.827237584848368, 0.2500327419109177, 0.8431602639747917, -1.2870054232274546, 1.0942859699103025, -0.6582279593953713, -0.8895219301701937, -1.475807971003678, 0.3722565985217163, -0.9642661495471042, -2.5876936464883324, -0.0588833779691092, 0.8251182432975913, 0.5328181526631738, 0.7053082342798077, -0.2786093416477767, -0.42394991391417164, 0.09981984364621783, -0.6656451471300877, -1.2309351225623903, 0.36663820479034076, 0.12890147670410682, -0.1576811712331877, -0.2101155809625158, -0.9286833644404121, -0.8663796241819, 1.536283423021313, -0.8058990152077513, -0.5313483951467886, 1.0222741360991283, 0.8490647324459252, 0.33606675686307497, 0.3156349666437421, -1.5489977258435363, 1.072262121535834, -0.6420320054139542, 0.013847646925279091, -0.6831508250369285, -1.1627673245244876, -0.3399267008076952, -0.48862866522226006, 0.5810060891046782, -0.286735004447015, -1.4191268885876607], [-1.0057422493356172, -1.7790116080596408, 0.3012962165579717, 0.19684658968224428, -0.49853192843368926, 0.4302078329200005, 0.06486902713639169, 2.9385986764584997, 0.8590589166117931, 1.1318477153135498, 0.28514359284316176, -0.24817344385131743, 1.2333938568629872, -1.1396949310153643, -1.093152143624098, 0.13301838978777344, -0.17507353009248727, -1.5156102904201079, -0.6803344802437903, -0.06715761630886513, -0.9721078411502868, 0.928712897070905, 1.7299703703588822, 0.04285053657828115, 0.6155807542903672, -1.8649137829767104, -1.19856358836423, 0.7391384742502757, 3.53234393756469, 0.057182970604457345, 1.144511907162551, 0.10640804823168673, 0.4097530722570978, 0.7923349625450106, -1.2647753141355833, 2.1835194407180705, 1.3461434595001058, 0.6687779641344831, -1.3858188733347865, -0.8966145809804524, 0.32564021082877065, 0.669143951342517, -0.6494955687173201, 1.6048098889314562, 0.6813438874511275, 0.03539582461379051, 1.328034764903183, 1.2456597422146216, -1.873737564043351, 4.079580401560264, 1.480489899405838, 2.7640379123871757, -0.8802098140756863, 0.2469939534142423, 0.5284800228127912, 0.74075672336652, -1.0155738617478787, -0.790919348514271, -0.3377370351807345, -1.020993544039115, 1.005289523636966, 0.03484757749812325, -0.04455129825749316, -0.6495692208576919, -0.07228258052783801, 2.159575677177669, -0.032598198184216796, 1.3347145013715593, -0.16314539362745323, 1.0932560641665248, 1.5213030730352037, -0.1135057305343012, -0.5586531295112511, 0.42573820000854723, -0.6845204249610354, 0.28042842538198093, 2.2447142771931907, -0.3491542892609775, -0.5074017081949279, -0.7111073175812344, -3.83672351019697, 1.5209099691812222, -1.5300719827782296, -0.4789495055876844, 0.8014381458443287, -1.660109890450806, 0.9759648610391579, 1.505336498592448, 1.0252579212829651, 1.5661809696148195, 0.19609495249384573, 1.5750980321004022, 0.15630901381063303, -0.8054890462792581, -2.005635865379032, 1.4039162932667109, 0.418950895585913, -0.2407762631387521, 0.36869947220042404, -2.0072307600283765, 1.175717989766782, 0.38636491129965256, 2.448383953239676, 1.0911014445332903, 0.1876008124607239, 1.667450796814525, -1.1926899918004137, -0.44513213919841504, 1.3577834646338982, 0.9562054151234513, 0.771664567926367, -0.32785973133421215, 0.031537159607671325, -0.2892900351669435, 0.8764048343507903, 0.9669058287347759, 0.5476984692046104, 0.055944654238134696, -0.4827832081106615, 0.7030869951656292, 0.285365639350623, 1.7712006988847413, -0.1237605230896519, -0.252992817572583, 0.7157503568087814, 0.24534346848044009, 1.0218439902804641, -0.344656405170037, 3.1536279819908013, 0.5703404367530202, 1.0302894834073886, 1.2123558765349363, 0.16134807764738127, 0.122222972944978, 0.43434315513026184, 1.3546930605597465, 0.9451686392789668, 1.3530535951372467, 1.193084337701759, 0.745706664329003, 0.9195094874772436, -1.1402194595550885, 0.8004506402688398, -0.23847270576493085, -2.6756096547883192, 0.9289876362601475, -0.07601633612330652, -2.3009393257550905, -1.6546062677821702, 1.0478549484892123, -0.7330099884579435, 0.16369064792664292, -1.1102960549982528, 0.8356323949950035, -0.9818660634764002, 1.2391114255995122, -0.02683904976305745, 1.2660159543601293, 0.6186198560191875, -1.123168580980498, -0.4749728442859454, 1.3562430060337558, 0.45460311353674954, 1.6284842793794752, 0.8892094193995264, -0.6461057481486748, -1.2245998233965019, 0.9858884257409751, -0.07979817496914524, -0.21502883658088467, 1.6337909767781116, 0.4874626117462323, 0.043941511515481, -0.11623969120415742, 0.4685409805900431, 1.1245734986970368, 1.0478617931536316, -1.0908468724397795, 2.050724468033927, 0.960617680844003, -1.1833911445604886, -1.419624950741238, 0.21033097474359436, 1.3033769780859665, -0.6420506496139482, 1.9609368149258304, -1.692674138830364, 2.937896301119726, -0.7055383316073536, 0.7592565380813611, 1.7544018093678462, 0.9651962933013569, -1.1624727299177593, -1.4679461698808582, 1.419142257096817, -1.3208956247790145, 2.3146816337116696, -0.07881440771684517, 0.710444221528523, 0.7338345549005404, -1.7483595285383875, -0.9031435906492945, -1.4268952867317741, 1.987988311007687, -0.4987251342096517, 0.3315188150433355, 2.7815846456937683, 0.08029398164789893, -0.3626122680210092, 0.7372039755114406, -0.8615842048226404, 0.8033091699846688, -0.22207017067876564, 0.3676321479324853, -1.6688349660681245, -0.5125777667912442, 0.7622181540586622, 0.3086908661084449, 0.8105285272841392, -0.5000393286451036, 0.47513069182828727, 0.9762663725728581, 0.8690534602443435, 0.5152752841524496, 1.899024999937829, 0.5217852996744878, 0.2032347543429348, -0.04400313647673101, -1.5812962704241136, -0.7675719909269995, 0.5407195683593122, -0.9615169235511836, -0.8103673454286178, -0.9806012952421544, 0.0984785435139957, -0.446338066677154, -1.206307962474209, 2.3830134140898727, 1.1057495851657493, -0.7999112866514373, 2.4117322604719105, 1.415718155152004, -0.7271397581294948, -0.4702616435359235, 1.7973242931523132, 3.0428562773120698, 0.03775627571191105, 1.0301706833710387, 2.1553233769710145, -2.3329372349739463, -0.7805076545610395, -0.5551536004600395, 0.2125779333039267, 1.7314939403877745, -0.03696947977165386, -0.9672860377690321, -0.43335543170465723, -0.2819842060882778, 2.166851183309112, 2.2774040972227976, -0.9844258355097351, -0.3782011575648907, -1.3341160848545657, -2.1105597406560226, 0.011472429594151606, 0.33294966371077617, -1.4801183926428465, 0.5473157265391446, -0.2876161239279417, 0.5423018530174702, -1.5447158475301117, 0.8269334300478124, 0.15346137836484827, 1.2279751534077252, 1.371353655825446, 0.012695293526131942, 0.8357040567395684, -0.095279149073631, 1.8742022309306243, 0.6889197925138165, -0.9180064678742433, -0.03136644418619894, -1.2065908349090848, 0.3726150640631122, 0.31409067838189786, 0.1358107859992597, 0.8279838246337771, -0.8283296662632462, -0.14180161507656902, 0.446297098132489, 0.6905520874132972, 0.9721210960365629, 2.394338146080882, 0.30997410214698606, 1.1458384572121758, 2.288336198854097, 0.311756501584058, 0.9996524973103078, -0.6275862547196698, 1.414116230218092, 1.612751998223216, -1.302056933346679, 0.06432798373718002, -1.5092770695863156, -0.5910575184171648, -1.7947825336934364, 1.196356504200801, 0.06561730645581311, 0.9057337217026736, -0.015494683569636692, 1.062755352984183, 0.8534375957025253, -1.8194631523727534, 0.9024507670803837, 0.38340079948166617, 1.1900012520863772, -0.4318458397008631, 0.5749474030916991, -0.27292966981317346, -0.15890395897206736, -3.8639018099006983, 0.3021847413276691, -3.2180349740732677, 0.6736077608646772, -0.9071386563736199, 1.4509946161100704, 0.068774819337109, 0.667857103904744, 0.021958904142380224, -1.4539030194606348, -0.5921553032022059, 0.7207604342204798, 0.266813124045443, 0.8036883317918311, 2.0791919083323203, -1.5157482091092056, -0.23125854428594464, -0.7399215599953987, -0.4470274861766864, 0.39218928305493334, 1.159070244879554, 0.2993048231291808, 1.0268324067990777, 0.10547449963901986, 0.031056630708490063, 0.732739047082595, 0.004027631185025197, 1.0018221438815218, -0.8246487197370287, 0.17224058731557698, -1.691365090102355, -0.22703184691016792, 0.27819544505774085, 1.8303054824234177, -0.9632543066415458, -0.4952187181890942, 0.07665223048125633, 0.1754757263899152, 0.027017099855209784, -1.569667216073584, -0.6392746403296015, 0.18894034254820877, -1.6952580969120141, 0.3338970969079308, -0.7723586253746118, 1.006883610051165, -1.0604489113009974, 1.0850760808493845, 1.456617568604067, -0.8928142008146372, -0.4537657353208247, -0.39019142489106884, -2.08526218233592, 3.6687130734696427, -1.0086917547535104, 1.1314979874865685, -1.5954743066340835, 0.5629341561113624, 0.7201024289704877, 1.0685564824031597, -1.224510449730888, -0.17719282508616385, -0.7729614142588604, -0.3731026241078012, -2.212316078480905, -1.185434179525527, -1.0970157622786982, 2.5637718747924474, -0.9969780882579273, 0.4273978326174711, 0.2872673908737377, -1.1740235463260746, 0.8030184795480892, 0.20606971197204438, 0.7514705468323916, 0.5129361096836301, -1.1160873572549128, 0.17649330447617825, 0.6947790029608013, -0.6223810970785981], [-0.7827364912942518, -1.0500136156568742, 0.24448518791348825, 1.0338204938082627, -1.0757456650550072, 1.2175323145466055, -2.8751974167002743, -0.3591523155277293, 0.365257412791585, -1.880902042376085, -0.2879209182519846, -1.2820037269138993, -1.017419872167663, -1.4698434800896085, -0.4542715350743685, 1.9918985056020102, 0.7633550350746104, -0.17015602475718075, -1.9253236169718366, -0.8484582714598742, -0.2713372889307386, 0.9883342221800294, 0.9160732474079599, -0.8376465408033587, -1.3403088663602134, 0.27024478611878405, -1.3097883381193784, -1.8777449957174777, 1.09097773953897, -0.5375444674464743, 0.04688069190557408, -0.35034823112299995, 0.458309427650271, 0.4185820977564763, -0.04360283739654243, -0.5104623963113248, -0.7869181043694007, -1.2175093052504733, 1.0018814735001067, -0.8090076672005001, -0.8876591507294191, -2.0759617709909555, 0.23218139118226058, 0.18316144243048843, -0.34113524376330345, 0.23175084420879583, 0.29981288704186076, 0.21537428223234428, -1.4475990107261332, 0.5786724492222703, 0.1307530863695538, -1.1184744174217247, -1.839292607436535, 0.41201274539083993, 1.130297433972306, -2.435687595362357, 0.15809195282445182, -1.6520361182571892, 0.7466580798092626, -1.2867531800145153, 0.27111068248632353, -1.5760001841380844, -0.7617798558298348, 0.18603430106110044, -2.400509857474599, -2.1216451637778126, -1.4295988582755577, -0.999485172226416, -0.9024442931384556, -0.4699601119784422, -0.032073889239862874, -2.5492090352979213, 0.2943716974218898, -1.3299583523493097, -0.20485686864210256, -1.3812016220732077, -0.36200216947965397, -0.9112199707005355, 0.16045435692603033, 0.008053349729277242, -0.8017040799638505, -1.0376232715114513, 0.010720732776178186, 1.6710750518609028, 1.3883213206596272, -0.4328911495206642, -1.4729382858361018, -0.9612255214333064, 0.021748365640272917, 0.0023831181716038046, 0.08495173631615292, -0.18397586876519, -0.527648151049802, -0.7489183269791126, -0.2889833896397895, 0.48214390034716686, -2.699131315966252, -1.084436130113889, 0.527626348323896, -0.5450416124278308, 1.2078239951914285, 0.9517641871921927, -0.32848811520273424, -0.3971675854886676, -0.6029545065116674, -0.8910974956421022, -0.0011995342235468112, -0.9077806374448742, 0.6826826747217802, -1.2048289045541725, -1.3012705531972393, 0.8053280007522142, -0.695925395079831, -0.30152491398481135, -0.5772906434346443, -0.5194812370453544, -0.2846510913389336, -0.44870337029699314, -0.06747610529826899, 0.7855643640077231, 1.2578358488972958, 0.6256338759807419, -0.2584275974005694, 1.1525797787792915, 0.21903332899215924, -0.7378150492569463, -0.37929777307829027, 0.591893775614123, 0.73056261472748, 1.4018560157428794, -0.18335288322126644, -0.0622871553592279, -0.6488634458142066, 1.6542198850527359, -0.3379457253368205, 0.5440075056589401, -1.31742384510643, 0.9322752523260184, -0.6875673890358465, 0.46514782257998766, -0.7446055650830393, 0.426146610450441, -0.47615147628193744, -0.7806308381487913, 0.12705644318454648, 0.6172713905209692, -2.402639855381852, -0.8227147446913431, -0.9554136109855761, -1.1961401053444416, -1.0473060510843173, -0.15317353292083105, 0.9563973214648862, 2.7110950346881175, -0.9626104501613574, 3.4447903001117797, 0.765166187049985, -0.7923879155785114, 0.18169346332050076, -1.2875410991994884, -0.688177652135051, 1.0534054488204982, 0.6940370007548868, -0.17056043217580596, 1.7319157234686249, -0.21610861624603292, 1.163318261150153, 0.30179584025757766, -0.28157636500089905, 0.7700068708342764, 1.002762817174714, -1.5568305693441864, 1.9768058382869655, -0.2939638257326608, -0.4490788985135265, -0.020733369219001787, -1.2235065216157088, 1.483253655572688, -1.5305682178720283, 1.2996564613313804, 1.0837505450862992, -0.7639495155806028, 1.317918099027609, -0.015333404618472988, 0.1358632460988157, 0.5065777305510965, -0.3611772926078528, 1.7520095904821624, -1.8487520460337779, 0.6808784998332231, -0.043595870862885286, 1.6460599027456866, 0.01745301224241174, -1.1876504915895212, 0.6810788092205413, -0.985183420235074, 0.4623311490832213, -0.8334621640283295, 0.6576391181841201, -2.02055535908978, -2.3635221994385844, -1.327150039556529, -0.02904945608079651, -1.0286135775398022, -0.5131793443099395, -0.45186881546217206, 0.9339582819722902, -1.6566347813870679, 0.8446158451413142, -0.12760872170606746, 1.1099016685939338, 1.4272830939545345, -0.8679004588647612, -0.32865319980312574, -1.699060886758186, -1.5548691689157395, -0.47693380737591456, -0.9088054071407267, 0.9853083800527263, 0.20309817936945246, -1.097290453420186, 1.8213201119130775, 0.009904464729439455, -1.2880190489197352, -0.0723695134398131, -1.9799093036348385, -0.3060798067652298, -0.386494340821371, -2.018976730746028, 1.263973620024417, 0.3836173250916843, 1.2491661944546077, 0.8469470315165956, -1.5690587036412398, -1.5055264086658404, -1.2078213087275846, -1.0847154243203787, 2.026183521311418, -1.7816220955676654, -1.3384870075934199, 0.5003844753459237, 0.4340013723707884, -1.1279856590354107, 0.6287011554113192, 0.4421983126848111, -1.490688057339121, -0.14597805330386007, -0.04733341447194197, -0.756620092411081, 0.19201794821856719, 1.5106995305459945, -2.0479620295832857, -2.587571857045976, 1.4740592459898738, -0.9216860398837408, -1.497625503576015, 0.697244188117987, 0.8230540004630827, -1.3691661562750947, -0.8800036750416619, -1.2353217689999287, 1.1918269647986113, -1.3957529275107017, 0.025745363950577096, -1.2768958841835114, 1.178355093952517, 0.028899708128208006, 1.6099237205886372, -0.04621390901708412, -0.6634586414831197, -1.155066527875313, -0.4351375292924236, -1.0235559222269044, -3.106931230043353, 0.47908195000004083, 1.4987897699801689, 0.9162478025637181, -3.479513585893112, -1.4691232689756266, -0.3113239347911437, -0.19793449172542074, 0.9976900442596537, 1.8140358711900004, -1.1588668827667723, 1.7023254223306252, -0.3255890195530898, -0.7035793551586593, -0.8444564509106752, 0.9275640993085108, -0.19290365324855993, -3.2073472807260495, 0.8801623585806582, -2.2312900675949616, -1.0111390022198092, -0.7771357873305466, 0.05340593577933277, 0.9930617934077736, -0.24873794406501162, 0.39708547141679823, 1.2750809652212534, 1.5240672104315003, -0.4187577915496816, -0.8038903140434372, 0.42788286841261397, -1.0166071184953405, -0.40122512238597435, 0.7108412161341104, -0.5337257103816566, -0.1887710342915326, -1.6000165435395335, -0.09223854551475562, 0.2539103342499544, -1.763509310166132, 0.44445684292172233, -0.24465078717436445, -0.3660249886562934, -1.2032622967510869, -0.12459097888983708, -1.7018917648717682, -0.9569286236207656, 1.2626201982523804, 1.6125738307867945, -0.3314516153846869, -0.30109994705152676, -0.21279787723275367, -0.41672721100303534, -0.5970723899065461, 2.703510680091087, -0.6722467462447603, -1.078129477855125, -0.8178019252215397, 0.3313617590146047, -0.3301135547836385, 0.07664292107463246, 0.030095115434587247, -0.5438698977799522, -0.4941231831407063, -0.27480837671830305, 0.293582486492659, 0.7154473303389444, 2.2774688171913033, -2.3400915820142942, 1.5204706736248212, 0.590423785431115, -0.33027034394315746, 0.8231862845130969, 0.4096017091521223, 0.22671908844847324, -0.3228249065862714, -0.8968266021060054, 1.4512979400510762, -1.4817903529053462, 2.8329715175746095, 0.22504317062555715, -0.38949544220054216, -0.3740503532139254, 0.795668685701899, 0.01992684895203832, 0.6575072150356643, -0.9969266888999971, -0.24310015241673924, 1.936163617833609, 1.6164318121615437, 0.09296777588030845, 1.4244713909351028, -2.145326574443631, -1.1916472503214777, 0.7111683728503929, -0.7975493431145666, -0.1508269896327112, -1.3033055564181197, -1.8588854427436807, 0.6387562403627762, 0.03164907284080037, 0.5607029185598335, -0.7406739372508871, -1.7684412948199286, 0.5100354409145518, -2.5630173437185944, 1.026057508065259, -0.4979505905708963, -0.42387696775649586, 0.6000505140633586, 0.8202084462864448, 0.16163969243530868, 0.23976040673957572, -0.6783384332299551, 0.29592467438500275, -0.4132260776767959, -1.5137328388526108, 0.6539763877114181, -0.640225385451462, 0.6509894775010026, 0.3315615264966922, 0.3050973758104212, -0.38805745014672155, -0.6611135945040351, 0.2727049559989177, -0.8549905183649495, 0.7369621915643076], [-0.09190655661967725, -0.5639078163992183, -1.0771358804723685, 0.3440140854495242, -0.43660573536194885, 0.5941176056547542, 0.7567839802903125, 0.6459645784120628, 1.0945095927021535, 0.2232767788677886, 0.7039130015877538, 1.0583073559182312, 1.6844643639639394, -0.12728240012365766, 1.666566300893642, 2.242587731157834, -1.5572915360834014, 0.21345591371894873, 1.1841758613330682, -2.010298933795643, -1.1062564567332531, 0.09071344606097918, 1.6403767945399241, 0.22585158619613668, 1.0381787796360986, -0.1874835020343854, -0.09811357086814729, 0.6994603197948588, 3.073538984758253, 0.8771203115020978, 0.5798230075079558, -1.4346931349674394, 1.5282608023550417, -0.7601914598159009, -1.7940342985802347, 1.038870251854199, -0.38639048578524016, -1.9206011236854121, 0.4308810904016476, -1.22302868881499, 0.15428415137280818, -2.3187074417992117, -0.26514406768094856, 0.6861469279593535, 1.3010281843700073, -0.7797252753581044, -0.08657337358003149, 1.1070383655481515, 1.153094078575784, 1.6371422740374122, -0.979650657424012, 1.470423230745435, -0.1361616235789976, 1.404589214496061, 0.19127492954940475, -0.066881318815272, 0.06752789517017818, -2.564051326020394, -0.007967081909850056, -0.18227561783178606, 0.3478169050278013, 0.9986498070010941, 1.3923139340541757, -0.024922442018681424, -0.08179109207740555, 1.5517156664764544, 1.8034136438686181, 0.0429771535402626, 1.1932586401506868, -0.28964721079619, -0.827550859752679, -0.8819212936496299, -0.8423087654406968, -2.5902116649687903, 0.7375369577512274, 1.122190692715254, -0.866783987874848, 1.1915398464385185, -0.009373274394178585, -1.0786721392268763, 1.9775195939917773, -0.787141667319798, 0.4901829597790473, 0.8276625041215837, 1.6099749310486704, 0.21712715090879806, -0.8092879554515618, -1.0162263450212974, -1.356144690417293, 1.320239255390953, 0.941954117092183, 0.11112310326586927, 1.399250802217748, 0.6304017191272799, -0.48500138764947937, -0.16167722118760922, 1.9698212978677592, -0.0001688698538010216, 2.0589132853110774, -1.018928803745743, -0.5802856135673037, 0.9550677030225523, 1.2387416610059525, -0.38450221493247894, -0.05473135805295063, -0.1851174222771816, 0.0023689295348367167, -0.4493885241896056, -0.7884828393972105, -0.41262582852565927, -0.294894590252144, -0.6775161397207504, 1.9390317903798402, 0.3761990526260291, 0.07812569870666806, -0.34184099006686935, 1.6862295185209009, 0.5719624450517842, 0.6731090374377954, 1.7567296253493625, -2.813956489026782, -0.8414721992664408, -1.6170805395388992, 1.4286830225642515, 0.37163677030594816, 0.13446808061082416, 0.4352617890650218, 1.1091299526759788, 0.010180104492759981, 1.7889272544717956, -0.3176249307462791, -0.076785597374612, 0.932929108034904, -0.6977272274150643, 2.088145071850631, 1.6505775138030656, 0.2749539922151871, -1.5541253619457929, 1.592717936027485, 1.2170408995975912, -0.18107568603237326, 0.03323170514521367, 1.6025716443905351, 0.3026764512412631, 0.1741466671136844, 0.1470072672946028, -0.43847771572613914, -0.9909960895800312, -1.3807086964159436, -0.08351065105974025, -0.775015949809021, -0.8781519633025776, -0.05984292350091746, 0.9390977004376738, 1.4148446085612645, 0.33350990279393894, -0.9542343629326111, 2.4979710979213468, 0.46719842835971664, -0.10796644681884919, 1.0861096622054716, -0.514999022131466, -1.2147895121621477, 3.041589877583068, 0.4763480624521435, 0.3491858586106931, -1.1708849473972718, 0.3201436049409261, 1.6361089332327827, 0.6616260544258724, 0.12672055482291067, 0.6453383675118918, 3.2616746277161894, -2.040941572467294, 0.5142503779971236, -1.8861169037057541, -0.6953540404325053, -1.711233339797147, 0.9674226268883874, 0.9860840695531758, -1.1339878553228069, 1.7931829093118152, -1.6285726444049196, 0.2245630308238254, 0.8288389832453542, -0.21301442005179674, -0.8679363071867183, 0.3403256398122469, 0.23507239908427985, -1.0970269336180734, -0.9242859060975166, -2.9854449376254046, 0.21064304372701118, -1.0425513832619087, -1.2770001364201367, -0.37236947081109184, -0.8201181631294613, 2.0500884146473886, 1.9375274679344747, 1.9207312196342456, 0.8614032818258243, -1.1481302947931917, -0.19191674610711404, -0.8653512409309582, 1.3264676655078282, 0.18679060820059798, 0.3723446106721552, 0.14493111369109077, -2.1451175555264634, -0.242750052676055, -1.2909689911769868, 0.16072157015267832, 0.18227616476417832, 0.36102978279888426, 1.0160822343031553, 0.6993944534969834, -0.26683259134652837, -1.0186833238923023, 0.1088293199889353, 0.3588457887559266, -2.0864668042357724, 2.504657059645382, -2.7466666003730267, 0.2687385428973012, -0.21052683586897283, 0.38710419733999485, -2.238011264548165, 2.211167586206472, -2.180885438829015, -1.511988629518778, -2.0854392362197207, -3.0466410197928897, 1.3631706296434, 1.0749277374363677, 0.8272054931403495, -0.42226390877188597, -0.35363163917847823, 1.2454163366910675, 1.9405714374453673, 1.02822684926737, 1.9878032631229554, 0.922497766192874, -0.43726805190437457, -0.8132751984705415, 1.6713544264645703, -0.15793635741792247, 1.272553395838095, 0.29437842914335904, -0.29631405276194683, -0.9764738336189619, 1.0915509847666103, 3.8404872958126077, -1.168538409822797, 2.260409219691848, 0.8963982568304327, 1.4658100249142942, -0.042652056756890065, 0.24994387930916176, 3.102240022420744, 1.1087414680966452, -1.7368692487379591, 2.3907353908227553, -0.9840756568285213, 0.9826810777210819, 0.7431279196823048, 0.4955789150300526, 0.11051221899554668, -0.9830229199354704, -0.2715477501956617, 1.6023298412531153, -0.7760583800436421, 0.16234389430689744, 0.6447990394086298, 1.1718631595022828, 1.1884811841400524, 0.2510168014575982, 1.3034772367253222, 1.8801706118813912, -0.1530871683802198, 0.3724552703378355, 0.05611631449878502, 0.34400828793442995, -1.2688285669607833, 0.4599865032797543, 1.008003129482621, 1.739810014682637, 0.8626611604498288, 0.054579612953011815, 1.5383060617285336, 2.050930391169232, 0.8623606217606118, 1.344628432238458, 0.2989439076962908, 1.2771322848803395, 0.7816612896453998, 0.3155069691516057, -0.7705217931518468, 1.1347548589846923, 0.3742008641556747, -0.9715275107240093, 0.10704437745439928, -2.3737480930707093, 1.6752431781351032, 0.03132463305639573, 0.05099269579913124, -0.06987497263858772, 1.4713575008243593, -1.0914847779851446, 2.190844844544206, -1.275124113706724, -0.7351055704202912, 1.2935932270454826, -0.9674728242188488, 0.6902778625589545, 0.3844738236099248, -1.5290380999904214, 0.1562629956774834, -0.3885827815858945, 0.16339818311644827, -0.13812691514819864, 0.14072035862388815, 0.6188242388770494, 0.36942602222190796, 0.21727203693562522, -1.870416274037553, 1.2957725802448143, 0.8434546383490837, 0.2588134577599551, 0.44988023862816995, 1.5165201646428892, -0.38490425806035006, 3.1785373923501843, -0.5636873321311995, 0.8919172282255883, 0.5787044776544263, -0.02791199777534245, -0.25781248727756184, 0.9380976707723695, 1.0402778366885512, 0.20177481234243883, -0.8184404366275415, 0.7887858181643889, -0.4643357925237643, 1.3628613545639154, -0.08822429443183585, -1.8148074835305623, 0.4625408202319494, 0.9857510053154412, -0.08669140132011087, -2.743526022190478, -0.5205607661467686, -0.6041984386711485, -1.342495996523309, -1.0918235475142974, 0.16466766465295915, 0.3281041226358663, 0.8712895853195428, 0.11340430141048315, -0.07364908443338065, 0.9921284085064505, 1.2921859653404941, 0.38151150700066205, 0.9397186557260854, 0.5723272992622652, -1.1414005632364057, 0.30254037204985185, 0.5160704370602504, -0.9085150044297293, 0.6734049179340816, -0.13102555060811785, 0.6777455152087083, 0.17890423468834615, 1.0168685932706307, 0.8289695650130174, 0.10646738196494449, -0.37222198107209675, 0.9828146587288983, 1.5150117175096893, 1.1988191881652437, 1.1010810621113098, -0.38493746157244546, 0.6509313121501306, -2.172641489198325, -0.7255944604644485, -2.144701527362932, 0.5954180581369841, 0.8473280295966863, -0.5865481427054801, 1.4116739335687147, -2.174041038952931, 1.073506642932464, 1.5963567120556565, -0.5962376755317494, 1.4982288471872693, 1.8216028471794428, 0.32607008177970287, 0.5423399488054113, -1.3399539511155312, 1.5876801689822926, -1.8448119344016207], [0.8601449180688231, -2.646589999402885, 2.068262224806972, -1.9475044863857645, -1.8325005276363442, 0.5258776174368225, 1.149074560839474, -0.12312394399501904, 0.7801767434257149, -1.885894887956234, 3.2240585978603447, 1.4070907231212293, 2.4637194844693386, -1.3281751501168384, -0.29072361524136847, -0.8068370010296809, -3.318799175557229, -2.703920289672, -2.3650396977652073, 0.44014632535146236, -1.7331048953284451, 2.470747051503397, 1.9088352083398075, 1.252797764545201, 2.6795422513551372, 0.9103179060821104, 2.9214873639513788, 1.4346638791900936, 1.0805665948790106, 1.356136470264394, 4.0768833771557444, 3.4849099246443727, 1.0495932097122131, 0.8729269501165396, -1.7267104818988415, 0.39082170364876234, 0.13719079513122903, -1.5922109107792104, -0.6659849347509909, 0.6404848317527186, -2.16350621539925, -1.3155130259210122, -2.6527744770259836, 0.4566986017960479, 0.9365070939061225, 1.7862163085613545, 0.7307300633837873, 1.4009154456847566, -2.3225985218908076, -0.8653762961958894, 0.3502727917630737, 3.6097091606136256, 2.347866775066809, 1.3500776031768544, -1.1703992521276025, -1.2138093945039885, -1.942589304816398, -2.068973322835072, 0.21371549847993238, -1.6083422843551276, -2.0330674823490713, -0.336206427171868, 1.1334152220549643, -0.7788440006256327, -0.7479414677882211, 2.342527323725508, 3.0857996459763504, 1.27438587769042, -0.716321797151712, 1.3949209319984992, 2.0120759600932128, -0.056623169529325466, 1.3993259613485107, 0.9653089024314756, -0.6701702325346646, 0.04891144202725748, -2.075395674835089, -0.46242386633918475, -0.31401282206185754, -1.3502958767421231, -0.2054949570247407, -1.6459330181122287, -1.5770208113628907, -0.10758949312152752, -1.3259729994218181, 1.4558199657891104, 1.3488106706542862, 0.2567525762815091, 0.17278909289937253, -0.4168098921711824, -0.47147467079907635, -0.20021723321724472, 2.0015146826545327, 0.575323297230545, -0.2900049616467459, 0.564830827430455, -1.7414805007399858, -0.9960463972571942, -0.10240293472703454, -1.679478970952857, -0.5799983939156799, -0.8575727130727254, 0.5759064033283445, 0.35603771317357713, -0.8737023939347761, -1.84067669200878, 1.6874128727933364, 1.0960419444097087, 1.9158524867323463, -3.3604187063021076, -1.2121778301017987, -0.5143098417638281, 1.8327931444068606, 0.9588247837596745, -0.49835704895045874, -0.28041854447588566, -0.46349231255750034, -0.20747476458160893, 0.3467027151172438, -0.9295921113363431, 0.6879570977927356, -1.5872515157819524, 0.42617685190648746, 0.6094091954237566, 0.9219024990797188, -0.8896704812960914, 1.1602113128348348, 1.7926968835514758, -0.9397629507218657, -3.404024149718657, -2.468822028255933, -1.7636342871426618, 0.7945099082885388, 1.0110994541433045, 2.2216338467163013, 0.9577629497927655, 0.09876255568872856, -0.8824888218699145, -0.16066684135963077, 1.1328198467984927, 2.1548532817563477, 1.4803460561107689, 3.409057995913021, 1.3574685965541775, 0.9842941370382373, -0.808806918963829, -0.017407814697504426, -2.8690131674682653, -1.2665843068284532, -1.1110373226116714, -2.247268980916316, -3.6316237083917122, -1.9666851488606643, 0.4991094706776718, -0.30347018999366304, -0.83388908185366, -0.509561597893307, 0.7242390723823161, 2.31325233378878, 0.08426096604920065, 1.7625418670746191, 1.0367768140429108, 0.28740330806872944, 0.1448041126403067, 0.039351600330152996, 0.6225149051252612, -1.143380219976854, -0.733601795755469, -3.308904256003019, -4.711520196557661, -8.558755442347914, -4.0302508909857435, -1.179708258613536, -0.19274678498530037, 0.20620744302342256, -0.7051311585480678, -1.6217508890717365, 0.25465990490626944, 0.4956340342711923, 0.533461515600891, 2.856223931169739, 1.2683738646600706, -1.16582324518202, 0.9602567092121754, -1.228585124719949, -1.0203916381821514, -1.9903876692276472, -3.700744784334079, -6.342014958413822, -6.350378099500331, -6.031675032690208, -5.633123688044737, 1.0722195824004088, -2.40255454559922, -0.5417615077473964, 0.998578146454049, 1.1090101639596828, 0.18833775391801955, 2.226386533974295, 3.2525615369454863, 0.8121855284650371, 1.867289522085382, 2.5860122335856053, -1.8487213917449292, -0.4419040166548535, -3.1974712743483464, -2.9141168778981523, -1.5566477622901584, -3.0938842759105354, -4.655788394367111, -4.102873220219074, -6.341911216699312, -2.7097546484497523, -1.218979963911508, 0.08813141299337651, 0.7038535483565718, 1.0739927731835381, -0.5557500265089298, 1.2672628246434448, 0.31505588874755586, 0.001974895010143381, 0.21090485144515814, -0.2896743401265285, -0.2922479792487573, -0.3599608058234532, 0.07615054384985386, 0.4334397445668485, -1.9738998885249526, -2.444258935089795, -4.55879520449839, -2.3646655811462716, -2.812263916616873, -1.309142756649551, -1.041427739630086, 1.9960111220042662, 0.021743992560584135, -0.06122750039022648, -0.9218256268988644, 0.1467092240882968, 2.252260132798111, -2.7333336107831827, 2.0522563966991076, 3.364869158319306, 0.604041146237775, 2.529957481470944, 1.9317574286314592, 1.9441795185566386, 0.1177226671283225, -0.7490790864423669, -0.07214201343248439, 1.001055593399593, -0.28831358108528926, 1.0653796358921441, -0.3508606717737805, -0.16803496177839014, -0.23917977624417305, 1.9188222194554705, -0.0001369669771977165, 1.3430398242397295, 1.848383654638131, -1.1230019911170006, 1.5151681198525775, 0.7975810500345957, 4.238002125774535, 1.6629699276195369, 3.8137023422926952, 1.034167456086124, 0.5881038969345215, 1.7723717323579211, -0.6621556569187559, -1.7481435811703796, 0.9705385793527869, 0.5261661784140143, -1.4278812423975342, -0.9019812153969262, 0.5655558356668791, 0.9993680244775581, -1.0039826597401467, -0.6007678394851548, -2.4788727810946916, -0.8608790225370644, -1.5012048676559935, 2.111787438211839, 0.6040308515541878, 1.3144757752889409, -0.36835340557578167, -0.26111213936342087, -1.6150780112535132, 0.3752704691328958, 1.6216891304625316, -1.109304488051271, 3.461527675592831, 1.6071987666990084, 0.8837311878748852, 0.4301408637085804, 0.5565790051135878, 0.10951728451023954, -0.528518482120621, 0.5206122463829469, -0.7857874822078229, -0.6342972959290067, 0.5574026722001251, 1.4130140322375146, 1.0713431852859228, -0.2182984322467678, 1.6687811077312178, 0.017843355276735987, 0.2590077043317328, 1.8614203805920457, 3.7286588876179643, -0.020271629044700527, 0.9470827606218012, -1.7821733004704003, -1.3246560412746928, -0.6836682216499247, 0.5551977344886686, -0.6331342559997033, 2.684938323278938, 1.4662434688723018, 1.926038406323342, -1.0652031295105227, 0.28881089186715375, 1.8430595251383177, 2.2927809041691263, 1.82500364151685, 0.9458780194578676, -0.6909577212639901, -0.15009917114864157, 2.807208620518315, 2.0573962469853866, 0.7260333632593304, 1.5233217473838194, 0.4689015492998885, -0.431074467714959, 0.7822230916651386, -0.3016633923603367, 1.9586840691080434, 2.7473991042715604, 1.4831063740517572, -1.5424572271537995, 2.2339586662114517, -1.3344039408150155, -1.9738472051057874, 2.4650138633627283, 1.3669809498182783, -0.27748487655897613, -1.1069170110490592, -1.296039580597363, 0.8361503616922032, -0.28028201658130497, 0.8369139171273601, -0.9993026997662627, 1.5956388786271172, -0.45462843547747395, 0.0668155285125976, 2.028992607965477, 2.241527217083746, 2.653631430932193, 1.9031056985153203, 0.43589539299463176, -2.2275117350439526, -0.650384675342036, -0.2616810164009012, 1.9871083399246097, 1.4279949306923672, -0.5373544468480084, -1.3615020743742665, 0.35733892425243896, 1.0140793969297475, 1.1100118021346688, 0.4125448619293704, -0.2527303157588653, 0.3358451252330586, 0.8060213536529417, -1.9856888935372818, 0.9111717719005449, 1.2072035374782029, 1.0001391217612794, 3.517085140407951, 0.07334468433555572, -0.05998292374302268, -3.871451866807388, -1.0309119105674012, -1.2541386784638844, -0.24936476276164188, 1.8598815065039542, 1.2604479271475875, 0.8167626175079326, 3.013284749476381, 0.1297421885134329, 0.44398583859332635, -0.6113639631323202, 0.4973684602936204, 1.6540625055509681, -1.347083519129271, 0.2177553663022887, -0.7472552236197523, 2.0473969418273787, 2.7802691563042026, -0.3472926359271825], [-2.6032550656500812, 0.04845469572399571, -0.05580270708457327, -1.1885471090473176, -0.44538055771485424, -2.8205312104529, -1.3053103644275141, -1.9302647750233437, -0.5855983295815966, -0.8212372989143629, -0.23755064566024328, 1.1480863443174814, -0.17653414557094982, 0.63331769238702, 0.932484755909001, 0.49800533963368976, -2.371437622221627, -2.5141369495946555, 0.555586590223747, -1.4050553960421748, 0.0687659452269169, 0.6557842946634406, 0.3858527208200328, -1.7261164176491401, -2.30644470057673, 0.06380615489585634, 1.0932122968859788, 1.1025468249081205, -1.557434980792837, -1.115517095764885, -0.006073503446515718, 0.6145809022907777, 1.2435032089218039, -0.8030897897244015, 0.21721885034963478, -0.6658508025925292, -2.889609815456285, 1.5366872225369357, -0.6468634308650276, 1.901948865205907, -3.167508934216963, 1.299907372186863, -0.9337291204178458, 0.9925079752328697, -0.8538141159403237, 1.2539561628812388, -2.226952013039251, 0.7402137126649729, -1.7056095073985469, 1.6142846501296884, -2.4565393063252765, 0.5430376106728672, -1.704753224916173, -1.1002518791606386, -0.6433101942602373, 0.588976741613944, -0.08783809081350745, -0.7379324808755972, -0.12171301393783371, -0.8914649253208131, -0.046439012105428674, -2.192610220515826, 1.8580828803520877, -2.320105062226978, 1.1846934547309136, -2.613324450529726, 3.182093232933016, -1.0887516084123423, 0.5573142241701311, -1.9029108671922823, 1.6054454721870712, -1.2965395876584267, 1.0988966031382152, -2.2845521962061457, -0.2056907110284398, 0.5172329171100293, 0.5961213607890354, -0.3904316442018185, 2.7097183307296655, -0.5784112887283127, -1.11776799702377, -0.2478376303474515, -2.706562371557672, -1.80840239405349, -3.017361007935106, -0.18219821191663968, -0.5525632268814017, -0.16443988913151802, 0.9639815240134152, -0.4053544453432643, 0.40217739163994426, 2.0069081865126708, 0.08011205873644905, -1.915663036921707, -1.4035551675309061, -0.4651496628380448, -1.4293556569692123, 1.7295766641429113, -1.1116822948346186, 0.5876328379562735, 0.2872579373639584, 0.11417132509234255, -1.2563042294795337, -0.06964462017103498, -0.9555414516302408, -0.6143295384406302, -0.18374832664599913, 0.3371662764183971, 0.7219866458743187, -1.5718800977189575, -0.3164393978438023, 1.6512128510912973, -0.7314005713642484, -0.138664770574386, -0.6950452959139474, -1.8545220083327199, 1.2964383700761464, 1.4145492948872291, -0.5289344204352947, -0.4082400686769893, -0.34357573516869305, -1.9289172979261848, 0.10742409792509014, -1.497305554159315, 0.26412329508960913, 0.16900888297428668, 0.8843074148219193, 0.18397180991700762, -0.36422113619712243, 1.7308792260906587, 0.9613767945288896, -0.3909167592562082, 0.9245654312761747, 1.5660428677265883, 1.1240065864503506, 0.092385603468848, 1.2657216968726246, 0.4183254594879207, -0.04568349467367991, -1.0409453750918787, -2.946505726449271, 1.1509301783089065, -2.32983790186915, 0.0515892335781538, -2.0725393842392097, -1.6405867542527497, 1.0119205618330536, -2.150380877996126, 3.219221928843315, 0.1865074074520387, -0.7060118841603976, 2.0420244389037774, 1.2583159252495175, 1.9668924447067724, -2.66211889679862, -0.2043646516605518, 0.34340973841242267, 1.4624434564133848, 1.425950213657543, 0.9362864257712362, 0.5050140312263649, -1.3255761446129504, -0.029305352048514845, 1.473680103412885, -1.2510561039140056, -0.7398762647201311, -0.7821253897530065, 0.5907366736370155, -0.7126083794128362, -1.2313308117346606, 0.007233031965464064, 0.6349992386321841, 0.0691978160829912, 0.9813553361351296, 0.5096681582533125, 1.13828906083785, 0.27518362142133385, 0.9118384697442982, 0.6655595961449229, -0.3187736256724335, -1.7992975937771643, 1.8873151691841143, -1.3103847305298382, 0.3356497707312737, -0.42421857120800577, 0.8468067545736174, -0.44487704129641154, 0.37984644567168124, 1.1089480801797875, 1.0381389085126358, -1.3514196031710817, -0.7731911422749073, 2.3127122939359723, -0.033998872351378134, -0.8978377617935003, -0.5807747809860986, 0.6145861917810664, 0.5404254900217593, -0.06939135417859864, 0.030897920738812902, -1.2336990424030487, -0.7627422655244225, 0.5049404359399986, -2.507224007221488, 0.3228788882166664, -0.6184079115823159, 0.8249537185958485, -1.66605787930821, -0.14768454058570926, 0.6227820152748362, -1.686165502956248, 0.48604190001294073, -1.4254392907639102, 0.05593923691553196, -0.037339006987061905, -0.1621000665986226, -0.706181346420628, 0.482724131294855, -0.20606680800052282, 0.9537166387576507, -0.6150279619532621, 1.8384517948558738, -0.4803367881132261, 1.1411163582067627, -2.593434202989942, -0.365180341431141, 0.5589702161267808, 0.7412239955789454, 1.982254435846972, -1.1076893065589986, 1.6132264290299896, -1.4080687365424358, 0.39485185805021583, 0.34479363727278345, 0.2024749199831296, 0.11298264831559895, 1.6562451516574606, 0.17866916286376638, 0.30553706072592957, 0.3420363990737319, -1.3695564628554622, 1.3753873716908334, -1.8047762738734505, -0.42422204918604833, 0.3027497352049184, 1.5099271913981238, 2.2304993850850465, 2.069944917434086, 0.428910002481965, 2.124261183764587, -2.1409326122194914, 0.1023952405943559, 0.12293007910359421, -1.5069939252549678, 1.413802200700284, 0.12627501069799665, 0.36454734819970297, 1.2691171418402647, -0.2862681052800675, 1.5555562315982185, -1.2320969453296573, -1.5259520699406777, 0.7643205372983213, 2.12251611291542, -2.130684775861055, -0.503856750165109, 0.6477967903053496, -0.3834052404294881, 1.625912399291607, -0.25011746140463764, 0.1748086970136241, 0.9398736295096568, 0.24618474034774385, 1.0525569603654983, -0.908005312229517, 1.8169074795663935, -0.6262390537900953, 0.4856686029339065, 0.16618936041465843, 1.573719697756172, -0.0006759534211597322, 1.157121087958046, -1.2221547334846226, 0.9662692332033561, 0.9559330086136917, 0.03740245680607094, 0.30882412069534654, 0.17284657860655614, 0.7259085732463596, -0.00660299237766223, -0.9999617037763662, -0.4834898569458666, -0.9037315253753717, -0.5094901994297748, -0.6309941243755864, -1.2322699308845197, -0.7806476060787166, 0.48329648724962615, 0.03377119417721707, 0.2764537245954844, 0.8556202637973316, 0.962699596643214, 1.5713519192453207, 2.5723914788647773, -1.447994913130425, -0.5758110554065143, 0.5128379211433609, -0.6494857063690063, 2.096595509050234, 0.3236346991468204, 0.11526744691595261, -0.21952520032955855, 0.6680672744855766, 0.950852867545474, 0.4827153668185971, 3.140885318945978, -0.8246259757763722, -1.16735799692771, -0.9863204419552933, -1.3181168850072418, 0.07460453806865841, -0.2194623026102008, -1.6547409489048035, -0.2005699102029636, -0.09007444596650221, 1.5755500881068072, -0.9099466234736973, 0.7266888550551677, -1.4971431431254436, -0.4639545209438797, -0.7844147250026969, 3.5963300690317355, -0.7236085541292089, -0.8742174012739571, -0.959301985787994, 0.21379304161708843, 0.1586962761871145, -0.618189316214874, 0.2400431454660037, -0.5991589375621107, -4.1074189129557706, 1.057827898377442, 0.6567329177246232, -2.238061971982408, 1.1582734463730955, -1.7798890674918393, 0.6581041689673786, 0.21273770208191936, 0.03759052998833756, -1.0470380234192909, -1.4998247400673312, 1.1815172829611185, -0.2075032569916692, -0.3525707378217531, 1.25971720298426, 0.5493816459174646, 0.8308894758756582, -0.7056329576814002, -1.333470488074604, 0.605371245174718, 0.4517245903595858, 2.4260554355151647, -1.4873298182760637, 0.22262860407961846, -1.8293539194799289, -1.5757492356768732, -0.48720860020271023, 0.22682213760325412, -0.3245288005649765, 0.93755176069018, -1.291738002965714, -0.1676157490081132, 1.3420837148440254, -0.6826514392080592, 0.3338825164471049, -0.7070605771410594, 0.5300178426565494, -0.12785978185592, 0.299626756037022, -0.19791778613156868, -3.2393022121133415, 1.105891201961019, -0.49226534095737895, -1.7446364742727936, 1.1357644580701562, 0.2510903999525124, 0.7803144275486819, -1.4358466745381218, 0.12524200957607728, 0.05074891854671398, 1.3398656351186116, -0.23134248916282552, 2.443928310867302, -1.0240575843464768, -0.1605841518344165, 0.3343853150603055, 0.6517736993990924, 0.8103151459557549, -0.6849492678357053, -0.7135655264889776], [-1.2159971622972952, 0.44432736751273066, 0.9995781487127282, 1.7691933688095904, -1.7370568692030348, -1.6932074591655328, 1.691775018495214, 0.8673421115745672, -1.0346205849098185, 1.7789827124141262, 0.20473604800289685, 0.7729452085698777, -1.996037007217854, -0.0037967604982358486, -0.31076119350324904, 1.4448460343236547, -1.2491035173000686, 0.8953897093710007, -0.1792770355812897, -0.027658667909453236, -0.2808751578043108, 1.979861266278263, 1.9808104311566166, 0.4377326952594522, 0.11333115485109174, -1.117922649175821, 0.29136868747698136, 0.8605034114753506, 0.26615177967202225, 0.3956383732647506, 1.160832027403312, -0.27891472091665026, -2.026905028158171, -0.4312664889123627, -0.16442343561331543, -0.6017648019205792, 1.1857047979404538, -0.46852583785719737, -0.693993129584748, -1.3744853838606423, 1.8420544700592372, -0.04298130078119226, 2.2019912892690536, -0.22387185744898902, 1.2555292294280886, -1.0269299845664188, -2.656271924869378, -0.052698672682630426, 0.9555776069247258, 3.228206939689931, -0.02983488571219543, -0.3805456613578587, -1.8005411688800421, -1.2466821391182552, 1.9437780200419814, 0.46486309757812916, 1.7818174972568226, -0.5796710382127199, 0.7897173793868604, 1.0769688084321143, -0.6354646512543496, 1.3724423854613308, -0.0054059740821473315, 2.0913331566813693, 0.5352437409154742, 0.009214715173070627, -0.5937364660896401, 0.8659387801051126, 0.38927968392699563, 0.7178321792926544, -0.7657820306274666, -1.3004580902072638, -2.041849194924377, -0.34831120848766556, 0.3523061468636614, 2.5427919597853785, 0.47227379952630666, 1.0920856836495008, -1.3782480800787755, -0.31753144490533725, -1.0177997660667308, 0.7817379272970338, -0.25401939042115995, 0.702725945598862, 0.7807512705806475, 1.1484597188042363, 0.689764200650431, -1.5142603009750668, -1.040893491785879, 1.3505257085783557, 0.08786280298667562, -0.5337398812908797, -0.8746191928012269, -1.042662648374964, -0.09679062125396558, 0.10185614396629757, 0.6227579595907881, 0.5434781454865856, 1.1094819083570124, -0.07458985942516504, -0.27464741658255865, 0.1038011256872284, 0.79757324005572, 0.616039809454249, 1.0263469176129532, 1.0798232221589323, -0.34942232314574845, -0.20926134638771726, 1.2414264564345743, 0.6363126115471254, 0.2277316246804173, 0.2134853708981057, 0.04044542748190347, -0.027549346251577237, -0.013557884587303129, -1.0981892570411713, -0.25402041765197614, 1.4054997701164025, 0.12399494898260455, -1.7081379742771368, 0.853588940423519, 1.34632469093988, -1.0236489946332332, 2.114919390256524, 0.3141604660695569, -0.5583253053616123, -0.13633279823920386, 0.4642344486729761, -0.5998859393077433, -0.9752443407850848, -0.11227729958364649, -0.1687128708780243, 0.39915020629049797, 0.5282977759512847, -1.1624433622404293, 0.6606582580817074, 0.8955983685793553, 1.5141846873089604, -0.8197344924390828, 0.9138292387316216, -0.6261011227490539, -0.6972897303606737, -0.682936638460154, -0.5686017203598714, 1.138130318313168, 0.5893305647290785, 0.20549038639136302, -0.5902347997482991, 1.1671960354099986, -1.157147051490811, 1.1197441140976625, 1.1983269668102183, -0.6446702981570396, -0.7380734961520766, -1.858718260609194, 0.38402706517986235, 0.6643273987232432, 1.466163675557445, 1.3244675872381317, -0.2018327675773077, 0.555812627125067, 0.31120040787654923, 1.5372698685604511, 0.007933749594984623, 1.3709540308962846, 1.4308607986717796, 0.6789116469652657, -0.7824652623918257, -3.1154796942742418, -0.31667544936905995, 0.15072366578239438, -2.345963865092968, 0.7318391337008353, -0.8244214620595008, -0.1324470440398348, -0.1296722902275857, 0.6405045531483831, 0.4481369137347283, -0.24208558038108535, -0.21168982550791837, 0.9263982655959698, 0.46871692463629017, -1.0752835640389669, 1.1306481309048322, -1.0842467929182673, 0.1302820980328843, -0.5214101258932033, -2.065465573052348, -0.6440901491988779, -1.563340814250366, 1.3872529839274397, 2.0254670390095932, 0.11323366603561334, -1.1433318991689325, 0.24704794497479482, -0.3617264338847475, 1.0170020328098426, 0.9837316521206328, 0.6918292626700279, 1.0812473213205098, 0.9883696730016266, 0.91392547421908, -0.5830481598216887, 0.18992443718710028, 3.2321900041029106, 0.6589666040108076, 1.0625783592560252, -1.0648712547957504, -1.4002437917086517, -1.3355780806432207, -0.4261581456582627, 1.2530918418890604, 1.1045016039287932, 0.9965758650626179, -0.28639884332717386, -0.6935958517001898, -0.46292918374918945, 1.0455251876155502, 0.9882583168851121, 0.8885450351563959, 0.5043057232758109, 0.12023408695379127, 0.5614523946117427, -0.15123412772771025, -0.30019515769799376, 0.675833970407749, 0.07714099123916361, -0.1834563519548744, -0.15333624224399414, -1.8286035103365061, 0.6457532174398, 0.6539710195023463, 0.38284007177361606, -0.42602383388637666, 0.9440031445963745, 0.05411362342899432, -0.1766000884769594, -0.5906650121985841, 0.44968580395390156, 1.1069288413169653, -2.1089630920088043, 2.2477092123806037, -0.16883912737049966, -1.534009150469532, 1.5121839961532755, 0.31346632012910913, 1.6000056882004237, 1.9637227070149421, -2.290487972098015, 0.6837502853289168, -1.1863513891320385, 0.3096431185291144, 1.3346908275301783, -0.553286484304059, 0.7130292253100844, 0.1955959695171822, -0.8427609860903161, 1.0765043772375096, 0.7354125647672097, 0.3851749679052721, 0.7804845083239578, 0.4730538949975514, 0.08370278205536445, -0.41284607745221297, 0.36873223862222154, 1.2111024736328315, -2.8682926271610962, 0.2648634762500013, -0.7599195137467228, -1.5214796214806379, -1.5564322869396041, 0.48587672336318766, -1.0037994802798689, 0.7550619634011653, -1.7663209847777248, 0.08875779461757724, 2.133834473230133, 0.744936218543131, 2.2625272632990554, 2.011396802343965, 0.9749522895328918, -0.8090121807648616, 0.06345684738096201, -0.02772684588962399, -0.8174882212937861, 0.13428738148721883, 1.608093803011303, 0.3659428518242764, -0.86416685119979, 0.416638685872768, -2.385962623761964, 0.7154263211377268, 1.641282510152012, 1.9761519410311483, -2.2282036085886587, -0.19815603983966648, -0.8705593708489321, 0.26938797882340965, 0.7498229919747547, 1.3199328984379592, 3.523163231756101, 2.771312474257199, -1.370367951396664, -2.1572364041539087, -0.1452601043347197, 0.02096785000180036, 0.39961691657985493, -0.21981686331758393, -0.7349778013831421, 0.3233804605729722, -1.3725083142163599, -0.288555105953537, 1.0893353810358104, 0.9969452435604935, 1.1575694445373819, 0.2716807694304667, -0.31939380323462563, 0.4763313513959507, 0.2751792287539207, -1.1096560389439705, 2.593197984598002, 1.5437411587180525, 1.2627383668779515, -0.07256269090659351, -0.0375603665395176, 0.040013865448124825, -0.18180821743447753, 1.3830707706596768, 0.7852295479275421, -1.4095493337065887, 0.6020018715489026, -0.44642376792670924, 1.922031803685891, 0.9092658471153653, 1.2087876800605009, 0.9969940527823818, 0.35372845720181967, -0.7274308238292941, 1.1938132125732872, -0.22811738173972054, -0.42469263072586233, 0.519356167874803, 0.7788633811276716, -0.2627185584705081, -0.29777240248866865, -1.0945633675141715, 1.5797984821737425, -0.020744122029723457, 0.09020179408541967, 0.9483291620632752, -1.9238676538962869, -0.20837924590716567, -0.2664607567439368, -0.022420793997598835, 1.1986062676256373, 1.9462215816844608, -0.38037850765001996, -0.12946791180354433, -0.1156305566077109, 0.3376846986866615, 0.7992836287191002, 1.3173251902186096, -0.3668506720146207, -0.824985532424295, -1.9920848497212054, -0.09899504985903713, 0.12649364060464147, 0.949995722644197, 0.6062335455262207, 0.27602652882634743, 1.7376932999303267, -1.1256742412490566, 1.587034714006393, 2.0792801312461604, 0.9502983490545093, 1.6883112029289062, 0.7426881889983102, -1.16337815907899, -0.8819328716918663, -0.6475150105841118, 1.2054784503769997, 1.4846532494878129, 0.6449034270189499, -1.0543713998616147, -1.4299105761105317, -1.2144533282137275, -0.38074814150246294, 0.35082549490135195, 1.748610269816614, -0.7490185937740756, 1.1605883516725557, -0.8646005386243448, -1.1028788661702273, 2.426868983878179, 1.9221961924922049, 2.167699165041314, 1.4882167795683272, 0.8064074470037386, 1.0084791178378991, 0.26641738989403396], [2.985568804795505, 3.2784297958264315, 2.2865441496485417, 2.5133940071725993, 2.483167201008631, 1.9729921568359239, 2.032837674522854, 2.0683474524931964, 1.7663863154795112, 1.1794287776063574, 1.2020431687566586, 0.7240162011397628, 0.21316384605100736, 1.7220002215278816, 1.583034969862312, 1.5288335863702343, 2.3047916033031357, 1.851885383071006, 1.775039692296504, 0.963677290367359, 0.8013885046218274, -0.5334897597294892, -2.0339628860823007, -0.5163993853590995, -0.9804704947928184, -1.6034699041793337, -2.1976080792758252, -1.8684936517086415, -1.6323076972480481, -2.35850630321701, -2.566792530658362, -1.8928493104874993, -1.166615824714183, -0.18571086715543406, -1.1438289254698661, -0.64669419359926, -0.8232567255465756, -0.36467268236556954, -0.47909690316138015, 0.9136789475658569, 0.9969248739173074, 0.4685924051269727, -0.35300774176958677, -0.5583137210262101, -0.8280923052671464, -0.575056039175521, -2.0175372634629882, -1.498886833491098, -0.9460340800210806, -1.4232017995130588, -2.082544583257159, -1.2911344028307852, -1.8707738702846537, -1.5276623319776477, 0.4726702888889663, -0.5014285922704971, 1.8867964535667747, 0.7413943331127423, -0.5222732179735524, 1.6512190060056915, 2.7455247846919764, -0.43958518743387437, -1.2627887780176899, 1.1343566106680323, 0.38413161336420937, 0.5627514585350321, -0.5040766751534499, -1.949058191016181, -1.0092931762786101, 