{"layers": [400, 50, 2], "weights": [[], [[0.21148580388473484, 0.7777225700297988, 0.2960097919383404, -0.3685214556584877, -0.44609196482349933, 0.8076370001925592, 0.11333521637172903, -0.44675995140146424, 1.050934050660306, 2.3594374492469488, 1.1649273664152797, -1.4487113277217334, -0.23245060525873568, -0.08674028765042094, -1.2512822292735752, 1.1834454170730326, 0.77569733401524, 0.44484842928283247, -2.335329010531284, 0.6473535304746447, -2.6157173336162263, 1.2250556258232703, -0.09794473275474437, -0.8844959191431033, 0.09735024336208392, -0.1230083672692423, -0.49222769301778646, -0.664357411199341, -0.8435386961757424, -0.7171624338378252, -0.7575672035437908, 0.4097326356891199, 0.962484759290731, 0.596445217597954, 0.30150140103466083, -0.8162835203284841, -0.4256773921386277, 0.3759345180995258, 0.39128383209298145, 0.6918777578243204, 0.5291231294219917, -0.21648407376879206, 0.41050629598554467, -1.13824254045047, -1.3804034443668718, 1.000024836167815, -0.30246831559504356, 1.4165993656594689, -0.026284428389246838, 0.559489846444115, -0.3480331408903357, -1.0260273620713813, 0.682562013804341, 0.3265883586718443, 1.4258716547641077, -0.9372346796600971, 0.0578744293695655, 0.32755689741684363, -0.07442221041788437, -0.4100764767090887, -1.2175825775855353, -1.4061112324975424, -1.0100071767811236, -1.4888827887603764, 0.28435375277430397, 0.6739295652808796, 0.2766237002787802, 0.5811368044815962, 0.9305048764433114, 0.6284728584542044, -1.3185415382002643, -1.7045810849313576, 0.9502981457778278, -0.3133569571698386, 1.1825025298844098, 0.25472011538884615, -0.27055673899843596, 1.3263189000768698, -2.0573279028988525, 0.30404063735069786, 0.3902257603824182, -1.098604199937397, -0.3821843242297203, 0.1621289607152885, -0.8672847321878587, -1.4702548654509624, -0.2278404581914166, -0.831907448841087, -0.4771826075318294, 0.30310547334513804, 0.21213250654346397, -1.0266432500252847, 1.3776003892669912, -1.0889838052824692, 0.8653732054883653, -1.0357639275953472, -0.9250325828374286, -0.04114970927925281, 0.08269538437424402, -0.3958334350114313, 1.0301951046725395, -0.5293539096100518, -0.20903869639249414, -0.8428803142185749, 0.2373745557504608, 1.8573800727690533, -0.07244282163991221, 0.34248465439975045, 0.07792570614949977, 0.12446290586764133, -0.6076118796698975, -0.8191648769622057, 0.1971229186296872, -1.6370249667764167, -0.8623882118735686, 0.09826928500547615, 1.1511503363379056, 0.18867537167145346, -0.6844466898285463, 0.8315077250060562, 0.20478928780970018, 0.07760800089239016, -0.5900892298182103, 0.6482007165314438, -1.1363532417255524, -0.8667290584734314, -0.2348474878660459, -0.16167235405129826, 1.281144576693139, -0.4932133809527123, -0.006310378360222875, 0.053349021900132236, 1.0474989187115633, 0.2111744652040319, 1.4417320222650198, 1.9521729601530113, 0.4061659524244303, 0.10665130806327382, -0.8471916201964973, -1.0591735541975553, 1.7523002222953235, 0.3126281108767109, 1.405804182374839, 0.2583666202415449, 1.814282826168669, -2.307223955534514, 0.4691206710752451, 1.5719902207334655, -0.3883058523417307, 0.26886499482804765, 0.8698883272654985, -1.7559140835783977, 1.4309428993111735, 1.3927173490448626, 0.14573410876307838, 1.9309796767771983, -0.06251637454542677, -0.8193152749989527, 0.5871208441572856, 1.064646024319569, 0.26641331587013073, -0.8266270277523894, 0.07009898859874189, -0.5787514832251632, -1.4502295331987314, -0.646164148846129, -0.9283402470956887, -1.4061945222880536, -1.0528671035837842, -0.5992213653861843, 0.5875384783937158, 0.06345946597951846, 0.6749233193798794, -1.062730769903334, 1.1593942446608436, -0.37440180654268046, 0.19483647468358972, 0.8918828373969293, -0.27909492250551043, -1.3826967653532212, 0.6031646296484104, 1.3452377117401562, -1.0115367857783493, -0.5951125511385444, -0.3156425139190448, 1.14658544994968, -0.26195808280291183, 0.7254640556994816, 1.1542407847884995, -1.8355838993432017, -0.7683466551409198, -0.17167045428990188, -0.9962624160743895, -0.15262945687889728, 0.5874851723420458, -0.7360860562272322, -0.3063598537690355, -0.7502866876217326, 0.0006141977323359923, 0.4184165963022661, 1.5747098677494338, 0.11972305350356291, 0.3632325235108803, -0.5596194721608805, -0.9773238178984192, 0.9146574065453548, -1.2506577476200822, 0.0023517444650749224, 0.6279648137235783, 2.2370382369977406, -1.4815089367578944, -0.4314722075779807, -0.06027678753760835, 0.4157002811889335, -0.7156613980298517, 0.41026642215518727, 1.0508293948786829, 0.4966856474106769, 0.4156185251709141, -0.6538214142894802, -0.9351696104514742, -0.06643974622808237, 0.9560586078150853, -1.3594333740099211, 0.3199376957426085, -0.4403812873993403, -0.925386221136168, 0.5365604127550315, 0.6317205709863197, -0.806479593038856, 0.13762129719990648, 1.8950113001547026, 0.22056924575118653, -1.4919102197893142, 1.227949334298994, 1.2115837344418887, -0.09480559603760556, 0.9114325063897153, -0.3084713662274729, 0.5119283082330119, 0.3717213043860461, 0.7317912006641208, 0.3351468805264836, -0.17144561848808643, 1.3704868338111704, -1.2698905774362717, -0.7977594481438192, -0.1681509426237207, 0.14984880743635146, -1.0242090746897234, -0.8496308649504013, -0.9663975037918576, 1.5272360191666772, -1.6948234827463393, 0.8854246970444065, 0.8768094730009509, -1.4512859227287334, 0.7718065455609419, 0.06302938943695144, -0.3627934981774127, -2.270401053009305, -0.7180682350845107, -0.48016318081546433, 1.5076364472677282, -0.331702093046141, 0.8571817707537196, 1.2811492626014631, -1.3629422009704761, -0.09678882627840155, -0.40728031237808143, 0.06980399417383568, 0.22952455511172565, 0.06801462711736497, -1.905551336916179, 1.875088519234446, -1.746505192038211, -1.9288614794795835, -0.9682310356059058, 1.9967564922061172, -0.6517146192610719, -1.8284690796846703, 0.8153368074424907, -0.2133319319039374, 0.6377083730684588, 0.6668403588663232, -1.0265647894264032, 1.3050175253032978, -0.9970637991666357, 0.45064399554125795, -0.31052924937367943, 0.5999184904094965, -1.2844440446099181, 0.9876403922365626, 0.26370646792185726, -0.45233826572280533, 1.068827829796947, 0.7227822918936024, 0.514472731706242, -0.1153068228786164, 0.07576964581925139, 0.13364521093320392, -1.3011936759028346, 0.008618484117251123, -0.37326055210021575, -1.043778368679964, -1.2921509574083472, -0.37710811310640946, -0.4165978894226871, -0.5358578210962113, -0.7135159283830589, 1.6458585192906188, -1.0585242771846417, -1.1442900333749146, -2.064032816411958, 0.49482078029066195, 0.9921908688922058, -0.9462298906631023, -0.9166311880815832, 1.7412200836383087, -0.24986959243898255, -1.6248719613581153, 1.1119013881918016, -0.5432479809970251, 0.6057918568839463, -1.8634329030654075, -0.2496418546967989, -2.353174759683779, -0.7636584466451369, 0.6661239113813507, 1.6620602836593021, 0.31132443244297897, -0.6009235691108228, -0.6055846485098556, 2.5314725473808135, 1.3150109196987794, -1.4179242948487103, -1.1247140407170577, 0.23761053326780351, -1.097298952127967, -1.197384782653645, -1.0683295341410113, 0.9822240182363959, 0.07908767714507924, -0.2850928725052475, 0.7097648580985443, -0.8747736598877294, 0.17138022346735596, -0.7880943847188985, 0.36388436628575327, 1.8212932306791842, -0.09081414816934429, 0.35968753267258297, 0.022494120955240345, -0.09916206179634687, -0.8694365292764494, -1.2205688768516205, 0.17547732978677474, 0.30286507026547016, 1.4048052487687346, -1.0589584974545305, -0.3888974981473498, -1.1086660023832655, -0.7892463836100251, 0.044371824212511124, 0.02926664069733891, 0.04217522027680568, 0.9900738220307533, -0.108083217807151, 1.1220545663778458, -1.9082774708514105, -0.6887253112524264, -0.6965319963114565, 1.333013491481057, 1.1795287389591826, 1.431118804647451, 1.207816010533419, -0.6669648245011897, -1.0254947935537786, -1.246497349931679, 1.3265433507327524, -1.6332016440230963, 0.8054347014534857, 0.16102701700882957, 0.04773091770275764, -0.12773558698149842, -0.46495825192640333, 0.3746066966873819, -1.294944196781272, 1.4337496260120024, -0.7607151581614859, 1.0210646750122865, -0.3537784399443171, -0.957563241329438, -0.26768292849308156, 0.23460331003799909, 0.09112917052524959, 0.43957711054764215, 0.4005899724094852, 0.5609491657778503, 1.2842926488476367], [0.43950831662800943, -1.5007840912762325, 0.8335619153093041, -0.32378095561997583, -1.4801492125775642, -0.10368822294694266, -1.15524265859645, -0.21807927037188943, -0.8281316969523157, -1.5417932072468512, -0.3828376320820376, -1.8356477648947254, -1.1895422362264383, 1.335078455965348, 0.24445564088878946, -0.012621860224070516, -1.530525477594843, -0.5443400780455259, -2.2062681654459015, -0.3649976620375049, -0.01743025523959531, 0.30440898997660015, -1.6864869203386665, 0.9833486891883436, 0.3147100162072761, 1.6560198369872368, -0.9555657367756086, -0.7152335019944542, 0.11675628913539139, 1.2122000750199267, 1.6802228921618825, 0.9306650939224304, -0.06292646097865742, 0.2592010114929427, -1.44052707766433, -0.590950424203339, -0.6183288611364209, -0.4802080812412559, -1.2827141397962019, -1.3474787585959476, 0.19021095036962507, -0.9009172730195093, -1.4266725494877561, 0.5012232538763849, 1.3751601937397122, 0.3277113318044321, 0.037616191558575436, -0.16744712214810123, 0.7162711014461396, 1.0928226590233843, -0.31576587240308013, -0.30810889971198896, -1.0776490131973457, -2.3125546983004956, -0.7048900605511389, 0.2767899395640646, -0.0839137093580621, -2.328499263815379, -0.5046741495347228, -1.3993236597062813, -1.4945941534141407, 0.5276916007868357, -0.37257325166267213, -1.5808345309183165, -0.17516318756365562, 0.3275980228680766, 1.0015160015725812, 1.6645867400617418, 1.351757976347247, -1.278184411546946, 0.7835063691939123, -1.4430397390778533, 0.5860062423627063, -0.7625769229172176, -1.0358230742705685, -1.0549994046466147, 0.3978410471162174, -1.721203752711589, 0.576474010945764, 0.8023239831347473, -1.1171576746528598, 0.16439972266859737, 0.7225866473000342, -2.0396473538090896, 1.2689093142860908, -0.3204976052473161, -0.004877583907604664, -0.7305425943474104, -0.3857012435157874, -0.35023500879183095, -1.0136146985445744, 0.2794656242615749, -0.427291501213527, -0.23013733301412634, -0.7103244426937643, -0.17225808418260086, -1.8747073667482657, 0.5958647529876082, -1.5030158634930921, -0.2581849602319139, -1.4849709693324702, -0.12225165949229883, -1.0768529789817278, 0.39405126322732076, -0.7225602741790462, 0.9800365574897321, -0.7737004521707244, 0.1335939898020225, 2.2509199646935882, -0.534506041001792, -0.8896934815526809, 0.6896292700245413, 2.2927387809594677, 0.9952619056660849, 1.516864100448067, 0.16056204377965444, -0.6639928245862633, -2.7126483784494506, -0.09167210755334794, -1.1687069943948056, 0.6189315698198037, -1.2149880916836457, -0.3198275153863393, 1.4052783759158227, 0.6624459932629057, 0.43960335308786574, 1.0596431447112173, 0.7432587865618789, -0.3670970499328023, -1.6143378531960162, 0.8501333192502827, 0.16007667725994584, 2.121343157012506, 0.011148032599914651, 0.8621147628650374, -1.3760031094191645, 0.3003236033944873, -0.8400920466327408, 1.2780674081827856, 0.7330181477790644, -2.535512205245389, 0.39338331108897595, -0.8874941518211019, 0.9167949363925311, 0.00856035215139022, -0.48845995132874415, 0.038669754616391, -1.4881616450711976, 0.1873961368148088, 1.021044967917572, -0.4657117518837451, 0.14251509758586822, 0.8256075839405057, 0.3535630534505305, -0.18838272834068764, 1.1511226519302131, 0.2383931110415694, 1.6875474550222618, -0.5704193608951623, 2.0953761085293037, -2.3294052924321416, -0.5122297789243474, -0.7795095731117356, -0.4964825718154645, 0.40982330679788836, 0.30366544772710935, 0.038666369849600125, 0.13728161841625003, -0.18087949546378507, 2.3603045694880285, -1.3586105245391882, -0.7457249598119429, 1.5522347841126956, 0.7414235914532975, -0.6553797016049691, 1.4511859259694193, 0.0428227851179777, 0.3825338814253084, 0.4185026994984802, 0.08060870181134253, 0.5543599724536159, 0.24332737771684235, 0.6878674300340306, -0.28292781198335254, -0.9119561982618979, 2.331061620107075, -0.8215570472787432, 2.0871604624499573, 0.20186887081228982, 0.2104837498731467, -0.1297754295610623, -1.4312421762773608, 0.8891753085168856, -1.0815071891576429, -0.07023696088807532, -0.025393922330957226, 0.6264880963333078, 1.1323196549851775, -0.1287329421017814, -1.4041309969898503, 1.0442173422529148, 2.5970811768626225, -0.3291164919999785, 0.30568823955089497, -0.5984857070520414, 0.31718004528389343, -0.12179017605514168, -0.21882647929392773, -0.004200996171125291, -1.0557760558620848, -1.8660176352304993, 0.8028465616126567, 0.32016355861167134, 2.9402321372572504, 1.120697340460055, 0.31026438808721174, 0.47534607054869527, 0.9456880126155013, -0.41280121223900046, -0.1313769336119501, -1.874960083822284, -0.8930735146842005, -1.4782550739404596, 0.6607629942068468, -1.9613569601708316, 1.3791922806905064, 1.7370999347969944, 0.1421123351566319, -1.1241557387582062, -0.1628719669156586, 2.1776803078440268, -1.2627022737785962, -0.3041383478518878, 0.08389038438463015, -0.9267352995634344, 0.33513965185288147, 0.8935894955055974, 2.033979009128752, 1.2718207101254595, -0.6892738316827769, -1.7465134762366523, 1.1247679584535004, 0.6986041720999852, -1.7021322886907972, 1.6295193888598887, -0.368438787005358, 2.3996236400020514, -0.42200306683194194, 2.8647785013606346, 0.7435023469537152, 0.3217295265948744, 1.4966562647610984, -0.7049241156551744, 1.6243877604839538, 2.5247442637081243, -0.5291407060258747, 1.647342387896183, 0.39253819046897076, 1.6717273962098884, 3.2152515360532066, -0.7277109701491603, 2.673082200045248, 0.3600399580208892, 0.7587583827172465, -0.7427236200981345, 1.6232798085633546, 0.7681966368671241, 0.7250399548260942, -0.6124488072218701, 1.2358081147314894, -0.11880604026792216, -1.5069857465258065, -0.9724081066372637, -0.09505536136851699, -0.31636804803261137, -0.1694593320260744, -0.44285948535504455, -2.2999862833421187, 1.2385205254591134, 1.0147253926903959, -3.352991017803105, -0.5305611193313386, -1.4858689942168986, 0.03857986720737566, 0.051678150361399944, 1.9105030207788403, -1.1606823290547628, 1.6576223624794384, -0.22372562149160433, 0.3569982732250821, -0.8247060420384691, 0.2090964360502225, -0.8313217749771905, 1.6360389536653932, 0.04057208374915366, -0.9610711554018195, 0.02525851981827257, 0.8529482021467838, -0.373265438215383, 0.4497790584034087, -0.9264351241062214, 1.0513283342461985, -1.6834216974290406, 0.5031128537515641, -1.5029413301965682, 0.5956385196987808, -0.08872872212203303, -1.3033991882749747, -0.2049920748904241, 1.1617802484570627, 1.2193258905172224, 1.4043800127438009, 0.47642953597678495, -1.2684057733025533, -2.351103606492561, 0.7300446588632211, 0.8049119781676458, -0.5268426026791536, -0.43341070394615216, -0.5298820239865446, -1.9364326466421853, 0.29524045413828914, -0.8592548216334319, -2.3288604808706492, 0.8917177858555972, -1.5089409557150006, -0.9751231596881581, -2.0428839579595213, -0.23388512328101638, -0.2712145133126519, 0.540108524615966, -2.410036810143481, 0.13204465702592447, -0.012406468243347612, 1.8094909892188586, 0.8959749143810453, 1.0299618765384395, -1.5638955315560634, -2.9282347538576676, -1.1872279766930582, 0.8439235940667433, 0.6567387896724667, 0.11774131816925947, -0.6818590277233402, -0.5311552049363739, -0.37052958838174394, -0.2738792071144263, -1.5884469336009528, -1.048404925570746, -0.006724275631878481, 0.3428545866001767, 1.9150205905414552, 0.08641449503375638, -0.4361550467547395, -0.2033839913124911, -0.6645794748886639, 0.40653184555192506, 0.7259340917869989, 0.27772852565169204, -0.5837702985334021, -1.8025875108124365, 2.2695928258563227, 0.26050124288263476, -1.9359846025009095, -0.10558190495304254, -1.307567780366069, -1.6076637689746347, -0.28338869918106097, -0.9062662843378014, -1.0847134892844588, 1.2161210447261661, 1.2995232051159666, 0.02248381434937688, -0.21905939764486573, 0.42277539705897044, -1.920294254066066, -0.13450626837217927, 1.4820432773791627, -0.46187451557368653, -2.120411885882867, -2.469539281059996, 0.40929793499726835, 1.692349545824908, -0.11451812203385704, -0.9979430459976356, -2.5534137177186245, -0.4415592229698915, 0.4153631048292877, 1.3150438349868405, 0.4595857564569913, 0.1736682314550439, -1.0561797162965703, 1.83370013481333, 0.38733936968264965, 1.3654019310707355, -2.1954745750140834, -0.09555374087310373, -0.5346403171046168, -0.2876609490850996, 0.7677157063734756], [-0.8368655376552426, -1.1710834560581378, -1.1043342025012985, 0.10488528213426324, -2.2450512343450066, 0.03817367950518189, -1.3217680030725254, 0.022701233799567233, -1.9244000118607818, -1.0727779481017907, -1.5313375582312598, 0.5099118870414807, 0.09618657186982454, -1.2557999043535946, 0.46074447777221234, 0.8721971065811143, -1.059554919871914, -0.1691467685515503, -0.9279391467661405, -1.5450984616631145, -0.7790858890861011, 1.8466759339962413, -0.857683017372374, -0.28427681299314655, 1.7452696739828792, -0.5170109189896854, 0.07861803827367114, 0.0933803203920035, -0.02368592982752294, 1.095533208753754, 0.36537125341409715, 0.10458635523290846, -1.523009072535603, 0.03802531862807354, 0.6908423593171871, -0.49250021208720013, -0.7247701104521028, 0.4248391073343599, -0.20304074761049684, -1.5435864962326133, -0.2916236885726672, -0.8087334078772266, -1.6633149082208285, 0.5559425180830071, 0.34787567589862106, 0.8006352353647859, -0.6013057784413876, 0.019829148869665345, -0.6023926822550977, -0.6173540146819719, -0.9334662098290989, 0.6451623928295146, -1.552226906094965, -2.7333837087352904, 0.15864944101150283, -0.04274167803831657, 0.03015408553383434, -2.796687430891081, 0.8662095517123507, -0.48431266371597576, -0.32480429973291036, 0.2853359303927428, 0.43125168457339497, 0.17741940720988933, -0.5319915069955009, 0.8338795563869896, 0.25745618127308495, -1.2338005159418142, -0.15513674041324702, 0.24614023567596294, 0.06096484673512992, 0.7818302924802413, -1.762142238894424, -0.0823930743669117, -0.0162901609996124, 0.3099399280884784, -0.9733787857595262, 0.49780604440659093, -2.3084742821647635, 0.43947089685792695, -1.052706872316639, 0.9091756309931411, -0.38642300673077823, -0.11527990772085808, 1.4344499247032585, -0.5244731951761221, -0.9572535286453303, 0.9288892762660654, 1.690844999306384, 0.12561310228348596, 1.0812353096383025, 1.8798940193021834, -0.49115005092193526, -1.84578314931635, -1.5783439698362411, -0.39677738825360515, 1.118469826211553, -1.2956595006000022, -1.4675929247880248, -1.56288249194157, -1.1041033739534325, -0.21975802641768014, -0.5722954744138418, -0.6379667842327726, 1.4874873998886156, 0.938191400404309, 0.5699585968549441, -0.8793325783395761, 1.6635235435907083, 0.0674020358575205, -0.6147002716758079, -0.6477710611875875, 0.9901276077137086, 1.3393415646904725, 1.1417539218639965, 1.6019529344456265, -0.608947838778008, 0.7313015393382457, -1.197741067380683, 0.159587134728088, -1.1719087046177281, -1.04807466927292, -0.6589641243131881, -0.35425472037629613, 0.9169205429528174, -0.8655162086773192, 0.6068435434443612, 0.8726529576807255, -0.16165860918947478, 0.04171848133398528, -0.10361479345240232, 1.5924901398148985, 0.722289035578778, -0.8915431655558081, -0.2882097011017188, -0.8072690552654611, -0.10378368784056723, 1.7397478794108592, 0.10267281516257079, -0.13071032405236566, -0.265687996507139, -1.5561988944750464, -0.1319373828727342, 0.5117227878832108, -0.6751529477700116, -0.9274108091579277, -1.4686886915558939, 0.17721644007783172, 1.5654776204700651, -0.14898615993694805, 2.227997722509166, -0.26453950494586825, -1.1009156252976118, 1.7898348970909168, -1.046036226696997, 0.3542428941720247, 1.1113409091170037, -1.2571829306324092, -0.6539338823010469, 0.2048263933621746, 1.7165749697025086, -1.4362745017104563, -1.6387246518400862, -0.9851255610013212, -1.6603414921764994, 1.4294588725829085, -1.9347201451418938, 0.0447353271167481, 0.8336356678261091, -1.0897620103392316, 2.5515566199252975, -1.4904899952274853, 0.9681550486332622, 1.2381529645080709, 0.5608447445565172, 1.446485266292421, -1.2385300000459205, 1.340183051724411, -1.1868833607903058, -0.4496011416013015, 0.20350272267820405, -0.7298773076376048, 0.13715132722244433, -0.85878456991612, 1.6847688488609862, -1.2858389565495933, -0.5043571276527384, 0.5160715408103775, 0.8004129010786114, 1.3748048667505315, 0.663292642389, 0.08368637009710242, 1.2980288158437567, -0.07464170667798614, 0.7694535625237994, -2.1291939309205903, 0.3226927761008771, -1.5965869876688081, -1.2257657443938135, -1.179271973418381, -1.4147753746338467, -0.546286665325855, -1.5257168306764242, 0.13272675555927332, -0.5171236382244037, 0.21013923678047677, 1.1535689947663104, -1.0058938199425398, -2.234501483250316, 0.32820122853579026, 0.6479272784100963, -0.35168102471381213, 2.2286164893367815, 1.048329050543711, -0.6913570837210007, 1.94451295970539, 1.77214043304074, 0.5570896241674853, 0.6171974351109991, 0.36314686306414373, 1.3388312285269106, -0.7243059987164229, 0.9660448169516307, -0.6574611777548897, 0.565130469119635, -1.1446557943667222, -0.39597284390407483, -1.4307077583755887, -0.22734344500373269, 0.13540265873401308, 0.8819290917104587, -0.9019655076356247, -0.7295623673369972, 0.2623953475790793, -0.2121151805272057, 0.43417325821980673, 1.6474234707539839, 0.7913052757159599, 1.7818493602320085, 0.04858066212245243, -0.4813316202948935, -2.218897020197314, 0.8337132794999289, -1.9699998828069423, -0.42651592520329523, 0.7399663285144743, -0.6696871195518842, -1.0225652341049423, -0.09170087724224897, 0.34436233723131365, -1.7237933457893806, 1.8662841014510332, -1.0330744487069419, 2.5402671363931746, -0.32364507001342346, 2.8120287992769506, 1.225703519449827, 0.42916122150768676, -0.11672156717266567, 1.6006365410073773, 1.3414426359196543, 1.0979877105370357, 1.0785253834093007, -0.7404713374984901, -1.142404543469105, -0.6688529562035246, 0.8068016312876892, 0.30231162396331157, 0.08314895497171292, 0.42035849131314323, -1.0804727035512016, 0.4068464875832429, 1.0216005688675507, -1.191832386109509, -0.32950152051397796, 0.9788611543207776, 0.2908461359414599, -0.6517428316775417, -0.23566269301684906, 1.3367559228864831, 0.24143268960931188, -0.09057058580023228, -0.2720243126973502, -0.6516027725356773, -0.918477551231232, -0.25003576749458417, 0.5694017506990366, -0.13142704562599622, -2.0125768951686736, -0.607575817108131, -0.6921167108565226, 0.49041074949118363, 0.5481459418484915, -1.002883039567591, 0.8474142406892617, -1.3343428577908165, 0.7963779163274788, -0.48922484104925856, -0.8073985377301098, -0.17064374915267902, -1.6762536311626153, 0.08969615897865832, -0.21109624471494007, 0.30696087180007087, 0.8688710008005122, -0.3437789034829245, 0.551328777684952, 0.8219613149046846, -0.12720584672500895, 0.6363169038298692, 0.534609440620716, -0.197879307366062, -0.9476688341696139, 1.0968927736408913, -0.6121802534999696, 0.6047221775052227, 0.8854818023719748, 1.3954962768763648, 0.6223012411992636, -0.8839721058535698, -0.18096209075581204, -0.10685761060077784, 0.2547330584911628, 0.9597172173588496, 1.8323388433657817, -0.01099121468232676, -0.9628300459474866, 0.3581607622690778, 0.24580045064068826, -0.6464231714491905, -0.2736969779580591, -0.9296082053698014, 0.3191258291899281, -0.6068856002952149, -1.5011078598990975, -1.4529276337281116, -0.4316690666182979, 0.7155639795484325, -0.19023602776731335, 1.729931759370463, 0.5217645877164984, 0.07734254162185943, -1.1426465136879078, 1.1077093790214518, 0.28667651051292203, -0.9663456143571604, 0.36294529673815457, -0.13745665048114886, 1.1270288820060042, -0.15374319660800242, 0.9292069192122006, -0.29735223904733166, 1.5496794721704301, 1.6593997318498679, 1.6329948045089195, -0.07189214987187345, 1.3635538110596466, 0.3221040407540475, -0.9235331439914, -0.6544956791407842, 0.7321979260458328, -0.5506004543169266, -0.21030580391528372, -0.3547212014803725, -0.8071614545921931, 0.9673744897819021, -0.39531396099653004, 1.661302648904333, -0.550508661317047, 1.305663046757952, -1.0891322709607303, -0.9529920865381863, -1.2857111214821417, -1.4316647453796119, -0.19707649382958436, -0.06320852927356133, 0.00595748945862612, -0.8372498188758067, -0.21616784010781054, -0.36482493468047394, -0.0862653298172783, -0.9912564827609438, -0.36133671047603527, -1.5964625446170366, 0.5013822447028491, -0.29144301289232943, -0.5228784280603507, -1.1901596896516469, -0.8080661833031605, 0.3257041826444211, 0.346310776254329, -2.585066679224913, 0.27958059614678615, -0.6558307464715762, 0.4648984022556763, -0.08893815628822553, 0.7705438525343613, 0.685911329041831, -0.958194522452934, 1.5508837332271503], [-0.8804827764747053, 1.1307180880044707, 1.5147481218447996, -2.026435363935214, 0.45251361771864873, -1.188577138884256, 0.38485330282352537, -0.2651974893579847, -0.7078340090762092, 0.23159962007883358, -0.44438822141260226, -0.858520807312666, 1.5548204526105462, 0.4399167248733617, 0.8464733500980187, 0.522623852898734, 0.5957918502132681, 1.5979261999508387, 0.27106827517973064, 0.28222209827574585, 1.5901311631089023, -1.5436843828667042, -1.2207732090313463, 0.11170962550609982, 0.8541826413292907, 0.36666200800952026, -1.67807172141947, 0.2912071165454066, 0.8125990186046157, 0.3744195296134993, -1.6941298157930045, -1.7182788140258034, -0.17553587026835932, 1.2490109400259648, 0.2132553827347407, -0.8061568345766981, -1.4043270607699845, -1.45427199035501, 0.3221601007570734, -1.1105331879000484, 0.25089786465667824, -0.4083603702346918, -3.715909160626066, 1.153420607078586, -0.9997219148524012, -0.08737055495295214, -1.1390578977123047, 0.2585202119307187, 0.7685646345485396, 0.5000435058411122, -0.09609753149534714, -0.5095674145325925, -0.6488709425512077, 0.7864444164249338, 0.14801436019232184, -0.27979224879090686, 1.0862028027397979, 1.8057530384480276, -0.49232670832172193, -0.0220467998031822, 0.5777507156207371, -0.29107507824540246, 0.36634407023970444, -1.973496182422588, -1.1526695305861834, 0.3184957062949542, -0.7677462687745326, 0.7098213627709696, 0.08994171507148195, -0.11770921215194317, -1.0228266994304498, 0.7672247137645478, 0.723878074571818, 0.34186782588895276, 1.77640925288324, 0.5917571749925515, 1.6204006071003265, 0.49238043539369436, -0.5777489840227458, -0.33325647651584905, -2.2142876489021166, 0.4592607269986313, -0.5809826815302398, 0.5495371923976022, -1.3516878510311032, -0.730863256043222, -1.1593383762501275, 0.21961895812632823, 0.8404536200393776, -1.23580556644426, 0.4895268638462996, -0.27849435916643867, -1.7664595745987965, 0.6129936822157372, -0.38228903108926726, -0.3557477832381592, -0.9224811669067928, -1.575802718861812, 0.8167436442934923, -0.3879481090644366, -0.8231871320738379, 0.386901358725664, 0.7353363671987838, 0.19077221470259664, -0.05977854191159051, 0.4619546896960568, -0.5962328643112891, -0.88185958232047, 1.7077388018266468, -0.9855175486024426, -0.39627045278631345, 0.6788966476850335, 1.56618043347855, -0.6385937678235013, 2.6284863975825754, -0.5502534215199475, -0.8897418258703396, -0.5258320370879641, -2.184233324247163, 0.8511216377598415, 0.08044555831826, 0.590410602149834, 1.5605112332343876, -0.13934794890783128, -1.22415224493181, 0.6902716688682566, 0.7560319875062631, -1.4212605768417597, 2.4355506738228274, -0.6836101827278972, -0.14520360655797285, 1.6367913598761814, 0.4118171346811871, 2.199871035852951, 1.0602268512235944, 1.3693869025762313, -1.3153951161533795, 1.3490966952191095, 0.1423041690832014, -0.07065679935182932, 0.8270986935952488, 0.9044829556496249, 0.5020890581231091, -0.47792300604376636, -0.8674382941563624, 0.6009163119732264, 1.401811908417098, 0.4934816165431476, -0.5241036747380837, -0.17720543609341008, 0.1856651014762282, 0.10945513288234879, 0.25860317927114573, -0.17299339474909842, 0.42213751664802257, 1.0165322056921788, -0.5093554545161153, 0.3325751676319483, 1.0562169536634123, -0.9826288489283679, 0.40522329930610584, -2.3718339947252103, -0.22249691606893063, -1.4247141745671745, -0.29130948986238725, 0.07604198637981312, 0.13605232314531238, -1.009616862581431, -0.7461251397060789, 0.28452281901066556, -0.6475847295178238, -1.5720766634922352, 1.557067703256749, 0.09716509020383242, -2.9565520586854603, -0.22333415452763944, -0.6475428775950829, 0.7651194185665843, 1.170480342570572, -0.9491571671238779, 0.45388784733534393, 0.28544275700358906, 2.2020774543703934, 0.24384744226500518, -0.5581091159137354, 0.9601102285553893, 0.19251047895982346, 1.0421563081334202, 1.017377562481199, 1.6237166057900054, 0.6556138483837668, 0.7277736533192914, 1.5679906441956626, -0.37468294822559867, 2.4091175528115336, 0.7129773364223622, -0.0420302202974326, -0.7611689547505895, -0.8571978384384397, -0.6257640390064944, 0.6903127636243656, 2.0155242301383973, 0.5094849429103657, 1.6431428276540778, 0.9080355029156338, -0.775435951022975, 1.2990752048306906, -0.9715408663566849, -0.5749584052621426, 0.6620279021204701, -1.172198103848679, 0.15542782667821384, 0.45683551546068885, 0.6022578522329852, -1.2923459706393703, -0.7514441361588818, -0.04784507321928032, 0.8485412775977895, -0.7446692796725278, 1.356958674381892, 0.09158974052068762, 0.9373079756206959, -0.00891080646481522, -1.1605754715967327, 0.503726847253872, 0.26868556155203555, 0.6399271226703892, 1.4285301181699714, -0.29609471738574944, -2.887631403833881, -0.12865743858352033, 1.130748270763062, -1.2016234172922189, 0.4136727547572564, -0.8556409777681743, -0.703435698764401, 0.5068315512006099, 0.041578719801626834, 0.9487345146045427, -0.03754226032348351, -0.6099542578249806, 2.8120474241310585, -0.6177870830361545, 0.7104276033520625, -0.20840209523665001, -0.6506130845989372, -0.4497722432137038, 0.05136992955125357, -0.28301450427644814, 1.0992583536052807, 1.0148025365049331, 0.5850955011709038, 1.1613139830039314, 0.3166688494226372, 0.09068879824509433, -0.41840557894073627, -1.2145215521238977, -0.5148494685027378, -0.22007001571202695, 1.3506302158779466, -1.032879505130178, 0.3224895138225491, -1.4709792303642042, 0.4211536058302303, 0.2986980976869239, 0.2380310077396284, 2.2051742405980232, 0.8736729041900924, 1.0506563159490558, -0.48923098540477716, -1.9593947967097591, -1.2380226900722087, -0.297445738194417, -1.3871038172487915, -2.1156856696572337, 1.1296215253784454, -1.3098433458652523, 0.4414345367442627, -1.1863428753727698, -1.3770008809894452, -0.04801590842052607, -0.4264622443757362, 0.9011108180571529, -0.14603716028300184, 0.2972947318224692, -0.23371053561667385, 0.47126582296539143, -1.8878316913483266, -0.8227387876784283, -1.599007894604399, -0.4964284067791937, -0.4136222450951375, 0.23127027307446357, -0.34321559056231676, -1.1250517770821475, -0.16012619927188962, 0.2699816688402578, 0.8411219645844676, -0.5922438916032126, -1.7484751063747979, -1.5504153157864973, 0.8799899141088836, -0.20998378560362402, 1.4012786986436696, 0.20431070325558484, -0.17903771052312303, -1.1083218582626635, 0.06146767829485304, -0.4071268489428252, -1.8628095092434842, -0.6455362221915554, 1.5204702196067736, 0.5921918502693331, -0.6007179308887526, -0.8620906125253277, -0.10088143577485194, -1.0060150025113073, -0.5369042319351263, -1.6868759102071313, 0.009143273369187974, -0.3772517472514475, -0.13921531056083877, -0.18791097868230455, 1.2468602950798218, -0.959592422467658, 1.0837775263573388, -1.4442374531986304, -0.09266381653695396, -0.3212756433021871, 1.158113766496296, -0.24821986555396428, -0.5569831665326513, -0.10905113998695312, -2.1126409659378464, 0.016052359783278645, 1.5932518475756214, -0.4448099628598158, -0.7807407498090372, -1.2479177089568525, -1.9569691610915918, 1.1224824008778587, -0.9834620705832553, 0.6912253091287077, 0.13367217111754048, 0.4314815121995947, 0.2615926017686299, 1.1306566049509597, -1.8916379553888327, -0.10944471789710669, 1.6213602272335124, -0.2820315586200547, -0.8003901254460358, -1.0200062659186477, 0.2247694323983439, -0.8743298657044137, -0.06685428327596565, -1.6074862509383683, -0.2198130766924923, -1.3094757602648408, -0.5823551045196508, -0.2605586921935593, -0.8824438730960087, -0.3626707733932136, 0.4327587142585544, -1.2192330295711309, -0.6179667943685505, 0.6416233385940276, -0.6730503657562081, -1.3393612089887625, -0.43845933283699273, -0.5891692937538874, 1.1146055084517903, 0.8644561895795541, -1.3615082102451443, -0.6885286552192663, -0.8027655911503204, 0.00832801045684941, 1.437024977339021, -1.2532119439425509, -1.4644095650488032, -0.6062092481995744, 0.34079017211564083, -0.4434768233150414, -0.32408954252479266, -1.971065101994122, 1.111865702564724, -0.816772421729625, -1.471821321551204, -1.838749810440775, -0.45923222927259916, 0.824835942442929, 0.5651953752924342, 0.19595015065594668, 1.4182120648094876, 0.7384696752892018, 0.9863960063339521, 1.0025474268562384, 0.6555647635418328, 0.2451706525280581, 1.5982219213052247], [-0.16223158701977008, 1.4964011285285048, -0.5768704583740332, -2.0632491097311836, -1.1184031863048582, 0.466189407391249, 0.9401850041729269, 1.2917485920349991, 0.3849712003082548, 1.0297543150522221, -1.1655511098279714, 0.11940854294798699, -0.6117159872508464, 0.3839254137967279, 0.3898915087836546, 1.1883055302319652, -1.0458888748076844, 1.0685881867839382, -0.1493625836122768, 0.6294130166278094, 0.4803522104211892, 0.2880758974841965, 1.1395679047056433, 0.649089548497942, 0.24752500602350216, 0.8496242278647327, -0.44317212854078525, -0.1867518068150188, 1.1347996439684231, 0.049373755465921806, -0.1749737394684145, 0.4144367508659858, -2.819350601938316, -0.8968560128651676, 0.12198717159382186, -0.9727252984084677, 0.2961850592239943, -0.4508261551171044, 0.6868539255602036, -0.5474702658509762, -0.6276917508753094, -1.2997195532621062, -1.9306781399365531, -0.7239313753575162, -1.7208193490031962, -0.0426381713857439, 0.39274024917102385, 0.5980240864551083, -0.4592704481853216, 0.6333977024086547, -0.3395086211869936, 0.1741772116736089, 0.27302161217582793, -1.9043208352956502, -1.6477567916673415, -1.3683854628438956, 1.2212745153199407, -0.5196331219349013, 0.7735605069664467, 1.7273360159025082, -1.6158555656174323, -0.7704723874183634, -0.9451986144114229, -0.4686002880524927, 0.1771409233919436, -1.0116022914931193, -0.49300550767921136, -0.34136381654542214, -0.5023661902625114, -0.7436717321140407, -0.15657589371569536, -1.8259473012063803, -0.8740909917306886, 0.20119837632649312, -0.7278304741419728, 0.2218948090527963, 0.5702963020382283, 0.0810231211046189, 2.943216372580304, 0.4354814537469339, 0.45242144477006285, -0.9266259109862274, 0.699961701340885, -0.8100251529866744, 0.4187823402787161, -0.46885416024094334, -0.35754936111336255, -0.11297669777762995, 1.20021657955748, -0.3147561226174136, -1.2954659190933182, -0.4510069219343243, 0.12451349061420683, -0.6900524307947239, 1.8429801810225834, -0.8219832804750169, 0.5137760809755101, 0.03353578769338835, 0.813465495842997, -2.748994399422813, -2.324322709118387, 1.0727029654704228, -0.5510004922274536, -1.1931412246402107, -0.6017899724963495, 0.3366858734429493, -0.6732821428331246, 1.0622879315734393, -0.04681386091151661, 0.5566459865031064, 0.6180093839793082, -1.4426164729222053, 1.673365582811768, 0.7632077426385248, -1.0916456234125154, 1.2025388696363797, 0.16596645378380898, 0.8359330497741447, 1.0276106050018432, -0.5552888230744295, 1.7024327203765024, -0.6262358296528927, -1.8221316560561043, 1.0796918951669816, -0.27328783997729217, 2.2867413480284156, 0.2099460053224349, 0.07935682148548452, 0.002293102739593194, -0.26255468764481565, 0.9214876256296957, 2.7470898738455825, 0.568719586738541, -0.6760157195154053, -0.5331485164215019, 2.5119786892721447, -0.07138820784231603, 0.08746383237309197, 1.5514301053943849, -0.18731212470178332, -0.49844723808100433, 0.5354251686756669, 0.3031772231418667, -0.3360150317362893, 0.5761989376076295, -0.4676382802995102, 0.5461866225857017, -1.0938879323176398, 3.0714632726530517, 0.04936141622119363, -0.012498424259301396, -1.4369974979708424, -0.8290502533638552, 1.049968756314459, 0.35040036398538144, -0.26642555717504135, -1.3293621549823822, -0.657048364867562, 1.5464609191649483, 0.32304031617029, -1.103078329932303, 0.1311000217676369, 0.3089854054231476, -0.666959325451395, -0.3573002376079024, -1.1275294336612736, 0.5062079558208706, -0.2608544371733895, -0.8122692311168409, -0.7124271836891247, 0.9381893545150901, -3.2652369692448837, 2.5055088869286517, -0.747261201423928, -0.9191571095732516, 1.1316775785168158, 0.46748466516846227, 1.2426516314133307, -0.5233014161867507, 0.9751935336789153, -0.18048945006532086, 1.2582095248268121, -0.32989890259545906, -0.9520460150938798, -0.527082312548191, 0.03759643421726964, -0.1132778201411083, 0.3967172495855509, -0.18653122379352638, -2.3822902083640676, -2.1009179474356094, 3.206465251510477, -0.1427858491945365, 0.603596866487916, 0.7596105913835518, -2.234176247854386, -1.6618319210012886, 0.9251511850108355, 0.9949723057051866, 0.8422553028026942, -0.886796583249804, -0.08271424769311392, -0.3109348479123187, 0.2596753326454269, 1.225008755367332, 1.7261278678560246, -0.7760691576674145, -1.2514981215782683, 0.34205818908717067, -0.3859194036973419, 0.7503232148284429, -1.8622741020356177, -0.9848726689903067, -0.5289707541726082, -0.007132244021843614, 0.3286500591300123, 1.026069078071014, 1.5637091226391637, -0.5797214819667865, -0.29017288943737896, 0.9797100620725363, 2.673917584336377, -1.3310184875507927, 0.35810065869908253, -0.2915613116488955, 1.2566943538395836, -0.26076151758713745, -0.6637404719025878, -1.0921042122677251, -0.328151152416448, 0.47393057125607085, 0.5803302182848762, -2.118771091864964, 0.01938159054336236, 0.21588469371652372, 0.36743864402534343, 1.1868172929705196, 0.9240852386221863, 1.2064596513002472, -0.1144108629867834, -0.5253055529491668, -2.532810595687287, -0.07166749581232924, 0.060241244203548025, 0.09549708177442273, -0.34940204267099634, -0.8912176990389234, 0.5472622562207177, 0.025954002085820223, 0.701877726299686, 0.279966759016115, 0.5969270862797634, -0.6503432332680951, 0.7316610138635213, 0.910573380819349, 1.1105973819358887, 1.6456640863705674, 1.2615286107067534, 0.46636609818962765, 0.5251000407573218, -2.581154442867618, -0.7177577193270231, -2.001204916140604, 0.2790577802446307, 0.7949321233500488, -0.6838452462627436, 0.6405902600963623, -0.12537150056681176, 0.27783154561146856, 1.0630977446636347, 0.011383296375848841, 0.48182440021879147, 0.027259405652388623, -1.4339967802347757, 0.1994960847041478, -0.020532558183294546, 0.8441272575660999, 1.1930420277714382, 0.10837680507524515, -0.4751351623165502, -0.19017354726942615, -0.8495772803995946, -0.34922613889016885, 0.8564990794087898, -1.0336723348950587, -0.038495278818474296, 0.6295138843825613, 1.0106219927499303, -0.2909945640233684, 0.3265004474782786, -0.7332703918449043, 0.362912837564995, 0.7548699716531041, -0.6151174835388219, 0.5355649342352424, 0.43135695493955084, -0.6222783193403582, 0.056982422580026976, -0.2182750587235916, -0.43907041099742883, 0.4927782783799097, 0.38386220370159013, 1.465339595012123, -0.4420642352355342, 0.22237255229796324, -1.0845473207976997, -1.0730435456006624, 0.2506497648900966, 0.019158315863325264, -1.157485255441501, 1.4015319871585603, 0.12272022222681668, 2.315881016638876, -1.2854785061028382, 1.4919503188800705, 0.4064816314598342, 1.7665023284707817, -1.8624225226939868, 0.5922776474041342, -0.19077185680469483, -0.2676865809499937, -0.814762800628584, 0.7198646709752962, 0.21048536891986033, -1.171232784741699, -0.018738790189780433, -0.9228110227128541, 0.17503055384023278, 0.8934716735941003, -0.7092512178669826, -1.5403935535025488, -2.5233149121882454, -1.6020906604775846, -0.02716542276882806, 0.8511141475856016, -0.7106787532535538, -1.040869289405011, 0.13125657646922198, 1.2308208750739518, 0.23091221108578858, -0.8951815692777382, -0.7344739470229613, 0.9569938797540128, -0.7577684391291134, 0.7913969184855923, -1.0382203360262083, -0.8208374764103323, -1.7606762299663632, -0.640062999939846, -1.0813533557876822, -1.3834149774807656, -1.435380822983788, -0.6721479408067561, 0.900501263651497, -2.263636827462457, -1.1711506916335015, 0.8606462331972023, -0.21159151863038186, 0.6328199527962323, 0.13607803291966744, 0.5259429533656221, -1.1603163754670542, 0.6022496396163249, 0.15997964467530787, 0.239208314206118, -0.361468708340008, -0.7486605476853663, -0.0255852359578913, 0.06538081478299917, 1.127925091413944, 2.8497930455780027, 0.6907088449716579, 1.0074959424509071, -2.687848261056213, 1.187744997384577, 0.020088852472769272, -0.4312064847215372, 0.8243186177754837, 0.7996658115468792, -0.47198674838767224, -1.175986817884361, -0.22610229998044143, 0.6376734403049047, 0.10953934722572538, -0.6703513642701215, 0.5526064413991933, -0.9890246314561781, 1.6092170394237515, -0.5261882500930295, -0.06721277656137925, 0.18254072849322053, 0.5826371682807371, 1.1067930629356448, -0.317962801655112, -0.5848479186130445, -1.2374286239423717, -0.8307114642083457, 0.21319887033726298, -0.1833540649195675, 0.32715744640871997], [-2.0281019824031428, -0.288787519274491, -1.2678453918769843, -0.5298199940990352, -1.4138793803597296, -0.8969480870234438, 0.0663473566598423, -0.1595016076128152, 1.3069733913688917, -0.9056501764758893, 1.6504820385326824, 0.5505105266544341, 1.0135407076927687, -1.865564498282477, -0.6369024399423651, -1.1386646517417287, 0.11609497058103949, -1.0383754805914505, 0.20397309171170552, 0.01009185055766959, -1.8367467302307119, 0.11972332120708515, 0.5766228152547945, -0.8029345895480071, 0.4568090764510289, -1.1632225241278165, 1.0633938238282237, 1.0997335664166648, 0.1897474119214014, 1.4098314996412233, 1.1940556459024088, 0.5530750462190461, -0.02218105609231914, 0.8606331937604029, -1.0846333940275241, 0.8574249023253632, 0.6837158018786028, -0.15798485726248923, 0.08617159240971832, -0.282801041330637, -0.1613139273002614, -0.6460273585977766, 0.8696065036328159, -1.3621454260277392, 1.9834776118056543, -0.47044095484854775, -1.0044570588553234, -2.264941994852052, -0.4543614649358464, 2.1343468293947376, -0.005193553303144419, 0.028407706425858232, -1.1331139075970535, -0.2886605470646262, -0.6747647725190848, -0.28710759900857985, 0.10918812271868003, 0.47356574858416345, 0.007908915888167967, 0.3553792165904615, -2.52219391781552, 0.8277767658620532, -2.2550196144238672, 0.5558362632540229, -0.6040662750052525, 1.720822208202051, 0.34100617567113756, 1.1306283474354384, 1.8645174184714621, -0.7328736075266301, 1.2625621530315587, -0.003058161686166999, -1.4290115385457736, -0.15487866008798465, 1.0128668302252555, 0.8302331725634728, -0.3211241479251558, -0.20994924315057117, 0.763689820934532, -0.7932514412129599, -0.6353230519275652, 0.9503952375456601, -0.8976434295955309, 0.06547465250175977, 1.2366286557146449, 1.1185526273435173, -0.6843639997970222, -0.2690104984889511, -0.09362064607608568, 0.6520884885118678, -1.115740378471131, 2.96705860766589, 0.32502408877180106, 1.232114798709296, 0.2702564598970547, 0.8669737471876751, -0.7622825039838986, 0.3907858694661182, -0.587583053634882, 0.3201933668712267, -0.5203764639679017, -0.49419228048598357, 0.29739967099549736, 0.905533384169237, 2.4653269425932627, -0.3845552151923645, -0.42339958215804585, -1.281031391201219, -0.3816182819954104, 1.2380003490594014, 1.7992098818004651, -0.0663153308169456, -1.5703000452628797, 0.117206845799634, 0.31925008491024415, -0.38188113004484836, 0.0872504585214492, -1.9856436453117075, 0.8388363064006324, 0.19220028181685317, -1.9524293185596433, -0.9138149342420001, 0.6879471562368193, -0.8171670805773046, 1.069502066456294, -0.5576966677742085, -1.6985615477075893, 1.94896892025081, -0.16816576793467003, -0.16730520760974552, 0.36764750641448496, -0.8267512406957493, 1.053124782819772, -0.605519142579919, -0.3937501650027109, 1.1709358486996273, 1.4171379048682329, -0.22300174246824084, -1.9477340072021698, -0.5870846660029079, -0.166244279469982, 0.20315943240397155, -1.36257903275867, -0.1891302363281977, -1.217916861791769, -0.1705287042583026, -0.8088605931155408, 1.2181094466224018, 1.5561621502466485, -0.8384334320974115, -0.19635842997061442, 0.8248280927872708, 0.9081406381143848, -0.8690512064926357, -0.4294811750665203, 0.16833560230567265, -0.005228310413228287, -0.14104070764175805, -0.7845145756378845, -2.0422925006481067, -1.4645735651592315, -1.147241804491787, -0.5209813988845579, -1.473324367896152, 0.39542644488722883, -2.03154821496283, -0.5388840940492564, 2.3045011396953905, 1.3257015532997591, 1.397769819290099, 0.9285180030044049, -0.6452610740308672, -1.6184342290430045, -0.34860931706277615, -0.9690210483049762, 1.2166269996762065, 1.0219095304710477, 0.2174756364495537, 0.351438503875741, 0.013705064361220386, -2.575485290638376, -0.950433112715239, -1.3227216053566762, -1.563078117367966, 0.6823180865596861, -0.2150842880869457, 0.2097849386946038, 0.9797175141334226, -0.2938716065319118, -0.6309703714832013, -0.6118090410816844, -0.38232091637554105, -1.2934988897164525, 0.40023064788917156, -0.8808326680118874, -2.185136726310491, 1.3634817834548332, 0.7366415351422476, -0.3309784068128848, 1.3369307206438201, -1.5124771883893617, -0.5897801770677858, -0.8274303106672668, 0.38190666851008365, -1.0743576180600074, 1.4707122290287393, -1.0822654413566963, -1.427798508024054, -0.7017640794286374, -0.1339836810130194, 0.37238373960269977, -0.42655701019601155, 0.2465090949326301, -1.8964629587824624, -0.21250531824019975, 0.29529196843188943, 0.16110959554593549, -1.2233843786130225, 0.873064391723028, 0.7916350869734612, 0.5409107283831162, 0.5531623236750194, -0.8350238763129356, -1.1320935366855096, -0.06465602011758818, -0.438527731259526, 0.6903578994932184, -0.2758531862114796, -0.9944925587339749, 0.4143211898330548, 0.2891483887588578, 1.5280924301853007, 0.019680364849652143, 0.44226401757571965, 3.7693608753109387, 1.135239716248865, -1.2610904082869698, 2.630369644517176, 1.0110560175244379, 1.5678308722322907, 0.7074134087478242, 1.915659150607059, -0.43065828037236337, -1.1659186257290428, 0.31898926494223845, 0.9398388439288344, 1.5560315168858971, 1.3274170083516834, 0.44412613798063355, -0.11824114979522866, 1.207888749168851, -1.0257425858179285, -0.5332348808073403, -1.3331326695564398, 0.42257222302280195, 1.8674013553594644, -0.3223740655515418, -0.8023536335640014, 0.7378441237706549, -0.4929795663432067, 0.73839326496887, -1.7712457671144963, 0.9934527715067948, -3.2898814442380533, 0.7233488529631947, -1.8345373859280107, -0.5416028491157387, -1.216305221462728, -0.03658012598329559, -1.10405555218415, -0.18452837210489073, -0.15433218904886883, 0.4766353697140231, 1.048373873383626, -0.44035763131195854, 0.6009827458771797, -1.85345379704556, 1.7864563602931747, -0.9993730022124143, 0.6584396612591082, -2.4736933744766314, 0.22558853323693495, -1.3330045160895885, 0.2682278129149794, -1.237666004028446, 1.4122968473483235, 0.7694984109467498, 0.5876036827530079, -0.7583916632599607, 0.8441159665063482, 0.13293150462451647, -0.4079814163771878, 0.21571322185979705, -1.9799172790264579, 0.42192304655795404, -0.4260212713954985, 0.3562222081650232, 1.0231141582062122, -0.1716444101580732, 1.0360295840318645, -0.6028977074133202, 0.7907588765250517, -0.2449411364607012, -2.5284415287838256, 0.48987688805900625, -0.05447157624655676, -0.1695894394934323, 0.4307990179104768, 0.8518598073271831, -0.05357898478934453, -0.5457875699071357, 0.5258200050494316, 0.2521867995636763, 0.5728800197670145, -1.544128312441765, 0.6340517939687682, 1.167608957735281, 0.8827411776931372, -1.072322663036135, 0.3444934825677717, -1.296803103180136, 0.07597239296048834, -0.38576771087203127, -1.0897813643351222, -1.6781406827405938, -0.9513717737944397, -0.18658217087956272, -1.0747293828170492, 0.7502416947488612, -1.7598176810936355, 0.3098085439275726, -0.012844068595683125, -1.3064420996366795, 0.9047207595668392, -0.21700940714239644, 0.8743341592866972, -0.18041097154573812, 0.7395566969612948, 0.22619052035954115, 0.10982358712069555, -1.6205619033798362, 0.14664232587631912, -0.16636704338511502, 0.8499535835129367, -0.6739474453481309, -2.0965098728565095, -1.673002905799489, 1.7708793994758754, -0.3117369491661052, -0.8347773018819894, 1.8639267865168776, 0.5220416274486533, -0.754349562491855, 2.298534634403651, -1.7708971630509243, -1.4378594534891276, -1.1882727119692906, 0.3086735085576608, -1.7177742685697066, 0.08226211210418737, -2.1684601487235873, 0.4009652469656657, -0.5430554694119427, 1.3928177475794419, 0.11662659480783434, 0.8708256293691722, 0.7999208586125507, -0.35515824003686286, 0.8851531250557144, 1.6737968920371333, -0.5137890745738503, -0.0930613142179028, 0.12100354133843153, 1.4302763317833924, 0.8799885756278316, -1.1394117416959977, 2.079240991668823, 1.3981944626013436, -0.23209388379355286, 0.20967333270077007, 0.15800326167678005, 1.5952271154237152, 0.307759577161948, 0.6870611826518778, -0.8113717991164427, -0.39914746768423026, -0.6656521166051236, 0.3462656367432499, -0.7375735580014013, -0.6133542987089707, 0.6165796724392388, 2.1958165761974207, -0.0706814475975813, 1.669942598997731, 0.4637161324767868, -0.6250249643062765, 0.03306426480562155, 0.15061254126616003, -0.039740043872896647, -0.003151240506061916], [-1.0840548496080782, 1.7974623222862178, 0.29081730077816653, -0.9557750667234984, 1.5665240215773855, -1.3637057736260587, 1.1034604556358996, 0.7251966147671733, 0.4372658848100208, 1.4247919851662363, 0.5192118939684305, -0.668976297156423, 0.02333863314920094, 0.6043712360968868, 1.067447026982932, -2.772568387150497, -0.17992424797471215, -0.24693751027654243, 0.48567296606327715, 1.1562376573204416, -1.4689005181675332, -1.0885616615429394, 0.5473114396994223, 0.7385499817638892, 0.9401197451557868, 1.8784303260767852, 0.6015936538446481, 0.2519685931720976, -1.3586636590686045, -0.7219873193904398, -0.2984803781852586, 0.8653403712213324, -1.0074444659147892, -1.438033070892974, 1.6927584797182798, -1.0137063987000792, -0.20914386665011248, 0.5966617573470547, -0.12480329038407605, -0.9513853426746348, -1.703536111060465, -0.17726013136305618, -0.42907094718629485, 0.30470303182065406, -0.30168844867758055, -0.6127097755089015, 0.8978175896354179, 0.14451562756456623, 0.3641645427374367, 0.7662683629812308, -0.4677391796280452, -0.2256664175588747, -1.0234830568919078, 1.317135240393263, -0.8412449144896067, -0.9506130583752017, -0.6333509633322725, -0.766553435525723, -1.1991493194292417, 1.13518968217277, 1.1856969226320881, 0.3083059643321321, 0.6461598950266196, -0.5693014577255913, -0.22524057997950805, 0.2043593818876308, 1.0504828684903529, 1.7662559157957007, -0.4065801971908711, -0.12933981530406294, 0.46463948967209545, -0.016567438446562076, 1.2704712098049327, 1.585608888557766, -0.4763850624028801, 0.987848343784231, 0.028571842836257754, -1.7833052882664688, 0.15133332804783833, 1.5678423201456981, -0.0059292451819415405, -0.8187275842118326, -1.3345386973300701, -0.004257186523191538, 0.584098274735148, 0.20548903687687073, 0.3079126889533388, -0.4138139167730348, 1.2741781912359396, 1.2378067606475012, -0.007282221794508736, -1.251944225751132, 0.5816877993449681, 0.32982314028659054, -1.2084313405699785, -1.346954044009042, -1.5335955374140395, -0.36925246292130615, 0.8309664282598593, 0.10518917234895324, 0.24140873264765905, -1.4224762072273645, -1.0723411991277538, 3.815477838953807, -0.5600068335960685, 0.3866299571515854, 1.297086352783126, 1.1356447057592172, 1.733781066145198, -0.021496186198671212, 0.13514703862506064, 1.3590317081156982, -0.1927270502162531, 0.6797058011051696, -1.0354711099329579, -1.698850514193001, 0.4787683531000898, 0.9365847202348143, 0.042014194915767425, 0.15548756876035205, 2.5860597328618384, -0.7997571487030575, 0.5233133991942926, -1.8678126502323351, -0.09164150753268813, -1.2074491795473268, -0.08271582781434478, -1.054511036303442, -1.5748278361918957, 2.180809507925403, -0.9162670467621808, -0.4408287226646946, 1.2256806833146126, 1.3813701610895037, -0.7062603777933694, -0.5180502729214308, -0.04478518921187849, -0.8503404428141598, 0.40032188577291405, 0.5173983695534803, -0.14617476789241282, 0.04570245016330154, 0.4682941504358899, -0.8450774672063606, 0.24536805344285995, 0.7657635569595949, 0.4761881319956612, -1.1206149916754804, 0.2658813546156135, -0.12394713059560987, -0.7300577372931033, 0.7107869503161812, 0.0291614113960951, -0.3478359138280332, 0.9329386571087549, -1.1838757220945546, -0.4494166323569196, 0.0987324022415909, 1.0948438846139177, 1.4270301312856348, 1.4136666965309705, 0.8680872550392745, 0.20668964764646316, -0.20777379725237716, -0.01841395085566548, 0.10889406471621661, -0.6005792697638035, 0.5404250027169449, -0.058029965711987076, 1.4132222306178472, -0.2522640334342895, 0.8569500131588118, -0.8598740232982846, -0.6459616906229927, -1.5931770805892558, 0.7645588429942267, 0.7526387676484438, 0.5136088148716408, -0.2769762806874159, -0.5208985276761724, 0.42212389920133936, -0.7024973225396249, 0.8601730116251821, 0.2092540050544378, 0.2733152664290403, -0.7471586139910169, -0.08352219150240137, -0.5177848422571573, 0.5216621895286966, 0.8822851377711007, 0.03811112226619477, 0.5441430516695844, 1.2950843392956937, 0.287664424189044, -0.4677604808466302, 0.07614413018985247, -1.0610650168349018, 0.12647240171902036, -0.08024054761209645, 0.32977457976770314, 0.3084707202224769, -0.15898368743117222, -1.4330340924819869, -1.0193497450189424, 0.4321438229822667, -1.5936807651575031, 0.07604253744978155, 0.19961773066163993, -0.034392438545017494, -2.12200548643378, -0.8006918381146988, -1.211068749929556, -0.9562038632151265, 0.6146070046231247, 0.46950550626543913, -0.7035080069856968, 0.003865449948007576, -0.05904433964407704, -0.2058164611890624, 0.5673331936920939, 0.6793775006698322, -0.14415850770669356, -0.8079732827022531, -1.07430618353899, -0.9988694043061921, 0.0708058965956901, 0.38811236040880076, -0.03780213650338884, 0.7646405401939468, -0.9595763388810294, 2.336067254343993, -0.8185046525003092, 0.15581068706516704, 0.8420522657532703, -0.6651452751543131, -1.9422630378115922, 0.9297427144465283, 0.0923620207984619, -0.7303993221328754, -1.3369476038005808, -0.014523333456983232, 1.409005251763992, -2.304359580750926, 0.30899764446086586, 0.5118563556775041, 0.18536443760974067, -0.03777042128582577, 2.211017724356721, -0.1425509980069947, -0.8915865922508922, 1.0011571281139269, -0.036029654731643455, -0.19949176144553418, 1.1545237123301533, -0.18789956869287533, -2.414437076211946, 0.508300575939606, 0.959400082736174, -0.49115815051824613, 0.048318837133958806, 0.5112321564156096, -2.2857348991213224, -0.2107100147336456, 0.39905170578565874, -1.1487597609348092, -0.2916455806190172, -1.485650243434687, 0.5017446313240177, -0.4496668599211929, -1.128783142663857, -1.9124305153758865, -0.9721956235952618, 2.021698122337752, -0.1543819398658408, -1.7266831047803632, 1.0320584550817589, 0.8091095753469156, -0.23556794078945995, -0.720298654125318, -0.8065391986406281, -1.9919236357282006, -0.28296746292773056, -2.0869725130261454, -0.49709435561418325, -1.0677225406178166, 1.1334224727154227, -0.4639106656391176, 1.0369366556601425, 1.1043084908131564, 0.2411911195998401, -0.9640850989613059, 0.6906700125413091, -0.9373901592444344, -1.4243750637318293, 0.6284744822693765, 1.4890735534091861, -0.10164607904243092, -0.3509296622096207, 0.657594463117672, -0.4960276094858606, -0.2986239413890162, -0.15014263862507995, 0.3184003195570422, 0.8356230191170175, -1.1441431183399218, -0.7853248229436808, 1.180990836798511, -0.6941237377450771, -0.1893622369380283, -0.3954950397046199, 0.23678088731414737, 0.6674051237653477, 1.092494606477175, 1.5294649533266844, -0.36555661373725323, -0.4735036317626724, 1.2700057913408656, -0.4477428741228934, 0.5474408773154772, -0.27934519389915974, -0.12358050985947253, 0.5451286540754248, -0.06692729289440691, -0.8691502476679717, 0.6866552339230129, -0.9144280747435072, -1.100173425268699, -0.5367403518163846, -0.39345629188100223, -0.5842102327725719, -1.5327329692980498, -1.3037642394797724, -1.4812929667609427, 1.118954213486837, -0.3318781198462785, -1.13234187855794, 1.4778313776890106, 0.08530523602778659, -0.31256979225662057, 0.4895440000459856, 0.5513251622693667, 0.1608242660292272, -0.12950993636669622, -0.769596683760437, -1.522244004369002, -0.656474282376375, -1.8486077902450853, 0.9691190875919764, -0.6662798399839853, 0.9894283493688927, -0.34756504685721434, -0.18415129634849323, 0.21817784478040972, 0.5865089201914004, 0.25603435540700614, 0.4169190838898699, 0.06211601972987483, -0.543987022480809, 1.4354033271190734, -2.3636541875396353, -0.7224367557832794, -0.8236953433847699, -1.071409431522555, 1.3140063797057409, 1.9638558472088947, -1.8706339657702953, 1.0919018236823739, -1.2073336658139593, 0.17681582294139567, -1.220587249676132, -1.2345483468746292, -1.4155443261526544, -1.3330039665169289, -0.08671890636101139, -0.16215862978374654, 0.002001725335870716, 0.9476682724085744, -0.8925812109297248, -0.2221166323115991, 0.5272043356185705, -0.66139024605307, -1.6826148391747822, 0.7606697830462157, -2.8768157463623467, 1.6651735570677895, -0.9314673863413724, -1.5531542743683568, 0.5154299942553002, -0.976695975192571, 0.08167670655982658, -0.17157486818780415, 2.243178789963531, -0.5095594378346767, 0.19655033713479927, -0.6092377170137975, 1.009096997650907, -0.5593741845252094, 0.46558789217480395, -0.19423115707581967, 0.8151712338737103], [-1.8220296832387577, -0.21494697633166093, -0.3953888063270796, -0.3595595774694534, 0.9085032041029358, -1.5275868690463044, -1.128596386759989, 0.4920859543871804, -0.15145604011850222, -0.2610539271391021, -0.8084895158645025, -1.3482113607125, -1.0905845960414855, -0.7308753411140694, 0.8475783962106475, 0.16960485711711748, -0.286182332673424, -0.11802527934516396, 0.6664484107359897, 0.9247237852605121, 0.4036695593326762, -1.0350306226840802, 2.360039198825975, -0.007264473218046029, -0.5806766009588775, 1.0686629187218464, 0.0736559379508941, 1.444482980836486, -2.6968180207869015, -0.581325971597782, 0.21821785133474783, 0.09512063693929983, -0.7956907247113587, 1.3777432556004994, -0.09697393257752797, 0.5095181448762899, -1.298117940758298, 1.4118388271893745, -1.4189339266765861, 0.9098288374331808, 0.7420054849274186, -1.8356332659907078, -0.4811913018935571, -1.7038225662797635, -0.30112009503397974, 1.0019678966876266, 0.5171608524278223, 0.6857664127336223, 0.1847744058207043, -0.6433969572941503, 0.48952028073156134, -0.5697141251225066, -0.761660527250101, 0.4299018720530604, 0.10556845599861325, -0.24110495226035597, -0.5783606400648864, 1.688103938238036, -1.3776649550222686, 0.8489700516775645, -0.09103799409689525, -0.25168167923346935, -0.17086165948465937, -1.4148906932031262, 0.8441022920239505, 0.16390846307785337, -0.37686270116185766, -0.7256654044882141, -0.7521299484549562, 1.4299219581216898, 0.7109849836782434, 0.4822495269884164, 0.7918685455795179, 0.4712378469401067, 0.4792762687145153, -0.5186853244920114, 2.0007985491065474, 0.01138459133809779, 1.8643849368973637, -0.9482836145212694, 0.24625342490898686, -0.02659933406576778, -0.2750505082489774, -0.7248631757619878, -2.7456717977724314, 0.6645340002151887, -2.0079299778677373, 2.4709731606108476, 1.1477297145754402, -0.14391042015950328, 1.541790013157531, 0.6558516943392522, 1.808013876911203, 0.010972989011356413, 0.5612974776473472, -1.014100173880696, -1.314847799274322, -1.1309606384210125, -0.4357947161293654, -1.0827869591281858, -0.6074399611635425, 1.2203700277731229, -0.1166491597549945, -0.22838994184476866, -1.3621229410763178, 0.591768556742137, 0.6338629146374374, -0.06869078253649458, -1.9270063087614697, -0.44994620252668177, 0.5020859171644064, 0.4480265186790738, 0.42263513117520773, 0.05707906208672105, 1.16749237440683, 1.8634603041041866, 0.4629080142157738, 0.388662105583219, 0.4406219625253351, 0.2622365209534244, 0.09628055943978164, -1.2440237378960053, 0.647526126292845, 0.1738149745357498, 0.21211043416178801, 1.7214807664760914, 0.28294827784251236, -0.23585687470299943, 0.39217183569424496, -1.6482180696458755, -0.8821662447239873, -0.6711408812725111, -0.7747428728316865, 1.3167173518752424, 0.7509288190694919, -0.43130674050726775, 0.7863058090920738, 0.611573432449914, 0.6923210274400028, 0.44120790339930016, -2.08831234921988, 0.24025602263219728, -0.13220614406833323, -0.3210684125930446, 0.6136846290574317, 0.6362546124323554, -0.6195140859202704, -1.0707518001508047, -2.1598598946963885, -1.2185290992584472, -0.7221562010930118, 1.1944410306961857, -0.765117740298635, -0.22887255287470643, 2.2834185705954817, 0.3916966888221926, 0.6735032635449882, -0.45821844476129936, -1.027679577339592, 0.510956056399295, -0.9549013138635357, 0.8397032412749132, -1.1000437532055651, -0.29064527474562446, -0.675414264250537, 1.416713227325517, -0.48907029022438636, 0.698354811545944, -0.19061551883994943, -0.6014992151317413, 0.45091316151804, -0.6669911074459055, 0.4618838403066778, -0.967152675146884, -1.0236665895957766, -0.559456324099386, -0.6773074689148236, 2.403642148081461, 0.013083862661929053, -1.4823047080603484, 0.03552264493953216, -1.709436200946029, 0.9559515072650818, -0.05096052874648427, -0.7589065718549891, 0.12440447835757193, 1.46147049544758, -1.2050623855205498, 2.839050686048038, 0.011200873339199318, -1.3979516150606137, 0.4645054121749449, 0.6230397333747857, 0.47660622812195363, 1.004854177777735, -2.2857986513388626, -0.11116449883050995, -0.30786608695191015, -0.32812747198971226, -0.8064294556898809, 0.5806253371508895, 0.21261059851393915, -1.149176079110747, 1.0654613234706567, -0.6948223269458061, -0.13317835471262648, 0.26314894542231265, -0.01872212069240855, -0.37609243021613675, 0.6189571389580036, 0.04801438777171444, -0.23420496332819882, 0.2635466904081237, 1.3141759293380708, -0.6271813268256637, 1.3202934717996193, 0.02043032609538131, -1.2899711224779618, 0.4563957911736944, -0.19744555091328922, 0.44434861617273397, 0.510584151782988, 0.3240839199585993, 0.6068043534635353, 0.8698657037827826, 2.808037580589471, 0.4506933812744759, 0.8070980420753692, -1.9099422721617918, 2.276168961958629, -0.6904625439644673, -0.1985605299326051, -0.015433955075416735, -0.5946236760627778, 1.2764048915212356, -0.01614598384812358, -0.9374326427120534, -1.4699897254122136, -1.8466227205200492, -0.21341220672094094, -1.0831690964839167, 0.2872650941331428, -0.06529637169168419, 0.9596939710359965, -0.5125524240466032, 0.6094386571859333, -1.7980552671675418, 0.5219028747742009, -1.2245727493370369, 0.5411570500464629, -1.0855226435966823, -0.856769707656801, 0.2444717589519725, -1.3194702179587787, -0.5063998600029996, 0.1978744123365149, -0.49380461280488774, 0.1371310245863252, -1.6088341770247196, 1.20711052442612, -0.3649383458869891, -0.9586289236332219, -0.5143705488664018, -0.10653710193014339, -0.39787553981045704, 0.36441010814111874, 1.393051613524008, 0.3616153421972974, 0.4545990827623994, -0.6027506576602951, -1.7157569567369322, 1.0018013253996203, 0.19907435473166135, -1.2509088356733598, -0.41413440585962813, 0.19343665576215124, 0.4653430808448171, 1.5507799612166822, -0.4280887112750996, 0.3621040760436974, -0.21799328467803972, -2.047162530078076, -1.235608081567658, 0.23292960740450974, 0.30027611832949874, 0.331732783765704, 1.24899747456821, -0.6933654274817304, -0.2711490533915787, -1.431628421122342, 0.38506822598461565, -0.11504289085846311, -0.9649444009862669, 1.2909341123826543, -0.4975218823362981, 0.008788945439877942, -0.3750293389034634, -0.7452310968099057, 1.8574622928123996, -0.1378450369654256, 1.3583343078441306, 0.6369282573210567, -0.0545306842920261, 1.102980776452867, -1.4234514562375238, -0.3227503043096231, -1.1875335187080294, 1.6993708534980545, 0.7951229651833754, -0.5982945162282277, -0.6966462478563653, -0.2888983159605064, 0.10231757935413051, 0.03339561996516046, 0.1336124077383687, -0.4603288182456563, 1.8705026053754854, -0.7767533704183602, 0.08031044255511634, 0.31833103871672147, -1.4864082765340554, -0.41275754910128626, 0.8171512287390843, -0.4996050741895484, 2.120007306525486, 0.5403918671101711, 0.7459590900839124, -0.1345471853454522, 0.004899432764160996, -2.0657104713497776, 0.21780768540385553, 0.2905249836507828, 0.8336485379614892, -0.8650256621070802, 0.9947200050335453, -0.4096678234889635, 1.0310422268560888, -0.8714338270660145, 0.24670137262373382, 0.7645394468366923, -1.0776670924664888, 0.23679681192496177, -0.6350184587237853, -0.25099218958493524, -1.290776543318758, -0.4056675761828567, -0.505545879098645, -0.3518841197537474, -0.3611748115864292, 1.0883684994893346, -1.2478644774616319, 1.2555647020367897, -1.164671774825061, -0.24523383721423905, 0.25183187597476353, 0.48378182589682, 0.37001265776351266, -1.0074074155558161, -1.5932051418821487, -0.7564387826483021, 0.4614816213914727, -0.53455527592435, -1.9442576098743276, -2.4245534370922353, -0.005273737254938381, 0.17910896019642406, -0.6005453871523737, 1.790558091500028, 0.41858060735408226, -0.3839859758333348, -0.1024436117054361, -2.7791437489889037, -0.5731230969771253, -0.9996596019759285, -0.742459026059825, 1.5711290536351692, -0.45293031128129313, -2.4661114777577438, -0.08101432201751538, 0.5583412689341665, 1.8841173890203158, 1.878256703244599, 1.3732095199163923, -2.2595919709970134, 1.5913069696154165, -1.9133874046104347, -0.849452096549957, -0.1455720209846926, -1.773905017225565, 0.0031505550512418872, -1.331212353398981, 0.8071667505626786, 0.04865529407165144, 0.4238415233636993, -0.37231598994779513, 0.8140478627175652, 0.7368529972342871, 1.0570728262395503, -0.20829551536231386, 0.022129073312742643], [1.175954655594154, -0.907147433105578, 0.9314779139505729, 0.6608832811206069, 0.6750229039304325, 0.3010490342063529, 0.04762355803257379, -0.7962783027184089, -0.7100171714311262, 0.7543930222111078, -1.020982819937444, 0.02300902732479336, -0.47483065827053467, 0.8244553348509278, -0.859476785026267, 2.3466342447159456, 1.395731092939941, -1.1092699932285701, -0.28744758998238606, -0.23659785681042292, -1.3397329905286763, 0.19247422398330388, 2.156630855469065, 1.0110617269324003, 1.7620487397048465, 0.044726354801421585, 1.3070030952860292, -0.6774054064249923, 1.2941952730025565, 0.7324523174872788, 1.289051019954625, -0.3829444105237374, 0.23140880826214852, 0.35474173289977395, 1.3391254109173398, -0.29879375433354605, 0.1028176761062771, -0.19245837182450257, -1.036791547809427, 0.5204240964877295, 0.5099560827979833, 0.29220096634154463, -1.1964724420901383, 0.24436594354840446, -1.8020021447143717, -0.26181682818956437, 0.47560022320966666, -0.8486605598481901, -0.8923840044118879, 0.656197404303737, 0.5361064107341676, -0.23606740803750428, 2.0470761213152553, 1.8919761508280821, 1.4626603613927516, -0.3880190748207766, 0.9375978004177203, -0.24266562491459476, 1.0030090415341149, -2.4179965650531408, 1.190213387613003, -1.7682680648899742, -1.870078842237612, -0.22135860864002066, 1.199625018457446, 0.766805352461976, 0.331039710338354, 0.33651275129341474, 1.6434087727802544, -0.8037730731553588, 1.3065766324265593, 1.1935621396189193, -1.3488084773108284, 0.5544885615146303, -0.6244969190940434, -0.39191936787007764, 0.7221259307042979, 0.8590284500195422, -0.8131557058909356, 0.9848761653028464, 0.34262985522775563, -1.0960917264535617, -1.1373817473758654, 0.24082440433678398, -1.8385754925132987, -1.9176942511580515, 0.037210323800762016, 0.11709105277522361, -1.271189504239473, 1.3068567670706603, -1.4180213708330431, 0.5113768789591906, 1.574116846423171, -1.6973433248640346, -0.7651898537434874, 0.5210154210137301, -0.9295875333630131, 1.6596595203955629, 0.2885410245219794, -1.4551659045066982, 0.9534061496862204, -0.6569605670625962, -0.6506042232397651, 0.005337222394278406, 0.24542655335522542, -1.1234013682522992, 1.036531258779403, -0.9615428521354705, -0.4791765085402537, -0.09849866252936626, -0.47758232843813486, -1.1261193152840236, -0.2473195022071434, -0.15303571166248092, 0.20126093386748398, -0.395246072289631, 0.4072403262153984, -0.3420516310583933, -0.9938615272180383, -0.37616411383113735, -1.2117408678676311, 0.8246426959507132, 0.8714938001282947, 1.4201992127457577, 0.4516542984801506, 0.262765569746813, -0.16183565892963633, 2.3455399012595453, 0.5717706182865782, -0.06578712514992395, -0.76382463345226, 0.07448988089406855, -1.2588771071864688, 2.646621449770648, 0.5304030437031733, 0.061770688006439235, 1.044354825250488, -1.0448682305187906, 0.6505179351701139, 1.4871026358034558, 1.0116556678355912, -1.0235948891056916, -0.043539584967782013, 0.08461748054042226, 0.1582439808761855, -0.762227993892955, -1.3357325491781837, 2.2919715187282796, 2.36598352980172, 2.1494260609461056, 0.6218250621511507, -0.2135969771382919, 0.35101110328550816, 0.7164864951938, -0.21584391821473073, 0.4996205894624902, 0.2307711878649699, -0.14750345593704034, 0.25048043005727155, 0.31930694106361546, -0.30297933042330105, -0.04610858136383638, 0.6797679761180542, 2.0282958656432566, -0.07767132200414897, 2.030991711785787, 1.1170378457993646, 0.1745353412346925, 0.10301701770384597, -0.20158068630126186, 0.4129306429259911, 0.17213964064569984, 0.7555619958432728, 0.36449818935167616, -0.701871423192769, -1.462577507295509, -0.3374530603624232, 1.1046750248206945, 0.5462742626666148, 0.7065640632954602, -0.4868493159471651, -0.6812713489599378, 2.1347388543446693, -1.2494279017895051, 1.0005157422576203, 1.3997835238985017, -1.144128556921454, 0.08532086899289146, 1.1857071135309456, 1.087745388150712, 2.402319983508691, -0.5074644345665748, 0.47866551836823773, 1.5041571846703867, -1.1519126104440887, 2.92662790219936, 0.5726344202144287, 0.9887289883644799, 2.0179362143329147, 0.9285196463860461, -0.39793699928377524, -0.6853183939144546, -0.32233472796015633, 1.0530676949681705, 0.4793452491474324, 1.6128893969801839, -2.0107651685930437, -0.7209915586077528, 0.4591846752551826, -1.4961724789184374, -0.9748072394226797, 1.4343346654463205, 0.7852863043748244, 1.5490009322427376, 0.6056563045636572, -0.21842293424670692, -0.7699990336682192, 0.5346950475592738, 0.8284979683500505, -1.064379701987004, -0.20840758742846596, -1.194214593878863, 0.4431339396770665, 2.027723225996581, 1.5950823013317676, -0.41295698359418676, -1.6008371412056275, -1.3711395152712336, 0.42067828374919497, -0.029188675651615197, -1.755697534626601, 0.9924421120113758, 0.2061828465387344, -0.7441105202855635, 0.9914977084867544, -0.44102047139998957, 0.0037725741734344733, 1.351536720976086, 0.8990693708567649, -0.9841335399070126, 1.4235987063440074, 1.0061976716189076, -0.7946464764390851, 1.5111910739867886, 0.7044013998923766, 1.456986907516595, 1.3320824835197977, -0.6516730547806722, -0.8645749732992992, -0.40880529407900107, 0.5743840507993665, -0.891815088998515, 0.8133032915852983, 1.2772161256787735, -0.7131287060024751, -1.0860335083905646, 0.5145259495261515, 1.9093772557519963, -1.3177235271381291, 1.4732977313046822, 0.9291872612525609, 0.015656828137773256, -1.3182830270242256, -1.5638895737778735, -1.119039892879706, -0.1961881213326853, 1.4313002314489518, 0.8408735674834387, -1.1850513113753338, -0.06834193807326445, -0.42645608698049486, 1.35360282279846, 0.10177516530571264, -0.8171420427267699, 0.7707411854802854, 1.0111907614114048, 0.991956254157608, -0.9608575409446402, 0.5454050586104533, -0.4522332490506149, -1.0971621078895197, 0.2090886032361173, 0.5879339574249041, 0.14232123766313662, -0.5997908574201027, -0.8876456758294516, 0.5124459237741092, 1.562511144177533, -1.256197371617467, 0.5655350207029756, -0.02459143799875705, -2.352927083238386, 0.23038699634832038, -0.9231783846809988, -0.2562721358971318, 0.10281257086117822, 0.24786113030099602, 1.384248756995667, 0.540720938581459, 0.681674066561535, -0.10151306421096414, -0.2932061455559266, 0.5321822203274181, -1.7248521427038577, -0.14564656692049116, -0.34859632087026804, 0.39204329612220296, 1.0600876334419345, -0.8783497014848082, 0.42713806120510295, -0.04035380539676688, -0.6376889652162305, -0.15042887288280682, 0.4647842254919177, -1.7798243296285388, 0.2706625930367685, -1.6903167704087545, -0.7098010822153803, 0.006089121209652932, 1.2530785972215244, -0.731248090063697, -0.6173823580532984, 1.213662141317538, 1.3396250199288058, 1.0589778887627987, 0.4924899041179484, 0.21279187982245004, -0.8660788820436355, -0.6908000013900777, 2.006224263148302, 2.013254798518649, -0.055615128459308716, 0.8569769792328084, 0.6696746428630944, 1.4048404861523234, -2.0158244624119814, 0.059524748906064476, 0.4465483006329703, -0.8819933866949123, -0.9993148413022422, -0.6828036859931939, -2.469501483038128, 0.3145484395327913, 0.9817287369629922, 0.7917094211240002, -1.307957600103128, 1.2049896011633494, 0.012765377463749204, -2.2599255340336875, 0.9704669074815437, -0.4414987085371764, -0.2698303793044458, -0.3316921295335046, 1.9663657998571475, -0.8175122581456851, -1.639174682185768, 0.7332691518570051, 1.0935599046395286, 0.9702430881257037, -0.13178736785107856, -0.8693612455502309, 1.530643315476836, 0.6624425612141899, 1.083462677260102, -0.6356575920165715, -0.413297851154742, -0.46717736185042735, -0.19397630252878678, 1.8736853640620712, 0.9841805092646627, 0.46711170157794396, 1.6395417422534078, 1.8030134083034854, 1.8290701623646242, -0.2855472496862543, 0.13226579863166305, -1.251515819481915, -1.2672989693553722, -0.04115276121519586, 0.5253872800463857, 0.024805742838517515, 0.572385566580497, -1.563494825809718, 0.05209838097334936, -0.22128995179039104, -0.4829861341770508, -1.0310844408222506, -0.35379494391998617, 0.9917840087468337, -0.5252896663816284, -1.593130859614123, 1.0570718612940777, 0.17770157354498012, -0.14533499953511794, 0.41388498967021997, -0.4753756626134307, -0.4667798532943787, -1.7580247390955195, -0.19872194609037916, -0.9987685578411531], [1.9228649416141386, -0.0934684517038379, 0.37683520607660936, 0.8422610589387539, 0.7189663480975889, -0.7497026483186056, -1.2360469713357676, -0.3240917154481319, -0.915056890566066, 2.024704519994552, -0.019780138451759282, -0.10017997241984546, -2.4640630704647295, 0.9829437106285003, 1.1000604503574327, 0.8455607825026524, -0.3020127669350309, -0.17354085292310215, 0.6307775542895682, 0.3816414477735968, 0.20342823533336685, 1.0531327456438881, 1.0608774405779353, 0.27809733994092584, -0.9267973078744872, -0.7080866968807998, 0.8681591424742939, 1.2730267160032245, -0.22057514881606208, 0.8154613768496893, -0.8530889652374075, -0.17991964988398534, -0.5645358111406705, 1.169942752922137, -1.3918693011704086, -0.6076413316869097, -0.9002752980013682, -1.1738945706064918, 0.15126143329664982, -0.7272151342726988, 1.2045140079869694, -1.731937598002588, 0.34032232589371525, -0.5551942707078538, 0.9614256656157022, 0.23008826390828685, 0.40042905271410756, -1.5365121040837961, -1.2836622872505181, -0.08722382969837751, -0.6905870378007918, -0.6274239091760621, 1.1906018881595386, -0.3346556013378982, -0.5255160903958955, 1.103948867618406, 1.3133155250904964, -0.48158806632064005, -1.1637574091528289, 0.5281829352404701, -2.625535051931208, 0.8753819589698272, -1.427589235481999, 0.2442943378384161, -0.029719807361539684, 1.1279643944485522, 0.49896636177665854, 0.5695365920566126, 0.5821033660740266, -0.33548126799645894, -0.7129111840200828, -0.6868421281529752, 0.36659518026294097, -0.2386657361496419, 1.0975246353008707, 0.42649973189888246, 0.10687697894005244, -1.612530266739578, 0.2492698546463924, 1.0311177518524783, 0.1493848308872292, 0.16969338767171718, 0.012184842619636132, 1.0633347391740058, 0.791993458205532, -0.11165499025213386, -0.797618893224608, 0.38961652540316144, 0.01227485069016891, 1.6543174244401222, 0.03732278095629203, -0.2361000928167039, -0.34361300943185064, 0.30311902625849896, -0.6670040563539636, 1.139065720094208, -0.7965372924746141, 0.9162002609090188, -1.3484058178437393, 0.18545653283733501, -0.5231016222493529, -0.520698879011323, 0.32534658105962777, -0.10339941609472651, -0.0020846298069018697, 1.7473768872637994, -0.6652627726807157, 0.7374844058575772, 0.4376977854696669, -0.012302635276341203, -1.4280961329745505, -0.9512681046219069, -0.5304852384222488, 0.9241715605694695, 0.25170220041645963, -0.32182904708765886, -0.34350653553475785, 1.38790299994365, 0.8253710403466882, -0.9010001716329896, 0.4544143451699504, 1.5067441895863165, 0.38706941130104855, -0.5535984961369554, 0.6232520121676518, -0.34323144469659483, -0.44957984801488693, -0.7683472742158193, 1.4609386606800199, -1.5063489730582653, 0.5746658708577415, -0.45629472049022457, -0.5636873379392828, -0.6885080624967286, -0.14236181324229802, -1.2274785390793406, -1.0067365580308076, 1.1700279808569964, -0.7041589374449582, 1.7568633789794543, 1.6015727237935609, -0.21882526013522172, 0.13649031186394264, 0.06663854353964808, 0.7417967746528755, -0.2743080757761872, 1.2024020279655272, -0.28769282211115066, -0.224268396487487, 1.4252975583954464, -1.1654251527011121, 0.19529978593956782, -0.6409239519543862, -0.9510114683633734, -0.26681040882627965, 0.21686878698158357, -1.0718076907028666, -0.0611235775450101, -1.3286919760586793, 2.164579351770653, 0.7993244296768787, 0.6748125923568818, -0.5768068598172351, -0.18423811503311052, 0.15639280912477763, -0.5528168474382942, 0.7184108158795428, -1.242686313306941, -0.7855880287285457, 0.03236142638668776, -1.8197416386687597, -0.9532513886564694, 0.24968704406066192, -0.6744163746129685, 0.1630500994634309, -0.935970639654399, -0.3257547997064703, -0.2732968223293451, -0.9497337700781864, -0.12120798923311765, 0.8079346754848032, 0.6210278384849703, 0.5613515794391606, -0.8249318064169853, -0.0793251507172982, 0.6562291353951059, 1.3530354997829128, -0.3311285228578581, 0.5896957374124031, -0.8168330222809348, -0.3101055152774116, 0.696693233682672, 0.2014329591337721, -0.9135913933760137, 1.382207968850315, -0.0005453608257196122, 0.10206184685508593, 0.7041950740063894, -0.5474718877421033, 1.6424717915844194, 1.0293269919819172, 1.2837561639140977, -0.378798729660528, 0.08850114804889482, 0.4187278218093459, -0.24431024998109466, 1.4859986986539306, -0.21566067993941734, 1.5891589456685467, 0.23660712312630866, -0.5441007447939219, -0.15809423690303936, 0.11573787408490274, -0.2764388954811633, 0.1616669190877715, 0.7332915859365499, -0.43133364025189486, -0.46005853963381477, 0.1010734277538336, -0.3814062776101975, 0.46587431586358363, 1.193642949663798, 0.7697247667503387, 1.9681051513940373, -1.2188958853014962, 0.6871276391413914, 0.6048851063301746, -0.2593058383890137, 0.039914489073915795, 0.03303156556879475, 0.018433710992621973, -2.0400017975766325, 0.04994589238733368, 0.682966350205416, 0.25156704698464943, -1.4783446482633824, -1.2072527467824352, 0.25042032111047446, 0.13560736180692395, -0.058639606938083004, 0.4084014778264116, -0.7899374830173025, 2.92733629565302, -1.0341379019807908, 0.5246340476374579, -1.0876242710121087, 1.3083404323354229, -1.5888568514054564, -0.3487784783331275, -0.4532282146578487, 0.14843338714731286, -0.9747377151033262, -0.2775783468598303, -1.337648195207039, -0.20535217930269364, 0.25089084174061965, -0.33763035284147863, 0.6313836352787375, -2.9810026034624024, -0.2866460016142927, 0.4439739742171165, 0.6927276222665902, 0.8367472863162202, 1.5333526983936676, -0.27177045373615816, -1.3616458169261574, -0.9101485875463644, 0.6194896470649017, 0.03390127554803275, -0.06876153784823681, -0.34491625639134743, -2.367121214411565, 0.029665974233932902, -0.9609187502338016, 0.683793905007668, 2.0863877961919064, 0.8270805120011002, -0.02504727993963675, 1.0429929434392398, 0.21333417781483588, -0.09651148731382217, 1.0224328520349917, -0.7763959071383358, 0.7078121366793293, -0.15158739874006802, 1.1530498105389642, 0.744721324597284, -0.5868940085269446, -0.32811581133810197, -0.9880220118289424, -1.4011938745611998, -2.384233458859527, -1.6000754978794947, -0.1298547986916997, 1.0654683091903816, -0.12352070558061454, 1.1756545221838035, -1.1139950482520735, 0.9660564208283381, 0.6771544075286706, 0.3004053201735531, 1.3193210324416513, 0.11601377886346954, -1.1039976872548947, 1.2035160679318069, 0.534933194853411, 0.43564160829936366, 0.5297416050785976, 0.11448939463638459, 1.094770059804746, 2.4986655775160918, -0.8736168321627809, -0.2175733372000432, -1.0999769348177404, -1.4179957366222293, -0.04228388285219917, 0.9723812918244991, 0.13951051914863166, 0.45745968133691123, 1.01120974991041, 1.4600900907356142, -0.3718898210119469, -1.3614897614843835, 1.5615065611854788, 0.36756391596315063, -1.249904449009973, -0.1368984562952661, 0.12288324690658625, -0.2501293518106251, -0.04679340388239361, 0.8310716314389044, -0.658166043800336, -0.6416749636394836, 1.0303776347534574, 0.14242794966585995, -0.25271156490099717, 1.5366413187308274, -0.013196891354792809, 0.8230799304081543, -1.6048018626682854, -1.0977896954664874, 0.5163665968317915, -0.8240176623075107, 1.325915145650875, -0.37454484713409086, 1.0018386609763854, -0.15773894030260552, 0.28752033595521553, -0.7711717908822466, 0.1498903915470077, 1.1346192386936969, -0.9450729659168163, 0.20231610166928524, 1.155995246141479, 0.8286601634865908, 0.28582146824819626, 0.2647078328700442, 1.3017132946338297, -1.411516751341645, -0.3108708347400393, 1.7716398881395172, 1.758069595011984, 0.2248817004241012, 1.434812837384864, 0.22462546187620525, 1.6740505306503388, 0.034246061447645124, 1.1777322030984376, -0.95310018649331, -0.05685666062243279, -0.3514295448355507, -1.2027173801874282, 0.900938442458055, 0.9442974603816342, 0.6615660911728214, -0.8645444536102512, 0.6233198508110771, -0.582812434922766, -0.2818402350591466, -1.714637826670193, -0.3560153777280056, 1.3021018447173303, -0.548593460672539, -0.18425673998917472, 1.26032582929674, -0.19780029685875045, -0.33347890924137175, 0.4319960359816101, 0.3502417976118015, 1.4682580572978834, -0.14807694427823284, -0.395959316933186, 1.0427018982084928, 0.8836565351712, -0.3956215342413378, 1.068415335291003, -0.9748926729433807, -0.11384746908677448, -0.6160680797204776, 0.7257262959006248], [-3.1580231330379713, -0.5514503924945222, -0.76840020602035, -0.20801200219889898, -1.2529725512618428, -0.5683294324764577, -1.1520675687719586, 1.7378859231163364, -1.718280785910793, 1.7588575886592515, -0.17861979531116035, -0.47834841812730217, -1.6527612408616021, -0.6080969417036854, 0.023932076003106838, 0.763098937636319, 0.22842474466652465, 1.4167476106940557, -0.24418995094609233, 1.6357917213720006, 1.1833398031670945, 0.39808924897787556, -1.382914533891633, 0.24275662289434355, 1.2662475607980317, 1.0103094444187946, 1.1909912676587688, 0.9266886425514941, 0.6275653375881985, -1.1650795875926445, -0.8174871695055475, 0.01277719427189269, 0.5490153050359534, -1.6882066815008248, 0.2110085822722605, 0.051495519739861356, 0.3553910046954346, -1.741524233290919, -1.328438211766565, 0.8127757174030732, -1.6416697348082117, -1.1252046509762204, -0.9903298458314806, -0.7125041969155155, 0.7125473728420433, -0.16410155230747936, 0.7827944994244274, -0.7601028440701096, 1.0312296359402398, 0.11327524043317477, 0.29401729281461925, 0.5308802583637376, 0.6288648990844443, -1.3947260699178703, -2.013202955785708, 0.36647005859206955, 0.31365661497334063, 1.3306544627064059, 0.026568708623671004, -0.37069143536060545, 0.5189397022880284, 1.9250512416513117, -1.1333267184996025, 0.6602274127818485, -0.44498128298353296, 0.9540164017463515, -0.5615665873643055, 0.8563123936463238, 0.32498906754288215, -0.14941204053206483, -0.5765836155225376, 1.42393366898742, 1.005352380308004, 0.12833323429410992, 1.4779390229659828, 1.9009548217901193, 1.6818269768337881, 0.22407633050823095, 0.47824668866790304, 0.14982499454841247, -0.267765907044432, 0.23892696163838503, -0.7988970133781134, -1.102729113641663, 1.4258981344458819, -1.7800153883493472, -0.4777338507832035, -1.4754623408068226, -0.6809632225051031, -0.7026951180876969, 0.03813397845737131, 0.5291648555382501, -0.7206463164520963, -1.1425578493766038, 1.023136216293103, 0.1866336781663637, 0.9125409349010734, -0.6543418322076869, -0.021916966194588935, 0.34963536345791885, -1.2982156549018147, 0.08744448554232054, -1.5261725453743893, -0.5907670411466874, -0.4215162355210262, -0.0195060935245803, -1.7925988160334396, -0.2800503913175733, -1.0500317890933395, 0.34701865749403454, -0.5502990493062414, -0.5516930540959304, -1.2655159108421288, 0.6863373240607364, 0.933044119248021, -0.02073390274234021, -0.8346048870226559, -0.24214043682271433, -0.40143079362532597, 0.6113872537263617, 1.1344066057425666, -0.009979593101009421, -0.8031231058039169, -1.617120043162685, 1.280314223499196, 2.0672473777600353, -0.8281795047100308, 0.8015081732609418, 0.3993416126433947, -0.2367835063121596, 0.7325988763553203, -0.8644054901330636, 0.06217572222936207, -1.6929397447896224, 0.2643952095265783, -1.5792007409154307, 0.012316336589172226, -0.1488795118056065, -0.5611357577258562, 2.0456517229499824, -0.36932569673722454, 0.8130766016393567, -0.019505676101213433, -0.19405180104259775, -0.0018848720247100841, 0.27839388450989055, 1.4196185335017353, -0.30937483368137403, 0.9064173606058095, -0.6730783158758046, -0.5739315665805584, -0.10300548632449398, 2.498912551633055, 0.9074545912614261, 1.1982769525492272, -0.048958381929281175, 0.2895284245703183, -1.122253768493532, 0.5887495778144004, 0.7157522939547135, -1.83719228126879, 0.08138839240438593, 0.9813109357877419, -1.2435852878903642, -1.0187015188868893, -1.4156432514901391, 0.5184298547183946, 0.6787605526762195, -0.2076554385968769, 0.14844613889037678, 1.114748968984413, 1.3856849472843513, -0.29833682683589535, 0.5849533126020232, 1.5212320383815348, 1.1675415979963433, -0.36951741213564765, -0.16380040708720545, 0.9839986435021341, 0.16317889075077419, 0.15496678862500401, 2.120416266834208, 0.8656414545288563, -2.09675631808448, 0.14944990313342812, -2.4590541449393997, 0.32167724254440194, 0.97497990441076, -0.6398132525550596, -0.6283205408437703, 0.29293349006955643, 0.4052919582013626, 0.11274514219710166, 1.0640145005994455, -1.185496426608948, 1.3465792198900675, -0.4342367518863673, -0.993753074005311, -0.5185135649712108, 0.5329958397567341, -0.43571230294800745, -1.166031160009489, -1.6811018776796212, 0.28705253531965164, -0.16540780553685736, -0.9049175123935587, 1.2720043810018133, -0.912698653644719, -0.9089017679058853, -1.1638821109970154, -0.37741177242705565, 0.48163216137532006, -1.3418651442198295, 1.8241339109542016, -0.01926521722521816, 0.4108362923496077, 0.1299347113341898, 1.2644675848523292, -0.8172008383015797, 3.809814677652254, 0.829906702761055, 0.3940674121637652, 1.0713651019329107, -1.2078988958630608, 1.3721078665230706, -0.7787038577521219, -0.16798669495848279, -0.15802423659342132, 1.2522231857940678, -0.8366406756342157, -0.407087640066064, -0.24086968499347683, -1.2894934327607186, -0.8058279039135223, -1.119132498439791, -0.08178122003381648, 1.8348917414666763, -0.0768590140663957, -0.1342472800419631, 1.1136704493695917, 0.4619911144100538, -1.0994375131672764, -0.04146566602686276, 1.4888338457872092, 0.19725981671509024, -0.16656838434070573, 0.12835912554378856, -0.3966878021258275, -0.7846616073662966, -0.6312006639299952, 0.34810270736070964, -0.351160324547966, -0.47347950375308395, 0.8760177862953211, -2.1976221487367935, -1.1341136661981919, -0.9584677223547542, -0.24390952416335915, -1.224446103088733, 0.7567462217760001, 2.680302579364145, 0.5387771141073568, -0.6537071532714813, -1.0868247355964553, 0.38188809822812786, -0.15793223971313836, 0.512097033481283, 0.16199303863124653, -0.7607220311768528, -0.28511473281925603, -0.8712229581593213, -0.008738816707709996, -1.0808670917895955, -1.884143690526815, -0.18135473629699225, -2.0820277188040284, 0.9388923643161214, -0.8579347879326147, 1.560286695650439, 0.7568282345619747, 0.491734737230602, -0.9837219527907771, -0.8268419096936834, 0.2524737378555053, -0.9819264600114395, -0.8292078172884706, 1.132862307816111, -1.5313720445669308, 0.547705251817009, -0.4622847203589416, -0.4141631321668327, 1.0174946511136682, 1.018401119394338, 1.240479567423293, 0.028840029321865374, 0.23210026435240347, -0.08684854417464825, 0.36365480443253817, -0.5439654986054386, -0.8751721443661569, 2.180260143586259, -1.040174614054757, 1.0809313095569801, -0.63396618933413, -2.197503343143903, -0.18119792575553711, -0.16861789023507823, -0.2725711374009244, -0.9252939294689467, 0.9135250198994571, 0.024645685026522146, 0.43655186522295464, 0.41476460388214165, -0.6105634040499281, 0.5543214971679129, -1.1225659481906016, 0.17564822287756582, 0.37170831023175055, -1.3118749937813203, 0.8849728398059538, -0.6232500737048159, -0.8622645830064521, -0.3791508547431541, 1.766678719238418, 1.5221945878353549, 1.2257350797565978, -0.5840988359307006, -0.3237979563194586, -0.42975090494454676, -0.6958202406725453, 0.339672825211944, -0.8690283439065708, 0.6277693563920739, -1.2928968842921473, -0.0680475232836065, 1.1431674897330104, -0.7840530013037754, -0.051500208470197255, -1.5879076183656198, 0.21939754510389586, 1.4402446184948325, 0.029213007390725826, -0.08839578272243304, -0.7759115704961597, 0.9737787700747984, -1.064306743478983, 0.04034868052273814, 1.3214072179203231, 0.4832968569776847, 0.7645035097441433, 0.5578239121089887, -1.012688840287462, 1.1209474423229027, 1.8365936560502636, -2.5570922591456133, -0.19732480352633486, 0.01987596246495673, -0.6807188234277698, -1.585538938481032, 0.042705025841830356, 0.35318489327421154, 0.9018898607092845, -2.3081050242125345, 0.4926792415048766, -0.7134930226132004, -0.3337683460884174, -0.6696156195135137, 0.9153523653520744, 1.4123446493750298, -0.9610237779037405, -0.3807213589940329, -0.8609994983438015, 0.32560171346954364, 1.5411746714100993, -0.1510666982569857, -0.28386440990928613, 1.317539253557643, 0.5843106634083683, -0.9992946539854557, -3.0686333823258622, 1.0474344655866514, -0.6450088299839788, -0.8294876431834334, -0.461781315142768, 0.10433246729052296, -1.6936968568387767, 1.0238939497342578, -1.0600236192578265, 1.8994669257900372, 0.9283858791321821, -0.4069242239038481, -1.0389840381140967, -0.540509720845299, -0.2556193682701247, -0.009291666543868175, 0.9390834693229997, -0.4061738861183017, -0.03450756904036811, 0.2657025675342748, -2.6225782408511327], [0.49984885128903095, -0.7725276858146873, 0.8867475221823331, 0.30047960277834496, 0.24949068220196943, 0.16823945719342898, 0.28347172056142733, 1.09743146732614, -0.29310537417588434, -1.6064629201734146, 0.20588260993721705, 0.8607633173453589, 0.18169661382609234, -2.9461075161634933, 1.4637372012865122, 0.09678342171599821, 0.2387099976131647, -1.7095940857186525, -0.14214396374331867, 0.5606099553338183, -2.2313628086207435, 1.9066970393096851, -0.9132447835746819, -1.0882878130355045, 0.0014006130797283608, 0.2697933201112591, 0.36727861928301936, -2.1131378120511797, 0.997490781680847, -0.23213615738840093, 2.5049643390333958, 0.2102707701160108, 1.381569065413127, 0.5872432321996117, 1.945913345742548, -1.3258505164269219, -0.32761743114616493, 1.4461047757423486, 0.7426339954836344, -1.5578169794338228, -2.002416131239541, 0.25105944553702225, 1.5356196211631916, 1.2878215036411236, -0.6762635069770383, -1.1304725574390366, 0.19197906857624372, -0.07691330052994653, -0.5207226814483961, -0.46912605809761704, 0.04967054544967402, -0.31223106682389307, 0.3834193335894132, 0.5075271780540671, 0.8622983656970109, -0.7815733517688637, 0.06367082036198127, 0.7936669530732705, -0.8118259583859788, 0.09632179218373525, 0.10808975522063685, 0.18507907742164356, -1.6532650031606164, -0.09340123650138979, 0.8135537636105001, 0.27371669237255725, 0.5684783268118776, 0.2691725750223993, -0.07638307169158247, 0.5802416277747111, -0.3718223136268625, 0.2160013275228688, 1.2722311009632208, 0.4103305154495994, -0.7192447667313612, -0.27339440809242554, 1.8303173470654575, 0.035033579417812065, 0.34914082331929736, 1.2926852173317647, -0.796528755829008, -1.5555336673657436, -1.94759853966389, -0.16299858364815767, 0.914824519191826, -0.3496584058590959, 0.48989660619584197, 0.6515025584659224, -0.9523062743176538, 1.0361790862864548, -0.8731858061729145, -0.3010193357971106, -0.055694967602703344, 0.18092260619847436, 0.09482017381543492, -1.9688911644194935, 0.18222592859325354, -0.9610010091303745, 0.03590256084651918, -1.6181525083568855, -0.5926486216381927, 0.9033913885556846, -0.29834577318053906, 0.16830083968306345, -0.33499194832744583, -0.7987022682525946, -0.5297450181643486, -1.5858151464876924, 0.9000641064442939, -1.201932140460817, -1.5009364643095344, 0.7851499786084108, 1.0270408089896137, -0.5136120355857136, 1.5816430989060217, -0.733345014745474, 0.44752269865231387, -0.7874907614783031, 0.10560956526294242, 1.4051340424181336, -0.1358115043610453, -0.275481240339529, 0.30712826175583213, -0.7655169855634804, -0.5517579748459273, -1.5885243395688475, -0.09809379703861264, 0.522822529550632, 0.9183341662094432, 0.31349923317788575, -0.5694046583401261, -0.32901944626088614, -0.7167623230105674, -0.3772890246057399, -0.2439945154704335, -0.5351620089614709, -1.203474639577067, 0.3720262394560506, -0.12732283232676672, 0.4739003999283844, -0.6185181789363964, 1.2155011655927244, -0.525592167853587, -0.19939239210691007, -1.3060346432719405, -0.5655341715035689, 0.7237543315482879, -0.0019196916526072303, -0.9345286445063343, -0.3210547380512843, -0.5861053300398543, -1.6617736635788152, -0.5366969414791743, -0.9988483092160182, 0.06568823815101446, 0.4677281813835516, 2.5088950376996744, 1.2779925011975906, 1.292885807496178, -0.4720622141908027, -1.11992169457046, 0.1441149506881353, -0.21155716827043552, 1.537987511798777, -0.4534949036495097, -1.0260911814967597, -1.4409608339037943, 0.3870692872054232, -0.17902519567672576, -1.1699491379328364, -1.8881390965233085, -0.3582949584643143, 0.8532792801154145, -0.9015067194209193, 1.382604298158359, 1.4881735199932076, 0.5704638112607467, -0.5260380983822003, 0.8638940646331412, -1.4303880105929927, 0.5979951874090286, 0.5389200956723295, -0.10174665172745787, 0.3028090783004389, 0.3817642781589392, -3.2555612944706778, -0.9120654353893052, -0.3951807918369998, -0.5590350518124335, 1.3953898498029826, -1.122382283624284, -0.9062837411875869, -1.6016915310487803, -1.618122345466554, 0.21248009391844794, 0.8754765751357027, 1.5299767509638362, -0.4646543719305564, -0.5341784467644044, 1.941928094823445, -0.13280414523876885, -0.7526326755246994, 1.2630994267545708, -0.11143705564140656, 0.453731571826626, -1.0615500145124162, 0.05902496451187802, -0.17432067268555562, 2.5542310151368315, -0.5324110129144461, -0.13916836272876143, 0.5385972277026181, -0.40740568327796295, 1.7199003201173488, -0.8430627359919477, -0.1405891967379726, -1.6519059886216658, 0.18834388048445594, -0.01925216157406287, 1.4071813531184654, -1.1167312704168129, -2.034635298874566, -0.16233180876979547, -0.5466919811144099, -2.131973489797765, 0.5897510179761571, -0.5884748273014582, -0.831416780488993, -0.23205805976670485, 1.0124798458692286, -1.25065593059411, 0.8249147662036597, -0.2384739575247112, 0.42895988288828907, 0.2739366638995878, -1.547941179020605, 0.5357000391185978, -0.46051885627766015, 1.2323466119113218, 0.941068768200697, 0.9808533172434266, -1.0157821311649364, -1.094410119394054, -1.21796414192809, -0.09528563220968002, 0.89022588863073, 0.429101510401389, 1.1604424745215716, 0.37165878846531997, -2.065892758105601, 0.5100720641499349, 2.6361258027380683, 2.06788251519495, 0.788577120983459, 1.958085768081618, -0.4629676267349961, -1.3357133425501708, -0.9270784616629826, -1.2687428322624479, -0.46662979286362455, -1.5784803560327454, 1.38897889013737, 0.44643711610379994, 1.4535404641026333, -1.3772966021449995, -0.356698587401466, 0.24883307538305302, -1.495457523851537, 0.35098684601564584, 0.2541301847481945, -0.1993116365700971, -0.19220145515526396, -1.3753019389180188, -0.25522132244127027, 0.9540539210227529, 0.4375971971544315, 0.8849279554691151, 1.4102943654953435, 0.3000643130305889, -0.37175207862277665, -0.5370399445651568, 1.500047642546962, 1.6332890933813407, -1.2734140469035327, -0.3585589734787956, 0.9442136522120843, -0.3736617388471885, 0.8238338572599756, 0.18095274274637405, 0.04833754775492459, 0.40776858680034744, -2.9121449649381317, 0.4890327333556522, -0.006887333730739313, -0.6255209875270442, -0.7166502831637936, 0.3752661553533157, -1.0954251593543614, -0.13190836039184847, 0.7713118562202587, -0.6427773246668119, -0.9401647584120668, -0.13355564312569732, -1.7556716613898498, 0.35377354312896997, 1.1223111011686397, -0.7811105018043092, -0.23707992606697154, -0.7186289463311152, -1.4681910301639103, 0.9664008009615176, -0.7406352915852145, -1.0022583899220687, -0.805768571120391, 1.2646687098064657, -0.47204345772822576, 0.7038856863019181, -0.1013937403380168, 0.058070371417447454, 2.919960580209919, -1.0362300817543217, 1.4596050607501523, 1.050804016720441, -1.433285030750688, -2.3203088259504345, 1.1903219075561087, -0.5107143856103767, 1.469642249139777, -0.48228326421970485, 0.44139161843829516, 0.6767208066627811, -0.16075494323478293, -0.4519342995365067, 1.2891029692740303, 0.3630117682531519, -2.159362529942576, 0.5951226748890344, 0.6220832431928891, 0.16437380888701025, -0.005386203593634085, -0.10925831719619561, 1.4151226483299304, 0.3695948975238541, -1.08609064934212, -0.5405689701451648, -1.27081667934488, -1.4444206639050863, 0.5000576164418874, 1.3562898477937595, -0.8071144913176106, 0.6137529074121499, -1.0602621020214982, -1.563575941005457, 0.65269612378872, 0.4915747721944016, -2.0374118266983765, -0.7934939157562699, 0.021554273370477453, 0.3897355386665639, 1.7413259624145694, -0.9104855430354368, -1.8760160894182127, 0.2715367609018488, 0.02366743464075372, -0.7806583487253567, 0.9050601811498115, 1.0584624670647524, -0.20916653784932776, -0.6971177152525337, 1.1569586622673247, -0.45376823495034013, 0.7481734431800452, 0.06101273242386611, 0.40931819175513, -1.246788600635152, -1.0629907479701577, 0.2446302433552925, 0.4771305054589733, -0.10924978408343466, 1.6062548043999871, -0.7183002016100153, -0.25534282334302555, 0.24062486357613772, 0.17421479957293376, -1.0521519436738562, -0.37672526599064887, 0.9411668241247525, 0.0034453556794724525, -1.1891791101458555, -0.06147444126532775, -0.8687960437656981, -0.6743637674037924, -0.4382247095387319, -1.30560499480666, -1.1759862406915322, 1.2000951319098048, 0.11093100132005052, 0.9594127620077647, 0.9278668323625271, -0.40436277363805995], [-0.5420127194133355, -1.9881196647230663, -1.5845749009896015, -0.7383239726208414, -0.7444685728406191, 0.17775781680290592, -0.03279767096489955, -2.59285016776434, -0.5498591236519338, -1.1337345252402993, -0.20348942912413054, -0.8199637076612287, -0.1387898995323289, 1.3474698924100768, -0.34736670883947324, -1.2713596471886002, -0.1973427713395499, -1.1279597974861166, -0.5521077402762522, 0.6193069292461433, 0.1459276642264226, -1.8805842393084433, 0.09119265537888077, -0.8580169318907191, -0.5859582258287941, 0.5243748584350855, 0.8697217662170701, 0.7597417336339604, -0.26345572080488405, 1.0029837723312593, 1.3224433381121596, 0.3792600082385678, 0.257466543016762, 0.3995477316009419, -0.47599277756398595, -0.08993496531725481, 1.1637741652943623, 0.3040510687382762, 0.5857499325735877, -0.8630610748359027, 0.27261318138697405, 