{"layers": [400, 50, 2], "weights": [[], [[-0.5826190204852835, 0.540373109877941, -0.6662945090486805, 0.811237518702656, 0.07480661891195373, -0.7725417880609401, 1.1488663198422433, -0.004681240333898407, -1.442490833419685, 1.4558271919226058, 1.6070460686516101, -0.9109972619026752, -0.9119015175136439, 2.6085747722685237, 0.7898704418749223, 1.8718083989806695, 1.904346415346224, 0.5881636615107909, 1.732246452013331, 0.9920764009440489, -0.1798423344532969, 0.898992751780161, 1.0193475185732899, -0.003925835319966548, 0.9795341668754292, -1.8191266356570792, 2.3437312134871364, 0.062417728264686466, 2.1246052872811227, -0.0006236845636491746, -0.05195343641625338, -0.23078219058081767, 0.22670928319672248, -0.40433411998620616, 1.1607129371847915, -2.4443195724666253, 1.094537327949793, -1.656311934821553, 0.2932710394590742, 0.6357264373524006, -1.279922917124434, 2.167988613417205, -0.3934199339664681, -1.1996573492015041, -0.8404553445992119, 0.14669503336561143, -1.0764767719764843, 2.423108037919038, -0.3802494628286232, -0.015492644296186289, -1.8080029247653573, 0.4197074990546717, -0.94309013591326, 0.5569858825563557, -1.8936922801612237, -0.19126445099417208, 0.4802110305451158, 0.9844899894214425, -1.2393592928985693, 0.08867715738559928, 0.22889909986374726, -0.7664956551203274, 1.465229269237353, -0.3740185404425598, -1.5214406640598281, 1.560029835650431, 1.51981522112938, 1.8326208896944016, 0.5760634105144026, 2.1211325639290197, -1.1931129222122598, 1.878684813176162, 0.6152660137745104, 3.0414479053420176, 2.2802506116198202, 1.7796829338091515, 0.40586663706846837, -0.6128978854290126, 1.0391163789929354, 0.24676253627931524, -0.43993069052169975, 1.898039784141629, -1.5175550725415672, 2.740904702160629, -0.2859461727144451, 1.573951386303985, 0.6291199896632919, -1.3286526957899758, -0.21688548302089392, -0.7636495334524016, 1.8039983993421287, 0.569268373195371, -0.8243564413078673, -0.4910780660379309, 1.1472607815647542, 1.075790535542219, -0.6387290762390446, 0.9802794521443022, -0.7990503482032357, 1.116670319343048, -0.7878904782263368, -1.6596930656918345, -0.19785488223479852, -1.285352860600755, -0.02803027744834096, 0.5074115895021726, 1.2351449341539635, -1.3921188997946197, 0.2810799991568665, -1.2588590992682724, 0.6017769700477188, 0.6478569366039927, 1.7112223819288654, 0.18306404001201534, -0.5129348338151127, 2.558127151291853, -1.4924169444451576, -0.30463070628723465, -2.376663844723849, -1.2712707840964963, -1.4137126212738866, 0.011288069399911995, 1.4451047699399366, 0.70226289473552, 0.07466821374750328, 0.5694734048870017, -0.2512682047176606, -2.265576789504093, 0.9141023072219917, -0.12268915621561312, -1.1577779901879108, -0.15399253779628247, -0.891770349226272, 2.0436541661757097, 1.2228991766554853, -0.5686214516405957, 0.08887618427563203, -0.25162197121087515, 0.3076995582490177, 0.7164900998186979, -0.157877081520659, 1.1374992414566036, 0.44092405091555337, 0.6748117993452228, -0.267969056659071, -0.061028422835630626, -0.8854360481798235, 2.482273285080025, 0.7505088898007384, -1.233025386213335, 1.0006018108161512, 0.19003185018446525, -0.22644466089930124, -0.04859857607140603, -0.9862447584934328, 0.4967518506499508, -1.0174917227943465, -0.08512385657348125, 0.703222338722472, -0.7997979952041797, 1.467784791453869, -2.1106792887786625, 1.06400983982069, 1.1460546989248634, -0.9663771174579259, 0.6254539231857645, -0.5505611543574599, -0.810866191795229, 1.7209794606667066, -2.4748323579122844, -0.456539173808046, -1.9786878262946945, -1.5617978417571245, 0.26026182050764574, 0.43939111605894093, 0.2224092617652624, -0.14683799073788364, -1.184539935136619, 1.607711238648302, 1.1769044931864463, 0.9018347860518757, 1.347813625970468, -0.37257521559461054, -0.9566731005323089, 0.12264092521771011, 0.5531271334859524, -0.4662028865535733, 0.8387429707837882, -0.9762343329758942, -0.45791345492085217, -1.5736001769521628, -0.5086553798939674, -0.11625074500901134, -2.1784419128670947, 0.6229540775246238, 0.6888151774269464, 1.753466317689071, -1.5531013560053248, 1.2071582100287555, 1.2699025161992408, -0.2834726014329961, 0.28148156498940086, -0.6118824842521224, 0.6742987626411637, 1.7789531682111532, -0.40144318818452973, 1.9089099418001565, -1.4390372939907667, -0.8836018813353697, -1.2656147226714032, 0.30209668310312066, -1.855775684847528, -1.2185089344441165, 1.5475642302749109, 0.11678337973850421, 0.5651862324258627, 1.032118348441502, 1.852740132366811, 0.44975129587937057, 0.6422103328177552, 0.09159741945851652, 0.10417733926525626, 0.7437151135994794, -1.2315878739601014, 1.6283878130863223, 2.0529449053609032, 0.7990160448017596, 0.7537547753445216, -1.0758104745786157, 2.1375735990267932, 0.12154349229544373, 0.8590374169235611, -1.2851167698384491, -0.0889203780479263, -0.8190005129486023, 0.7948465804877591, 0.8748076960190769, -1.758468257420981, 1.3810988847743217, 1.756642027323462, 0.6489601740230598, -0.809745436470285, 1.329765250025812, 0.6754261007476329, 1.2566812453935663, 1.0762433183011344, 0.178716582423288, 1.7077845315069058, -0.8228611775555816, -1.1616888104389442, -0.09251559129005717, 0.19139525980747324, 0.19395689173939443, 0.7587762110366407, 2.4231813411116403, 0.7103568596856056, 0.05688371483085682, -1.5209187676030302, 1.154381844315623, 0.36001047404186026, 0.2278918517483588, 2.6112194419668837, -1.461390370415923, 2.199131000735017, 0.11350072709349951, 1.973280231282844, 1.9572067447493724, 1.7026692826229974, 1.3797996968552828, 0.4053506686540746, 0.06953374492886952, -1.5582009023127876, -1.2080016507937694, -0.17894305239249783, -1.583501027267206, -0.3359159893260819, 1.9420900580848819, 0.27401279060104694, 0.17775978742142856, 0.8402664966415236, 0.7255720841977276, -0.4795118367501113, 1.2632021570053962, -0.4429783333047247, 1.7922353100274864, 0.6372986653919601, 0.8108531938563969, -0.9170172732394447, 0.7528023967767836, -0.8426192652012404, -1.0111380460531083, 1.2776500776541515, -0.8535223805840073, 1.292379603659212, 0.08771043027380916, -0.2018062474464352, -0.896940820816429, 1.3996775498072884, 0.1996820601975713, 0.6180289526399578, 1.9153626777954473, 0.1199491939054464, 2.0015111952201563, 0.35060987903729257, 0.8765161051537897, -0.7329996560034169, 2.984344994320935, 0.10992950333121866, 0.9178828798719847, -2.7861415308950095, -0.29678957379747195, -0.15750873013647626, -1.3724386861643334, -0.007374692285207424, 0.42981742408913903, -3.301330613940721, 1.5389353706686615, -0.21077264381327804, 3.046473476424983, -1.1588476354925483, 3.3248560742601154, 0.07719219399833686, 2.010461154279011, 0.12937476998265265, -0.6726208304058582, -0.07266613651896149, -0.005778367042538276, 0.9275761851657117, 1.9012762985855287, 0.3656000247070182, 0.9761141753835855, -0.8085044676208244, 1.3160653244259382, 0.19427239192698192, 0.3305047274711814, -0.8631583544826642, 0.09468918736832134, 0.5125121830795295, 1.4253570851865145, 0.33703174027319655, -0.7299942746351865, 1.6328617540214951, -1.6727493722595892, -0.658494382617585, 1.0944096479603098, -1.164235237966246, 1.2362775583173466, -0.005939347289500434, -0.04711080023301546, 0.49154862793616944, -0.6202528841378911, 0.00711977241614612, 0.1903386520880121, -1.7425050716817905, 1.6154053402981454, 2.5238932011628736, 1.0848053388759074, 0.9033573187133199, 1.628980701021424, -0.3002642982044049, 0.8586208147949127, -2.0162226670627854, 1.1589114228217576, -1.4724267051061344, 3.3143973696126605, -0.8086269232831981, -1.2709415042329073, 1.6292752638297103, 0.8823846701571514, -0.12696029209556386, 2.1095090195822954, 0.3162267209844376, 0.49750158392316546, 2.0267267802200193, 2.0673252429492592, -1.6476269278330797, 0.3101051338462483, 0.8329412295238006, 0.7427571906940951, -0.4970056048544765, 1.5369777558849147, -0.5891760402748768, 0.3019373457351538, -1.3075443896222596, -1.1651089370255026, 0.47361936852016057, -0.0040863326766859154, -0.09963333240392794, 0.9008412988364296, 1.3718761281622627, 1.5441277573837238, 0.2452501056023587, 0.21416547184701942, 2.783396886810767, 0.07983653349003783, 0.09199330099237538, 0.027508723548568925, -0.10884308880414627, 0.6271754004035623, 1.1976366070091327], [1.5798810307113724, 1.573577903139283, 1.6441594771281027, 2.0661598946585404, 1.170490373070381, 2.0163769958739004, -0.2519591960263607, 1.4914498500983266, 0.9184348919525062, -0.09939628326684317, 0.397279661743323, 0.03954652227730527, 0.196674256828907, 1.9147269897293713, 1.3822613770371528, 1.691316942641741, 1.68355100281572, -0.7893214755199562, 0.508338840425336, 0.9031890060492744, 0.45999422375364635, 1.9375627236072348, -0.6009452601028529, -2.9661686289148643, -1.8944272157139583, -1.1613427497183761, -2.959994302323793, -2.568194318240771, -2.1311316735484542, -2.2829839511629175, -1.7482406341344938, -0.45003628807212287, -2.487591645148822, -2.21228888587361, 0.42154904926547515, -1.515387559546428, -0.27896778461325855, 1.6312319934805435, -1.5018594885232326, 0.3659588067309785, 0.615902373073843, 0.03985288992404885, 3.6545237621760736, -0.98390317339212, 0.4121558277759987, 0.4660784030636451, 1.044257760906243, -0.18140972170274436, 2.300293502372704, -1.0727752663482395, 0.5387027028719081, -0.7314452276639472, -0.19041334204164223, 0.4874478247370705, 0.4256165851174116, 0.9386299257142682, 0.19872839815154233, 3.329748753510476, 0.026453047329807307, 1.1534797230269853, -0.15594388648321977, -0.5746387501872826, 1.064793610547846, 0.08468179244330784, -0.42446174629437433, 2.0300802873941537, -1.8291248039091954, -2.994224061136061, -1.33445733265707, -0.37461100227864025, -1.1350401326790203, 0.5040074897126332, -1.0885282074507934, -0.3891075982928182, 0.5982483128122862, 0.43219491938259735, 0.24516246869176514, -1.2668950108224053, -1.4029407243117955, 2.315237916475735, 1.89161948284933, 1.9071459422739019, 0.4136872206560402, 0.37502821181412477, 0.1542637737049303, -2.716273933326576, -2.518824438663778, -0.8553162228681007, 0.2019172198198107, 0.5462347990352027, 0.040602877189048904, 1.3002523710985487, -0.8109845141080103, -1.4263211638273912, -0.15040304571835092, -0.016049647541601146, 1.5146216834362338, 0.5060811486195625, -0.42580235851284365, -1.3149766415713582, 1.2452687896595593, 1.2261394979461004, -0.1418557296867283, -0.022293052704563818, 0.019196542900766424, 0.5654737640083152, 0.1284569024031971, 1.7952457920446652, 0.5175028390254587, 0.40413383635180217, 0.020545810576422456, 1.4489783168452186, 1.0084224387694762, 2.1486581971986234, 0.5085963357906461, -0.23118844025782362, 0.7542548574118796, -0.7209830044237225, -0.5843069953969168, 0.37074299347903417, -0.7634591256316529, 0.23653407945150257, -0.1898435203318189, -1.7534659637773926, -1.1648245303161506, -0.6915879197341084, 0.821274724314543, -0.0776382686578886, -0.7384804165249965, -0.407608832527239, 2.8752649108395487, 0.750262259089323, 0.7247743765564192, -0.1983845438054353, 0.36460318544513587, -0.003189113222494167, 0.45600978618952653, 0.7738258365562258, -2.2014426418597868, -1.3769318264464392, -0.21701841050266854, -0.8042093640764724, -0.8114755589775298, -0.07947618894978703, -0.1861539346590954, -1.1248959934778915, -1.5305269699431419, 2.6724783705589847, 2.421809787096294, 2.1969689444440905, 4.432689668129747, 1.031806483050713, 2.553765961924898, 0.9219701454228862, 1.3184615848192645, -0.6452125775659655, 0.6527399696030505, -2.641090265348071, 0.3871007410566795, -2.159664707778271, 0.5195859410133656, -1.2303705318836087, 0.9789599747341658, -1.4568505144187216, 1.7246332903534092, 2.768712877141468, 2.3622444585239903, 1.6845660773564866, 2.9479368397820003, 4.217660854915903, 4.974560633297906, 4.411193264135056, 4.3890620296536005, 3.8052325686037585, -0.8509821365197716, 0.4298431753558671, -0.6925244325835404, 0.4618312638912177, -3.5898820902148323, 0.1092796551863674, 0.4272364773540919, -0.3286317639672985, 0.02806438721985438, -2.6846872886414577, 0.3365755379940793, 0.7031324670466497, 2.3855809094076474, 2.5399063867730685, 6.3174593282131495, 5.265916534129112, 4.318895127461826, 1.7357725827249597, 1.828339563873447, 1.6829670145285813, 3.206746518444161, -1.1404110731828554, 0.10268496643313642, -0.46290444705169803, -1.1438426472909962, -1.2391315904175795, 0.4066361281136071, -0.8041902043238364, -0.08799717300494261, 0.3503835351894451, 2.428641102746763, 3.6772220375468887, 3.980302448067662, -0.9778338716609148, 1.1597850704227701, 4.475694667704365, 2.656604775046457, 3.758315197446149, 0.9449900576835238, 1.8666278810360466, 0.5933345336553002, -0.7074760778452008, -2.604597778395957, -0.34882088231628333, 0.31174140549396107, 0.6714104734255514, 1.076264761354327, -2.345822778976288, 0.5717140031785775, 2.0932465989093543, 0.6309960850229079, -0.6947028562290893, 1.1194715422955028, 1.806981281926451, 2.7288611667024956, 4.28277602986398, 2.1511373014314343, 1.5876102990217544, 0.7171218792396096, 0.38428929690458524, 1.6773517788158239, 1.061763814979283, 0.37323147756135727, 0.26464162491970056, -0.7969665442975525, -3.551794930717192, 2.5110041287823726, -1.4425403070906846, -2.370922055990507, 0.9789837340687477, -2.55272419119656, -0.8341983823848426, -0.7053522355599803, 0.10895924035735965, 0.317785682249949, 2.7935569872373756, -0.726563959593075, 0.48445509529233943, 0.691211339272441, 1.008742535452659, 1.880129160464037, 0.8795323897769326, -1.9959890970174903, -0.39740109843722876, -2.310837002720299, -1.2250933727821718, 0.44503431250742886, -3.3028768928589787, -0.6709007836780281, -2.79432035857079, -0.25932622515441317, -1.4101358827706019, 0.1683194025420316, -0.14458364641400154, -2.8511797241123285, 0.3937200057398846, 1.8126033049923351, -0.8444250867442975, -2.3772092326308307, -0.6839040896894221, 1.0019070970396668, -0.7944230807186828, -0.7463050010436801, -2.033219792561402, 1.2920120728131024, 1.8041216097027284, 0.8615785703007115, -0.7117779962546409, -0.7921036183298487, -0.4593095990099852, -3.1224843044707224, -0.38543698290666506, 1.6608477507182018, 0.5245866633986335, 1.6974266193426764, 0.2897244729720773, -0.7299897264442522, -1.6256305351828464, -2.629385651738341, -1.8378727034928202, -0.5417954804954377, -0.1914495575737896, 2.0951107056589553, -0.05106866357647202, 1.8955065229399928, -0.1817879363545411, 0.9647676698885841, -1.770693037433857, 0.16506603418769167, 1.5161147052718698, -1.1888400548064035, -0.6118439728390158, 0.012563024722906397, 0.5355811867006279, -1.29156833743807, -0.9554412131745317, -0.04170861145972685, -2.339990108974232, -0.5388831380246928, 1.1904754510373223, 0.40984794710887124, -0.09264025138565364, 1.3352249833969165, -1.426592358724146, -1.7825331781160825, -1.3206713833869097, 0.75159028544697, 0.7462797971928203, -0.6834551675192606, -1.5002513984575236, -1.7364510153336963, 0.5640855323564078, 0.180134421042858, 0.13964638892203876, -0.7298871812876951, -3.0422397202700893, 0.5308190661631615, -0.957312420110821, -1.577944812539564, -0.15268268867978646, 0.645039026532879, 0.07772279635623294, -0.576586238862752, -0.455853947729152, -2.613810624125989, 1.154969243459539, 2.907755070113835, -2.0695980336133353, 1.226931749948191, -2.147644612747016, -0.013154630004347346, 1.3421654012752333, 0.8207171697674611, -0.7772330646966299, -0.8144753279140438, 3.391565933008446, -0.3038494978626729, 1.0125992412913551, -1.9222867529799328, -0.33382368486093006, -2.07248489124104, 0.5432188780085508, -0.2865202742135138, 1.0951272760809156, -0.02032564026041304, -1.2507850379359384, -0.5632927384295254, 1.0167465138324452, 0.8948555415317339, -0.46123288590092676, 0.027420913506734354, 1.0088151971168196, 0.49985481949810123, -0.5909321759467357, -0.15440330977348418, -1.102308430936798, -1.234098810847032, 0.32870730050693664, -1.0187087550253318, -0.7919938727179775, 1.9369615032031393, -0.2655472456105051, -0.1400410387923348, -0.9123169644662763, -1.0251669132831767, -0.16916617172471116, -0.023966944424266046, 0.8800807670352767, 0.9790120410340672, 0.6114202453031026, 0.29034916555065127, 0.6400231933099292, -0.7226077737962658, 0.9005930308999026, -0.9093533440251683, -1.3529678463847212, -4.283428955832064, 1.0415283998052642, 0.18773178751778477, -2.077843016864843, -0.12891260811947217, 0.3451194840870282, -2.6749643197125477, 1.1520465753600104, 0.22512103088536256, -0.776349358363206], [2.1400758285420522, 0.3045416948579081, 0.7359687070104676, -0.6865609711181067, -0.6776900165784739, 1.2964191947248274, -0.003431721426153035, 0.6233895193688388, -0.060723139223082714, 1.766373190408607, 1.464610474623284, 0.8344305352094362, 2.3131913397139106, 2.0665273109340605, -1.8275499424762192, 1.6706662801342038, 1.0615935007281219, 0.35959115357205657, -0.26866413701596037, -0.8981302109499804, 1.6019675227612264, 0.66487068450164, 1.0534493574458739, 2.194907713492253, -1.7926254753554258, 0.7213941956158956, 1.624412116605541, -0.11204294261443357, 2.4181922788876653, -0.8938081349466949, 2.8928576783191207, 0.48348364938637345, 1.0685848051947864, -0.6408284612809412, -0.4072092140645899, -1.167123329570558, -0.39836727529900434, -0.9653600008707431, -1.3006475027436044, 0.05530134872809061, 0.4167166525652204, -0.03916735665212739, 0.30236413797087014, 1.6823899803932205, -1.7490382767517794, 0.3941769495249575, 1.4734004746333071, 1.0181558151351346, 0.49569165364436085, 2.469851480596853, 1.5271195908213948, -0.10726329939779286, -0.4373011258511647, 1.3301715335312836, -1.615176763858596, -1.239915001235868, 0.33170495421689933, 0.6801338996178299, 0.8495796446732177, -1.6687558422899942, 1.030172169852089, -0.055623060048517976, 0.2626260718841126, -0.4946599385479463, -0.23235457762540274, 0.4211784326712927, -0.11490218160425084, -0.4606264912553591, 1.5814473084977283, -0.6499740764619892, -0.45601393481649305, -0.914638337070649, 2.110780982401383, -3.296081061474637, 1.9658255127331654, -0.9446137685590631, -0.3552406296544663, -1.0564096055364067, -1.438190135381316, 0.21411206251325893, -0.8397285825526863, -0.8684151070014812, 2.3820172208053316, -0.32623730229564474, 0.31228355403344127, 1.411483908097378, 1.348037835387982, 2.848115617901778, 2.078999984040237, -0.3537897895966757, 1.3569473536512726, -2.2969294233368522, -0.09166099917398987, 0.23420843342593026, 2.0292567917110578, -0.8496356511219132, 0.11437597806107067, 1.0955972489758006, -0.9519883184305606, -0.26640339326907875, 2.956805272874429, 0.3558485750080737, 0.5205705916486725, -0.7714266636945294, 1.14327629984279, 0.044454549398107585, 1.0522167136613274, -0.20918382430733037, 1.9379093771448181, -0.6142599456083878, 0.6928029646270002, 0.44067099548198846, 1.1078440399978868, -2.721780665862556, 1.1886620374414671, 1.2448809777548382, -1.0257303807768372, -1.407815851748209, -0.7771632593949511, -0.0020606390863742072, -1.316194715168486, 1.3585834979557556, 0.3510287094928061, 0.3959843254800541, 0.3765640863380291, 0.9018105304923241, 0.2850324045414917, -1.0985817179789459, -1.1458890057970086, 1.031878449093154, -0.8372297563938594, 0.7449645085173363, -1.9178515553175395, 0.25023615404303634, -1.1877902709086876, -0.40716437610586825, -0.7385291065807006, -0.6400480568117816, -0.914968653742469, 0.5229029701592154, 3.639568312889353, 0.5310385294770481, -1.2226667389319712, 0.06428742198190157, -0.3140827160347199, 0.6807889921314988, 1.1981602197910761, -0.005971747082930747, -0.2998644261997421, 3.0696416316111073, 0.42209891032323776, 0.4591665779724207, -0.48222991007274135, 0.9226539402451894, 1.0481337883330837, 1.3447038714112514, -0.3396742966070793, 0.41595210807013056, 0.6714645436351553, 0.6432301579367611, 2.337247834328043, 2.4848756032462944, 1.7067220560665828, 1.0556268549883954, -2.0088150144675225, 0.9554982916380169, 1.100616432770218, -1.555951616787824, -0.15824404069202982, -1.3629527116485665, -1.6162267598306, -0.6702647103750854, 0.2208639979478775, 0.7807617584016048, -0.6495364766785321, 2.543160010769413, -0.20598053960368645, 1.4200988015076716, -0.4040849713071886, -0.5406471016008212, 0.5075670043642851, -0.2603356501661816, 0.709644527318892, 1.1571141966363574, 0.42877945306962745, 0.6771863897174415, -0.4729758090840599, -0.7372780853039814, -1.7121856181695099, 1.1271746878756819, 1.3264293655240298, 0.2773270227481541, -1.328440723849707, 0.16412668666254648, -0.5294729132327831, 0.6383642124076309, 0.4447435514456687, 0.025608336806668002, 0.06286132415830001, -1.1776496258090012, -0.1377175178325165, 0.3502875543507693, 0.3869459521317353, -1.1644350848871308, 0.8881434945371496, 3.3915709816526274, -0.0023598417844552452, 1.8357334553103015, -1.8954294057464478, 1.226661519781368, -2.091481102660217, -0.5430484426718548, -1.9770130958215966, 1.9574747735018085, 0.003777811016352226, 0.6485463513311973, -1.152226931006781, 0.07303202409405797, 1.3480924734934663, -0.5155906971026806, -0.4519320564382672, 3.3018916727715975, 1.5159298288668075, 1.750388257333473, -0.28119304634154996, 1.113964708863851, 1.3549922847598461, -0.07769898300652844, 1.0563465828934087, -1.255953386797499, 0.7700337506863827, -1.3142756803247257, -0.6960561610238744, -0.017516485193541147, -0.03173806630881861, -0.857717690055952, -0.4597029632201243, 1.450325746681734, 0.09692678847853044, 1.6364119931472085, -1.527427476134953, 1.8977568180044122, -0.913585754900007, -0.863648416918056, 2.1008502028491347, 0.9034072399803164, 0.5562306937544369, 0.41677311525069016, -0.9675070168858609, -1.1616676066165825, 0.42087914607425875, -0.6024505393204314, 1.609508554696495, 1.0705559978753203, 0.13593410506542242, 1.6064491274537454, 0.5776917658871835, 1.4651341890985876, 1.0080734561257507, -0.9401296568390567, -0.14907930126677074, 0.4010134985783052, -1.165914199752338, 0.29026134902049866, 1.8129047788722519, -0.016139496585086507, 1.9090453029136556, 0.026702021742404637, -0.9132913271784537, 1.1438900198075772, -1.6352922315878504, 1.9168136654757493, 0.0020469364268390646, -0.7279390106901141, -0.06207035568072817, 0.14824917137849958, -0.5931873106352218, -0.15660391414665928, -0.7220053564374111, 1.1786684586101974, 1.051750063318445, -1.2223151120604872, 0.6280358153075523, 2.0423218972492307, 0.5238306314558997, 0.32872121870240817, 2.2578896028375213, 0.08462807501121858, 2.1365879752252503, 1.3207995045819036, -2.4373634866051272, 0.5778205619327395, -0.9775367549482777, 1.3950007287894013, 0.8244206386040759, 1.1276966661426484, -0.8827344259036503, 1.7738267037446638, 0.06391368350572077, 0.6629498050436023, -1.461779898988509, -2.3033348494643975, -0.516894405397359, 0.8676042494629587, 1.9360471787241615, 1.5770154376054497, -1.4471636167555104, -0.420709466643233, 0.9342942628125153, -0.5061386713989412, -0.6282922897886304, -0.3656581801256714, 0.37388210915655645, -0.03640972181535252, -1.0521811379468886, -0.14601930243238218, -0.3256335608151269, 0.794757767224968, 1.9209058699225012, -1.5677253930341946, 1.518909716341864, 1.0893844920405358, -0.6910831884683376, -0.5156347553830628, -0.21506022819583445, -0.31191268917309256, 1.71808776431555, 0.08734045831559634, 0.9303288943880214, 0.475945573940862, 0.20442354421590822, -2.2836834411665876, 0.4908761639718591, 1.4219261266550196, 0.4613234541614565, 0.716327297330483, 0.7269038700910236, -1.5749206246226994, 0.6006808954007011, 0.6686358847252563, -1.2892686032955791, -0.024714795320883474, -2.2227539655049044, 0.44865186794251777, 0.5364323531932524, 1.1842926119665167, 1.2223954615219033, 1.1260496048013902, 0.09532143168443515, 1.5294054633149026, 0.6980650045745127, 0.4574909905899446, -0.6805651224415018, 0.20875244623022346, -0.289932398464553, -0.3444072550891059, 0.11182217181101306, -0.6676803095778053, 2.574137990657306, -1.5538896496284744, -0.5551744078233577, -1.2729163350597887, -0.06258249638929948, 0.09459800773707597, 0.1436773328198703, 1.255494807554988, 0.06952907608264121, 0.7208144900869965, 0.9355019901962246, -1.049669412318915, -0.8641763950913787, -0.5834124734730718, -1.5389955493950964, 1.3336399803125811, -1.4401336603652433, 0.2546277409499899, -1.275580100927526, 1.0935197581047054, 1.4411653737911352, 0.8980037643642557, -2.1342793223083425, 1.145952442535009, -0.3841855124494631, 1.4630258396599845, 1.1883364189177976, 0.038759643400099394, -2.3221476994187347, 1.2888593628591747, 0.9091544699206635, 0.8742840899139804, -2.2324553568193535, -1.7066820562650895, 1.1937697879363776, 0.4153233357400461, 0.7691278333896241, -1.0470004213000619, -1.08610891450937, 0.09446902198512985, -0.31325666012216796, -0.9669574704449816], [1.5840191139078548, -1.40530028734577, 1.3587658424404236, -1.0092956461459415, 0.43930782411249053, 0.5583916376764019, 0.4711984327120826, 1.7171203184416857, -0.7966648716579967, -0.15164466696625822, 0.10196987888060997, 0.3809904215889912, 0.9953109476071257, 1.140737910425622, -0.8165739867173593, -0.31192317676874476, -0.5412697797776023, -1.448773730389601, 2.251326561914262, -0.855605607753738, -1.0992293314054855, -0.7530917607801151, -1.2591142667581419, 0.5751373440746685, 0.1014987641856044, 0.102268420327577, -1.3896532780136512, -0.43568255121276755, 0.10774480326797355, 0.6422022536061275, 1.5320883581964226, 0.02543177909373221, 0.7595718137939204, -0.8914161983902805, 0.23262803284953398, 0.13353594336558777, -0.3044206439780995, 1.544574836996826, 0.1120139037298159, 1.1929456504456584, 2.916623553372155, -1.2949951128945287, -0.5468538677849877, 2.1393501166817064, -0.6114394298655867, 1.753319420388416, 1.0323641295553558, 0.39320724637956117, -1.1882674467006695, 0.8745792705144313, 0.1863040764337153, 0.8089877721415804, -0.40454347204160424, -0.8956647802361631, 0.7660943907565317, -1.21934729914125, -1.5083574768246684, -1.9209909618367698, 0.5712928906603808, 1.4173884071703295, 0.8968572449408637, -0.8802938292612424, 0.431866441283863, -0.7917800270719462, -0.6605998801923371, 1.7436649808676215, 2.200145651910363, 0.7184194600507141, -2.225681806881391, 0.4327621567904308, 0.5057256458440562, 0.9206164508468655, -0.41058484231847636, -0.3173382433805064, -0.14330033108463203, 0.5067807957294638, -0.20074537213587487, 0.712644060658833, -0.7319252388857738, 0.45999569664677825, 0.5766401707047955, 0.7879190679019834, 1.55440675981006, 0.2933997606834363, -0.1418019675622406, -1.0654659784411515, -1.5310224256548715, 0.481480113078023, 1.0036791406157657, -1.312113371318604, 0.9602891070296794, -2.263835525043881, 0.4901616570108018, 0.6252964860266879, 1.114367194454792, -0.5465216176830477, 0.3489746257244171, 1.3211615562704002, 0.7135229518423453, 0.6081827611758198, 1.6615241270454022, -1.1695401823539702, 0.7544957473300601, 1.9579595233354121, 0.9014819894261334, -0.23982414290252824, 1.3981760140825237, -0.6348433069014024, -1.0130609303709157, 0.7303451857809146, 0.617164213216494, -1.3060538057986446, 0.3603868676528114, -0.1530672618363873, -0.26224362977329535, -0.8393487155016689, 1.6728757339667337, -1.576049029478782, -2.2641709312599323, 1.7471865996333962, 0.683460451556947, -1.0977314420475928, 0.23937372031464957, 1.8871354537524963, 1.8571728005273163, 0.8810808885996728, -1.001655503160109, 0.43224441579297207, 1.4020101011267259, -1.0405107337308972, -1.818604633946236, -2.491910464487566, -0.6860402673691589, -0.7290742269884076, 1.969253656366443, -1.057232707850829, 1.0201267903140017, -1.5465830138994692, 0.14110051507858423, 1.3647054269167747, 0.7496516188138664, 3.02154940313371, 1.1545647000577048, 2.0391754664754145, -1.1123960277181437, 0.9100502563257331, 0.6952653271850104, 0.8040966429428941, -0.958758657273507, -0.9972618794268684, -1.6440946610318277, -1.3070797980524942, 0.4086928428290537, -1.0648861447763684, 2.8101880530445795, -1.1324530877817647, 1.1385639740214732, -0.8247160931155435, 0.7782870852485378, -2.4301204301367108, 1.3372225514888652, 2.2445547653793816, -0.9072891054301325, 2.047833287184477, 0.44692935582806875, 0.13234328014245228, 1.1790095357735006, -0.42241007126159524, -0.9212772015327586, -0.039438508222180466, -3.2763813965670407, -2.1499440664717833, -1.3386936031598922, -0.27743410216494424, -0.04610322457738122, -1.734783700787825, -1.1871405929818548, -2.6905130024884887, 1.7729368981859408, 1.3401431213993897, 0.5043019649629931, 0.8962181155609359, -1.620764292763614, 0.5354995296873727, 1.5592438984254695, 0.5100575315540827, 0.6173168604944947, 1.6838134686409878, -2.5191655582067587, -1.9380227228316151, -3.1639411858589193, 1.7143080331478104, -1.858675934145435, 1.0706559107418403, 0.33529557248616254, 0.8510232176088506, -1.1833678912714043, 1.8709512547197205, -0.05721160015707168, -0.7851507873214035, 1.9457053995615403, 2.3109560958364224, 0.30118750052313553, 1.0327414397578694, -0.09187645346425664, 2.4695974361946376, 0.868620558893997, -1.4431298759657558, 0.9013476543252356, 0.0002565894138847648, -3.362562421300666, -0.6468827040293005, -1.8065826247541155, -1.2419709621805701, 0.06276974434904016, -1.4294049447850867, 0.25607867336858015, -0.08500661291137442, -0.599884504838687, -1.613816414708743, 0.6553100341897276, 1.9063751407236995, 1.8534591835336292, 1.5128560119411805, 2.773027102388367, -1.4823433915939555, 3.780746358613494, 3.50408929660456, -1.5493206663981507, -1.3595944379427323, 0.16511692238370856, -0.2579434077890626, -1.3759172542938694, 1.5458182046462894, -1.4979774818975666, 1.785805227900943, -2.109837309719531, -0.8272274709738434, 0.43619090239113817, 1.504974246624708, 1.6584961691160132, 0.767370330891696, 0.9379096124180275, 2.5706485925826157, 0.6833085152628989, 1.9781438393627435, -1.1843169796133293, 0.14506866608384614, -2.22673146827713, 3.6573422942398843, -1.5244570323958708, 0.0006061060034368383, 0.19428805915522854, 0.8288257462069748, -0.372278806561938, 0.15709603364816888, 0.8106608293817114, -0.4072378299853855, -0.6029763110330107, 0.16653290885684183, 2.6479001330537306, -0.08506964938682883, 0.26850278866252014, 0.6918518321690833, 0.06244225116956635, -0.5954612015851674, 0.5181148467982245, 1.3885484436731763, 0.16245960868409773, -1.4795574222330643, 1.120013129507443, -0.45353510339996744, 0.7274964320193353, -2.842765385186581, 1.4646513432849813, 0.07207729791453435, -0.5377288833321767, -0.8395019295155042, 1.6628694569993099, 0.5432155919238976, 0.5308686547507975, 1.3742685670596033, 0.6029552092654326, 1.079344481920193, 0.9539719040327119, -0.2117472002679448, 2.0384313965096257, -0.1476577013870248, 0.3762259124427137, -0.9983519745816222, 1.77884444084992, -0.1505724185324747, -0.21280373812750297, -0.7545169382622713, -0.26327610762352427, 1.6627976632383217, -1.1951504126239698, 0.13745467602995434, 1.0238886835940109, 0.6712544367510589, 0.19332362251772217, -0.6540875015453299, 1.857992280828357, 1.1487195239164971, -0.7951811876598964, -0.9021569660170159, 2.125619237150962, -0.3995540975742577, 1.3635687884321894, 1.233043465817657, 2.0187945311645477, 0.6963209741927814, -1.7900855148618262, 0.9894325583697445, 0.05110889693590029, -2.034340092695798, 2.2599924670414677, 0.9430162980528752, -1.5514904707342192, 0.6101117316311212, 1.0337749876295805, 0.7056008467331648, 0.7122814902467801, -0.2947683128127494, 0.31981159948262633, 0.3981167962115203, 0.23967718702342225, 1.429150007226684, -0.7300375563507328, 4.010861589352967, -0.4543701834305314, -0.5157399731881958, -0.0006079662219896594, 1.4609027103285255, -0.6043138089585762, 0.6554522813723856, 0.5571222568370894, 0.11249292668774444, -0.34541304989961813, -0.4777214948620006, -0.7210382836418727, 1.6420499605384564, -1.692246591572422, 2.4594572198471187, -0.3007349676950092, 0.5337210338485151, -1.36938430455521, -0.26933229477452425, -1.848768213915542, -0.026081480087486165, -0.5429072602121545, 3.203369587711565, -1.2206894529089904, 0.452612903246138, -2.4088958413010553, 0.8292249274689817, 1.2899290503146832, 2.5865790019472645, 1.8559008794114853, -1.2411409438978582, -0.14902004492299756, 0.7113874170124483, 0.4786781731512561, 0.11498712167495792, 2.175429660073002, -0.35851706032791536, 1.5419244012116458, 1.058697322070644, 0.14585426030727774, 0.3179879264637104, -0.02371751367049928, 0.4240540503088591, 0.3217719662219622, 1.7523781907972542, -1.9459765015778414, -1.274839098372422, 2.26521053577858, 1.039529041126791, -1.6383620671332104, 0.10855256492230131, -1.6642965396769989, 1.0350273077016292, -1.4538744944559927, 1.1578573352434802, 0.7417912279081335, 1.4890443956484496, 0.08221356248827313, -1.9712210670252008, 0.2813731676594455, 0.4331460575166987, -0.1790847826612362, 1.9476720431276227, 1.106497648501606, -0.4304248691415858, -0.9906854079382544, -0.44569928836418704, 0.4419916437456293, -0.20432964468429685, 1.0579593192367138, -0.01140530192883619], [-1.0902055057036324, -0.730905123506823, 1.4603774777104164, 1.475151085379321, -1.4821391987818024, -2.351606722470836, -2.0536985594426276, -2.140807078241008, -0.36498044619146336, 1.2872379924259327, -1.1695337708606592, 0.7272773787270662, 0.05181182250075552, -0.059211856860340854, 1.143681432992815, 0.03996537673549183, -0.5785756750379475, 2.204693036776397, 0.8115319851813385, 1.366752678258905, -2.326885412090103, 2.155776519062368, 0.9799419598260636, -0.382235501374782, -1.674648134373805, -0.08943548375204624, -0.579468928963814, 0.5713470931732978, -2.423822045380941, 1.1490882616255582, -1.4699790876492966, 0.33566656951847945, 1.6464457233597984, -0.76488702106274, 0.12010383753331212, 0.006363955717732801, 1.8421214432356612, 0.529296458365022, 0.4047412332760055, 2.604879827194656, 0.40551176653316595, -2.6607860104099483, -0.8904894703903697, -1.293107529491434, -0.9642044460424158, 0.6007149780074813, -1.08117795186386, -0.7552654463754914, 0.3756066383002464, -1.0746068275305416, 0.9837480278916372, 2.064898531286006, -0.14949744425688044, 0.08650636609434076, 3.058666149148298, -0.18713381688814407, -0.6814310672728662, 0.7266861793339153, 0.38353294935708443, 1.7606658629221261, -1.261359663598032, -0.9051291289891121, -1.333353955940411, -1.0918674568563067, -1.7836996164905143, 0.5336269953673609, -0.6649465826270394, 0.441691853783114, 0.8238027361902867, -0.7854823388118044, 1.387290321752972, 2.990991203939669, 1.8731067013560307, 0.5219864379689588, 0.35675948719472705, 0.4246366943421985, 1.4811289050121383, 1.3504002384009268, -0.10381244000984804, 1.761177784475299, -0.25831873920572485, -3.0191266939696346, -1.2541855253537797, -3.3135697642316555, -1.304739292421079, 0.3813822228258874, -0.6898286257303843, -2.1955526635999694, -0.3091133594212525, 1.484755191844398, -1.3527369105373845, 2.123273200420121, 1.2335168807721903, 2.2356956090991478, -0.34324207287505143, 0.9853409153108134, 0.8864638584592155, 1.5020655356185821, 1.1256552419415873, 0.18777689119035018, -2.14566507098016, -2.676902842589678, 0.3672332723210703, -0.19962733175151526, -1.613856899185569, -0.7498600704958606, 0.42303139373084436, 1.1018687125803484, -0.20427293957888057, -1.3008419426719386, -0.44019594005393786, 1.0346203998012509, 0.4874461609814375, 0.752489379049544, 0.47381466043999565, 2.424936805663029, 0.03298850674221218, -0.10447297225253052, 1.2346480336224668, -0.692772804969893, 0.903097404826065, -1.9437274707158678, 0.8052670672723848, -0.9215999867923986, -0.48825074218427983, -0.012622749497653069, 0.45063846219334186, 2.236749484877896, -0.82455727107518, -0.2794153783868184, -1.440157664819325, 1.2456091229579542, -0.838494461917526, 1.726435321703772, 1.6141767543344612, -0.8917455577841245, -0.549267252222422, -1.4141895960032511, 0.30901387995687407, 2.0600803616922896, 0.892695809437415, 0.09013126575897408, 0.6970101442773675, 0.23450576001126983, -0.1424710579025858, 0.9545196238017755, 2.189413704905437, 0.07814358339310919, 0.958110014085668, 0.43351463071234564, -1.3108146962015457, -0.7655985638271905, 1.1803451076061755, -0.2564808292239276, 1.1985724817065257, -0.3178277898476103, 0.7560805237629552, 1.2225195584657125, 1.0593396978600866, 2.091733870505163, -1.2750782685839885, -0.7200312859573808, 0.4317817399127848, -2.0815485049549802, -0.4192424862297291, -0.7153709479101413, -1.2319364854059698, -0.1287728483969836, -0.16868624813797614, -0.9174147579153833, -1.4195821477387267, -0.6792121597609634, -0.760015400376373, 1.6783786202280253, 2.2970355572748953, 1.8123527139002586, 0.3699082581608358, 2.9777481527914818, 3.441571757035583, 1.2124730800994197, 0.827400533764036, 0.10029493155669075, -0.28626383262847993, -3.228973114228949, 0.3751992719777912, -1.6898004952721404, -2.5411691013693405, -0.050753123672719155, -1.5382115929300864, -1.9616211052380275, -1.1127966369953763, -1.0498568969187148, -0.8980071657657175, 3.7955853129023644, 1.1844391347218408, 2.2051395586697344, 1.4690194761445028, 1.5229314481974427, 1.697554563109456, 1.2733868324492001, 0.30847022779084227, -0.35455471394714616, -0.9786520166577258, 0.19272040101916701, -3.1793643497955872, -0.29928343815968805, -2.4475780976652155, -0.7305045478700695, 0.2389041198829132, -0.03195228381235411, 0.773538667084037, -0.5543415770384372, 1.5341992773415851, -0.06791979245551548, 2.8399899638748884, 1.5584239059988534, 1.8730283830974135, 0.3474601850659211, 0.6350849388640756, 1.148079674201698, 0.34886469794561586, -0.8177648586841139, -0.011978185381658518, -3.600453920549518, 0.6218884673652922, -0.1708565935193784, 2.6868460814069763, 0.5363581651816076, 3.6456072349184048, 0.48979720982579794, -0.7551134090047239, 0.11763010012131746, 1.048669923192294, 1.362865978959649, 1.3386211701768693, 2.6671644293952266, 0.7352040529952009, 1.6699487006308384, 1.2401095273222362, -0.8943170341387979, -0.3134682297586726, -0.24948093085801906, 0.6738979450399055, 0.9488679300182289, 0.6048783007251871, 1.2413154031381568, -0.32940142843318, 1.6755754646923606, 1.8632479537483113, 2.989354071697686, -0.229333069303694, 0.5870002156553296, 0.9092489543659423, -1.1094083324376112, -0.918103020664567, -0.47776511241895264, 1.6493615844850942, 1.3646787863035927, 0.8779215816176479, 1.7720479304512688, 0.13070434347435567, 0.12416469394640423, 0.3847924275736125, 1.0057513103630655, 0.32410028332230506, 0.20822212465026482, 1.5038741953424617, 0.6649253136666965, 1.1785460339523617, 1.2266207711651298, -0.7769112356042414, -0.8538803847158274, -0.6569598642650377, 1.0902117464838814, -0.38250854322783684, 0.9971540051793494, 0.7363280931297522, -0.6193949815711505, 0.9479832334643701, -0.009104184939327888, 2.276457884751454, -0.1407940706853613, 2.7259070427094727, 1.015612439900039, 1.8557483594865685, 2.693161158416794, -0.9902077597544123, 1.46750833018464, -0.17012078273745115, 0.6576424308045608, 0.18481132338357975, -2.236960954665436, -1.196254420483858, -0.473988442338744, -0.8536743166555462, 0.42672581746177307, 2.2270426430637342, 0.12335868549283732, 1.730506960131549, 0.09154184784224396, 0.4324036612563165, 1.7951440919110264, -1.8670397149816513, 1.696422811102825, -1.3488482988659618, 1.1993771809657758, -0.19555688612905042, -1.2773067268247302, 0.36775989442964824, 0.5166223612597921, -1.416880402011414, 0.3151078905863588, -1.5483942753152642, 0.507295721634392, -0.17042944486296518, 1.7359676211253035, 1.649378767618605, 1.1221582613742378, 0.416851334121229, -0.1922604607969009, -1.5216935802908957, -0.26738551880960004, 0.5338420782798257, 1.0557226283773735, 1.3244945665658343, -3.0336905088810955, 0.5465377308999614, -0.5388873154949945, 0.37068361241244113, 1.9306007139526187, 0.7078254592650479, 0.18554936854817425, -2.904654788323328, 0.8276457760085104, 1.0325348259542195, 2.5176847377475555, 2.508749608992813, 1.9774768344233677, -0.38299987022091303, -1.2706601563676725, -0.9601427223174688, -2.5905093030233246, -1.606375365992012, 0.7033599307101145, -2.0166499689194066, -1.577083470962888, -0.6682696437197526, 0.6660169860914676, -0.43069644502719434, 2.325248226120268, 1.5761442410855275, 1.0427244305072028, 1.4780910325700656, 2.893316692329143, 1.3239980375683853, 1.2452569277206422, 2.8255801462892403, 0.7644027127731194, 0.546801762918631, 0.0034382344585530186, 0.17083569178472402, -1.2304098194236726, -2.900927075370092, 0.5192548868927459, 0.8646805859033916, 1.097406240016662, -1.3525468956185873, -1.3606586858938718, 2.7481241859876784, 1.7422329612920684, 2.7942206720232994, 1.8332120670534113, 1.5117129894700938, -0.8034819295227307, 1.2978148015253492, 1.4539474214181252, 2.270393990432855, 0.7892656365975237, -0.8964940420716796, -0.9305067242326225, -0.697901190462961, 0.6984066641141512, 1.1715266599407983, -0.9146669353489608, 0.21679993233741723, -0.4072673038953872, 1.790111151177183, 0.852305997080808, -0.7746684316313067, 2.682068199684642, 0.07759536519009438, 2.9737044279422937, -0.1418209064743041, 0.8990012120852239, 1.676881427276301, 1.8339442732241427, -0.05563990231633983, 0.21507017541788304, -2.013923370365248, 0.3066066451482614], [-1.186398141089218, 1.6927044169053318, -0.9888634587734919, -0.7736196742375605, 0.5674932984638276, 0.8386442427692136, 0.009103793763850595, 1.2819787157771476, -0.9241722570267581, 0.7674699835184421, 2.3922592348503438, 0.6923164317597843, 2.471314003915775, 1.5370002646765337, 1.310556156112306, 1.5407386912443712, 1.6436626107152046, 0.7269242453582815, 1.2299049743971706, 1.1221333425753128, -2.2838404111428763, -1.0135571905516263, 0.9247100001456264, 0.27174755075327983, 0.06351700771683097, -0.6247026528561368, -0.42454087757436904, 0.14173791456065332, 2.4402986046425235, 0.6492742030512565, -0.44248832584262665, 0.7310538904810736, 1.6405755877560046, 2.4953552691141376, 0.41174068286188514, 0.6728342494517032, 0.3757097610806376, 1.5542802402490175, -2.3187013828681833, -0.4015222247526431, 0.1403434404232425, -1.2661078399106784, -0.7656273583508876, 0.9080597875866104, 2.134585380179023, 1.045007242238242, 0.42943082144218886, 0.3291653222100595, 0.4455329070525182, 2.7264641486248617, 1.6813259285615483, -1.6138128227665245, 1.2904926491675417, -0.6954976438779377, -0.48167040373258324, -2.0788880587699583, 0.1815719468902312, 0.5305621849703468, -1.8909650618013052, 1.6617939338527343, 0.4166529363309389, 1.2123373519212262, -1.1204721586898627, 1.2857219872448016, 0.18345358781714374, 2.6364139112433542, -0.17298214283790422, 1.9560128782835595, -0.366853210424631, -0.8084569732565527, -1.0493393256047399, -0.8822836550371315, -0.021130481452249033, 1.9877701189514005, -0.5197728351890645, 0.462027778009871, -0.0349969213952539, 0.41048943697618795, -0.19397190963369235, -2.58504281889013, 2.2151269387920474, 2.3848169063473232, 1.0242144078089077, 0.36741519312452653, 0.6673931154281211, 1.4710787570441533, 0.5754205948281778, 0.20963628034470794, 0.18799957289382996, 0.30976878524804285, -0.017915213302287597, 0.2046739366672542, -0.3531477375360564, -0.6034483939637585, 0.31791348175440276, 0.49486123687977435, 1.4797290015636861, 1.3393560600540615, -0.2529567790335785, -0.35098075663464723, 1.3467463852950103, 0.9844227359591533, -0.44224104602327796, 0.8822295844645779, -0.010120034072801843, 0.5118952674989912, -0.3843855123476509, 0.1964289236699661, 0.20644862351511234, 1.3726585100657724, 0.5066392543647401, 1.0356344401386144, 0.15267619152110187, 1.925040422916587, -1.8303352469603495, 0.41450625699118776, 0.16984743192279064, 1.0115719619089243, 0.9409134443831871, -1.7576267355367088, -0.48751562788489894, 0.7374140167448389, 1.3805175911133984, -0.5190697053758686, 1.2583075603037384, -1.3172983047680311, -0.21715601112284147, -0.9934948576366568, 0.4981431760259687, -1.1258533385728604, 0.6513217281912134, -0.676210342872465, -0.03153403400230833, -0.996339659429806, 0.5658826509211567, 1.5778883733469675, 0.6301746438043319, 0.5552193956893814, 0.11594455250213133, 0.9383804797671349, -0.3885415978176372, -0.2919054181318354, -0.9521523350857234, -1.1579281370274035, -1.5493926277829608, -0.25651406420159073, 3.084362404287285, -1.104579209728236, 0.1740425042153138, 0.8043268801394592, 2.703061107021514, -0.7337905624426642, 1.5529680402663448, 2.919306797578839, 0.9678382756732521, 1.9651460935563425, 1.0237050535984438, 0.35409585629362067, -1.3857148284975702, -0.6494115232780644, 1.0948547065314571, -1.3409461502618538, 0.5203883768781574, 0.7713500158847144, 0.011673323883673538, 0.8020999425769704, 0.04574654340053665, 1.9199256554377517, 1.7321744903488951, -2.30711519926897, 1.4644314326059094, 0.649500101258062, -1.9236123281510216, -1.6897776231711257, -1.369866277667691, -1.4632180029906314, 1.0945409561777841, -0.6008530761382705, -1.4285403565199382, -0.8823740576668478, -1.3002154602216307, -0.43650506061392497, -0.8406952108561728, -0.18215250165032365, -1.7008332434124236, 2.4393215172496228, 1.113074007722098, 0.896375682380376, 0.7874831727826664, 0.41886300494169026, 0.933514545090494, -2.127859058766211, -0.21315235866337023, -0.920807892003441, 0.5126010307786395, 0.03471716757401925, -0.02719874996531716, -0.23622642314918307, 0.2805102162525115, 1.1182339276941538, -0.6060401721596469, 1.659464110712971, -0.07359237580119568, 1.0854360428684708, 0.5879627603151719, 0.1434520974044494, 0.9056101860692274, -0.6604574916457157, 0.3972224553707699, -0.8101239876422811, -3.171493605944054, -1.9925254864755935, -0.815001295270983, 0.041574677439688325, -2.9962424505925913, -0.8995672403294949, 1.3156082969378617, -0.43879614409698103, 0.5201745404475059, 0.6519995463728588, 2.7642153201395927, -0.6056924933078083, 1.271241460514115, 2.2915280192698373, -0.04545028802094167, 0.8155344576771177, 0.6488185639373574, -1.066750002827589, -3.4218148487551967, -1.0581851517550467, -1.6740580884036709, -0.31715998345630475, -0.32117806099907403, -0.10836540830359441, 1.028758312887204, 0.4014301451008768, 1.0664010080566253, 2.046814665601404, 1.834199856600873, 1.491359113247404, 0.36783430090973496, -1.9068904719698354, 0.46886068825047866, -0.2764778295478449, 0.4750283279301369, -2.0458377760249666, -0.16547476172496983, 0.6693327857462091, -0.8240044639154562, 0.5943444544375488, 0.16160710654539281, 0.6212703991914851, 1.4132826008778385, 1.7032915845046626, 2.6473363486139103, 1.1662307108610983, 0.06088625397880307, -0.08874191593850646, 1.493010206038705, -0.006590626145769392, -1.2743803534273785, -0.945227970535135, -0.20379389779257462, -2.0884169151978598, -3.5533459551197937, -0.6430536728830215, -2.755374117126902, -1.220853094494733, -1.4557214168218677, -2.4153427220314465, -0.44331432954525857, 1.3045121381582805, -1.3148904391060807, 0.7978674360644737, 2.2678055715476324, -0.23611025716896616, 2.229478932807442, 2.4923158200873283, -0.20776463195950862, 1.0273036067713421, -0.9421866156935442, -0.612246937263062, -0.14874872006269088, -1.3841907558591073, 0.07717458186545757, -1.5227191088008774, -0.8759461609542227, 0.8144057907609562, -0.6832804614762411, 2.889436516548656, -0.36322896147652506, 2.167415637758432, 0.4520886432135244, 1.3348233871920239, 0.56522928513891, 1.3233292463658513, 0.8825707744239576, 0.8812964529592924, -0.5457823772022723, 0.6507917883828319, 0.3955214092930455, -2.6566438328402215, -0.2589584307525083, -1.0937233572979281, -1.06508535775896, 1.7307019037514713, 0.9241455763537682, 0.6206317869906519, -1.47693429110994, 3.1857095129195425, 0.667849169432186, 0.8563094481717344, 0.44417822842968296, 1.0409144923982057, 2.075437056832953, 1.0148937180489241, -0.03756319595051818, -1.2303085242816303, -0.18245907462508332, 0.7369408399804599, 0.598864363848944, -0.386782145256102, 0.2696796341826067, 0.9429730901505607, 1.625696869653834, -0.10258548529855317, -0.006466910598954673, 1.2850101465792705, 1.2668015378676785, -0.8015865775285592, -1.828723103391379, 3.468437149485194, 0.04108873726672705, -0.48281942907175807, -0.9600600870409406, -0.1332344227149022, 1.5327255975728304, 1.2229410294886516, 2.5711617293492344, 2.629365101635431, -0.027073663903836736, 0.09309771150547336, -0.26499222806577455, 0.10704820533397945, 0.9067561308088747, 0.30336509229868325, -0.04359504398151719, 1.6891625756662807, -0.42553694911791184, -0.08948419955805008, -0.47499627120924554, 1.1159368670566416, -2.077314053477991, -0.6435798697321694, -1.0118162216835471, 0.4839393523227516, 0.5016342303250305, -0.06852564416616685, 0.07604490164745074, 2.6416049585938817, -0.558237509739684, 1.209541920440549, -0.2410520752471297, -2.094960445795725, -0.015458109968900895, -2.0725011952198917, -0.43948894774353, -0.5374533421119089, 0.2784093717797739, -1.7531697343043897, -1.8150805953379665, 1.4487658924383038, 1.9117068725933433, -0.31408663248192303, -0.47434194504008353, -1.418493357140174, -0.6175030736272401, -0.7543051123753366, 1.8932157502089957, -0.6446415768841008, -0.7525091876902514, -0.6885441737786195, -0.34936134197726415, -0.1301957818898914, -3.2993167450291545, -1.4965435223951054, -1.999293522109247, -1.4998603910761177, -2.3308734379775973, 0.8248757488536924, -0.9701965114704594, 0.9050145355330326, 1.6941888160487844, 1.0443986712426003, 1.3844218575530725, 1.8735190418350895, 2.490163775163307, 0.6543720830132373, -0.6698634279237613, 1.9744529501302759], [0.5423226290721264, 0.9116578725572699, -0.0384522963993982, -0.3252704431895138, 0.04530524750022703, 1.7408952008620133, -1.4395733032522042, -1.5217267283205322, -1.7148023259467196, -0.9547340277173517, -0.10287864373899398, 1.2011332591100856, 0.9613408067046079, -0.1447517595153452, -1.231622287520288, -0.24844194479970608, -1.5304389959371696, -0.2663588431507241, -0.05668230472105248, -0.17594853213142167, 0.44888061999354556, 0.5391032715524305, -2.4989155851798563, -0.4095211932398864, -0.11091818335442237, 0.8569174492991803, -1.3101544281849933, 0.8878679942472116, -0.8314725034244259, 0.38947071490553453, -1.6880509527014966, 0.11165728682018307, -0.40194313760521866, 0.6557133439935823, -1.3430435559425757, 1.124208375754532, -1.7175181016098786, 1.992205563186064, 1.3894283915356818, -0.47716940226589527, -0.7552495703788173, 1.251934574939488, 0.19462525236871225, 0.5372920592740368, -0.600092448873172, 0.06340131772586104, -0.8871168827421385, -2.4713444380619527, -0.9463875468715615, -0.2134158342086496, 0.3468561167275225, 0.6624872300887282, -0.6021174155631703, 0.5280270471728788, 0.0004952476274037579, -0.3020809299033537, -0.17088596370370696, -1.1504217956153706, 1.069458182677627, -1.5147762401105536, -0.5764274116290758, -0.4267603555182439, -0.14665045658349957, 1.4919517546523988, 0.9725998717974779, 0.5646853538539992, -0.6027433927511078, 1.9192289077730151, 0.30539351285300276, -0.4494471174752052, 1.0769185749635726, -1.4500528401384392, -0.3521399051573928, 0.5520669183018293, -0.2102830073988155, 0.058702437518064525, -0.38738873166494286, 0.7970042947818805, 0.25299865216797623, 1.2093542346189636, 0.46682508589405347, -0.7109875420069305, -0.38261384268538207, -0.8554411793363151, 0.15577743037522784, 0.1679174957441462, -0.2153706858975993, -0.9270600041476837, -1.2265125584042145, 1.8553809747707763, -0.017091454599018376, 3.7194027739659026, -0.043704146217305534, 1.6332816438726743, 1.3219975151962455, 0.7362644633382603, -0.6641009199484951, 0.711177830855103, -0.7953376305881679, 0.45449430494701204, -1.59184043715532, 0.21544181571695267, -0.1020540101417734, 0.21761441746271584, -0.7651795315124253, -1.8677817868425188, 1.1374389775673115, -0.6451026804434001, -0.5694939988000061, 0.3334695184689593, 0.5390192380406263, -1.2285258401494683, 0.09145027056426876, 0.1091684177545877, -1.6643760339231424, 0.1460645727158301, 2.153368271738829, -0.8548690940179471, 0.31218382603515615, 0.6863507334840309, 0.34724632506828407, -0.7531264769275058, -0.354135314640619, 0.18024079236669546, 0.8733789951337552, -1.2971477088036094, -0.2696203082270502, -2.4813064432329783, -0.09475021543241625, -1.6533855897774732, -0.8788712004391822, 0.5144124231509625, 0.3367854672849726, 0.39447282801697836, -0.6682351691217298, -1.0469542501884714, 0.09255356130636304, -0.7859558752940762, -0.8737834564026822, 0.5704122508565028, -1.740804360277082, -0.0010652861165681162, 0.5483355697605319, -0.3386861229599686, -0.05180338302297827, 1.294314054632067, 0.30025599898442196, 0.3687300052363951, -1.9897907451395038, -0.47130600819321306, 1.5246411513717582, 0.6382503802626653, -0.3744205816392314, 0.24991065862327255, -1.3139583861315747, -1.0368511088778158, -1.4158914752893705, -1.5378213507324727, 0.278137860224044, 0.25519438919709414, 0.5792196357279705, -1.3008067741623555, -0.4298584280817988, -0.23386125636324243, 1.2371714827864377, 1.3028719246485767, -2.9602969864788284, -1.6534390589948178, 0.23153714147855467, 0.42172875101601826, 0.06746693220830048, -0.7581157768125831, -0.9181556202682084, 0.33261201088553927, -0.46067403454648975, -0.8014473406068848, -0.0925475922245583, -1.7648819822924104, -0.46109782738026456, -0.8337384143252594, -0.9023318682200461, 0.9877172825717426, 0.9463001838733974, -0.9952758717676473, -0.48800834245859975, -2.158091245270084, 0.3356736933348915, -1.346942078775962, 0.447416053419776, -0.24820207168373823, -0.06599375863903137, 1.2300312178412185, 0.9569702862051163, 0.7239464402650159, -1.5935316139481903, 0.019794582736363756, 0.1479671040801193, -0.24252529610816628, 0.9227125715035676, -0.8048873481253709, -1.171786137328068, -1.079824394537899, 2.300528769398516, 1.4456156023699138, 0.7293790301941744, -0.16525231270276322, -0.14577614882605347, 0.5557389007148272, -0.7019592984514539, 0.5652302783522768, 0.578987682690506, -0.7561671901993327, -0.32938290766775014, -0.8919162031688812, -1.3974718941887407, 0.8190347605680495, -0.9247895134287273, -0.3091032631658252, -0.3613590050184208, 1.6339567718059147, -0.01167138175974097, 0.6723844431210747, -0.07854984309757362, 0.0513181574445624, -1.95589355814794, -0.4375509972423887, -0.44988722388963626, 1.5433839847078017, -0.13774862111348685, -0.11760524789048737, -0.34007299582183786, -1.0659078466579959, 0.68337135648674, 0.3482872545272948, -1.3569656759322493, 0.16345395134290527, 0.1967895514199886, 0.5829367763647035, 0.5907880293857789, -1.3347656270722021, -2.205802808472163, 0.7650537669764316, -1.7131277580737938, 0.055657625083704414, -1.5754384690007772, 0.6753195116282836, 0.6596485931762298, -0.2474108693800968, -0.6359445480253904, 0.0709142327602933, 0.4604806035329993, -0.6729747501567643, -0.2595126819051809, -0.04777643073921145, -0.17138674344633664, 3.2578080245748366, -0.3848921396290142, -1.6646398541819312, 0.41508263971160875, 0.7433026571133413, -0.6245256777045308, -0.17143567855388298, -1.3591944761660517, -1.3216861955661074, 0.31035213656912225, -0.6292155994718878, -0.45317587801245307, 0.6222988852631496, -0.06800023859850833, 0.8483779440066932, -1.399403681133702, -0.6816153984049153, -0.7774344962912915, -0.2378922013562229, 0.8184202242660765, -1.0331127557990998, 0.45282141354839794, -0.8586069297612693, -0.7882941393876568, -1.384090248619482, -1.4874351503774315, -0.14285345323576423, 2.3265871129920512, -1.6737357731569493, 0.15224053666861417, 0.36247928083083997, -0.9755382149223945, 1.234511549409198, -0.7467956594582144, -1.3773340878909999, 0.5900413561054625, -0.5453764465202543, 0.624644112845268, 0.6817140627607104, -0.10707718287375687, -0.7581552554991223, -0.9607620711286358, 0.011808659055761247, 0.9937518786360645, 0.07365443099841558, -1.0939912113099821, 0.063475903715188, -0.6392961227565823, -0.8095675387878962, 1.2583700139016032, 1.8433604634269678, 0.019789943982338187, -0.6371297451585014, 0.16004293496250935, 1.1738675697578551, -0.4786970593710998, -2.3586004581214937, -0.32276623448072045, -0.7608158239919651, 0.6597433283787834, 0.5623254253746294, -1.3481002977778374, -0.18047504330114575, -0.8386973830898807, 0.2030319736381555, -1.0263781740950748, -0.2796135934557935, 0.19878338562219777, -0.6400145058355514, -0.4912894130900184, 0.15987128703834394, 0.8587519155991803, 0.000898548390458631, -0.17155930045029155, 0.2877757373243286, 0.3174142747200968, 0.30824431474305675, 0.2865513916095992, 1.3822011433918258, -1.1179989149911658, -1.3048518433764535, -1.0122308432948866, -0.9735660539459602, 1.6859883439624395, -0.8303669073855082, -0.9444096624141726, -0.009555334881024093, -1.1325860344533294, 0.33147413528418945, -0.42684567474357826, -0.9479598095746593, 0.8320800531599728, 0.20396297032618257, -0.24118082376963043, 0.06069240354148041, 1.360778451328234, -0.4829087643208558, 0.2300592879607051, -1.0737634756855978, -1.1126429356581835, 1.6867277360080428, -0.3608822772568915, -0.1688323427939587, -1.557708608447081, -2.1326855680835703, -1.1307885208481563, 0.8896195011078365, -0.07521353770628524, -0.71328934783226, -0.40806841476422834, -0.9122592546526541, 1.2126922953989758, 0.4746463457564083, -0.4637576219189268, -0.016200144497981964, -0.028841378708327252, -1.0983745561314708, -0.39303409130584405, -0.760762582001167, -1.306088759003525, -0.22995977366364545, -0.5594232257312971, 0.3109768473941203, 1.001005802821389, 0.44638548361843716, -0.0893423224617005, 0.72311705536857, -0.845975227487114, -0.4380985751089911, -1.0101268773598249, -1.6064825613033142, 0.2892515538177991, -0.4814818580440557, -0.2592577781729828, -1.071053009010811, 0.6849837967205038, 0.934513858736688, -0.10620845120280564, -0.9035255412434329, 0.08381974480770289, 0.4015773674449416, 0.3615276527229545, -0.9578566103609795, -0.2817993406337098, 1.2299645155976922], [-0.4813181356539821, 4.066430436478454, -2.9477458104821066, 1.541541403638034, -0.1264620044568989, -0.5126934235762143, -0.5049020421992374, 1.8021695128941917, 1.3222143173157925, 0.9673957386143516, 0.20608897364678813, -0.5322969677451274, 2.262173246738224, 0.9631182819831933, -1.370724765773077, 0.5913676662442742, -0.7200441353006939, 0.6342662272709352, 0.43789712323122615, 1.3090742646141666, 1.1238153136962283, 2.321157126992159, 1.054431951728298, 1.6080491039531781, -0.2034837576323686, -2.398753271843972, 0.951466839010112, 0.12522862116588124, 0.8667011107483167, 2.1458630575226203, 1.346540638054896, 3.671871324796894, 2.637432496954894, 1.5781348927168606, 3.3737530394341104, -1.295674818668278, 0.9601387886119034, -1.6181991818310548, -0.08151076384388166, 1.2246147965460346, -1.7888111762874457, 0.40345451391383186, 0.8422768991453778, -1.1902936771782988, -0.23071702722237555, -2.8455638309097764, 2.486379729715746, 0.15388675252178347, 2.2198375897492375, 3.0238490376871807, -0.1644279391965481, 1.5813914796959017, 0.49588916476391465, 0.6308766540144178, -1.1041199854097508, 0.8006851407749123, -0.41167214571899335, 0.3154652091511595, -0.41609585381299297, -1.7268367379917304, -1.8430111212716982, 1.9273134864771215, -2.1843314670910132, 1.8344183455595708, 0.04175386157406279, 1.7044400228264365, 1.0476860768431198, 1.5074890799654328, -1.4193747504932475, 2.2830623022338465, 2.1746600486341054, 1.124929660075876, -1.768923632979052, 3.0180510615655267, 2.1350977158511166, -2.3782992425604625, -1.8371597182053985, 1.0354625841121257, -0.9800509716294271, -0.9248545928563011, -1.7806456724487487, -1.1302139604944152, 0.47745437347133773, -2.223839296309722, 0.34151546198981, -0.4905612390029404, 1.552658230083864, -1.3845116513155598, 0.4917209139745363, 0.49826100280635466, 0.44472111347053606, 0.17503642988096135, 0.30964587458083465, -0.20482972805609093, -1.104813618560901, 0.43580384718616394, -3.2749774847260698, 2.401037270220565, -1.9687614298476286, -0.5956643966981795, -1.4311334065002865, -1.368231489355912, -0.5499110762782047, -0.7298729306721005, -1.6788321851227885, -0.5427292304221196, -2.5119796683270703, 1.3985464166801187, 0.5244667329675433, 1.1354082949640265, 1.0961542172774486, 2.6960891824798514, -1.2653478996046832, 0.9637627087564777, 1.202332990654182, -0.557544786158627, 2.577434969292643, -0.6009700046918385, 1.7308304203577172, -1.1683825002571553, -3.82435558042892, 1.8342577522408097, -0.9551714805092604, 0.6820281114611654, 2.1300291722085984, -1.5914602256971357, 3.2472908470352397, -0.3171375308627282, 1.98233892876997, 0.008513330193736773, 0.4376559036494027, -0.9001089887791567, 1.1647712439695534, -0.24582341238154362, 1.2615847787196408, 3.038084760455841, 1.7181762929039541, 1.7925008404354668, -2.136441951765631, 0.8176434521219687, -2.0539291796423864, -0.9587019961042875, -0.24631745959960322, -0.44662448487326406, -1.8364496464300963, -1.393542037751301, 1.680266284943212, 2.3087523948947535, -2.0871555615711186, 1.2618302624126492, -1.1078400303005569, 0.8398674592972892, -0.42379273335236073, 2.707340504304012, -0.6001151858024475, 0.6670392460117441, 0.465494492902728, -0.18416991614474318, 2.0010039397059876, -0.8882022967197539, -4.271896628615992, 1.4148840122014268, 0.27261713476540655, 0.4359244021279284, 0.19668163215722453, 1.723302824352477, -1.824486222065875, 3.0311712367034724, 1.0996253985398303, 1.293512433489016, -0.008605520110313467, 2.781563836839983, -1.5612112737859756, -1.1583802480277503, 1.743994493726637, 1.0491931126303462, 0.7974860997271274, 0.7541300435982792, 2.2056684786280765, 0.5998198372220828, -1.1637436023771273, 0.30056900328682185, -1.6071514966959697, -3.0435621687625907, 1.0459019900426487, -4.459642310831563, 2.9470377985481195, -1.6040286488403317, 1.3174714498870532, -2.524581453162114, -0.25838510130914333, -1.74828429561052, 0.3039812076560784, 0.9493029125514691, -0.23862427994112612, 1.8646797404259687, 0.20175332264969434, -0.050906924533756455, 2.6743167382178714, 1.3576415409785987, -3.7330851110354573, -0.45063042759948324, -0.3082203405419075, 0.6563368462413289, -1.825823450008903, 2.9570641944484546, -2.548046780162555, 2.559027995447819, -1.0926160110541392, 2.095217877229239, -1.565623597027448, 0.95476162270328, -1.5067773778441471, 1.9825606611397513, -0.707043233740014, 1.9804371999113815, -0.37857907341910607, 1.007076039885617, -0.9466029708922797, 1.1458158419983737, 0.1908984043394872, 1.806806034458407, -1.1295990559871836, -0.7615436557682307, -3.2935980341238476, 2.8075981430198, -0.5682018733536767, 0.5561272641228013, -0.008631509252300443, 1.9230928814793338, -0.757192171350279, 0.7401247234237438, 0.25831827595817125, 1.126283283686166, 2.6305474625313527, -0.7879010195222184, 1.5937109230019648, 1.7823208428032915, 1.7340311990356025, -2.1154397098095763, -3.045818917795595, 0.3567940814547735, -1.6462817308899937, -2.019283384550604, 0.7869436065510521, 1.1021262758285006, 0.5698521354720918, -0.7581164786920955, 2.8644777299631805, 0.06945432953314273, 1.4765451640072889, 0.18998793015974777, -0.14512119840708818, 0.36379937497410647, 1.1879783120407097, 0.5047950887340455, 1.5750946892648274, 0.6961215912218368, 0.14214130584809237, 0.8285928900737622, 1.9904655203618984, -2.7940875365987003, 0.48495665395158444, -0.4963054286621378, -0.29333868884254444, 2.104188853260725, 0.6754673118721061, -0.4847639808402409, 1.8876149289397397, -0.32321117607514194, 1.1111497485757011, 1.464381504196999, 0.9790117628480017, -0.709725283011522, 3.492599293157723, 1.9409334826807976, 1.6842521952512666, 2.0049939738333675, -0.08086177275060288, 1.1441685958647307, -2.7061747045689115, -0.49235030322888507, -0.17064928436110394, -0.9363840267133731, -1.159688709013279, 0.1737205034394271, 0.3601254101081055, 0.8805816381658307, 2.393676523384058, 3.308113802866675, -1.3025323934996396, 1.8520162506167772, 0.37173014658758524, 1.3061842557053596, 1.06256732193897, 1.3139714952025974, 1.6241730295726176, 0.17994523059380402, 0.8308200286892264, 1.8866864900621363, 0.05003514449594433, -2.398413439501165, 1.6523974480518357, 0.2395344829159024, -1.7347798238622096, -1.864087400597578, 0.18005750591202865, 1.1408245492274947, 1.1998635066214365, 0.010301809442996574, 2.477553031128041, 2.2917679601390515, 0.7337349021003725, 0.8012855308723997, 1.311312982536644, 1.4672640366477785, 0.7160083173616378, 0.3731722930300424, -0.4083229646834239, 0.5688314767560304, -1.6292568907108105, -0.41851976189957846, -0.46292661420559583, 2.4991798545267043, 3.758994571497444, 0.22896297310714026, -0.0753615774945432, 1.0299532138351546, 2.764603092950883, -1.394413098580899, 1.2271668377597897, -1.210371117295864, 3.6322613599338394, -0.5820154933513957, 0.15936706230446962, -0.5411091901279541, 2.783004929984157, 0.37552473635972317, 0.4091186547333607, 1.0630522707211718, -0.4023843992497581, 1.2773951837395534, 0.4076221454973059, 1.2351983900882513, 1.587729222051786, 1.0250093948008054, 0.8587188173886063, 2.0560558024048365, -0.7700896488222093, 0.9832111687035372, -0.44557030139372983, -0.1951066419720076, -0.19626669120820375, 0.8384080761746807, -2.582852989003003, 1.9685619518914235, 0.6014887429492479, 1.4490315056488918, -1.7393283433933917, 1.2275770287641437, -0.15803879071275193, 0.514080380201956, -0.4222544812666797, -1.5756906680433322, 1.058125178722088, -1.144130260791659, -1.2411799248218294, -0.09481130323346246, 1.9814407273324772, -2.565470339694887, 0.8093585058558806, -0.4222646540985102, 0.6837386329617934, -1.0465478772550776, 1.2382341102341197, -1.4981263719107991, 2.6820654908049955, -2.3247903453731142, 0.1639088685889548, -0.019128721066508498, -3.182190781189074, 1.351307477310771, 0.04122185594871398, -2.4733329305893736, 0.35792108459939265, -0.8619548611462451, -1.1024505705087764, 0.4238649135604724, -2.930280316882777, 1.5414637479169206, -0.29875421653621564, 0.7407828313633269, -1.2833760691309302, 1.0656353305902069, 0.8624946640452958, -1.7999718952490487, 1.1197411201053704, 0.08574771723023078, 0.6475572890675271, 0.7208022470234303], [-1.174518592021045, -0.6458247457829832, 1.2794422589278844, -0.24704563267520555, -0.16975907460091824, 0.4869895608169779, -0.7060008401521304, -1.1287958134798501, -0.9776932353426212, 0.07958444649453203, 0.5480696568596843, -0.7466480089481883, 1.6538144532385801, -2.207017317519638, 1.749413461605926, 0.39137311965428145, -0.5717467521498444, -0.24117544138818603, -0.5041292886715661, -0.5268891897411822, 0.292977942311948, -0.7249087610670506, -0.6233211824043214, -1.2966881278788067, 0.6378985770399395, -0.14934355558799428, 0.5454611300689034, -1.3418635685598965, -0.278244975451676, -0.8814026045324381, -0.881695075419499, 1.4434933085719774, 0.10299733468616458, -0.5935739999482195, -0.02608852930897759, -0.8151760591806995, -0.35289171942687614, 0.588498536406332, -0.20224484964364936, 1.0505509783326072, 1.1320714409891042, 1.0141784540027663, 0.970569868425261, -1.424997574930917, 1.8230860724580173, 0.439236313240993, 0.33699013566267005, -1.1962818375623416, -0.32800275393532524, 0.043843134927463744, 1.4318684836550544, 1.3481493850155986, -0.4810023735529146, 1.522778224546728, -0.9292361605433733, -0.2291795279472603, -0.3782040228984158, -1.547384137283662, -1.1209123623860848, -0.8641432161211212, 0.06769208578726163, 1.400744570180911, -1.097892271245017, 0.6965393228921173, -0.4050026178937307, 1.047194092728069, -0.5610065775191015, 0.44179831021454913, -2.063973826168039, 0.803791756566542, 0.7642852533945875, -0.5470312868205317, -0.41261948284838235, -0.7959395934551283, -0.41716696086905897, -1.5145897856673927, -0.060208515560803484, 1.3985248135172408, -0.7911951762385849, -0.17224167490060435, -0.349966540100615, 0.44899660876209035, -0.9369391846295841, -1.2738949431708517, -0.5241861042915189, 1.378683161831746, -2.9702218793623145, -0.6765527711908111, 0.8926583103967495, 0.1885383919585867, 0.8972648032937588, 1.3269830136227567, 0.428732939188888, 0.017918686981354955, 0.510839628853357, -0.28945344313265736, 0.45846830520041665, -0.5272809800086172, 0.6715471218887186, 0.66377011082675, 1.3474800403206397, 0.7822142946938468, 0.06943024292932673, 0.3771928106866041, -0.1500453667227639, 0.9467487954279729, 0.31421765635879373, 0.01686990873416631, -2.0992443918110406, -0.22361407982826245, 0.792102009729727, -1.128095664902689, -0.5688491630121019, 0.5285811423392328, -1.1280438103356476, 0.3186778893649598, 0.11256742518284941, 0.455631576454882, -1.6442454113691283, 0.9975571380680048, -0.27180716804666233, 0.16756419350673052, -2.3181463310321764, 0.8953162227280914, 0.012540250856313136, -0.7926316319977256, -0.6365891024644539, 0.6206435380393904, 0.3126043572954007, 1.0264315200585115, 0.2574811594167041, -1.4689085413591503, -0.04648736383279255, -1.271059344222881, 0.29048865692369524, 1.8843756227416482, -0.22784771390493228, -0.36866864908678204, 0.34499552645686626, -1.1354579200379156, -1.8350250942951556, 0.658269514666506, -2.901576640564659, -0.6815037556431437, 0.09680204781652063, 1.1651427964826642, -0.2835360617687279, -1.0464239040092023, -1.1515572612563298, -0.2712422383780874, 1.233685890002353, -1.5520217970526888, 1.254665438333381, -1.4088937911607875, -2.7218840245132054, -1.4800961837743278, -0.22581934284946645, 0.11814325750241922, -0.07551894079879129, 2.1266248249650332, 0.15395109416800912, -1.2792652250536207, 0.5729205906193046, -1.476213732913014, -0.44442670373842913, -1.5419517529999087, -0.01448634169863549, -2.228318032738459, -1.1495017335687796, -0.16901610267925246, -1.6675414677823126, -0.5981804723929447, -1.133492681666094, -1.2402166079859216, -1.359662171182669, 0.11871580908187085, 0.12114865509929237, -3.2533909502081992, 0.2888027750151336, 1.8274763549947648, -0.891185085124015, -1.6605222013150318, -1.1620258966687567, 0.17114348933060333, -0.17819793842809686, 0.010820871899015478, 0.7465812422095757, 0.9464795263678183, -1.2788582916893922, 0.2411611604149029, 0.8365257776080877, -1.6628682606265297, 0.027769782072600318, -0.40968578685588775, 0.07335555309687541, -1.0486088352220413, 0.976989604200287, -1.4311422809661145, 0.2855456922587369, -2.2586195186235374, -0.031290619830818135, 0.040253243594803735, -0.9354291019716571, -0.40449318906230997, 0.6146810584972708, 0.14449539618158896, 0.5683801093349076, -0.3461868540902833, -0.17580131098905202, -0.9009405745115955, 0.5384253588614942, 1.5037394261015726, 0.04481642193470244, -0.28818297470756216, -1.6273776838436114, -0.8070664491202747, -1.2394101443258314, -1.722851338040275, -0.07443407825738206, -0.6857747842778015, 0.241098848643001, -0.9927128446158145, 0.6084918688814854, -0.43082526139667066, 1.1153497484531416, 0.557544015724904, -0.2705080353059027, 0.20656138676257388, 0.3684960353305862, -0.4408599385234741, -0.5873519035008842, -1.761550699067278, -0.5113110470936607, -1.3098923215676004, 1.070897222997118, -0.8976725983040421, 0.9719908127683348, 0.24063625987978995, -0.8086525209191252, -0.10150933198884025, -0.6095548527907592, -0.6758970480590789, 0.26504946370476523, 0.2520739890948528, -0.05925561501219326, -2.344458751699978, -0.6674434442344854, -2.0997967841745937, 0.0576650561255538, -0.04779449649896735, -2.8734369465398366, 0.3781742561778025, -1.03043927371647, 1.2511967387716891, 1.753577692013727, 2.2449833670346107, 0.618998145301993, 0.02575737672651192, -0.11166049529977576, -0.10888120544958392, 0.6497305071205158, -0.32833991129955403, 1.6436433335893454, -1.4075003794024916, -0.6428625108606445, 1.0610565365445235, -1.2185097087572576, 0.5735037512289733, -0.90930531208025, 0.28178016424455704, 0.1915865982187945, -0.8035478435676561, -0.6300820076551026, 0.13889220862418777, 0.5704402645355781, -1.8085211263195082, -1.8985750075000505, 0.7773999528107703, -0.00910467305561301, -0.5968678653051666, -1.3516488038234025, -0.3958080832042197, 0.25332531220109117, 0.0196723119084375, -0.3762278747863235, -1.233329977038357, 0.03205015343580347, -1.091771767390875, 0.6726278773776723, -0.11324678465559587, -0.7712040029015685, -1.2406631998328868, -1.1971240646763828, 0.09485151222008685, 0.23188199340933432, 0.2346852641515212, 0.8351998378997503, -1.5121420464145943, 0.5739616761872245, 0.5868971480780528, 0.9159154854535706, 0.6314248884392691, 0.9135897853597491, -0.3751078637164319, -0.07784374526098645, -1.0162063568807713, -1.7236860588315277, 0.383968575416746, 0.08677652115373803, 0.8483539713829736, 0.1991538761637084, -0.8079909607008984, 0.838183916413786, -1.0312156197015927, -1.1880457585387139, -0.9942697002079769, 0.7014160932022485, -1.2888300823914114, -1.1492303157946613, -0.42054936151711, 0.34341765120285433, -0.9787632074555527, -1.0964407175617321, -0.6177274538033173, 0.25910889041333895, -2.1853797135279076, 2.7699801929672785, 0.18294056095138594, 0.07276845088606666, 0.3300404563171197, -0.7618309186613436, -0.9606839065992296, -0.35957491413608045, -0.347243546714501, -2.1560601959863233, -1.8705804308518224, -0.6028906351280072, 1.0192953344794564, 0.7074538056519133, -0.2619829696654336, 0.30033870130928647, 0.48884193549272714, 0.8382050297151261, -0.23751883033479307, 0.7085813986353335, 0.7106575964273348, -0.3744365906885474, -1.7592593031454984, -0.3303623850763204, 0.3019693299255087, 0.3778926800438944, -1.1626217285956961, 0.1504417632904601, -0.40289913491259205, 0.885230903419585, 1.3271459531809242, 0.9256066185716012, -0.5310672226453667, 0.4574535878769984, -0.5677353634132599, -1.7590370437589158, -0.43722366718347083, 1.5314400637966046, -0.4413374382030864, -0.5977183989598976, -1.8388951436307888, -0.3640772934000509, -0.017482211048834642, 1.1016597318296693, -1.2843386715394134, -1.4994450367857397, -0.8222733141397423, 0.5748491582653226, 0.30309411697413496, -1.642729474751048, 0.07020393306252812, -1.3355420677736838, -1.6053403468208156, 0.5967018358649487, -2.480884573705789, 0.5301103429872959, -0.1764914382848918, 0.4385164364703346, -1.1484671213738835, 0.6385316500402226, -1.788886513161645, 0.9924774182811816, -1.3528474230221124, -0.4582379662689586, -0.24334829060180238, -0.17217135770979133, 0.9632652778588071, -0.7303139506152866, -0.9953633851803056, -0.19775963493498294, -0.7672390126156674, 1.1145743023359254, -0.7082274110526879, -1.0063523696873964, 0.13688320004053736], [-0.30443464283078236, 0.21687389703438262, 1.1587877378550326, -0.14902851365413244, -0.6819514427871041, -0.39616810585999496, -0.23564728098373275, -0.00289057473121165, -0.43204591351174143, 0.7586085084363268, -0.3539263401461956, -0.15235328071033524, 0.5320635340058051, 0.04996721628491391, -0.9390862646884756, 0.5985650095344055, 0.6896708196274249, 0.7869700970010803, -0.45765274750722, -1.5924052881951551, -1.8538854118734722, -0.9723735845597664, -1.0918611517449757, 0.7959175417605335, -0.3793354493811748, 0.8317258362008473, 0.8678709755897325, -1.1724532500594425, 0.014553518020202428, 0.45313371979709816, 0.08444532738514655, 0.7856902843531558, -0.0787570688893063, 0.13147370327719662, 0.23541437125134576, 0.1993504381060732, 0.3160734232394912, 1.0675501749955232, 0.608615322821804, 0.021339802379973676, -0.645288086378408, 1.429942525165331, 0.4020583851904578, -2.0473661387596587, -0.23892325595051261, -0.8977455751881027, -0.8037661082704656, -1.566866735726778, -0.6512111250696325, -1.324645604796628, -0.8783179161074328, -1.0268106786022633, 1.5110027562527721, -0.15249285914775634, -2.352044883709523, 1.702048168622097, 0.22362610192712218, -0.7549898202237988, 0.39435029769471525, 0.033650983802391794, 0.3956623074534443, 0.3959590432162055, -0.41455483615918165, -0.8272294650508146, -0.6675325249078531, 0.6683301941061942, -0.01871945658886637, -0.8183180086337709, -0.9489332505343357, 0.09813630649936494, -0.3462169726702697, 0.21328434366876775, -1.0772296722902643, -1.2812345724484937, -0.8880714857084052, -1.7635154806991842, -1.5345160506254238, 0.5391784732365239, -1.0147847627648425, -0.7286234921240258, -1.5163116398974756, 0.17489184309098904, -0.10884634225496465, 0.4972657118151589, -0.3600603826373909, -0.7313843383716042, -0.7406295604390807, -0.1776828816345847, -0.6497438574975504, -0.2794258891603406, -0.5901459947656962, 0.011750727103841575, -0.6228765029709005, 0.6635270095247555, -0.6072458911102439, -0.09567232765596256, 0.9468921564990673, -0.8839902418931749, 0.42072857215551906, -1.0550011835046267, -0.12373553784597147, -0.3455531617592177, 0.2757897284274129, 1.3538826853717192, -0.09246195565303554, 1.0649731483084128, -0.08236379830529919, 0.5302054277725767, 0.4788591680541499, 0.15502275817504596, 0.3044280241509773, 0.4153580325711248, -1.6523564136252242, -0.5602625932680092, 1.6728778248852834, -1.0828509068781758, -1.0908398762437808, 1.1313585606207452, 0.2531661396446326, 0.6608712937848702, 0.13098638461016596, -0.8854873573680254, -0.6315236181871576, -1.0497590993397208, -1.2752549850806414, -1.463950915674928, -0.6319127975688038, 0.7619772533938229, -0.3825823842372351, -2.8471202397487096, -1.9561863131883774, 0.3466789589960282, -0.27919154076584407, 0.8756877575259089, -1.2035705899029279, -0.30762164173893636, 0.9947933285318267, -0.5004125348807027, 1.4760521425023527, -0.6558502461695319, -0.28585413054416986, -0.8010834382279355, -0.08469346348601063, -2.4510704600789164, -0.31007444521839783, 0.6674549835506957, 1.023906163799327, 0.4189286468531652, 0.33217422802869806, -0.22229769607019093, 0.2120618419381865, 0.7827243475176513, 1.0112581392024405, 0.21145183788727476, 0.25186198637315105, -0.19581031233588903, 0.8957691740538559, -0.7062044178175833, -0.7603765131452414, -0.5639173324996064, -0.9805197205017254, 1.2110311738320942, 1.2921770267992856, 1.5028252153138526, -0.7915920802632775, -2.2229307666135254, -1.0343858412647768, -0.9034859323248952, -0.5292028620271609, -1.5308174983900584, 0.5625208130854712, 1.706358397726174, 0.3213177481568384, -0.14153317310501703, 0.9565670430274981, -1.4213973396273947, -0.38557048461831817, 0.4900752488203456, -0.38000625049987674, -0.4570013913653601, 0.8690940333092528, -1.559970401288983, 0.7649649230014551, -0.06041873904007844, -0.801641906721157, 0.6691518263827513, -1.5784711429689617, -0.3415198054244245, -0.02336644197086379, -0.22457735280932808, 0.36156787274923774, -0.5567950017627329, 0.3058618094880811, -0.44371327247583914, -1.2565078881938998, -1.237893731011264, -0.5812375634801744, -0.5156869200663985, -0.31491667197694173, 0.2927327337307437, -0.15178767862071793, 1.3027590324543037, 0.46212404733546053, 0.5874060148727395, -0.6367223530546839, -0.5521519724481547, 0.6198196013750479, 0.1509252038361585, -0.07279998421085342, -0.050265542209305764, -0.09317891547388994, -0.38512711918330417, -0.010747460149973059, 0.5908932465884372, -0.8366006008263488, -0.2686671802277633, 0.06435654389593025, -0.10014200436889245, -0.3786372427985873, 1.2981038182681353, 0.9091109226013869, -2.0890909657631647, 0.07916203254335277, -0.18023020016472602, 0.5057221158684485, -1.052629371899534, -1.7402663227098285, 1.3451618261485043, -0.2671533374695997, 0.31365743553569597, -0.27230659826188475, 0.0017655566138247178, -0.8769552458287443, -0.9032207964984426, -0.9610427096136995, -2.127913191273798, -0.9859181336502405, 0.6216950629746185, -0.025141269683088243, -0.6381884378639672, -0.10731014537790004, -0.6158801419422789, 0.43223676282446555, -1.1365147583059343, 0.22182456572418893, -0.3224551040672616, -0.7934070336090789, -1.1108110538502722, -0.6432399273276629, 0.305531243327739, 0.3012459866524013, 1.162971906301273, -0.2476082401113757, -1.1319245631206034, 0.7014283933207409, -1.3882004417208489, -0.8660101544009212, -0.5743604352056914, 0.8386691556299827, 0.9455155813746486, 0.12154714198575019, 0.06970306719284823, -0.3929252118240062, -1.0014814411116764, -1.8621725778670126, -0.287498206967012, 0.2841956690635185, 0.34768322037807925, -0.21764945379886264, -0.9738779567167332, -1.0745130979170194, -1.017627408000221, -1.4831543853234244, 0.28216970634199406, -1.7929098653289341, 0.7376599975009731, 0.525204814337908, -1.0430562850533638, 1.1214411866089338, -0.0671103459319658, -1.3305491249997614, -1.6151459835078807, -0.1381035638455442, -0.5832441869495595, 0.580553312652722, -0.6416861661962245, -1.2283822581230128, 0.12651770291070577, -0.33411607257725984, 1.2890450091627215, -0.550982039470196, 0.588616402932242, -1.0861914939736472, -1.7456597669455967, 1.2949943155864756, -1.3793312393863943, 1.2523420613835026, 0.9836456197261048, -1.5412287068574881, -1.4348893076471638, -0.8125367117918915, 0.7835947709025577, 0.9295210537985543, -0.3553201780251894, 0.7080822525077667, -0.37683587124721823, -0.8001757408175423, 1.8472232837884968, -0.6144337981949063, 0.30012145600586726, 0.4696027374920505, -0.32541335910241614, 0.4210768549570547, 0.42194368893081685, -0.288551619454741, 0.26030665669266057, 0.30446814937717676, 1.3888205590653202, -0.7217765281820145, -1.4432237102071999, -0.4088629369215455, 1.902461333859504, -0.724471324541014, 0.05663801456256425, 1.5741604690229347, -0.9169503971647498, 0.7052665507074724, -0.016050050219031248, -1.2426725815916342, -0.5978317987811718, 0.27744974281170787, 0.645550321506067, 1.4880715794223363, -0.2824702645711678, -0.820186134149558, -1.616862818779534, -0.06015122784130613, 0.43215943801919215, -1.2787951489223248, -0.5704522892779995, 0.9256020802245644, -0.770357641041316, -0.44600707628421093, -0.8393668883647241, -0.32670312555693415, 1.412283094080017, -0.17273935612598723, 1.1251593134849065, 0.11241365267781422, -0.1455979479525278, -0.5295039556402155, -0.2757641222811887, -0.9357459202729733, 0.7153766749200606, -0.7296808991595646, 1.39410826705721, 0.6724142018912826, -0.7294127861068251, -1.5237211659333327, -0.06092298895045909, -0.28796862051580036, -0.07265755319429579, -1.1135335581875576, 0.27929850946534, 1.218452149424617, -0.21354618667451933, 0.7001768627743484, 0.2662161379890705, 0.7588681369538776, 1.2339795115784067, 0.17919417904027116, 0.6041852964710119, -2.2974210635644057, -1.8501453107894283, -1.430269564484839, -0.6375676628782949, 0.1148557011898631, -0.19957813513841563, -1.6702967684644683, 0.07834216819620154, -0.6884333436894572, 0.9692792509040219, -2.092152992628863, 0.7217233557427274, -0.41847413278622875, 1.2574397344634192, -0.4612749254543666, -1.042747511851402, 1.0152629637381583, -1.1502054119221499, -0.8614746603929552, -0.7197215227517761, -1.1640978261315, 0.6293862683617679, -0.5406535961050827, 0.06588901668980991, -0.30206929195332893, -1.1757790479617183, 0.6439553937109633, 0.31066713069506624], [1.77269435998325, 2.063025813510869, 0.06316972001202113, 0.8562508690655842, 0.2093376897939572, 0.5442424204565076, 2.5811601567398457, 2.0084474753338344, 0.09369080713890462, 0.6336930444769059, 0.4252027901743524, -0.33703896788564464, -1.0727231496477478, -1.4979928843546417, -0.42299461729214355, 1.3443407635132214, 0.5674127285351047, 1.3351976191052917, -0.9127449970262331, -2.2854058434688187, -1.199076663304463, 2.8674608888310247, 1.048802076187865, 0.6469929363589818, 1.2617692543309966, 0.030597695897023956, 0.1777345543751836, -0.42399110039310817, 0.24427001546459243, 2.8373147211085037, 0.645399035031077, -2.010763158646305, -0.05551813903714354, -2.765107285945735, -2.0031223939983365, -0.28080292948505775, 2.003691539455601, -1.563105978304787, -0.34716227634736463, -1.4740074437987964, -1.1231465573834092, 0.13662194224064164, 1.1770939192722627, -0.010498142737452396, 0.8213023743695278, -0.2701260042918785, -1.358019762434635, -1.3835103330321576, 1.3537753443040865, 1.7955094565159337, -0.37331327843983925, -2.4523653819553197, -0.1207810997351476, -1.5377097197751035, 0.6320410918182486, 0.06126962212425007, 0.6343218512538114, -0.20504930202550622, 0.31322514944455987, -2.5534758161089117, -1.4905457469710393, 0.12341074034123886, 1.7251338036567199, -0.965587325250374, -0.9996804157987254, -0.8132232766220988, -3.4721417809278194, -1.09239536131884, 1.7383363311128595, 0.09696967064963484, 1.0197544976234465, -0.673220377289162, -0.21575628550847759, -0.19355933922182184, 1.2667314135062755, -1.2189911243141687, 1.6432096005302872, 1.2890100505713378, -0.13126878680536927, -1.3717055296985607, -0.38246307402446683, -0.38096761155437747, 0.9475455910535238, 0.3117341857960067, -0.5834403299519122, -0.33165026885843824, 0.12008233364826204, -1.6113234506083134, 3.100211420323145, 1.0761716056060737, 2.858785872528916, -1.0109649733267603, 1.2028870867504031, -1.9920398989191075, 0.385464524482489, 1.917483028930654, 3.323728999698843, 0.8021506987145658, -1.3115015186651298, -1.0899523820742647, -1.7635483938091638, -1.737482387553454, -2.1224576088140124, -0.4518828709222442, 1.1502510261016512, 1.1487140690180115, -0.938502633330527, -1.6662143325542973, 0.944937351125705, 0.0631360027611188, 1.8660024070540835, 0.6447904690751456, 1.515726148192335, -1.3934424607442277, 0.6569059210097096, -0.18860795559763288, -1.2433531722777378, 0.7060668860716016, 0.0014850856918443315, -0.3256691038465754, -0.7844886746832956, -0.8459059040079534, -1.8449236459076743, 1.3110048530779246, 2.009948718790006, -1.5406091061704903, -0.5130297258955421, 0.09470047515405425, -0.5313894144668699, -1.0144936125483506, -1.0340660198239258, -0.6822498987303779, -1.5648948258592528, -2.0458336522425924, -1.8529260310771645, -0.5005445230092264, 2.33499237921595, 0.7195413503039172, -0.15127512734530524, -0.4973683602706879, -0.384532827300783, -2.231035512344688, 0.44725860331810274, 1.2192957951534136, 2.2846314293876375, -1.8556565577811717, 0.01680387495770661, -2.480251131332503, -1.6657080510279763, -2.4540852348924926, 2.356718717013641, -0.6900485816980285, -2.202806870853529, -0.8217411458149165, -2.083217460032388, 0.9666639881182808, -0.9208463996850127, -0.14700668816226825, 0.7649363078437406, 0.7333292489358783, -0.6118029630651489, 0.46334802967581656, 0.4842103265832863, 0.6580837827742305, -0.21145186519113654, 1.7377611985617, 1.1082822924878473, -3.071096835334019, -3.477534996367627, 0.8664685668645792, -2.1422984749135434, -1.1333266072890578, -2.6193169796685685, 0.46678594153536784, -3.258503191560129, -0.9918653947565718, 1.0615041260700118, 2.3300860871153555, 1.8718469440281718, 0.30093908864918983, -0.7903192316441434, -3.8105590417185358, -0.5456327616556957, -0.7990811977786517, -1.403052717657832, -0.9643316711520696, -1.3072617110980043, -1.5435238929158377, -5.299533521151212, -3.546615159697111, 1.0711048324115295, -1.1319654516281468, 1.774211511261698, -2.7756001159722885, 0.9270590508293742, -1.8065081044951627, 1.92868674576742, 1.5125158301844326, 1.0657752385864898, 1.467163062442192, -1.6682499726286475, -1.4306457108370394, -4.099865322446233, -1.2523307204611196, 0.6273196921626976, -1.0427265793648157, -2.172046154753232, -3.4702710369379726, -2.6326940927287916, -5.711034195527551, -0.3741442323236194, -1.3674978809116807, -2.300899276828052, -0.22631900528978588, -0.7816291865030538, -1.015203147785341, 0.06413397255534165, 1.0049433462787263, -0.555259378081977, 1.2520524025513322, 0.07128156674512326, -2.335253231303114, -1.1259844296397197, -1.309402441389183, -0.5003732294695817, -0.06127870983158645, -0.6522714453955792, -0.6163227542127467, -1.199074686187604, 0.2632523857078066, 2.753865794228836, 1.333270032304306, 2.256513612624761, -0.17156095737617186, 0.8463981292771615, -1.3895914980485355, 1.6126282727829093, 1.1795804983050253, 0.3903039743869119, -0.6460251386053325, -0.47835032719770415, -2.056134222939474, -1.8033865552349961, -1.7059596051658608, -0.2822874093140778, 0.6716868982089365, -0.4207756168808241, -1.2391511790208893, -1.5087290904871415, -2.788445807446502, 0.6181006667546258, 1.0171281289049579, 0.7470141172216833, 1.698589998686022, -0.7920051723313734, 0.7013162945221657, -0.5317678809945842, -0.43453309403195445, -0.6903760662490848, 0.9780311190708026, -0.18668812602346274, -1.704843368058619, -1.846611684711647, -1.7804805160581891, -0.35112082747643797, 1.7006157507590582, 0.24717083724129135, 1.2272604265776583, 1.3615935324229416, -0.5272842950455094, 0.3964526427797375, 0.2299547115003187, 0.41486378257120704, -0.16791866419877646, 1.6381572639631006, 0.325201703094397, 0.8600749923643044, 0.14402213831475894, 0.001328914739837946, 0.4147427134282936, 1.1376511320130815, 0.13920834430762438, 0.3646941289116157, -0.9103386324289495, 0.4436890714709843, -0.7373520312754415, 1.0402925225195743, -2.9139387074141974, -2.6687453059070174, -2.0268979655300563, -2.676727776199318, -2.0395655820742653, 0.8131748908708297, 0.8150096559123177, 0.06000733292348318, -1.2724245930395972, 0.22083239850782624, 0.017227433107564787, -0.42930391521195155, 0.3604383720765379, 1.2028639941022201, -1.2944695435993763, -0.3841436744751068, -1.9831216321735678, -0.9869230081429219, -1.8644644223789066, -1.0870263899869297, 1.4843399459540525, 0.4702723849549344, -1.5072346511332835, -1.0708534839959485, -1.6934634760760046, 0.6384349395743518, 2.5297891449026775, -0.5202135599607548, -0.39650813453086625, 1.3696874463801685, -0.04960228356802267, 1.757559797668355, 1.9585080232884877, 0.44704061848556204, -1.5729253206737892, -1.2612562422105524, -2.4475995265534025, -1.7537087546140946, -0.6818369671304575, -0.25445616058777754, -0.6595032555528755, -1.2560076648176348, -1.5363642049434043, -1.3050793614861496, -2.1459610342516133, 0.1359756799987496, 1.3043941888626802, 2.3628017849186707, -0.8943899828262855, 0.8354233047579677, -0.5666583884967883, 0.8190920132484945, 1.4609065240380232, 1.2317784447541604, -2.1447887919878554, -1.865825493138402, -1.5210443240575735, -3.018458419049394, -1.3948993387978252, -0.9172253633766347, 1.259487180212076, 1.0797813774094556, -0.6091315447103258, -0.18147836671100603, -2.3105291596529947, 0.7945512848129028, 2.6435878509696766, 2.0576119429993054, 0.8737481562054217, 0.15197253583275935, 0.3031708839057114, -1.9586694711505555, 0.10382247876984174, 1.423726946141093, -0.5082865693933116, -2.172570122591339, -0.9736440092717267, -0.9683277616372329, -1.1149246724365038, -0.2557457551031508, 0.57854532067691, -0.061550438417368576, -0.6272406405659664, -2.1504701419633987, -0.4082580571131248, 1.8566967473679659, 0.76307566932539, -0.05498814474486553, 0.19486397246690898, -0.24809326249348015, -0.26982728544781326, -1.672924154869621, -0.6128161771154534, 0.8428136079127551, -1.788563684385817, 0.07670407718972441, -1.5566585088157827, -1.9656805336635015, 0.44529486366671195, 0.011921770574257619, 0.3107241851182277, -2.1890256143912676, 0.5513853234091779, -1.439488989204624, -0.07626583866466762, -0.9610641628097883, 1.1955893507923623, 2.6308031338378517, 0.7060031104065982, -1.4972043454896242, -0.3930397719436152, -1.736625149331328, -2.5148435120802866], [-1.4818083608818895, -3.9617399320940807, -1.5240275838061579, -0.7123231692751016, 5.616583069829608, -0.2743836044126126, -0.42043434498081467, -2.1172303787162163, 0.2177335178335383, -2.004860050848249, 2.049359233583221, 0.031322159760619424, 1.324611447689467, -1.6613583954365878, 0.4618048033413184, -4.25880893077997, 0.059536388917886256, -1.1202031454776744, -0.32182926804450357, 0.2787295760557321, -1.0314492602240088, -3.83945674990556, -1.7251391003602425, -2.0520314706022926, 0.306967661254632, 0.5561777198675482, 1.5773274536168842, -0.802327003860114, -3.384876416797923, -1.2990423745042206, -0.8348084502808933, 0.7915111791740164, -0.3465245597669207, 0.1553963982678429, -4.162568135521493, -4.183612681115559, -2.6996295753408903, -0.5497311442698409, -1.748003326980278, 3.544127451336827, 0.5945751124694895, -3.1035569755048558, 0.4569955679225892, 1.23471246645057, 1.4430348776578457, 1.1570697823562979, 3.0496946742015525, 1.039617169495252, -1.6428344400961126, -2.990806780588182, 0.7377950094287541, -1.3268850909564978, -1.2361045979834768, -1.1546693264778018, -1.6074625369072812, -4.279777836998498, -1.4061159160789098, -2.3791890337246917, 1.3132093177440254, 0.45307012534152696, 1.1919907874994904, 0.6144841897629312, -1.2108400601385003, 1.1054942597003206, 2.0066477922964516, 0.6730486000012484, 3.6350633650385396, 0.005585512150257603, -2.174566427406169, -3.0535894728409616, 0.05394619552157395, -2.269606416056004, -1.457218083430092, 0.8424466831687224, -3.5566009080402115, -4.50162207193441, -1.7243755895917143, -0.5119327559366571, -2.6634454073225227, 1.5810068343657102, 3.917356766518445, 1.8086254235613344, -1.53996355515092, -0.7682080998007237, 1.5811944081613107, 0.5949400382474674, 0.4732373153414947, 0.5624251715700834, -0.386094314263556, -3.6620429476352054, -2.656207132011281, 1.8373583384762255, 0.8853168387921289, -0.4793657121631851, -0.45791754391959544, -1.3096914415285295, -1.0856911405031342, -1.454989478636234, 0.5057609197131895, 2.7431425532371696, 1.8585051028817263, -2.957722471439388, -1.755437676279687, -1.2086150532560291, -0.8790613733883216, 0.9074219982981865, 3.052175730921257, 2.1005884400751422, -1.5597721037950834, -3.2952154872322863, -1.0281201514724068, -0.3019354971810848, 0.5476873892464379, 0.2853783576947304, -1.5347253206205071, 0.19077111959138884, -2.6157899691079316, -1.6296529372737396, -1.474691034601747, -1.280638506675981, 2.579497827435449, -0.9496389099274138, -1.5228867176348788, -0.9820827917809187, -0.4068685649711721, 0.15536140971723775, 0.37302024004460316, 1.001757634591311, -0.08668688721051124, -2.580827414951466, -3.6535043189660144, -3.091944749539681, 2.73016330463595, 1.4097535770991088, 0.9485274048819704, 2.049071533720123, -3.3836608358256592, -2.4538863769531263, -2.6560776453039425, -1.8581956899998553, 1.8986768232152966, 1.4560312063101621, 1.067338727387789, -1.0103660128727567, -1.7859628732191648, 1.6766075297275111, -0.4802108193928478, 3.999659979265195, 1.6811769870331563, -1.249317385230261, -0.014367193007147299, -1.057609300044765, 0.9584748478208052, -0.5640581951806648, 0.9455601390099043, -0.8827149928904999, -1.8030123127857496, -3.8157131173951755, -2.4621938999803077, -1.5794655964408186, 1.8878637749696157, 3.1797456117405045, -0.023881001964798667, 0.9068823710536201, -1.5774864840595726, -3.244156731039472, 3.4963678114113326, 1.191605704553169, 5.00005266825799, -2.8306574788142305, -1.7652797321443308, -0.05564775931056399, -1.5700748558821669, 1.2279596099182972, -1.2734284684978487, 0.1404329469431301, -1.257777502010408, -1.1266333728694482, -2.6717810346144097, -1.7849938219194734, 4.697541441350918, 1.139878081452544, -0.09704279031395488, -0.22692992921566219, 1.480499767780296, -0.7571256224475346, 2.1403216386142843, 2.325261414455374, 3.296389021856805, -0.7351593997715253, -4.192938563378119, -1.021343954977423, -4.538110542531511, -2.2931091702551054, -0.4858911508889507, 1.5804664623739557, -1.7309383918233994, -4.47165694239652, -1.7291051353367568, -0.6958841045510075, 1.7815712297447497, 2.255737076132858, 2.18788723854287, 2.3928283885169184, -1.3173774824779787, 0.5969099357193393, -0.6788608316403145, 1.8294059305886927, -1.9938529971455208, 2.8191516542670403, -1.7019595396027192, -5.459982934214289, -2.002785881284547, -0.5204453555805495, 0.30033265368039375, 0.5372584431272389, 1.5973534455713014, 0.5549344958365301, -0.5311281024044748, 0.48749087375215994, 4.770781003932669, -1.2946433785801734, 3.6480639810158877, -0.8520475019157181, -2.069850019159893, -2.275116876059095, -2.36976064173999, -3.185531306607705, 0.02349761488685906, 0.45954658393164544, -0.24933546269860765, -4.069391311684753, -2.87508999739194, -0.02904858388527536, -1.990771347676651, 2.8873122197727397, -0.7205543765218345, 1.4756176295099124, -1.337922558429977, 0.5843159819161096, 0.6164327839548387, 3.0045185025027292, -0.018227788061045816, -1.234346199580159, -0.6251496081639689, -1.4118691108479773, -0.08771237153960587, -1.9140182958362644, 0.8261453512463307, 1.8579051571186915, -0.7812137171971119, 0.3479038820538672, -1.20212456141162, -1.8197721219950211, 2.118692289088783, -0.6169374642462091, 3.2979951683584727, 0.5784770383500507, 0.6071808162361799, -2.6039793671272657, -2.52122734672152, 0.7893441738574738, 0.9663116898071106, 1.2102095947880673, 0.23954181130541152, 0.5651892124279265, -0.5021640184013261, 0.4154780081075141, 2.221490849287517, 4.679052584547297, 3.2940156893639068, -0.5508452170425082, 0.8063409865981643, -0.007934815248544877, 1.49195980273575, -0.06342742817682792, 1.9191176871332296, 2.3147756449542722, -1.6874092513249561, -2.746018299638002, -1.2605411937381317, 0.668375821108242, -0.22872892976564746, 2.085229415159407, 0.6579750445614514, -0.6715028844557829, -0.670621186670596, 0.04102072722185898, 1.638266598836206, 5.8146817926217045, 4.236354632560552, 2.5395325655050116, -2.8632407241134117, -1.3395178882842977, -1.3885142711295801, -0.1584955387146451, 1.4555142433848935, -0.2864790517068036, -3.3461387734606842, -1.8752820235659973, 1.3735432853011897, 2.075598347391296, 3.0872714476785563, 5.416839145802844, 1.5603821844307681, 1.1596382483277698, 2.444905429972681, 0.036305031355214235, 2.711435978466803, 1.8834936872384695, 0.5372252851828947, 1.1285264829503323, -1.1216659479080062, -1.0637612362494642, 1.1834499217861159, -0.9394157678570193, -0.30754465439552925, 1.2495506732993662, -1.0218557086763973, -2.556618523458681, 0.41039900514272865, 2.547627890658806, 0.7244705054271209, 5.020332355698629, 4.291368507505158, 2.207439078939884, 0.6649405754044339, 0.10108238910176434, -0.23667146411633666, 1.7321018809361757, 3.860099567792046, 0.5810334334642572, -0.0005939233701621385, -2.5165355774787264, -1.4091383174510317, -2.9207817832576755, 3.6158739264767332, -0.11562940066490283, 2.6992338186917535, 0.8284463832019329, 2.1653876193666997, -2.4493225991553773, 1.9920484093721726, 1.4868172350386921, 3.1582456681919457, 1.0808275383152184, 0.6918975219753741, -3.406469663547534, -0.7345260174481916, -0.9408245297073948, 1.6560851187015342, 1.9245943591254224, 0.5825248033643848, -6.139809344427324, -3.664565184265504, -1.5308833584974908, 1.6884081203731447, 0.8267602119176934, 3.239193361309081, -0.22297332743755494, -1.744878746785816, 0.05962942960895173, -1.7028518004622992, 1.2382327111037166, 1.0211538087373049, 2.0651554776153622, -1.9973041864727716, -2.537672781653229, -1.7707314379372272, -1.4315637828520293, 0.9309268591711489, 3.8385815540026336, -0.5461525707477555, -1.0524333983498508, -3.431095122633721, 1.1361781463220704, -0.9287436333148676, 1.88794412996577, 0.848092891147332, 2.3444828883946234, -0.31740812041192906, -3.5730365041780248, 2.5520151706647103, -1.288696796563664, 2.9428539742545814, 1.0849358843834638, -1.0175166155104372, -3.4366543890750694, 0.08008573432356558, -0.9813734442622302, 1.8977954372264578, 3.5594579139919125, 2.3311337737459294, -1.7924978513606296, -0.7248570822267338, -1.8261747040228495, 4.257921451578394, -2.1790012035032755, 4.261218656202997, -0.10213598351231845], [-0.07377219968054118, 0.3071565292345831, -0.6679014042622259, 0.3320274024454177, -1.248641814635404, 0.6857193365620897, 1.969355174940205, -1.4117371184841867, -1.888726413849561, 1.3173075807064871, -1.2428232251192322, 2.293320921050132, -0.39187842634144027, 0.3429970688584534, -1.0090190167554607, 1.5372331881531727, -0.07851937708122655, 0.45523059269961835, 0.07374322312215371, -1.9080231553535931, -1.0781553653202327, -2.0006445658479204, -0.0040912543432414395, 0.023389522541044303, 0.7771013005995248, 0.20028747489885398, -0.08494441697558763, 1.8332424107265546, 0.08741398363199, -1.6546202695008765, 1.3310759959030625, 2.053308378699765, 0.97138498321676, 0.47467009407155014, 2.775324876767668, -0.5106235779707423, -0.591737037140888, -0.07517684818737039, 0.15810486421059344, 0.21577934350184794, 1.3865739067975476, -0.8181873150922517, 2.9240724006040653, -0.2295535404457068, 0.5285550729989951, 0.4286240712762837, -0.7902551906169656, 1.4832226062982792, -0.35465001563689535, -0.09783409316746326, -0.6585080335308865, 0.828769009252496, 0.7406406088027754, 0.8970331149312021, -1.3226444794319832, 1.1828299873951162, -0.012072626848005535, -0.5673966049243544, -1.825226580972857, 0.9262350043267529, -1.5579934691436161, 1.4301669595334914, -1.7099809200407898, 0.30217539193549325, -0.4259247921716424, 1.1983591634724051, 3.588636175678566, 1.825801148475953, 0.6660975739951484, -0.2598788531529401, 