{"sizes": [1200, 30, 1], "num_layers": 3, "weights": [[[2.5775207995845006, 0.6571303165123996, -0.8641931189987075, 0.5776190641315231, 1.197664155828881, 0.7646893449047903, 1.3347289384290868, -0.701753772870824, -0.2897050071404807, -1.4059853380931204, -0.001907545219743373, -1.235954869205705, -1.3164572354019197, -0.12329335568350867, -0.10302975163589892, 0.10211224397021261, -0.7696859930223574, -0.21590974303383426, -1.3070302532783984, -1.2894902270266655, 0.5481873644431988, 0.21377556011880008, -1.0250029319945275, -1.4928211523028097, -0.1280745279795107, 1.0020170410436642, 2.663635234979548, -0.6940430302734882, 0.4808468949744571, 1.6481135328251586, 0.446676862017871, -1.0518551025139686, 0.8447199307948596, -0.20686065066176548, -1.6671050789310005, 0.2762211714643201, -1.0974172780893166, 2.200142236507159, 0.7373523723586912, -0.5353694337922691, 0.4629370908105209, -1.806063123225426, -1.5763201576543548, -0.5783626192165335, -0.5190049011704353, 0.4677309955431066, 1.175143003308755, -1.284210213209904, 0.2884298334961662, -0.3945394370582117, 2.327839030958493, -0.9017951464991306, -1.2814732756336535, 1.267127905589631, 1.351378123460148, -0.4580939003172596, 3.0989823944186536, -0.005965574045209095, -0.1314885451510232, -0.34945324222689644, -0.390135795111074, -0.736386756457373, -0.1502650361928885, -0.17193256557647313, 1.054552351900005, -0.925479559527516, -0.8284153362704758, 1.5449279992584422, 1.474205793924831, -1.3306995573003957, 0.486357480872881, -0.09178074543795135, -0.3707602121055686, -0.6721818349372795, -0.9500377978003683, -0.18166978600300074, 0.5171032617205067, 0.3166410476033478, 0.049062836711088256, -0.1923659663569295, 0.2135987475801679, 0.5823718012317826, 0.49881189873991894, -0.5597086242107348, 0.26311924838163836, 2.0326240542710137, -1.5483305750169178, -0.270084951368848, -0.2780372385148136, -0.6584335579485252, -0.7895993557556837, 1.8009224749177255, 1.792048895135104, 0.9495409147215299, 2.545169884837288, -0.8844504110068476, 1.3505292632027472, 0.06074057071283277, -0.29931530707399084, -0.06891631976765139, -0.8361223321545554, -0.08769830831802136, 0.1808221316304719, -0.12355967144378885, 2.8517462204187902, 1.176157934553521, 1.7347342782063182, -0.5701953926365368, -0.4149987493513063, 0.7240081830198053, 0.5691574430158733, 0.2320547291317953, 0.7237340767029647, 0.9005094677045818, -0.3771632753736739, -0.49178267870188674, 0.09347075494790462, 0.1742296479605399, -1.675578232240909, -0.27908891942391445, 0.09359881651790908, -0.7001697915655594, -0.6605886898468408, -0.4009443839841809, 1.1095411282895342, 0.4146021662909345, 0.05769843197639795, 0.6411322756814327, 0.17295794394594363, 1.372441868343041, 1.2790710480439575, 3.054550161354061, 0.4789045540804336, 0.16161733162162153, -1.315614667872403, 0.5309985002602438, -0.056056320520957166, -1.1334930136084351, 0.799246080284183, 0.7356374157174234, 0.30784660734905156, -0.18397879085475619, -1.715235265876173, -0.19104845695284745, 0.2865885920237691, 0.37271599064625605, 0.8508047118695539, -0.2804790382017002, -0.41483257291852954, -0.5062375554605416, 0.24601882557763677, -0.6397889384830031, -0.5149934663789416, 0.3676560441920952, 1.971500745511353, -0.7625151722242526, -0.22632702844445537, 1.0980379612163151, 0.3903044869873877, 0.41801416480096504, 0.8295951916175197, -1.3450810859863245, 1.8666266345579277, -0.2994620445060966, 0.20061593086014412, -0.1844276395437102, -0.37019192918052435, -1.195325998098585, -1.0195630013901102, -0.32401322922881837, -1.3217714202134578, -1.3847056585918271, 1.0094747340941108, 0.8378547885498112, -0.6647730571782798, -0.10435230494359962, 0.29058797948048326, 2.16667198396444, -1.3724462889632987, 0.7966006288132899, -0.9386488776963589, 1.3942599659593584, 1.296234263016343, 0.22995415106813294, 0.0384558312683943, 0.5051550036401268, 0.02959216701725613, -1.5591249597676784, -0.05181834594784888, 1.1832766764794744, -0.3759117230576629, -2.1031880110977137, 0.07167005410330797, 0.8749126254930276, 1.4511821915486034, 0.004326401321546027, 0.18979768941678363, -0.8245155627057743, -1.2714101035007899, -0.5678005431200341, -0.20232265008572653, 0.47313790858637694, -0.5223419917248069, 0.31264366002076044, 0.23321590961367025, -0.03220849696599604, -0.459676764469528, 1.6765474665030813, -0.013264437772017705, 1.2258732344844825, -0.0332098954289255, -1.2359741262977688, -0.3522704758636662, 2.075176184948127, 1.1759200322962704, -0.4189019772436852, -0.5257934707700874, -0.9523795972489694, 1.3277488322164082, 0.1471200433626387, -0.08329948905943191, -0.6955094717137373, -0.3308501647310201, -2.001743878263979, 0.3497254395996721, -0.5650895521545685, 0.7189879608126535, -1.0961637974644751, -1.3825344637133041, -0.7670038963796942, -0.4446863814569174, 0.03454780163988786, 1.1939536584761568, -0.6685609927355716, 0.46758125928433186, -0.20552420399226567, -0.716286245538323, 0.5986265203023953, -0.3061571978609428, 1.017510111923459, -1.4190771783304306, -0.7476584344151882, 1.2065976283358117, 0.31198733965243614, -0.5704594440655353, 0.1321840578805183, -0.19317005433499024, -0.43750668173386825, -0.38425146049333153, 0.6822067364062181, 0.291692970438744, 0.37873113021472926, -0.2544955206280208, -0.5402563767233475, 1.3783289731452348, -0.6789470450808259, 0.9805066041711189, 1.9746299588840641, 0.6292464907226852, -3.000057387044014, -0.5208221162671676, -1.9851557590418167, 0.31338374096546995, -0.7342887163274748, 1.603315834512247, -0.4416931237976924, 0.6412111266396077, -0.5113173366893226, 0.0205735354759216, -1.9049205613779518, 1.3189466140773203, 2.1156774588273275, -0.6892796173166305, 0.27327941913761167, -0.9887851632089353, -0.4456884828236833, -1.7718498789930526, 0.11537485848179362, -0.4147633923091362, 0.9829872076710231, 0.23920914126545414, 0.6174782397535957, 0.32240401758271797, 0.4659389317041057, 1.8912169122469047, 0.012094363621722374, 0.04415271226396348, -1.1954294141288513, -1.1531251510915286, -0.8873215456384663, 0.10628126339468698, 0.1898141901499763, 1.677863999163786, 0.9281663635360539, 0.30381994674329144, 1.4913457457969654, -0.5779710525068049, -0.05418153938997426, -0.8560779211737408, 0.5648281884914866, 1.2856751883394504, -0.6966355390429207, 0.6516515735247996, -1.4488668690188524, 0.09620573681409095, -0.21005877248037963, -0.24940803215914178, -0.9555960977434942, 0.09454265776047695, 0.290756151519392, 1.483368299002079, 0.042663920034586536, -1.273111696927485, 1.4130607040530596, -0.5344159293996597, -1.4814364238791216, -0.8916977235947681, -1.64470123574678, 0.31674785991476606, -0.06909977334285097, -1.834381919133424, -0.15174051722021648, 1.4046070790191925, -1.4441249539905185, 0.4611435788394013, 1.4008129572355887, -0.623669516672681, -0.07639844443254709, 1.0166039263961522, 0.045225195599653226, -1.1463646452145995, 1.3650811357661614, 0.2525623941848713, 1.2614946771574533, -0.12479446417012677, 0.4409617631495158, -1.7339486967221944, -0.3759314593176445, -0.661602414685608, -0.31195160387455534, 0.8165776322726093, -0.5304285284566463, -0.516270234667779, 0.2287977520898595, -0.21967450966674618, 0.12027534463203458, 1.7098031368068674, -0.05562661086341848, -0.1496175939629228, 0.9220035227299269, -0.1683199741901071, -0.42643149502157507, 1.323947394194544, -0.4528872438574225, -0.796562676049436, 0.14578605689322938, -0.1045717185500959, -0.1279665533785451, -0.6759952424539334, -0.1203703940511792, -1.602559429076454, -0.5605480222616673, -0.5945082395113216, 0.5170974289728911, -2.065651971298324, 1.1854268185559258, 0.12934196467962966, 0.6830725863681192, 0.07255348664928635, 0.8526976992637098, 2.180719943084603, 0.6171271904300026, 1.128208004177359, 2.7296277188340174, -0.9905082283592181, 0.8343526684132232, 1.6783446507549453, -0.38208017965305663, 1.6034375813860215, 0.7052861165300188, -1.6917019508636308, 0.19303070908942319, 0.8589906541052633, -1.4212172094137854, 1.3341855349586447, 1.1486578944155008, 0.9729358038046859, 0.6286480945429233, 0.6348374704760362, 0.2184094759761145, -0.23127232361544306, -0.6894149918595456, 1.722247943399178, 0.6895526742015299, -0.19878758281816145, -0.65113013009125, -0.20555590306516278, -0.3177363670791486, -0.5027142100371895, -0.5246116529548568, 0.2453011558373999, -0.9771293061112633, 0.5940342026287512, 0.35827522112969495, -0.054484067539591556, 1.4006862283189634, 0.8818791195530095, -1.9070786920554705, -0.11815496881142644, -0.6286093570340432, -0.10665129761068406, -0.5759599261384234, -1.796304581175381, -0.4449184519846693, -0.15881217118170343, -0.3850851184445837, -0.3936969282030111, -0.021151270478711997, -1.3903137457880543, 0.2047467989231583, 0.7663188775057459, 0.9287410237532032, 0.296015153881305, 1.3095954530097196, 0.45279947293683015, -1.6973771606910308, -1.0567315955288978, -0.4393986976257061, -0.7610831067445147, -1.555752828658212, 0.5521081248254689, 0.09568818775386849, -0.5728385186244268, 2.4712069285524145, 0.937378368872736, 0.15126386234944372, 1.0658147862297416, 1.324186276307323, -2.14388886672906, 1.5785830198222035, -0.5522307064789819, 0.6024514622186985, 0.3040542948881026, 0.658653191591957, -0.7803288670342705, 0.8918898024929224, 0.9324030999516877, -1.5424032264294751, 0.14591348435766885, 1.7264944118934404, -1.547901275164485, -0.5880978148584687, -1.5147017330021775, -0.5331319800940629, 0.7534271122033855, -0.06288384247899767, 1.1075325638134803, 0.124340945317714, 0.22586898035290198, 1.2203503003695357, -0.23251791026833726, -0.8969989667804412, -1.49835303339823, -0.24259718389165635, 0.1775648134490575, 2.266854389088516, -0.7235455080315737, 0.9522177201598462, -1.9101234743199267, 1.036751583174332, 1.20646228799897, -0.054348147788857534, 1.5463150885558903, -0.41588609720035496, -1.0764905846847252, -1.002218849012791, 0.8862402762005008, 1.549552493762451, -0.5377062218825696, 0.6420350537704186, 0.6745875035962416, -0.5889502183928682, -0.9113240706767224, -0.7413947882451479, 1.8676774999339039, 1.834436499752047, -0.43248709493628873, -0.21363052179440628, -0.5941048357741886, -0.6234339036694326, -0.5340293934010675, -0.2752811838703097, -2.4408009140623506, -1.7264166806224124, -0.9134679768899258, -0.9259040520578088, -0.18767066626968282, 0.04675133205849883, 0.9952265295437827, -0.19657601397868749, 1.924146166106257, -0.45214064389047814, -1.2212376475143136, 0.06506575491079485, 1.153809693145606, -0.1733453125700313, -0.5892922040919499, 0.06031450822082523, 1.2399955430678509, -0.9304768156377355, 0.7434594636307841, -0.8908199849372412, 0.6424996986569148, -0.294716627750742, 1.057390036479425, -0.19632348858769894, 1.0631794465201616, -0.6539042265903021, -1.1155753507727826, -2.645537301134083, 0.2607775381537178, 1.4805574343516354, 0.584549130996351, -0.44810969603290357, 1.5349455265400864, -1.1411476909096916, -0.2209706974209305, -1.752470696419337, 1.692379954229594, 1.9563213396217427, -1.3005317376697223, 0.5350083773619724, -1.3273212751572618, 0.1258392990405783, -1.0760765586765952, 0.9487868382741037, -0.01787939995485173, -0.5716945076960086, -0.6602605513864453, 0.819082250495709, 0.7343612416411257, -1.697803989129196, 0.4054542961651114, 0.6288860599915688, -0.14235080381239051, -0.23103395785846395, -0.9123015452849917, -0.7081385275917523, -0.6146781357333057, 1.0200795696981004, -1.3269919390772018, -1.1689047547963807, 0.6575400567959737, -1.7906507853611324, -0.15131772978945035, 0.9764595886867631, -0.2203554236435945, 0.07772297041364529, 0.21701150324378443, 1.1177519997954957, 1.105130190293573, 1.1868678130343306, -0.4477139497724935, 0.33863210364001134, 0.9420329492822869, -0.388691066394543, 0.8083913874543167, -0.5666481468766412, 0.28738194565930375, -0.825321094558238, -1.4448607292835793, -0.28040296630780553, 1.8033902202757994, 0.8552449602566664, 1.233204737396626, -0.5476153356080247, -1.941185703841824, -0.14593757596001702, 0.7562711232207421, 0.3327060301077651, 0.7032403659906941, 1.8304806063105488, 1.2232317864523625, 0.6665866215213012, 0.6304534053063069, -1.6884587399134614, 0.5382554930900465, -2.793399933683056, -2.1612237759886677, -2.437267444417567, 0.5816500091510232, 1.2186277736102877, -1.2640023890150525, -1.0541893159937434, -1.0942327996607226, 2.0014076317477403, 0.09665780694649376, -0.4244172714287875, -2.068601787107053, 0.2052610694792391, -2.482832497241904, -0.40621297791675465, -1.096709847386761, -2.380991779207954, 1.4225124564679017, 1.7128660475590451, -0.4081641883163786, -2.5487383172139517, 1.5056630971909806, -0.045176136629474804, 1.281408482875394, -1.3944877499065549, 0.08057789102317073, -1.669293952823375, 1.0230915569161787, 0.12065209978457903, -0.3177912220836763, 0.7940383411579596, 0.17623292985752576, 1.5068284168822244, 0.43960214645255385, 0.22838060943048688, 1.6622029534257277, -1.7474249707020157, 1.2145664662704698, -0.3404505351277045, -0.6203973124208443, -1.467864888877985, -0.07808227923706948, 0.6457344397749983, 0.36271571493060656, 0.806637475780646, -0.4749378958044024, 0.35148964704445645, 0.6472130588518891, -0.08621924622220672, 0.8836469037224292, 0.9186944491791712, -0.4504069727531688, -0.507260845919143, -1.5001005732076704, -1.6758740891295203, -0.38705378980663474, 0.5801410976962377, 0.5263534506459442, 0.35721003837781906, 0.2045887212357206, 1.5995897514919242, -1.0019683151867524, -0.21598685184196773, -1.0549284221408948, 2.042283670996594, -2.3855615496387985, -0.12648892077513618, -0.1443290618081803, -0.08288814063482962, 0.28945005509010346, 1.64117301097299, -0.1145691764270439, 1.7130187699882429, 0.6685640868431882, 1.4581346334520078, 1.217160952481603, 1.9401909748016233, 0.14836003678699491, 0.4227742236059638, 0.8312236933365829, -0.8644502853539987, 0.4832063203953352, 0.3070365689656834, 0.8358042850660938, -0.9479549330762268, 0.04930770525616181, 0.5648611152247108, 0.23205428255569438, 0.038530687342521235, 0.6972819165361785, 0.8860779168018731, -1.5101693645690435, 0.16268917239361158, 1.0821548443138076, 0.9162087339696097, -1.1520985629820106, 0.3696368964855215, 1.0845296402139881, 0.7204704182043044, 0.7183721087518189, -2.5826846058403183, 0.913783842578198, 1.2817077998591826, 0.02572275400095151, -0.3358680255255042, -1.2135212720779982, 0.01958354417386398, 0.46601089859360845, 0.6163735093160009, -0.8424722158168294, -0.481127851728947, -0.46340688896161963, 2.4033240522278363, 1.4342010044855011, 0.8689861964842227, 1.6612740440919398, 0.7825342625994418, -0.7354068865240075, 1.001416275708131, 1.1482799660895036, 1.8637279698244593, -0.024092979625309912, -0.6894206120538726, 0.9701560141867895, 0.3432787433303856, -0.11508109963178188, 0.11307681587328924, -0.08615687248525453, -0.29838870557020014, 1.0064024657778934, -0.8152379475520323, -0.4975788872363893, -2.2372446572483167, -0.36871236055169676, 0.3414188364838374, -0.3780966693731267, -1.4791859836381889, 0.8729258038372297, -0.6363238718164338, -0.06708052979611037, -2.009063448421622, 0.5944455252114321, 0.23025790267854787, 0.8542971934562621, 0.8160043284756199, 1.0892090231524592, -0.9412022613248481, -0.05633692593016888, -0.305072233972073, -1.26072084868271, -0.7944177986552017, -0.12918476012949603, -2.2012545632793765, -0.5222521988980714, -0.009201899397382047, -0.04856985072606903, -0.6606710356884913, 0.10411675486290065, -0.3504436888785667, 1.1307921381150572, -0.47928269923047784, -0.15538702093198103, -0.02524718967493234, -0.9345053935831037, 1.8051788811659926, 0.6070895983702959, 1.1436648309047213, -0.6785081638690861, 1.6971421717149457, 0.976370955491253, -0.883432945954312, -0.0006423115380219047, -0.3496209007577198, -0.5992397449557167, 0.0222006203335186, 0.3981874113691014, 0.08614821263866881, -1.4171819207806706, -0.0902183569045254, -1.1624244452165076, -0.014768053616851998, 1.140369947012152, -0.7962619633400955, -0.7338986118369477, 0.7389184169620155, 1.5106330180907046, -0.2228191714472323, 2.3981680772659355, 1.1918773638463824, 0.8115222292006439, -1.1653839861837834, 0.09851831281731262, -1.6778714148281089, 0.7840201850812484, -0.7052634828147767, 0.6598966761279534, -0.005041759286729754, -0.836143573240047, -1.0737585115317911, 0.9795573376132933, 0.495424411624097, 0.7338006915622963, -0.48247198157241356, 1.9588364391313224, 0.18531764215457133, 0.5777364047375668, 2.2425886267176587, 1.670202675436362, 0.6773249377809908, 1.0528486370994112, 1.2136139823443606, -0.5268766950946367, 0.49676449126402283, 1.1145622049152346, 1.3096198391427007, -0.08966730699719877, -0.6156110601085389, -1.0664023660259287, -0.365849900803299, 0.43771005484008796, -0.33022072788033313, -0.6981280279202356, 0.42012847951923254, -0.384813030778945, -0.34294888080388763, 0.5063771035183895, 0.5557406972005055, -0.34066447133588584, 1.190441200749333, -1.5882439143071716, -1.1871121121897126, 1.0585540174353907, -0.5909754913620103, -0.5841748232138305, 0.9003704306878537, 0.5250309181088832, -0.058509423762239075, -0.24877653176655895, 1.2286460482082855, -0.27284561070466334, -0.013392308319624442, 0.47804071230044226, -1.532209751971901, 0.6835787907917439, 1.3101138325813408, -0.7941612171021389, -1.2704182245790074, 0.4301373264464083, 0.10877343422664175, 0.5954673064126481, -0.47516743751373425, -0.1727654272555969, 0.4428352034528075, 0.16805102670500788, 1.1282662941674908, -0.5397921344611649, 0.9137457678517977, 1.2263680759549693, 1.1612562981323735, -1.1722876554418165, 0.8091216190051383, -1.2554614292475363, -1.473740954677709, -1.5791192480571925, -0.7377228646354055, -0.21117029801380496, -0.6149735432987973, 0.6037340347110183, 1.550917204685944, 0.419127145123233, -0.7715458479407271, 0.7270901006773953, -0.7045456011275141, 1.3717024048927973, -1.307108252491147, 0.10561166883689074, -0.800061812303182, -0.6825245663595481, 0.35490869196000013, 0.36569300682690803, 0.1643914031757836, 0.23033328752799553, 0.24161765632896062, -2.344141851173524, 0.643518733198183, 0.49300146733846634, 0.8575843209813699, -0.7201712943533817, 0.2871784751363062, 1.011387767311385, -0.7250539465113309, -0.49222473392324645, -1.1405711692168234, -1.0617573400577476, 0.19439385689058308, -0.17153808177806903, -0.47272651850158515, 1.337999895622716, -0.12190850288320251, 0.6869757515286435, -0.348011533558063, -0.10619127322098242, 1.1281329466509429, -2.040125331322632, -0.7807391944699282, 0.030662910645775778, 0.5672168671566687, -0.44588939503474184, -0.47667985447989963, -1.3330617721804636, -1.684560127570033, -0.20244786775635804, -0.475917903997063, -0.5678664143320461, -1.1491177614872574, 0.11694693830123387, -0.19111610064682422, -1.2818844056105216, -1.089320191021128, 1.3413448969172765, 0.5788427613788875, -1.5261961511582616, 0.6009370553062653, -0.31529022247985516, 1.7877333353001146, -0.5853674151334938, -1.795923116288773, -1.6834481965537087, 0.2980384583763857, 0.4611691399921725, 0.1145873436681079, -0.42398956277985106, 0.3571112043950301, 0.036937226464064506, 0.732090202731062, 0.4715139706776319, -0.8313380263834487, -0.41342227095841205, 0.9308430097655565, 0.1438078694741087, 1.626386394481088, 0.8425348292570433, -1.2678726982480248, 1.4317997976915964, 0.9741663456727799, 0.09689725570979557, -0.4735067730829872, 1.0654800272536533, -1.2667778169775055, 0.7438406608454837, 0.643012069973628, -1.7153665222322596, 1.3349309016469737, -0.8559395805009005, 1.6701582068855103, -1.035211557008764, -0.8010511044490526, 1.053039850256489, 0.791973721404469, -0.31765902717864297, 1.107642454631576, 0.7252627275073689, 1.3520505255503252, 0.14934667848264616, -1.3345063920357199, 1.2692478212750649, -1.0390207398787044, 0.9486443115278752, -0.7997814391907395, -0.07577274401840647, -0.5070616311964559, -1.0215349145861052, -2.039832921482664, -0.9346863408549506, -0.2617184416124541, 0.16103632932154724, 1.9836391943601863, 0.6805090673807256, 0.4736674875010523, -0.27220080150299136, 1.891284318485817, -0.4950816748449403, 1.8303870174371253, 0.12083648855450539, 0.8184365977745247, 0.31522446901331286, 1.1727401809686713, 0.9840427763577797, 0.42154265938005103, -0.6515055794898723, -0.29575760560980524, -0.6446021599591402, 0.5594262985456078, -0.9535453317905072, -1.067692318325232, -0.6216739973228691, -0.18917237451085853, -1.061398869137529, -2.4913421734600623, 0.6317336731880192, 0.22805160127895516, -0.1917157163569834, -1.2355238747614383, 0.5865147469582618, -0.746065212809045, 1.7892034972581619, -0.0952483927233841, -0.6145618766529728, -0.3350577897057817, 0.09014272805715408, 1.2880972622761093, -1.2481940766005262, 1.517101438346213, 0.9805356852497106, 0.5752913444145142, -0.6808522164689919, 0.7648927422722201, -1.8193117731701995, 0.16901632917960122, -0.08896295477740047, 1.5264863727980682, 1.0241001636799891, 0.026809293761973992, 0.7231971167080368, -1.112456330874704, -2.0757040813137277, 0.37852224989873384, -1.157364141529282, -1.3364644666658274, 1.0154674364146916, -0.4153413004173957, 0.6518854112915716, 0.012041846831639686, -0.07534574785907187, 0.6690634341705298, 0.324817479761493, 0.6055837141463499, 0.05224184646055668, 1.0517107697531076, 0.8691841687332963, -0.16363020805098377, 0.9968255011202066, -0.9442292737369312, -0.25105891688738363, -0.03793105746767836, 0.27100898213813873, -0.566575292456198, 1.8786432061482927, 0.6933326163551337, 0.3126483167879652, 0.1213016638390525, 0.7555395218712502, 0.34651768494362684, -0.34419314312333077, -1.2014404948145334, -0.03292703417559151, -0.17903582818799643, -0.3006447590679271, 1.5180461024900762, 1.0054626410632845, -1.6161039403518322, -0.5117215384426427, -0.16617088351769918, -0.5461560881839129, 0.885589708695253, 0.4697318969934783, 1.6442151724352456, 0.9701918032035091, -0.6493202199596938, -0.49001475573171394, 1.7195367020305017, -1.4824660400962089, 1.6739115687744175, -0.28270122672576453, 0.46950083706382695, -0.6192919323250171, 1.47270685075116, -0.12468682456035184, -0.5182861230557864, -0.2800259559216729, 0.7160944716944284, 0.36974324810989656, -1.0065593819328167, 1.3377114416598943, 1.4306305026548036, 0.5898270258305022, -0.09301238078335734, 0.3125603318397548, 1.1777607060368256, -0.8389320443334954, -0.044315528155801774, 0.6112538703207272, -0.28549985538925543, 0.025745762543404584, 0.684953736657664, 0.30270048090513774, -0.46880114293626013, 0.830754413175228, 0.8877031931330649, 1.1073476954291932, 0.7841278165948489, -0.9639995443824003, 1.5357533239091654, 0.8363257146547733, -0.4984651500840009, 1.2773759597105752, 0.3651350855603514, -0.29727004282874686, 0.7904549305059749, 1.35561988418076, -0.32710011827403784, -1.9491744196138576, 0.45832506805276785, -1.268987221129085, -0.9460611572347192, 1.389255934621374, -0.34394362535867384, 0.29052100408355236, 0.00536452281100091, -0.18857369854469463, 0.16231177221735843, -0.7951902400953498, -0.45917989772230045, 0.5030351574687497, -0.7938292091983811, 1.888603372375667, 1.3265360056708078, -0.041948213331485074, 0.9436498871600757, 0.8487957145443145, -0.6603355384072406, 0.9131526363495821, 1.1767844212545937, 0.48061396801603956, 0.055743073791508044, -1.534670997359447, 0.4586411678977356, -0.18756237920724084, 0.9371598822404406, 0.8593904840819607, -1.0843123839541373, 0.12816648164711267, 2.3107617642996705, 1.4557913545584829, 1.0590575883413154, -1.2061085135008465, -0.16879647169173698, -0.4262336821344927, -0.24113794499662014, 0.789222344329937, 0.11094065264693241, -2.2456602643125514, -2.4005190431411827, 1.0031606160077031, -0.0573309193785554, 0.4823967469814675, -0.005943879866227458, -1.396423676086182, 0.16808349435713688, -0.08862089147053032, 0.2008486844369335, 0.8197221832647806, 1.2578031294957945, 0.9305938936044885, 0.2792742876803719, -1.591008004635956, -0.1474544294829385, 0.43553363985652943, -0.4402158733996002, -0.22117690802575235, -1.3728037859913595, -0.17109726319227328, -0.3157221350480823, 1.0616723695544017, -1.2260904600490632, 0.9287002532934748, 1.8559635534537882, -0.47424895574052356, -0.670706325438692, 0.4059165622926527, 1.006444870612886, 1.8314211198999648, -0.6807033987180278, -2.3414195102156863, -1.4656487606086337, -1.1897406874169543, 1.7990698199653083, 0.5452633536769785, 1.2856660871821946, -0.3236451952630007, -1.004871191147033, -0.35562916849749543, -0.8430502691829111, -0.565278060135244, -0.01939256661286418, -1.2876897123489734, 1.4178696754609226, -2.2402665028978754, -0.43019275372914784, -0.21568839929371675, 0.14299885111980906, 0.8397831535910208, -1.03791790324618, -0.523756656449983, 0.15605624979003818, 1.1357240453372317, 1.1255126173701824, 0.5751691990418702, -1.7093965347176383, 0.16938269775749915, 0.2188952440466123, 0.15479852926457166, -0.893083438702245], [-0.3018501653098458, 0.4872138698869984, -0.7903795794947255, -2.41608837757241, 1.410486932397092, 1.916331535655344, -0.309873220949428, 1.4349339741173444, 0.21944159578522493, -0.5264750987079977, 0.5575180004656983, -0.3411142219014346, 0.04114666477061485, 0.6364130448963133, -0.18026240477526656, 0.22321298369789375, 1.341941639737601, -1.767418421216588, -0.7095251237902773, 0.6707993367426318, -0.26657917457991276, 0.35566816718457506, -0.18426317645802376, -0.3882126459423788, -1.2302508631003097, -0.13514530133788905, 0.7806978733303461, 1.0677895722101802, 1.8606657731068537, -1.5200904108172706, -1.225575122989579, -0.10723546792491244, -0.8320911822441185, 0.9903779779717736, -0.5422685604863553, -0.5790926615284449, 1.6692078937363615, 1.3741594691053725, -2.001688486679111, -0.6854528630533294, 0.4461899434538096, -0.3951816482317235, 0.6694729990728556, 1.7710608815822906, 0.8177522592798832, 0.5673938822911352, -0.04849456702646879, -0.21744774383181054, 0.6196364803579566, -0.155681075804587, 2.6265276079206084, 1.9376833731662313, 0.3388680889135684, 0.5908195322134551, 0.1687407652354407, 1.146705161377118, -1.098986865067976, -1.5351198103692858, 0.7385557057923279, -0.16290057130184368, 0.0005637869979880422, 1.0582736358189277, 0.07386457603260546, -0.951654141378278, 1.08169495724709, 1.0381800197848414, -0.09247152463194397, -0.13411964704031729, 0.07155779939624804, -0.3994192355519577, -0.3340086607834584, -0.6681711260969593, -0.05672023081347373, 0.02779963346101853, 0.35568517514401193, -0.04895689856965959, -0.21458254708260222, 0.6555527684500315, 1.7631434582985097, 1.7711115542548508, -0.6169105133626596, 1.2043239597118696, -0.2253647131109612, 0.8826719004877238, 0.8127477987876892, 0.40987920275011425, 1.74482167854754, -0.16706388315333462, -0.3589766200511649, -0.6104393239846848, 1.7476254322671785, -1.9423337743129756, 0.1782067386494844, 0.14631513903205717, 0.48980162557951573, -0.59346485264796, 1.3830130211512064, -0.04236748488823791, -0.45349908528727323, -0.8143449792820283, 0.19562103299011668, -0.23807537974092963, 1.5228567288052903, -0.9076304109645141, 0.9559336328078821, -1.0750729134308747, 0.9354534432985304, -0.039357380436212716, 0.7617071566267494, 1.2566722496910037, -0.9278334882888698, -0.13257874931174973, -0.46629808975815323, 2.675217231825937, -1.4937253955941483, -1.0682424591700288, 0.6337281682940269, 0.39132793235145585, 0.2571626138330465, -0.030551366711492525, 0.5625374455346521, -0.6506977491800362, -2.345104352505639, -0.35309688096818287, 0.8006539676375212, -0.5013341934876048, 1.315621857744478, -1.3306322413822311, -0.638674276478749, -0.3510169792682512, 0.13073143870443635, 0.09341894552945075, -1.5735702294627443, 0.6820188977422201, -0.6091959860629187, 0.6347264411936635, -1.6324650977869166, 1.125307005730714, 0.6640983496337218, 1.2590175046068954, -1.6967981350532533, 0.473691539936154, 0.45064914212862833, 0.29567814759765443, 1.7430595035453835, -0.09843171122273922, 0.5834391639494652, 1.0281212950122491, -0.19465659463233, 1.6133845300718368, -0.903896761479673, 0.18320430432912935, -0.2654895479318544, 0.6980546707842449, 0.4421465254323592, -0.9532126093212159, -0.5649953118105624, -0.26519367591619575, 0.42070882589871217, -0.5253689375821806, -0.4429503148761016, 2.2205933970260885, -0.11132953425199604, -0.016539718115953343, -1.2737585336378676, -0.5748726699658918, 0.5907319561774702, 0.6597167140817658, 0.059164763914046126, -1.6898887041829698, 0.2579784000377747, 0.6907631290661137, -0.00530565175999906, -1.3572077060727934, -0.8779872727804855, -0.8080313791059529, 0.6417629465946499, -0.2439503936262447, -0.5724062718887674, -0.8486260232488295, 0.5831498808067767, 0.04542644392211276, 0.1133353001243069, -0.09430920431152566, 1.1181025031923304, 1.7375157360089617, 0.8385665232301548, 0.20879201435645123, 0.40162592995191404, -0.13939819117416344, -0.023828116642481696, -0.24910745060604308, 1.6432789882406345, -2.705905967020787, 0.1261867927475482, 0.14588988536432942, 0.40126208783365597, 0.5870316564546694, -0.40104136522126077, 0.5513969715123327, 1.2128910214976343, -0.44157347138659436, -0.5533284954937914, 2.223882746747029, -2.2535298053924904, -1.0506841598213206, -0.0759230929819513, -0.8497011614903399, -0.8724662532543848, -1.1348501839634093, -2.5881378303463283, 0.18388291294622852, 1.2562405386641053, -0.0890313841340015, 0.36786727316338014, 1.391559741674576, 0.9082093857815149, -0.5916848478767776, 0.3472419936113851, -2.687994607387305, 0.08617470176370873, -0.8921739893247776, -1.6119001011944696, -1.244020437179689, -0.6444201044498776, -0.8179715547919296, 0.4603102633830472, -0.4704708195185149, -0.025652575479284245, 0.8138217513865752, -0.2090040385781599, 1.1369024666844196, 0.08977466496152418, 1.4102882227899973, -0.9208382484975977, -1.130801773019463, 0.8194420604469427, 0.08459726252966121, 0.6605198641362613, -0.3776385071354975, 0.9361781247779266, 0.013056139985283197, -1.2601334965601647, -1.0759827178639143, 1.6435706484628887, 0.3971430598060144, 0.24483113020456235, -0.3572191177380716, -0.4870866862391589, -1.2424412037288883, -0.6674854765230095, 0.07210720040258833, 0.10480611961559243, 0.02904110539369148, 1.9183858140587415, -0.6175275576549287, 1.7706972776513472, 0.11285564012012418, 1.5001037973835887, 1.7005053579549128, 0.1511826665673828, 0.6779744260094098, -1.0924102682142223, -1.8800892227046877, -0.20184017241301624, 0.04418139316610021, -0.7641517218271667, -1.0275074082037274, -0.6173140717202107, -0.3155676880670577, -0.09774933322672005, -0.629518427798595, -0.029536357385586177, 0.17626074164000388, 0.7960868619096687, 0.36891123205365145, 0.7023106330650342, 0.7896203535950865, -0.11662705122164828, -1.886977732768038, 0.7241081151474371, -0.8336677388602916, 1.1703275670227282, 0.01427860514243931, 0.18388074489632575, -1.4353251015113353, 0.5619656804406128, 0.7786717380483031, -1.1074957465561894, -0.08359415304125953, -1.2737582008949917, 0.8590088124448017, -0.6706366066804964, 2.697817919855149, 0.6408810435126121, -0.21883617127998736, 0.4190018124532313, -0.5559882235249606, -1.7680407415783044, -1.9406534822066097, -3.128374769632486, -1.3201083724666425, 0.66661196786209, 1.2310721250825674, -0.2308909280660708, 1.3922385284527214, 0.5944714535308497, -0.5011062255222247, 0.6302565847872028, 0.07473393384736021, 1.5410118323623065, 0.7085764883378163, 0.3730975412169532, -1.1933745168106207, -0.3353960194405144, -0.012491928657595444, -0.30386955494427026, -0.8341502252639758, 1.1907886622773305, -0.7130175739799488, -1.1758465781018907, 1.011159372806679, -1.0973507906880025, 0.6595895617152353, 1.3208493422555037, 0.6110898401971692, 0.9038896937248238, -1.3967457246630548, 1.0809695220814663, 1.371478228128529, -1.4280441986605081, 0.7215024802836528, -0.12076341003809239, -0.913173763412031, -0.763930807630494, 0.6832479156597333, 1.3961324792189533, 1.357510448172292, 0.977472003935203, -1.034085434416904, 1.4357083309408014, -1.4830137161535202, 0.9061661563354846, -0.6715353589667625, 0.3904336801259836, -1.0532616441101275, -0.15906989039713706, 2.0198843972374214, 1.078530139090592, -2.447812298198035, 3.1346790338888963, -0.7890506745751561, 0.2534038857599749, 0.33453892374468425, 1.53350380111905, 0.6513634746545784, 0.5501915239420629, -0.11820305963867782, -0.09225379647585288, 1.0526147802214665, -0.04968436084026251, 0.1501065675674525, 1.9203504913899234, -0.4423028982149525, -2.4600077393226547, -2.1822765798461967, -0.4620364055713743, 2.378246573690324, -0.830613373756768, 0.4934587237124581, 2.280757354396985, 0.05444690985226196, 0.7076829031442171, -0.7852110235094101, 1.6884396371764792, 2.266918299070698, -0.35924206029988603, 0.16332765732846344, 1.556669495195674, -1.0740126461142232, -1.8063257914327728, -0.055809722651579206, 0.1527352712466778, 0.8547721527634011, -1.116667919030483, -0.6569513026300441, -0.42011585173894495, 0.31520682852128246, 3.035116090719687, 1.245420055317884, -1.760852657476081, 1.8733366081526086, -0.5355787750930836, -0.5355080173633231, -1.5675134804986006, 0.618214928860142, -0.023420745899276747, -0.35083247116165833, 1.0342682401225347, 1.0841977585919749, 1.5207237180881226, 0.2182027482098686, 1.1381934500391844, 0.5348976610065714, -0.6472544096437566, 1.2038889461834943, -0.954315386049742, 1.2283393382346666, 2.174803962168299, 0.40350965935791183, 0.3107847745707776, 1.0796554718980593, -0.21056654182443, -0.3663454868671732, -1.6079959376317163, -0.20123261871607884, -0.10136366896807775, -1.6376534806531997, 1.1812535039728043, 3.1074054960796014, 0.5588668374617854, -0.2777432346997253, 0.6820684154275584, 0.3732754840558817, -0.7123292310100732, -0.72223046257488, 0.20706734644946143, 1.3524800146278717, 0.5872306035723757, -0.5726929522898471, -0.42830670668167775, -0.8546265839376465, 1.170960069796676, -0.8476480312115228, -0.3499943331043217, -1.1378475640673376, 0.2267593952764203, 1.3911119971551462, -0.37119012903664733, -1.264817196581, 0.9564707437707836, -1.6530094245561326, 0.8910991524145612, 0.5078252620949262, 1.4636024733840078, 0.43379506321202455, -1.1486618689580053, 2.16872430495592, -0.5474297740183806, -1.3889071144158367, 0.9536108467569779, -0.19555166613033062, 0.9586620155634663, 0.2171977907851439, 0.4829862669283734, -0.7988346184570231, -1.5528066661958606, -1.5829450661513313, -0.06979876162597529, 0.8732363165716823, -0.37778196686087445, 0.33096441267761406, -0.982097921511323, -0.905338720830048, -0.7565183470457912, -0.9248199714817733, 0.3366541566792696, -0.8342554528986347, -1.8522098365757875, 0.6486171873258486, -1.435440763644463, -0.21335335610844705, -0.13020069469933007, 1.474167503449473, -0.5080514277324895, 0.7576521155610062, -0.6694373874908379, -1.8336103839566045, -0.3676005361223381, 0.16214942169478522, 0.35606624781476515, -0.7919057035310741, 1.0810998868409942, -0.15009045759059536, 0.37263471293858724, -1.2238358515131205, -0.21581186276826053, -1.6527810009473747, -2.0084721128198835, 0.03584788530955503, 0.18499790989028791, -0.2980207757281675, 0.859052312162116, 0.3824424343678551, 2.0707221461504064, -1.1370345865646942, 0.4235832462907744, -0.583262468885625, 0.536031507676688, -1.6239988444197244, 2.09722629271783, 0.5779124798873699, -1.9516049156567035, 0.47405456511933836, -1.0010523601495602, 0.9455021939319249, -0.875296943772676, -0.29525885482540204, -0.14097926992676849, -1.210043427442876, -0.7720228503473158, 0.20125674585891715, 0.5047018956113128, 0.8132805104494886, -1.9740453781483198, -1.9427065977369793, 0.8649217830427142, 0.5369641123564729, 0.7222930265946154, 0.2810275777150487, -0.4527762450005936, -1.1070814273460288, -0.1265090185548177, 0.31637996247756095, 1.1040935374834948, 0.9651462805824583, 0.20031826095874833, -0.8979901671718591, 0.5246512898552655, 0.019357569950522194, 0.2982563653527315, -0.0981040062205959, 0.17641326006928268, 0.34427442242852224, 0.1999584400352504, -0.009160482249516193, 0.6483622225043512, 0.409316692291152, 1.3570499379219267, 0.1588266693583274, -1.3385217725301952, 0.11900199968596617, -0.6742441155844741, -1.343631937535159, -1.100782378065541, 0.3772868061659653, 2.12439628934032, 1.2412561567025786, -0.41324383290512334, -1.7296133995142609, 0.9349078333282853, -0.0423740003172287, -0.47110168751595155, 0.055512705302652454, -0.4057120489774507, 0.30114119465352895, -0.2776901403035476, 0.44080000248694595, -0.10663930178843639, -0.19920927699410956, -0.30801956720860313, 0.03246467071498864, 0.5719173378676605, 1.226879650850134, 2.0159295198947746, -0.7784053103203115, 0.645509123276982, -0.6872532702297285, -1.4903389694765719, -1.2879599906013208, 0.3032394043172323, -0.7612140673965034, 0.839494942255045, -0.3838194274998751, 0.5496396676015474, 0.6209175167180784, 0.21113036946057553, 0.9725045209567765, 1.0283179087318575, -1.0594776513923518, -1.4402318847702678, 0.8416332822911685, 0.18030689286832335, 0.43241691459297527, 0.03214415717972959, 1.4410151687461226, 1.6876239245939086, 0.26399265976620395, -0.01621911631723156, 1.1351887225934243, -0.1734470787369222, 1.9837824057951672, -1.4528422081471866, 1.0735115657729613, -1.290095379471867, -1.1353873180826235, 0.14715914319448453, -1.3735250555892957, -0.1653820453730269, -0.3061772698040058, -1.7664242023963408, 0.3132361197940001, -0.224874294495913, -1.770911926068896, 0.937497871175987, -1.0064974066697396, -1.370271518035833, 1.309414467771249, 1.0127858737592355, -1.5016194666454068, -0.6378027411876795, 0.16188712638768168, 1.0501262040422101, -0.6533419741527147, 0.9303080088454281, 1.8145376168777998, -0.10406195033651831, 0.17511210601496913, -0.1373416017543202, 0.44631827995229334, -1.2661142964590981, -0.917937431061032, -2.2688924499721126, -0.9432516190526843, -1.1652401657243472, -0.21557016057851738, -0.13619292383310583, 0.8913686381613345, 0.8404552471160257, 0.28098209243171207, 1.6165762719400656, -0.5014831057220694, -2.242201825928163, -1.0483454374568228, 0.2420841472400257, -0.5494249517333947, 1.0950126439544359, 0.14892595186491242, -0.07291340183350094, 1.3581527503970723, 2.1018616846683287, -0.7933448083022765, 1.24232100652763, -0.054425895952254215, 0.9090843331601535, -1.144124285974849, -0.00023794809962381439, 0.6255183541983061, -0.8476147634382925, 0.45011033092820935, 0.23430916569409027, 0.19912502092448525, -0.27244802815461533, -0.03436154977161225, 0.42065617552620893, 0.0751195766787431, 0.11741078165837934, 0.14379323431089583, 0.7738875096248238, -2.861349405756417, 0.5821526722357631, -2.6090384049562405, 1.1822030577538092, 0.8858032215394069, -0.6680673245033543, -1.8229737029031123, 0.31100764302391104, -0.8693105027014966, 0.989323491439629, 0.828375261306604, -1.6870525861163932, 0.3356825078635007, 0.613866967401561, -0.5815471923298887, -0.4971782468418087, -1.2333565617797237, -1.3913069172452026, -0.6618147119245489, 0.07904875203592578, -1.0176285961020934, 0.021441305922442772, -3.66515616498926, 0.8430368082872314, 0.02786443056379708, -1.1645208708796855, -0.6748184042354155, -0.14921960676392795, -1.664617016674915, -1.7192143111844154, 0.6149735246562753, 0.6633747764453373, 2.0094915070789283, -0.09142238541996169, -1.1674479886478004, 0.8698490970768638, -0.23795885334929895, 0.8675185406904995, 1.691294231119006, 0.7233008181441765, -0.834691949629292, 0.22845509085688842, 0.8658538168548509, 1.186228586675313, -0.5117466035152421, 0.4228600446772689, -0.5535925973282104, -0.34306307769366906, 0.30204060065428473, 0.38309285511071045, 2.005356879330522, -1.1161484768811833, -1.6855335734601298, 1.1174168926125578, -1.7095052730145996, -0.5446673260378583, 0.19121970097159519, 0.8032024448482885, -0.869699123011521, -0.5415230337158078, 0.23829359635215433, 0.9448766451317194, 0.2851066374967286, 0.5544421700581369, 2.020256875691213, -0.5268423726394857, -2.000944300170223, 0.6895991313445374, 0.8547533694496948, -0.7495560635472153, 0.21428318725107864, -0.3388223150134567, -0.08762205941975874, 0.016386660597297764, 0.644809398278935, 0.5703929508272002, -1.4316646326687164, -0.14273297080899186, 1.095525394722343, -0.6375270583400635, 0.5159270630868817, 0.28061046979086335, -1.182230388360306, -0.4872825100680714, 0.4311736116748605, -0.09519474549242256, 1.4951590475144487, -0.2996820861927208, -1.7936534958541686, -0.13572512243623153, 0.7142041719219737, -0.5391461987474291, 0.5315557493308158, -1.7650676514076036, 2.159096379791638, -0.9545800679552746, -1.0677136170793915, 1.5566724938614664, -1.543548040951087, -0.1049040483406148, -0.7336309310165545, 0.02087775205467523, 0.7379351545902281, 1.3796093085317778, -0.2656610205964979, 1.120731934234901, 0.016237027879883806, 0.43928055318201453, -0.9805227002128736, 1.215370183505202, 1.566101520072575, -0.7212519374051868, 1.6552273393927979, 1.5273484694773056, -0.2868182908367343, 0.15758638063187735, 0.30316350200438125, -1.4097072178866503, -0.9768905351749132, -0.7689345126558675, 0.6003590090700831, -0.011196187704900976, -0.22614294598848067, 0.31102544959059175, -0.07260476423870935, 0.34855059421166196, 0.4050247844338107, -1.3578680189172447, 2.23743544956361, -0.581754946394296, 0.7389473008258348, 0.06943959607770926, 0.28855293445933755, -0.4037478694249202, -0.39955154958507727, -0.10151820014357975, -0.1287083399905709, -0.08285275645375789, 0.843521776217871, 1.106720307776847, -0.35827232851166824, -0.8936198493877189, 0.9060517446220616, 0.3275146568360511, -0.6315735530114098, 0.3192640000698582, 0.8219754568326664, 0.2677833923699618, -0.20177389782078559, -1.1282617306012692, -0.9561815583368384, 0.3000476718542385, -0.10568114861187164, 0.22697101248454482, -0.5791346769718346, 0.9706302853523573, 1.1568104307847062, -1.0849643404765694, 0.07659133583901419, -0.9706706324341524, -0.2601899026738741, -0.6743289412487977, 0.6034716316386644, -0.1811476064075741, -0.7378051112618232, -1.435541343501742, -0.7260703092547465, -0.9468905076302109, 2.9770530305250444, 0.7662041307278298, -0.21990465276043045, 1.2424412959446347, -0.14413659253059546, -0.71385628500453, 1.9626170143445885, 0.5790923684797455, -0.5759299877903731, -0.16495350090365724, -0.5960243844175613, 1.1326004499679132, -1.4713504529599222, 1.5397930749791064, -0.13864294857901394, 1.1606322088479102, -0.42217004888036747, 1.0518865507192914, 1.017843781123576, -1.6420638065903466, -1.0461877182195496, -0.33255328941533185, -1.7551890212331653, -0.3245207778452278, 0.49429933550096045, 0.05831463401141497, 1.3344303360838061, -0.038936115599321204, 1.8269981469415246, 2.03944381688202, -0.3688973847662026, -2.27271173525599, 0.6988149615647271, 0.03865905592668226, -0.15163549164249648, 0.6895360787394477, 2.0004585166265745, 1.818830813267692, 0.41532023320532546, 0.06913205921350273, -0.9336200806042473, 0.11154125542827645, -1.721774056554922, 1.405210738355093, 0.504817347602182, -0.21356592390322066, 0.5952473145725862, 0.8738381770809431, -0.7183376332136362, 0.9131512306248752, 1.267079828806574, -0.5064583498139671, -0.3442563135673034, -2.008718558007237, 0.28545628315830396, -0.29929230371688026, -0.9086076762124025, 0.2851599787805827, -1.6569489542935396, 2.0307842630647226, -0.3522418544296144, 1.3017080437820427, -0.4610116362066608, -1.1262793231706563, -1.1250176931026363, -0.5271864853801299, 1.6203515694807402, 0.20906434734008447, -0.19975649819192393, 0.6071032830411311, -0.6336038724341264, 0.48118955523480805, 1.7422739493385653, -0.5002733537238242, -0.8319961697961732, -0.5428622654565665, 2.1680723027116504, 0.06415054814714526, -0.33086655531261444, -0.28299148803551244, -0.4974712385295831, 0.404303248624526, 0.5697138948472337, 0.4965760095862111, 0.8848635911612606, -1.1980855217673956, -0.11890953527263509, 1.0217421308348413, -0.05129808516652287, 1.054736469323646, -0.4469982050124642, -0.339309018132337, -0.12166176869479697, -0.8361363401895556, -0.1562056996087389, 1.2434918649342594, -0.924237961091843, 0.21471963446022885, -1.4638583505837734, 1.281801184864303, 0.1802444454627864, 0.500359898225042, -0.8199729399199512, 0.5502700892815718, -0.8348644557222277, -1.68225638347666, -0.03855306383975085, 0.10898317128720307, 1.0689966800956847, 0.9665506018081218, -1.1941406945647774, 2.0812949251981774, -0.5537865211009575, -2.044038403727944, -0.010688342927629317, 1.8020594464113777, 0.4059096057183897, -2.53954856501041, -1.9865911347202274, 1.1344456458799215, 0.5516693123067434, 0.06221007357477163, 1.3160776758074293, -0.9046231355520927, -2.036109348635382, -0.7182817811238337, -1.1654639056043783, 1.4218856667845903, 0.926339319668783, -0.12684579557949316, 0.4790626507109297, -0.925107174418684, -0.034192950049074994, 0.8099228665666561, -1.041496402760297, -1.4046909782920263, 0.2747493058950209, -2.1874239825311697, -0.14638589304452082, 2.450829002712545, -0.3828568784106505, -1.2538498231658024, 0.7512842591923786, 1.0895149359129117, -0.7701971403352145, 0.11761314369312284, -0.07721397011832154, 1.048028927779911, 0.2544815451482036, 1.6562317112201146, -0.7774320284027096, 1.147389760302199, -0.6479902754608196, 2.031586445887982, -0.35051092571790377, 0.8853405924197086, 0.546300633138894, -0.3028728841063962, -1.297954647886865, -0.0896941270804009, 0.6384749249664645, -0.5310018991910765, 0.11812595672036448, -1.1179128963887097, -0.21041201546240798, 0.06380389500801574, -0.8756097255403855, -0.3975648254115801, 0.12218208932810273, 0.28441514020551206, -0.11104465993003705, -0.7710612051202964, 0.3573515536335018, 1.0752395516813682, 0.5615666554790324, 0.3598665263026224, -0.3222778182698628, -0.3292911593984369, 0.027176315368257743, -0.07876113224284445, -0.8432973279792562, -0.5035813911517241, 0.14260939183981255, 0.5625395808386715, 2.104182598004743, 0.1574747801302723, 0.4203150238865795, 0.45523310521032206, -1.3390106656703167, -1.2073192405472681, 0.33006616089572766, -0.22900150981516235, 0.10285814091378212, -0.21369674500400898, -0.19025792672290293, 0.2756432944180603, -0.7998289396783055, -0.20663469807257367, -0.9628130358932412, -1.1383392952399924, 0.7682642353423027, -0.30314473219277555, -0.7046499358031391, 1.1558181987478047, -0.5398592944420749, 0.4262153179326642, 0.1702526002703515, -0.8687836720587852, 0.32412478681673185, -1.1929532831574705, -1.4335219640953536, 0.15260436293773672, -0.07146755067125347, 0.5022060188506086, 1.3405895868696704, -0.8982707337428502, -0.07155533615347315, -0.5263087183017803, 1.0366067703964044, -0.6213885893804613, 1.423333592696846, -0.02874425738771651, -0.5855226731552434, -0.2893454396721433, -0.08103410198701444, 1.052305230368636, -0.589958280982219, -0.5552606238879467, -0.8988094577413211, -0.1338767542916335, -0.2844427557769191, 1.4914022417107746, -1.1497264742172328, 1.1440855513894561, -0.1663544342209407, 0.21106904405106114, 0.12098239072302994, 0.23235327870857161, -0.7880223034366854, -0.86003765213402, -1.012994776317349, -0.012938191608175643, -0.5597623849534574, -0.4691852605753527, -0.46411327642396205, 0.7300475614264842, -0.4125087553790756, 0.6007810205252235, -0.3361736633940992, 0.11720330661955017, -1.1720510327008078, 0.6923514118060091, -0.9751560178039431, 0.0052103118273163496, -0.6351604475197749, 0.7991084315020454, 0.6591670475746549, -1.0239771707134553, 0.5311723422927845, -0.22743975010500106, -0.692719953635321, -0.46459932121058095, 1.2218349147691638, 0.5918943424028632, 0.9370554458880961, -0.21268033165644654, 0.7824771087651593, 1.0214085114825535, 0.0396263319221698, 0.9602336291191463, -0.6617015118195141, 1.6563266384516149, 1.2188159380461683, 0.5192094236136129, 2.2637014201223624, 0.3254426628546199, -0.28710513242297075, -1.2975679909471884, -1.187026701637733, 0.7024363533897778, 2.1206481529093484, 0.38502615295389586, -0.649076958781302, 1.8250821915244408, -1.569781235164148, 0.8753243460225594, 0.021417474673099582, -0.5085923178836312, 1.4715415390399775, 1.1063507265264843, 0.7138174320899772, 0.9348005642102168, 0.7789583588055381, 0.039010335518917076, 1.2303562434588429, 0.9744253973192689, 0.24554757630835877, 1.1609408435711104, 1.1640787027159876, -0.4600118084344962, 0.018370658349843385, 0.44007610757403837, 0.20186982827827749, 0.16039157712203383, -0.3825510296097604, -0.8221830497143263, -1.780193035794527, -1.6682498668610841, -0.033131408411298004, 2.576620955420424, 0.6685188024128994, 0.33210605260787307, 1.6631973276822682, 0.27211979453366064, -0.027910359183765738, 0.11595270793167517, -0.7556627665488879, -0.9173633455419616, -1.1223350674816706, 0.41396087787116154, -1.546686554851389, -0.40516039901352363, 0.04535054231386851, 1.621313748050873, 1.5437846378961069, 0.35077259301269204, 0.4767049517118246, -1.67619549898345, -0.5222084536056466, -0.1938993366691442, -0.1657830226363974, 1.1940663871640453, -0.3163481758212186, 1.2578357660083859, -2.198136719848552, 0.3570800815434083, -0.380809461917357, -1.0373556454690998, 0.36412460646132727, 2.674387853099216, -2.0570523220211703, 1.2398403779619467, 2.923046900333986, -0.04932980061012082, 0.1418106193105022, -0.4012455952811681, -0.22587145625860863, 0.28062621700691526, 0.07679444287304911, 1.6668579335045377, -1.1410685715027902, 0.9865306149432563, -1.8868432844673282, -0.659198833307181, 1.1251277912121072, -0.9303377665735483, 0.16301075745080235, -2.076382722219662, 0.5233569566990068, -0.1582706467810297, -0.9177016486237565, 0.5333702662590176, 0.33192296899598217, -0.8504453407909616, 0.06079720179212945, 0.6649965371316345, 0.5266607074101275, -0.010194039784298475, 0.9385070882396026, 2.109727068188388, 0.91227378258642, -0.008191924659514883, -0.6535617567411452], [0.6799050099564401, -0.9737503223341766, 0.7735192639802672, 0.7909339549125219, 1.0887775039993366, 0.8568215353449617, -1.1835636477941502, 1.5638246594090435, 1.954131004361984, 0.4983720350605825, -0.5519813363024866, -0.5694111849661597, 0.2607516439172698, -0.8211243775883736, 0.010955808859779355, 1.049979895018178, -0.4813764544784702, 0.5986142248645635, -1.601925769439226, 0.557951723872538, -0.5685181498635423, 0.8624645238647517, 0.12147489215647739, 2.082615854117862, -0.6145660912841928, 1.793684360712958, -0.2934377315665646, 0.05844562841156431, -0.030906884628943844, 1.3219615787266872, 0.07805456021015489, -0.8547082411387167, 0.45583285211829255, 0.8900603205701181, -2.3174239369198566, 0.413943854082645, 1.870933247172246, -0.060468106809095944, 1.3824174930152282, 1.7618951698848102, -0.25642083925975184, -1.4061209351243118, 0.8980062656620765, -0.5827581550905387, 1.3216637124518689, -1.0203540928347625, 0.06392254869016455, -1.4752001934948475, -0.15891966195056498, -2.042956375801471, 0.16412338013842281, -2.505195267048744, -0.3753359191201877, -0.2292861508542073, 1.409542667599676, -1.13996898247966, 0.3882519721781055, 0.22192020535785476, 0.6763611831596055, -0.2772928259748457, 0.46478471327273074, -0.3653577036978466, 1.7633457586124455, 0.6056073425327583, 0.8976871052461, -1.4454279647049253, 0.536209172697534, -1.089875586256404, 0.17917465764804014, -0.8504019935848478, -0.2244036897217206, 0.627052730731089, 0.18866643332694016, 1.1636595358333213, -0.32621287654490705, -0.08983342968111833, 0.046989898504278316, 0.6492113281431485, 0.6022926121762832, -0.9180128363710001, 1.0519820196669778, 0.03356958713018413, -0.291520238806422, -1.420044104895249, 0.8751435326377386, -0.1719497459626181, -0.8914712685814342, -0.33208141573219974, -0.7127590275268606, 0.5610007014299846, -1.1467804472662304, 1.7149135532164144, -2.38436770254661, -0.2931152189550446, -0.6678604348362174, 0.4032289796553502, -0.025642906498213342, 2.06604854665448, 0.4281335573144592, -0.35169921210526606, 0.9129122337533274, -0.956900655090161, -1.3021816316669923, -1.202780710692068, 0.21484358948836324, 1.1423828172561183, -0.23741587829907498, -0.44022196856144796, -2.204454784812288, -0.6288336606844016, 0.1657065205290601, -2.763314931859182, 0.7969188743511058, -0.08283377127667917, 0.7685695511667522, 1.1203570352174117, 0.5479797955831015, -1.0115807270502382, -0.16871124074585422, 1.4397885878062089, -1.0159626911534219, 1.6476685283889638, -1.8262102858067184, -0.8334030676116257, -0.2232440654792516, 0.5620854898517237, -1.8704085574411233, 0.3842902168625968, 0.21332729394614128, 1.5717153958473964, -2.3604622103951654, 0.4018189911885191, 0.060071662440579, 0.7651970073841166, -0.05082885750733506, -1.053256569401096, 1.5078862135360658, 0.4441954530264942, -0.7438311441911392, -0.32504372340789706, -0.8764235917321523, -0.4966180654557429, 0.4040647914086057, 0.11336747933269904, -1.1775186550489896, -1.4320217786985396, 1.588086584353496, 0.6810415336664901, 0.03790905611551408, -1.32361771200545, 0.6565937331886664, -0.07495490139196001, 0.8543850639469991, -0.3261998255143563, -1.741063274630637, 0.05972268267701861, -0.9185083119324017, 0.38821275732204796, -0.0665262112820273, -0.17504590844852833, 0.7762805077645816, 1.3465586053876755, 1.4552917460278396, -0.5422098188437767, 0.015374139142759775, 0.7034076181288903, 1.0100853116630888, 0.1080198366459579, -1.631323034343125, 1.6652330289961075, 0.39807175290785457, 0.5162398435901961, -2.3696696291503896, 0.6293326561092156, 0.15188693187826835, -0.2610345688302886, -0.3479583310791905, -1.9211862609518704, -0.2404161600571531, 0.23093981914068007, 0.9955001453192541, -0.8274764209252138, -1.6059352732990386, 2.2422791636033157, 2.655501579977244, -0.635786627338215, 1.630435553807791, 2.7670812522832016, 0.018260642778825015, -0.8113171492362045, 0.6952374365584992, 1.4366914531218231, 0.465235383743092, 1.3354013464360344, 0.23214172886745255, 0.046598079762032465, 0.09864229684681752, 2.057908189190175, -1.0821792832677313, -0.32922475963210246, -0.022986505521924907, 0.873428818047525, -0.5261636990195225, 1.1159369677776914, 0.8715079249293302, 1.743164609203496, -0.6202083493277388, 0.5114521481641424, -1.7058098926071021, -0.8365411709074656, -2.0071556184012525, 1.449461694724258, -0.9481619495265682, -1.7767978743926969, 1.779729852460589, -0.4352009943468172, -0.8146875739916476, -0.29951785769619477, -1.0235273606401325, -0.2419138501856088, -0.6038978726443468, 0.7346494435550353, 0.7378696019809732, -1.3665944984222596, -0.8350950249356084, -0.6713196688550038, 0.5655721089279228, -0.07921841394739379, 0.3216206001299084, -2.656641769489776, -1.150749526736872, -1.1412268134869754, 0.13051219383956825, -0.3741579572624381, -0.08148029188834101, 0.3248561023734918, -1.8993215834435024, 0.04850971405829371, 0.30922456253722885, 1.6532132344320232, -0.46475563741382536, 1.3959440260151157, 0.21026682010569941, 0.05308244770504068, -0.4217202472679686, 1.1016026492938122, 1.2624061294258337, -1.3580433188036505, -1.426951104221825, 1.3936292832274122, -0.7016145910355849, -0.07487709779306059, -1.9729476689352867, 0.08164918818615223, 0.6374378354978194, 0.6364986259898598, -0.41756804508600676, 0.47503281899487976, 1.0483607782441369, 0.6322414866845567, -0.4097135840332668, 0.14153460586578043, -1.3622683295267919, -0.2639363797936758, -0.014969886701749143, -0.3279643961366574, -1.7406214444028398, -0.05426364330136281, 0.1320918675594527, -0.2555315067660259, 0.5912379866701798, 2.358826494641451, -1.8477249867449246, -0.28206375570878167, -0.7215603208173667, -0.822424343857285, 2.184830088433244, 1.012727333355203, -1.37490415168661, -0.4582537000800164, -0.3259740719769774, -1.5890375555724119, 0.45067297528602623, 0.06629229857124036, -2.1414564099024003, -0.28465231217270387, 0.4588313454216132, -1.081157571759025, 0.02636031880046561, 0.4860738883570308, 1.532134282802604, -0.14468860224800506, 1.4607914603906123, -1.365078087456679, -1.4787887500630383, -0.32885859612253276, 0.12024928807152574, 0.5508597408992324, 1.8881716532850363, -1.5581114885232068, -0.4982714459492203, 1.0637616371485963, -0.8592247864593283, -1.0014821930288196, -0.6207128581800201, -0.062379168644514656, 1.2265913458362672, 2.4840466992312407, 1.0310300370381327, 0.29969696764474035, -0.7119399467321026, 0.3313576826430519, 0.22035567186478794, 1.729259602806033, -0.7445406434517903, -0.7759416719019161, 0.35855451503317537, -0.8552316733276943, 1.380813717997286, -0.6163921991045919, 2.1056587673916405, 0.15168691924294175, 0.6765648465442098, -0.16195878871609237, -0.40296438532178686, 0.8777122227234275, -2.0440911023399146, 0.3347034670798469, -1.5611795247294946, -1.418733912870659, 1.0503530157442469, 0.8184888967868533, -1.4935091234180573, 0.5787746523546515, 1.8684385156538206, 1.3392940005649996, -0.4518503169991269, -0.363009500576393, -1.142333179584139, 0.6291337496898786, 0.7839959721427603, 0.645447456984934, 1.4150380567000405, 2.5087072068430207, 0.10046503877824658, 0.17150519522838528, -1.2418243967626634, -0.1365545719744407, 0.3221342159106149, -0.02553713914520132, -1.0482370738692348, -0.4494743910177246, -2.2083971267482205, 1.2543937173306217, -0.8971149154489996, 1.249837729577146, -1.1390026320363928, -0.3786439323913116, -0.6224331556506828, 0.08315973626921547, 0.033418989880700745, 0.5919797899909495, -1.0877791352777386, -0.008173745326690506, -0.2459029295502732, -0.4843297963500607, 0.0745887839999451, 0.919212367798317, 0.05173050594241221, 0.8738911895525071, -1.375425596157278, -0.20522284318496722, -0.7744164394080876, -0.19688158974752804, 0.04494239174257929, 0.44233767297210036, 0.29202652487805564, 1.3811827225369464, -0.6962493217905718, 0.19752143719682907, 0.20706840881184677, 2.137626091021046, 1.0370291873514361, 0.5700482904738504, -0.8919905175921538, -0.22220435036734656, -0.4860830651884429, 0.03867931508587285, -1.5103435751967216, 0.5515850137847885, -0.3253759287472332, 1.424463288422326, -0.6902010696342402, 0.19503365807201845, 0.14929733923832308, 1.237012242862378, -1.0509656162867085, 0.3435369580891195, 1.0846067736951934, -0.8863468243972717, 2.2886768048098367, -0.13204089537130542, -0.3376131055757796, 0.5601119010480006, 0.5971494713802878, -0.6513721201226472, 1.6574706248816158, 0.24506213752497696, 1.2136522243244623, -0.9714194404957361, -1.7720309997246968, 1.2046099689023522, 0.2948744338257135, 0.2834432429378115, 0.8606723860166754, 0.44808142955900965, -1.2389581248644157, -0.20248354446720315, 1.119497280601851, -0.6756561238583223, -0.3826722927597698, -1.6230124971871183, -0.7861490046443941, -1.9075823871523412, -0.8666761809940773, 1.6286541917409583, 2.299126836650771, 1.3170833264245703, 0.6242907298944236, -0.7148652664799061, 0.7094075524620653, -0.21796257674228967, -0.8210207027660629, 0.9830683636055453, 1.038025531269957, 0.32419209524255976, 0.011882746069541159, -0.09612111415840811, 1.4962459238358163, 0.9708471994627818, 0.36018560826691964, 1.1690755175407026, -0.013914761557316276, 0.7637513942698543, 0.21363239353065994, -0.713830608039045, 0.7154804940431351, -2.657502672076068, 0.4369990046646737, 0.09494424337782768, -0.6844492479234023, -0.9370718015533955, 1.64167515647165, -0.6652068556912099, -0.6037060150163244, -0.4966325155407055, -0.4607539684092023, 0.8386876365265401, -0.197156501471556, 0.36107122955253884, -0.017003609989523827, 0.35941150484021733, -0.9790382144575444, -0.808821994220974, 1.1133007475043055, 0.893406620465163, -1.1274487461593201, 1.5422916908070345, 1.8369294971959877, -0.8296484678023974, -0.1896657145775889, 0.8129458959983676, -0.7788847697989193, -0.6140404360015689, 0.7376200921305875, 1.5790894101799517, -0.22455039230318133, 0.16736187417815665, 0.2896489215508842, -0.8473184192558529, 0.5223309913156697, -1.019486492305094, -0.061070079811382114, 0.6708749183226511, 0.9937870742554923, 2.414481937777718, -1.462565728872379, -0.07683651949929224, 0.5422467301331045, -0.40779439286499364, -0.2323741864436033, -0.6866704933061566, 0.22398228208401508, -1.4488311567403642, -0.002281220977333027, -0.4702063928505512, 0.13164428305293926, 0.9879197065788524, 0.6168503951872403, 1.4369703930711235, 1.2552576538052345, -0.789845701375457, 2.8160369870742215, 2.792376022580305, 0.7507760984524001, 0.41420481901907913, -1.3851594861447671, 1.0991289624630785, 0.5323890827315761, -0.8588205943286743, 0.7990255870295445, 0.41754185744140715, 0.44917050547313075, 1.219809099146581, -1.6210963781114636, -0.9076290736248745, -1.0063738607986734, 0.7127937328322924, -0.34726748278704045, -0.3990800672450062, -1.9638092711078248, -1.7952983995970222, -0.329013752721916, 0.04769960180340576, 0.31189122849605105, 1.1701198258448582, 1.2354163172435528, -2.9531869519057103, -0.8961758122051193, -1.366284715890624, -0.3750046332140269, 1.0409479231902694, -2.028900540448905, -0.2454798438570053, 0.9200728113191392, 1.606867939403701, 0.056894979775405106, -0.5727984570137503, 0.24025917690559379, -1.440148751486097, 0.2062110548859365, -0.47419986518733465, 1.348820049698573, 0.2786634586218726, -0.07536544256526694, -0.19950396670717996, -1.072492475901195, -0.5874086780585566, 0.05356710914459192, 1.025753705363536, -0.22837223277429025, -1.4459565393254494, 1.5888767778309942, -0.5312943011500868, -0.2643501130641341, 0.3677243001603329, -1.5335767485830891, -1.7619992447228796, 0.2004774223421807, 0.2601710479802514, -2.082356941011384, -0.3452811461632012, 0.5271478244990004, -0.3811405657066618, -1.439088826985511, 0.30931994793341433, -1.2498902713560809, -0.4547038449929506, 0.013750625529353726, -1.6014682468357802, 1.5056469202079856, 0.8842220620251403, 0.9970179399719634, 0.13826673221998476, 0.5257749400503876, 0.6813359495330701, 0.4396164873734568, 0.6176332284466681, -0.3421246082829167, 0.5770824121458228, -0.2318586383803379, 2.7685738495088144, -0.8883501729157168, -0.5753051243686549, -2.2677367959189527, 1.5389026132874708, 0.44937838316958906, 1.8934033283194267, -1.0220646092934782, 0.9903797532943837, 0.2961013687520003, 0.4991743812612518, -0.7632323555798266, -0.7239102266978173, -0.12456568170094239, -1.1207598117061248, 0.20267897402728818, -0.06193249990324327, 0.07292115748283526, -0.5366999027053267, 1.6454573718417058, 0.1282447353802914, 1.084563362965781, 0.6323623603668344, -0.7843443356631733, 0.12507068336213714, 0.7717773444616186, -2.131642171522832, -0.015317012453557498, -0.47573901317029466, 0.1943129579694345, 1.8201633518933178, 1.582055242726392, 0.4411485504662407, 0.7450220601773913, 1.168522737863397, 0.46573109273940505, 0.09043080357101119, -0.8013620408809505, 0.15204572681414733, -0.7479661224051075, 0.7826931290526287, 0.08114737197495812, 1.094813809521616, -0.365053676789899, -0.35443159400615626, 0.3322913642492584, -0.264124636377828, 0.683041594074556, 1.7316273286395711, 0.7017401396189249, 0.94561786765663, 0.35785195304896156, 0.13723258641488456, 0.09024559078254543, 1.701939902520482, -1.2496822788069735, 1.9871972733398595, -2.3592124899009956, 0.12450872737079748, -0.2114265866264902, -0.4926034123500344, -0.8461887547249488, -0.7803781064286988, 0.11207830902074208, -0.2984212632369617, -0.06965218119342124, -0.5152835405213485, 2.6621944290372044, -1.5941048545275613, -0.10581916018278764, -0.8601821227896469, 0.16063124354323757, -2.5910774276741453, -1.6682496650363843, 0.4389585715841561, -0.8806552538458776, 2.7634824247972474, -0.47634539006362403, -0.0517140263631006, 0.80392776834079, -1.0893101708347797, -0.46054724349485454, -1.215705687286199, -0.39300292735061415, 0.011076613964803398, 0.8307382268181224, -0.14828179110508838, 1.3997660547060995, -0.818812964364791, -0.10928090052139329, -0.465805964473017, -1.9690599690794366, 1.3957446660008517, 0.014778765116736996, -0.27531377108839244, 0.5674385872358015, -2.2579577832757107, -1.1060090227489623, 1.0340945701930224, 0.6404854077319495, -0.13177804369216164, 0.38107269964621293, 0.1267556911068422, 0.22375135113048927, 0.03553088356709875, -0.5337301112837591, 0.719028031892472, -0.9449027998406532, -0.01456220479494962, 0.05838649861578974, 0.9532029827048806, -0.37937303387807847, -0.31453955763588837, -0.508644409849589, -0.08255404797362023, 1.6285701874726637, -0.3545305775284289, 0.032003017892232984, 0.0768140789880915, 1.7939287579196577, 0.28108432272459594, 1.2983774602557632, 0.04741922251520438, -1.2245679048516935, 1.0167194306730178, -0.5412649355873087, -0.052860713500478086, -0.1987357990638761, 2.0404924314557102, -1.2476332204377225, -1.0402286006453512, 0.012672041260471936, 0.3562147353237142, 0.33244845485762664, 0.8790781003003738, 0.4766026043287987, 0.5537475901070766, 0.023970020057997445, -0.5828128864827335, 0.03252008534177007, 1.713796475627286, -0.142875847917739, -1.0735804826394193, 0.6914084227157152, -0.6924286986997359, 0.7986890667795641, 0.4589137566997214, -1.4838060906396238, -0.6381995900057119, -0.9703316414753171, -0.17219761377074447, 1.5730879334163042, 0.4624209308190296, 0.28041997808503183, 0.151861972077571, -0.056635206164111926, 0.38673541868250566, -0.5256990624673397, -0.25512583110757037, -0.6648089342847063, 1.26231305583515, 0.11755452623754636, 0.07471695554365436, 0.7283238028797773, 0.21964698559603743, 0.252264103459514, 2.3012460781450206, -0.27908937378691945, -0.8431318544534001, -0.8892027117009608, 0.047069028343601445, 0.4966754618158273, -0.35145407172221776, -0.11202054824448253, 0.5272975170923881, 1.201737855562931, 3.3548705870283926, 2.0105370095346737, 0.6518540180229763, -0.07193911821215429, 2.2907197086729574, -1.1686840235548395, -1.472327767981016, 0.7488121048538174, -0.5384020903610304, 2.2843392855139255, 0.17512181079455358, -1.3940577105239935, 0.17183457498201882, -0.027871982981598646, -0.5726335093415853, -0.775222459304908, 0.27256702866944266, 1.1386406526545092, 0.6466049709726683, -0.4653490732311893, -0.7073341779008238, 0.22260216393917434, 0.40096302398340117, -0.20340473806781229, -0.9263001025747928, -0.14407581577873763, -0.7035838765361162, -0.9090821548832937, 0.17908617952878253, -0.4303503108435534, -1.382025672441804, -0.6339188965152529, -0.005360524070809732, 0.08018084868117321, 0.19170658293379092, -0.33011519905233183, -1.1116170793439601, 0.9720405968414983, 0.17949823004035861, 0.9174222337546722, 1.989416617968152, 0.9096950794484959, 0.5134053611123972, -1.093589355214239, -0.35440166829291236, -0.6244282401409373, -0.4557851842697152, 0.2360200963518504, -0.8016825774569863, -1.794651530065601, -1.069024297448166, -0.36178888892580713, 0.3864161413877269, 1.2024571669206208, 0.3795761070469116, 1.744687060206162, -0.6863289893578258, -0.47715475236114335, -0.5164557088521304, -0.1729414268489423, -0.893942520260725, 0.6778287855884491, 0.1983832022271182, 1.0011890575266191, -2.2026287915754965, 1.1994279126614922, 0.4186116400871696, 0.4322847036642674, -2.342312602355113, 1.7217627166634857, 1.1876956078640912, -0.47368968862075356, -0.7119421294004767, -1.4875445450990474, -1.32803398142529, 0.180571625275458, -1.2701901365386516, 0.5794493970002299, -0.10713845934236127, -0.15551877628930477, 0.3814184408659836, 0.7115252384753266, -0.9309959446160003, 0.5229973752912093, 1.1192805050211674, -0.06292123503632734, 0.5694328638387298, -0.6138504546690859, -0.03803492976896274, -1.750333473308543, 2.4418078388200786, -1.0420956572547526, -0.8114957240290042, 0.6707372198339886, -0.40781291869204955, 1.1797646288142831, -0.9865988724561151, 0.5897707323103929, 0.3910116739181272, 0.20776967783304526, 0.008236638156951796, 0.2569900101274766, 0.9028345841369442, 1.5433570907689056, 0.06910059526421167, -0.9093192725041507, 0.35400976532290646, 0.6334691822195337, 0.0980645652361664, 0.4563223257544475, -2.1078709872034582, -0.45150527704594007, -0.31940543896364215, -0.8751231560371417, -1.3688140687288166, 0.3407742715053839, 0.2741780660153554, -0.7740814154687871, 0.09133515298438054, 1.1513197214371165, -1.6171029373774086, -0.21736097801891605, -0.5993916697984563, -1.1964478431566599, -1.0305871779933093, 0.8621926059177867, 1.1294858888028605, -0.5512458789943463, -0.04624258095427563, -0.7998551995839617, 1.0443235737713348, 1.3120465216794281, -1.033081277791487, -0.1510586117518344, 0.7580691293182635, 0.3016851243896984, 1.4667047547170078, -1.1221813869062711, 1.8961667660041321, -0.05833629771601609, 0.289978863644792, 0.2677968685711067, 0.1557294326134646, 0.9210899344117304, 0.11316656175945912, -1.630259023500153, -1.2848061720271071, -0.20440235518958358, 0.23510782002699254, 1.800493529586183, 0.1457228806418008, 0.03318906801024198, 0.998910309907326, 2.004472517229025, -0.4742781821902019, 1.0891457737027535, -2.157688073536214, -0.3496725359588853, -0.011460369939188397, 0.8750279538032609, 0.16888448714391316, 0.06657031826115128, -1.257719943746394, -1.9354115279744828, 0.040526793705375104, -0.44860291203532016, 0.9430366134391037, 0.31558824309828554, -0.3011784168949335, -1.9949462111205953, 1.193183695745087, 1.7174271727102663, 0.06939239822758261, 1.5989292310005623, 1.3121781555677219, -0.33908014667201497, -0.26288621850276034, -1.451594962716895, 0.800865447468193, -0.7221299753911115, -0.49755846372134593, 1.0188847158230665, 0.8468114727282366, -0.576847672925964, -0.039624741967176406, 1.0577352476012047, 0.6904347184641131, -0.628361570935606, -0.16756710328225136, 0.015189642334456254, 0.7780566160893175, 0.9528170538458759, -0.17808101450837646, -0.7737428033699787, 1.2501244773549902, 0.48449878609390634, 1.1049505098484071, -1.135191090971617, -1.3229602528898416, -0.5650563601702139, 0.5479105900825628, 0.028435928880428733, 0.20043928603028166, 1.410576577605961, -0.1523627264535395, 0.2715152970563218, -1.935832671056803, -0.09526283561858946, 0.4347140538797381, -0.8439504601929583, 0.6835032763201825, -1.8090275159348523, 0.14268226990823105, -0.3379348456068397, -0.5152471461091522, -0.5014180162861214, -1.0277000830509933, -0.4257716266556233, 1.136726747769499, -0.3562620487410721, 0.2878785770445024, 0.10565633258529278, -1.221748316417072, -0.5883382020009433, -1.4520688919351517, 0.6671126828057806, -0.5667144663250504, 1.0491390386875372, 1.3168076960361552, -0.08660460587121777, 0.0865396762454071, -1.4970455949833685, -1.0374736157577433, -0.09433418522490715, -1.1388030327811616, -0.5664986969226851, -1.9052880781120567, -0.5440760340802641, -0.8051164009269719, -0.14863905513251782, -0.4378772865564719, -0.732199391765933, -1.1526107451969176, 1.166839167418071, -1.1507720842391505, 0.2785327617858607, 0.4365775555888646, 0.24073994538515942, -0.38136144219041257, -1.0652091755765745, 0.6696925189315474, -2.0914146482388563, 2.0271957985058977, -1.5724164786986539, -0.17474080812298537, -0.8367810016700239, 1.80524299668094, 0.4223708146497938, 0.5225818939568041, -0.8470780012857491, 0.14320074745162573, -0.25342773905420934, 2.045325085405694, -1.4563324356508243, -1.0242112974561397, 0.30510576241623255, 0.6056219682865299, -0.11804749109091153, 1.0613471020408778, -1.0633359118446133, 1.224476499702877, -0.41484990988701104, -1.366110040396598, 0.5107480634278626, -0.6562288348998132, 1.0497401883551927, -0.5869531231991371, 0.1922051723626886, -0.3145153652329394, -0.6224520090272281, -1.1920413496292506, -0.08378980747663464, 0.23441280809797402, -0.7069280178899455, -1.164953799357517, 1.1729898617896328, -0.42326665637761096, 1.6917111824296005, -0.5735400287245759, 0.1710754017584537, -0.001792722840344974, -1.1325584565870683, -0.4434236953074184, 0.37408509450651944, 0.2545545513578459, -0.5736874798886703, -0.9701714489005115, -1.5582760293570943, 0.9530588950797472, 0.32449030435196785, 0.7187418200120828, 0.1871630363992158, 0.018383737412563314, 0.5436591748326053, 0.6758841034567972, -0.21910053440136387, 1.7230940763632447, 0.30484651413593455, 0.48068734490726167, -0.3528831326863858, -2.617802008623415, -0.5663708999118602, 1.760319809168525, 0.7929394340609183, -0.07110667094722382, 0.06388146874720257, 1.7257858186015562, 0.14489621526205138, 0.009823300609806443, 0.939624465608783, -0.07993129958221445, -1.736335754746134, 0.9336010936968984, -1.1143648504032713, -1.2395574789223012, -0.07883230790576957, 0.08129596045380731, -0.7318722946769117, 1.2521107249606622, 0.7285701321233419, -1.0170131423018827, 0.4660702110631538, 0.49396719889408236, 0.8729154869573351, -0.7154112475298391, 0.5304751819993634, 0.5555253514835375, 1.2648311962920207, -1.2225755107920322, 0.7748401654881784, 1.2880079640769877, 0.1549057346901534, 0.4533354312550914, 0.10559129659940919, -0.018978245336920694, -0.8768101244352728, 0.22704679925072022, 0.6975075239348992, -1.0438897652383161, 1.6288166466207223, -0.2032662103403424, 0.5597845231919404, 0.6430505420491572, -0.41881174507375263, -0.6535826596400115, 0.3789734521286693, -0.03858388065009242, -0.8265340798873043, 0.34661134867858906, -1.4924008417970693, -0.8675662516313329, 1.431901420186304, 0.7117337454292413, 0.5647044064445309, -0.8806652626808112, -0.45121946993377093, 0.684657685868137, -1.6074940095456038, 2.7955943014009015, -0.38550223022091873, 0.13102528446065287, 1.0445794492056941, -1.6907011423407317, 1.008011070701245, -1.3251795497713712, -0.4665797196160332, -2.2384801493148436, -1.2540643934326972, -1.4021521935538, 1.1622772559146806, 0.6082557755688079, -0.7688332006771252, 1.1736141963123778, -0.25699285310349634, -0.10701281441130088, -0.5633861409568973, 0.7100349213146799, 0.9435216478329715, 0.04626604005636795, -0.05456279834305257, -1.9620811797238662, 1.0487851454876174, 1.602630176184009, -0.6269955327422051, 0.6478698873462089, 0.11349154099719744, -1.0587381741813275, 0.4862091615996462, 1.516542200772879, 0.0051648168421318365, 1.6475368571611892, 2.3557769714624763, -0.8524236199356473, -0.21072604540827217, 0.022852824296658924, 0.3280543145586085, 0.7794472446295976, 1.1289644229905393, -0.94809321828551, -1.7470863300124788, 1.3685640211477557, -0.7532938232184146, -0.18922766564958135, -0.24493948993493003, -0.9021081960165053, -0.3177042673741915, 0.7452334600378264, 1.2063594244200477, -0.9216030488486664, -1.2392238027639464, 1.0620375343043917, 0.15972734254765686, 0.21054072726531733, -0.31389846467182975, -1.6994088505616907, 0.811310544991575, -0.8833249629557348, -1.5724042403653968, -0.01755487823109012, 0.955324594693701, 0.5908606992880718, 1.1139397715549608, -0.3175991729954757, 3.9658155430220656, -1.8214642316026062, -0.5014438584220213, 0.3293561002324504, -0.6873362097168836, 0.40891434762516776, 0.5861978415892334, -0.8899783743858727, 0.41252943067708775, -2.1987553013383887], [1.092493420723955, -1.563979797489554, -1.6174672219192885, 0.2870141239032933, -1.2426582326500457, 0.9914850321505575, 0.6210479529388161, 0.41513708405345784, -0.5342315635261691, -0.9425837545241426, 0.2643383605082372, 0.32332836867322734, -1.6505610581561636, 2.0073317651899485, 0.20872454776757163, -0.8803263177797569, 0.16710818692725118, 0.47296834762684326, -0.9744654082794607, 2.099423661250897, 0.015181033092334179, -0.3118227495237851, 0.6141474053974482, -0.15733810893258213, -0.1554429191792613, -0.39194628239977014, 0.214089312756605, -0.36516696551582767, -0.223609644796893, -1.2597253415919685, -2.674470247563384, 0.7797225098565135, 0.6600250665544374, -0.7401326172934468, -0.6023602084108796, -1.949519374611868, -0.9578863450989756, 0.5239822590187221, 0.45879575123892136, 1.000791241361151, -0.6054095602895186, 0.3568607482048852, -1.3325912907848823, -0.8932481738938718, -0.8727906066121945, -1.179134325217758, -0.3007742605447902, -0.8524766602896547, -1.210567135905595, -0.5134735895285061, 1.5188439459052576, 0.3169142786129081, -0.9804009305544579, 2.5130558247287635, -2.0621066875274945, -1.0370832900065379, 0.3694748324515008, 1.1620821785493074, 1.4123197219153232, 1.0489084858266626, -0.7989083667899337, 0.2893466935917932, 0.6020567372507105, -2.0326139280199937, -1.265148783189273, -0.15423953716567335, -0.7742517567656617, -0.848272911014153, 1.5177653290127275, -0.4149841432394271, -0.40516486826041326, 1.4434052560711523, 0.3288438916010008, -0.20868423190657628, 0.575591538699588, -1.0280471576188357, -2.2492900442403228, -0.7617804798897864, 0.5135806705447662, 0.41901734274515245, 0.5273193853618253, -1.4739590787531478, 0.8418960143696516, -2.4039395657090794, -0.23778759420878667, 0.1612239217259063, 0.5199590458777253, 0.23001662583269109, 1.9596602537741197, -0.27727691788777176, -0.05166451315382918, -1.8467291530301275, -0.6502740575020288, 0.570121618199639, 1.6669121418228945, 0.5909961592940071, 1.034576686642483, -3.6146543373522038, -0.4345824908454874, 0.5222260835871702, -0.9867752467342119, -0.45483562725595683, -0.3824630262306623, -0.35735890953357546, 1.4007378070741379, 0.2748763612244961, 1.7648445409214923, -0.8294955941548909, 1.4848037983985902, 0.7293655493928559, -0.3245240825083934, -0.9449629388387581, -0.011303220666277564, -1.9322546131171172, -1.1086550947688874, -2.4391689768062514, 1.2409746040909055, 0.3871701946143229, 2.4706952816130863, 1.0928409176508682, 1.3471848981693193, 1.1427080346942264, -0.4866452226526463, -0.5091292630160015, -1.082458691181559, -0.8913779148578106, 0.5198839259688921, 0.31622262567467097, -0.32623367420898486, 0.08979879697750826, 0.9986526838636336, 2.2634855196588397, -0.06765654508072685, 0.5876722449640773, 0.9114745705707781, 0.6248253042360609, -1.296885253631621, 0.18285630074601214, -0.013785053510477041, 0.7656483013836003, -0.5107885404332064, -0.3735843795564191, -0.6578160622713004, -0.7728284708718755, 0.8056464338807537, 0.15415713479456744, -1.505390651016093, -0.8995111147211008, -0.8266809279293718, -0.1836871904522449, 0.9614772855998827, -1.283458244475145, 1.6269437112764034, 0.03725619966801075, 0.8603406533938236, 0.4092903028076954, -1.140780704685805, 0.40262377333956756, -1.3134572986752113, 0.23134169511053113, 0.43727335083261465, 0.16865839519770093, -3.189661744780242, 0.4065965214004773, 1.669943136001787, -0.21026307721266804, -0.7103167929611591, -0.48085233344854583, 0.6174556422863088, -0.7746600600798983, -0.4778541290948972, -1.243999392136838, 1.8297242319088207, 2.0021228832960154, -0.6101851692779582, 0.5397351656522037, -0.19230665616565762, 0.1257577071963734, -2.0532195365318513, -0.9880931571638611, 1.1802963633737058, -2.3489246459355524, -0.7117707107368196, -1.887629571631793, -0.8654831713597886, 0.35943170591297047, -0.09634599490042091, 0.4279044845411508, 0.593751493666925, -0.6340685940021906, 0.909918261520623, -0.20831415807482695, 1.3757441087564135, -1.0716434900093028, -1.3416056531696825, 0.493367506097094, -1.3597798158968053, -1.619501540539598, -0.632784997572601, -0.9846780808596736, 0.12880447289867866, 0.5392848422755417, 1.075269464122194, 0.038707588028447676, -0.13458475398993225, -2.1247397247476556, -0.4906522072769311, -0.3364884169836374, -1.272594764976127, 1.2963587331452215, 0.34756955497165565, -0.04984288527067468, -0.4634698664319489, -1.34598350205382, -1.447343862850738, 0.778186382034614, -0.9249640788944928, 0.49866724025608533, 0.4695664235234148, -0.35477574828813785, 0.3630999432166754, 0.015104004244258645, 0.3282771443128786, -0.5793708256005201, -0.1151081231112516, -0.13895917223402676, -0.7031780413561546, -1.6281266636756802, 1.0262124844833391, 0.5712202103465609, -0.5851035328867823, -1.316263419871498, -1.4228512939092137, -0.8074226445300121, -0.018349529642008283, -0.8081258318621836, 0.1335059870438325, -0.060335246512453033, -2.6336165635482622, 0.4096661148999131, -0.812955716297914, 1.236682198228752, 0.19011831809209648, 1.3608250123844794, 2.553494151992466, -0.09465198356198473, -0.6003985944172602, -0.3988095917869965, -0.02231210792110075, -1.064954564277803, -0.887611653252511, -0.030694697527552856, -0.3518576533785386, 0.9566390144219801, 0.24454519204997713, 1.6746759381181644, -0.13350410427523512, -0.09600421328315822, -0.8317900479679221, 0.8650790347788161, -0.9534330735712598, 0.004690165630899024, 0.5018195571448101, -1.032704640427476, -1.3614644933154185, -0.4336585585830695, 0.8836648896636031, 0.6391615047670023, -0.5468920776332882, -0.3619153343400052, 0.25636854890928606, -1.1002330572673067, -0.2358639546808007, 0.0034210222989689842, 1.386979018820851, 1.5191185040165298, -0.47187303753375187, -0.39453039157960995, 0.44909363846887473, 1.610132076169309, -1.5018096428841616, 0.4672358871824117, -1.3835319260113808, -1.3227544576639623, -0.09972898991270504, 0.7299079390909943, 0.15937030592957407, -0.48989607425423004, 1.2949243199360243, 1.6718605428270201, 0.05179239891525497, -1.454665592973615, 0.3628888089538177, -1.25662551846636, -1.163253580910322, -0.46739058879410167, 0.1144044049510349, 0.47200573133270385, 0.5906529942515477, 0.3912429911989689, 0.378861533648974, 2.407382784518351, 0.6139649525297386, 0.9638614990144474, 0.4014014964747775, 1.7761470580957697, -0.683423635975548, -0.2911906316917204, -1.122097105439191, 0.09566404490571781, -0.2631546130888923, -0.08556296387049586, -0.35079297518128766, -0.0653391775157603, -0.28295610174052466, -1.1635895298482661, -1.9551115689666374, 0.23167183134077216, 0.5322817792544747, -1.2274655028934298, -0.44844685712453664, -0.6275084442069584, -1.2015429399460544, 0.9984706320093395, 1.8303537966278687, -1.1703912177999927, -0.5394496269890582, 0.9738383676710224, -0.07269586663183404, -1.5191529334441125, 0.416241397500849, 0.7662807494339072, 0.19316402617411282, 0.017333202891162636, 0.6273737149622849, -0.4781164876281916, 0.12133361865399861, -1.174554911955732, -0.48294620652723397, -0.4972502113996178, 0.2585356792916157, 1.6670814745143223, 0.3584852106719921, 0.5933135230570273, 0.10429171925319722, -0.8034966502383639, -0.9287362540019544, -0.3461610186900508, 0.02067668423467886, -0.9429671949960862, -2.2451874761469077, -0.045609485728779126, -0.07863568615240704, -0.5318764207713454, -0.47184338422358874, -0.028265987607979465, 0.7034926706911702, 0.03920429214912366, -2.496734825998894, 1.2514505973232721, -0.3491315742815494, 0.6423740950162881, -0.3269730720454378, -0.4720828653578658, -0.20614139512186, 1.023678480336343, -2.5078002321171198, -0.1831435530864953, 1.0998542947536905, -0.5862319685368212, -1.4766394302101353, -1.3413104130300102, -0.37392966824683554, -0.5656136547016346, -1.6628152284816013, -0.039593140074415556, 0.10368369454907853, 0.9271091657697645, -0.9359174136572547, 0.1635312518372152, -1.4045371605717485, 1.1409795817149748, -1.610751664267853, 0.09183412827606821, -2.2841444477933415, 0.33687506579832793, -1.6650898710197393, -0.8586890416131723, 0.120192402494635, 0.46934996947001884, -2.3072392985474885, 0.8096691063403758, 1.2716607600547611, -0.49969844340316494, 0.953245739763016, -0.06025121093610772, 1.4785472309863332, 1.0289490154960779, -1.384837652064725, -0.8350266724452662, -0.7640756244241216, 0.737233885023368, -0.21195331514782134, -2.1578913148886087, -0.5384534573224007, 0.22045843252092281, 0.2357430529790692, -1.6304504138221763, -0.8421452907066204, 0.3780938109428106, -0.9919671376647057, -1.8294396225603644, -0.3584350945884437, -0.011424732771898566, 1.4816768556149216, -1.4650402081240683, 0.8187145835035275, -0.5368280336772506, 2.3768419337661095, 0.7159778859089753, 1.7687669616096058, -1.2166369640192338, 0.5339944051728699, -0.1515432262849995, -0.41829753674003406, -1.4148575980141178, -1.506073453444448, 0.14563769723075237, -0.9116333404471012, -1.1583424997095042, -1.2190942686560169, -1.82253428604471, -0.38812456199722023, 0.6060720439008067, 0.2803953796179185, -1.0482798515588851, -1.4145171241964014, -1.541419620200101, -0.6890473933459651, 0.9814847440111, -2.209270117776488, 0.6073344986306887, 0.09734863642386338, 0.9542434806340897, -0.3124959369479959, 0.08091241089938364, -0.945647901288491, 0.8554554618228171, -1.231949891919886, 1.5186939789355083, -1.7207154805677205, -1.400248182204578, -0.6277776715535898, 0.4688415249731548, 0.4532631330635629, 1.3951157906667786, -1.6780772836682802, -0.07678494187319307, 0.40273777948717504, 0.12628081457349602, 1.2680967664003773, 0.14070564038672115, -1.0257940637718608, -1.2511705913298747, -0.19181774330520832, 0.9771311485670656, -0.014248888082647126, 0.6933056080287968, -1.9622804341381224, 0.0028942246193726373, 0.9609315110404906, -0.8216746199321671, -1.5996600403314813, -0.001444672827647403, -1.1389588110394502, 0.18630896157613883, 0.19963300979698015, -0.2742837487061015, 0.14373677980265429, 0.35792659820633455, -1.2477933606697706, 1.6982787515892315, -0.9467684669886834, -0.9682232027450322, 0.7646025028160505, -0.6365808804943618, -0.9179301794984801, -0.6950359998063341, -0.14051511546620227, -1.0898716227632448, 0.6756505278922598, -2.5590971024426086, -1.0216345191900362, -1.4142665354297308, -1.3974227195850903, -1.3683205293038165, 0.7939168593582451, -1.3158530869087164, -0.7879868115657117, 0.7323871617591333, 0.29039139245559953, 2.779233973485786, -2.858914403389999, 0.7294293230408212, 0.7938079083625652, -0.2077731139378007, 0.5626397747684314, -0.6498866525957612, 0.887425447058936, 0.3638742318808252, 1.1135216222102988, 1.7351073328554536, -0.14110627574672938, 0.6777769061739307, 0.5091149568447504, 0.08499566437457612, -0.21356979902733714, -1.810198995428242, 0.8535452793820748, -0.1354104621074516, 0.4288706066431015, -1.1768526826131993, -0.2711777235393346, -0.19538907803637098, -0.5816588981013984, 0.6785856702969486, -0.21947359303931263, -1.7907143646414043, -0.5079426432198425, 0.5296198998161531, 0.7402617431938221, 0.3379741222243876, 0.17805971889921676, 0.4111627088719221, -1.881426601019138, -0.33923545786682274, 1.8610892495601703, 1.240701805165306, 0.31644358483181945, -0.9367935351997931, -0.602802861423308, 0.11255988673382908, 0.11587289514017893, -1.283729469288442, -1.218243800375181, 0.8634621679125475, -0.8193425864325028, 1.5047634445241043, 1.0268995634013922, -0.048189371184001795, -1.6436251580455759, 0.10381595997938711, 0.11302101565608519, -0.6264713526338863, 0.27430886697184853, -1.670102932730573, 0.0950628623041336, 0.6737022644507178, -1.3827859912585618, 0.8917342789394868, -1.1931596514310874, 0.07464427447839289, 0.6840307587272131, 1.7732021118094399, 1.2590122487933768, -0.037951231622004214, 1.7764273971429958, 0.8922743927478238, 0.12664502674727815, 0.26532511559459115, -3.3922933426437565, 0.8933455589247875, -0.2103199851887959, -1.1676095149182069, 1.2937460409321848, -0.12713625483610075, -0.09783024190665943, -1.3263642773225963, -0.45745591678096353, -1.4135126555459823, 0.4900253394647761, -0.0024408946832460143, -1.349773197730047, 0.7564856319501106, -0.3554214127206101, 0.24934268018088876, -0.5789926830382814, 0.1848004078039977, -0.05449891885862132, 0.7918113951219315, 1.3156846325743765, 1.6391327019942117, -0.5974580597437934, -0.7862150711373816, -0.6264508600892686, 0.24253573343079812, 0.4445651495889369, 0.6725968046574249, 0.06819149142333764, 0.007674178034996537, 1.1365758767301972, -0.7323747945133836, -1.7501204609240446, 0.46261794993204397, -1.724442971533658, -1.454248354034367, -0.7088106726828107, 0.5607739030983235, -0.5577395161681499, -0.6874837114202781, -0.7085839693955224, -1.9226627099239497, -0.8692238841543439, -0.011929797634071093, 1.1318614757607828, -1.233491712807718, 1.2709298665050877, -0.42403026735098026, -0.19689342964073098, 0.1602477687645644, -0.417829442168169, -0.043051009775579824, -0.6328994609132195, -0.6688944707430725, -0.21907252180366615, -0.06830117332255824, -2.0141500480026817, 0.12818524898765757, -0.683323979639286, -0.5930698284593992, 0.2617280132563399, -0.29814173033206814, 0.5080583608192121, -0.9922317348110802, 0.0568230740137618, -1.1263095803343746, -2.0850269019211995, 0.5842582805736738, -1.6582895191412794, -0.15586842828312714, 0.24149338075624546, -0.08563178295977275, 0.8189014501863147, 0.014553781648523306, -1.3075243638593728, 2.5842586999831636, -0.2248314094482765, -0.3923269850655913, -0.5651490120655512, -0.03178533439410389, -1.8768321680080964, -0.032003676896290634, 0.15902076454181327, 1.2994610632043626, -1.4676613449180214, -0.3513284924089229, -0.6983173435704317, 0.08544904816349544, 0.18344205095724422, -0.5496909117800818, -0.015673776005604628, -0.8792332973505063, -1.362980702525048, 0.09258483284461183, -1.4051211272280015, -0.5284573495978955, -0.9127988151307399, -0.12731437369018433, 0.3174608509153275, 1.1945713027354246, -2.3510944927593616, 0.62298434769601, -0.037268583864325605, -1.8779673774302303, -1.0993070385029204, 2.1747315011050516, -1.5823348226526501, 0.02854324199266428, -0.10132240945280871, 1.374980217265607, 0.5565284021030503, -1.0619819581980194, -0.008172196756411815, 0.5492520925379598, 1.1180671857193303, 1.3125887849068185, -0.2336447950792167, 0.048697487250569715, 0.11881116897674271, -0.21209615273692214, 0.14501241691296565, -1.347489270323618, 0.2649796744371772, -0.20630822891344397, 1.2842211231020844, -1.9319106168550568, 1.1589228357269188, -1.2599697572166042, -1.3801100976530265, 0.33559598309398986, 0.26601213585932026, 0.24710729327548295, -0.6103206373359784, 1.5137300547674235, -0.06006075548473309, -1.1393612243627569, 0.8293814453470612, 0.4454774973481953, -2.856693623899977, -2.458197565494589, -2.4561830277330374, 0.6970567120854085, -0.14535770898984532, -1.2664698531153111, -1.753084246707366, -1.024140689026911, 1.6260093510756353, 1.0302518482901555, -0.17480047938598037, -0.3809559057099542, -0.32014975010489466, -0.6427488531426243, -1.9166524434589216, -2.5147632141642053, -1.2375277290318327, -0.01047932432801385, 1.067949102618137, 1.400038640888843, 0.6561653319832143, -0.3442154494435411, 0.5172903572841241, 0.24202686714555552, 1.25047642122219, 1.5534910421580945, 0.49832043071922927, -1.0364799842929728, -0.28794005506982223, -0.5448889335743158, 0.47190712283637726, 0.12040466931234478, -0.06831180976954124, 0.13823654244239106, -0.2972588187658417, -0.9100864793611025, -0.4295733017131932, 0.21396885164609944, -1.5205879442229844, 1.311860934002575, 0.24836563722078023, -0.13959506597046864, -0.17526121944653633, -0.32909813117190445, -0.37126497745836906, -0.7068801933167175, 0.7791251632313494, 0.6265231189488256, 0.60022153898703, -1.012788517877027, -0.010343016180761055, -2.901321734945384, 0.6651235345194348, 0.052137668001203924, -0.3805241406553666, 1.2876526128765466, -2.5022525117189702, -0.21344102402391696, -1.076574010934165, 1.093001169040436, -0.62456005116357, 1.8455109791525857, 0.08178789126642139, 1.1608863598967096, -1.0999524030704848, -0.36962842129323925, 0.9337953792729257, 0.8702811841606256, -0.47014116882645574, -0.260957824787924, 0.4216892642872534, 0.7785413385573006, 0.912633910158286, -0.8334552512116894, 0.3052648018387733, 0.3725235681794067, -1.6250131991196408, -0.4773520488517572, -0.7867690366054729, -0.20936637910375236, -0.4616715558996033, 0.37760360705846896, -0.527515503187216, -1.1008394012739917, 0.5798234916729458, 0.42814485986417017, 0.06371539021254297, -1.3278896652193724, -1.4545845773128774, -0.5009522274998915, 0.29889309789380836, 0.2970319569768991, 0.3797628643701263, -0.4201881114955523, 0.5132918779320959, 0.6520202083813484, -1.2617970552809947, -0.9957869489571618, 1.6983243634252556, -0.6992151572353823, 0.12461064505454686, -0.6736782907219474, -1.4225139387403598, 0.19155563488224236, -0.5197128041163918, -0.8153387483126611, -1.3037416862869369, 0.46917128926957297, -1.3478997128011243, -1.4718604881441328, -0.1752929267900028, -1.3757833144212275, 0.27535117632565176, -0.13631395752066278, 1.6412443035087136, -1.889206505591267, -2.1199544443526115, -1.5530168107785156, -1.6514280569320259, 0.09735119265420458, -1.2530071294562504, -2.339781039360881, -2.065838500538482, 0.2634430112255315, -0.9026350697133095, -0.5663061634048118, -1.5140300359197618, -1.5684611445850405, -0.9207258539400826, 0.14416042969552992, -0.23059683488329175, -0.33905122832023943, 0.2688550132861155, 0.7211704282480744, -0.692105179917259, -0.7016320063190665, -1.6576125454068789, -0.7640000403996589, -0.8011990194430872, -0.6852648137381274, 0.25304282845668036, 0.6917177184443153, -0.6805957975964203, -0.59943026811433, -1.5237890321636594, -1.079891255179609, -1.7650472265003398, 0.5636407590229857, -0.8784184400456241, 0.01883766693548164, -1.2361323667749444, 1.3517068720172911, 0.9686839663055316, -0.6770694853528911, -1.4017086001983456, -0.18787000730545106, 0.9237878949686835, -0.12525154532499377, -0.1798644257936961, -0.5589351828731007, 2.2555525858596672, 1.258704468093019, 0.1352624158151695, 0.20602135474251196, -1.5804917369098994, -1.876762098792519, -0.26647583718965684, -0.571163660851904, 0.005863890051431536, 1.5784639906721152, -0.3286514247997023, -1.0339311945600718, -2.132859632661001, -2.0855131503183917, -0.503100534126443, 0.22578971855316435, 0.20081649678076, 4.1731369711929185, 1.008760976346752, 0.2805232322953053, 1.4240969527871925, -0.7421419081166405, 1.0066592922410336, -1.6593851733812544, -0.810712128274255, -0.8043356466789714, -1.4986889881797534, -0.14337106847359476, 1.5592645441110864, -0.48933221408043726, 0.32211989475809766, 0.2102537685112673, 0.7280055164286975, -1.0399388974715746, -1.570533154413063, -1.302098843700935, 0.5594748025640075, -1.0728335912466636, 0.9735590679276382, 1.9925267536821134, -0.6198383168967949, -0.41348190188946105, 1.278791955369623, 0.07757089730229164, 0.5176268223326022, 0.6844604264408043, -0.8985530029725751, 1.5617653793385458, -0.9206879947727556, -1.6507767616076738, 0.6963677525557718, 0.8561110800352517, -0.17648857168730314, 0.34733040909855817, -0.13962680217100604, -0.24281118473514596, -0.4283143832538089, 1.3988416080411648, 0.1403227875515077, -1.1377100230806159, 1.2768513480160035, -2.1610075407143783, 1.6718833054952489, -1.1107996181580555, -0.300668042216721, -1.9004425585542934, -0.6227089056235708, 0.2361769306817966, -1.138233632688232, 1.1960967342773, 0.3444031530326437, -0.5128664506485824, 0.4421131200870967, 1.4111210863752977, 0.44460171795042625, -1.7504949075155256, -0.3898287925457331, 1.0134741187795384, -0.9421079903328629, -0.6805752185192262, -0.5533620081059282, 1.3588119587712628, 0.7606471600092513, -0.8366604599311968, 1.5345658784783072, 0.5606373210611464, 0.07267385613890859, 0.7223521078716277, -0.997948459454406, -0.23063374106844736, 1.0357704919629107, 0.2772506886404894, -0.5379353046103903, -1.6135739729726077, -0.18976895968543445, 0.3578850896593588, -1.2876948935956691, -1.0115877961936328, 0.31481197258774984, 0.18354213964456526, -0.6211068156304091, 0.7823406193225166, -0.4071212827455949, 0.2507608464790985, 0.5250714691928027, 1.3195035907557013, 1.615831795517536, -0.7128587283729965, -0.7974840188476061, 0.1516602504578792, 0.19937079501037033, 2.7763569562391455, 1.9687947084904946, 0.9091635614640898, 1.7826161742276088, -1.6805777342155972, -1.8605471725034564, -0.12035358062909042, 2.4768562636804026, -0.3118729790127282, -0.1417746628889326, 1.5959908095255373, -0.8775846253065572, 0.18126897038493106, 1.7485236966431872, -0.4649640947504935, -0.38321706216077356, 0.26845890067762235, -0.7930760160952549, 0.4567806291012104, -1.6513053487691178, 0.39745600426569694, 0.19792888807953754, -0.5771808860082702, -0.6247347293375811, -1.4431991752869786, 1.074067080363995, -0.8506374646989513, -1.369000336200573, -1.9776387863424862, -1.866016931446588, 0.6312671959393352, 0.13149985722466598, -0.29521748265695413, -0.7386269300448958, 0.19872475393363956, -0.40364051234856324, 0.09341533549482847, -1.1891300177626791, -0.08239522353182192, 0.010912078957775934, 1.2458855984975108, -1.3435101810985492, -0.8031777590422144, -0.1060891372950026, 0.43350472257208467, -0.10980486425833236, 0.11017764421307571, 0.05784840427704613, -1.1822722866546846, -0.1397600857478794, 1.094384285064679, -1.9753982929886549, -0.09531000563488913, -1.2261051255344237, 0.4784104736569035, -0.022309442975946725, 0.38069954486990054, -0.3700294446635561, 0.13903474730408485, 0.4444766617916073, 2.380360478732617, -1.0543829643750027, 1.9247249451335802, 2.636792189101873, -0.22066719235769877, -0.061953397779510117, -1.4428522126974874, -0.2188089242250746, -1.7672076301827864, 0.014883615253094618, 0.6427660673082329, -1.4585431687697374, 1.4170070551392224, -0.7373734823749808, -0.7308490246035168, 2.8489358171538615, 1.7557017969360955, 0.7919813402899273, 1.2278460923872045, -0.3570093146269514, 1.8051718597071456, 0.9672676645463021, 0.7218285063355927, -1.1825942916553878, 0.06652369617768655, -0.4245294106154677, 0.231682639907204, 0.99728400484944, 0.7228702487168777, -0.4065667260133934, 0.20111569856787742, -2.026777167413372, 1.7093820662821437, -1.3427893431287445, -0.570793858770792, 1.215270220165114, -0.16831422761314788, -1.2534979787202807, -1.4791431422748411, 1.3144415521818518, -0.3962105759069986, -1.0482969405520932, 1.230720892086977, -0.217433275379939, -0.11091909547356399, 1.5783152012230348, -0.03122770684793366, 0.29437217787421366, -1.0033318825601842, -1.4203288341844293, -1.531999913819846, -0.5401585055905724, -0.26877257821556255, -1.3959708247420006, -1.5821734253480977, -0.1653159685307905, -0.5052724003247637, 0.37513237054416027, -0.20939996761407437, -0.7154932600347502, 0.39359907029119057, 0.5059823244066588, -0.30194373046468265, 1.155894512850872, 1.1530449151362108, 1.071359300002779, 0.3176736078629116, 0.6600584001370295, -1.721729986531012, 0.4877572425216745, -0.3631435672433284, 0.7474449972010123, 0.3540819270269704, -1.7654934128906932, 0.9894890227132993, 0.7224274136130372, -0.33331514933882245, 1.527567440208449, 0.15044998153886133, 0.6004225559513092, -1.3408430413150776, -0.39510597038092526, -1.0355276778035674, -0.9257979649095717, -0.4698537175920947, -1.891205317259023, 1.8496104807806575, -2.7472514549987253, -0.6880483164174084, -0.3665395032963379, -2.3066418052818385, -1.0128223478868472, 0.4204085778917038, -2.6158803507446575, 0.22343970626060775, -0.3297650991606401, 0.22413702934008992, 1.1366111766168963, -0.5618205873596971, -0.9273283128187861, 0.08090465975431305, 0.9524327114852357, -1.9691400393749217, 0.4713512081541571, -0.6067701528798799, -1.3003432187942658, -1.8142653790870413, -0.31017669711547835, -0.258484953848917, -1.289251781914995, 0.5092486873431519, -1.7620541727495196, -1.1823572334911783, -1.0258879257892326, 0.31593554170250915, 0.9291199922509282, 0.6612863721937476, -0.3919769410661518, 1.4626521103468555, -0.4046710970325933, -1.295526030147706, -0.9871906646439258, -0.3777583847004251, 0.11696642799486187, -2.5631984057802457, -0.1366717601485751, 1.4890910254716545, -2.1645982324020325, -0.4292410373076134, -0.020140897505684957, -0.6134515220505893, 1.370062879111978, 0.15559056623990714, -0.9038508563900003, -0.7993176220453356, -1.1021703645645033, -0.026122574662261616, -1.5130417833803778, 1.0974825680677152, -0.4913864550590419, 1.0771727027143698, -1.2163675435867372, -0.7942026421911618, 1.2698118396229432, 1.0004518040407084, -0.6100098039184623, -0.46588710053403626, 1.0351102494645552, -0.08108287132887394, 0.19459836866906835, -1.1073527617745695, 2.140039244603826, 0.6672090927228839, 0.7360429473783694, 1.2273112490597817, -0.6113782866954368, 0.2845832534762035, 1.0104913330514025, 0.04186665014176505, -1.2783501679835383, -0.17552277714294828], [0.5303534676945625, 0.8327803042363905, -0.7288002656929328, 0.2789540442146818, 1.1712656081369721, 0.5215004366088597, 1.0317703629163524, 1.287101846760212, 2.453577756619494, 1.0074209895275557, 0.16596396930970678, 0.1442524655287615, -0.48159142203134314, 1.4961354707181145, 2.2732289982670317, 0.3231469860929797, -0.5651034603083324, -2.069917396872007, 0.7292374422897397, -0.5330311548609487, 0.11236054089524143, -0.007953299813514426, 0.7615702050973587, -0.23604164592211227, 0.5191121730081057, -1.0102237058410322, 0.9754442303832577, -0.6973751374860908, 1.4104285014618076, 0.9037916034803838, 0.9645698151876579, 1.4311710774338702, 0.6483531810278627, -1.23660030199615, -0.7735401503118857, 0.2667505583106597, 0.26892834853842706, -0.3912306806944509, -1.5281674313645228, -0.7458817407060815, -0.09019752224324346, -0.42243774816304436, 