{"sizes": [1200, 30, 1], "num_layers": 3, "weights": [[[-1.8039439552350682, 0.3620610466073891, 0.9065465317804199, 0.5023717254467709, 0.29044007536621075, 1.815362504764493, 0.5932570262786695, 0.042061569962626055, 0.5639853801186081, -0.5168375758518522, -0.5201093747147011, 0.8253448680240706, 1.3654114124553922, -1.8417664414871158, -0.5343857853290754, 0.13041082752966449, -1.5666997583984725, -0.59962613039024, 0.22201777410049547, -0.4075999438657852, 0.5165790526418859, 1.3455464838037945, 3.077801386865916, 0.931622049496307, 1.0664048291372321, 1.1042128708016818, 0.0631110528347131, -1.0218903767328829, 1.1140891584385395, 0.3281141749423583, -0.05965327857401808, -1.2857542571498037, 1.032887482417913, 0.34107715718918374, -1.3317880017258537, 0.5512116036276024, -0.7389096422646416, -1.3817753272535966, 0.0896154449497966, 1.1884658455353492, 1.8095533151011907, 0.6193540477523484, -0.41843423786802253, 1.292833999329848, 0.9354568029893328, -0.23711596309578495, 0.4727880932861798, 0.6697743702258909, 1.0334382824552715, 2.6340493058883614, -0.6943867439805964, -0.12556060080675085, -1.117651179152635, 0.7927037346063435, 0.014006029769375074, 0.29821704052709214, 0.16952894227361442, 0.10628411130276545, 0.6500169027229488, -0.02260317674137789, -0.49286946271789056, -0.4263035984986184, -1.4658312207824329, -2.2884442516225163, 0.3233348419094679, -1.7420378945985342, 0.7106192149340351, -1.1527606601220333, -1.0027266435982096, -0.7356936698400689, 0.2584157671650614, -0.44753314512398046, -0.13893071258282197, 0.4628165739743368, -0.8331532720727259, -2.1559333539673613, 1.5277865860087265, -1.6491150636202119, 0.0642848176731361, -0.962545807536663, -1.9940166348953956, 1.3096202916620683, 0.6461332254128263, -0.32828679509524084, -0.8202854755703086, 0.11758653611665904, -0.9813188046792771, 1.256491792587553, -1.5775586218966189, -0.022774163726966584, 1.2379688027604205, 0.9056816362276746, 0.6575843826087984, -1.4197528322289987, 1.0439037460563263, 1.0718087060371189, 1.3645041432918281, -1.2023233431026452, 1.3119799566438934, -0.8669125453978013, -0.4130873601637494, 0.638989294143804, 0.1268568180542981, 1.246651688007873, -0.14571814891639473, -0.9804254251664565, 1.8446577576824192, 1.4011839273413336, -0.9519560657894501, -0.6061292356823405, -1.0644367276843025, 1.181904899007296, -0.19849064061041766, 1.4799197269269522, 2.6871298907901107, -1.0161235410549474, -1.6926378684006855, 1.5422186763493857, -0.2048719362438872, -1.410089864857787, 0.2867834228550173, 1.4664611149008044, 0.5542274292003245, 0.044411146841742015, -0.41738772281533043, 0.6903508533508554, 0.008105961650028463, -0.6044694542548172, 0.5323362858918381, -0.1491277655004911, -0.10422741829232303, 1.5764451578880032, 0.22274096761667708, -1.453542173582793, -0.2243227524533147, -0.2148797935512334, -0.27904989936835356, -1.778809294288623, -1.068783823350626, 0.5693695713415663, -1.416245930482894, -0.8024069431547975, 1.465641692712431, 1.663130431509677, -0.5119125494011335, -0.8103816896378738, -2.60949326435173, -0.04380101160781358, 0.027201633061211736, 0.81509722105191, 0.04254941117420328, 1.3266687934367207, 0.7612588289113343, -1.1108618630472413, -1.2012375971878615, -0.3684258542752425, -0.07653439811326312, 1.5269689929030452, -0.9384077192090198, 1.9446946341404743, -0.3388696872920852, 1.456517420048701, -0.15136999007216598, -0.803734618185827, -1.7602665064007783, -0.11807218475286524, -0.04853809201758779, -0.22897141971557425, 0.816158389271529, 0.8560593603360103, -0.18793607959154185, -0.437590923324269, -0.24965101016527447, 0.17780142442965383, -0.8349551588554678, 0.3909019706830362, -0.1214199108281166, 0.2816330028826712, -0.16019810021913805, 1.8721548800854189, -0.7337906116585022, -1.5790598090905528, 1.6932889061028096, -0.6349130020444282, -0.4342654990135728, -0.2554602613465935, 1.1553153362428847, 0.3729406083572415, -0.15545329203930996, -0.25227718888499123, 2.703658122035212, 0.49364665824859083, 1.2998349760529955, 0.6832555603925626, 0.631258824393296, 0.5362440946895278, 0.08020941243482964, -0.4148356110562809, -0.03646486521961783, -0.8410644151541771, 0.18161817383827, 1.912050515028437, -0.16543226519240503, -0.2516191146135867, 0.7311824654550895, 0.31497044866330814, 1.4183975738656143, -0.00037685667408846133, -0.656682230409596, 0.19270908128719338, 1.624891894722853, 0.5054045695440842, 2.0978913505470027, -0.5685419593085673, -1.5793236183594481, 1.4398702683639049, 1.6771561909427293, -0.00354553559668979, 0.4664564933146882, 1.3115848857845787, -0.40816747403565345, 0.6454930366267, -2.377440469597526, 0.4791228752599588, -0.47093790610591846, -1.458425310580891, 2.309099272090264, 0.5725002606230538, 0.44648067476855285, 0.30463718335201284, -1.4211698338537013, 0.46625716237806114, 0.5991828020622613, -0.5644026398215278, 0.19495243977937876, 1.9545651510788378, 1.4542479886321424, 0.7006431684991542, 0.7763786814686203, -2.146235087551669, -0.5635781184562583, 0.9033295702682876, -1.489980934860719, 0.567371649941325, -0.0731877062615255, 0.5738725515600761, 0.5302310431338366, 0.10564620994799129, -0.33431011876568095, 0.2967516494980308, 0.048423051265827015, -0.2033868341083351, -0.14772194537359556, -0.8529916358298926, -1.1824701567934304, 0.37588395397449165, -0.556089287161608, 0.15521503338733403, 0.311676363374089, 0.008814432440490075, 1.0932455189757848, -0.9971767742871044, -1.0681997854742566, 0.4301841980309175, -0.11096671848024807, -0.22971149028841897, -1.180850603719758, -0.43841327538008973, 0.046201734654646394, 0.31527028875370433, 0.42321094213649957, -0.07998670062804249, 0.558392104282467, -0.09404788121283189, -1.2512843347876648, -0.8387931938702844, 0.17416849006004667, -1.2439921205867779, 2.1257415065052645, 0.788424349281893, -0.49978835367358704, -0.9974266785126102, 0.8464953844718781, -0.6232768923380589, 1.9534435582528686, 0.3812607909932369, 0.6652643196468152, -0.08291567812413099, 0.2977253828910348, 0.27749038605839793, -0.42487150117616973, -0.6315996971628542, 0.09155591956813802, 0.42785204054489706, -0.458207676237544, -1.5559099713014952, 1.3227200096245717, 0.7714076658409181, 0.9015032585580327, 0.022293273483617284, -0.5419466677199148, -0.006749338251073824, -0.9129622650932226, -0.29451494015374846, -0.6180319108934276, 0.6752160813338112, -0.6673919628052938, -0.5857602510735331, 0.1489586905997029, -3.013548127583641, -0.21116908861630823, -1.069548616805375, 0.6195599208649422, 1.137881226419453, 0.09886991658331516, -0.8636004715231674, -0.6303928082943183, -0.8885059044678383, 0.34127623808675633, -1.1578903390155861, 0.7613355014280712, 1.1872710097357029, -0.6001102612394472, -0.8675791820780416, -0.6725380330178061, 0.7855837996917221, 0.17793350993611792, 1.3127221774088802, 0.36876215495179154, 1.343237278439423, 0.22895121184511105, -1.3092000970430415, 1.2088070896490022, -0.8961235941342588, 0.16330467631046894, 1.3254641673106662, 0.5827302569500277, -1.0756664726364513, 1.761516504661544, -0.5111696684377124, 1.88192737015385, -0.41896374183735047, -0.36076094663581015, 0.8110234395122538, -0.3630911560901402, -0.24621440869591774, -0.3688393513567456, 0.5536912630356873, -0.1879655719869942, 1.121445093083746, -1.6150172230785043, 1.136293183837952, 1.5708283164982546, 0.9082275827773469, -1.6332198977535077, 1.8178823478611985, -0.2711582803400269, 0.7396582330635235, 0.827454262772259, -0.6518259425835988, 0.17772653139892322, 0.38689348551811265, -0.27250283616832166, -0.4764237420115301, 1.137575254316139, -0.900665357557638, -0.3558698015650044, -0.19399897442116748, -1.518301196378209, 0.8435103012364754, -1.7726163927982208, 0.3261052767433116, -0.798542183684665, -0.18226320931137796, -0.16940039157290773, -0.1920537672252718, -0.7571346230231601, 0.1574918141175167, -0.28810690495399227, -0.10600987837009593, 1.1731011798219158, -0.15356200903502382, 2.7771719853264885, 0.33590079311346277, -1.1794807306058062, -0.003340198531028992, -0.3903873102592016, 0.2775245349887512, -1.8447533610621392, 2.229318810745918, 0.6268187752317762, 0.07470175162874941, 0.5007071572899829, -1.4638730011131982, -0.4951269252190929, -0.017594091296940197, -1.9341103376345399, 1.9701933766184014, 0.7363294650874385, -1.7830012353574614, 0.8450187465632267, 0.29901116271186984, 1.332422908622777, -0.1225261499425538, -0.5314284365969427, 0.5807555576718748, 0.22649925820557162, -0.8556857220672344, 0.7966580116635006, -0.6860356699522876, 0.8591418283490512, -0.8087011014481958, -0.28000100383756493, 0.928837433274555, -0.8642191852333416, -0.12182674705622294, 0.16064333671830827, -0.2974874605755337, -1.7115322468229661, -1.0498998307316796, 1.969706215460484, 0.0648701271976807, -1.4973681417280256, 1.1356026624223345, -0.6903388898485738, -0.1560876224667061, -0.3592464071681074, -0.263860296525427, -1.4277984110989985, -1.3879910917017089, -0.6061688898934476, -0.33085904188866133, -0.9487793736249497, -0.4786493663911072, 1.6656927681505493, -0.6806375931373836, -0.46822259007247513, 0.6872086141080301, -0.01687578490370047, 0.7204333414382712, -1.1484715807783115, 1.2728966406299327, -1.2717262075038263, 0.4536080738882031, -0.8627773951447139, 0.19555976251058838, 0.4828536014800184, 0.3052484755680708, -0.9789026025781802, -0.5617292663496485, -0.4883107891833256, 0.7385789131328125, -0.36198495335505404, 0.8301221305720945, -1.5069121913587922, -1.0632767348485528, 0.7232112628515049, 0.01083386575629804, -0.3724981690113512, 0.38714571301528694, 1.7134163227560675, -0.35415724689601863, -1.5434167236581406, -1.087972038363366, 0.9306953286018249, 0.24599037863289092, 0.6817662600864104, 0.7934009376908168, -0.25397712459087185, 0.6791226578816596, -0.5709950183812315, 0.46602997092238624, 2.1950061275084556, -1.2609916610462002, 1.5258699128332498, 1.1420469814434284, 1.0833942002739652, 1.1062131446295091, -0.8136769973988232, -0.4072871413694592, 1.605083516993601, 0.8424097571923209, 0.5935066075326663, -0.5201147210018049, 0.995851192605568, 0.8405921960013272, -1.2833069642102477, 0.41364567398774416, -0.20062354977901073, -1.1952467425528737, -0.5918401581853974, 0.9243339486248341, 0.41199163492220414, -0.640154333271537, 0.28070874706594123, 0.06795661426210167, 0.5616400175007024, 0.801767632998486, 1.987809270022381, 1.0864751828467, -0.7929185257022012, 0.6747744795231915, 0.5641773470765024, -0.5722604269833467, -0.7699325640049451, -0.4690263807549269, -0.746949951771581, 0.7850432282946123, -0.0018567179172433478, 1.2332673974318875, -0.41575169693616454, -0.42678386909831945, -0.5825499699079053, 0.3406321335872542, 0.9045744647376155, -0.940744073449448, -0.40522343922460174, 0.34442981301223524, 0.004072420334755731, 0.25755958165380455, -1.073948659990151, -0.17302717090229106, 1.039408123656355, 0.14155116978248666, 0.4017334615629576, 0.2658415886545758, -1.2256900646997229, -0.6255501678573162, -0.7185351980695633, -0.2223137769163428, -1.8865849451585919, 1.3105595328077717, -0.21316145946255488, -1.3718642704912218, 1.216442677216385, 0.041729654303712005, 1.0647506517364038, 0.586772754852816, -0.3422102873881206, -0.9669005927100676, -1.3948370936350976, 0.3669988608500304, -1.9643636407206793, 0.9105027027187438, 0.5567447194872522, 0.9168348427640484, -0.7647152094245869, 2.4617995535065704, -1.1098379045228721, -0.17835532564122408, 0.6229940609229542, 0.16826500810633582, 0.388264385345034, -0.12847767998877718, -0.8799454436078117, -0.018058161361005267, 1.1236160062174918, 1.6761502486051982, -1.906841625153897, -0.47899181937586227, 0.8843089951606684, -1.2077858676325262, -0.7458951953176701, 0.03382163963349927, -0.6641641366861014, -1.2779926909166406, 3.5129852056974804, -1.461567790335204, 0.2811457605812218, -0.6038261599205043, 0.954882007895769, -0.7150808334308042, 1.270717834576544, -1.740481973296002, -0.3918027729259011, 0.6059044590272613, 0.6955750994297412, 0.4604508334321062, -0.5818929600998426, 0.8650789539621383, -0.3830928507083509, 0.5527161365134401, -0.5960690615935857, 0.7623710003102807, 0.8946343210429507, -0.6519856598732965, -1.1064273326758076, 1.6736184424444016, 1.233279753762649, 0.495048020850913, -1.3384927944618696, 0.13512135059761968, 0.9547194089102541, -0.584092828776556, 0.04877231808868367, 0.8545870879446654, 0.6480870820266987, 1.065142725385863, -2.2151513838423535, 1.8396058857465556, 0.3707460908996442, 2.1340859110030594, -0.9591639217781751, 0.7801610561837187, -0.5973537603699313, 0.46101136034808166, -1.2503233887249574, -0.5755496785846342, 0.4246598465567261, 0.03811478014341457, -1.8966347162306822, -1.2940927212960198, 0.050590648033728244, 1.2828404572794259, -2.701407500968727, 0.5736161801605931, -1.155075740645638, 0.39999893413162463, 1.2601867052995321, 1.3340641047461093, 0.1461898270581881, -0.17440498005033733, -1.6660406820762779, -2.9282584384492507, 1.8133195059739784, 1.1609464293399738, 1.6121590185414056, 0.019827319472840436, -1.3833601058888223, -0.5386926895900255, -1.5723049590394995, -0.5287666800596444, -1.4737690369375294, 0.3461599419112724, -0.23207286802697918, 0.8802850706301337, 0.8259792732118794, -1.223393480181866, 1.2782565362277356, 0.8521810847389797, -0.16568840937760348, 0.7259356990517619, -1.1556396109298988, 0.9460060504835248, -0.6122958917733499, 0.7041105856742329, 1.7302560937634133, 1.6624919754636116, -0.8206176312807173, -0.2924297841477021, 1.0114161089317066, 1.378594189169111, 0.10362943126295401, 0.12013545814047932, -0.14643600373244006, -0.5395413949787627, 0.1738147871278353, 0.1759904864966672, -0.723719412530408, -0.9681526317395502, 0.6055431224196243, 0.9042893740516796, 0.6191409504636212, -0.02860041245849309, -0.4103513466840073, 0.3406933583757415, -1.0616602794698595, 1.616726943568211, 0.8990188873767471, 0.8914028359014879, -0.4306680669864315, -0.9575983058329962, 0.22511103661429835, 0.7338141355982815, -2.480613722694356, -0.38437207055190564, -0.169925115124743, -0.05768202429182571, -0.9944602783014063, 1.243572504641753, 1.1383326724487952, 0.16500842317517733, -2.377499619821158, -1.1462639472477392, 0.7045843993590516, 0.19730195926902183, 0.04562116816230936, 0.8904601376457858, -0.47500531951360464, -0.0779249652086474, 0.6291680389766238, 0.9631030425445997, -0.22748061139357612, -0.08074738240430568, 1.5232321900567123, 0.8610522310967913, 0.15622814548808409, -0.09276373769925673, -0.24120939263760569, 0.5754960708272764, 0.7074271965888567, -0.49757798952308097, 0.9012551987773834, -0.8926386957039887, 0.7894247440949248, 0.3766838174946417, 0.8815708887248184, -0.2649592539940866, -0.2432671175501004, -0.8109059585060816, -0.5257512074162857, 0.6285828015843786, -0.6696873505135271, -1.5234388694518628, 0.9030218261236911, -0.39624804895652305, -0.30961699142481425, 0.39879527673751497, -0.07417128254450661, -0.8822356040536428, 0.3015922698418645, 0.5424952561319095, -1.2951239191017532, 0.11257664657157608, -1.896505710984467, 0.511735192462479, 0.4544666152954007, 1.1423380101952134, 1.8246384766678307, 1.8116801021648208, -0.05814915065737905, -0.4097594077054288, -0.6768190700580746, -0.6305569789674668, 0.2923605487398176, 0.013577178423924863, -0.545328010336889, 0.9387198748500376, -0.474613991487022, 0.040101473943150355, 1.8683189376220632, 0.6892570104202722, 0.2356384208487263, -1.0507399569947553, 1.1580405333083623, 1.6458941227426398, 0.5706901680027927, 2.099084835136633, -1.482744659225374, -0.06676393210043442, -0.5239181303509641, -1.770392362281496, -1.4644808188482445, -0.9096996832177787, -0.5294686119252519, -1.4266774525702695, -1.3933719986033806, 0.431384986361617, -1.1607064760888421, -0.6707767411730522, 0.2070103108316746, 0.5612579978800115, -0.6420918508010737, 0.8962403352493199, -1.5722227784579412, -0.43406059862288604, 1.0116815040190255, 1.0527701766151805, 0.14816230432670155, 1.5177380833803662, 0.7243117878943027, 0.49466039555092794, -2.305877909452145, -0.8312902159735557, -1.4143706901219635, -2.038495725214322, 0.868323121495606, 0.17559896492610877, 0.5550741031575285, 0.34441465358455486, 0.5279595643649599, -1.076186745494994, -0.2782931827830383, 0.40917730539748887, -0.4409044306502397, 1.818216923899297, -1.2838900711155934, -0.6159379197529756, -0.054276882840603585, -0.8751378110075585, -0.34155684829284827, -0.9921323783696886, -1.438552599004263, 1.770430158100107, 1.2672005866719662, 0.1869472073297092, 0.10412884807758276, 0.2683686672882738, -0.4395157196304598, -0.9432586119782846, 1.2381990716904845, -0.691259374570201, 0.5856613981155174, -0.5367992604163482, 0.17046880240789566, -1.164094201551667, -0.07424344693232829, 1.1007207201674494, -0.013704164341400184, 1.2182099879459132, 0.48505309026634275, 0.23715877928540002, 0.20988414036426944, -1.23678672403376, 0.9040919511140747, -0.8707890317964899, 1.149420559402256, 1.435138267258424, -1.346192657904432, -1.078525761884489, 0.9961034935459183, 0.6056239892155426, -1.0463986605992235, 0.35382535845694, -1.3260133410825021, 0.06928873604543988, -0.7311104286634849, 0.663459211006251, 1.5089150318146227, -0.9462413711126996, -1.682128523861207, 1.1842009178690895, 0.3942305685009264, -0.9640202718715232, 0.573435028211436, 0.1533078080856085, 0.8661375975379848, 0.09659648024294526, 0.31283191986605074, 1.0662423346073364, -0.052355357186046586, -0.0358921211832423, -1.7789119988432682, -0.9129353391942909, 1.73560741079613, 2.2289889329949544, -1.3450712307752744, 0.5913973784183348, 0.9595679099755038, 1.8023833336870592, -0.15365168976855542, -0.6255292267956971, -1.2547566347515104, -0.19324652803653308, 0.27293822043125454, 1.4594343261771727, 1.2211458461936364, -1.7883993987490534, 0.6445241375376606, -0.3535864744114101, 0.311537936639368, -1.9426076115191715, -0.039210136912374904, 0.3452782414878434, 0.20837217582167616, 0.6803583574526834, -0.38626670056318, -0.37458094020080174, 0.70644936130465, 0.05985384403863092, 1.6474502213601734, 0.16116829814545605, 0.2801171037318969, 0.19960165080840503, 0.3098358799257656, -1.1265707787262764, -0.8838526432637221, -0.6104332348206405, -1.0586602790143635, -1.4045328418829592, -0.20072873749418246, 0.16988242704428194, 1.698992740260247, 0.29397805018444495, -1.4999466860009723, 1.235854901779807, -0.24152193646379883, 1.9101515768768313, 1.9644791307411702, -0.1332360122187945, 1.2319939321641735, 0.5993480665422372, 1.0826329558251355, -0.13777370080982076, 0.11826479538220472, 0.4420250454730086, -0.2096105287431495, 0.7377433156081022, -0.9855390874334761, -0.2451659633740734, -0.7348138078073935, 0.05835483737492594, -0.41010938103962014, 1.1276514210205408, -0.4358157953924537, 0.022957943619532874, 0.7189486369388646, 0.6423660903095825, -0.8739154170196806, -0.616679266132814, -0.3422314958583025, -0.3710176585833455, 1.4850784214123884, 0.8670245922557872, 0.5900815744223239, -0.7936966486806759, 1.4220573082512464, 0.5298064390357187, -0.951367893935837, 0.3720843134162775, -0.5751128249489978, 1.984708532296878, 0.9580062962764595, 0.7800778196144513, 0.7867017407893938, 0.7621859948997958, 1.2004177909564824, 0.02202806778149384, 1.267919728233241, 0.3863462249167193, 0.2367493089834963, -1.6852635892711534, 2.4718949694267884, -0.3638996256318222, 0.39781314671499746, -1.410967818235489, -0.7619854509156916, 0.1660043383227797, 0.06663035584999893, -0.3045531228894314, -0.7355299834113671, 0.20676525775427415, -0.04669119557329415, -1.9671102604948956, -0.8330521832386503, 1.504215692224684, -0.9487866729702923, -2.41979593924336, 0.9992828876455989, 0.18994439515931733, -0.15130278705852213, 0.020647313066304702, 1.0870419637905304, 0.44757599819332666, -0.5770545217142246, -2.0852472620010634, -1.5254924781628743, -0.717338734196457, -0.24355569417374237, -1.4875961305670995, -0.3767918446593351, -0.5671982349679013, 0.2135453376858204, 0.5470994129429574, -0.4631794072807884, -0.8705776966615871, -0.6027722749922687, -0.47826423210718805, 2.120627655318207, 0.008150491904157746, -0.13535441758632344, -0.2086734539671892, 1.8660666806403023, -1.1719906379977871, 0.7102036899829411, 1.1587564331386697, -1.1384801321040217, 0.5604783428028104, -0.5326705058039961, -1.2140256745405271, -0.6580474204315031, -0.03934309066636684, 1.4130332578960931, 0.7347575560890939, -0.12408102552603685, -0.41928752521596574, -0.0563489499566303, 2.8889685146728885, -0.2237543198947618, 0.8636262447430183, 0.6258915470951255, 0.22640791377652186, -0.0006214110148442928, 0.7366951462662531, 0.05548239717429161, -2.05691870074183, -0.804223286869156, 0.348902351758055, -1.8878749749120167, 1.0676165378526687, 0.077457874836565, -1.0062028293774758, -0.8242973167537644, -0.22288275116227008, 0.8373659825990667, 0.5840343516095994, 0.33820707136758343, 1.3205392044772746, 0.9118258059314245, -0.1744144900537541, 0.5002813348187968, 1.6359358864307654, -1.0995096293488464, 0.8803216273065785, -0.5131243459142919, -0.48004760499815896, -0.011893709809693672, 1.6415093318189204, 0.513374255272146, 0.8586017652778422, 0.16166801480616153, -0.7100799547419776, 0.5639200839729139, -0.6204001075232316, 0.17075053831889703, 0.053778508601169506, -1.1928246914347642, 0.4197790974442019, -0.6315372886392595, 1.8299045129704514, 0.05428547714992361, -0.580979855226514, -2.010853347550843, -0.5984793014812488, 0.02663482869034668, -1.4700274838719414, -1.5735269598874513, -0.8046073169100245, -0.4940194511499484, -0.7956174567551392, -1.055019019939143, 0.5659556415298854, 0.4849393780480789, 1.7843141803191178, -0.18821899775441667, -0.9658447737643219, -0.3161919745117506, 0.3455812770136964, -0.21997033806727165, -1.0577647272516446, -1.62221579085461, 0.4268249183339454, -0.821470558615001, -0.41201679373604777, -1.4438732248377684, 0.9436945370994442, -0.7764280087774492, -0.5777515983554874, -1.3339752739787119, 1.080034941293654, 0.679880153581846, -1.7246760074352403, -0.4004154434512198, 0.24129498734257346, -0.216527370845072, 0.8168253177121636, 1.3227388118551064, -0.2879183757620485, 2.227326246965887, 1.7683701754911618, 0.5680926239982823, 0.1444240245988679, 0.58475525429456, 0.7386687862628876, 0.3012752245742188, -0.8289691490725519, -0.03245560314545742, 0.43856348315610677, 1.8362661430881724, -0.914259334594507, -0.032144774172596945, 0.4929766157378145, -1.9928475738895937, 0.7570890038637036, -1.3558752877421199, -1.4806657742844918, -0.7307454853138606, -0.12996499952074925, -0.6370524216195365, 0.6051634755314155, 1.599032322858169, -0.3230497169197441, 0.45409787972798266, 1.5418059184039647, 1.4188746183046885, 0.6183535198263973, -0.8696899502343126, 0.5820630828196586, 1.6359670018642836, -1.1900451400124017, 0.05195597774498013, -0.5034041430787076, -0.9567069623368526, 1.8654152239525117, -1.378038380520387, -0.4661998153657945, -0.21727961066045368, -0.4583840993971374, 0.4088124784305041, 0.2072841614820895, 0.3456302896417793, -0.5310780854112406, 1.1355170905423504, -0.49245445552325146, -0.2516507416666023, 0.1696997902504091, -1.2126500059011107, -0.031443929325051335, 1.092928331332127, -0.298596436230096, -0.0537081045435301, -0.12743624418331453, 0.5037264323427236, 0.5925685305773264, -0.9949497745991638, -0.6360158988169489, -0.09502161669286084, -0.23300139114297358, -0.4538007418130242, 0.6937668469599325, -1.0165233608357582, -0.4882352513369703, 2.3298582387430913, -0.1589288379751587, 1.6786771368780617, -0.11814235187922312, 0.49847294414405824, 0.8109718709597817, 0.6439870810915376, -1.5683516671610542, -1.9486244907895582, -0.4199305212259458, -0.0495056148243131, 0.7111923877389732, -1.1798766274564616, -2.0855366204377632, -0.8895250728367419, -0.2752203707376382, -1.8971133157212183, -0.5015414486512918, 0.6509110613796731, -0.7816009301549316, 0.9689936498321654, -1.4307818717858463, 0.3351185095919438, 0.41719463262953027, 1.0367342928611014, 0.966306134222907, -0.6718270556374086, -3.128767541633387, 0.4290548160637658, 1.1487208952393422, -0.9872458509020027, -0.1767271530983105, 0.3222978891346822, -0.7636184182004169, -0.25099529711641577, -0.0092455211882564, -1.7918342728279122, 0.3963693225483062, -1.1781231684203397, 0.2679220230191128, -0.4121825106994395, 1.6296720659563917, -1.1175861365551283, -0.15320887251915127, 1.00449930114153, 1.7998222216963815, 0.5378883901703178, 0.12995162076371877, 0.5754850586055884, 1.3656849375111184, 0.8045101467690654, -0.36650315074217205, -1.5066182549943954, 0.4834572153920375, 0.12783287787732536, -0.6910998452604162, -1.2717024315331686, 1.0594797796240616, 0.04534896741897008, 0.1109606836827512, 0.4258304883526403, -1.352584379833984, 0.7855891013558766, -0.2818527697511496, 0.2134907818056879, -0.052847698545449476, 0.004246686886903289, -0.3426597912007965], [-0.2500602432399863, 0.7640812554753132, -1.2762025374187396, 0.18806272010328454, 1.2496799009604747, 0.40297037473420283, -0.4785401852491045, -0.09591908160267609, 0.5743930366370563, 0.8722175847248073, 1.0940559844441744, 1.8513198327436295, 2.0131685133312835, 0.21061813576658472, 0.0576484578597445, 1.2056008080518315, -0.2771580375897136, -1.0073245012937386, -2.1176310557825975, 0.46719544289796205, 0.6116476071079348, -2.1024791739230073, -0.1782887109850267, -0.10071391983610077, -0.054668567921417964, -0.6085042138395373, 0.05996629900214906, 0.9018139978236165, 1.4956140789709773, 1.3002862908891124, -1.6067476535805725, -0.5571148163538536, -0.11255585295387024, 0.7425955176325653, 0.9913940210131569, 1.3908613184382654, 0.14050502834971673, -2.5592274738167715, -0.046944729425262635, -0.5256221889313338, 0.8719269842924565, -1.1719156850953232, 0.5896289306000939, 0.48234769984364184, -0.822449614826265, 0.16351917319000756, -0.7003145999428709, 0.9652477263462437, 0.35389734593860456, 0.9093030237721011, -0.1539798957203096, 0.41057106259066894, 0.12781086542071077, -2.62218724473579, 0.34446407637218995, 0.10256351897490763, -1.1175852170704172, 1.008253960311618, -0.252186263745407, -2.24574126120444, -0.0014714161893680004, -0.26404045086870154, 0.36752324653308277, -0.7908441233098179, -1.7957339827831869, 2.4693000184236764, 1.1737729278364282, 0.8197573332874537, 0.6016649956267194, -0.48745245129850157, 0.983170598011808, -0.7517775918751042, 0.516880592088793, -0.24470353776935805, 1.033935670142115, -0.9269026742610487, 0.9125175236012415, 0.18345110772856077, 0.6806683176364705, 1.1271575971026562, -1.0272521118396778, -1.612826798022316, 1.7075535086433946, -0.2245073243378332, 1.6246807622155925, -1.0046429446338987, -0.9451518528028315, -0.30673378440676413, -0.06781089045396124, -0.9803831156681618, 0.45861320735004973, 1.3278917312680314, 0.3523752779727788, -0.10394041776827348, -1.1948849018464704, -0.5710149842684819, 1.8360349362704982, 0.1591548154534783, 1.6051323607820402, -0.29872379229349877, 0.47712786201426477, 0.7489278764768393, -0.8137372456231692, 0.4853028926053151, 0.3744941576157932, 0.43688458826164006, -1.9632193980482449, 1.5980879833543482, -0.2075204333717496, 1.219349494659122, -1.043303617113622, -0.5240017212573533, 0.22888034256365097, -0.346944397658383, -0.46413773353011595, -0.06295717710472518, 0.24280638123295326, 0.5531839760117071, -0.732362529927467, -1.5733175403060267, -0.32515068155687643, 0.61206595587578, 0.20934283029845518, -0.16160394807448292, -0.5976023687632875, 1.1878821187994577, -0.09775648408567324, 0.12989889091908075, 0.2521044704861926, -0.5854445814227133, 1.0296149233332208, 0.8798038440623839, -0.25793993362389434, -1.0933557484325958, -1.1787489374816953, -0.45009752312684165, 0.25109787887637414, -1.006107547286523, -0.42777135535397204, -1.2049180775744563, 1.3725586133416197, -0.4117798324765961, 0.956809862810995, -0.8404547122297022, -1.2110274559019036, -0.4099092008726449, -0.6919808233602336, -0.07338438274063237, 0.4746424851991751, 1.3831302710080895, -1.4394609334378703, -0.4305491659358411, 0.14764914508645546, -0.28415312288733874, -0.2101971452071088, 1.327775626623352, 0.9475209357161118, -2.5755026968316703, -2.1121461576599745, -1.486485459605526, -0.32734900384505805, 0.5494231017189213, 1.0439618852308497, -0.42816563749532643, -0.5658262512565579, -0.016260150897338496, 0.0834890202171146, -0.6178595887864303, -0.6422160746935119, -0.8761759882250089, 0.2502497184001055, -0.6538015756020841, -0.9622603036672692, 0.6046811211883932, -1.658856428703109, 0.7267726678274119, 0.23657778172320934, -0.15523827562837228, -1.2809872200365784, 1.326010653094165, -0.5467025710315909, 1.2390552796715244, 0.8167647482068952, 0.07161432372455954, -0.06282765913388103, 0.636053293578797, 1.0671132483172447, 1.5099754230139395, -0.09648219621685661, -0.7497555617797956, 0.07954311568216767, -0.5182254744343373, 0.24147624978809729, -1.3832823578955986, 1.3936598939365727, -1.2863289582154664, -0.4381732347373805, -0.6776866213269975, 0.40018110887280006, 1.9134441411462337, 0.11170521118057102, 0.6528358281572394, 1.2369720908408175, 0.2834262145932248, 0.3739031060106349, -0.23577891755778102, -1.225952587517935, -2.048658817467786, 0.6722334519336914, 0.4291801373941222, -0.19758071481374817, 0.37993410635774794, 0.05782580891713426, -0.904000338648938, 0.2850022498778362, -0.9829595822892623, 0.3511565213497673, -0.2782753149629467, 0.9195534145127611, -0.09684769394423963, 1.4661612463272824, 0.6533255834926662, 1.9377820967902637, -1.7642462846509213, 0.2308408415228262, 0.9839374692167898, 0.6766751644879463, -1.1570087684223458, -0.22325563693495717, 1.311340353055626, 0.9298592191809637, 1.4067835374156519, 1.9843187442044528, 0.12835439235897944, 0.469052697380042, 0.4107323466287825, -0.9654631990731872, 0.7527507648928562, -0.4729028731372024, -1.7298172821043418, 0.008097281446197735, 0.8540944161341744, 0.17759740968257684, -0.046021047936828464, -0.11432740136062286, -2.2980235585436306, 0.0779704568250441, 1.6955049907634894, -0.4349204579512152, 0.1719796589357161, -0.4031091690216273, -0.28857882287600334, 0.33164939498886026, -2.4829175037722195, 0.7248105039787291, 0.6896521404589726, 1.999476063329876, 0.8792786998925143, 0.24094073350321157, -0.15409424853520262, 0.25282026760505766, 1.1351598056927379, 0.9549280883648834, -0.535938098014832, -0.4736618573843048, 0.6549773943834152, 1.5420534377756383, 0.3511824030577943, 0.2812847467343378, -0.30495767289473497, -1.4322461252568701, 0.87756682835682, -1.4343165328373748, -1.0657088020660241, 0.3459514745222975, 0.8911898445921403, -0.39088155017803616, 0.4996876784796419, 0.04639485737902376, 0.8167876175987967, -1.412428062994697, 1.5358370858324042, 0.3188196333473948, -0.022250206082305046, -1.1368967760588262, 0.16786770880317564, 0.1916818315728366, -1.2740644525411087, 0.5361615617775595, 1.2554921765050278, -0.280330422447778, 1.730599994634831, 0.23133142017840055, 0.43774617180875125, -0.2108089148215813, 0.6336783883274497, 0.21853537099719247, -0.8266669078138981, 0.3287310297969132, -0.36785093512299505, 0.8625968951714167, -0.15498361556257187, 0.4200837021728535, 0.17292885678073996, 0.5443671332827017, -0.8670058412479485, 0.5303529253125764, 1.158788126567236, 1.0162886269010292, -1.3400004910453491, -0.7801251438849354, 0.5435128073011667, 0.9984427738099617, 1.5607653121114273, 0.1523557490885163, 1.6367024351122228, -1.1548533136089898, 0.3241073144356224, 0.3603687845717367, 0.24656591409965847, 0.4932759389286621, 1.2387092893490343, 1.5040478621121918, 0.5954433537984717, 0.7705205479804342, -0.3707351071719627, 0.11155681097953966, -2.3512425556361802, 0.02604931838574047, 0.5192668141964617, 0.055091759073523046, -0.7590847517765992, -0.5049557294818355, -1.1183901640995653, 0.9359025565303558, 0.3377685111281272, -1.717258836686108, 0.4560116957300446, -0.17190259914028375, 1.1328978391934719, -0.1797080805811477, -0.4006592341194661, -0.4970084054185233, 1.520242040190338, 0.22334223282823482, 2.000247167320362, 0.2260629251028905, 0.37793936440337583, -0.3059138551931021, 0.34707169219745876, -1.3810476762021224, -0.3294279566713974, 0.5899215779491509, -0.0387032916502714, 1.2810703916284516, -0.24677705397176936, 2.5951872710600927, -0.742262041537851, 0.11811135866883313, 0.6279233345998666, 0.25130262228483163, 0.965987457030138, 1.2001579288531796, 0.2595303705857153, 0.9296433589611496, -0.3945536381579067, -0.7464535897974781, -1.294159817587845, -0.49019532462081317, -1.427059714397799, 0.6739939879252432, 0.9886406450106185, -0.6924709072576377, -0.09933846551434036, 0.5301839100061392, 0.022672862917442912, -0.3030024807142306, -1.766352374316165, -1.2340573994394994, -0.8407844793586928, -0.42340138212217865, 0.7857947458022665, -2.071307057363253, 1.150527996516252, -0.07205870824208532, 0.8630113528883789, -1.4487769317086572, -0.31506265384883886, -0.4910166162787338, 0.4220094892445231, 0.6497610337774347, 1.1798394705240032, -0.9476571187064285, 0.37310990930326465, -1.2681977961422648, 0.42490170120235166, -0.6296039682058059, -1.356335726086275, 0.3119696885224661, -0.4372978400826045, -0.8520720590669236, -0.13955405335229992, -2.0671762657635107, 1.315918766153907, 0.3490206394637894, -0.8212296063050724, -0.027878925542823056, 0.9892082920672493, -1.529111512122778, -0.02398718290592599, 1.2596158406733289, 0.7159443090541325, -1.9233931161981752, -0.12205632101688564, 1.8883493003519005, 1.3791825457350906, 1.6069022203239884, 0.24087395379844367, 0.5450976602151247, 0.4078764019613031, 2.0236382358950658, 0.9220048627669274, 1.1390340272220496, 2.2418510933826905, 0.9358546329354763, -1.4318842337595639, 0.5541115516913198, -0.009314860388397505, 0.3900600198143922, 0.42623703800540624, -0.5170038424252862, -2.096834977809664, -0.603445193147574, -0.8684181589538938, -1.4987793320377214, -1.36550707412792, 1.1771747100407248, -0.7324485744750032, -0.64038872727931, 1.3116292162789274, 0.0659533852335564, 0.02320340452143479, -0.3594946241813201, 0.12865772293888725, 0.7109433317494015, 0.6430922758347846, -0.24593968696779184, -1.1754058058291657, -1.0113083590362897, 0.8424999194082672, -0.36124730104156894, -1.3194719263312378, -1.2272462016985115, 1.9047888660243488, -0.01789123473231124, 0.46140734776604514, -1.2292550953787575, 1.0708828669220074, 0.6271685299916414, 1.0561427010477717, -1.6569930679871328, -0.2697669825346954, 0.5787518841385682, 0.2376158656870115, 0.10901320187264278, 0.5990887839085889, 1.125541163852408, -0.43731546421084166, -0.6581380892024326, 0.4130608056371032, 1.3349682276338009, 0.749557367238261, 0.4354017920555761, -0.3195845217844006, 0.5863645857229467, 0.88960487200601, -0.24117129790073888, 0.008571721608614006, -1.2271881192975527, -0.6323848493216565, -1.9273291956331888, -0.16612196082171396, -0.5277078085851783, 0.29735878236806107, -1.8723438200076712, -0.3339070299412561, 0.4714361999731687, -0.23152250201784885, -0.40794993295765714, 0.060208214952249414, 2.012930135866183, 1.1857341199787546, -0.5623770271678648, 0.43568063233147847, 0.9092892531521458, 0.1591515941951378, -2.532068784446075, 0.1453340770231196, 0.9526685330440335, -0.26874402959194754, -1.1428697578178149, -1.1862475061360434, -2.0937334328893358, -0.2929373710269434, -0.5587542539042764, 0.004303688183100227, 0.37058551614746643, 0.571143450779644, -1.5682177672512752, -1.9174310923665225, 1.3091956897138881, -1.5262776143842745, 0.2029558633778978, -0.3140283655898356, 0.8850395407450197, -0.40853224447921305, -1.5297694081801314, 0.2982619846376123, 1.531340106828785, 1.3198703668595584, -0.19934630201733447, 2.142805584839863, -0.17428735921769478, -0.8862187234677775, -1.0983898031440733, 1.1438640917932488, -0.9168669188960773, 0.620774039523113, -0.7779052650668218, -0.2024069633542713, -0.03605264271622836, 0.5023624033127644, 0.7657735324164177, -1.5333044990673337, 0.6872936490664763, 0.6550020320089155, -1.2883671386532374, -1.562964561009483, 0.20333754130951523, -0.35354945613137473, 0.4329140379497978, 1.8775728729581485, -0.48981655476827285, -0.1454001666178278, 1.5093736100173594, 2.084060884722912, 1.099197966879684, -0.022393109724487208, -0.026978835124336614, -1.286179560396597, 0.6001099287339335, 0.5866285949016431, 0.8364128845096191, 0.7011612737838071, 0.2093469715861603, -0.2610918037024816, 0.47212220768544105, -0.4985471947397206, 1.1866202077905625, -0.006721346413628962, -1.2030841388053175, -1.6199509089935102, -1.2580987254611522, 2.024853199051656, 0.6432565703867633, 0.10263605139246286, -0.2767478344568796, -0.25099658024543187, 0.9623041378239722, -0.8425497592048052, 1.0944414503655029, -2.229978805337917, 1.2934291209036999, 0.06297270727702539, -0.8983430868327815, 1.4325563398529033, -0.3392565988990646, 0.22019246848666058, 1.3715797621828403, 0.8100028046670815, 0.1476924609599362, -0.7071750456379903, 1.6043334004336804, 0.9182286320291564, 1.4922506103798459, -0.29677443940950166, -2.5631647424775355, 0.7115251178775355, 2.544390430027045, 0.28140797951426205, -0.7710827918185329, 0.4505488834731719, 1.0740031368922123, -0.13283552311915758, 0.2879899568731768, 0.8475211698357387, -0.0639737972947955, 0.7667947576821881, -0.4949087313380106, 0.18619532756060736, 1.1195132324565826, -1.0512515943739542, -1.0385689814715018, -0.9580981875583661, -0.49066558325349646, -0.6063107097516216, -0.14629367016887146, -0.07658878306092999, 0.9887114565867374, 1.169386284192484, -0.18187333983687165, -0.2449040102003549, -1.4286387163759513, -0.2090543138765002, 1.4249904640210864, -0.24642165068272576, 1.0064543240505124, 1.20106657773276, 0.7483060333105532, 0.3050372327830719, 0.3993240957937029, -0.9202857417213302, -0.22335346122269, 1.1603554550426443, 1.784090213189882, -0.6543056623672022, -0.11113498565616611, -1.0759990813521048, -0.20091028993983648, -0.9221107470636143, 1.7948596825420005, 1.2590416473052137, 0.7939125160067221, 0.7472126299252436, -0.9456040133131672, 0.7203988611853502, -1.063143318421019, -0.8533158864725496, -0.3798779754467335, -2.0757287971477716, -0.8038257007838714, -0.5700207404358952, -1.8524967724441446, 0.6005447936990232, -3.024370556491433, 0.31083929232884566, 1.3475257446680302, -1.434018059255941, -0.13289326941044052, -1.8275944444485248, 2.217403157000292, 0.5581204125946692, 2.162754550031482, 0.33001780596301683, 0.9779866344539889, 0.19035829962534617, -0.014404951681163895, 2.08814172941701, 0.20440298060041512, 0.6894420428362784, 1.0197241861408166, 0.557197836966671, -0.45671572489065815, 1.3915269491409217, 0.4968657362724897, -0.9661552396408278, 0.717595510489987, -0.11334913220993413, -0.14896771074249254, -0.9799451572887234, -0.5543544621974885, 0.09465669488044647, -0.2037689099197584, -0.758404477107215, -0.6546637002537578, 0.8478147969955838, -0.7576949198263109, -0.2108349811315053, -0.6750593484407209, 0.42177353331960155, 0.5638055394426662, 0.3186722308159176, 1.4083331383505062, -1.3679867024951158, -0.37850290446516693, -2.248082934867348, 0.16637311050975373, 0.3823314480016756, -0.20799392258791435, -0.17810236176644995, -0.7693579276291221, -1.032567839985761, 0.6327302170373272, -1.2216935221961986, 0.5649278399335453, -1.600928561625719, -1.4171387578953056, 0.5761298690647333, 0.21724394223835478, -0.41120785963380063, -0.13257228500691265, 0.7986490164836448, -0.3341306913743881, 0.19211431545413818, -0.47046576676033136, 0.821524016772201, -1.0011450183459405, -0.833364686114915, -1.7314741822205193, 0.9484536803733303, -0.7225059676944948, -0.2873931201710487, 0.14817205129045688, -0.048365995376951076, -0.3657108927950713, -1.5280762469356852, 1.5853854775073661, 1.1002296207079556, -0.23826677482138628, 1.3915106305936173, 0.2792646435145936, -0.7763624099450847, 0.618731324140481, 0.469888414854401, 1.363831291200982, 0.02823541546098279, 1.6767619381563592, 0.23214900078009917, 1.3596269519927195, 0.7131556498499377, -0.5455192457223581, 0.586982023643194, 1.4526487373574897, 1.1506283698271242, -0.8031551550433063, 0.5897676202616323, 0.9297986771976772, 0.8398592844842698, -3.4855713406421116, 1.2435938122280459, 0.3765831568184047, 0.05208162015182782, 0.08328758622497254, 0.47374054762058065, -0.4456570473039859, 0.6939779578911363, 0.5218360115343639, 1.2539419127398115, 0.38129765603711946, -0.42464686850293626, -0.5528318241682646, 1.0029330782915233, -1.4649008914182986, 0.7539102188850147, -0.48394422441064794, 2.1495109021346295, 0.10682862300676997, -0.18374791755051836, -0.8330012149925058, 0.13469944714706328, 0.37590295126423634, -0.32178888236441583, 0.734272249301284, 1.265082053653428, -0.2952024872909819, 1.6504563058198998, 0.12128625759610029, -0.018302964152620796, -1.338102521666033, 1.311466170673135, -1.112548577001782, 0.319864855068424, -0.827158887092053, 1.5023551989105468, 0.5305313114310782, 0.8953374294918546, 0.7884972238472636, -1.1046633615634656, -1.3667877513961226, 0.4470014357636552, -0.36404601729235697, -0.19504476040512037, 2.0452443781457337, 0.2477160493646512, 0.21780346196554534, -2.325168882521522, -2.080397160528636, 1.48201627505887, -2.3490682294738034, 1.217252313171672, 0.09248739944369934, -0.7456119075661828, 0.974359649345638, -0.40178197154078865, -0.04949561636001692, 0.43664883646208047, -1.6043510194374755, -1.4799599156205834, -0.8608165199583087, -0.09519773301750888, 0.7959425019921972, -0.17107645613853975, 0.06697278728143899, -0.2197765044832387, -1.7722456298183404, 1.314565275810456, 0.27077265933625244, -0.789086412215927, -0.6570530823303545, -0.8950108520211153, -0.11629124708300528, 1.4244757766948957, -0.9220177491546149, -2.2506566407090585, 0.3884836265563886, 0.7368456013586068, 0.4946596223564253, -0.4003378977142255, 0.6574148296482989, -0.08747257991006521, -0.6368880692679448, 3.4261794623933115, 0.9475003501876887, 0.264117637228535, 0.9484571682990918, 0.8085893034294246, 1.2355078899654879, 0.13474494344419213, -0.37238449272139623, -0.23371239570366276, 1.3977129435298048, -0.39880441599364946, 0.4092460071705008, -0.25259369122796355, -0.18583924008380887, 0.25663934789936327, 0.007398463625972597, 0.039016709389419306, -0.9574400910799676, -1.7526006947622588, -0.22201800639369537, 0.284561793556222, -2.856768264107728, -1.6193350593665834, -1.1819214429017733, -3.3949056491771, -0.5163596682334085, -0.05774587043674588, -0.5992458179077195, -0.3995620703939435, -1.4220884341188333, 1.4777064923533871, -0.18947371159352347, 0.30038553074235286, -0.3806286123283956, 0.014530930286520227, 0.09407591891167577, -1.0118575612190535, -0.11471491230370938, -0.0618622368612162, -1.5007841893641347, -0.19034867356672538, -1.346600183003455, -0.9944676693723427, 2.263405813197841, -0.06511986784523212, 0.4939533296391824, 0.32797074978612323, 1.3787552063575765, 0.8151955911906401, -0.2113770367110071, 0.43530275926902706, 0.6478777827975515, 0.3353352418793188, -0.7070348546485398, -0.2002558836814354, -1.4204742604609852, 0.28660388789586927, 0.4546217878962651, 1.109703855875565, -0.16352322708233175, -1.308385664681748, -0.45134953652408344, -1.4936744214357078, 0.013008900004064945, 2.103927216745345, -1.1074365159900361, 1.0387848775950854, -0.17719392237250148, 1.0813562078630656, -0.48594335811314315, 0.2171393077850681, 0.25340077766671026, -0.8397627860116379, -0.649864631675978, 0.6405915802635843, -0.16536840640121325, -0.9817268675577042, -0.5255314240298824, 0.04042616278033604, -0.3555725850520766, 1.4108267344756988, -1.0047682475764828, -1.0059079517309408, -0.6579312168937773, -1.2776762764306029, 2.1571899633658553, 0.1966183321174513, 0.9680979832371968, 0.5009639244327105, 2.690114573658432, 1.1406260082580526, -0.04636653345868796, -0.7229660329277533, 0.9925129850374839, -1.7674167965922263, -0.7149677366352246, 0.18534902539845402, -1.7852204985654787, -0.22995274963586845, 0.640101653026425, 1.2971267850080712, 0.345957758473384, 0.1066716140294871, 0.6186135752940431, 1.765766476090189, 0.03404189898214436, -0.38753632171445385, -0.2784116411374685, 0.41184208190854976, -0.14478661920415736, 0.19335639791008102, 0.8148282645613343, 0.5573568961521304, 0.44726042591807263, 1.040076533777924, 0.023398530478899185, 0.052424022275984146, 0.3690756790125176, 0.10729415119514422, 0.48661789055584426, -0.6084096264421047, -0.7698094014125552, 1.2250226183361697, -0.6069469318151302, -0.6432659827920753, 0.9415891124494684, 2.12670682805835, 1.551167483804997, 0.8445859719982427, -0.15816793071398663, -0.9164396542989921, -0.2324110908394976, 0.10401266574942794, 0.3328076313932506, -0.19448533381339325, 0.43879373849770953, -1.4576137327756307, -0.9284276178987209, -0.6874819996648032, 0.3510281888712432, 0.30430689230505664, -0.09169200839595748, -1.1836712087662085, -0.44936673719208214, 0.4100045425065916, 0.5070591700424693, -0.2857885460608644, -0.6380005599638741, -2.0277877620719713, 0.4615052444833402, 0.35600488151677817, -0.5607159042149378, 2.062705627064408, 1.2220527024111008, -2.874501212111349, 2.0793659055506226, -1.1457585096449112, 1.945801778521749, -1.3727838984532368, 0.031635736610841715, 0.8666261779491663, 0.6261350534025629, 0.9752587962326895, -0.7787309210909817, -1.2285514817113272, -1.4642644224243502, -0.3046900029390695, -1.2409173236284796, -0.42109878977765036, -0.24780978709113213, 0.7901317650496364, 1.1666914211919734, -1.0177034434845698, -0.689671250505416, -0.5912546865894341, -0.08678358580158443, 1.0271876509685447, -0.38345376998562264, -0.9313024757560456, -0.24442118903916044, -0.8919649118805201, -1.8429412898203763, -0.24611114476129806, -0.8565502089712277, 1.2344133852004455, 2.085169168196159, 0.5871470040753625, 1.41435258374444, -1.519349112840979, 1.571847673662444, -0.3820550790722857, 0.7561960223275512, -0.22335690596114963, -0.22097059994993043, -0.4860244648625085, -0.012636547590862251, -0.4884103531635024, 1.4926731399829354, -0.06305983736098145, -0.025112852631707597, 0.6758284266934882, 2.385172107333465, 2.725698446528769, -0.23696002927177565, 1.696650468468289, -0.5795672220508264, 0.4603708378688024, -0.5313042446621378, -1.1443027563241581, 1.477391458507953, 0.30263972252250015, 0.7225929429362123, -1.4706225484409317, 0.20212476157328352, -0.09654543162357368, 1.6805286924068583, -1.549359014549327, 0.43726745142622025, -1.3602546591636195, -1.3561481124413566, -0.11269986351663452, 0.3830503016338763, 0.08596337179229313, -1.327424078370353, 1.3532644532497082, -0.6264017753282342, -0.3024229519474716, 0.15822715065650594, 0.6450474779135906, -1.7730627664772833, -0.34665391715796035, -0.5375338775958478, -0.5434080650188423, -0.18437312176262804, -1.7268922433395237, -0.5627693232468622, 1.6868597350905188, 1.3062279463206177, -0.6508458649461228, -0.3404690229587749, -1.5251760736774342, 0.16012992128188616, 0.4932247331032449, -0.09764222739164578, -0.7067131563917648, -0.027641485380098158, 0.4175659776688136, -0.612008415930356, 0.017237254451204862, -1.9595430507679648, -0.16540775626779297, 1.1557467743435794, -0.05421299574482039, 0.6043363549023598, 0.4042898936199103, 0.8486283349556931, 0.3456079845829637, 0.27147462416146523, -0.8021577166856825, -0.2896668760324742, 0.8101367948042066, 0.4280264421714101, -1.1764672299053611, 0.03331078153754544, 1.0107008954382486, 1.0122615804700397, 1.1694603392580531, 0.7126772613041993, 2.892721055010143, 0.11206177688113467, -1.3361795887414163, 1.4956575500920286, -0.8000148978020153, -0.47016636376336646, 1.3031041573771198, -1.9273323607871222, 0.18582533637582296, -0.3811591885037989, -0.8314368988126677, -0.5015993852816643, -0.20275625909333703, -1.587267844585193, 1.295232263778427, -0.7503725650269155, 0.08800181922406457, 0.6733631194434266, -1.1839131174309836, 0.0791547783513057, 0.32758411596226095, -1.3287977548709107, 1.5771436980989622, -0.9943361696244221, 0.04435895665422005, 0.9903714999448554, -0.5324774504284484, 1.9072737045874981, 1.0544968996281194, -0.9773393284906523, 0.7821222422234984, -1.1829584742878305, 0.5477267778857408, 0.8297857978536199, -0.45716511867696275, 0.7606490068755525, 1.0011272268951963, -0.08489497713218604, 0.1772440426553266, 0.3830107006842155, 1.1212498160328666, 0.94129687273698, -1.9724494016452636, -1.0060415093279156, 2.707365797656081, 0.2688118724929586, 1.248598749514435, -0.9002607978775197, 1.9715426895669652, 2.523367630277473, -0.3329912619397353, 1.3220386474461276, 2.262308698794001, 1.7746530903414204, 0.4305047939374101, 1.0233202628712246, -1.392948011360224, 0.7674759268595822, 2.064591256103366, 0.6317485149490297, -0.6053082319580555, 0.3128529644264608, 0.10810399516966655, -1.4129475229975876, -0.6041643573836696, -0.7652669389938416, -0.47598966233586887, 0.31667269019182737, -0.12872423328631474, 0.19555129206042857, -1.26606279831383, -0.011283032902052743, -1.5259729847803136, 0.6754459226236014, 0.9744441170380926, -0.9198354455069475, -1.593484711724047, 0.23886991268786686, 0.15580364235684752, 0.0801949058761879, -0.055553489408816464, -0.7088412092433198, 0.2265572930375862, -0.9644065223966987, 0.7587752340562496, 1.3862519563399358, -2.2306989227285374, -0.7092482018170605, -0.938799377038183, -1.8098352523267316, -0.923351614628163, -0.5977400414387681, 1.3161695039280379, -0.7308514032208423, -1.1446127963501875, 1.9045225615999672, 1.1291305447554236, 0.020195011078655664, 0.13674058215816293, -1.9242108306383225, 1.2706754025540368, -1.2170051313519554, -0.41994949061816556, -0.6490877223886392, -0.6227216415037721, 0.9403401718473661, 1.3139210098722922, -0.06996582016978799, 1.4243774069320543, 0.9310120244382151, 0.49809722441377263], [0.9574482780139132, 1.6334322875442986, 0.5559540617431076, 0.42830117359741965, 0.6631113159757532, 2.973539899705289, 0.3240366617621308, -0.26659993719255204, 0.04818165438860419, 0.1662233656666992, -1.101285173167808, -0.022772312056114758, -0.41635035897788664, 0.871047851645501, -0.29225229923657314, 0.5843696797658962, 1.5197444444957522, 0.6661743620911321, -0.3015862587721289, 0.6721409255180294, 0.15692231743529578, -0.8979037314451264, 0.41231316040407645, 1.1611847682118261, 0.7866332440191715, 1.2302919627011317, -0.4195291605355696, -0.33847675345895106, 0.27537680427354577, 0.07754453967679818, -1.1669746088643536, -0.16763915060487006, -0.5283263930203231, 1.6137406704539792, 0.7672464822721063, -0.05824880082113794, 1.164661038992425, 1.2746415366928026, -0.43892855577859446, 1.434519214116704, 0.41151744723371464, -0.9246745208051484, 0.6626390018205288, 1.033651939436431, 1.016807596712131, -1.3034336488851932, -1.0228763522555175, 0.28688911001609124, -0.044749566018551255, 0.5793600752314774, -0.7016553047464438, -1.21237937601112, 0.8329880165156573, -0.10458005156233031, 0.8721237985590395, 1.1102745870988462, 0.09094126651362545, -0.3625123174737597, -1.0303907814904396, 0.6132909578504167, -1.1559089050994205, 0.11477757129581914, -0.5694079223371096, 0.16120108515068254, -0.7276553321672107, -0.5094061346874387, 0.2237825465053662, 2.201657658945626, -0.05636660881722498, 0.2497859997796094, 0.19433255867706478, 2.1310303365470156, 1.4034940695454108, -1.6839928441127405, 1.1350312130606792, 0.08525070312695107, 1.297511151095388, 1.2573179219029342, 0.9793001312073523, -0.8837473353491084, -0.0968072530770764, -0.7922852982222844, 0.2842162382181163, -1.7512245211013762, -0.975907915155438, -0.9720488491726961, -0.06651513700258442, 1.1406779508597653, 0.0684253123567948, 1.5807596978187262, -0.029359989668880176, 0.5534264776159873, 1.8345056640854032, 1.8246264838781692, 0.7465473571045766, 0.05839757001006166, -0.42148225474215834, -0.6278233299112149, 0.9667148304523487, 1.0724716336185556, 2.0004017136830177, 0.648932030734491, 0.4452606446174131, -1.2884822307120987, -0.38738889046223673, -1.017595321228969, 1.0264522120766388, 0.5266379369360815, -0.38209266896171035, 2.47376564066212, -0.8210443342931381, -0.5180595619788985, 0.6431019865558516, 1.4756836307247743, -1.0575338177830034, -1.7740953228058167, -1.1537968646670593, 0.627369406197144, 1.2430586736451692, 1.4482793457930478, -1.6874173420981222, -0.795117527988403, 2.0544938463459053, 0.760192339995538, 0.33705216571803515, -0.2886359616517703, -1.2347099760770075, -0.8122779222907561, -1.0148099878323866, -0.6100819775600395, 0.01870436679710894, -0.021027324872652613, 0.8502348992284025, 1.4765686635689572, 0.9298382688834588, 0.2162979847145304, 1.0407533264494118, 1.7564228178315744, 1.165233667792716, -0.16602631154121078, 1.1403092124991185, 0.6553777925540831, -1.4161086080878371, 1.1957108651123087, 1.8079848915262124, 0.13955349083269303, 1.5975524425690795, 0.6177728219062134, 0.016673418305702705, -0.8717275580252356, -0.0826926209927514, -0.5355273202371436, 0.95821263730889, 0.09647328951695783, -0.4796635460584215, -0.18279015090637, 0.6974377700732357, -0.7703925725436499, 0.04729557030962569, 1.1081138675522375, 0.1354660090152599, -1.6873819766215685, 0.0013783709227503718, -0.22522373479944552, 1.8588699859758648, -1.7471615181698683, 0.23663404487991166, 0.39475609024776254, 1.7048251190360217, 0.2196768832873925, -0.6740229084603147, -1.8397606762931655, -0.28651877685050003, 2.3160717518093406, 0.3824575129614722, -0.579565523008616, 0.5441201146619684, 0.5805244499996148, -0.8501194354381381, 0.18738812935433516, 0.5669948480682447, -0.48161010709364616, 2.005928143613551, -1.780328124887421, 0.28830840695612775, 0.30175775618577394, 0.6352379934937138, 0.01954996696426283, 1.0573294288908945, -0.8561062961000976, 0.11850958239542181, -0.02313530263723168, -1.827205449510223, -0.8480579412407346, -0.5440181725082586, -0.1475962374890765, 0.3483752908607369, 0.2222252838996424, 0.9890281167172806, -0.7329270759055102, -1.112341552001588, 0.059711513642481576, -0.4284875356261003, -0.7813152567879849, 1.1294941209718594, -0.6249542926349876, 0.1906342116419539, -0.8943467649038642, -1.031254271458492, -0.3229648071727614, 1.9001433321508443, -0.22126623771915035, 1.4457625501455615, 0.8955836271117766, -2.0982367910299273, -0.4274278031379444, -0.7739463627915161, 0.3206245108757167, -0.22493528614905803, 1.2994269394777602, -0.05910770476481763, -1.0411156198451066, 0.47339221000134835, -2.010009249481673, -0.9623876220735119, 0.2749117006814303, 0.2533776229504669, 0.9324604407007179, -0.3863503141807109, -0.38750625682003037, 0.4408217720290346, -1.1863486822008968, 0.8698464159629312, 0.8667896157819068, 0.26940120225304465, -0.7115838608841192, 0.368040698070273, 0.04421134818630214, 1.2455262310372057, 1.026937272151771, 0.19071525104160827, 0.09574505460664924, 1.7850272850117292, 2.0940913916491692, -0.9129208687359284, 0.09432615168584166, -0.19328086352784035, 0.9793768591160712, 1.1748313101992929, 0.36713230610580583, -0.6588756361877116, -1.195864175941798, 0.8691375687069367, -0.053931770250092534, 0.6107201855217279, 1.1360655430862312, -0.5268146161128067, -0.7963590731081642, 0.3700357272717369, 0.655615562041566, 0.6803073815125474, -0.39615875820180085, 1.0498781059152378, -1.1840957280773818, 0.87318832474674, -2.1003808303304536, -0.65752658455804, -0.01280286697898912, -0.8952479156700006, -1.2570567262315806, 1.4774880400315231, -0.08315676346484814, 0.4153718057789482, -0.03403968211952491, 2.472118457377048, 1.092843012627788, -0.17753224682407703, -1.0133646370983316, -1.1732706771498596, -0.6122042074440901, -0.0515963443244466, 2.9354403315188127, 2.183826483706199, 2.382203406190514, 1.3975191845766393, 0.2935702794399401, -1.3489751023761827, -0.2936327002339278, -0.3192071518805331, 0.8850815728731197, -1.3274763697820644, 0.9719538074359949, -0.6386752598738653, -2.1870216596341425, 0.4182583868415643, -0.4343337468972902, -1.4429618205650947, 0.30455151161600796, 0.24109999613895994, 0.5109095612380866, -0.7904612281209512, 0.10351089369536676, -0.38444206614150733, 0.9865775179407834, 0.7449520893322439, 0.1569562927641437, 0.611514235349748, -1.9155575724787324, 0.13406257040207956, -0.28552911198459374, -0.4972940175003138, 0.15949662712526988, -0.5454652473291778, -0.815344368810908, -0.5954627661235588, -0.6717058541488226, -0.32827994726440535, -0.3288192535729403, -0.06973567572507712, -0.14300799010926016, -0.2939266461548038, -0.5312364486995228, -0.3921392573326253, 0.30080809334126624, 2.8293582670800257, 0.8539741899281065, 1.6379867445347105, 0.1612356126135761, 0.06427225162229773, -0.6073730767080032, 1.012562650636359, -1.8839766970317853, 1.0404502420863164, -0.923697000977111, -1.959341636200046, -0.019128085192425124, -1.5630863056690916, -1.0776133920766577, 2.1336303648146773, 0.08719254198785695, 1.0967192471104208, 0.704920309489971, 0.7688140175988996, 1.7945560058798775, 0.6361598453879737, -0.7085939491300156, 0.8341396321429976, -0.6937542410741669, -0.2811072741360529, 0.6686033633770128, 0.7145745119155769, -1.8507540933037554, 0.12804160668963452, -0.4188442660435835, 0.12890422238343716, 0.6006519873158964, -1.2974531191425496, 0.056952459041830834, -0.8211773713048867, 0.3128557366715219, -0.3800934431116513, 0.1297950228425248, -0.8374088447454453, 0.2211909622054445, 0.8127751366128125, -0.7661689097318577, 0.29171865864639507, 0.3013512610787723, -0.32627079833409245, 3.350809383978148, -0.12616582736132564, -0.3787875333537134, 1.359317051197026, 0.49298852266906323, -0.8260874289244838, -0.5993271993883933, 0.4508517584910513, 0.1531113410498281, 0.1026495128713048, 0.877097482947546, 0.15409231358740702, -0.5315609971749515, 0.16798365543421598, 1.5073164727216544, 1.1337086006980035, -0.1915081966097701, -1.397348286065919, -1.4638364409956948, 0.12713930204748494, -1.148667206834695, 1.5352709642711924, -2.937587703185707, -0.8557792790010567, -0.7288042559943329, 0.3062146625695253, 1.7914170752560798, 0.34576969851071476, -2.395819870042648, 1.2565358581647639, 1.9250801034485043, -0.6712427572736474, -0.19271692491244144, -0.9838013159431535, -0.20669775335623436, 2.0278307256736405, -0.08208876149395011, 0.33268145608425054, 0.30736666533884116, 1.1167401098943333, -0.786431638872059, -1.600002170443118, 0.9135531163551556, 0.35857514036206395, 0.9353479504697195, 1.9606356144493096, -1.5950138355667363, -0.17776725059419463, -0.9785868037945115, 0.7094035925587916, 0.5181515017718885, 0.23941299008035233, 1.102294899244301, 0.27510070264839476, 0.524206722816754, -0.5094003131623225, 0.18789006060846372, -0.4370245422137641, 0.19030495082040527, -0.2551567627269654, 0.19122266935222962, -0.20837112024641985, -1.7199750243068663, 0.4033866827130297, 0.5449221086413703, -0.5430412375453998, 1.2229844074089171, -0.5250054999060985, -0.014604955092260683, 1.3168297060022958, 0.5822950792276148, 0.9861281879696854, -1.7211147120406927, 1.221182935531683, 0.5131977519540197, 0.3777716265934829, -0.2753007846605789, 1.2084625487112286, 0.1518512477649464, -1.5452639539534114, 0.43982627528799295, 0.4989700267804209, 0.785211720961617, -0.596185734534314, 1.8009592172207214, 0.3664204983091933, -0.1488889524607961, 0.7095898274825371, -0.9693219024352866, 1.2600966388807626, 0.7049695615212602, -0.478711510225017, -0.03644479242359788, 0.32756023740268714, -1.5383081331676371, 2.0113591199640557, -0.5053714021416994, -0.7711480675766967, 0.10827629053108058, 0.26598919686109723, -0.12601096191989536, -1.9305648609680819, 1.7930456815122982, 1.614360705759709, -0.6546428647362168, -0.958121239695675, 0.7445077083297537, 1.232460061414041, 1.081331238602076, -0.4310573580417373, -1.9890244258677217, 0.5420205842800185, 0.9814333135111473, 1.4484304396283942, 0.34079669100993387, -0.18191646775834708, 1.5586933453106797, -0.4492234690739614, -0.7167732274306272, 0.5360958319719035, 0.9565763075130775, -0.756188257468085, -0.3750072956295834, 0.7999008286660592, -0.07026885248421355, 1.0031528764920297, 0.7910836149329074, 0.6736444696186104, -0.12752888647741983, 0.5496673579718145, 0.9828954076206338, -0.3531735589416329, -0.572601759527143, -1.0150107282629135, 1.6561725073456812, 0.7902629333822677, -0.24209211781239795, -0.21934067294904783, 0.8903344169262869, 1.094020269050882, 0.1950428615627002, -1.0864351454603134, -0.5677126263153583, 0.6931637935004925, 0.2850864215996287, -0.9002104719202509, 0.718335288771739, 0.1342208425853562, 1.9703154186041516, -0.7588633257223498, 0.2570780432841358, 0.5132603769567158, -1.5130670377643092, -0.8729821282843947, 0.5576535468994365, -1.1705256009156784, 0.6529277758266554, -1.4780696049731616, 1.7212311657281338, -0.7188076345406029, 2.121650857381734, 0.8144499942936452, -0.481588179826696, 1.1410609558580485, -2.526987603109279, -0.9370013298007721, -1.2403197232492893, -1.3625067050375628, 0.06739476047570672, -0.17007048979749037, -0.5195987206299382, -0.20765867293633977, -0.4559248575094828, -1.9820304509703055, 1.6188848856211548, -0.075498041393651, -0.9850547661492313, -0.4893086126747545, -0.9364465437607697, -0.09902498963134247, -0.5674822783658164, 0.45880940014129884, -0.04069781719914818, 0.995606600437272, 0.40347153685311143, 1.3372748484352046, 0.06016272177838397, 0.6121333824117549, -0.7786583892302013, -0.16952656538604358, 0.5537010657654367, -1.6724378685592827, 0.8775074642345005, -0.4095590238851569, -0.163107782253954, -0.28093409197874647, 0.0014036969236585705, -0.32372300455552777, -1.0127576325373977, -1.1482190997211006, -0.7800011583209443, 0.5289723887581291, -0.21149824190307956, -0.20669610549773493, -0.5128333405827374, -1.6320788592908275, -1.0496617087998628, -2.3257074816525676, 1.8448843348955983, 0.1528855196838113, -0.4546783032516501, 0.5135057280808262, 0.30879589861009354, 1.0552428117667212, -2.2008123463487466, -1.2389636098250323, -0.027090595848492053, 1.6288689579901077, -0.25972876125418876, 0.10178272357335232, -0.2928179136218359, 0.6697938074347639, -1.9626911742653288, 0.6914247762390955, -0.17253096780363375, -0.3832293025263067, 0.6196445251688276, 1.462055513900653, -2.306919178171723, -0.6693537708361674, 0.004814312758761422, -0.3512462793741078, -1.083273874902696, -1.0250063445080955, 0.17682160396100632, -0.13398399770750202, 0.38790361702491716, -1.2901688475814037, -1.0180876021609526, -1.2220472618587153, -1.6234709676050763, -0.1355397511479722, -0.5415173167920598, 0.3836638638413541, 0.8419196252540997, 1.2083668898069995, 1.4889903992213849, -0.6508064770868028, 0.13302534351049672, 1.2734798396754816, -0.14681409701028275, -0.11760949055470313, 0.22214958836783283, -2.13811828793869, -0.4985392285252502, -2.255586893505638, -0.5577354092818542, -0.7006208672509855, -0.5714611031313569, -1.10122042800213, 0.9233417337573948, -0.8116697194434167, -0.17986377566446582, 1.2328758101664594, 0.9768311020782313, 0.9627930818478104, -1.7125835691881255, -1.1611059640124832, 0.0228593223599913, -0.6680290391293748, 0.6965998277061175, 0.5166355635410523, -0.1974446977508412, -0.3136265242564675, 1.725415355320069, 1.1253854456334063, 0.1417733044919525, 0.6324281485306628, 0.7141489057145505, -1.485959512730892, -0.4284928289598163, -0.869414109423172, 0.6042976864064852, 1.0229790311045766, 0.7228199662144236, 0.8030917734716208, -0.23263567359696227, -0.4301206094248576, -0.9224798033749736, -0.46296357242099706, -0.25618925369363715, 1.522406106383377, 1.2234277509435165, -0.2058489814027546, 0.9151039228039981, -0.09492050342215541, -0.6808518720556428, -0.8550841839014427, -2.1215104136683385, 0.08731223206391327, 1.5843168293758747, -1.0795614966908555, 0.5726914075102812, -0.4446766502944569, -0.15612746803613886, 0.032457527261719354, -0.31434790082600356, -1.2762509212671316, 0.8413965439446591, -0.14261987542561883, -1.015615192676916, -1.208978180592749, -1.3027139684119138, 0.8024790068435764, 0.44571260864923595, -0.14921880777387148, -0.024161038680335988, -2.1009995539576267, 0.7708247858530611, -0.804326494477407, -0.8317407250972475, 0.37547938068587633, 1.9186736605431887, 0.42638640009680373, 0.4549295518334306, -2.2180453592740714, 0.5414129398773635, 0.6327304255255217, -0.5841075724631668, 1.372392840347747, -1.3578574271189956, -0.2540329811453434, 0.18346301797527553, -0.623648404732679, -0.058392883624916354, 0.2418669142505117, -0.38392603441775225, -0.3832770589041075, -0.2163049538373167, 0.7279140360439148, -0.8976375888051713, -0.8106692284804586, 0.4519364392230196, 0.32582121671896147, -0.14600065366542997, 0.5758701522620577, -1.3014626319575786, -0.5244133142487355, 0.1776208851051419, 1.0317137894360582, -0.25822901577175217, 1.8966542284262422, 0.06625965816338586, -1.318953655945362, -0.2527888993533661, 0.8517330016922191, -0.04041291628405103, 0.7252625440265292, 1.5391779092932543, 0.2661149500675943, 0.07695108729209024, 1.5973147120288405, 1.0271535456582084, -1.0460638104478073, -0.037403051678581795, -0.6187794099566833, -0.03296154275492356, 1.4430892385540117, 1.0393150329273675, 1.8423383315956519, 1.4216613961952809, 0.5353823422714384, -1.2211945533016813, 1.7749162647776258, 0.2278845575929888, 0.9192441253692307, 0.5716777148875302, 1.0355052661215105, -0.19883995606985794, 0.00915583005534567, -1.0699205180751117, -1.3744742879112706, 0.7524184504145573, 0.17353789645081483, 0.586386458561004, 1.2246267791230614, -0.710085529782531, 1.1955116823279137, 0.7816268003913258, 0.8648724070847317, -0.06904887225361692, -0.12275679596756975, 0.020262069747788335, -0.20164007437299708, 1.8609448102785238, 0.7557620374627803, -0.7583362631254819, 0.01036644873310561, 0.3684494015119125, -1.1699018257927059, -0.6036444840742544, -0.8659229600411475, 0.10381948782347145, 0.7362721695600996, -0.3784442304515747, 1.2591981811473245, 1.872419711296293, -0.27295681688221324, -0.4236835187503676, 0.42827748422928613, -0.5308117042415936, 0.6041004827576593, -0.25857101603733107, 0.685542909756902, -1.0258589313505584, 0.3449691184369167, 0.08179364341343394, -0.22915552037186537, 0.9073174794028662, -2.2098356725067516, -0.3353481311025627, 0.20878226049341173, -0.03521909245925483, 0.47696428041202527, 0.9783467290370546, -1.3181060961721085, -1.3088258719683195, -0.5946618891158023, 0.36293575701958536, -2.0194724178256807, -1.0434303730787073, -0.5153474390834097, -1.2909242871761004, 0.9987971709536779, 0.009594887715226935, 0.9069055743275845, -0.41196094499272257, 0.48050530634817334, 0.3011461015856195, -0.5295822807625566, 0.35139837930810947, 0.9486509445698833, -0.6540058964448954, 0.389812124212186, 0.004633838221172557, -2.7580795616428193, 1.518109343901656, -0.08389760265579675, 1.0591941474569984, -0.3738870012427311, 2.53068434365544, -0.5371728061570992, -1.139532227070662, 0.1299920659955677, 0.10343979365417609, -0.33211475273393937, 0.3772445199316851, 1.0433859354468193, 0.13401527419466733, -0.2154749933287003, -0.18999496088282583, -0.12340195461063516, 0.7505131819816754, -0.16420592513614268, -0.036941082682029946, -1.294698426741172, 0.21337057123243605, 0.4354045822431184, 0.11819773489389648, -1.8768019749782836, -0.5034393596345693, -1.822988836439743, -0.5815927864483836, 2.1103368871365826, -1.1695582725684797, 1.1222381062948812, 0.14913452545073197, -0.17512147675571113, 0.9033657179184215, 0.22175722675132448, 0.7170051053888699, 0.6748203868003618, 0.2008582680296234, -0.19234180700764025, 0.3073631547081224, 1.6946308973027058, -0.13948766541745275, -0.8400150423789906, 2.6275082022587135, 0.8393127232523302, -0.18888775164009877, 0.15293099803753843, 0.6126876702629777, 0.4055498478052744, -0.07871494721012069, 0.5522129466101606, -0.24750681317282985, 0.2969844440892988, -1.7224914862945264, 0.8340765220514058, 0.2624913921744059, 0.11743177233046437, -0.21721626991098394, -0.22135387780194343, 0.9461953234256881, 0.539142113319702, -1.6585253622487401, 0.30598360729965474, -1.16200946732671, -0.5874779729514689, -1.3614484662159958, 1.1422497162494298, 0.38151372308729264, 0.8717778671600847, 1.513937153879925, -0.3827459998980757, -0.2836860791598689, -0.26174871496668306, 1.610792426318057, -1.0000734250550554, -0.5027604807995618, 0.8315529765961813, -0.659479710917506, 0.1432064709842244, -1.4815489733501066, 0.6603766649115894, -1.195411376419424, 0.2043669992186948, 0.9173304777825275, 0.2501102187135841, -0.5031275307660114, -1.026174364573895, -0.5324493210509778, 2.0713746233878494, -0.31090108231892416, 1.095016334675179, 0.5939887879204819, -0.6180511648642132, -1.6635802426206352, -0.6660432690195212, 0.060884791105962614, -0.5434436496706533, 0.24894636189833413, 1.7776173332985625, 0.44571536551769686, -0.42091486495284947, 1.0891744979138138, 1.2156693880583647, 0.4155456807797999, -0.2596232278461899, 0.15125204838652564, -1.921881386211353, 0.4182307746862029, -0.5333348376913299, 0.20377282894578336, 0.1272530277117086, -1.191079163889301, 0.8364652865663329, -0.41024667243427243, 0.9984577882913345, -0.10143637017308808, -0.33093952459619863, 0.988533413154464, 1.706104328551354, -0.3730505955163554, -0.7949215833457526, -0.313991316859955, -0.0380749153192563, -0.21784492695666624, 0.5064550768930136, 0.1780696417354443, 0.9319863184705387, 0.43137785127738293, -0.1460648074011994, 0.9401170679633514, -0.10981883950013514, -1.1447256380011548, 1.6799389063197385, 1.8056431934915191, -0.6350784234409371, 0.7110455663615641, 1.0931652295947791, 0.12188746630673702, -0.49519977199522675, 0.0904524804660055, 0.37135333673644694, 0.4278995976632357, 0.03280693609373344, 0.4738511804258441, 0.8712801722520515, 0.3273099919442682, -0.27771790837101445, -0.7238542854426652, -2.110422885474354, -0.9872774228899338, 0.5180346022270831, 0.9770665339281656, 0.6908634981393863, 0.957840749770453, -0.43537344992323573, 0.2151687158322695, 0.7991765262546516, -0.7332902348893979, -0.9460323930911253, 0.16071623910078778, -0.28531052472287455, 0.1440879356982826, 0.7795098745525707, 0.0020894945380880827, -0.13818997043954276, -0.18300444351244463, 1.3037403016313411, 1.136739405578642, -1.0070293705101285, 0.8804204368517318, -0.08103069554687524, 0.047799170680580955, -1.542343954749968, -1.580638897445451, 0.6623380792715841, -0.5116529578934564, -0.31361514242397426, -0.6153988377243812, -0.6135069495027525, 1.138019789928713, -1.3115590625131237, -0.4810415410208111, -0.7282883211350332, -0.09844310906325322, -0.08720262274957319, 1.1068246877336108, -2.2021719413503296, -1.1690805635357313, -0.782256850679437, 0.14907999711508463, 1.8810192064546485, -1.4008750572828985, 0.4379662795058904, 0.4926866033102832, 0.4752000184240698, -1.3876233986006385, 1.3978193125353229, -1.1081982792057512, -0.3599762104541562, 1.3628219612277956, 0.2896233265628075, -1.4175115690703821, -2.391868502848969, 0.885589485470025, 1.2291099743689877, 0.9284087275233677, -0.5418035432316248, -0.19641036066830306, -0.21904970761495002, -0.2695458215876282, 0.4569238577939004, 1.101013185887115, -0.5873561474754451, 0.9427371114536642, -0.10160830274933579, 1.5808007435048874, 0.22704745386953504, 0.38327174329917196, -0.12469147167873007, -1.4931382704990455, 0.6292088173597918, -0.4679399029785466, -0.5026431237636317, -0.8859370004109018, -0.6267675371896088, 1.6671362502919023, 0.5671036830678609, -1.3654357038835565, -0.266527594739225, -0.033083980650605124, 0.522667342326914, -0.7725131218607191, 0.24744455972544693, -0.21620798366897628, 0.20197349947407528, -0.8236664884129673, -2.419835610745484, -0.752066105262216, 0.06275440876249959, -2.038329132690618, -1.064689964262226, 0.2684487098369686, -2.4579268043800915, -1.3990156829601328, 1.9197095577520014, 2.3160365323085, -0.7595028447616272, 1.2236054180328464, -0.7038669864779986, -2.150175009983766, 0.8064937476756358, -0.8683329324801747, -1.1749604035522931, 1.2485376373520944, -0.15621936972140654, -1.405861068796229, -2.200092921700898, -1.9084829500464344, 0.4244855687690393, -0.21578111332310987, -1.4615424963685941, 0.7696993028933353, -1.3756062893839476, -0.9309451539691402, 0.6204831172855776, -0.5171130520913251, -1.532278871391754, -1.4464288116119461, -0.6668578865670455, 0.033342828748631204, -0.936714550246145, 0.09974719439225258, 0.45031635594705594, 0.1504892136909085, -0.3319352616603997, -1.8746045772256987, 1.0384214353455739, -0.011012342409225016, -0.20468514161684692, -1.2409326895030486, 0.2566787407746705, 0.7315972412535943, 0.13494685104111784, -0.04761345877861717, 0.12128934240145117, 1.5657109545489467, 1.3748100136229544, 0.35050247684477626, 0.23552682190649668, -0.42109259022662593, 0.5410827815736474, -0.8175294269971715, -0.10938728353744981, 0.6534152346016522, -0.007258992077119496, 0.060349698582147664, 1.50348212419649, 0.253709164646761, 0.48031876806976515, -0.324615119230111, 0.054260621525786694, 1.1157023670936312, -1.9565551123275606, 0.5516602706937845, 0.4878697463543041, 1.9105777495642509, -1.02755146585929, 0.8998505391593828, -1.3328367484077959, -0.7461966581824255, -1.040226441407198, -0.4660629952384847, -0.4906353422546472, -1.141355295889672, 0.8264538210926206, 1.269754818968238, 1.2053363247588034, -1.066008234473609, 0.987455331290107, -1.0169342406319744, 0.668695711141372, -0.6835200220216259, 1.116008452206051, -0.5971310060201592, -0.7566992071607201, -1.2179808175280746, 1.2764865963454601, 0.880366899050822, -0.6326894590517628, -0.2600365992004456, 1.8437487096172458, -0.997953879489339, 0.7994237154926483, -0.06828725844947799, -1.025880310069621, 0.5335191523841722, -0.4468194059874302, -0.5320007644462216, -1.248829263878847, -0.4428399410370211, -0.31905008494112297, 0.14453187873324344, 0.3037887595729695, 0.5326925992346327, -0.5324656997985306, -1.2915103968373196, 0.5890429722146144, 1.0811838901141602, -0.8018871895635692, 1.6908514132751649, 0.8836599464718605, -0.17864585763578983, 1.0562133623718113, 1.128236063573213, -1.1847437746518468, 1.385632388765357, 0.107411446753296, -1.0980530232490877, 0.012481466600893843, -0.3759463478044382, 1.87736114195871, 0.5931745959120945, 1.2397090575393996, -0.1468850603584937, -0.392479962861318, -1.3638239233576537, -1.046853136172863, -0.6295097518738411, -0.4303314833598994, -0.14586532969616942, 0.5778903755848871, -0.15888447941173578, 0.5829425347446532, 0.2591397735975573, 0.7560757448365188, 0.8748225277431791, 0.22502767135831173, -0.00785162707142831, -1.022026013481752, -0.49860087859759566, -1.804331831201169, -0.6058538207918582, 1.5364434290756366, -0.2974838236077245, 0.31536141831298603, -0.41130309570388685], [1.895708150575452, 0.3234553888467003, -0.8991194119798451, 0.043172082890454495, -0.6466811376433222, -0.6061195687230737, -1.0168508266426042, 0.9710421430353211, -0.7814737989066053, 0.5186424709805512, -0.10995761575755411, 0.5373239167355879, 0.4413449126911531, 0.26906559534396823, -1.751477504889196, 0.3241443067086371, 1.1497897209784265, 2.360590964239975, 1.3676650718399284, 2.498066285698831, -0.7978957121917346, -1.951646233897478, 1.17436534635826, -0.686373248691435, -0.6067179008080938, -0.044799362557126875, -0.02121051597919721, 0.06989002594590979, 0.2215865140679466, 0.8810737200507387, -0.8177462793218964, -0.6320590978473692, 1.4517455558300705, 0.5343799478736071, 1.3497238412262078, -1.8663276341382145, 0.7251658413723424, -0.4976903627648995, 0.9652469365177331, -0.8607762312869031, 0.08087630981069706, 1.2285611194697394, -0.8676740192378588, -1.0662315261268078, 1.6279465015921522, -1.0190855171736373, 2.4293078717483416, -0.2740022402922778, 1.401800929172716, 0.09837780578412479, -1.4865271360026866, -0.2727675674954039, 0.6236221849282009, -0.8417877918991968, 0.9415643080179416, 0.12223109265911143, 0.5190541822278792, 1.1962393249493601, 0.3987721939206144, -1.099506694210199, -0.78057403438682, -1.2229330677552595, 0.41468877970835294, -0.1294299941988803, 0.09988459540236742, -1.0979288166595134, 0.4913535760715354, 1.1411516550506664, 1.9515877200891762, -0.5884404868793531, 1.2990337448866247, 0.17376805344329288, 1.2694337005235112, 1.4661047821026374, 0.333309063857367, 0.056430414458105496, 0.8777662344317448, -1.226847246528791, -2.1670839445426524, 1.238870576098896, 0.24282701292456868, -0.10704666821135128, -0.40988227303306174, 0.4159776274139984, -0.602075202085452, -0.3378616142525167, -0.08439231634174262, 0.12882414754707144, 0.7070951142614242, -0.033321218427129595, -0.008841976137579236, -0.8224612360259762, 1.2416419947107862, 0.03592146058068765, -0.25091244735253265, -2.7466713097546553, -1.066153695270354, 1.710336130641326, -0.70990928850264, -1.0069532434676245, 1.5076898837549717, 1.3236171884297703, 0.7493217936124641, -1.6467628652059076, 0.5673679378867827, 0.6191294303684723, -2.1588092235471357, 0.9524310436653891, 0.8031831115310113, 0.4375800002466707, 1.449756733228408, 0.5138818581937417, 0.13093398208475696, 1.0742910583579655, 3.09252748314579, 0.20791192583812035, 0.5963917713405027, -1.7126484576512198, 0.9965230940947496, 0.4940579428301709, -0.021722383359117938, 0.5809618524820747, 0.13080964161253666, 0.8663423949138979, 1.3411785657961948, -0.5567092686215762, 0.5819405133671213, -0.5079339426471533, -0.5526367220614119, 0.9607186327187373, -0.7186697048784906, -0.22687549406771143, 1.352195086854669, -0.1263447322711429, 1.2032911725271296, 0.7293756862754721, -0.1886847015976384, -0.5125610576584243, -1.3536881566588927, 0.7021046312052396, 0.5509402717089066, -0.5605429130783628, -0.5470713869206608, 0.5373601762708621, -0.03481716250769447, -0.3710269265998778, 0.5650256672512283, -0.6180874172279728, -1.364098427833414, -0.3269745717449311, -0.6727909499840753, 0.7184093642292423, -0.617057009766808, -0.40646059818514146, 1.108315741127114, 0.5024820269824716, 0.3768263954967962, 0.30691521840397695, 0.48799422836899625, 0.08574939574519387, -0.4997597706283362, -0.06647076651404264, 0.9912159696408801, 0.3632553848039637, -0.4876315037826852, -0.9445974543573521, -0.009646676700071412, -1.1543061911622061, 1.0879987867312026, 1.7139199692059046, -0.21836297421138132, 0.9845752641555159, -0.4471122546868024, -0.9002450394918164, 0.4344145472840549, -0.23966145284673923, 2.170530205920462, -0.24111316705007033, 0.16487151484413778, 0.11018700992200993, 0.9548048407558979, -0.18892690636804527, 0.1815494981170025, -0.1392903666071068, 0.6796416993375026, -0.59483995465012, -0.5229865406963203, 0.9855571083369972, 0.9936591990525958, -0.5591380745206066, 2.458377849942965, 0.192136897314687, -0.13598539487582986, 0.498040299264662, -1.0868640726185563, 0.6327901984200807, -0.39325519856955404, -2.332301053044438, 1.839215393445047, 1.2161337432811066, -1.511037567385177, -1.2277288984543928, 0.20157849234180697, -1.0322495694837839, 0.5720875886491511, 0.15439854555308966, 1.167538419598754, 0.6994332596941706, -0.7605562240162504, -0.23649046131068266, -0.2532522181244746, -0.6640859516689505, -0.37597255745578506, 1.332851144430602, -0.17541756110888929, 0.08032313434978343, 0.45264109305759903, -0.46571658899933754, 1.8755192745118154, -0.48789173361307697, 1.9092541667284921, 0.5602929594520896, 0.6495970564978274, -0.47404051899734967, -0.5092311462620405, -0.10394779876108155, 0.980342035538869, -0.3544540678102034, 1.4093796915547376, -0.20441437847321547, 0.13622347231478807, -0.8611793727202742, 0.5282842158254295, -0.7790988635725125, -0.8950861158966568, 1.2041905807910103, -0.3702246387896677, 1.6202714557962477, -0.41250020196197007, 1.1221206253126974, 1.2274932783842982, 0.29042406900555273, -1.5126174524591474, -1.4522427353026193, 0.6532778550747705, -1.0654185522239805, -0.9401086900580125, -0.3662436501341144, 1.254089060049033, -1.456855485190997, 0.4998865604478192, -0.11733254791376911, 1.008345810859836, 0.06752856835516526, 2.4698583529994784, 0.18922247559652194, -0.3472155629274534, -0.43311359192638477, 0.454752604308842, -0.12515510010283856, -0.4273972630891475, 0.3368529000162863, -0.8467915961675659, -0.30484140573937185, -0.23816033694731942, 0.7201892346295974, -0.5025116465200831, -1.177789530926355, 0.062117945464405695, -0.8894378464982201, -0.8381061551142894, -1.2185533340406203, -1.5746585908654152, 0.513722980665484, -0.2503819370437598, 0.9209989152278528, -0.9445117938518726, -0.12841466990590444, 2.1819452966811372, 1.1126454832959458, 0.5097769305965515, 0.14440088108518864, -1.0701822789344662, 0.9203591103922328, -1.2135113919890728, 0.39847812426951945, -1.7383000943122935, -0.5800137433043165, -0.5433903507194977, -0.04415509512939238, 0.34714150854342346, 0.498247752525366, 1.1951591776471204, 0.5510994233789089, 1.9069076380512842, 0.28057036911257077, 0.14933195899490065, 0.5742298624506589, -0.9897559869679775, -1.3440092027684105, 0.6792711520945035, -2.652106892206258, -0.7673589248486785, -1.488017539069107, 0.1431651702336103, -1.439562456264171, -0.27879308343953796, -0.6242070739657732, -0.5386574822630436, -0.4439549866527236, -0.9043714917145763, -1.7022392054943367, -0.48475224805849365, 0.30543201767552103, -0.8391415964023625, 0.3934901111766865, 0.7026208087444142, -1.3557687475953102, -0.46200032198235774, 0.8535932827578423, 1.2378581966283249, -1.1937922140026611, 0.27919834525569104, 1.735375550189134, -0.04467502318096553, -0.8684219673254151, 0.03460018056423559, 0.7139574882279137, 0.12448569439152046, -1.5905361843385974, -0.7724046117885586, -1.4837302850799872, 0.19032540565213307, 1.2252042154952671, 0.11966796030946611, 2.2214183512404326, -1.266782370002328, -1.1692703808216591, -0.36574840580116486, 2.0262250569249636, -1.808689494934942, -0.5574399012327989, 1.497084658214321, -1.0436929998239268, -0.8568167324311272, 0.45620359044780456, 1.8788379409890703, 1.0981760838169554, 0.963937059417109, -0.23455516938794108, 0.414278218940324, -0.6755572146704696, 0.7485613452513685, 0.710171234887507, -0.47789162435152077, -0.9458820512485683, -0.18356261226783124, -1.1268089935596377, -0.5457369628277338, 0.6556255298310035, 0.16182443435163724, -2.0235529213830143, 0.38122108912882524, 1.1238834918472733, -0.9485059680791571, -0.09852804057700801, 0.7646949272098504, 0.5901769506160197, -0.904676825971187, 0.191237832054335, -0.14653762701099074, 1.092642944764945, -0.4209454414230846, -0.9752488729295798, 1.7439538917487316, -0.5377420218428719, -1.0380403190813448, 0.050836061621781455, -1.858673283468585, -0.6908062201846317, -0.4298952901572244, -1.075486513721076, -0.2917153279361402, 0.8415038927111813, -1.0579443466395688, -0.058622123114826376, 0.2778352413841942, 0.3107381360183673, 1.1425381341285428, -1.6866420691644763, 0.2979164603641703, 0.9031376348099283, 0.01004077278332458, 0.5330445136855837, -0.24465391230654499, 0.07231861078361031, 0.050841871855964504, -0.19293085615592592, -1.0072699255382958, 0.23045807164998644, -1.2089744959045403, 1.19099906098419, -1.0563010610664063, 0.5069821994015358, 0.13281246233659894, 0.8181404358503913, -1.6733110310915484, 0.8398079645477778, -0.5236367966585523, -1.1021736683524903, 0.7986494027203047, -0.2386962060050789, -1.5665168588604257, -2.170366964028287, -1.1814348228074811, -1.1148463939196018, -0.3092661798186906, 0.2216302842408841, -1.1308755820695, -0.3567938818660703, -1.115764891542694, 0.4850531092834828, -0.6145583944657892, -0.6261219639428968, 0.5487863616168994, 2.091574839617754, -1.8633603207224894, -0.81344528338632, 0.01935744599002994, 0.5664713346838094, -1.7242039417005146, 2.187734766174718, 0.7583643254844, 1.139892736087955, -1.0118691970615394, 1.4233521017187267, 0.3132329995708027, -0.533093819326862, -1.5105594694548372, -1.009596118864087, -2.025804687549486, -1.1104899550675347, -1.6243048935174829, -0.8684650620247523, -0.9490482476183383, -0.5647215526644538, 1.3811501076236448, 0.8357947630847256, 0.2135944410699339, 0.8131072489000567, 0.6491260988081479, 1.35082821697908, -0.3425513807486235, -0.20007839456960114, -1.3417790479036256, 0.5153665103893323, -2.14150423320366, -1.7996418019442886, 0.3565141308975189, 0.052474662294399135, -1.7546824031899448, 1.7488979175346686, -0.9546000762616258, 0.041549461151239114, 0.3225222102113425, 0.570408171667225, -0.26651421247903473, -0.7087923426244656, -0.1735565514018975, 1.3574373037147738, 0.019042281255385308, -0.8598888546078025, -0.7786330791167727, 0.1204384964495604, -0.8735081651532024, 0.568713454483721, -0.09159740542240707, 0.5212405453052449, -0.624145935279199, 0.18604550284652732, -1.3596376948512454, -1.670201260060394, 1.3131620716870869, -0.9831235941972184, 0.9903930267133435, -0.2006836438675363, -0.8952268377918433, 1.1938265103277095, -0.06974425157472845, -0.8305904964981904, -0.6579562247612389, -0.5080027005812207, -0.1342852314278291, 1.8585936054496537, 0.7242517115676844, 0.825984240840976, -2.868877451978488, -0.1973848713944471, 0.3283613370439825, 0.9540644021611744, 0.8085239228064194, -1.5942520836832532, 0.16446572123702002, 1.1828352807920275, 0.4662949191647289, -1.082308850007414, -0.7422201569002499, -0.7780294120193525, -0.04472940536202198, -2.062212319410278, 0.31203241786448, 2.234022248803935, -0.3607861524206164, -0.6497498320208857, 1.290058168028193, -0.5810736627400797, 1.0005966084010052, -0.3785489196341248, 1.06088486566009, 0.12150312187308095, 0.9162228855610369, 0.18526839385658966, -0.6595836123337616, -0.4113615782155845, -1.329967870467073, 1.3880921198715686, -1.630484813798153, -0.899784946753046, -1.1290310807950952, 0.19639383239038138, 0.12616718185982234, -1.2008851567524599, -1.1926898755214652, 0.3057411087374402, 2.593505099518126, -1.278135875690493, 0.15063554245561234, -0.5952210941004917, 0.25451591765440373, 0.6286966437617396, -0.5248495704546591, 0.12214382747237162, 0.7835408678956377, -0.4968757325760682, -0.970768893268152, 0.12459324066767037, -2.0733164979294405, -0.449118477603722, -0.6839050012658099, 0.7193781222258101, -1.1713146575729967, 0.35886530936721955, -0.6216594448805377, 0.25191063740355035, 0.7918705334853554, -0.20397337694029755, -0.41795848879555386, 0.15460506052215947, 0.29017293112485276, 0.1601288587732741, -0.14170796296765972, -0.33677397218877725, -0.8994862785667012, -1.4024265616947658, -0.6862417117054738, -1.2352625654680822, 0.7771227026611444, 1.582405704772111, 1.0467918099844664, 0.24740388625370371, -1.947505014346715, -0.6173259838062021, 1.494120978767888, -2.1775196944133017, -0.9563837334860038, -1.0038601732278665, -0.9192597272865806, -0.08008597763681381, -0.5652420107333131, 0.4041457074517922, 2.2027906944752633, 0.3150166117673345, -0.35597717144026675, 0.25470886772230084, -0.022367366021219224, 0.05208662285215723, 0.04575275647315919, 0.996358701045154, 0.49978413901597135, 0.7929192702942673, -0.1775462578933547, 2.231761737348269, -0.7269824594711469, -2.2731168680496787, -0.01647545181080823, 1.006426154384061, -1.3307984211924808, 0.4620090174478773, 0.5499506706921315, -0.5568038095427338, 0.24341449698961704, -2.072736786433, -1.3043221259704005, 1.0071982192831064, 0.6874829160865695, -0.027568281097872002, 0.5363237726260176, -1.4120487390308711, -0.10227939058265266, -0.45829616131273154, 0.5031179883971026, 0.17080547268811247, 0.6913434547648585, 0.8807684551016118, 1.0863492475667775, -0.43796266976515413, -0.5498428735178582, 1.0561305640815664, -0.604059852980939, 1.0417623333331751, -0.6764152579523871, -0.23459839477553693, 1.8234665955159404, 0.9141893725358867, 0.9055052610781693, 1.0275260968722606, -1.052621360790358, 0.019743550031143628, -0.6822483307451139, 0.42554786252735877, 0.3754550270238258, 0.2127392151100619, -1.7073144154430826, -1.0757599507183118, 0.29691533416310273, 0.2948699527922906, -1.0614097347575289, -1.6090510637130442, 0.5800457138617843, -0.12073252495134164, -0.0771200195367993, -0.22497721139586488, 0.07870218633799873, 0.2291600570894133, 0.13918787799666524, -0.030943586231359184, -0.6224430401812644, -0.9002840038550796, 0.7394316549607133, 1.009516075175246, 1.5541390942340547, -0.7988906232984732, -1.044518614241728, -0.23751462669161144, 0.16946968890782924, 0.39700171083109165, 0.5949086729561741, -1.6763312320851724, -0.5487129000428419, -1.1340713871546957, -0.4209283781936608, 0.4403386378257816, 1.2038740944684105, 0.3408861429309468, -0.14251405990062654, 0.6321912927857307, -1.771666392187471, -1.1059490879976284, 0.6006659124784238, 0.017418640469931863, 0.546382193202604, -0.6682517992532745, 0.042202136976193474, -0.7941673288864795, 1.062466852241999, 1.057845092934351, -0.14261521959629192, -0.14381451311844756, -1.7343648206627602, 1.0928412813726964, 0.5655435688417962, -0.6607138833218416, 1.2572831141639718, -1.8007045214110777, -0.06793812798195746, -0.7457035523181523, -0.06489000952821267, 0.26489434138838636, 0.7488250739135852, -0.9907988295891995, -0.05698094057329284, -0.022804154018758595, 0.34395442446770075, 1.7282404542816747, 0.3783530666073829, -0.11996989484074069, 0.30268964608970594, -0.7808996759467057, -0.03566474910013805, 0.1901073411610734, -0.01964693204193002, 0.38214311758198777, -0.30491832223697807, 0.27421586196781134, 0.8019862194560865, 0.11702316701629681, 0.8128625341112409, -2.4722284771885183, -0.20026140823371233, -0.7398287867676103, 1.8449791617100488, -0.7459063350305322, 0.38565080291873444, -1.9050745469598893, -0.48247298464115546, -0.3145724804910962, -2.2060348248429085, 0.0007573876326420273, 0.19237355133048328, -0.12703028675698919, 0.526008138193995, 0.9281153063999531, 1.0629972991440368, -2.1648830022176844, -0.6484919315478906, 0.2172893631176975, -0.5870409986727279, 0.19639779139995447, -0.3521310153292156, 0.07385948130859293, 0.10799786263416598, 2.5017893413211603, -1.5403802119551795, 0.9716198812494877, 0.24077471520645374, 0.21138310051817985, -0.2730342239737577, 0.6177278145731188, -1.5581341681251437, 1.3800487372207393, 0.9810401225053474, -0.6279418112448364, 0.9184843125901152, -0.9634273319107315, -0.3553174671697477, 1.181145101588495, -1.0585644851990397, 1.403493448190333, -0.7611588456926256, -0.10985618573038516, 1.016887012050545, 0.7556456068300568, 1.5339374496797615, -0.8697510699052584, 0.3211688121364943, 0.1962534157754727, -0.3220813443366144, 0.18962557760369597, -0.037852012906738564, -3.0186421822357086, -1.137332602876792, 0.730317053872787, 0.4869599903684689, 2.8849123304178965, 0.1977674386211636, 0.1668344571813429, 0.17829460558927965, 0.29982370605550873, -0.007711971712677261, 0.8125803913424788, 0.6884386941549974, -0.24367503912819613, 2.202776314681178, 0.6786007548897212, 0.47136772316501563, 0.42759737153820865, -1.1816701244075791, 0.31883085419334245, -0.2295493509334518, -0.5959970336384502, -0.9145708721882845, 0.09312028291928978, 0.9929012111551369, 1.6893004341536193, 0.27161085307747906, -0.484618717482211, -0.3454302157026849, 1.0415117088024024, 0.8630635700431416, -0.49349805536143704, 0.008411589902715027, 0.41822549139188303, -0.41436109303285545, -0.8768293434287169, -2.2759347454038523, -0.13824024964926823, -0.8606368639625529, -0.7831406730124147, 1.1144280876148287, 1.1013066057249168, 0.9451910391080008, -0.3280411757256677, -0.07510124430330299, 0.5486709130995043, 0.6916728758532998, 0.19559092509851275, 1.1675072439439191, -1.2818165753182424, 0.1474241547510965, -1.3539420152225752, -0.19316329389872378, 0.08459807335791866, 0.8069638304623161, 0.4766816034891791, -0.5544104250072129, -1.2966106502228907, 0.16922765634353318, 1.5606169339933418, 0.15668892680724422, -0.5282961870925179, -0.40796144913065563, 2.1491667032048944, -1.616742884060179, 0.7060497785545222, -2.2794064115630803, -0.8442256899204289, 0.1436163118460209, -0.26628813058257567, 0.47306740736209124, 0.6972842181656494, 1.7783444995943987, -0.5197566275520972, 0.5753738437787821, 0.5901351216077619, 0.04652593611900202, -1.1632665157073832, 0.2090954105438491, -0.6561620547013773, 1.3076231823406954, 0.8471471459912859, -1.8099485933672679, 0.9066545445045753, 0.11647978353058172, 0.4804360355689903, 1.0759171164404404, -0.8288140566264562, 0.33575995777041145, -0.04891983366628452, -0.946263495956358, 1.112960870158555, -0.5077761401721542, 0.9311282095926315, 0.5153440593684383, 0.14770323500799654, -0.7566129195642196, -0.12637001723247623, -0.7129009886620069, 0.7783652213249485, -0.7724659089496254, -0.06097062744103946, -0.27527468395291055, 0.364989142902607, 0.20365752430204723, -1.309710040916006, 1.4202720796757762, -0.559741096871241, 0.252185317873178, 2.8199824786795396, -0.8986175330735637, 0.3735861628743633, 1.0091786624807377, -0.8180335504092945, 1.1747975700472402, -0.7090238502092583, 0.6203955111547251, 0.7399694111012005, 0.6000151911982872, -0.9784755862399149, -0.2971271772024671, -0.5300587831767188, -0.5933746907964408, -0.1086406398437118, -0.012800381635428798, -0.3373426325282429, 0.07175181857224214, 0.48461016108447735, 2.0622743121899823, -1.1434394154543464, -0.012460131291737092, -0.7582117968564162, -0.4511362899903147, 0.02121924655061225, -0.6427167466092649, 0.14532833221520172, 0.19852588763640724, -0.5364840314162805, -0.22525842388170714, -0.29428594458757595, -1.0254127190947355, 1.4538607116888518, 0.12090464579238183, -0.08728268944813763, 0.0660908968096293, -2.1227762903572556, -0.9342666464329292, -0.3238762248774189, 0.7350767487409475, -0.24352600972362132, 2.0829200886427293, -0.11838295012877821, 0.027744385385452885, -2.326839721022874, 1.0583083083609581, 0.3553437211938861, -0.7146138576825404, 0.03033932710511709, 1.0068334795551142, -0.07760413489321856, -0.49256654506021175, -2.330319748545055, 0.5244058312287306, -1.1875722075426214, 1.0991509144372271, 1.2080001763569885, -1.9289959866324438, 0.14010862213311925, -1.5047386822842492, 0.25834565254376374, -0.8078728830706238, 0.505357314858916, 0.25027081894678693, -1.031941997318813, -0.9994445430390154, -1.07792810485922, 0.997620782468313, 0.46971048282156685, -0.08190600781456082, 0.8831455533050752, -0.08218655067144877, -0.586753046281999, -0.483730229021182, 0.33813262182937315, 0.7403262748945288, -1.3481459245371388, 0.4330661277119863, 0.4154259772203169, -0.14442861081406053, 1.6674401409099784, 0.30312999203031676, -0.27392923114453743, -0.2597613883761089, 1.0095675788900653, 1.3663467505504883, -1.9024113557033882, 0.593131549713003, 0.36645111413142595, -1.6030995373644121, 0.16605561584840436, -0.11712978595279228, -2.3764025575100205, -0.4516590606703227, 0.34276687421805146, -0.2740239657402147, -0.19438700174753648, 0.3066199329805227, -1.286193757850943, 0.7601982271033276, -0.16453827863865247, -0.22348881122032196, -2.5271331624888753, -1.34461768782379, -1.8880094654112904, -0.7857756919724241, -0.12486876073035809, -0.6826506634095448, 0.02311954258875547, 1.7537413776810111, 1.1338727109206783, 1.4327535333361492, 1.3062742737832715, 0.8921531997813309, -0.8937602626671467, -0.14846777694457827, -0.3990496732386651, -0.5258815034023414, -0.000810209204014572, -0.8574891874646552, -0.3792476063530957, 0.715678009659271, 0.03843934857751727, 0.14237628903792787, 0.8039331049406386, 0.5322334431573388, -0.8049571720501009, -0.129982843443153, 0.016044727090965334, -0.6086503323383718, 0.9513132776624221, -0.7354515088861102, -0.8203615916535263, 1.531814952196295, 1.8746510987313807, 1.2378738292730707, -0.5652312419998039, 1.2572613132709427, 0.039452215187350564, -1.3976341082935162, -0.9971656369051217, -0.1653847492126817, 1.1720709874671582, -0.2822125036449136, -0.7721290764796491, -0.7030878322418992, 0.5415737208532474, -0.48778154056312134, 0.3730395098718009, -0.1214562150222758, -0.07591319676776213, 0.7132016381605678, -0.824883770643976, 1.0066067507139351, 1.0606343631095951, -1.0191684525363447, 1.5475058778438622, -1.8231211021103193, -0.30940361608147804, 0.8952653530406771, -1.800351375192247, 0.7869720670082001, -1.77032381248795, 0.1383993315828874, 0.3822280910073062, -0.10252119275906459, -0.7028343171412329, 1.1680294051793858, -1.7116394358173264, -0.4172202591040381, -0.07953601977723915, -0.7600782467351964, -0.6067952547062536, -0.02444317007920642, 0.16821635500646723, 1.9217041974675666, -0.055286661784602655, -1.3068039616778662, -0.47067497944563497, 0.976036942207322, -0.4473151676949329, -0.36716885090041107, 0.8624764826849748, 0.8330084027270143, 1.0436097987997404, 1.1588801512336975, 1.7911382556567386, -0.9163717917105367, 0.6589320220139089, 1.2138393211044427, -0.9797366099848687, 1.090387374812602, 1.0177840780242293, -1.8724073526393756, -0.9370169684044983, -0.41953330727543636, -0.006757081091619568, -1.9761801731367235, 0.3644960882756628, 0.8467026682463635, 0.5827957013690956, 0.900547483579337, 2.0944735079974484, -0.4150815442217055, -1.433882984841495, 1.6062297514685269, 0.8690180325550771, 0.4871893111874458, -0.4928568869229744, 1.7626779677833002, 0.8286756337711071, 0.5415494985429159, 0.02141920099149061, 0.09980050106128313, 0.2936572581464636, 1.238940937475396, -2.649554672429226, 1.3185995852872725, -0.23430501751249913, -0.5593031687677783, -1.3811652662323641, 0.34353953465284387, -0.7617584472046557, -0.18050388755680394, 1.3045471803764128, 0.6080775384017033, -1.8009172591383131, 0.18395371440795935, -0.7909227030643486, -1.3880477803516045, 0.6149616312467797, 0.5355743406844149, 0.2801145631517305, -0.5163086436817438, 0.567339441623615, -0.6239495879145263, -0.7471421909984906, 0.09315030408769377, -0.49516742562540583, -0.9643602398015945, -0.6082248776308903, -0.4652755270968256, 0.7484722348876215, -0.5815960129505611, -1.1182767301350556, 0.029386321684892452, -2.362991029422121, -0.8589848816242938, 2.06216091524733, -0.21127201775522225, 0.5957581747834356, -2.1769626301265386, -0.11599835475296436, 0.6500663192380507, -0.7469103556062845, -1.5065942698960422, 0.7661136086365203, -0.7999789431488381, 0.31953814273894743, -0.1905438943451211, 0.9037635417462228, 0.6812265388637605, 0.9625236516138926, 0.43576318158072525, 0.24541439327239595, -0.09039042260375378, -1.2624915548020064, 1.928063403866228, 0.6905897428434167, -0.001298601343857398, -0.011027120767921674, -2.423420988741982, -2.0341216793287455, 0.4480910175220753, 0.5495387065130943, -0.0950633860453897, 0.8042736400890484, 0.161729124353257, 0.6871908900373788, -0.3140884694570833, 1.2153456653375687, -0.2786783661246798, -0.9771111924206806, -0.7885753892174956, -0.7421266990015377, 1.416454207327812, -1.6701697301707195, -0.21022123167216003, 1.1113842412053005, 0.93929202757593, 0.17107639559698057, 1.269333430419822, -1.2739205348438423, 0.009506606493520765, -0.19746297126062587, 0.5814155176085055, 0.7995263764972507, -0.06986406732308623, 1.5441456392502677, -0.6367114097314168, -0.04105919433808064, 0.3735406186792501, 0.5483332523897715, -3.1949437276538837, -0.9696120168080868, -0.8269650555831902, -0.7844992429547455, 0.7514504579341693, -2.5130283944209597, -0.40450958285082994, 0.18505015035889966, 0.7855133381020656, -2.6697996547477354, 0.7641089602959058, -0.4116255074194947, 0.9853644569766616, -0.9047011226113439, -0.6973247077694681, 0.058480352708015236, 0.17186548893865647, 1.156814304039154, -1.2768824263649305, 3.0373239781209014, -0.6085878016827154, 0.436944594309352, -0.017159359443670714, 0.7632848255403988, -0.5802112434551137, -0.5013849678776233, -0.858841088742544, -0.3240314890940519, -1.5940096550174165, 0.5336026477325405], [0.27236137479464445, 0.9997530682134389, 1.1052859252995013, 0.4843996572828513, 0.2401659783991678, -0.5474447411593607, 0.21563130591334512, -1.7907969596360063, 0.14907591354332686, -1.5035196974277545, -0.12226764153673805, 0.8134646518113298, 0.6606520317072713, 1.2538951539079137, -1.5993355040405202, -0.4127419473805257, -0.47812295859268716, -0.7671676720486584, 0.9950519710144151, 1.24557788874465, 0.09453839065817281, 0.7921847516043999, -0.6147011575023271, -0.5672357660304554, 2.4714101162447135, 0.2640919801436366, 0.5830033094574366, 0.941108752717881, 0.5157602976307069, -1.2400013713577813, 0.6595183221235251, 0.6544911883025359, 0.08754790764388476, 0.8619851439748121, 0.41861125779018754, -0.18557806966794707, -0.14651818591585694, -1.1788008054493473, -0.9890392058973208, -0.21926491035879425, -1.6290113156471877, -0.8117172534803867, 0.7219825340061014, 0.9854832602829764, -0.09450929467170835, -2.8442629331918474, 