{"sizes": [1200, 30, 5, 1], "num_layers": 4, "weights": [[[1.6817999953563507, 1.38880417487998, -1.7362094724323218, 0.736890050255701, 0.31544174262357666, 1.1807423818504688, 1.5403108847312026, 0.19230839636194827, -1.8930768139713212, -1.4795275281422455, -0.8617838430668825, -0.2845716031166483, -0.6492335706935046, 1.1891251127515932, -0.2108069591882391, 0.8435030506233558, 0.848717556707438, 0.9726113862714867, -0.8657919620651792, -1.922870085001274, 2.210731205846507, 0.6132831075798638, 1.133406928594632, 0.10179099015110485, 0.35197770499895986, 0.7762988306602737, 0.3837207416360939, -0.6169468956596112, 0.02345254971949965, -0.7520514768671357, -0.2892193760019391, -0.1480149779717295, -0.3972343993811836, -1.4884842713289768, 0.2245544553438451, -0.7886958259083446, 0.680754211411251, 1.7592559249544768, -0.8479642691812134, 0.6310468103089864, -0.9583623165577995, -0.8823437094106616, 0.17442684016144971, 0.6393261434919595, -1.4216267973108938, -0.6032455202513914, 0.48497120286627904, -0.7184089955762999, 0.2694087999650322, 0.8543238482713381, -1.060122776277391, 0.4619048032813167, 1.5857054354259457, 0.14895239911227093, 1.0856304696091814, 0.15809455689127144, -0.2753296224884812, -0.5062722536585784, 0.14587349905539027, -0.4192494544965772, -1.6199618497952883, 1.3380313648233515, 0.16038888061200085, 0.8019952078910847, 0.7794192514331629, -0.929345896266006, 1.6058280991684573, -0.318647214249384, 0.37223371370871833, -0.1316637588817888, 0.11686223692556727, -0.44751352484590096, -2.8024313303668595, 0.628848107473173, 0.6592261899624208, -0.19960502329781302, 1.0935859269744068, 0.3308240583560929, 2.053631115248344, 0.7459604645437568, -1.3072441368201106, 0.6368594396505617, 2.7107474770013966, -0.01637355243563367, 0.3185026545536669, 1.3800562422916918, -0.2554375181729375, -1.571780814941308, 0.8615709492972998, 0.5975769707834984, 1.5163576520530213, -0.6714840801942206, -0.17095524564965536, -0.6408410028733404, -0.7883420463719438, -1.2580807378975458, 2.0283170196816096, -0.19053888525173027, -1.6155744098943978, 0.8668499005375503, 0.1297466570562443, 0.04845636714831463, 1.8079126807128723, 0.1578881936945905, 0.679980465963466, -1.068406676115215, 0.7915871467026385, -1.0342462775710635, 0.8982832745389735, -1.130322570406054, 0.4451370418780868, 0.6502888963247216, -0.5524014526763076, -1.2755027666813403, -1.6367715431204437, -1.924300146297966, -0.36028563195294955, 1.0161197364488257, -1.4995502532591893, -1.98969908583679, -2.1834680337113275, -0.14950316701704763, -0.6865949685110048, 0.3432629399776914, -1.1798607496207059, -1.3416232961529224, 0.45633066842998055, 1.4693758053264048, 0.2860177030295464, -0.2763356785550201, 0.254675467215033, 1.7094968642877297, 0.4659160568655447, -0.44706296362912223, 0.06980898532725598, 0.1740095005660905, -1.372105930299441, -0.6198396754283375, 1.2155184370370735, 0.5819789388964287, 2.162661472158151, 1.506174951865296, 0.08608275159745533, -0.7175514202156548, -0.9237765729167114, 0.5158745418393248, -0.5579048417704869, 1.6660618003597252, 0.3780310607046911, 0.3627321593344648, -1.8659594227597647, -0.8191910420943047, 0.9235033139121641, 0.31653544538489403, -0.49680881707357616, -0.548899105747506, 1.3636754522478438, 0.7891535365567652, 0.936819746942427, -0.8803823662488012, 0.7214542631308226, 0.18012208934193058, -1.622320078565559, 1.3332032825467233, 0.05738251712854218, -0.16524497156939438, 1.0159650396410138, 0.4206622714864543, -0.025148238622238184, -2.040409465774693, -0.7283431327415897, 0.5688335457260124, 1.5124441417463554, 0.8756592726850431, -0.28620157781860245, 1.5826900998346092, 0.4943743409734342, -1.4228890973167347, -0.40286098501027173, 1.6101983811619562, -0.7582985014370981, 0.5189190519179567, 1.2883424498994318, -1.0973846871997872, 0.9745092869431891, -0.8354869984146689, -1.0119394192244002, 0.29158115647931643, 1.0783132661596102, 0.16378587036850661, 0.18474258611418246, -0.015388796180995002, -0.46004766279871845, 0.8238564596491186, -0.7763044572065396, -0.9289585902413837, -0.4540798881752183, -0.6909348802175378, -0.9570698485346316, 1.1257055497270825, 0.6366495877258156, -0.24035909244985634, 1.8758147030734205, -0.6027933044790627, 1.3833961394075651, -0.04371446863567885, -0.38563617213906376, 1.342605374705684, -1.3874745626699965, -0.07785265533702272, 1.0294758767213261, 0.2539214001928123, 0.2801014914493723, 0.9864524488373498, 0.7890484768549717, -0.500931136174692, 0.09345336747595011, -1.0287735854886182, 1.7473460546072055, -0.5156983956120786, 0.228198220700602, -0.6907390130488152, 0.21032919609183567, -0.40912601732436193, 0.5882503908364676, 0.192892554406197, -0.031169994998006198, 0.3934805825465725, -0.3686107457435446, -1.477115537717871, 1.014881334044858, 0.08924488935490134, 0.6569851835940536, -0.23473890483511217, -1.120284454714046, 0.05769763466590989, 0.5044344407921701, -2.0325629592102668, 0.899183247747515, 0.12629497341647014, -0.9429358904545992, -0.08780354550854867, 1.665839391186435, 0.7501918419577316, 0.02449098461250649, 1.4765044502498483, -1.3987311186520182, 0.48583442427855916, 0.21653104571222356, -1.1642551438252935, 1.256833147814333, -0.5780780495156602, -1.0630204273389625, -0.018787136084120897, 0.7987805019022647, 1.7620698391164313, 0.2878990823559636, 0.3719339077513513, -0.12677409557511618, -0.32163716057489566, -0.6593382034766962, 1.1766200698464138, 0.030393325403226257, 0.12261148941536885, -0.4252152786884208, 1.106325200872971, 1.5916774206654576, 1.563664164750226, 0.3834126237380418, -0.8137563135895187, 1.0105505191122623, 0.6315953051528519, 0.1970138940216787, -2.0333419427821773, 1.0563820562298325, -1.063592534600497, 0.40124328782785, -0.21106355391857126, 0.6215278393951733, -0.9654380387858326, 0.21708483217553606, -2.068059499458285, 0.36561505986326304, -0.15659287919345208, 0.8803122178561182, 0.4788661168961367, -0.920973294060151, 1.4682804273477172, -0.3514868828068093, -0.6597968425530764, -1.5137993499246376, -1.8598530998811873, -2.258310949958214, -0.3379001098066354, -0.8119799824919637, -1.5379518581842972, -1.3539983995801947, 0.5694960657366668, 0.9129285042886379, -1.8230326006296587, 0.3613161077370679, -2.241534382170144, 0.54144485628758, 0.2884395289571611, 0.4975926939376738, 2.6468034633356194, -0.7318969946127497, -0.18146991596039033, 0.3904044983473401, -1.9835310032977327, 0.6803072038069421, -0.3938614270050097, 0.6704482906416462, -0.1546284223633362, 0.03950846439362937, -0.8425943446062336, -0.033881566003215485, -0.1099493896571188, -1.3002340145272047, 0.7453353942443438, 0.09308154376008444, 0.2687026661777566, 0.7177901229017848, 1.2066151250186996, -0.33271188679319647, 1.0261316725993541, -1.85314212379053, 1.320186771415661, 0.9434229050234859, -0.02202511814000386, 0.6934778048218733, 1.5310587981552417, -1.6818100146926354, 0.6135528319521909, -0.10903004721186367, -0.36964717449176854, 0.8219809802946012, -1.2914917118572022, -0.5477231620173592, 0.43637341015271197, 0.9396134945721699, -0.06292790869496237, 1.7763026386548342, -0.6247355299146895, 0.9340125527623743, 1.6828703149514022, -0.937513825030443, -0.8790992193642183, 1.4537026512297195, 1.1184793701298177, -0.26877176862610874, 0.27148459243801526, 1.5045470537309915, -0.23998991887863305, 0.48461495731865456, -0.27570212319723386, -1.945663157623431, -0.36598125116066393, 1.5751171665058414, 1.3982551589568892, 1.0295332917666256, 0.17172490574628738, 1.492947716524298, 0.2637036272269153, -0.2594690020866575, 0.39806093140299526, -0.015156751189291521, 1.2197759368313206, 0.6640525805585845, 0.4901277398196865, 0.06777508440556686, 1.0194725459868255, -1.8534579693630873, 0.2474804007231782, -0.24087300062890563, -0.03666717041977812, -0.12111712696237975, 1.1496619819352352, 1.9326244454613102, -1.1590303266802056, 0.10021688223008608, 0.8509498013496961, -1.529795293828029, -1.2819144413237806, -1.8915400998369276, -1.1635510069340171, -0.07693340687792354, 0.6942434902762664, 0.5643584842732939, 1.773620958142147, -0.9638196539984999, -0.889886350197201, 0.07082842367933144, 0.2510647429327965, 0.10080890373483672, 0.3826608543410086, -0.4912069654411851, 0.1208867838010853, -0.08183396122740422, -0.5877419336832302, -0.28765489496645835, 1.035290684107151, 1.5827964404963164, -0.45054421390120175, -0.4372915712895122, -0.11162906659920022, 0.05454954180918468, -0.3609835151410284, 0.9061032899066803, 0.48347298846025427, 1.8969020236291199, -0.1898738952017487, -0.6983314233244918, -1.1282992843290065, 0.45076627450387396, 0.118698873517249, 0.9786869535703079, 1.0813099964915789, 0.3999467833084238, -1.6622350713733645, -0.9157987988366482, -0.7739289935370327, -0.47704677918424804, 0.1902230993773989, -0.0074881662134043845, 0.8550998753351827, 0.10646372444917723, -1.5774417510833636, 0.9667506107365242, -0.1599855626890132, -0.6667782771825609, -1.6484211768420287, -1.7336293061103618, 0.4601675862363234, 0.8552858136779392, -0.2592801940508719, -0.45238792201444433, -1.8655628246525127, -0.17534773312896687, -0.13511459526646388, 0.6149387552369572, -0.9195268399176987, -0.413093502030728, 0.3548834899821284, -0.34138779150322957, 0.8576330072199178, -0.22069201252968856, 0.7399206329636727, 0.2924716233629902, 0.5109878124536442, -0.3128221354890803, 0.13502302046937126, -2.258879775392691, 0.33778868710852283, -0.7664109035467019, 0.39191361726364116, 1.4694651346699241, -2.371443041303648, 0.13912004979792933, -1.4633895794244394, 1.327496563320702, -0.9509036921190972, 0.221268336236313, 1.3804371952140035, 0.20337790213956977, -2.0624391239490008, -0.14098457947446882, 0.06562907202889928, -0.6431143838458973, -0.17602729090290667, -0.04830429765043467, -0.1893649572945576, 1.3935285931048949, 1.0042627718579642, -0.6673418184387887, 0.38972517064410245, 1.0456464615195435, -1.1084461111210213, 0.9111487105174014, 0.2292756644077654, -1.6120839528390125, -0.8009458722164546, 2.378878691900159, -0.4918539938000515, 1.7754612126398475, -0.45595168069375835, 1.6775454468369178, 1.9017055700574423, 0.08090244428733055, -1.7373147084878684, 0.0339788207653843, 1.7220396667126943, -0.39920785080931487, 0.623505872603419, -0.9304484697585385, 1.3238154892755756, -0.33011540306516096, 0.868651634817575, 1.4962037543826427, -0.19737013915545704, -0.5548972942595327, 0.946587641862128, 0.9011575582736319, -1.2164629900885626, -1.2812929188099837, -0.5440822216951405, -0.9108581282732697, -1.185924797824362, -1.3421044382450358, -0.07343914891366392, -0.8681258935933415, 2.028737063220763, -1.2789862853771232, 1.2427760242193848, 2.3334101388340245, -0.2666476592903653, -0.2755395929642194, 0.8219714795914314, 1.257582246732448, 0.2488845701758715, -0.04694823996070056, -0.5665722161354737, 0.27365978322072104, 0.6762300573964407, 0.020676036908126583, -0.5931205099945542, 1.3928318009222491, 0.36638859703347976, 0.1792136133569974, 2.328760409205135, 0.11144689927094384, 0.8430021673757093, -0.29734123767728615, -0.1178002155514172, -0.1525742852469431, 0.5676719365844124, -0.5698628225578167, -0.16119830111887148, -0.22372426542369836, -0.7226473484447333, -0.8581998531526382, 0.3116115275270784, -1.3712543102870518, -0.18269823543067787, 1.3598109360135444, 0.18890330694288454, -1.2132446729902195, 0.8199292648788068, -0.26453857295829114, -0.11634717144034311, -2.117054157175066, -0.35137279536068156, 0.6676180060128851, 1.8720385340802759, 0.7753172048158276, 0.2501290753566606, -0.049414403087021344, -0.1625330188601033, -0.48794095481782157, -0.07551158545053231, -1.7082614048793974, 0.2262245812828642, 1.7908687716441463, -0.23058957120143783, 0.4436725478446845, 0.06049760363858697, -0.9912403903220182, 0.16063952211686278, -0.3898235525746511, 0.5314229695235212, -1.4041321413167203, -0.8781702264302435, -1.0107045936478698, -0.6580905641725989, -0.40101674920532165, 1.4739727629279873, 0.5058467791169459, 1.2404077624457344, 0.14996756918893533, 0.7023241501089281, 0.6465361559368622, 0.13495637626356283, 1.0347502610949368, 2.645491716766987, -1.3288700697935751, 0.6584694805832212, 0.6378103915164939, 0.67964493715416, -3.3901299538968237, -0.518184738673406, 1.1101486249271046, -0.1369402230562337, 0.6427702942065001, -0.2618525714928056, 1.0005718420048513, -0.3957203830766588, -0.19706297606088094, -0.24797146984828017, -0.1376690111486595, 0.41424997420972504, -1.7023797711286097, 1.521182574267791, -1.0658395692538385, -0.32216383436107615, 1.3646909290295919, 0.8892373164791587, -2.1419212805685994, 0.5405066228428151, 0.5640673951174378, 0.11958715427981538, 0.3630905762752348, 0.09322747022285148, 0.21729358744168617, -1.247991180555775, -0.24636091266243493, 0.7254507286368619, -0.569363990831611, 0.7999007970016716, 1.4704041851557281, 2.2319256206492746, -0.9921658030148168, 0.6408945217882599, -1.3876266666638926, 0.3455819574528509, -0.5972855465000592, 1.443091505004734, 0.2990833643259016, 1.9254151974311613, -0.2967156165593556, 0.8322283779618408, -0.5946669093796639, -0.005278479247497505, -0.13903802154020928, -0.5479976971185757, -0.977470519533189, 0.861501827730285, -0.9251178351876782, -0.2643238027524977, 0.3162777981706618, 0.29263136606751555, -0.815755857216714, -1.2319002852137622, 0.8875421136980347, -1.9145989842729358, -1.1747644077742185, -0.48445786255011514, 2.8407348363608578, -0.8903474301374114, 1.2168759789401544, 0.5134861900142121, 1.522116460870664, -1.0686028455211292, -0.8231714686156424, 0.12952701001759961, 0.33728728271049957, 0.38065420480691875, 0.798596511144339, -0.6448879608419866, -0.20428988381409666, 1.3370065355383964, 1.1599198842616152, 0.24803046363010087, -0.5781404188571023, 0.7613884463516092, -1.1253020000376437, 0.5255365881151122, 1.125996514064561, 0.03267051668303776, -1.146460998474309, -1.0514265634145636, -1.6058747315068602, 2.520553040467193, -0.11356805041777415, -0.35841353224363404, 0.30811919394173354, 1.1163906345127137, 0.04230393922104197, 0.9274288990155417, 0.5427059149599481, 1.6510002270884634, 1.8174829536921497, -0.36005730905396605, -0.1367740208937617, 0.7256696437558868, 1.1453328765930244, -0.9346386845970183, -0.7589306290019482, 1.421046791596538, -1.0470746506149562, 0.2435974018604763, -0.2926365793629389, 1.2756341570057756, 0.8456505002046889, -0.5475486557136174, 0.12146787354546351, 0.6244910292270386, 0.8351783438090791, 0.46333030864961844, 1.5037141694025877, -0.5553505712177705, -0.5065446871266189, 0.8685038285346072, -0.15065106255991403, -1.7335801888543125, 0.21380494105654915, -1.1836680533466943, -0.09994208810356474, -0.4046196888766359, -1.0209931074977, -0.9133650316813952, 0.6618404214949724, 0.5558501815102969, -1.048271380886782, -0.627628539480189, 0.9817219163870433, 0.8046584737594262, 0.2340525253438047, -2.368835110328071, 0.9524767838307605, -0.05775885140098658, 0.8483739435209872, -0.8406433934769068, 1.1886922326618237, -1.239922779619193, 0.4326027737238636, -0.32218124474800025, 0.20268479720418836, -1.1907552322161623, -0.6031652887607425, 1.7270333561325664, 0.396481158060269, -1.0878273615182137, -1.1039990382817846, 0.23293571393695744, -1.0287481563935303, 0.3924176213081067, 1.1816260374980991, -1.1471394482111419, 0.32384620504215106, -0.7456810648890553, 0.679701033528523, 0.7186199802715659, 0.5303604513725116, -1.8785819537466655, -0.0815576848680449, 0.15602318776847396, 1.2933383863652141, -0.45420115221467977, 0.9045025555947706, -2.8195814337812943, 0.1123732650592068, -1.5614944931759438, -0.3632141290651825, 1.1476728434255155, 0.729906499411977, -0.09428781176011473, 1.167242846892434, -0.8152563652318013, -1.2329189405229848, -1.8256745674609876, 2.306266681347044, 0.63561909703487, 0.6571373612424766, -1.5956542719123916, 0.012762855140515816, 0.2374974037561763, -0.21291232612496902, 0.4154401673312518, 0.41897770974316617, 2.0075765405609443, 1.2109537874918503, -1.615599647369491, -0.6978989499980669, -0.5238118951878815, 0.7132512575512541, -0.17288185446594279, 0.10041944550575936, 0.49221476450112756, 0.1537567109579145, -0.900703874440214, -0.5685896051055027, -0.970297325606159, -0.3055414891710515, -0.3019559755621848, 1.1857813311898293, 0.6294379799968491, 0.9010343167379743, 0.04517688834488742, 0.00588540806780536, 0.578810508291826, 0.33233208556967186, 0.8173507704448899, 1.3726939445423674, -1.1332670994448737, -0.07084826344128536, 0.6298705756720152, 1.734839313249198, -1.4738651008875943, -1.9956310995220568, -0.29137432278855235, -0.28732882460853354, -1.0364066510384542, -0.28815664904256955, 0.40703931580113295, -0.4184134118082515, 1.4361016128560202, -0.5024299911965876, 0.01010743510286042, -3.068527111193525, 1.3389869279837234, 0.8454819742420644, -0.6087135480738458, 0.7693084425588633, -1.2906518244376624, 0.4206366398348043, 0.6011000051286587, -0.254207143557638, 0.2599341601664329, 0.15601686489672806, 1.5544435248943265, 0.6831429153543905, -0.5749490875334892, -1.4658926228455202, 0.5426525628646091, -1.534311232037429, -0.722174183748516, -0.3319707889173043, -0.8831611726419272, -1.5694265223870267, 0.28559415214311196, 1.0854806754617818, -0.18364694435565285, 1.9477544635686115, 0.4745764012488759, -1.9774951228068043, -0.46320000119195115, -0.25996412685522574, 0.43580637572827763, 0.6737562032072232, 0.7039133797685343, -0.3865718519388743, -0.010439659444276496, 0.5426700047221384, 0.10958162006380362, 2.305690825533568, 0.15713038955913028, 0.5443547158848926, -2.1821512946480746, 0.9434686344319912, -1.8239011961848561, 0.9887110695770573, -1.9604585139177673, -0.45768825797211754, 0.503027705603952, 0.8409330724964259, 1.0251832938128973, 1.1281746351968618, 0.8841725428799261, -1.8201411516158041, -0.604730044210854, -1.2384920911894182, -0.6109363726560669, -0.6958614682528484, -0.7585364241893257, 0.3972738414470421, -0.1580456860772832, 0.5472383973184674, -0.15370650332345653, 0.48672259165496795, -0.21394104062718916, 0.7785647540102204, 1.0303030015402814, 1.0712593800511199, 1.0151503727006541, 1.0920359079562103, -0.6025484660580576, -0.8273085839524995, -1.078080476135112, -0.5336002413592625, 0.7435123275296702, -1.5367688142826883, -0.6255665813248625, 0.9721649041208993, 0.13168863278746426, 0.6189835230739161, -1.3381636770107805, 1.0722861457602322, -1.939485330967539, -0.3181982310124637, -0.4294208938434698, 1.1795321170807591, -0.5075876081134751, -1.2947338025336117, -0.4311880906592254, -1.000021986017612, 0.6659565923673795, -0.8992313782803796, -0.2592442988111819, -0.19716122273463743, -0.9669374913295177, 0.2731318640159308, 0.014683908067946581, 0.24520007925467704, 0.5177377834851792, -0.8647374558040869, 1.6110579074844753, -1.6420798975639543, 1.3261379428013207, 1.3796279648359067, -0.1766822396987236, 0.5288106310569486, 0.21717266695204945, -0.1500366708237869, -1.283957425477546, -0.9834640642420519, 0.10647914780101965, -0.1451295578512927, -0.5548024179787515, 0.8572733887350763, 0.36265120996782335, -1.0362071139895828, -1.1399600211352705, -0.4795091823502566, 1.038437486458049, 0.49370344766816937, -1.110347358684896, -0.613419631706396, -1.0509057197319214, -1.1653465363114324, 0.3276545386805168, 0.7826453141175832, 0.5347157725689375, -0.41675731332522103, -1.2836977883844798, 1.5218278393451734, 0.9225791013514943, 0.029025074473447297, 1.1030451486120205, -0.6383742804175462, 0.34471014625763313, -0.7247223783472717, -0.3757596570490205, -1.5828778618051638, 0.16358868509732355, 0.21365385037959736, 0.1528879574036348, -0.9133464969136779, 0.5291731047508184, -1.2837776946690884, -1.336027967180374, -0.937870579695014, -0.9647687528627603, 0.5903318321954727, 0.3331469773316836, 0.49222367906050396, 0.39494795634531826, -2.9302110620097754, -1.0861604467922732, -0.5891235015272692, 0.17125403365241182, 0.23878746318161564, -1.3919095040992664, 0.44717627982988556, 1.102508364402837, -0.33046986902219777, 0.04600056721497024, 1.0157284224238947, -0.4933076218248706, 0.28969830035026933, -1.5160831852584002, -1.8001346012935653, -1.8315078437767436, -1.42937310773617, 2.2607927417199085, -1.0873996903756302, -0.6439903509185947, -0.6459048464527538, -0.5142743162269079, 0.20076526491153018, 0.2431672203210903, 0.03726086774386955, -0.32010802536619015, 1.5810968150660178, 0.36382552440878396, 2.452366131923098, -0.5820439538372313, 1.103365020900515, -0.656600498108175, 0.8208902288365474, 1.2356685128669782, -0.6312588457767264, 1.9503902432994153, -0.9140809308038993, 0.15590369703113843, 0.710221020875773, 0.05880626100083034, 0.05753571262574598, 1.4619676321103645, 1.2960232161497676, -0.48167662528366234, 0.7539406114756028, 0.7694845756348357, -1.1551882626348422, 2.4245740800833238, 0.6871191280116252, -0.7504016316154583, 0.13108108385739115, 0.6559640251561095, 0.4021657140547019, 0.44956423845255145, 1.462604436312598, -0.19276412124964368, 0.1383481048367646, -0.2577456997066146, 0.5718540407716343, 0.16803870605994675, 1.4862817315829564, 0.19681015997753976, 0.026229817026514547, -0.42422885348494943, -0.19773743495885734, 0.12315334373136128, 0.4633563172774945, 0.632066412009158, 0.4672693649032566, -0.40543434702983316, 2.0213167114002055, -0.12229917941888678, 1.0477779608167583, -0.7324519812991996, -0.7449498961867783, 0.008542818103114065, 0.22313422909057842, 0.2346587001277809, -0.4379260577490375, -1.0096118253927098, 0.9709102211463528, -0.35264587367203715, 1.7584436136493158, 0.18535019471222325, 0.14129910204595145, -0.2783758757565809, -1.0239057348324523, 1.9105633602532595, -1.9509752531911493, -1.634884518878315, -0.6764045577724671, -1.9899302638749383, -1.178432884691873, -0.21945468174408736, -0.6844245511068208, -0.49736718545065167, 0.39603189423705265, -0.16272335245451605, 0.17666427412252628, 0.4885996414793766, 0.9953479009164788, -0.3526183552312928, 0.33660594437144076, 0.028990075487770682, 1.1237058737776986, -0.42536247211985817, 0.46665859377621516, 0.0403451662863111, 0.6667427317676291, -0.9848390103683416, -1.3848597756457721, 0.6178984530668877, 0.30231544007212136, 1.4989443519095633, -1.009420233308314, 1.0627696918199163, -0.19191328552234352, 0.45177437430530165, 1.3457007563748302, -0.6241076964075237, -1.8456367946543575, 0.09207563322763612, -1.010821488066659, 0.02684404913755837, 1.4077520682526141, -0.3336689380464562, 0.35847018948332504, -1.8291165354307777, 0.021692024895327403, -0.4109239322841262, 0.24754551753374807, 1.0177239160087905, 0.31512408807497555, -0.335899472167537, -0.21569197902113543, -0.43544465503075813, 2.042771074857753, 0.7425758300563761, -0.8400094677649262, 0.6760961351346791, 0.30072831724784027, -1.166823219418528, 1.0655110283466744, -0.5849110461255983, 0.41630516151248986, 0.897026728293474, -1.2671694268185016, 0.4910875524454064, 0.02915176115164307, 1.579998713726531, 0.746484959381494, -1.1580811814726195, -0.6370950885895423, -0.5554091423302774, 0.17804929965997116, 0.6101098368128649, -0.17089218654349966, 0.5205264006064425, 0.17959219750358224, 1.6178640698523723, -1.5294952524794987, -0.3790100134387223, -0.8138605651338495, -0.5959816185518536, -0.2844052939394584, 1.8359979680103626, -0.3483385859886781, 0.7440157529183564, 0.375724997285145, -1.6470896707434424, -0.6277305405391448, 0.3464743151358792, -0.3015626220570313, -1.2080547232522272, 1.0250103144243887, -0.5084540089365639, 0.5583941645912912, 1.0611270158642365, 0.8105424398020112, 1.3329061854247324, -0.9777901605351231, -1.8263954069930404, -0.7008313848102962, 1.2535340342777257, -0.9499996915741439, 0.2472878362877685, 0.7658497990610262, -0.4196505251728324, 0.7081872056366526, 1.2318726644631006, 0.009536234885875286, 0.1999943089630865, 0.9573613486406389, 0.5860681182725186, -0.959216945422702, -1.0699685115263817, -0.14547099471586064, 0.2840779281751374, 0.07604048449710708, 1.5500504770158194, -0.22988931500276796, -0.5677015857017372, 0.11756886381553999, -0.0690798361332754, 0.468840159045564, -0.7159006616823815, 0.04977171837601873, -0.21444925187181876, 0.6063254144330509, 2.877670575807089, -2.2639717307969067, 0.8296997621432498, 0.4441974960632434, -0.03299640343002422, 1.0226577644268515, -0.0034944180506011405, -0.40471598412918186, -0.4654967813421025, -0.8619797477880665, -0.04051980880363924, 0.04683350310668322, -0.8147406228459473, -2.1623138056741618, 0.5216255927378782, -1.2199019909329545, -1.2722096826159475, 2.204119995101528, 1.1850200329070026, -0.46568339800511305, -0.5699833840357996, -0.5343547579266775, -0.6713549333482591, 1.378416040147119, 0.168716793807382, 0.43698501797665795, 0.30227079547893776, 0.048378611228564544, -1.034410669306056, 0.38884603199611945, 0.4829824718597116, 1.6016911424070044, -0.5426538628750615, 1.0717820659567652, 0.688656384454482], [-0.37910079398072605, -0.6837956617060792, -0.250687531349741, -1.8708890272003265, -1.4746315708638005, 0.7792779441839924, 0.5493514783482145, -0.16626248565280743, -0.0691547039661445, 0.570915996772406, -0.12994475501330127, -0.12458061320700653, 0.5390880067615405, -0.20392264201449958, 0.07718656119292752, -0.4405792184102905, -0.4242450268081524, -1.3156777533891886, -0.3135674993057478, 0.32794148207950663, -0.14979787361735056, 0.10758112615687081, -0.04365137581496165, 0.21684930613253225, -0.5104623471454973, -1.425578688551747, -0.30227207057228217, 0.2825751770040186, 0.6205433091708501, 1.2116639312435253, 1.041372399694293, 0.3460353865444395, 0.46370263892804187, 1.1224861455115096, -0.3299437387339213, 0.4428433073915937, 0.9231479252265611, -0.4573510116276295, 0.6676954252668833, 0.5591629959456945, -0.9763545495610507, 0.2796205438181879, -0.6609550188849211, 0.8919902923261306, -0.29505230431219975, 0.08899737658033277, 1.0242664225192457, 1.6362803064094604, 1.0829962961381874, 1.5590289470408107, 0.5442831898059107, 0.18166948107134454, -2.5442347039336326, -0.6438045772437156, -0.2611061625813653, 0.20649218031193986, 0.5557336597280835, 1.3433130090907899, -0.3111687818188551, -1.7376227310020296, -1.3383355139787092, -0.9077605590115168, 1.201989064740973, -1.2621821857806073, 0.9797733719245698, -1.644681219181154, 0.500491569719328, -0.5210517910999504, 0.2943037074012681, -1.7866321036265236, 0.20482019955839284, -0.14817036427415503, 0.4559475435658518, 0.3874298260808712, -1.0385321933206502, -0.9160520309043485, 0.5010394172734279, 1.4693672533234425, 1.1546153520846292, -0.9198744009979025, -0.4498083994586401, 0.3290690373049763, 0.048068653258305956, -0.9462353596615843, -0.6906511598636976, 0.8981526348359223, 1.0525363461834776, 0.9301292122179183, 0.3472080366430787, -0.5650307693954703, -0.27650987946640515, -0.7250770635911424, -2.4441459966898167, 0.31571649985950834, 0.7723297502805306, -0.0720948245774602, -0.5802401278191239, 0.4292525108142669, -0.6228145990204844, 0.8745441727981235, -0.5528075238853097, -1.4150072720579883, 0.07196085550804646, 0.623037324744508, -0.3379456972062609, -0.24183677283337823, 1.1342252546071994, 0.6074875552738369, -1.4125944843549036, 0.2939443265033445, -0.9461924550947586, 0.1330134662869548, 1.2000091312406027, 0.7269277285904567, -1.593283354223935, -1.6607821245955303, 2.032287720686541, 0.16351127768841706, -0.038278511940542874, -0.6099208814221501, -0.24813066872154788, -0.11589466925164443, -0.10979351676837212, -2.584077861006802, -0.31035442778623346, 0.08389776270382644, -0.15301171510253042, 0.6245407459576983, 0.11470539977753669, 0.6925361194917756, -0.07658044861433265, -0.8416739050276805, 0.7122773631222226, -0.6938731951565068, -1.8878094876273657, -0.735335970112252, 1.8455704838404834, -0.5595324944018665, 0.5237624717221117, -0.22019742795969383, 0.43160860299729265, 0.27591783913053214, 0.5863206479222062, 0.29397588212449854, 1.302221159149178, -1.4312051375466532, 0.5613798689214928, -1.2492557496204306, -2.5195941127913533, -0.7302766897862207, -0.573963779213879, 0.6304575053988453, -0.4894022092131423, 0.11091113470520063, 1.6546652632562806, -1.128380708567197, -1.2771078426490658, -0.39214000443224295, -0.5015923432047018, -0.7267415816534248, -1.4960072954918728, 0.2537011226031789, -1.3039668535859146, 0.14897209294753844, -0.18106243994867413, -0.5848075777054697, 0.1570626415517704, -0.7980191636230227, -0.722123836805401, 0.1446048940888791, 2.294757203420972, 0.548952074059932, -0.6007819757379181, 1.462211498844866, -0.7345595480810455, -0.06379190996708888, 1.2781313908448706, 1.5065345756399975, -0.5792732557625051, 0.4262451436225252, -0.9559535663564513, -0.8875971422111198, 0.456902398502384, 0.16938051578119884, -5.826927701466089e-05, 0.011354930389401649, -0.8220255486400453, -0.04172152004215895, -0.2347017790951183, -0.10153338700949756, 0.0461811592751597, -0.7194831079448561, 1.145156758335964, -1.8231108803647034, -1.4342474800615292, 1.11762119967103, 1.0501532056860887, 0.9607119925104168, -1.0585732430785249, 0.604025573833227, -0.23490708722513876, 0.6801828527637989, -1.2361716760792123, 0.6459927912810636, -2.64233223775948, 1.5091641853137403, -1.0689753795779895, 2.843788472089437, -1.0502745410878058, -0.12589501831210875, 0.19620399222594004, -0.8212417326117595, -0.6268492978182002, 0.9367883144246153, 0.6463241685041483, -0.4284578744078374, 1.4056964759552755, 0.34714585842064505, 1.6032120714804132, -0.7816990298860949, 0.706489373939946, -0.36107321969792305, 1.0834466551452484, 1.556323644957782, -0.3121424761887356, -0.2656903903839467, 0.3085883716057978, -1.3541792713638152, -2.4718642306742176, -0.5285406481303245, 0.24220805379289395, -0.18542062224850805, 0.12762411326706627, -0.022583744663213702, -0.9392398968125015, -1.6166751532995063, 0.32412892061181814, -1.0202568751540098, 1.0926683560889359, 0.21727306385112466, 1.1306147316710247, 1.4366978776111892, -0.643918250318816, 0.4023256779237402, 1.0924019632418425, 0.544844099048563, -0.9660201286129986, 0.8455804262866748, -0.4941837689596119, -0.07345396537721527, 0.22271805527065333, 0.684196224386082, 0.5193081249648032, -0.2953355961842752, 0.5744832674709003, 0.9535121190454571, -0.30002840805550707, 0.3854049451216165, -1.0610367009576815, 0.7071186217835921, 1.1638522943914675, -0.600759650804459, 0.4667696879019948, -0.273433681622156, -1.66102434235028, -0.6683135690794151, 1.1991707288659474, 0.4548228546577185, -0.6427945187753488, -1.6702535310265014, -1.7136348162240158, -0.6886431691713414, 0.15038420050733736, -0.8726983021771643, -1.273151554356769, -0.8344034264401706, 0.7038102842771533, 1.313755172502819, -0.37198241528570447, -0.5975101599288704, -0.5179885680358056, -1.3077261203943724, -0.11322500337116408, -0.8060009345265592, -0.9362812760027317, 0.7318611901911256, 0.5357937384393834, -1.583800579387559, -0.23490484589913949, -0.15821821086353582, 0.45178404713033105, 0.33123859313837395, 0.7235678699280056, 1.3585746161582692, 0.04430053731896853, -0.7573669639216826, -0.28598897985313426, -0.38710795526579783, -0.006807540644178222, 0.561451138260932, -1.3790676780649151, 0.8703248563301573, 1.132808164243963, -1.4090688838271999, -0.12260733486594881, -0.3323182053725727, 0.5674649964045307, 0.05502944644390068, 1.723064699860886, -0.6855820781943112, -0.9463175235475778, 0.14514165381028538, 0.6432421924456762, -2.120930475410222, 0.8176777698583478, 0.24241108323819366, 0.32322508007078504, 0.9630658203453166, 1.1330874709714946, 0.6549348055868237, 2.571714853868032, -0.42052037235798967, -0.35364312147771776, 0.41129708987134134, 0.30591956827137656, 1.2515650856934413, -0.029991472163353336, 0.9702075961765446, -0.3537529543357098, -1.8359431766353353, 0.29049289748657137, -0.6130962530810322, 0.6459087486009095, 0.2325554532537108, 0.44936240817898415, -0.022906920377816005, 0.9451187579577004, -0.5615551084042791, 1.195489537916104, 0.33936189747934886, -0.4445513973336872, 1.7597145040550184, 1.4795924968974463, -0.23777412740492693, -0.40661384428102043, -0.7632445875173063, -0.48102168839564985, -0.47350106847850304, 1.2323645402666277, -0.03355937747149123, -0.3125274190754424, 1.3827809831635562, -0.6936499689121901, -0.6658583491891785, 0.7732180019175721, -0.22185346458154268, -0.1450378862646629, 2.0216107053362795, 0.7952738700444448, 1.5469670393173516, -1.521012845595338, -0.725081646762712, 0.2385123172310366, 0.7075470087320572, 0.8083728028680053, 0.39482544257769825, 0.4867004067964217, -0.5389751111035167, -0.9582029369689434, -0.6614321449512242, -0.8338383531659247, -0.4059732514967043, 0.13396517642564545, 0.6138433121560243, 1.599769848318831, 0.34782136028959004, -1.0017488895471163, 1.2274323825182356, -2.1844133436218462, 0.7272331011308476, -0.7058593082286828, 2.2203401737204707, 0.3683646354973418, 0.12009141952254437, -1.656907702240143, -1.113080122208346, 0.4922852204139663, 0.05890707159731315, -0.36557679250638253, -0.9002069936664486, -0.5355876170504119, -2.4384160855477566, -0.4875223187507046, 0.7317661568593222, 1.3219450008617215, 0.2549790052450999, -0.02083721871189896, -0.6784364510580326, 0.567487308209885, -1.1703427477196668, 0.9249807490264286, -1.0459203295897666, 1.603877263398392, -0.13909020762406607, 0.6801351373828133, -1.230857632269387, 1.0545876040584479, 1.67446838508892, 0.9361332886006584, 0.762223117085391, 0.01836984271355778, 0.19704020902268576, 1.9541950615596648, -0.8856274131911387, -2.277430229819349, 0.17984949390385135, -0.3212279510494334, 1.5684934300571673, 0.9541622031489172, 0.6014104625969182, -1.3466745572942984, -0.4476189298892074, 0.24945310213065988, -0.7910568278232024, 0.02860126395257468, -0.6277336696760435, -0.3306586231117399, -1.267032458034387, 0.36874406468791543, 1.0945489489428433, 1.159000973534311, -0.948806597778793, -0.9816732339276353, -1.316248469571154, -1.232895374073117, 0.33348453174408865, 2.078412454070209, -0.5795429655761474, 1.6814359187442696, 0.08871738921954206, -0.4671887878300117, 1.2450526316038482, 0.29806928125529375, -0.20123821002685655, -0.2510742524176182, 1.5068027796181465, -0.02929888597059587, 1.0468235326838669, 1.227881327206867, -0.4558224773777818, 0.8892535951643911, 0.8024969420820814, 0.9374361220032663, -0.8971052317543745, -2.1652085260893705, -0.816922200855568, 0.0445242774150181, -2.2173337847729737, 1.2906624205473327, 0.8202404851625846, -0.3544122415197984, 1.1186270032833632, -2.3187320643796703, -0.3617418474613777, 0.7337889009620295, -0.6141720379123952, 0.9284930087780748, 0.9032717827919451, -1.2722323763891457, 0.8065355899454059, -0.45375560721696184, -0.3893638669860613, -0.09327793214851174, -0.5627206306152926, -0.7020090918370839, 0.4968283808311594, 0.5527046709657337, 0.13452248227840066, 1.2745371195319324, 0.5998027493701954, -1.2380743521737814, 0.47103065111649994, -1.0160301447790416, 0.21387415567266624, 1.1690077974366777, -1.2153450255467795, 0.9835227288641019, -1.756339161787243, -0.5175679292137091, -0.5915481860497683, 0.30811398534637136, -0.27791693923457855, -0.8129231970947677, -0.25230467155966113, 0.459172552639692, -0.2169487443913645, 1.3733121316344212, 0.2523358904494093, -2.968359289232356, -0.8416683071833467, -1.027231195671481, 0.7900093450329059, 1.3992744601860587, 0.2984499007771752, 2.857027328461394, 0.2991805579983949, -0.689640880428231, -1.604331262028309, 0.949595680554428, -1.2400290382555181, -0.4141533912777948, 0.6536142563688168, -0.7120526689130195, -0.16432780682202736, -0.26160280049413087, -1.018194363654185, 0.2410615783752932, 1.0241046350245917, -0.24622311996011784, 2.2618068676264493, -0.41423946692329255, -0.46016123648750207, 0.5660751564550759, 0.2815439644977935, -0.7038047393309113, -0.22107854128560273, 0.7959706234584487, 0.7361055546284943, 0.1266832506348235, -1.3788150769710408, 0.6780787947290097, -0.6153836872510845, -1.321720857628031, 0.144390818344788, -1.7350836845503834, -1.3874368444198453, 1.906031639168765, -0.5607957214211436, 0.537532295231257, 0.04005309561131399, 0.18373941246134512, 0.10235128046347255, -0.19789957692946109, 0.20475364987387437, 0.8012955724342312, 0.7938353109270705, -2.5146679271628476, -0.3474209083090829, 1.0024694126235418, -0.364581875998621, 0.37861599793457107, -0.13440897642098362, 0.4063242279310021, 0.003524616743861241, -0.23792560005153235, -0.1498718840691552, 0.9282178138703062, 0.575306598515219, -0.11326304289959235, -1.6381572794532406, -0.18730752519538874, -0.7819872666611071, 1.1473652033406474, 0.8043174848843319, -0.6460746379179885, -1.3464673314296907, 1.7306877517236652, 1.6649955757076458, 0.028025283522436897, 1.6663182441962967, -0.396485446101562, 0.22873785066560834, -0.09544820598370592, -1.8025351923093316, -0.664027080450253, -0.5605681084199975, 0.8326560021348876, 0.18264463700142433, -1.2560951865442673, 0.5833955509734745, 1.636971555255616, -2.2406391654640165, 0.3965925737206368, -0.7760137660439578, 0.1483553922410225, 0.5183428488735061, 1.0159210155622593, 0.41726698950269914, 0.28147925009289965, -1.7189103174198568, -0.0825221789403393, -1.150963980208578, -0.5646017140089014, -0.3822288098454934, -0.9607433346859819, 1.7765355315307454, -0.3081986944276195, 0.23245086145258412, -1.5558720863766256, 0.7150272343175785, -1.2338538070225, -0.022948634377158765, -0.14430637507962385, -0.5484724195780503, -1.6790352680635083, -0.04207349148228339, 0.29280910786303144, -1.9389383992836058, -0.035743768791209184, 0.4596261836687626, -1.7157138920508992, 0.3216068364356673, 0.3307554439045665, -0.17532598668262578, -0.21814758192368586, -0.5275867464257505, -0.7092602269937738, -0.23148540797054407, 0.7412431986899579, -0.574797323510342, -1.146185606858876, 0.13076268608864194, -0.6641313505102473, -1.1747654536696401, -0.8809904411660503, 1.2362583716274071, -1.772535771011973, 1.2966885198600149, -1.5910744199770908, 0.8258802688004283, 0.822116359599101, 0.6362083791992419, 0.5970498434417655, 0.6606254886730153, 1.8163605151616113, 0.2318603975967356, -0.8164400307024351, -0.6339511784660774, 0.8251392755139914, -0.4288613049495065, -0.41004182159875135, -0.38167614679443457, -0.5638895202381832, 0.056443359925650485, -1.709304418003723, 0.07639659685207144, -0.45875078995799634, -1.29248122619953, -0.5926976605771046, 0.47766088327064327, -0.16076946449369384, 1.9600681152864765, 0.19797744690177616, 2.9314438090824955, 1.2937031560669947, 0.5896968553971715, 0.11991694815980522, 0.4120052587654721, -0.34129421905047647, 0.042581535477370494, -0.5544072409021349, -0.10999560718731655, 0.19095065206961942, -0.6539391902290703, 1.7390792125758547, 0.38548517187230663, 1.0575253118810441, -1.5411634539701193, -0.9588760345899977, 0.9688928792115489, -0.9363343743681357, -0.8089340981919976, 0.024532678721110743, 0.7948251434335353, 0.06151236344665291, 1.1320939625580375, -0.03352145577981, -0.9622659772919183, -0.7326218830176982, -1.2935661864326014, -0.5649372539236787, 1.3523590425046002, 0.6980176882105735, 1.280220194516898, 0.05326194976102856, -0.0016172907181129861, -1.4434453423196558, -0.18277199551721063, 0.053312250343935844, 1.484705115520987, 0.816739511670286, 0.22808079459764266, 0.273317732132224, -1.0362875143048096, 1.4252599972841453, -1.0222009933787854, 0.4594056202127269, -2.1795500329184243, -0.49063089054230197, 0.7866391754320028, 0.07997962633601761, 0.7028141639350883, 0.13765493345161234, 0.041102420398483205, -0.6908681432628712, 0.49580200540046626, 0.9709343841490106, 0.011140847450237912, -0.4851104451486229, -0.1874967752411718, 0.3658893844828041, 0.8462025159774494, -0.5929503467386879, -0.1905116223714547, -0.20708570867377127, -0.18485321312449343, -0.734114624160503, -0.9758695356993643, -0.08424366885694776, 0.5952947207288601, 0.12171373486407007, 1.5002089279304711, -0.007413907631256461, -0.5688726329931542, -0.27533462852046675, 0.16315173126899796, -0.8708902275231593, 0.9840895337576164, -0.22663318664962312, -0.06471128098427105, 0.4237504451236711, -1.1020604010083939, -0.18006742626163788, -0.7848168158207471, -0.8317121028228993, -0.3810795169050982, -0.2414168217075566, -0.4143946568438687, -0.5654009924859362, 1.2278916814337064, -0.12383949656808325, -0.027670456184735903, -0.21689274647505824, 0.9491805903507917, 0.639093880569153, -1.0411708477765267, -0.4311419092382855, -1.4500456044127685, -1.3020756471724857, 1.7415777389319806, -0.015998780724900755, 1.1760683080202157, -1.5250307604807374, -1.2493052975471328, -0.12927736256989095, -0.6611177209656718, -0.3135124060924387, -0.5799496682973447, -1.8824088128900271, -0.014924624009200301, -1.2130372071993891, -0.07944603891903497, 0.5973420633311031, 0.7528493222452446, 0.466147327529484, 0.5726315913233163, -0.25769521171173493, -0.34906878754568665, 0.7032262354224171, -0.06606799994780894, -0.13948988705639032, 0.5860155389218801, 0.8008915895768487, -0.497540690728307, -0.04318321841664859, 0.35632440269275967, -0.3971061928395287, 0.9618626295331012, 0.002666138659835355, 1.217288409636333, -0.15402360468110698, 0.43455178069723843, -0.16047487741994174, -0.17411931759853594, -0.9093534227459543, 1.2616949551379444, -0.6749356506650307, -0.534578333906766, 1.7448539183846268, -0.5255232072076971, 0.4209215689767454, -0.05920826087233563, -1.0777497887869572, -0.6226612944745729, -0.6134710725182582, 1.2028852872914002, 1.1686966171451065, 1.090441401072067, 1.0817704768793126, -2.5383585960733193, -0.20972674354267956, 0.9223748322645668, 1.3446477155324283, -1.4678235662031411, 0.3398411796897055, 2.0619541762724967, -0.4105537052428543, -0.6666875840499634, -0.25922887448760507, -0.26587127235114594, 0.6801631524395585, -0.21715591238849816, 1.2035145952000577, 0.7556287326689267, 0.9554659500824233, 0.48410235667874213, -0.16200554910924453, -0.07981681430990839, 0.3273670130594309, 0.38770620009668044, -0.47660156724647146, -0.41429467777528395, -0.3387823052657334, -0.4575989960030652, -1.284831553028294, 2.2023192947995027, -0.9689886766146877, 1.0652344156252767, -0.22266484777177126, 0.10467226862598755, -0.6584941551640906, -3.1029930781377315, -0.7513832486318737, -0.6775486135738581, 1.167824663147183, -0.3504104196199236, 1.217868384437438, 1.270074952016127, -1.6739301117943512, 0.07645404232110489, -0.6862312921748253, -0.37374158437657123, -0.97084098557909, 0.8430999529779457, -0.20264456516566232, 0.4234811759565062, -0.1277236541835677, -1.1289610065274986, -0.15189755480006262, 1.2752748127864257, -1.4300033271751456, 0.08177365470337283, 0.14150843900942206, 0.37349228694857456, -1.0162730922694128, -2.78749642563619, -1.7789881633782332, -1.6161983691098978, 1.5600589857276352, -0.9040690793575527, 0.4027748696414869, -0.1722182621976537, 1.2297675344232148, -1.0057555725771246, -0.20309712899794408, -0.6328028755038879, -1.485494892964147, -0.3552647301868212, 0.743669425478683, -0.3004059446681207, -0.3795861631889166, 0.5720049430502613, -0.2440678595630875, 1.1907180142362537, 0.621118009564333, -0.6567480687928859, 2.1204346613561875, 0.4369629284407691, -0.7562511798102807, -0.13594576793498772, 1.3063994716098088, -0.7839897904697773, -0.9143946958172174, 0.5067519092662663, -0.5590864794278112, 0.1670564019745503, 0.01408415643004439, 0.20019208081413076, -0.6349082263381016, 0.2795449219492416, -1.461569949127768, -0.4949315978404294, 0.3113981624556796, 0.93108094608726, 0.04049990756594214, -0.5982679674546526, -0.3840287575941969, 0.26681769864865146, -0.43540885455159184, -1.3102321547849058, 0.027236767708553954, 1.003803324972772, -1.0542769504979237, 1.317495021451256, -0.4214323074731795, -2.0896601070811656, -0.29061931708104355, -0.06817797522288577, -0.30658467412669765, 0.18618067436183236, 0.6457762324314719, 0.14513640889648405, 0.7113435928121298, 1.1002112025872068, -0.4420549012845397, 0.5187285545809912, 0.5141082711786344, -0.10186352546575894, 0.5833030035181109, -0.4307373871670941, 0.8792655606662376, 0.6074170874394832, -1.0526010303809228, -1.8126164843487909, -0.06824244852162471, -0.9845331853144633, -0.2547456387658607, -1.290038763089803, 0.9733523004885106, 0.46316539116617716, 0.32858456092610644, 0.13400784031449348, -0.3148266537593048, -0.8768108536672918, 0.8028861712891224, -0.7244119564420999, -1.0997946314200808, 0.4143651143349046, 0.035479899778339416, -0.7584854245025857, 0.30886774728903904, -1.1597908679339328, -0.38904884459164174, -1.8405074939372823, -0.13444691860395847, -0.13977257196733503, 0.2812364051027703, 0.3863774667033852, -0.9861970499146663, 0.763839975994578, -0.46508954222946597, -1.1095085840849097, 0.10004874289689875, 1.1116604789343882, 1.0332723375053416, 1.657975925035416, -0.031095974826245716, -1.6374556434776173, -0.954119243440399, 0.11473481155079124, -1.3864108922766145, -0.9863661004212979, -0.20138249215265785, 1.3251864278613457, 0.6814395367333701, 0.5532477744077295, 0.6235122362334483, 0.1780882675259787, -0.49280914541916976, -0.41019953236098744, -0.7494495473160552, -0.22864100616904154, -0.0457402883010046, -1.4910643991864367, 0.10564130701262914, -1.7332614291382207, -0.5943242724599941, 1.07879525029455, -0.4243889988886841, 0.24049243897485978, 0.30999447527469615, 0.8480246661158359, -0.44673868403112216, 0.20932091031956662, -1.6006392663446756, -2.2705363966843493, -0.3869541387456451, 0.2992727639435271, 0.21596332493852818, 1.4823418188082238, 1.3657607602860078, -1.2340236125192958, -0.815321804440015, -0.27210653902535104, -0.8156080941046724, -1.1648279644151207, 0.1422001688317371, 0.8369453688209901, -0.427240909957298, 1.655069508977306, -1.514069760210715, 1.0254764442404196, -0.7069619748996397, -0.43703583846083394, -0.788227875570906, 0.1867034670410685, -0.6900654324069609, -0.33605109992344434, 1.6022154741824581, 0.8460730237790498, -0.9492142450529325, 0.5843319447607312, 0.044652514044384445, 0.7574386774395482, -1.2816645270040827, 1.446272872394774, 0.5081319341352838, -1.066669227943559, -1.158816170810003, 0.4275962148942118, -0.8441920095130587, 1.7532144339205438, -0.01919903371527576, 1.053006553530227, -1.539606804794884, -0.11884325463878362, -0.1607112622877727, -0.254078530675356, -1.2094762721131644, 0.3683590916762825, -1.313758654688247, 1.3076219465664207, 1.6666193569236851, 1.6814063119523952, 0.03757179062419335, -0.1639376038624004, -0.0002283831906947642, 0.11416089313090001, 0.978383421928237, 0.5627489988247611, -0.252605646900874, 1.103127480008592, 0.23269431955548847, -1.7677723897494608, 0.5897311345702566, 0.9534555549597621, 0.3396322883643738, -0.25315869521955053, 0.3369172433355998, 2.2647795251753275, -0.7770079167008674, 0.6211431886001383, 2.068482938954185, 0.22410472362240644, 1.1142997976496136, -1.1735972975125732, -1.3725868740074356, 0.5184514095526055, 0.415729743896225, -1.6493091515838383, -0.52180110458412, -0.746570763932778, 1.2039325692183291, -0.9829926620828198, -0.5197872395577068, -0.5768618690062854, -0.12180071476384617, -0.6863046294067902, 2.2889502282343477, 0.6561895674882787, 0.5175898525177748, -0.7677685462409146, 0.743561937256393, 2.7385939657264036, 0.08196525150501993, 0.6004061833970292, -1.1416148666515873, 0.22569888134980898, -0.4414869106189559, -0.1658057658296067, 0.26931276125194065, 0.18279224688448004, 1.6019710474421123, -0.1555405211679542, 0.19477582330611523, -0.39277393050690124, -0.7214095720716974, -0.15215436242356042, 0.24001251510128663, 0.6083106508408179, -0.5571839528398427, 1.1518302182766929, -0.24686507433394753, 0.7314977724984326, -0.7869956284206678, 0.6552718054584844, 0.8046069350781533, 1.763760063618976, -1.6427238415602337, -0.45320123326418904, 0.6524354325284245, -0.795451411004914, 1.2866122072944381, 0.18621482895390468, -0.8747080515487256, -0.9326023603037491, -0.4450919853453317, 0.7185474858197631, -0.11532078177629952, -0.09233846717851472, -1.7730474072766724, -3.9164985545017275, 0.8672959007148985, 1.0170269620657066, 0.613006366238838, 0.31893005218779563, 0.7048949888181162, 0.545454656026669, 1.4631603251305978, -0.6017297657572019, -0.16268087353854377, -0.5067870446968533, -2.5740415020705436, -1.0708697908007903, 0.3950499026810029, 0.1256520073260799, -1.0844291175672867, -0.915677178431747, 0.943169261491822, -1.4868844954794636, -0.43952136365558997, -0.3726072747033647, -0.9697949750157334, -0.49803632772650097, 0.8761017808809144, -0.978623712137853, -1.2537360866010185, -0.48196281903217336, -0.036472037423207815, 0.6641072961880706, 0.5804635404904778, -0.18259034884726322, 0.20689576304491458, 0.3500044489042985, 1.0993396850581554, -0.28150853961289757, -0.05728366294282821, -0.1402809879449895, -0.20811573807429712, -0.22567698992406177, -1.105881517310745, -0.9538040101781435, 1.523903855590268, 1.6732697212465562, 0.620421654843686, -0.35427666123714796, -0.021648270687491197, 0.9511086829164256, -2.0975835500823963, -0.011961170277726212, -0.8854705209410396, 0.8218330741969109, -1.0784752161658835, 0.9455737444703999, 1.493575239818248, -0.34195364221332625, 0.11097978833950953, 0.046488033111812294, 0.048187780104005484, -0.7684590593589337, -0.9909604493513777, 0.31274623026842874, -0.42373000483299084, -0.8850614424533996, 1.4783963513082679, -0.04633056216969687, 0.25321940707567153, -0.002731747523252767, -2.1139518067986764, 0.9613688937760596, 0.46121728682216845, -0.7419333112587401, 0.5623971309902411, 0.403100434359682, -1.057560538698417, -0.24917775072060097, 0.46688748444285266, -1.6798584088687645, -0.823267796469781, -0.6357457985554955, -1.0670596722950036, 1.0056069682285422, -1.0007962579870364, -1.1210389666447558, 0.312204248263997, -0.9561283879744947, -0.27525878268593096, 1.1256947268493949, 1.5822209749079212, -0.39142977863733835], [-1.0561545051553012, -0.3473271207721612, -1.2318781169533153, -0.14383265693932562, 0.004805116151484399, -0.6810738801611617, 1.3395653731482695, 0.3711894250833951, -0.5206163086387843, 0.1529062155633192, -0.3364859463007383, -1.1533290341974016, -0.6873271482695607, 0.22320103540047856, -1.2448016636643808, 1.2522697576188608, -1.2019077276634749, -1.801411413469714, -0.19338063401952754, 0.1366225292093834, 1.6089713785971627, 0.0722476001642718, -1.0363882873375443, 0.5006124799284447, -0.17437029793996123, -0.23396512043691034, 0.9195514099170559, -1.5465405677610642, -0.9895525297058347, -0.18472144632650478, 1.4176365519761402, -2.0399585787837764, -0.05065252001648325, -1.4318130179096387, -0.6902346886837982, 0.1632721204771762, -0.2639461024372023, -0.7164926896863993, 1.0805389115490847, 1.0733228138166366, 0.022518605149778086, -0.21536518335298052, 0.8761974894879364, 0.21370164195678804, -1.4027205465335302, -0.31252979743194315, 1.5612639747654367, 1.5363693942592793, 1.8043840993939773, 0.6723404160846579, 0.029874892735179993, 2.4898848869691617, 2.3391195989745452, 0.6684712212461976, -1.1504684143505328, -0.5970382085382709, 0.7815908786464948, -0.3530822846720734, 0.6669888204234067, -0.3348651034007141, 1.3249782197924178, -1.0142822845927362, -0.9951126562580391, 0.10082395122539255, -1.1807657731111407, 2.8235182529281375, -1.5030791139232786, -0.46877242957706966, -0.9887289675134746, 1.181834992432294, 0.2016080161768635, -0.0688626059832161, -0.8924497053618423, 0.26464070758213987, 1.0928438251518888, 1.9680504190331511, -1.0153384648094737, 0.9585087801922404, 0.32075830220793794, 0.3375341235166805, -0.32066586260144636, -0.7739376178953266, -0.26590104320570757, -0.35750836718201745, -0.015134011019811905, 2.7158603544789215, 0.7787292768191372, -1.1707257623804121, 0.3906079861040018, 0.02516086505598133, -3.3798284945677697, -0.10291042952056623, -0.07270776172814714, -0.2996667783583028, -2.34883085107912, -1.2650554113984598, -1.2603070890545913, 1.240662229020361, -0.366672830734934, 0.08125696552499756, -0.3925103817661035, -0.6619947695271919, 0.20175678514767062, -0.48573709706791135, 0.23296793796909276, 1.4926260013488366, 0.33447442514965475, 1.0539674239961434, 1.3800282431446609, 0.7626268350507173, -0.347410970869343, 1.6763051181141604, 0.4692962854546742, -2.2493894756074995, -0.11388767098076379, -0.11959724172048786, -0.4332444616587436, 0.19457772276449636, -0.4356306347824168, -1.199861805301467, -0.715873600965647, 1.3555098495722433, 1.0651039393872965, -0.6545644041982687, -0.6666594828098044, -0.072381161497309, -0.7838665259591943, -0.9428593097711793, 1.5879741007632202, 0.051076832725051195, -0.7974936637113558, -0.043168014155627724, -0.8028904522259406, 0.4719349653635609, 0.543019375595818, 0.2988906103976644, -0.2655446445874356, 1.3567117185564512, -0.5039766316464719, 0.5510513067155943, 0.10521713605030404, 0.6583914759787022, 1.6149577041403025, -0.33944547886188814, -0.7759937564129664, 0.1768554402158018, 0.230736389028527, 0.2879559449310771, -0.3804332185569388, 0.22291640494423504, -1.7883509198362635, 0.01108964412729343, 1.2495758580973164, 1.0098595054168218, -0.4203580380116498, 0.7392540928790043, -0.5723346591146147, 0.8629273503042314, 1.0311871182127743, 0.5011008436949465, -0.3655333147800286, 0.24405657541816225, -1.957443626596207, 1.606951023409145, 0.08118817421170425, -1.4660173096289928, -0.2792787799698827, -0.7643329841517426, 1.006220215058695, 1.0415279361054264, -2.7374258791776795, 1.1576163446592576, 0.041142334767988335, -1.2305278619340643, -0.7373337144320086, -0.6981212963951167, -0.802826713609332, 0.7509457586629563, 0.9472698244041499, 2.072835462180028, -0.2858524854999791, 1.9701103530925177, -1.220429200746025, -0.3222615022013791, -0.18417145936708634, -0.458655506640104, -1.0150609435490137, 0.0025857510907667165, 0.14489567006955786, 0.23017815730534189, 1.755308255368261, 0.8206973460242897, 0.03375047414359663, 0.12765027826361983, 0.2334045419855345, -0.5276969131467157, 0.8301540832822296, -0.8469482501779328, -0.3974048298387112, 0.3753636213287681, 1.1482783352145434, -1.7491936017285277, -1.7610602501890187, 0.6956670791344328, -2.0267520269444845, -0.5774982594287282, -0.3962977814068345, -1.2381828689109637, 0.12963282344672988, -0.18371073298817114, -0.29028204399408436, 1.2273977866732655, -1.288768861734952, 0.5797998852337187, -1.1472107034908712, -0.03844153388008349, 0.3942319941456202, 0.14355484247725175, -0.7393993791018442, -0.584888417892167, 0.3664051362658097, 0.672027592597911, 0.9422988831599601, 0.38233350831675234, 0.5012536129166006, 1.6679754134895484, -1.3215249078163553, -0.20581824583493938, 0.14469571216677035, 0.12970199732124676, 1.02125512409101, 0.028839548219562226, 1.0920191104428327, 0.9046018739772976, 0.6072461959563019, 0.6357576498159662, -0.25261535732658436, 0.9495882841713554, -0.1253855999450196, 0.23868908118188, 1.322930502976913, 1.983547039510081, 1.1368726160542546, -0.11037375776432293, 0.1588820310775252, -2.180260659957753, 0.038687063539528777, -1.0364782740619565, -0.2048053003905162, -0.71618076627269, -0.24680426960808152, -0.9027795849795035, 0.04293232587217781, 1.4473297591687748, -0.7024735091127222, 0.4365386702818075, -0.21565496933017936, -1.1780070078900502, 1.6511674431323575, -0.11252351681682607, -0.12893691658337292, -1.0423757970022949, -2.339311668555197, 0.6003614287201403, -0.7412593593114881, 1.6693909628125472, 1.0004656756555503, -1.8094235100959402, -0.3772123631005698, -0.16297104544889982, -0.4666296000626222, 1.644706118655887, 1.545997932702529, 1.1448823255567373, 1.0703174711619963, -0.10700149040367357, -0.5619564897870282, -0.5101780639913079, -1.5830482571936393, -0.2953147446993512, -0.22860782013830921, -0.3123015667773012, 0.15826658474692, 1.445543684295714, 0.70873281489816, 2.039818593900769, 1.1390407968619876, -0.16872022025640437, 0.7013650032346906, -1.0548768432723925, -0.5876139662893731, 0.6031859125371766, 0.8704230001120903, -2.1098421605335416, 1.111848352106259, -1.111189251109919, 2.245483039404462, -0.7787213459654944, -1.2402930565755765, 0.3416900183341396, 0.8362285568144251, 0.8903181210938028, -0.9907336255371149, -1.2884419215743188, 0.7009041878111066, 0.5170493936889308, 0.38892706554002254, -1.0233880824653896, -0.6304244640115473, -0.49279055384259207, 0.23204098596305453, -1.9754087046126552, -0.7280921411712259, 1.0962710618884395, 0.5329458436396408, -1.684815160644101, 1.193298156822338, -0.5655220544950862, 1.0499792820253713, -0.64924904308343, 1.0832217443526002, -0.5800963734454724, 0.7296839719339508, -0.4477799257988217, 0.5810550093983445, -0.5349832111994094, 0.8122440409570738, 0.29812949162760227, 0.28367083215820577, 0.9203989056217832, 0.917803780344433, 0.6722014892652792, -0.7850998800632609, 0.8538454520977504, 1.0697351249834797, -0.880864039926808, 0.12048655781302722, 0.12467363633010772, -1.4699341915791937, -0.34961411878455273, 0.13030394168485412, -1.0471357882697487, 0.9885773382028907, 0.5783986005035293, -0.5813537208956873, -0.15546447849480544, 0.9561050920476224, -1.5861914036722744, -0.5813884901658489, -0.5264377249087419, -0.47214238823298915, -2.1402181287251705, -0.3013513065508601, -1.1723922472459503, 1.602775221825703, -0.6811325235979289, -0.4172911898791889, 2.200428222489381, 0.4563668911175636, -0.6552963074085257, 0.5934087993650781, 1.5285549228665416, -0.8340925037551545, 1.090433448374545, -0.1444450849174492, -1.3726934297928899, 0.8848610392488104, -0.17782010692430164, -0.6917708325548677, -0.8371585604398044, -0.3846382230780375, 0.0243547685680337, -0.48527716334815046, -0.5291818686548949, 0.0011197463146421485, 2.16546847038417, -0.5940287704944519, 0.17851863221803366, -0.0009530680142609719, -0.32353802753154787, -0.09774547587631678, 1.1867679604011063, -0.2807957365201852, -0.3272370677245845, -0.3595616611388614, 0.814314166027153, -1.4872797700657017, 1.992356324260357, -0.565108694282026, 2.017017503487677, -0.6323529003804034, -1.2143429167077302, 0.5738160076169708, -0.2148673584234281, 1.6858887698939096, -0.12295686379415807, -1.46256708802579, 0.037802407848192235, 0.42221566366934027, 0.653139114048014, 0.20152625473445157, -1.1713833534433655, 0.9629939147946182, 0.17793171393585624, -0.41097647598621606, -1.3679732513793021, 1.0436518252810194, 0.28045752670172924, -0.27340082144664657, 1.1803349147715503, 1.9930932930193468, -0.13609308846760995, 1.2618211879443146, -0.9788620149317097, -0.07988194026513726, 0.6687549295721448, -0.756846529167472, -0.31690644063698004, 0.7853142988870955, -0.8969496540540192, -1.0104426083699598, -0.11020503798821578, -0.3811459257832448, -0.004067096211199276, 0.2580723384880805, 0.8694213341580785, -0.2755849249727426, -0.8990480646114093, -1.7899339946835566, -1.285242737508797, -0.34423748945340704, 0.4063440574117396, 0.5876705303837996, 0.17012945852962355, 0.2988208952035539, 0.5584589802871063, -0.6713915582320787, -0.9352099389434282, -2.216590010694094, -1.1060380729971915, -0.5258904499568802, -0.28056464969834416, -0.020212370668421797, -0.22229153613560232, -0.2663377356501734, 0.5609424870994943, -1.4121638956190792, 0.6095705025423207, -2.2590653452867686, 0.9955410501865434, -0.37434297814399087, 0.22946740141822264, 0.9167360192399375, 0.8094703295234031, -1.466435309358118, -0.7026865286450956, 1.869484883534825, -0.45360240357851334, -1.0478261871623802, -0.3471612073346753, -1.1784024176124146, -0.7667036642678918, -0.4588540479967752, -1.1485134865373736, 1.5661717709650893, 0.13813453752715418, -0.6401234395680677, 1.1604345014680228, -0.7814627038467244, 2.6178743752038414, 1.147566038634286, -0.7551949393296667, -1.0132537514014464, 1.4991342284818212, -0.2947931039520556, -0.6027574945631542, -1.0447330573787408, -0.9555409653612112, -1.4409271900179823, -1.0268828289065206, -0.5645377905499454, 0.198223879170196, -2.5363924491113794, 2.1799808211407434, 1.2345470085462986, 0.4347110151534047, 1.1131986272449321, -0.02071627922473014, -0.22951456644499688, 0.5282407478358001, -0.29561688280621906, -1.731811937603382, 2.09015597574033, 0.3635574540510341, 0.4171677667709007, 0.23365774447343932, -0.09262970313839884, 0.7181438037749656, -0.023833849216998455, 1.1037850340195234, -1.274091632976529, -0.20799154320043878, 0.7408565906298615, -1.2867923113618367, -1.9512483689004247, 0.825777685739214, -1.7531687096560753, -0.749182961822242, -1.5080665609515167, 0.868117205942293, 0.8860297944254126, -1.4554189231189676, 0.676856329273392, 0.4291012184934346, 0.6769911888784369, -1.008335351173187, -1.0739667977454292, -1.2908423791019246, 0.4781018535162082, 1.6450000356937073, -0.8024851740172346, 0.31775443689943306, -0.05505058048836676, 2.4545254612341316, -0.15231358593032163, 0.7450431222350765, -0.9733963024705794, -0.22744574053861005, -1.343722824154007, 0.7931417731978848, 0.37045471611527797, -1.8842071657417396, 1.3059548410631565, -1.2464626844571336, -1.1872698098709602, -0.692750929121308, 0.8200180796328802, 0.606849418977062, -0.4048054312758232, 0.9250272699042337, 0.6283189470866494, -0.961127050733873, -0.3063529572960797, -0.8835674754517456, -1.0717017230263717, 0.32621594847627106, -1.138884104495092, -0.814680978990653, -0.3203562136813182, 0.1575176174558077, -0.35109910692181673, -0.018106035791384048, -1.5865165776316097, 2.255254441982285, 0.4505821177459655, -0.8202160088121763, 1.2889120380939743, 1.2425821643659511, 0.3846625527690964, 1.266880846803959, 1.503644180031531, 0.4067926687478649, -0.7519957302236762, 0.20368944083959184, -0.5076639570924855, 1.3301882325567393, 1.5177519980183807, 1.6557746833095002, -0.628024650030581, 0.6291577246029316, -0.4905505207677349, -1.172626248225169, 1.1405904302503775, -0.7080658775152734, 0.659122261663049, -1.641081790892621, 0.8573339614021578, 0.9328619614022675, 0.44182137845285924, -1.3307115145277826, -0.10004682204825004, 0.33586941333700016, 0.01381060255972981, -0.3889892183469712, -1.6737333038975097, 0.05794069817939312, -0.9223406635076183, -0.8030626024922319, -2.136646652219702, -0.5346101540373809, 0.6742216750297398, 1.186752728498116, -0.6467985195982623, 0.2735347297820657, 0.7726364608479426, 1.9928434990176604, 1.318529313162494, -1.6339153172903287, -2.2025412220649785, -0.4677916634039183, -1.1282729276144599, -0.9389262293153292, 0.895169627681491, -0.2927698088072832, 0.2768983407856818, 1.004921234774109, -0.24267052490167304, -0.26053058448988925, 1.2648164315875141, 0.35838793907810407, 0.8186502773215636, -2.0702096975444357, 1.7529032885650364, 1.4409973190032757, -1.2903082989549166, 0.2800812340277547, -0.6070569298585915, 0.5719588965856353, 0.07664439083254562, -0.015237171584800023, 0.2156245529242966, -0.46308035168432404, 1.3730217588003155, -0.3726548958276617, 1.0948755124821699, -0.1888561673747582, 0.05579062536508561, -1.4164110183465402, 1.1475867080906685, -1.2998871447012827, -0.4316089507140992, 0.8895110549933453, 0.10874403183409434, -1.758372738904552, -0.5769493480220188, -1.8919038800920456, -0.2867379345585643, 0.28914230123673385, -1.119152191078948, -0.2821270602779603, 1.045615815480227, -1.2820990812910582, -0.3555635849290668, 0.05591602460196499, -0.10121918228177887, -0.18531804428151247, 1.2790813275230388, 1.3306895474717721, -0.7145210341447581, -0.2344391565385616, -1.4540013213497578, -0.09595266318353146, -1.0810421697104255, -0.673385960130469, -0.31568500084979323, -0.37011327362760704, -0.05769682894088274, -0.5064616110287891, 0.389696698017456, -0.85605823221522, -1.195721508066154, -0.21249750955280142, -2.1681005879274933, -0.5059737079292843, -0.8599257138517462, 1.767831106287075, -0.977183833622887, -0.9589387413446944, -0.7586455981117616, 0.5341935217375875, -0.6460482502091864, 2.1587557211417563, 0.6145912086413583, 0.3569064054766081, 0.5234242706837717, -1.0849147672043487, 0.6045664091210664, 1.7800429122493884, -0.2841995197446339, -0.716520839846402, 0.011197216857126706, 0.8246631383841798, -1.0300972369952106, 0.7877966494550956, 1.3958300088529718, -0.07126875098968367, 2.660739303256395, -0.6632212796233513, -0.5746795705350187, 0.16675524512694342, -1.1075459472570077, 1.3181384985122298, 0.6543046585017456, 0.12018244546578616, 0.7180610396566736, 0.9426688522487071, 0.41266631784980745, 0.4771056945016055, -1.2971034998163493, 0.0544802402028886, 0.10710132047176432, -0.16051903592410652, 0.5403960596300749, 0.8654029492756629, -0.8959144474699895, 0.4750560832487375, -0.5585290414243222, 1.7015126402173322, -0.22391250781830402, -0.2977033593144002, 0.25581019820229156, -0.8084332148721612, 0.4367675540424319, 1.0657325252092427, -0.20647125808404343, -2.5097862504687676, 0.2434257437219616, 2.200620339190856, 1.8509618423641614, 0.20646158176250157, 0.8981127516591231, 0.16091615308886006, -0.19686308074966347, -2.4870951714530594, 1.3382495950567617, 0.6302979994792214, -1.2213568414443698, -0.19671453692467383, -1.5640351550016824, -0.15785310423120563, 0.23041911578123184, -0.366632169646452, 2.00709496412701, 0.31609521008882946, 0.00924655696047824, 0.6436373249457392, -1.5819653693102067, 0.045236709171896455, 0.7379249149125063, -1.7863689719499727, 2.046941343663025, 1.2641203518987119, -1.349830258096613, 1.1840538293576246, -0.37508636321304506, 2.139138080438178, -1.1862227787294897, -1.5941643170893833, -1.182228664458991, -0.014483984756291144, 0.35137857964583785, -1.030289688664809, -0.6606208413605255, -1.3869334538293514, -0.6676363771752316, -0.18987807455218217, -0.10757305821359775, 0.870113044545328, 0.4648634760315681, 0.2859465264103761, 0.5921712381873271, -0.06771425707028118, 0.4875207386730212, -1.1556441913682944, -1.2308273538434735, -0.4268965014458351, -0.046824436350358316, 0.15806124230393373, 0.41308526346142516, 0.9023628286522852, 0.17364596598331658, 1.5473782115408434, -1.0295149331054112, -0.9317953970733478, -0.9315016432767269, 1.2108399644712278, 1.9808225577728533, -0.8102846133196092, 0.1009480379917527, -1.3954374776803897, 0.27628064684973164, 0.8701801693290508, -1.1130201182775736, 1.4161046476070607, 0.21614071798104148, -1.6655092309163373, -0.5008621952281429, 0.3729689992254309, -0.8790151224288129, -0.3462917640407696, -1.1279889041226954, 2.0004249601079698, 2.0962045942951875, -0.19319132892880356, -0.6180770647251411, 1.2620617170102963, -1.5551231105239085, 0.20851076635405463, 0.3740656652331913, -0.5802771307651904, -1.5381460252088373, 0.5483974522599335, -0.3946498189307669, 0.7580524308573673, 0.032668508357174476, -0.3778352579067249, -0.755664998321468, 0.2823262931216922, -1.306027321362628, -1.6919937264023552, 1.5819462435258345, 0.7332357596431444, 1.8237046855555197, 1.4634991011752956, -1.3475904651696002, 0.5788607041240774, -0.7396004979335926, 0.26090595723770316, 1.2397006125569212, -0.641668910583079, 1.439653686050825, -1.9936647688849292, 0.5455478408139449, 2.5296926098440284, -1.1358484239334785, -1.1353812720872034, 0.9362489749325626, -0.4672383557462778, -0.7978513899556287, -1.054415041796444, -0.36406346652142424, 0.16624263857970825, -0.44462782237390513, 0.20109481773735552, -0.6145110631321953, -0.3064457162841609, 0.7066520284483148, 0.35437317401209917, 0.4069053700488369, -0.07131208367657772, 0.2191916489838853, -0.7426964917027803, 0.0875748373623733, 1.1225495867382682, 0.3968371405569991, 0.6845726245759809, 0.8737009680340081, -0.980949217776198, 2.3241459958125894, -1.1917982437525179, -0.5663279852232187, -1.0646252307214228, -1.323228570212285, 0.47059221816090596, 0.5293666258364012, -2.681147524356423, -0.9177307632725107, 0.4023289484436435, -1.5661898257345426, -0.5714405465095593, -0.8632296753228843, 2.4527155451951277, 0.5012029276735762, -0.6019021187875514, -0.1289921357284982, 0.10367567552557312, -0.6510003410182644, -2.887924785984447, 0.2200462764025614, 1.4209858172384364, 0.366594721814661, 0.11226117793275149, 0.08617215272678755, 0.22464033116776827, -0.5801170231338272, -1.391049357704715, 0.3907728634641972, 2.1894211887335553, -0.6052984152665166, 0.049258608988236606, 1.390855050619006, 1.2695084374590764, -0.7217461521196115, -0.16976521428445437, -0.6618000381324354, 0.3677055421274217, 1.086393431986145, 0.4372069862517671, -3.0143167807447573, -2.25066172651936, 1.5878889496559667, 1.557784107625044, 1.561167861576251, -0.9798716096503963, -0.007209754950183246, -1.5756262906344072, 0.46782397380653296, -1.1439292095745182, 0.10539545971210094, 0.3942371407828709, 0.6042731459390258, -1.0473696137410533, 0.912729189872422, -0.4085824876967544, -2.869101159547698, -0.1299228737490285, 0.23720834351112632, 0.09683814005109886, -0.19083471745708072, -0.22907592173007432, -0.8172427495771337, 0.6276127856891885, -0.1221256363840833, -1.2546943512796398, 0.3303966158658996, -2.006743606385475, 0.9138369185619866, 0.4151640328213243, 0.9405637312229813, 0.3138114604962716, 0.5863740499695032, 0.9440678426759108, -0.5041757260178978, -1.0872205691483885, -0.9377643543471794, 0.8182371197943351, 0.7069546454074089, -0.26809177103602183, 0.49563376107197044, 0.16397036121007386, 0.3210901926351437, 0.576183536462926, 0.6988736589543704, 0.11459383415155866, -0.442353671271574, 0.4388170269143343, 1.7239948271193155, 0.7147715010828246, -0.8695444236748139, 1.1713071206926295, -1.1786603202927546, 0.05011204916075808, -0.8903317386432457, -1.8753536776100597, -0.4581023203831078, 0.853718228933711, 3.08001017095835, 0.2833665045660484, -0.08855494188375412, -1.6195131455531224, 0.8190667721067244, 0.36198974394679356, 0.2140801375318245, -0.12934027699792636, -0.3037773582859982, 0.4224965403762267, 0.2101966057745561, -0.15918759422237988, 0.9988495510096529, 1.3599155623786459, 0.8952608679659192, -0.8463359254927233, 0.41791834875889866, -0.9005010687968856, 0.27512863799118087, 0.7160051198478059, -0.437892226419467, -0.06340070295904612, 0.1608255344384901, 0.7372305907224563, 0.31521593902984624, 0.010268368082081135, -0.20648811602769332, 0.030449125373844966, -1.157712445568521, -0.4267272565524941, -1.2634807520034512, 0.0395871793648639, -0.6991665851984763, -1.5211362478617576, -1.5617486262127063, -1.7725898487399523, -1.7291971623936164, 0.7284905225767786, -0.4708920159286318, -0.10665802223536507, -0.3513878452741067, 2.0195514654640756, 0.02889860624886382, 1.8798390165689371, 0.7348433356246545, -1.5020227646192301, 0.4749025050620374, 1.3815028172063433, 0.2977664630969864, 0.10146841915715317, 1.4478707295838216, 0.9844747340343597, 0.08889390509138896, 0.5560682691261384, -0.35669300634710144, -0.5865953173408974, 0.4496844538933091, -1.5714250916268038, 1.7722470587667736, -0.19951277114194663, 0.6415262750904271, 0.3559383785233262, -0.18498312847609188, -0.16345691067951365, -0.047843627634857014, 0.4769454587466507, 0.07440385273213286, 1.5879656098436838, 1.6974890034821322, 0.25772110700493545, 0.2131737805498588, 1.6482429662055755, -0.9087958787298601, -1.9926187586491804, 0.4259959641009731, -0.5339153448761605, -0.43508511719863635, 0.4931359315473423, -1.585956893685315, 0.021414213575136083, -1.3296959504697978, 0.16755771527506824, -0.2067557347492247, -1.615385010631441, 0.272856448020285, -0.1812732994487199, -1.1071831719879843, 0.39564639398576107, 0.11636380324818049, 0.4656015865209815, -0.7373519043558776, 0.9685738129555945, -0.10363419742973429, 2.239025774009925, 1.1037295642026819, -0.7669123714900619, -1.0064978945534482, 0.26594608349579535, 1.1990597128847762, -0.2525306925800284, -1.5068364139405546, -0.830647505128805, 1.383889252214097, -0.8321166157308315, -1.465374522088502, -1.515623855889483, 0.4683797748257074, 0.45498397910290916, -0.9791696879688528, -1.4542542196336772, 0.2729525996517642, -0.6495150184296675, -1.2877853882701928, -0.18805497766355078, -2.257170339612708, 1.621531628062458, -2.623436186630336, 0.8316058031395617, 1.4479068022073571, -0.7238503346820208, 1.796662673343556, -0.14906448957225274, -0.9958039586878236, -0.554404106327019, 1.9586862922688537, 0.48760155560605783, -0.39154311916815737, -0.5171716475899806, -0.6314003910622923, -0.5536037688637381, 1.8783721911393354, 0.2214973946249268, -1.4152326973998561, 1.4693949570265281, 1.0582295891229563, 0.35141422268690786, 0.31038286030651824, 1.345173626157124, -0.08262369125929354, -1.0418301681512039, -0.263585372421104, -0.5616499375210559, 0.19109924009441803, 2.0144797380028883, -1.393662609343688, -0.4764599904395527, -1.3346378519151685, -2.8483528651853054, -1.0194091665427192, 1.0036227420206727, 0.29471474032236555, -0.6017935894981736, 0.3239463356257846, -1.164548193505202, -0.9126447467879417, -0.056235981143193434, -0.6058767930145231, -1.1824943023924952, -0.9503045708185288, 0.37750689134786847, -1.8857523915649226, -0.9146252296072889, -1.4829871912021864, -0.1075556772441653, 0.5008886784615699, -0.04716475177722184, -0.1332775743037636, 1.0677977222259103, 0.3184823553348897, -0.18367307901956703, 0.05265519343040045, 1.320266826592019, -1.2701787756245402, -0.4033094605175799, 1.287627426582497, -1.033056291527597, -0.39193681209012954, -1.085668719698811, -0.13958085069519038, -2.378721965187115, 1.3426174561867896, -1.136073827958382, 1.678341115743566, 0.11038238251203993, 1.0090722454216339, -0.17067502527774725, 0.5339885059488964, -0.21727006113014488, 0.23028699963760396, 0.10897329045101979, 1.9279450745270876, 0.31444213294658835, -0.5376570211690761, -0.6993289456257249, -1.0113341695173246, -1.2678534840815303, -1.318371448118866, 0.14522480555750572, 0.04413403090775665, -0.6241938276643116, 0.006603524341017142, 0.4013522436222867, -0.36001377441849025, -0.3302941951938201, -1.1498124679545425, -1.0014955475872407, 1.357598611206763, 0.03359079369072015, 0.8981334676001727, 0.05618375386117942, 0.1713485715875828, -1.790591996734214, 2.0467174410423072, 0.24176751039727143, 1.3485958073823114, -0.4111376565617214, -0.9314554559925884, -0.599509551665027, 0.18480241022040972, -0.14254934525999416, 0.42327916592504, -0.6107536793300488, 0.16534384760735532, -1.9433807461575583, 1.690756530757449, 0.5791645961784102, -0.5824300625602944, -0.27917161364112675, 0.3639606737154741, -0.7044376643753306, 0.15949401698545168, -1.1617696472628154, -0.7019130076494028, 0.5215258790185653, -0.23125374941634208, 1.1158275795332062, -0.6759704002733553, 0.8255619514161838, 1.1138805232862738, 0.7693244161441014, 0.7942570988858028, -0.23357297322106324, -1.2517637521638947, 1.5627120981519729, -0.528650906745676, 1.6284590837320507, -0.7669520887560031, 0.6291940853172123, 0.016410181565211145, 1.9331876960398247, -1.1081046436481665, -0.9586957705064065, 1.6604708876556789, 0.8642342990533397], [-0.37454933525588824, -1.7020473816887693, -0.9450290246277009, 1.3875817849949268, 1.182462891902387, -0.6681058120750633, 0.18804854474214647, 0.22875412292694994, 0.8434085471816782, 0.9327107660740215, 0.9138629677078226, -0.723528983151125, -1.351519413895369, 0.4062335848061972, -1.032766855738603, 0.08545764816786118, 0.5540613386541587, 1.3274727611223056, -0.7081157432217484, 0.8373679975618356, 0.026992617399366602, -0.12979814391997954, -1.2439061601414232, 0.22532459208673442, -0.38671323063588425, 0.3761474072800317, -0.08571591967699525, 0.2643438980748722, -0.23344692266099015, -0.5414231753719564, 0.28723964951700653, 1.1828523136975664, -0.36484481933981316, 0.9188738896081332, 0.33183784309500536, -0.4246247874094021, -0.8546747017936681, 0.9122689220762001, 0.051717728323911895, -0.42383973476970765, -0.05007247663688066, 0.35888654227453437, -1.1755445715843036, -2.291941402982518, 1.0205006782345478, -0.6768714708264665, -0.7014055535807723, -0.5099225966483992, 0.3653062036769444, -0.7028013360820005, 0.6208787081342648, 1.8838489488520391, 0.18234718036626182, -1.1340385080463393, -0.30708699617291996, 1.5518040071320782, -0.666068361459417, 0.4062488099088618, -0.9537547418269575, 0.0492495542055056, 1.3367844179730306, 0.6243034556135807, -0.41990698977498964, -0.5472801672167587, 1.2639838886176862, 0.5575060285693253, 0.048829358733428856, 1.4646867817127969, -0.28671733356979506, -0.03775406972744149, -0.596035374330115, 1.4181257527099318, -0.38522528332851885, 0.5088093919399875, -1.0354067908464257, 0.00039699036508439176, -0.1937808786548716, -0.1396146545279074, -0.41823770573685026, 0.627576083260022, -0.35586934468946446, -0.6913378102379212, 0.528353745341301, 3.5606428745867067, 0.7242225120831262, -0.8204844381413767, -1.897190674621593, 0.7889355486055006, -0.46278608487668016, -0.8764532052628967, 1.5604376114792209, 0.34398212069461453, 1.3392848753204103, -0.7090223909656006, 0.3909507655783685, -0.44995407154027756, -1.3674020585343607, -0.9586723479631972, 2.2437865730780038, -1.7353588661601977, -1.3675456391922651, 0.12084613117083776, -0.8803136904453155, -1.0549423298416245, 0.4506741858645238, -0.39016279803171733, -1.437689228094548, -2.6222685707874334, 1.7429831073968884, -0.8817410949716155, -0.6315530496359093, -0.6913945365738163, -1.0222409368215222, 1.4990642694204948, -1.170813178129689, 1.038244362396133, 2.071529645387003, -0.1922139857991167, 0.3278477747184016, -0.8021076334245768, -0.7591178660770505, 0.7936479372262523, -0.32389338429139664, 2.9201861203583586, -1.0969447548401807, -1.562967640548788, -1.2162231779603045, 0.5368392110877488, -0.5346489936149403, -0.14721821760484588, 0.9535703999116444, 0.3521575402364585, 0.7514449611263841, -1.9307750869342661, 0.6887863411829453, -0.2673520507327791, -0.271331112350712, -0.6563055538259102, 1.9194957539046007, 0.7671434307201431, -0.18033277543401974, -1.3659964627495045, -0.7869117655984887, 0.00240687208428591, 0.34755935055093, 0.21715571488924815, 0.26083849948138005, 0.11056031022435935, 1.9791435575163634, -1.261417984314435, 1.49361420629749, 0.9892263917739749, 0.8617731990933326, -1.2591732212883673, 1.3250250254179694, 0.2134647019446558, -1.0051939359030464, -1.032704670027888, -0.1916573312270094, -0.03217859566206216, -0.58058889827462, 2.1260113718991938, -2.0048207020825783, 0.02544670111752313, 1.03667625515427, 1.0956212169655857, 0.5083760824354706, 0.24394403487607635, -1.947381786411247, -0.02340260261087138, 0.9931204177276486, 0.7472508068594641, 0.7697281178909383, 0.79331456175691, -0.13435087976676618, -0.5991839624703036, -0.8414782123979012, 0.016319401786983927, 0.5386250574002776, -0.32313364923750526, -1.47355766818826, 0.04248587761738164, -0.06581247038095196, 0.2331394039333623, 1.145277421751103, 0.35881640650398494, 1.5914493484678676, -0.9359067875820517, 1.12209760379324, -1.0217951233625109, -1.0332349952056246, 1.1515402938259, 0.9849767567440155, -1.9724569771402658, 1.1511025794950844, 1.1209925356471802, 0.7950648136324516, 0.45996533271009654, -1.4632262820865378, -0.05285560156699559, 1.3807403195970012, 0.28097895688709085, 0.11200174557618722, -0.9128900215177761, 0.8505899964299026, -0.4900632886255207, -0.5965741786927462, -1.1063501883278954, 1.454644851967837, -1.0230303283464948, 0.8962416717551006, 0.38583915826420917, 0.5954137536512872, 1.0811841853177557, 0.3395364242871566, -0.3767786781881412, -1.242184952049739, -1.051561097343889, -0.19015344839230414, -1.0671200404767165, 0.7263058235202092, 0.3659797095786079, 1.5266278515016936, 1.0717859512776051, -0.37069787573278673, 0.7529449520641232, -0.5526533176415896, -1.1715854993160284, 0.6290894922055893, 0.4675028314162476, -0.8028365047780538, 0.567791541588078, 0.3639035598227842, -1.4329784440396576, -0.1454935984195063, -0.9284847391883784, -1.0162189716986474, -0.1076623486319026, -2.3759162824041016, 1.0693335136946385, -1.449939323877994, -0.2853773625622532, 1.7372742379981665, 0.5613105216648283, 0.05550881678826354, 0.12160086303536423, 0.9991167579288011, -2.7742334648547198, 0.6068266862456372, -1.0296413538103046, 0.4719622462137416, 0.7570747500036852, -0.23921667180058712, 0.3510049958555731, 0.7435414580497929, -0.2671326337717746, 1.1902745308155878, 0.738360743846264, 0.6032499041823383, 0.37080810890765825, 0.5570795457701105, -0.2077123212381017, -2.2668660036692434, 0.1767361878861445, -0.4929337111996268, 1.2000716103913778, 0.5006952490621998, -0.6335511725543609, 1.3332469623126408, 0.7200017024944216, -0.503074460277907, -0.9295914707778156, 0.02699679352324214, -0.8606471728458973, -2.1196762380686818, 0.41070656598067085, -0.8318228380046574, 0.7174104755736103, 0.07955758179245907, -1.628309926489498, 0.9492910119685979, 2.0478664084892326, 0.5581801789168636, -1.4029986490236614, -1.215125411726474, -1.4759284451103336, 1.082674886490109, -0.5633169533250891, -0.5123938996551286, 0.020958503653811297, -0.4841713862515473, -0.3322258585145229, 0.6623279616829607, 1.5135432992976383, -0.3880521736476412, 1.0131534589112043, 1.7474847595123504, -1.3843094262611624, -0.47402243411123823, 1.829411836212097, -0.03317202668756317, 0.39404450956707854, -0.1066668136653559, -0.8679098430692874, -0.6193502061080053, -0.5728464241648845, 0.20625651341949444, -1.365615656702174, 0.16733295110630317, 1.1444583348742667, 1.6166797496095535, 0.05593710402938178, -1.1256534057269654, -1.930345267099259, -1.2617997841827715, 1.451215361696025, -1.1260070146038597, -0.16077473830016478, 0.5866626513443796, 0.8798904719333327, -0.09119382961211103, 0.3730082954509863, 0.6339598248582505, 1.1500770969000649, -1.0057241511802628, 0.951069898904434, -0.676644358518234, 0.6382809149763055, -0.9507552970959566, -2.6159170792582773, -1.7786493107588657, -0.5123093956603422, 1.1261035013590106, -0.20355380255142216, 2.243467947518475, 0.826957317689324, 0.004321297339155968, -1.5513428307139543, 1.966784770396494, 2.344246740157794, 1.3226360092358944, 1.1399086669452452, -0.556836991168557, -0.15849387119154457, 0.9886344652117615, 1.7015779665754585, -0.350072448103746, 0.5435222039194644, 0.6861907385499195, 1.8513418262783747, -0.48975397408329824, 0.7098381946935071, -1.7121108900541797, 1.0313727474486185, 0.36936558808019043, 0.40999464147459325, 1.7383127996023513, 0.10033101087977658, 0.15637084679124286, 0.870700046564005, -0.11274522393208496, -2.2633844778927132, 0.3314920974802266, 1.0722685812235946, 0.32910041627397746, -1.0393867913658537, -0.9199802855978496, -0.6539557918080007, 1.1739880996908234, 0.6694956021848758, 1.6696472154792095, 1.9667722770030067, 0.03423439126467604, 0.4582401471912079, 0.37157980187468637, -0.2646044768214806, -0.9476486848588287, 0.9531636853501926, -0.5487422343685723, -0.8771786506898374, 1.4917316316965215, 0.4523674651151409, -0.02495459536186225, -0.20239821191100213, -1.5381240698097027, -1.0411191756030496, -1.7970923081593233, 0.009521155829978907, 0.9808300823102268, -0.44460907005028516, 1.2384709124321371, -1.2952756033669386, 0.024604598545468585, -0.07504780603760518, -0.15692087906830954, -0.3241757423283295, -0.1303309886365919, -0.08214334402387218, -0.40416692530422205, 0.06707071191490256, 1.5999256662707886, -2.3717606013521486, -0.32812253509428746, 1.0541077245187245, 1.0641803180656146, 1.0473534450124151, 1.0709618829866514, 0.9339557225833571, -0.5041368504766951, 1.476406513351963, -0.5745655259466537, 1.0351318938868057, 0.4694493031165759, 0.15718722980189045, -0.244921361956964, 0.6572355537319182, 0.9996549788912922, 0.6106069589985874, -0.0049724870514275465, -0.5013650638675685, 0.1723660805460699, -0.7848616909494294, 0.6971298960070851, 0.4240108148790833, -1.647577879894758, 0.015845703740564276, -2.5788212773994545, -1.264486180792644, -0.4290329909293523, 0.1374883477764422, -1.178409867823821, 0.6309668003535186, -0.004851982379316185, 0.10831290336354726, -0.9712167510270416, -1.8380809955129511, 0.11948470452657607, 1.4491626058415064, -1.9104642493722073, 1.2053295693082022, 0.461700517058923, 0.27159387520871625, -1.230411068874262, -0.1334828546055668, -0.057237398199682, -0.9837110588344639, 2.2987120498305247, 0.2461205950186417, 0.5771310891493434, -0.35935437770621415, -1.3015522610572838, -0.1635088414509845, 1.3583681094010605, 0.7991565177786811, 0.9356650074811453, 1.1390639078534548, -0.48417666393593517, -1.5528532495647633, -1.2464027233365422, -1.1048382090343314, -0.7764272089370706, -0.5652872216475245, -1.7875490193936676, -1.2101094162381303, 0.2914765459159203, -0.6859411775023901, -0.7932018316634906, 0.2043954277580823, 1.3083325982769942, 0.057963876987693015, -2.0993299626625608, 0.9107580091958446, 0.7207511798724294, -0.3006805270180174, -0.3212300107419353, 1.8984783565854182, 0.5268269006210399, -0.5254189978565228, 1.493387501204697, 0.6107406075777305, 0.08484453841582251, 0.020692235796803016, -1.2905779972156466, 0.705070337151434, 0.4325056734364151, 0.31298285985116364, -2.3135337384983417, 1.2932786898685595, -1.1691660970052073, -1.5269462424744777, 1.1262989212650316, -2.307743620469936, -0.14920876195324115, -1.0883189262371582, -0.20235567681814892, -0.25005764746449877, 0.5806481577873307, -1.6638918409156949, 0.8210999843719019, -0.34614876013401275, 0.45088134052327605, 0.25396789394695257, 1.9304152925535678, 0.33267777652315605, -0.22993072412573623, -1.5162922160843497, -0.21585134716710933, 0.9626870208934412, 2.429354394355159, -0.7469287513870861, 1.4297950242468647, 0.04908018747183234, 0.4103866612117121, 1.3513018146294935, 1.3612636585096438, 0.7750570696769167, 0.6470089317657192, -0.5503289425568816, 0.953564405816395, -0.707815814141017, -0.3254799869462111, 0.8400970525258089, 0.7683187225941346, 2.613853889024053, 0.366390389065365, 0.4249091943653988, -0.4053350547649056, 0.2107405982901912, -0.5538670373886739, 0.7798977414354108, 0.0976289291005849, 0.001380622290554468, 0.7309959081070587, 1.5370069602808774, -0.03930398849140063, -0.5986528869456759, -0.4947676539179887, -0.5003587714902615, -1.1661004187419084, 1.6926066894168674, 0.7439630620029644, -0.08278218333487389, -0.9943528605544969, -1.386591825078978, -0.15585561930630026, 0.36774582935497935, 0.738942094683587, 0.15395571768174948, -0.12249632152906333, 1.1288211454114419, 1.1094298902085773, -1.2043517661294851, -0.7841266438416263, -2.059960178737187, -0.2682692616011616, 1.1176114379600453, -0.34050347006233866, 1.774271912040443, 0.021032078082080716, -0.7359229683562664, -0.8265587681287719, 0.6039895068312535, -0.7552050085278281, 0.4984648867969127, -1.376540006182018, 0.3811555249160651, 0.450205546652958, -0.05775657106429822, 1.145891021800678, 0.046666559351110574, 1.423394251949769, 0.8899158840614024, 0.21573892170448206, -0.01943165223966158, 0.7286147629514439, -0.7444502215962442, 0.03529873272405344, -0.6690017110619989, 0.5163361145795762, 1.013710427816674, 0.9453964003626372, 0.5033055588737404, 0.802514101076084, -1.7137538811887767, -0.4121097034696644, -0.16256540390354562, 1.4357935125315406, 1.3675453191457378, 0.2999661755385942, -0.7648215815141534, -0.10129853740806875, 1.0220684756619585, -0.25715105713386616, 0.8944289923960181, -0.6819036613388818, 0.5840507792248654, -1.4320054426557967, -0.3672204835827793, 2.267094510659969, -1.4268234424184962, -1.5645670585964624, 0.8676882898862597, -0.6344303048567963, 2.2869667125321524, -0.15676288258570023, 1.0468242358671507, -0.25951953030886, 0.7377999569159049, 0.1336865587347366, 0.4955201645504275, -0.936726029231859, 0.5957897249293823, 0.3169053655904229, 0.5202177823339141, -0.3346791287705135, -1.1209492528459954, -0.496685965377766, 0.10424180316511464, 0.0897050909752995, -0.5830638143911488, -2.813935880228585, 1.1896633787349364, 1.573436443665633, 0.5971107558696852, 0.047954835626793826, -1.3661144289070588, 0.024328137682526747, 1.37512355101626, -1.1906415119645164, 1.0270362011171836, 0.10748319866821762, -0.2787177922069293, -0.014291291976023902, -0.24079492258998034, 0.17226294110729395, 0.26202165909408376, -0.5811886113615811, -0.34793619011859905, 1.1409422395176303, 2.7484442495884505, -0.9849375227765906, -1.2132432263438582, 0.9063586125608205, -1.0650688237055823, -0.09191527135748845, -0.3850273117629813, 0.6852390660790313, -0.7469848382793253, -0.582946878050941, -0.34832064932072887, 0.6940159519512328, 2.0272026555637437, -0.24607493050898827, -0.33183248134182575, 0.4121393140997285, -0.18115287784416886, 0.267358854677574, -0.6865664004891879, -0.12576183898940052, -0.24699916439456657, 0.06247172780956555, -1.204769187107584, -1.4193193726938005, -0.47029296506596274, -0.17076579794149954, 0.4445466331918744, -0.40219415304828166, -1.3463645327573988, 1.1999560348971892, -0.5709026924324228, -0.9699396327409399, -1.77741467848612, -0.300576067065583, 1.345830698314103, -0.0405741063337918, -0.1039374010782952, 1.0475236163368862, -1.0076088356309523, 0.08451287786341503, 1.3446044791572984, -0.19041773635539402, -0.8720454818409392, -1.338650215029336, 1.2587081100404636, 0.7689919370320595, -0.5269789458074856, -0.9165205090314167, 0.30763646437861003, 0.8622006253897038, -0.6323131136498853, -1.243701823012265, 0.9089274849209866, -0.7035437572598718, 0.4452894207101623, 0.9488490039774969, -0.4134185727220368, -0.9726789944157435, 0.04437881091082166, -0.9638344120959499, -1.104397604821929, 0.05786852202055969, -0.2044155507719177, -0.26166707741662354, -0.5260523299529971, -1.2548141207072392, -0.49173223820148865, -0.4653836874672079, -0.9563978928426793, -0.031861067288922705, 1.3141971920349023, -1.2603639279802497, -0.06894370064624225, 0.7366567902133974, 1.7003266057215387, 0.5664859160824999, -0.49876298675350517, 0.8467701994591778, -1.3027840951004286, 0.7970072360450443, -0.6679601715762954, 0.7827828194182245, -0.5222573782750927, 0.2024859470858476, 0.7453126826129444, 0.8163868765388563, 0.7523176640270528, -0.5905650307423244, -0.6078789142379101, 0.5806513902656831, 0.4450833536696035, 1.5395501844159818, 0.315631764179817, -1.6144069648996662, -0.27032076315214343, 0.5577685151318957, -0.6840316390544929, -0.7483443381308285, 0.5024720156615469, 0.7281663407095282, -1.074480961145965, 0.1374125757115186, 0.6724510599987283, -0.8782382999277132, 0.5153719783881129, 1.5578612171259538, 0.5792785544920538, 2.5144819737299917, -1.2995630811281889, 1.0890263658113573, 0.230174678670987, -0.7931631593143211, -0.7235363540643102, 1.8464695788872458, 0.2672411606753058, 0.4366381475854583, 1.5304474427120527, -1.3519088850540193, -0.8293238627283922, -0.8054799443482101, -0.2333378612444116, -0.8697767101556693, 0.6566998954530628, 1.5277050504830019, 1.6691262530189173, 0.8699670695399863, -0.9696248079043992, -0.8370093952907678, 0.13157956265759835, 0.5562390307136686, -0.7873072893153046, -0.16381842770688684, -0.16625965893866126, -0.36373589637072545, 0.1396954658650681, -0.4282720572767078, 0.18504764828263298, -0.7388940533539147, -1.4400107726867124, -0.7138106905374861, -0.42620649746591843, -0.0451157022399453, -0.8611393094749332, 0.2256808476721919, 0.9955546138334201, -0.5914171334742824, -0.2593403159976384, -3.161054464449918, 1.2042952294924, 1.1464511137772233, -0.30358968357594607, -0.17631590247595075, -1.324673076825977, 0.7518473536744155, 0.477823082410461, 0.4867322544222501, 0.045292870898357394, 0.37493076017517685, 0.6557022081260735, -0.2502493867101071, 1.2986422587695876, -1.9055137176981307, -1.160143278252979, 0.13255466887586922, 0.2533184605741392, -0.8230122360478014, -1.4968358005970277, -0.20558999403426054, -1.608218407814934, 0.2533262674709463, 0.8670674259437633, -0.013460042842644198, -0.0828253564552893, 1.0483433710919507, 0.7058791156122473, 0.021676507084161762, 2.3361009230908327, 0.5833961103881885, 0.6645545947790558, -1.3580351161279296, 0.565237937526304, -0.9197144201630576, -0.24849515936979233, -0.7285790747620913, -0.8858484813774633, -0.5196078345002862, 2.0709896977385323, -0.9114691254964935, -0.34495250326963967, -0.29437833938584296, -0.7755888027311497, 1.5248778795220796, 0.3850601122286349, -0.9317466563193709, -0.4968604244567337, 0.11482157162822917, -0.06601346483118792, 0.744085668634872, -1.5361899707668583, -0.679444873096167, -0.7044693213950657, -1.6883312590997013, 2.882320267413049, 0.7009703272416361, -0.9264846955392869, 0.38436568397123794, -1.3783339637542942, -1.2202056674522164, -0.3779671897399006, -1.4498548066671517, 0.4411482254066341, 0.029791904746302007, -0.04370536582783258, 0.28034362479401864, 1.0893397522693946, 1.5521372974370156, -1.4507925391210423, -1.3440899516282203, 0.8912221872332967, 1.082612512610527, -0.45542964412403725, 1.821599380400414, 0.2641524728030045, 2.076330240926071, 0.7249063227828815, 0.3526122523142216, 0.1271607792384316, -0.689006091386601, 1.5290752889878827, -0.34339026384876387, -0.2889058571070019, -0.4668304482932359, 0.13471857411782348, -0.22524957427765316, 1.8794787241407485, -1.0787250016883394, -0.8793431131926084, 0.5625773129190689, -0.393516429176724, 1.0598175973273516, 1.5963408052301935, -0.005851102526636165, 1.6751958542812908, 0.9302667922909651, 0.2878335430991605, 0.4808265565756354, 0.08209914204341531, -0.08247426354802699, 1.0226178978566218, -2.0819526046945844, 0.36972125922760846, 0.14694281648213742, -0.6833277754854585, -1.2526971354505774, -1.4554813744896822, -0.13289431049469339, -1.045353823498632, 0.9134366137063861, 1.3967577145760677, 0.3703473983174329, -0.6465110332049825, 0.36677523293259806, 0.8111144178092186, 0.5430851049925446, 0.0643594011587461, 1.207528314815792, 0.5518164837715832, -1.294768980966979, 0.8179439857161254, -1.1900821234717232, -0.6763582386854348, -1.3180193069396726, -0.34844202717307815, 0.39549988676478437, -0.4100329067878506, -1.0228167210575965, 0.5776837315799622, -1.522643533887744, 0.04111857945113994, 0.5352987765900451, 0.3373651793356807, 0.23681425037200252, 2.7440901947194205, -0.511245874101651, -0.45725197828964737, 0.19188487533387882, 0.3464529009165305, 0.685252844426576, -0.523316213253514, 1.067419544444832, -0.17374655991238178, -0.8359961102464536, 1.4359036806403722, 1.5367815594510745, -0.3216270807059381, -0.017960999773838207, 1.5997468273919933, 2.0259454648372195, -0.31054435008390857, 0.9704570373969156, 2.5535126573371922, -0.5214015706013462, -0.22372133116881598, 0.13042791749078136, 0.3875381406902669, 1.1355596991908874, 1.2402961411753444, 0.41070213306536835, 1.3192777793082902, 0.14055967248131904, -0.5340619450607136, -0.38043714444426435, -0.6965849581307278, -0.5149540856886908, 2.1187368673659353, 0.8418339568921767, 0.6785260010161331, 0.4902868439426417, 0.6613082607623879, -0.9526878610472982, -0.5645138890930333, -1.0262027393187396, -0.11461563725847926, 0.930555498596286, -0.29320760653080713, -0.28439605743158153, -0.6735666827686305, 0.6103269907317451, 0.8639475153106825, 1.156890442644074, -1.3922804722670397, -1.4560024980582777, 1.1069059553262193, 0.479867043991313, -0.1203307567382121, -0.39153660834738896, -0.007059918469576427, -0.26739076101887155, -0.18981468997797285, -1.5143148079422246, 2.0193804057296036, -1.0167652310822908, 0.786237962581151, 0.3427123239862256, 1.4343493133790282, 0.22544724046063094, 0.43541483636832845, 0.40527118253232824, 0.7330024975063469, -0.04218586379446246, -0.1690606964345509, -0.5626074176760342, -0.2465777754997599, -0.916390492163322, 0.5053442188583371, 0.7168463688182014, 1.6190127865153938, -0.7332996925930916, -1.8145994529930196, 1.869656064994398, 0.5111284105719247, -1.172963642176523, 0.6278520137324152, 0.9784696598291447, 0.7623278620493776, -0.11017254865356382, 0.4920280043279755, -0.7636937615660023, 0.3158749863869114, -1.9410620118690542, -0.5930110408387355, -0.6047831689264204, -0.20025919093902614, 2.0585385890544643, -0.22679853474100664, -0.18153854850916848, 1.1254860634259038, 1.5418202750520305, -0.3412695485353756, 0.8322095968504197, -1.874577316233284, 0.10303809951901434, 0.31164804297197984, -0.31089395903707273, -0.01852850833093215, -1.157801624346047, -1.473990038804349, -0.07501983033800386, 1.3342228418156488, 0.31279842287429244, 2.0689626511848034, -0.8927141034162941, 0.2757382242704426, 1.0017424350833255, 0.23591968580896416, -1.2001668891382185, 2.1287562196632717, 1.1833300004537006, 0.19608495746456447, 0.6857071533621889, -0.6752037725540367, 0.3221102503037129, 0.7441470467465894, -2.0271846503351156, 0.06216202653038291, 0.42275460911914936, 0.484667863062679, 0.12017879203334574, 2.511019849813946, 0.01935654438334226, 0.6187011699455045, -1.021873592337644, 0.26625165962970615, 0.3723118309444665, -1.018710152477376, 1.7295324664471683, 0.8705606027558529, 1.0554344627426153, -0.0505471425388592, -0.3289416806513112, -1.1802637776685814, 0.6220994739343502, 0.2097419377684421, 1.0186646920271643, 0.5430264024272922, 0.5525181110578778, -0.3936681437237038, -1.3509790249097227, -1.0761803685268063, -0.22387383218216228, -1.090493349350325, -1.064817445470971, 1.2105649022545344, 0.9065154049724207, -2.3845188557224537, -0.9974832302650933, 2.4777875194641807, 0.2055519591677935, -2.2065095038901896, -0.28276295629909176, -0.38204689622605087, -1.0176267811886055, 0.401632787195456, -0.9434125057154309, -0.7057799404146154, -0.2517795716743697, -1.448141470527867, -0.8325493733433459, 0.03549788767593811, 0.7232464159226801, 0.19931214822927867, -0.9357544935135312, -0.15110533838192375, 0.10396211487407307, -0.10555918605043832, 0.3250707586557894, -0.6833007762757143, 1.283230751726526, 0.22214146033644872, 2.4542992767525815, -0.5366134631477798, 0.30228077895968963, -0.8286735421431953, -1.7082568353917569, 0.037758428479424545, -2.41931825941862, 1.936874798648333, 0.5790011319436911, -1.0030261277335955, 1.37200871889985, 0.040456363603163195, -0.25585792225847764, -0.29409134914869484, 0.37523892664248537, 0.8295979120624736, 0.7224241107216094, 0.46436638158217003, 0.47364534347092396, 1.7235494196949284, -0.08570165608993213, -1.0763465586153187, -0.8335776897903783, -2.028450810512947, 1.2388257543020043, -0.29200583743795444, 0.2234586110213205, -1.0055237276702427, -0.022875840045750894, -0.022175059559451024, -1.0102880360286555, 2.7924763602774374, -0.568983210604959, -0.45487421824265195, 0.9862449998939592, -1.4628808055607914, -0.5686741346722645, 0.6450691458072364, -0.450080677305537, -0.5049098195510878, -1.051313834230189, -2.5541200769090104, -0.6666819875888533, -0.43754040589984594, -0.3334057858920633, 1.1300014648067636, -1.9839235502520782, -1.3220350614250833, 0.36222291437662335, -0.6124619477646908, 0.6885524810721366, 0.03887209601407213, 1.5451092156935549, 0.2938414760966341, 0.31609024965341903, -0.15192811327844358, -0.7977348842530678, -0.10366417234777295, -2.1260053531201946, 0.8857563166038763, 0.37462432820091257, -0.6489197173928664, 0.44895753955003836, 1.2175792695600236, -0.8695035868822759, -0.7698223324923977, -0.28758575380561174, 0.24147618151164613, -1.0795289636700964, 1.0839394180023019, 0.5480965242645446, 1.438082360922422, -0.3081147414921745, 1.9217365769296633, -0.8089353471832934, -0.32740141257792604, 0.8467857923314168, -1.0872127440567771, 0.04475498604945491, 0.4194507216306921, -1.958637478495232, 0.5637464364334721, 1.387245379665585, 0.548783647186953, -0.7934364795187068, -0.3386733708468054, 0.18751761898859678, -0.3640160205310271, 0.22299703197696913, 0.1962051169939025, -1.819119506753445, 0.7618325577615007, -1.171673593488439, -1.1879427579984947, -0.6730964586813734, -0.8325080034038732, 0.08561037784506886, -1.3804643514276833, -1.2002474240003491, -0.6330466580726493, -0.8934959693485788, 0.62968665354763], [-0.6807771878419907, -1.2097371991003034, -1.2605174197257203, -1.3713238661876923, -2.3715145087955927, 1.9129127035369118, 0.21206868959015238, 1.1605302837810507, 0.4597926935739408, 0.7750399901153341, 0.40845506587922453, 1.2425985682556395, -0.6139430299603732, -0.053303392982064914, 0.7971433164114667, 0.0026846744246488887, -1.4625067374229608, -1.150623647396203, 0.7920172307074362, 0.8465004772689368, 0.9914526465692518, 0.018120130571859107, -1.391592783031992, 0.4224064760932437, 1.7715761175327833, -0.7144012714451176, 0.612812494360053, 0.35844374154741887, 0.4636837655175224, 0.7731761274728818, 0.7893258162646469, -0.23816784606782548, -0.4981173766450653, 1.2143220358246025, -0.581982753100295, -0.5974063553379586, 0.4010320124032174, -1.5598155474970803, -1.5216155568195582, 0.8282341599602003, 0.2989518511258796, -0.6971213328277028, -0.9964856270081384, 0.6872813348591177, 