{"layers": [400, 30, 2], "weights": [[], [[-2.9036204243237593, -0.8479917319133182, -0.28617420815081585, -0.6067914056782878, -0.2642098721410934, -0.6623211536422505, -1.5919392013031206, -0.259317452329293, -0.4430837022958029, -1.520919168619144, 0.795031901169923, 0.06161304292620851, -0.6278607800580029, -0.2325285869821579, -1.803111166014104, 1.3419780180101801, -0.6907341917270493, -1.4929701216815339, 0.29131798283331406, 0.46854158375361116, -1.648016259401656, -1.8568423655300486, -0.7076189963605839, -1.3263365370106839, -1.3449514287634232, -1.8733537095507553, -0.261736236887264, -0.8285701198118696, 0.2609995170942538, -0.7141902323074969, 0.6396279505817473, 0.03248153026013933, 2.155948721282766, -1.9661777601684907, 0.22229115768403518, -1.1276619278428917, 1.1512233365061375, -0.6988007129984297, 0.07374922575596016, 0.580882985143639, -1.1314581315728585, -0.17217427792290838, -1.438814608331784, -0.7944822267642839, -1.037177587848058, -0.3789844720411429, -2.0637320007437316, -0.41567015817382014, -1.631873820083307, 2.7254912336460557, -0.995562362408197, 1.4293429095611712, 0.7292648082773401, 1.854589702552259, 0.8508857562068346, -0.4317436470948784, -0.005875255408391968, -1.0098896590259299, 0.30856320837374435, -1.7970036763894317, 0.958921532945169, -3.3379295323533134, -0.3677505041857771, -3.007751621795562, -0.34469532271049386, -0.9237884649938812, -1.3699123469957946, -1.7863050056505825, 2.110945086028088, -2.1713348470088434, 1.1677127481409644, -1.0425626297332995, 1.327345621660989, -1.0105803704152945, 0.6185619490643988, 2.6335324156998996, -4.4741134179078355, 1.434439628414208, -0.9121930779307091, -0.3575888333806916, -0.9111056394719199, -2.611373682218282, -1.576206368000778, 2.132712277953608, -0.27760028184246266, -1.954091600824332, -0.09272803738595257, 0.21751895610139532, -0.5492491874924074, -0.12222937035137468, 1.8760647860429465, 1.2387459951416004, -2.094766258389245, 1.6964015455928205, -1.1975505120405858, -0.5325044544071812, -0.252637820101967, -0.2756774670349809, 1.388623880167148, -1.0828545977917807, 0.9017959492775255, -2.5382629709331184, 0.5281897340676994, 0.9327371005944517, 1.5464176627235826, -0.15364345368349058, -0.19392678820060108, 0.1501525201311189, 0.8622555131063616, -1.006508189625515, 1.7098313300450387, -0.30539785821216325, -0.47026801221797876, 0.5153633895432229, -0.388489387926654, 0.731708109501384, 0.3602612433758518, -0.01424740911963953, 0.9431369459311909, 0.4585872229342474, 0.8051237366451741, -0.1424614735908159, -1.8957726639385415, -0.4987744044733477, -1.0039951662602518, -0.17389202751309682, -0.21472068093863333, -0.20178260996617534, -0.017682401620318373, 0.3555948692462734, 1.8186665164895452, -0.25591848645934606, -0.5114309874393965, -2.045403587215397, -0.04129888068277694, -0.5809854192731002, -1.186677666684203, 0.7088855602508543, -0.17845523103048336, -1.819950553052511, -2.334162301203889, -1.5671169033027061, -0.969958824655871, -1.1110759993839145, 0.11255848167246897, -3.178635749415876, 1.510813119228922, 2.0942464362266207, -2.3833125155235955, -1.4538102935835129, -0.9887482777234914, -0.11162570606169578, -0.8491725098261446, -1.2679223971937041, -0.9907500684711288, -0.07219917031886965, -0.7645633373352415, 0.23682142752299495, -0.4652163626260126, -2.8362101194898535, -0.6029162769326549, -1.3830576315228775, -1.6325745108510632, -0.8139636487403986, -2.513705140141057, 0.8243168284130072, -0.9061117354256221, -1.8516005289291582, 0.4096654977274017, 1.5771447391684974, 0.006598447794801381, 1.3820750509575515, -0.19417662469764654, -0.9292509111344426, -0.5527221885865692, 1.398998299867012, 3.723121032384062, -0.9805178069873846, 0.9200208827573976, -1.1846955530440035, -3.46933672539984, -2.64310591348458, -3.5000081621675085, -0.36917297354689654, -0.46854139319197885, 0.9887136376658623, -0.7305256434687777, 1.2577663692531134, -2.138054596890963, 0.8073247200002271, -2.4097287749405076, -0.8022761856932882, 0.0588384017464656, -0.4046050646412496, 2.212459607886743, -0.35724967692201276, 3.4688888343067377, -1.1279475659607507, 0.6452866630596654, 0.3181450184352341, -1.4850039856936619, -1.3744526292444754, -1.0006364135157697, -0.8222825717014351, -1.2307576417402262, 0.5203052480944019, 0.14497093439226985, 0.4621735769602234, 0.9634646219564452, 1.0875837977711547, 3.6465814641662986, 2.1064354347105265, 0.3874177814839783, 1.1507777837758892, 1.0761018036282406, 0.4147516177699862, 0.18762784817117256, 0.8189252229569329, -1.939152603256642, -2.104390224442688, 2.083758161014805, -2.33059135038531, -1.0268757579247323, 0.2744303439579112, 1.3739622806993936, -1.3091667646580414, 1.457983053157405, -0.23711827005627872, 0.5813999641832172, 0.15767276176564735, -0.5950452531454405, -1.3795859506038777, 3.590070808640397, -1.5754058059262652, 2.083559469823906, 0.07830225802787683, 0.9020176639890173, -0.48397145494781524, -0.9256278632303961, 0.7145184212494347, -0.6570534560200552, -2.022304683416145, 0.38139841214613857, -2.184734100373013, 1.1814693868447441, -0.12783695795203787, -1.80615755317073, 1.1596430759964018, -0.3926838652539698, -0.6201531801595668, 1.7619863149048, -0.6832179372790758, 0.2962475691823831, 1.4635139719861152, 1.1392472445843553, -0.2823286637762627, -0.40680454952548795, 2.3880423758027365, -0.6746700097541456, -1.5703439952709382, -0.6350829794432603, -0.9185440867783266, -0.2615518419982611, 0.4351567491058621, 0.46719750280378225, -0.7464493602273472, -0.31859675507137597, -0.6207144547304057, 0.40316108232080944, 1.2582168078631488, 2.0179921325134353, 1.441945553583559, 0.5874239010550881, -0.5345242053174143, -0.11998700794957033, 0.9062553968858258, 0.1654290149133506, 1.4778031472483277, 0.16028742369927415, -1.0346895466112869, -2.211968227390245, -1.1374728584804528, 0.5551734691440853, 0.7085492043502462, 0.9146947958030605, -0.6032230978326913, -1.3687107302944286, -0.2957302004249282, -0.12647839233584054, 0.3637624811373336, 0.5202524202096213, 1.2436629255327403, 0.5720178682308156, 0.11741770233539774, -1.414969097534944, 0.7596919457609664, 0.636326156642781, 0.24621786310908397, 0.29578543128397333, -0.6419876302458373, 0.06354720830851755, -0.6458017724026526, 0.052953683300294645, -1.2044460468745437, 0.13936260693170374, 1.4837027653504928, 0.5144080147878402, 0.6916171962040676, 1.1698979038562065, 0.09565564474596132, 0.49921666455124053, 0.645849715743149, -1.031563598231631, 1.747908409454551, 1.6261876600820484, 0.39219335789206033, 1.5466436530300915, -1.5107278250509566, 2.318093367202327, -2.4196505125409207, -0.5646484763516028, 0.41198440731548536, -0.6434523386072333, -0.05980626185119518, -1.7814889787735193, 1.8335911684699293, -0.8505761959061909, -0.14518783387438441, -0.6683128687568993, 0.2856912526470905, 1.5314358489532487, 0.4888509581006564, -1.3147920038201482, 0.517916333455028, 2.2713195423513386, -0.6276006263597852, 0.5107513578783316, -0.5064868849231102, 0.38853908273637794, -1.2182214240021374, 0.34325073026420944, -3.2116467301816463, 0.3743270529752691, -0.4886676648164488, 0.8745532634755222, -2.19605538483186, 1.4015014822701435, 0.8032460095081173, -0.11859767782558811, -1.1427507827211694, 0.4062812526500233, -1.4592889887317804, 1.145718759447724, 0.18850705679099147, 0.9123980648912506, -1.0443526749908167, 1.7925826416691264, -1.6136337751273864, -1.958824272665086, 1.3088499716373605, 0.6754877546420143, -2.1501737202224325, -0.8641963531637616, -0.3697931077928658, -0.21934201140150772, 0.07570761212390689, -0.027919312412998446, -0.13336924651149082, 0.9511610414579177, -0.30100725933644035, -0.34719867416535527, 0.12111568735786035, 0.8924850742443845, 1.0209535848983955, -1.4981301495575752, 0.8759704667799808, -1.5879827078450128, -0.9850383447124909, -0.004465030678896948, -0.30860454379923563, -0.006426752274852601, -0.9948147780303365, 0.5493684040144502, -1.1239562739596596, -2.1709245455469186, 0.3983031667724601, 0.06817790562507245, 0.9706542546166127, 0.34908919347275896, 0.42916280871780527, -1.8984815021773414, 1.8806980191096923, -0.33274697153669985, 0.41165612342638774, -1.3936296909425123, 0.1372236120408323, -3.18547046226682, -1.4472540195175456, -3.049650155557599, -0.8528423300380557], [5.30696178354617, -2.2121679794144664, 4.688574448871303, -0.5411284637566416, 2.197432900866902, 2.205869166431384, 3.756108531718701, 2.250452452051191, 3.364321862855263, 1.0613740267491072, 0.47946629452568196, 0.29986351514752674, 0.7398979592366113, -0.9337523856766844, 1.4945909280067258, 2.3717582823992807, 2.1949359406915394, 2.0944353029761373, 1.1475578519742475, 1.860993955165852, -2.3142839354611575, -1.8348609500280368, 0.4806773530373536, -0.31284299962127, 0.030051946721499318, -0.219766969698965, 0.3907635291660439, -1.5822378796082621, -0.9486952990734484, -1.432013633110536, -1.177784738650357, -1.9390371721836417, -1.7255789151389553, 0.6110560386465532, 0.1535337415323575, -0.5793097266947362, -0.3196019849918498, -0.5000188073907456, 0.6607253602010915, 1.2531223647096243, 3.646940233858444, -0.424571391367558, 1.798379317154659, 1.0276392819425826, 1.5387549759464223, 1.5252599760406, 1.1871305596667128, -0.5039266190140458, 0.6188791319059164, -1.1894478783744697, -1.188624743253603, 0.5891803067552868, 0.5088216534405003, 0.977812991219824, 1.4303526621535643, 0.7145813189127662, 0.12225498872220564, 2.4718174372754196, 0.9053224096260538, 1.192488292369584, 2.3324951329367836, 0.1017140667943823, -0.005626657757843032, 0.6231117483108357, 0.2246299121330652, -0.8037181829218097, -1.0187809385192084, -0.5608334153241352, 0.0672270958496594, -1.5370169336003168, -1.3972222184049323, -0.9371218322290289, 0.14941619751211857, 0.6201893425592344, -0.44662938552612136, 0.4023341279457645, -0.33831635772302776, 0.6252797166277482, 0.7583904089054855, 0.8487831177561213, 2.9482022156417, 1.6718902549093786, 1.305646591538307, 1.936088142267056, 1.1392197214748245, 0.4644688468962117, 0.3662686295148682, 0.4882020162609512, 0.10133867255381561, 0.6738621661400475, 0.28169082667529, -1.4479716622393317, -1.0641887452930239, -2.252919455326448, -0.34658272255181405, -1.0414847346596154, 0.6796052563083849, -0.38256201576228044, -0.35380204512971214, 3.1717273588785946, 1.6899495345950013, -0.7899334193890084, -0.2535791519407686, 2.518052695369149, -0.839168361960235, -0.6023135151604302, -0.9176565687937575, 0.43427508825316613, -1.2024988417885318, 2.0346861687177755, -2.07813461328187, -1.1906854761731964, -0.23267814149397495, -2.166640796369733, -1.9348158152969388, -2.538385077283277, -0.9914014934637044, 0.35324073497613223, 0.7150745455658636, 1.420196172275904, 1.1876572840508015, 0.06416943209895803, 0.5191633668382706, -0.8203134999441621, -0.21948939747158738, -0.7217637184653538, -1.0907440080429567, -1.9261311531038394, 1.2763998922520954, 1.288988580936315, 0.38748359735168697, -1.0602989102177092, -0.9454060295172597, -1.1651177135833237, -1.3609342958605828, -0.11067228047745696, -0.10967517370443505, 0.8939886666487129, 0.590595979885536, -0.690055301370468, 0.04659162074836757, -1.1920864237220599, -0.29272535889211576, -2.88779320147556, 0.4635169775201288, -2.2552533348139168, -2.591421965556231, -0.48969902335727267, -1.7401039470338076, -0.21657554288605046, -1.1107703900041428, -1.0013454068136751, -3.2488152131075676, -1.5535573968779246, -3.060631251876824, -1.04584581179941, 0.3752732961242139, -0.35930468419671174, -0.5860453229949953, 2.806229034569907, 0.31970434478820287, -2.40324581454092, 0.5210459361392118, 0.14338366190826737, 0.01991681802037498, 0.22943899640077955, -0.17505515518569126, -2.2816902508857075, 1.2884053802958977, -0.04438940417955422, -2.3887257184636845, 1.3344799093299804, -2.250023162998265, -1.4456830692042688, 0.022627659339813533, -1.682989598734231, 0.7420760453039461, 0.8974371434075118, -0.623215045870399, -0.858617375266917, 2.805358781483845, -0.6668807596979147, -0.8312886525098342, 1.1680200133313494, -1.3556063501511841, -0.45708097758953203, 0.17384900216481508, -1.3885712741486043, -0.7902431856207818, -0.296247830462023, -1.3044384585627433, -0.6903384720266668, 0.23042224543377962, -0.6502262868492201, -2.279241203365355, -2.353167501964002, -0.0060395660706320155, -1.1829467696497822, -0.009555865565687145, -0.7387175755558958, -0.937447640543877, -0.6412747009910865, -0.8188706394334732, 0.0351070198740725, -0.28088134777027646, -1.522650895436539, 1.11689775872467, 0.4099795280917275, 0.42870540733658147, 2.28821370214117, 1.0050367191923726, 0.29656137560720297, 0.27160245899141383, -1.209582117836269, -1.3282012285429818, -1.0847684728542724, -2.1047647399358596, -1.772429714798296, -1.0641020072521965, -0.0745564654795541, 1.9567407430937092, -0.19066589580920854, -0.2903806180396549, 0.49540965023845723, 0.32474743689069857, -1.955156715412227, -2.053785058108959, -2.1990803492460875, -1.3131812488909396, -0.7321036736615906, 0.8220643399202525, -3.173297304364362, 0.3944049991746707, 0.4917952665651554, -0.09042371682642439, -2.588945974484826, -0.7735116769729851, -1.518399259873282, 0.08527503071921398, -0.07344851770214389, 1.9587798392886564, -0.6864211404760168, -1.1856325400305554, -0.01827165766285205, -2.038885270659368, -2.050387049950376, -2.054022187530567, 1.8986183177394436, -1.408157596337754, -2.327331589878968, -2.2940748442712167, -1.1079580616036144, -3.2692772041388305, 1.4423971683845869, -3.216328500507688, 1.567054715821291, -2.1878301160505518, 0.5650618206477693, -0.8504531578758532, -0.5582129079254328, 2.320555118800624, -2.172537751428778, -0.12438091066190031, -1.5570187867930432, -0.35499822502116735, -2.187765784881954, -2.0732532292116366, -0.8504407292619016, -2.1842369852593513, -2.4079305347520035, -1.7483693443389807, -0.13462402629255302, -1.8678505050543084, -0.4899627971199741, -1.5980618782154004, -1.2424074327098256, -0.06872166833403569, -0.4466386172535699, -2.1750663320182815, -1.0951861863049177, 2.048240331692626, -0.6229331417888516, 0.013745527824486323, -2.056069352463128, -0.9867839077067897, 1.2098616304053593, -1.3340023136589276, -0.4817116199002666, -3.442074190892468, 0.5321756300971625, -0.6596879414499893, -1.9846109942263281, -1.4692913043226623, -1.7042926616570024, -0.025475110594050474, 0.09505418963511797, 0.3269383107469843, 0.7179043362883097, -0.6280981085710494, 0.3483737012192004, 1.9385097311283535, 0.018447279154080454, -0.7933132576761502, 0.2633774793894207, -1.2855682304781673, 0.19716453279888835, -1.2615212317369386, -0.51332727737552, 1.2996081680153566, -1.3930679710232037, -0.389341939017634, -1.9493351549494082, -0.7030629572497349, -2.9282400955204237, -0.5512473804144884, -0.16323507054268288, 0.04887190392401163, -0.17668204670087959, -3.557840168014392, -1.7985046664709998, 1.7102981630016525, -1.405279076755787, 0.08743288088714332, 1.4254173142747364, 0.23856401118170756, 1.7269607368883562, 0.7849982590560223, -0.9140458602110119, -0.22279765721552688, -2.582190405748903, -1.7221572105495082, -0.43145309795104336, -2.1834334315031785, -3.7315085977273754, -1.7408877262495701, -1.0166021328427055, 0.3507134025133133, -1.456297161690033, 0.008886677500222113, -0.3625120098837092, -0.35291244723380044, -0.37769628623399415, -0.9784465140384297, -0.5460141714497151, -1.6650642433583327, -0.38958472151082735, 1.7346473476760966, 1.187007581680426, 0.5822938496543106, -1.0852125847166734, -1.087832520628757, -3.716461944780696, -1.3887461247389015, -0.21923393673238406, -1.6376010020719156, -0.6494174036630083, -0.003337951475293598, -0.8007224896428338, 0.022414437402172898, -0.07500213823773776, 1.0346329805860703, -1.6814984838924731, 0.6574306012505222, -1.7250297529573355, 2.271773797751026, -1.9072559771199056, 1.1271341395250962, 1.002651035903419, -0.08366764272713624, -1.8979574940740696, 0.8023433445235969, -1.7775310925801515, -0.5509914437843311, 0.2514683443968974, -1.4287366977917595, -0.38553034457185975, -0.9214320598908227, -1.2179167818503611, -0.5846276135578972, -0.3424579421737133, 1.988514579689162, -0.4258475582012797, -1.1360825689638816, -1.6026181195746878, -1.3875467600561544, -0.5835240354651468, -0.8236287065888609, -0.12044552789249939, -0.06957727082035725, -1.3393456889331243, -1.0378373619615884, 0.17243036201689058, -0.27703220415014806, 0.5545012573094708, 0.0057455369208248425, -1.5545518699741558, -0.036998197194191354, -2.3907650343671354, 0.03243555090776026, -2.1019055780078233], [-2.0639873133929463, 0.156760410376841, -0.36101081175566574, -0.3104938138437609, 1.2986015132198774, 1.6313478759395155, -0.27669751661334885, 0.4584486959212389, 0.03936794382915855, -0.062226914167827455, -1.1784731907470956, 0.3359711517232994, -0.18659877829885263, -1.6741535710253317, 1.1005627524335233, -0.6260746075259754, -2.7501000863043767, 0.00989972834374497, -1.6158777217780838, -0.571954159489432, -0.4135954349309737, 1.0992769539229537, 0.651047731325097, 0.32608424314195383, -0.9970540273305524, 1.480023968567823, -0.4201725868326738, 0.23649207276259895, 0.28233671780051794, 1.1098611820939044, -1.602612537127679, 0.35036154567547967, -0.6363191478579217, -1.420365724777473, 0.30620455294931453, -1.4702763968629848, -0.4161093080918156, -0.3352886900361943, -0.8343673766011744, -0.47377506809223696, 1.0016841098323916, 1.149184633653344, 0.5486627471547576, -2.1605252277557683, 1.0022646270565807, -0.15908275091017388, 0.3523869170976449, -0.09124020523683332, 1.2012696700524745, -1.631233241512574, -1.4104362671223498, -1.164457303974614, 0.16593884418071822, 0.05992404760537171, -0.40525113593160983, 0.4498090833460359, 0.829659002119499, 0.8163878304715205, -1.0930810419612316, -1.5795265412984105, 0.9144105045193355, 0.04260514106255781, -1.2789170772103384, 0.7764693342437748, -0.5005794112718157, 1.055117043165755, 0.6535632522378778, 1.9114778354127038, -1.2833029432745793, 0.7981829851305313, -1.4263752013081696, -0.7557040760720809, 1.1384973606015445, -0.08040158591899157, 1.1610356262723471, -1.4385324966774686, 1.0262892263402952, -0.7936366713929777, 1.5866151020977866, -1.7690268136509422, 0.6261276693769778, -0.19340331856003037, 1.283913082698157, 0.10616937680229728, -1.2645952907307676, -0.12015863833762634, -0.1852984643870351, -1.2695078600029563, -1.864050670549936, -0.9766771189199781, -0.4377301749414921, -0.593508465702897, -2.2095552650648793, -0.3576867420728407, 0.28859779475939323, 1.9831412099873027, -1.421414269394575, 0.7253893518752236, 0.3230887073667378, -0.009373119776721705, -0.49683981910456687, -1.3163008645005907, 0.23186601575579108, 1.1476576977276787, -0.13051704658371505, 0.7692300951294653, -0.928049144120768, 1.8204995801857804, -0.14247675354505876, 0.40096460166379655, -1.068113014873724, 0.3921940209417886, -1.1558750877217405, -0.13727589485216835, -1.4510309406442954, -1.7673946371403029, -1.6394706570660411, -1.2364645312721456, -0.14046143289276664, -1.0500793412669986, 0.4250955399008173, 1.0342507835204702, -0.2585638331225235, -0.11831176155458097, -0.1564505015426403, 0.6125610018047826, 0.6327526721261565, 0.7225422136592379, -1.252550403036982, 0.3568136566810841, 1.8409820580941194, 0.5814285027385554, 2.042882454900586, 0.7007617934185598, -0.31395421937290924, -0.2592789965261584, 1.0499201894345842, -1.2910754071211257, -2.081279624864517, -0.8054565323270095, 0.2295583492262888, -1.2725207207908724, -0.5377962930613042, -1.243221831072701, 0.34124909329682196, 0.3440970074153623, -1.5624565625782554, -0.8288170369786029, 1.4655547000419995, -0.11318317002935739, 1.150895847527763, -2.38578377313772, 1.0513037573218253, -0.9355492273097376, -1.7809013193607484, -1.72549046326751, -0.13431901270881857, -1.9337457498861945, 0.335509136215233, -0.8883996166838042, -0.507678407147724, 1.810510788897583, -0.7453920700274503, -1.2034126073104308, -0.5700520454449102, 0.7642340027646417, 0.5137891104545163, 0.48363630625178294, -0.018579117767159283, -0.9730894067842266, 0.5100005822301723, -0.041945030287861104, 0.9450654408125508, 0.9874509864764881, 1.0502526192632753, 0.15596562276008227, 0.3614295564119175, -1.3019743460889213, -0.8735183124694511, 1.04110011789145, -0.6717118029296006, 0.9875117997913725, -0.22009434011832096, -0.48883811226343477, -0.0005488222580262995, -0.4644846528172129, -0.301663288232929, 2.5785992454387867, -0.653303729150073, 1.5956687668972966, 0.3052351923854704, -0.03321872582498816, -0.36659172720429595, 0.9555378786129254, -1.2804335391732247, 0.5477155328182864, 0.12277635424691435, -2.5690964745420266, -1.3596616523622802, -0.24298624725612708, -0.41941336794802064, 1.8707168990309142, -0.8383674300060202, -0.12822779875380474, 0.2079143481672517, -0.0056414077641265695, -0.6458862143521289, 0.04426547423701158, 0.9056628730498252, -0.037241897558484505, 2.1845878309083164, 0.6155114351686151, 1.1782963544844112, -0.6874688689211315, -0.03599659242956713, 0.19938191144737635, -0.4296205467550481, -0.520818284024516, -0.5362079877680244, -1.013650893868486, -1.8696972893438308, 2.263580555307621, -0.9672656299427509, -1.1102896180804527, 1.3457460830415924, -0.7445804575550946, 1.3116342712176359, 0.6923527247639534, 0.16002770991372395, -0.4577961279877895, 0.11192073630941798, 0.20979766899241362, 0.8032672014707976, -1.1421964668798628, 0.4031980369891847, -1.0791521976767555, 1.4190550951982248, -0.8781086864932933, -0.30206127033882607, 0.03880668928822712, 1.306236465751748, 0.5064324467911658, -1.0478352004236315, -0.11723863048929985, -0.37422433264217947, 0.8226361124906804, 0.5681235486123399, -0.8491324806876676, -0.1170221483542547, -1.2695047911674988, 1.8995040866987043, -3.5227080531565083, -0.9398469493124969, -1.4043306197219054, 0.5281824345562982, 1.2661870105193456, -0.3383037987131306, -4.875634523106626, 0.7895995503296892, -2.2894424148348365, -1.6352330891373565, 1.1254373326392015, -0.9375174648168169, 0.8838056233043048, 0.8143412712982718, -0.5487034738254924, -0.4104630160366168, -0.6359222460980154, -0.4516110525316644, 0.5244212747942579, -0.6901410183089137, -0.6057227643582558, -0.9228173117563327, 0.19834635436263728, -1.4418519770398153, 0.9272141865039657, -0.9104138147096451, 1.7459568916929467, -1.8966686663198662, 0.3501045642626592, 0.8777304467511378, -1.5413723557894512, 2.188704489081572, -0.28372403564556387, -0.7461047302318836, -1.6087999797754264, -0.7008218188699595, 0.12039973583588547, 0.15048843188367014, 0.6151302793327514, -1.3804156107210217, -0.01211524715666854, -1.9272810503387312, -0.8544598261801669, 1.4123748614612308, 0.3260616638451063, -0.9172988957965182, 0.031829567603952336, 0.15627184860365215, -0.48376458418198276, 0.6764776276617935, 0.6726636026782168, -2.3972126527306385, -0.024782844038184586, 0.01018240772432917, 1.1651243109168707, -0.5937353738458312, -0.5056565495237437, -1.276087705945843, -0.2159249688256955, -1.0745011593774478, -1.645331096465258, 0.9622318268894514, -0.7139859986744947, 0.24949261303672776, -1.657729792502701, 0.3972159635190448, -0.0035007230413923044, -2.2032994702012823, 0.2771510160187315, 0.12833674446359572, -0.2473138234345289, -0.6073218913183586, 0.8801862906134795, -0.371306054558132, -1.1400950844951836, -0.39885500121609546, -1.7666960917743972, -0.619408724983585, -1.0791643372989854, -0.5673400577970235, 0.4539238011147126, -0.6975889030934419, -0.5888327198605215, -0.7958057913989685, -0.34271708023276987, 0.05084778903028959, 0.32530046462511214, -1.139793988482318, -1.81587116243335, -3.0981501056687257, 0.4775294529936885, -0.03913854694595561, 0.14253254941981397, -1.2982028496649949, -0.287254206084689, -0.4775405668884536, -0.3056746021857857, -1.828857514141428, 0.30139577987625893, -0.8494758246866522, 1.4754113599603005, 0.13048040719480028, -0.9503906310938558, 0.608573103104515, -2.2909987244588863, -1.6920516188943115, -0.36772112768065274, -0.22919042374998924, 0.6494846798612712, -0.2442608107396927, 0.2586708757168956, 0.4659096917813948, -0.5291526217805074, -0.42960740393312913, -0.7532097123101593, -1.6124485323529725, 0.012466457729162456, 1.0253235550734152, -0.10099822611084795, -0.06342202455670459, 0.8952760968782322, 1.6870716351134554, -0.8900635877882168, 0.5650941411685206, -0.32157014710908355, -0.41111060419176965, -2.462098835909033, -2.4141125590768717, -0.08507362716388794, -1.1201892164991378, -0.8934918037995077, -1.2393179292947434, -0.8331671151610818, 0.5641936126615563, 0.1327792524203775, 0.03344706966174524, -0.4358957648728994, 0.3920501791357186, -1.4943668831947747, 0.7629711906265523, -0.4382512164956289, -0.17660977632008748, 0.09885103498153976, -0.10101161736834506, 1.7835312927452476, -0.9930684078074095, -0.2334088259320509, -1.3468108731884108, 0.09870117762548067], [0.29222121590946626, -0.25305814324686243, -1.2232966031841852, 0.1523699649752363, -2.5148490644925143, 1.3188011369312695, -2.0026262702149062, -0.14657577643948871, -1.0539358861058248, -1.6000111913391684, 0.920402774661678, 0.2596197939617149, -0.5520553647203774, 0.057878437655249866, -2.551070496314502, -1.1981174613726477, -1.9778138740186118, -0.26389695796873336, -0.42472604833720734, -0.46457306097217244, 1.5213212956686912, 1.528195177759547, 1.8999508877228848, 1.1232831163519896, 0.9811946778045789, 1.8746901679218209, -0.20311298512163226, -1.0010811950141374, 0.2636325243229379, -0.6107691376808784, 0.20676548522682292, 2.307332061664618, 0.7838076176598751, -1.1893353645970763, -1.0555296594765262, 0.8349952123163298, -0.96319194127888, -1.2581981392400343, 0.22144814228336723, -1.535851643210083, -0.31419587094397455, -0.7819960514559345, -1.8322671096212129, 0.30127089163820125, 0.3034347464870955, -0.405018630391244, -0.22090377252536403, 0.06971771793263837, -0.1933072621243474, 1.9084038006112665, 0.3902559416870671, -1.1316793229742654, 0.2200749213725142, -0.7698164747354754, -0.43247649616478284, -0.8176599824307828, 0.06115596839587509, -0.8043391841739496, 0.08257733714652123, -1.2864664789856213, -1.3654089820301842, 2.567922126355609, -1.0928521894784247, -0.9619798898362044, -0.23434061275482249, 2.2514479820495423, 0.7415296943139524, 0.5217360415633003, -1.6302712947379103, -0.45660152178551894, -2.1401415634445837, -0.9238401410888828, -0.4130339083088512, 0.6658925290844218, -0.07453179124942619, -1.534250088702474, 0.11769040633789983, 1.2865018201662597, 0.03381465442584675, -1.339268005880249, 0.10151325680385172, -0.9271541058112274, -1.1098780843868516, 0.9284437114140529, -1.0159648428445653, 0.4036139486005808, -1.3810074281413827, 0.16047636295775625, 0.6475479144485619, -0.2004454132880627, 2.3690606569592703, -2.0307384716925916, 0.9007916518383516, 0.44149168192164745, -1.2889412841732613, 0.549639080498417, -1.8771455233069887, 2.1684871405840074, -1.2298304135770826, 0.30232444547214665, 0.4161024346125353, 0.760509509554021, 0.22910798892170084, 0.3004208913396544, -0.759669933444484, 0.11798377799302523, -1.261286468905186, 0.5938477237689583, 0.060970196489686684, 0.935684441918507, 0.8508054276712316, 1.7825864918851548, -0.33275465406874427, 1.6679210107510412, 3.1423766444175962, -0.06741571211366176, -0.13565916276078024, 0.9496186126108646, 0.4397323779288446, -0.6873597710851305, -0.8743611660592889, 0.8699935134856979, -0.04434833354274529, 2.039421312066175, 0.35821955196788696, -0.15751173399177734, 1.0306073324748295, 2.36044575759022, 0.060361454978151756, -2.4546633031451828, -1.9676752454451203, -0.3646988604422196, 0.1557679266202672, 1.4595698602141858, 0.13879992390417886, 1.3881969158729301, 0.21866549314093747, -0.5101959123983502, 1.8981003845593452, 0.03724732073111975, 0.09645511771838061, 0.13451345757251187, 0.6498006928642993, -0.28320499897504875, -0.4673564429975119, 0.39934011497496397, 0.5285556457767538, -0.955234313442763, 0.6298990490026921, -0.6737764614872257, 0.5646117995534868, -0.3727704722797581, 2.008364359326723, -0.6894959083961497, 1.4951853618685256, -1.0499071088017389, 1.2936005257944698, 2.0565870680738882, 0.8085832526898492, 0.6437095714694021, 0.6051307790253906, 2.7322652825833345, -0.20566086226335242, 1.7668683451213358, 1.2638449979875592, 1.5471318834701955, -1.52424410693795, 1.085345572580191, 1.583601691717503, 1.1057177451047377, -1.9548023823114802, 1.7245405633434636, 0.9657464138418393, 0.05236555509833642, 0.7841103252491052, 1.5992131774483072, -0.12973269008967042, 1.8836380140967486, -0.024029644742282603, 1.5722506855253324, 1.059455072357354, 0.2213709364575084, 0.20380900989734543, -0.03248849872839196, 1.3253959364468622, -0.12178271381218518, 1.7227704343790322, -3.041852025643653, -2.3013155143686634, -0.1261285406528781, -1.4345640821281629, -2.046297416864139, 0.2015578701195191, -2.191224538961521, 1.170119457131028, -0.4923141691010172, -0.06265885056081857, 1.275098149385566, 2.0120264720598042, 0.9749362515872562, -0.10522181997196864, 1.9917975453251366, -0.6979032987211626, 1.0132635704406994, 0.5247908173414406, 0.3176811628704965, 0.024552453330797582, 2.9388806750738734, 1.9703244242190907, 0.5436339243097452, -2.508228370623644, 2.024362732859301, 1.5991522479377553, 1.2617349261722561, -2.016606677303478, 0.24665720203046534, -0.9581038444265972, 1.849815455903038, -0.06005916288755349, 2.6543127317054367, -0.48145750412390376, 1.7260986130916727, -0.44928812340387486, 0.8249083013175543, -1.059008811989667, 2.368343651781814, 1.319966344118062, -0.5640798164653184, -0.7371478872669789, -0.404246474190108, -0.028881123905164847, -0.8986326638172275, -0.7500979039262816, 1.9168657330507517, 0.09930606694283318, 0.5593017608736677, -0.15273204727352171, 1.7753285177260305, 1.5580266040098203, -1.85142796565479, -1.5672986937584765, 0.1838273309277944, 0.6882716966740126, -0.21477932638986091, -0.39976916107659916, 1.0204959354341683, 0.7316007697636799, 1.3617640584340336, -1.1074478568322177, 0.5233423601594438, -0.4352925357716454, 0.745373309012928, 0.7919347146572175, -1.8737869868029693, 0.9810123265090848, -0.0072108536796227085, 1.4188273987848112, -0.8995332055514612, 0.7501651223895697, 1.0941316547671371, 0.5447544467328241, 2.4763104254062025, -0.7003715087605594, 0.5898933023156765, 0.0208407819334218, 1.819559342203895, -0.006979713763040896, 0.27315664276525103, 2.9139442147975383, -2.6276902828976176, 1.5616608049797747, -2.5606472988831825, 0.6340389351573302, -0.34453534458833107, 0.4214815417686231, 0.2465763024406348, 2.011981727629184, 0.6393411787287295, -1.570685686072157, 2.4554423664385907, -1.566067919011262, 1.5598934006282754, -0.42291625675793243, -0.23585978385331144, 0.6833146710584155, 0.23418762550929986, 1.1276639724764896, -0.33511266488542374, -0.724537335333312, 2.805981024901001, -0.5736534907128382, 0.8564339646177235, -0.5583968715896287, 1.5644836287396053, 0.39051922874772665, 3.631175109953569, 0.19881610286419468, 2.231506404094627, -0.7964734623952038, 1.0392453736170666, -1.465212157162112, 0.055151180627449295, 0.47973771392014275, 0.619376110190663, -1.2125544344244277, 0.25201470641126844, -0.029446603022798928, 1.7441958000192292, 1.8345337751863164, 0.29504048872155925, 1.265585971102034, 0.8495762379272027, 0.5140999598928412, 2.2193239245091925, 0.09753827995821193, 0.3046223522558263, 0.09220931806150909, -0.13734980808307581, 1.7262744691872116, -0.23590792440635533, -2.909306696468493, 1.7726571783714709, -0.08993224351894226, 1.7802035053569425, 0.9500676379560267, -0.5129789473928829, 0.669196466641416, 0.12462960614407274, 1.4012018530284245, 2.3463741513064678, -0.26936814018908933, -0.39182529934951055, 1.084801811943133, 0.4290308402832545, 1.054720000097311, 0.01997386574108123, 0.23188680921583826, -0.11195736263576613, 0.19670220216800474, 1.284306068742936, -0.09762580410897384, 0.2947308282235432, -0.5996596836100561, -0.8106158669046888, -0.19865554884606876, 0.059830719896636395, 0.5713403283237639, -0.8963479492436667, -0.48399022128975056, 0.8909449107142422, 1.322315121215287, 2.5542487906098024, 0.4460576385781869, -1.0101597282641548, -0.7432986039551824, -0.301643457667831, 0.4658322314486249, 2.8925898545995556, 1.0951888599233934, -0.2379893474194261, -2.7187099921104796, 2.223204397973307, -0.6921111643671081, 0.9225276529578234, 0.3230846092403442, -0.2440236429159347, 0.7267523591223869, 1.6161634928855428, -0.9228225545536709, 1.0304673753388434, 0.3119676394299426, 0.0827262661038832, -0.3253003398817769, -0.07748189332674243, -0.16136900629472875, 1.7062388491005527, -1.9719503515767691, 0.7081043237380481, 0.36825320409856627, 0.4163478135693901, -1.5231711692612842, 2.5570615162726966, 1.2255016479456367, 1.275484471813187, 2.829136910181664, -0.7909855772555108, 1.0780028036646003, 0.9225141700933938, 0.8177308138226075, -0.7583418400914953, 1.7997236591990207, 0.6146837834805683, 0.893573432645343, 1.4121080452193702, 1.1847908459769858, -2.5690532050418424, 1.0885886677804713, -0.15379175697197411, 1.1353875325017502, 0.27330420137066286], [-0.5078678275169572, 0.03828854812078829, -0.7242835583226281, 2.5097297658072812, 0.37678034164419155, 1.8857754504685251, -0.4601098089380527, -0.9835192013704178, 0.7123099108390295, 0.46030846189996366, 1.6790773924727667, -0.42987599282225786, -0.008495173323009383, 0.8864554700638985, -1.4873187529193195, -0.14015985015556065, -0.7337509217016612, 1.4343269086687207, 0.8560749610614, -0.47310777636303764, 0.4137367355634249, 0.6682147018103088, 0.7038695189095752, -1.1539735884456885, -0.2676977194928474, -0.5598092455839463, -0.3101038638887383, 0.8456919067628104, 1.0654774044520412, -0.033216045509353934, 0.7088548527407041, 0.7514125890928168, -0.3645160257744508, 0.38118177869366704, 0.4587715955648215, -0.25073430279989445, 2.2489197901070956, -2.327425496565108, 0.32710227023601934, -0.18801015701384327, -0.016641826463216675, -0.12171204633746593, -0.8606652847480035, -1.2373871111300638, -1.5909894778996843, -1.6231798030562656, 0.5175976564608636, 0.3742921805426333, 0.3340139605816505, 1.9668624459057238, 0.924585790658997, 0.3996188675790205, -0.36918793487358537, 1.0290949614545624, 0.9367539274298731, -0.9294840502056039, 0.5517314897304575, -2.58349238970843, -0.07846709902932558, 0.18490961581173648, -1.381278742435033, -0.16737206098439544, -1.3257772207172756, 1.3420674937223482, 0.47668309927093033, 1.2595502689837905, -1.3057197216202157, 2.8713809579570184, -0.18554831083133533, 1.067866173286706, -0.7723528313607302, 1.8607565501620018, 0.625836685206035, -0.01319367150302163, 2.133209027471741, -1.2244225154265764, 1.8843841385083318, 1.3907064485313503, -0.3093186346476297, 0.1544454336424695, -1.1202983432315932, -0.13534994082483404, -1.182429251822742, -0.5366523776325726, -0.23929566590374543, 0.5181365768497554, 0.6696300975810777, -0.09767516787399409, 0.9360957187146012, 1.1787436319254563, 1.7333710308476253, 1.4688352981883799, -1.098237698344312, 0.18357924727693428, 1.3951178419199968, -0.10252832134991317, 0.7891106758628857, -0.8537838259530752, 1.361521042367221, -1.0934797124777103, 0.8275353529930646, -0.45052016787849714, 1.0568093335050075, 0.04191852124840105, 2.1361812831769433, -0.5417914665847351, 1.1997355725689949, 0.8781192293175828, 1.6939886413213394, 1.1157097472089732, 1.2219746286502466, 0.8616836499444294, 0.8910910207155257, -0.9229717812332078, -0.9267620918459945, 0.6997633236277538, 2.491168425971331, 2.8480360105597513, 1.616855380060864, 0.5389275656430415, -2.4110102572576038, 1.267294684508177, -2.59629133702241, -1.401069433112686, -0.5799193733456054, 1.4526920435611455, 0.0512790771173727, 2.2579318194100066, 2.141282375365897, 0.5240599003202618, 1.1672584699753497, -0.4100261201918261, 0.13722723625640243, 1.5742527440278373, 0.5497762304601639, 1.6319525702338533, -0.2997460893513542, -1.3904695582558895, 0.3107868636890718, 0.20561204154323706, 3.1023099191604735, -0.2573637856166117, 0.9678212269329951, -0.32074498614622776, -0.6478343082894821, 0.5175326525146973, 1.3686550110483344, 1.6530832092910586, -0.01453249104625731, -0.12666475094054677, 1.2704499261332127, -0.8223470621718995, 0.46075500737894926, 1.4883182252058382, 0.14930750319539735, -0.6862367322366164, 0.4684588907062599, -0.7797153589692499, 1.160854040070047, 0.7743169571588018, -1.0351639360288263, 2.601148663985137, -0.29112312557429393, 2.215458776540757, -0.30454770155459726, 1.9225128420778466, -0.5570354945431513, 2.4715334840087544, 1.1415801740317597, 1.5988988575432874, 0.8481622565566163, 4.813224521626804, 1.1945086243134566, 0.6102327164470501, -0.6752834302617832, 1.6015558701359844, 0.7683130706137872, -0.9446395336023297, 1.2322991034814788, 1.316398598282304, 0.14859923273823986, 0.5335890840869677, -0.8296452633808787, -0.728843087861165, -0.8192583950771496, 0.5768505551639036, 0.26341723677810963, 0.5436713793127418, 1.4849010463535448, -0.1427652564063088, -0.06116724966902277, 0.03376735245447308, 2.258025306674885, 0.7481261266709276, -0.4375593450376825, 1.2687939151993015, 1.218529002670827, 0.1853739499771228, -2.036036985287355, 0.45008529528310215, -1.1889939791459245, -1.2927128169524553, -0.30406144739334995, -1.212315007549244, 0.17937519237490926, 1.218009220493737, 1.3224898160578151, -1.3374919591554115, -0.7796398055555758, -1.9736748604101981, -1.3024300347457787, 1.1740079656193325, 0.8147691804382011, -0.09864664610946682, 0.8310814532965811, -0.6893747681562078, 2.258770074706683, -1.7376731482107244, 0.8361372537011201, 0.36841973251091914, -1.2297388205606987, 0.1821462756875614, -1.5863217289934641, -0.18314205314259668, -0.901391797362754, 0.9832670027361116, -0.8535506803901856, -0.13779607769264593, 0.18885539324050105, -0.20893765464466046, 0.20860318774497918, 1.3744067371810929, 0.48492561636701254, 1.22629809521089, 0.38083487984404313, -0.7022837107676001, 1.0180920215691036, 1.2183641084994579, 1.7813547002443824, -0.7247137062789976, 0.1807219750004728, -0.30675694159998934, -0.8957846454194502, -0.17523130399019052, -0.4325923403249701, 0.8231571224958723, 1.1591389876338627, 0.9063195239930218, -1.7502330953837013, 0.6555152051864506, -0.30029181406146743, 0.7902598436070049, 0.14105554423668218, 0.22585613185250253, -0.11382991534678968, 0.22403413659078705, -0.38870942329907504, 0.5560845078258049, 1.0698761291322727, 0.2966353595772263, 0.8214930090683035, -0.4770558990579968, -0.4559957396734263, -1.085711275223269, -0.973864137961183, -0.568384868179033, -0.5689122040217679, -0.5854824193748434, 0.7316088559051269, 0.03303317401646247, 2.399456034652214, -0.6425896459867707, 0.9858093154000969, -0.7734718812868894, 1.79846881831869, 1.3120174444896597, -0.26026362650567353, -0.25310748665077815, 0.5138440271337075, 0.5178974661711383, -1.570822954639464, -0.07087912658166291, -0.3242426528505566, -0.19219925338949215, -1.9584852073723447, 0.6077759140026415, 0.4272608648653327, 1.8709905882698323, -0.1488527635974271, 1.5523475937936846, 1.408605148659765, 0.15268599666777458, -0.17222642796412077, -1.2977743317741726, 0.3031657624288014, -0.7216390456759675, -0.39745316994573937, 1.0624879999745513, -0.7089479993318482, 2.6514784427454243, 0.03444929462281757, 0.8198199719541621, -0.15472409987541627, 0.18914077141100985, 0.9230094179033362, -1.4769004361520486, -1.6439891940092937, -0.16656397827511246, -0.21922281252861517, 1.343792359824506, 0.4282161584255631, 0.6526490050627122, -0.8281444267296518, -0.943974034675259, -1.214071567136662, 0.2773539806892837, 0.13773822307797717, 0.9810744828961868, -0.5997301592117472, -0.8182006424176202, 0.11432242437929634, -0.5845993240434203, -0.8522118451722069, -0.09388914743778436, -0.43010424969463956, 0.19869799841412056, 0.46448087318083037, -1.0043762209748808, 1.0863744783949099, 1.4938922629858737, -1.9402487143440525, 0.006523155788527012, -1.0041787626784013, 2.105122177744493, -0.3475841067328601, 0.5019101892239486, 0.39528204793994054, -0.16252061102886867, -1.4247419911686818, 1.6988767368352389, -2.688874456994324, -0.09252309578061405, -0.7571813931551912, -1.520402331572268, 0.22919528035092174, -0.012112464384240882, 0.31464550891698007, -0.5840555346882798, -0.40753543309346824, 1.5992965619199782, -0.9406386530631836, 0.49868267187248944, 0.2571027815259344, 0.6777360240434316, 0.5787828735017779, 0.23195387117939728, -1.053202536543138, 0.059527354136345675, 1.6268509835483662, 1.8754272062596602, 1.2685098546501594, 0.2334870501057108, -0.41048610705368205, -1.3295092980042877, 1.0575938897986257, -0.8470758451414386, 0.6925359212047565, 0.053420644803565974, -1.6717433364099128, -0.790168596703629, 0.8594679153352051, 0.3569299150882008, 0.879935963995115, 1.3905373264958283, 1.063152850299371, 0.5235568077514223, -0.4509014522141768, 0.7770651224861757, 1.5839271755707371, 0.04224575257199688, -0.9643601934212803, 0.31717192912415915, -0.3545057017029831, 1.1802670289852988, -0.38069856764727233, -1.961258707426717, -0.37677513288069947, 1.534558102158454, -0.4476838676968952, -0.2663254113294552, -0.1437896987137594, -1.093049550939982, -0.3166777976734274, 1.1389256076811463, -0.6536021548023594, 1.3073680578020777, 1.0507072148034697, 0.19745493820052887, 0.1341457329554885, 1.3166826732203678], [-3.2840588015073084, 0.1371485617284791, -1.3296832217726602, 1.2754584134871663, 1.0527706742404557, -1.061948991051826, -1.5610098129800951, 1.3526629825276342, -3.0826806799456943, 2.608533463175362, -1.2560538251716467, 0.6224055829175763, -1.1688558010535572, -0.3955805212009384, 0.15973199015969752, 0.9470533683473354, -1.9409257994344427, 1.3158819163610065, 0.40190050012548806, 0.13368863363544103, 0.8377829232456944, 0.2088975159357569, -0.09625212194980438, 0.2436854087947374, -0.423737587380549, 2.2278040909112833, 1.4706585245366404, 1.627654886878726, -0.08124465543765465, 1.3225140471477217, 2.4470766196678664, 2.9052520760263243, -0.2103795058270994, 0.9361160549616352, -0.6020185455549524, 0.9725439323183557, 1.0577141383834092, 0.4355956171999847, 1.3259098018479898, 0.912106953791932, -0.6961815917374823, -1.244486968508125, -0.02298130358744397, -2.4546266096360854, 1.7821635228967945, -0.004010319158966742, 2.303374986845603, 0.41694991178503477, -0.5544602146539248, 1.3008750428220839, 0.28790426744781916, 0.6518159311402005, 1.7629961435422277, 0.7460819496469971, 1.3149852398448134, 0.12299578154428857, -0.481739756414827, -0.3352915378544685, -0.2991707143262858, 1.936685206130869, -0.5977299295048979, 0.5360527674133276, 0.04288823647457049, -0.32472645292480967, 0.7960615674762614, 1.6655016815922044, 0.1485629810219181, 2.2874252313700185, 2.0708963347756644, 0.9670617608886206, 0.40625130036531143, 1.2769014459024846, -1.0791903731366757, 2.270235688560235, -0.4563288371725118, 1.9690258159913032, -1.9289723874952536, -1.1221533475863918, 0.3804736885118018, 1.668074127094556, 0.7525188104271503, -1.4389078685604169, 0.6486703444058881, -0.9694653553137113, -1.1718506191124207, -0.06180014494354564, 1.4483213878172, 0.24108423283431443, -1.242648192887291, -0.1601209696309657, -0.21943364811845897, -0.04347968892123392, -1.2091709795320285, -0.6385544961305457, 1.3603065299661046, 1.1128805776389399, 0.20290207802786073, -0.6448651700287185, -0.06063144989852598, -1.4078136685714666, 0.4900806962206898, 0.07386934320752377, -1.2813968388595405, 0.3714519886483692, -1.8358487273215935, 2.5656985460459096, -0.3856273156428281, 1.4418787603043495, 1.6937340036883497, -0.9205543007014045, -0.09593898686639162, -1.9875674243664592, 1.7631541230854977, -0.41764294832081994, 2.1414683784256945, 1.84507083877171, -0.22035420527571214, 1.3051478445646822, 1.6479840642282393, -1.046497996819642, -0.39954390684015995, 0.031535370352115226, 1.9720339865544634, -0.42394174853766003, 1.2805654498331522, -1.09537493198632, 1.1879873206675295, -0.2921602769350723, -0.1523385089744743, 1.8342461707961473, -1.059748500687406, 3.0633586242502417, -0.02531804459612767, 3.8814017599484125, 4.4112588196835265, 1.1791261134640774, 0.26794602471115275, -0.5915173349983379, 0.5597944393106152, -1.859092299580199, -1.3757292580788194, 1.6428200846018475, 0.2122060984442231, 2.4214078987004757, -1.1999676396498262, 1.1660420365938662, 1.1682823105355706, 0.9669377556408856, 1.3866293302719277, -1.8854988547709495, -1.2473976048462423, -0.2516903740844952, 0.2716177315129334, 3.3273791901443057, 0.4042545425854307, 1.4873521905174634, 0.917056162226521, 2.0982500815586933, 0.4005227235346235, 1.327974602662362, 0.28250344006848105, 0.680559571705907, 0.4869327024975128, 0.6301387496048105, -0.6404406718808373, 2.5495234255059116, -1.5350173476048088, -2.2539257723181954, -2.2389674033036933, -0.2531975070773957, -3.0442382379358794, 1.8727471122343329, -2.6630247422452973, 2.7665699267477653, 1.005551681590294, 1.8763346108582792, 0.47548693328452324, 1.4312736404805977, 0.4016925268595967, -1.1387481890031024, -1.3723609958011453, -0.04390389720050658, 0.1665619368937749, -0.487439191138881, 0.3159572163269283, -1.0767915333729527, 0.33126329146886063, 0.7303927205087151, -1.541668738442449, -1.609160308533157, -1.7638397978598828, -2.5196443660295906, 1.2994173502321587, 0.6824103543946319, 0.04946611428468393, -0.21849708340643625, 0.828271929564608, -0.03512395284929092, -0.020636020314282796, 0.8686848299425303, 1.4454729307775258, 0.31893739316756065, 1.1427370526198681, 0.8505917367381158, 2.222177446725026, -0.6476663796816525, 1.367558755605051, -1.770476008035307, 0.04271612680091021, -0.13688202150723414, -1.0731715805583029, 0.25121293939678774, -0.6078904757680604, -0.493622987311191, 1.438683780535233, 0.11178218297966508, -1.0818197667792755, 1.2004665210485812, 1.2599517831914184, -0.13869135143553596, 0.6843360834820609, 1.4222508719345441, -0.14593365042774095, -0.4842108414126178, -0.10888423147913184, -0.08924145958334245, -1.8681405664115174, 0.43845917063014406, -1.2977219276655703, -0.7146954292986806, -4.406013686509145, -0.11031792994740741, -0.44753552504578276, -0.24122249599284137, 0.2789717341353779, 2.760734852530378, 1.8469253773176564, 0.7074430094666677, 2.117151704225915, 1.6225749927012139, 1.373868824472014, -0.5366393784853329, 0.31323725410783887, -1.15826077206727, 0.5034806175993972, -0.4307521272915079, -0.10992450591968103, 2.4112549402258314, 0.9826905457009821, 1.204110962416789, 2.4082192684689883, 0.06794531646766996, 0.6819026178901402, 1.29533481461813, 0.6504112233944807, 0.24203367536783563, 0.29686890818783107, 1.2905836704966338, 0.7293578661372532, 0.7138372062348114, -0.5650132789629921, -0.254579411141941, 0.2735089875858543, -0.5547016413306387, 0.42964494534396874, 0.2704984915394273, 0.4059805132843747, -1.7784871883662574, 1.2513413598192822, 0.12215783960665469, -1.5297072447306665, 1.8185550381429143, -0.2799621082562787, 0.07086922431096987, -1.1616001472546427, -0.5013204914264926, 0.7733620283829061, 3.0763644938878256, 0.5656101724592123, -0.655890626379373, 1.5476062191483109, 0.9462208116071636, 0.21842583334167004, -0.7396656797847123, 0.07246294610463108, -1.5270336839957397, 0.10758575419613631, 1.1820592906897245, -1.6151627865609255, -1.39627549457722, -1.5561064026039644, 0.37191359615340575, 1.9271265072091748, 0.8190637217118603, 0.2538330989291581, -0.6782475848654687, -1.4604213948591593, -0.36818107238871434, 0.2753576138054624, -2.005352809690137, -1.1263912522215038, 1.5057968809741642, -1.8976256897518007, 0.0319878902926446, 1.9694879391230928, -0.4192057222432665, 1.424018708152955, -2.1549617147191795, 0.5642508213390004, -1.6524795642322618, 0.43416640576684096, -1.7398611091328797, 0.06981534584156321, -0.734052835537276, -0.7366139689089003, 1.806498510592999, -0.23667070479875307, 0.18742380068531836, -0.25645231589494116, 0.7148436960223767, 0.7454767655890875, -2.185979366555781, 1.0618258892259678, -1.1697816851943386, 1.589326524565509, -0.5530771812007265, -0.8015786368003779, -4.1117019933625585, 1.438045959771033, 0.29311997400395234, -0.06160764408372813, -1.9600379268460004, 0.35785809137173935, 0.09167194251195945, 0.24530765448968103, 1.5018176476557101, -1.6660088342207395, 0.42149517089230737, 0.673570498442306, 1.7146419500706174, 0.21260012324717376, -0.9885492340981852, 1.009212898587678, -0.7291358149633961, 0.3789918036389445, 0.9810999257595931, 1.3418363429999667, -1.0518761317354826, 0.1409053689997926, -0.8325650593666488, 0.33824007002296824, 0.5160922508955753, -1.4712174583496267, 0.6839780435247613, 1.3577922260675004, -0.25164811676392634, -0.9562891129313501, 0.7028916956553606, 1.8267716002610759, -1.4772532910528318, 0.8155394967008839, 0.22343767049653673, 1.5607885707549698, -1.4545502740351886, 1.4933404138573314, -0.08677598909766834, 1.0068276238016687, -0.5349738696993677, 0.19047570839022773, -0.09441066728742407, 0.286367890065833, 0.22710493288068992, 1.7144255956975942, -0.9005910702344231, 2.2857992647935403, -0.590973361057786, 2.151359510987505, 0.5740229946345868, -0.28351994988966533, -1.7308367249199132, 1.3433925816722891, 0.8089070825822893, 2.0567304026063407, -1.3155837327434843, -0.9795683707868605, 0.20617268091206584, -0.7382036526768059, -0.8386846137943749, 0.055966202001138256, 3.0688274018389983, 1.5229698565407546, 0.24427991635291485, 0.7465558532366035, 0.405567630024394, 2.1071308936243867, -0.09261418801229039, 0.3708189916069859, 0.7321115267149164, 1.1217674211170006, 2.213087887017801], [1.9202545199697614, -1.0409620242126878, 0.16349330404153503, 1.0663288498076424, 0.6813883678640762, -0.2208875985872535, -1.75444071624577, 0.09126725114926154, -0.8383241115535736, 0.18364854068122455, 0.604432146360663, -0.8974144765148453, 0.6743779581557408, 1.6239949860846585, 1.1551569566648867, 0.6064897675110228, 0.1962071073417487, -0.9905601035115664, 0.46226159736082917, 0.3746977613169759, 1.3608345803341215, 1.009500835256548, 0.2208637617257937, -0.4394854825012613, -0.474803404351102, -0.22336939753348561, -2.0092203472985086, -0.461517208440181, 1.1103950621728158, 0.3668828799322636, 0.5106898847769759, -0.33560083542251967, 1.086604111060549, 0.814597796106739, -0.4978926455306081, -0.4371738538367336, 0.6782557940968275, 0.422156208660741, 0.6169047413862058, 0.8190353806478194, -0.38911073836318383, 0.6865836803296388, 1.542391674317809, 0.6331164848130693, -0.6827515978173188, -0.0806704966684887, 0.5734093194251919, 0.27660287533734956, -0.6073606937340504, -0.613087155516401, 0.4220381657002956, 1.4234327176142825, 2.737404981101187, 0.3202774423719733, 1.608481224904392, -1.7702598953179975, -1.8103370452629122, -0.39848544841315947, 0.42312188951974233, 1.4162680888857888, -0.32777257989049363, 0.49676885291960216, 0.9364520065188211, 0.15385617633905635, 1.2321489433232877, 0.2669223621249041, 1.154683447684065, 0.06393827528892893, -0.25346365016080524, -0.9383029476646478, -0.7018050281133739, 0.6456420527730742, -0.14500905096084946, -1.6627853812148448, -0.8365331910626589, 2.5211022423563967, -0.18120490561293345, 0.8881310337282599, 0.11526908388081854, -0.791065630295658, -0.5327098837938348, -0.5885923462224113, -0.13341698975598598, 0.9785507313323586, 0.022566744883441733, 0.3079553265659681, 0.8418426385623863, -0.09122844094098044, 0.0998261089436324, -1.0001116632122, -0.29495778976924214, -0.43034600309200616, -2.0179060188842706, 0.8836794828771203, -1.3683995431806024, 0.12535767754511337, 0.23790051852732647, -0.5029622144770062, -1.5843020156361232, 0.7113789461678439, 0.8445706110131183, 0.7200141105110629, 0.7693044556250277, 1.2752520032894719, 0.47123932459510753, -0.2288135197791287, -0.44672142711369695, -0.4963482939451059, -1.1825067678272332, 2.1910609113229063, -1.2042802184105865, 0.22039378619555297, 0.20927182240407913, 0.10253250123163783, 0.5955292022040689, 0.43604254038955736, 1.4559637225858413, -0.3398140269444318, 1.5225303924615186, 0.8574849942763411, 1.4397154193712358, -1.903097062083029, -1.9139524114778221, -0.9338693409821639, 0.7076302405837634, -0.3822966948937051, 0.2289682051581599, 1.452714241787763, 2.075451695782988, -0.9987675941739449, 2.061296661226215, 1.013119867393555, 0.1005538339594673, -0.3153057321836331, -0.7231675243114957, -0.999422631571693, 0.7423061886009235, -1.121635968296442, 0.28911175614714935, -1.3835373494185443, -0.1603901175732067, 1.686481424037657, 0.014573308007680103, -0.7647026426425735, -0.9391894766049528, -0.41205828164425223, 0.7277555630381821, 0.49780391105021427, -0.08753462838403807, -0.5139161617397232, 0.6786534536330545, -0.45394664248047245, -0.9287240485726942, -1.0655748284890563, -0.13585871484131767, 0.591047102906181, 2.3780346497957807, 0.9489391069415607, -0.6021270180391766, -1.9153663375799341, -0.736241472606038, -1.1740310429760368, 0.4879478469161719, -0.43276363525070277, -1.3251462040817323, 1.0969225151532673, 1.324153254891042, -1.1696442999842618, -2.5583062068730755, 0.42251145852941774, 1.4020825187861243, 0.30771412411411986, 1.097532605584817, 1.5515603583196407, 0.44474235745267077, 1.8862217328366964, 1.2757487971991952, 0.42675278678624173, 0.10649757571539402, 1.717788522824895, 0.3476703385975807, -0.37544435643125634, 1.0751736917831374, 1.7511956689935815, -0.042587590750250634, -0.18423628510528678, -0.5360107641102773, 0.760526907011709, 0.29307822632995506, 0.557810057301343, -0.6638117980549838, -0.7412483179484007, -0.6172368404878209, 2.058873861556616, 0.2917134063852674, 1.3712462344813812, 1.0968411638867843, -0.4921075171565463, 0.005478443092544003, 0.5379838361930995, 0.08856240296885777, 0.5207882870611945, -0.9191306561469239, -1.2752219821839366, -0.335764934151912, -1.2464327632086531, 1.341529951279471, 1.0593304502325613, -0.019548863753546523, -0.3207616233238662, 0.8750262681084389, 3.108317860257351, -0.3846934600984335, 0.9824296730314794, -0.5588332605067048, 2.634525784927565, 1.158442323678831, -0.6333389928053147, -0.06672393994654457, -0.708819231212167, 0.27954455697073466, -0.422439774184104, 0.18181324518331782, -0.555148530749848, -1.0579736012519052, -0.6292720382869522, 1.4880187247405086, -0.4477448392368551, -1.0026814764254846, -0.7601371795674248, 1.9185586020788683, -0.1651688197801171, -0.7562560965954481, 1.0471026502246101, 0.18840093653808737, 1.2961250653092626, -0.5270853082845226, 0.3201167832793411, -0.27836006580646155, 0.8429640934962044, -1.2293658182683995, 0.8831561740092929, -0.7070319750759091, 0.24775251200573517, 0.3200232705175387, -0.23140777359368941, -0.9513632136604021, 1.7825805943732906, 0.9049559623765514, -0.24444945479695643, 0.11920919931571454, -0.5063605573342236, 2.7449573296459855, 0.2812823058536025, -0.9916867755944551, -0.7907771722677023, 2.895409722825369, 1.6561483556697647, 0.18781732564166273, 0.36313560129792516, 0.36886331697993435, -1.6932379592248674, -0.3886727625058992, 1.275564802514635, -1.1181337349735645, 1.1337227604623568, -0.44830735536974553, 0.2870897336491715, -0.9134174963900282, 0.7700598732348406, 1.2481422141478513, 0.5474891967422679, 0.9260595949658124, -0.8845689393628553, -0.36771840739494766, -1.605960288954185, 0.3557654286428434, 0.7729726939381216, -0.8548040135345613, 2.7127391556724785, 1.8281344926695877, 0.9179960374441726, -0.011741244265899873, -0.11044738183876165, -0.3928900110615443, 1.1194959742881223, 0.19940983521499434, 1.7608013438218613, -0.9230811536932243, -1.2454332195688151, -0.20147367471085728, -1.6655511568775405, 0.41514543880715177, -1.2718703595131198, 0.5208624578373129, -0.12924774528989627, 1.2172086342844612, -1.3807247196812107, 1.1481461897258318, 0.6213517121098042, -0.04588229907256815, 0.2527491313455752, 1.3660219656338246, 0.7070844967596976, -0.5044675870699966, -0.6347671900686088, -0.07826470027613859, -0.98441910864701, -0.7840688681612089, -0.031702504910807464, -0.3326093354507656, 1.6732938390999414, 1.0697746200479852, -2.1794958559469575, 1.4048775554058743, -0.6233879636252948, -0.600651456761031, 1.1863306654493702, -0.47727957935709364, 0.9129020625165201, 0.48855460024897884, 1.1026711718303033, 0.8138186289026365, -0.19889628002063536, -0.6911811356288762, 0.32791052937898685, 1.3406482329564529, -0.8262673107410512, 0.013325174420635372, 0.49158551729849553, -0.5994652166746273, 2.484217464616851, -0.20547245675652576, -0.2586328403316483, 0.30073776704355193, -0.2528878197125092, -0.26131388364141755, 1.3475874661650804, -0.14221060110216002, 0.10132899789291601, -0.5014694278319333, 0.7140901356766894, -0.5597346056841391, 0.9702347619627152, -0.7569766764350973, 0.9587369885093074, -0.40496823701406187, -0.12372301124682442, 1.5666600365375656, 0.850980767728356, 0.4712616496087579, 2.0211250897158175, -0.806064602832504, 2.127042586162963, -0.479460595029656, -0.49589452039978715, -0.7111888073031296, 1.0461674606276152, 0.6398497163558835, 0.3052461761867556, -1.3606541999157002, 0.027481804984040646, -1.9616115871855353, 0.6711243995122298, 0.5342424072784492, 0.23947032428621273, 1.6675074062158148, -0.8882083850401562, 1.3045929767508404, 0.4381177787403836, 0.6263979269495774, 0.49862330169251545, 1.646871871399905, 0.18934334242743833, -1.3135470270714182, 0.6542311134558302, 2.645196046227411, -1.1048626197346947, -0.2531845739249279, -0.8570608953035036, 0.36320472648755797, 0.26691804315883355, 0.7003944839836294, -0.8598109976361605, 0.7891719240175867, -0.4343925990516138, -1.5237794644642622, 1.7951605793174084, -1.0020803859610976, 0.777928680038996, -0.8441909024954083, 1.8981964344157953, 1.6517594309669474, 1.112152834263874, -0.6103622420528884, 0.22211928624751595, 0.07225961838975635, -0.4129829850745913, 0.6253222743828739, -1.1926198692206573], [-1.6864504617003457, 2.767146576719428, 0.43109597853220744, -1.4450547588806952, 1.2098452734015275, -0.13629525105504017, 0.8139829996329704, 0.6001348755641437, 0.006988091714925605, 0.04147754941523017, 0.02579149445689491, -0.9650518358480344, 1.154701574170846, 0.4382598900187364, 0.805964297829238, -1.4028619724043638, 0.4366501482891771, -1.0809093997055899, 1.177824884509118, -0.5434280645396973, -0.09395196622899919, 1.0751446309689987, 0.14032760952021603, -0.24774217141618488, -0.7262324922692434, -2.152913340562694, -0.6881823764483493, 0.08446606597217923, -0.38826569687189566, 0.7177708693855781, 0.4082136891847876, 0.4607177407300936, 0.7251678610332525, 2.5057212990988478, 0.5387386620536568, -0.1781499926971833, -1.312128689631619, 2.622640269093118, -0.20733989056658833, -0.5492290418864957, 0.3093772356810249, 1.1094577420768603, -0.8033311288600061, 0.09841920178067892, 0.9970151129079816, 0.5348421777154581, -1.1313139138166448, 0.8116932624144125, 1.3709020988097715, 2.3238053999199173, 1.2061082852344334, 0.0016569028263200966, 1.4928598012925782, 0.21181520026915016, -1.3005349481454476, 1.5335189443046606, 1.8502399722085772, 1.106727283577978, 0.9067283287261563, -1.5993994534243767, -0.3967825624771473, -1.3849146431080746, 0.07321169617237601, -2.0827834242230012, -1.7459651680300594, -1.004704701760436, 0.22347509267895274, 0.636966801223271, 0.5639347812158868, 0.7199864216578492, 0.4852753285716619, 0.4924011083460391, 0.5019585089076624, 0.6524949231890664, -0.1757169673857554, 0.4224185350432292, -0.5734330262236442, -0.7192574533282055, 1.1711071246175535, -0.6788913877261993, 0.7384363184563477, 0.26898203031427304, -1.4655988961820747, 0.5993295278738989, -0.3722792898850138, -0.261058813649998, -0.43036894187128033, -0.5794080690434097, -0.14798145687334444, -0.4752514335608533, -0.8079115195376659, 0.010287997420790293, -0.3232832932532886, 0.1783713952990915, 1.7427487009868998, -0.6155520013344842, 1.2326633465814318, 0.9545715431627477, -0.24011402110309712, 1.0284198098815, -0.9312988018725348, 1.6184916411726427, 1.9335528073393757, -0.6095769481645725, 0.44702136490234945, 0.6485782566955471, 0.8264741086760123, 1.404548144298024, 0.9495469300161581, 0.40134149989981116, 1.9673039136910806, 0.25336535242957137, 0.32909480409947084, 1.7121275053065286, 1.0762977689059432, -0.672178248834628, -0.2218871810955051, -0.1097127438428315, 1.109419978615932, 0.455417619344904, -0.28137517870307704, 0.3830000590392073, -0.8234643246427106, 0.7175105159237544, 0.9970322365630769, 0.2661650248481336, 0.9437791629468292, -0.39667677314765354, 1.634159356030003, 0.7088199221574897, -0.5203445569275418, -0.4090573618735791, 0.09855095435131993, 0.676628927849712, 1.4113537236455556, 1.388053711315673, 1.2950248146669816, 1.3675849221302325, 1.7473486895553814, 0.2067140349896383, -0.933239498079947, 1.2416099911166052, 0.5582787853360924, -1.2161990158937257, 1.0014912129944624, -0.20907477000763175, -0.12013949156217706, -1.0129685317026182, -0.018952237781953717, -0.7906638223293531, 1.2686534328548704, -0.2683748445009229, 1.2579456629237722, 0.8887085324912142, 0.7338180054107832, 1.5065428442231439, 0.8044589110541948, 0.384729992201465, -0.014593756108079276, -0.8029742691734736, -0.7901498538205652, 0.16943938142811227, -0.3356820416297604, -0.08948418323402964, -0.3732211361043792, 0.3171288606171517, -2.046598823708538, -0.10759636061417076, 0.4808255680079682, -0.054931888571764224, 1.4562412036057863, -0.9059403802534642, 0.2087010550289325, -1.5796238203628536, -0.5963188820565111, -1.3711839594662074, 0.8100229487823285, 0.11069853681275496, 2.0375820897213366, 1.4881979759415482, -0.8090294982063779, -1.5309203608992548, 0.37756629563898714, 1.8327917995978547, -1.1654853306749076, 1.6935368797797592, 0.8660383681039351, -2.1593277639175987, 0.4037162951079873, -1.2954031760324083, -1.1101684680374164, 0.7326668209410502, 0.7632430236378855, 1.4983263221642777, 0.07958928662478533, -0.1914568229777786, 0.2786184656399066, 0.3120871595511106, 0.9562729466248747, 1.0072487687260339, -0.004647490301412028, -0.35440506543004985, -0.4967817598517816, 0.5337970925915809, -2.2841086564031206, -0.7050746633734092, -0.1713879949561958, -0.1078865175860516, -0.2412359818991619, 1.0284971845479787, -0.9184437862837923, -1.8450345590212052, -1.1431011459405043, -0.5750867332172366, -0.5858164094367213, -0.2525536724880757, 0.46119603679793303, -0.269071936396845, -0.820534949217331, 0.4771533259268718, 1.1479848868989788, 0.7978484288418735, 1.1484244437277455, -0.6564232121584166, -0.8736158686119684, -1.4336238901574692, -0.1395190677936926, 0.1710329429385577, -1.8216312161815078, -2.081999295021412, 1.7697042302714576, -1.2250155549990593, 0.04199379701567765, -0.17497413925766478, -0.924167802346163, 0.11867310474055956, -0.1935455869073018, 0.8257760805653203, 0.4798819008000121, -1.3732568000195688, -1.3147414104866155, -0.10514356342895734, -0.36707981979139975, -0.4734905543523708, 0.9009500745714752, 0.5209422697548063, 2.076524394539426, -0.954092114680092, -0.04342090955264134, 0.5962369571866459, 0.20729812674463427, -0.6367155587127872, 0.32251050619697014, 0.6121312453401667, 2.2652494029540966, -0.6690724915115883, 0.7681800713887644, -1.8781271677061526, -0.41392259350785476, -0.014580853372885012, -1.2292202121769988, 0.3884278972934138, -0.7327373399184199, -0.9768091861721975, -0.9665224832879179, 0.12370299377221215, -0.07364955740464584, -0.36903244115280676, 0.7808458126040109, -2.20080942600783, 1.7155142765994833, 0.34401742871549373, 0.05904220499389726, -0.5352206102906588, 1.0195606357637998, 0.6058622365019443, 0.41443274987981127, -0.8577248872981954, 1.693866031311623, 0.06258037810434777, 0.7527704276502214, -0.6057812495921124, 0.2047965045836163, -0.5534234393291354, 0.9974762031736824, 0.6491846768033717, -1.4143276907751352, 0.2174767022629696, -0.5087593867099315, 0.09358410278049838, 2.356622824011663, -0.07018059290924657, -0.012710345047925958, -0.08704981316247147, 1.7925381360895873, 1.1554053037720813, -0.8144151760339438, 1.6223496861262878, 0.20903502769931018, 1.5502935357729024, -0.35950651994471355, 0.6865992866175828, 0.22468096457313008, 0.25314425740685687, -0.04459845794649619, 0.1788014988460984, 1.8455017116008159, 1.2715303684084505, 0.7128049382376619, -0.40196278277154396, 0.3623234833973062, 0.24888747144758486, -0.6775112399536035, 0.602710433637905, -0.2646213097612999, 0.028223367198110236, 0.959559779971052, 0.27612971455500496, -0.3035098814264615, 1.1055222710078643, 0.5086066892158917, -1.250941434232752, 0.5843590272822415, -0.46518841217717766, 1.074525618530869, -1.5172968951985777, 0.8192552608988353, 0.3207244576131905, 0.64479565969042, 0.9409940618268586, -0.8175250022986599, -0.9943614633931755, 0.06930909038957292, 0.6683701919040621, 0.6146800553343977, 0.6794191601349701, 0.0743921558427107, 0.34837658427502294, 0.5113197681817637, 0.33652094498876844, 0.22176240263126817, -1.4338538024861462, -2.0427578558079356, 0.8043475084134935, -1.2290431498702301, -0.286094394930166, -1.4973185568067764, 0.7033088862125009, -0.6004889329656138, -1.4476473565122223, 1.4748448391603803, -0.6231424287553978, -0.1028798419019755, -1.8319334222882533, 1.172786658085973, -0.7501048605428141, -0.6286595911892217, -1.9525918933665205, 2.215786662013605, -0.4229933903977432, -0.700605935879741, 0.9967531822135878, -0.3189018251556872, 0.4109694062819773, 1.8115845299724074, -1.581748434063113, -1.7601009778943226, 0.5843266142538552, 0.1250826365444818, -0.4800088199671408, 0.6473503188761012, 1.9199351690457562, 1.3598822036414078, -0.06520770767881753, 1.72013736374061, -0.3272747862179143, -0.277289625832432, 0.725431712416739, 0.08827580386268938, -0.5195853713366645, 0.18734573358301781, -1.3159576950171588, 0.2314190941848951, 0.5663461869976193, 1.2434643676942172, -0.8396466786011129, 0.579563972827492, 1.347052571261086, -0.5266510157016963, 0.046883067289048175, 0.8513998565528851, -1.2672039429364848, 0.23663931733205382, 0.2173874868499271, 1.1496714848896024, -0.9204376787448905, 0.10264721063553342, 1.1774576540866533, 0.2393219304524796, -1.099725247738024], [1.7955984763746626, -4.475945106485727, -0.6842921589272642, 0.19607554611119865, -3.103666559693295, -1.4760479454512327, -3.672675180225543, -3.6281110934045064, -1.357986045116128, -0.24923772824686138, -0.49326851498495333, 2.103977986548871, -2.2927998578753064, 1.6224335427625625, 0.8030249198793296, 0.796489542615303, -2.065565418043144, -0.48470808885129346, -1.508383417960733, 0.8368030836874728, -0.23395099205368913, -0.1757232627235756, 2.254492573774383, -0.9929128633524348, 1.202103532390379, -1.6382259211350185, -0.30207957414392617, -1.9210353756009957, -1.3127828614724326, -1.844983353128415, 1.4128782194545972, -0.8973246742411332, 0.8090909721578634, -1.6656286149350785, 1.037822312479582, 0.06320969013534546, 2.2524086897062348, 0.5907855638139323, 2.1596330117889027, -0.6454154447286745, 0.12287908717194129, -1.784032116730126, 0.5568512188609482, -0.6233199788606341, 1.2386818956259396, 0.2812619215484695, 1.2206207598467789, 2.648596412477063, 1.2372921878168353, -0.16401872616793936, 0.5303500478622615, 3.5067441143521996, 1.279494174246063, 2.1214088329879983, -0.9316000620720017, 2.0642012997417134, 2.24448258767117, 1.235676695031071, 2.752934145662682, -1.1044736841247043, 0.7338739019681951, -1.3704599003465072, 2.9142491152822556, 1.7941168286971054, -0.6120200480618797, 1.6416104764469588, -0.4618397002095706, 1.2211148713692115, -1.3284194457721603, -1.0452660928897741, -0.4857518347026285, 1.0859634730357146, -1.3706042624986001, -1.3902285778684331, -0.05773464518944616, 0.9849116085687756, -0.6706670786386365, -0.6980621710133992, 1.8048013940310474, 0.67434032443261, -2.8247785067852744, 0.7799076687063604, 1.1317891700204497, 1.1002013810193336, 2.0646923323787107, -0.6196472929846082, 0.27743331188796466, -1.7423856730084895, 0.3220386968878264, 0.01684921357367769, -0.4893091145245977, 1.2198180645296537, 1.259637657489681, 1.368090823530027, -1.6888383931827398, 1.4875375690393016, 0.2031170463204825, 0.6279809135752176, 1.9827734019295407, 1.3975689590697153, 2.3461714228753725, 0.38327892980018075, 2.1541196485057488, 1.356007721604077, 2.2118899645525647, 0.7353434139979637, 1.3683147187653235, 1.3129060171542104, -2.5952646643914994, -0.2736011469292037, -3.0240791561286224, -0.04531873920333329, -1.1317496042789659, 1.294572277616825, 0.31385248583039815, 2.702024272027003, 1.9453159116651346, -1.191894218906108, 2.006473808471821, 0.46610641504389405, 1.2774107686047234, 0.8161428034688365, 0.6389039078170416, 3.4036694601474227, 0.019418136510588695, -0.4566817481659498, -0.8600304492078343, -2.061304651486231, -2.057334479570428, -1.6068443646793282, -2.457603170293134, -0.20412270067211177, 0.08689792743130205, 0.5579605944643906, -1.3919172653854037, -0.03969204768517842, 2.3487481577679525, 2.4192818749104736, 0.2454428206894517, 1.7115467834392222, 2.7101984279475597, 0.44269182093316695, 1.8257735631470164, 1.6873022263459514, 1.4573225950248987, -0.1818631192541608, -1.766600703225773, -2.5363556396507554, -3.0201811568392793, -4.205404212187627, -4.93168068209426, -5.4964274930743935, -3.65749149375458, 0.6409008429448025, 0.13106299424078105, 1.463289305787352, 2.0642489487671027, 0.6428205117974016, 1.3754236511657814, -1.2208633561917082, 0.29408288937875476, 1.5312067817409079, 3.0807619578743597, 2.9285527102814304, -0.9244449888821704, -1.262052189493852, -1.0730860678041434, -3.2669410023085175, -3.2590452806148362, -7.4834439718720365, -6.901193532922511, -3.464282121665377, -2.7446209211092696, -2.5277208075237025, -0.2743217214098644, -1.215679547612322, -1.0415007972447892, 2.0389961521835533, 2.875151713218228, 1.8336061638599375, 2.1969442164326862, 3.004591586376923, 1.6331300014063843, 3.8981479450943377, -2.687543375156843, -1.6220627407829011, -3.7602346152201265, -4.886827956862036, -6.685396155948505, -7.882485186212177, -6.279912298942328, -8.431027947462185, -3.2144774906113054, 0.013641927713195345, -0.6207720684955004, -0.725860379477754, -0.2759822191690948, 2.2364424377439276, 1.7464460896553564, -1.26462038392512, 2.4049353212449027, 1.0182878786551606, 3.9087688211599176, 1.9112785799043945, 2.3737607813727752, -0.5550273554659598, -0.45227738531331996, -4.33859867365411, -6.249262050452127, -6.367911461637407, -4.395161548369676, -6.001419015857823, -3.421714114977015, -3.438860109444333, -1.7745893556861727, 1.3828495701248464, 1.5841306842567524, 1.0942391946270396, 0.055549066845056484, 3.23424280882252, 3.717416171213271, 1.7768452408811346, 2.6823835047237785, 2.694732473587753, 0.835265405271917, 3.1237980418378823, -1.7967362392479467, -1.7358904497625134, -4.425340122397822, -4.349782673591223, -4.4153665133499524, -3.6821947174890335, -2.2157167999688765, -1.9099495096890744, -1.495749351030627, -0.8583443310777743, 1.0611047532248439, 0.6496989691308274, 3.0598856298172485, 0.17057423936758864, 3.2998487182111553, -2.0689835770701213, 3.5477591033255265, 2.0526854359162843, 2.0163538845279403, 1.465080977528474, 1.7053019215192933, 1.0725190653840546, -1.8400568613081907, -2.1064125343289053, -0.3438151259300445, -0.6941348274516673, -0.7224268820188728, -0.008799401218521912, 0.1420512663110748, -1.166194542726535, 2.082778970428015, 0.7045758432147933, 0.7408587429600829, 2.0440950616047813, 2.4441223106906307, -2.313574712286232, 3.0941307826992936, 2.214078325143815, 1.0029812179865598, 0.6550352804227048, 0.5427655502034247, 1.5898130253341598, 0.5589791154790631, -2.398049758555985, -0.7249973456061835, -1.3577868123980117, 1.0384109233180736, 0.40156250972750357, 1.1146610829155799, 1.2611002465002392, -0.3699695474851368, 1.2774825863342858, 0.617023131697589, 0.3201045060914665, 0.48498399178958357, -0.22944938304617454, 1.7849595504618185, 0.947012487162827, 2.8317504946950662, 1.4709526807668654, 1.1091364425936705, -0.2957505799059633, 0.579147392671075, 1.7248708179446648, -1.2040966020316297, 2.36938804370684, -0.04879852185443054, 0.9556431291183178, -1.8609344347410126, -0.5761358316418722, -0.10455058638380912, -0.8226284329432335, 1.5246957572163593, 0.9092667983231173, 1.2810924360256934, -0.4988786413889278, 3.295773902228641, 2.2274705649705187, 1.0261703615042534, 2.5898235622325156, -0.20491362860315915, 1.7553184574508813, 0.9476362361763964, 1.7308604126676874, -0.35890670383911244, -1.311746795209956, 0.6990890280010377, 0.5363818466432814, -0.7491418300123112, -1.3716719204722663, 0.08670100636167734, -0.1626527616375061, 0.4844519796591581, 1.883869772695219, 2.5628125181462886, -0.8871473824796666, 2.7353607536016176, 1.799577763819519, 0.9901446441899746, 1.4042919151993944, 1.4169130838711264, 3.7686527759284796, 2.6154981201134886, 0.25245578373506417, 2.5923987909685176, 0.6332772170133746, 0.21936646681838018, 0.5007243095022119, 1.6673563615342193, -0.8560620297943367, 2.0569092026825095, 1.8540243153443938, 1.6312716332993564, 1.6123707829874203, 1.571409909631112, -2.201038437144039, 2.291744878811583, 1.5953485024320713, 1.4196580972462223, 0.3587413375777017, 1.4837720148248408, 1.8448508867868405, 1.887102731382655, 1.4737559616535443, 0.41982139483266223, 2.3576065660619534, -1.022894797322434, -0.4950930609857286, -0.6248890631465603, -0.2210485786013871, -0.7859351522630017, 1.4024702714668542, 0.06683869424151263, 3.076193058222235, 1.374392274753007, -0.7034337343489223, -0.19295562198663485, 3.1736386963310186, 0.602590996653807, 3.1602136391504643, 1.9299538778573049, 2.903668234761045, 1.313258555972614, 1.4424674127946642, -0.9163566642333615, 1.4948982312207593, -0.9792027148650229, 2.4296740318283394, -1.4195805657870348, 2.9796770836384847, 2.682754384166119, 0.02236789987086866, 2.718364317653305, 1.2318954367156976, 0.8309036796036743, -1.8676731913374773, 3.4056070294775544, -0.024475947655529528, 3.1882415266728685, 0.7757201189502644, 1.783772897306241, 1.8509578337108128, 2.3961468817089986, 0.7637370914455519, 2.6883438510137165, -0.49807384917202074, 0.875882434323748, -0.5986279067669171, 1.9403301433733966, 0.5456200322219555, 2.5185876283422926, 0.5118007025010308, 0.9291123831195852, 1.7137794771982764], [7.204303792081127, -3.1072219812480593, 4.3725253665236306, -0.4646425946147998, 3.8390951704451513, 2.6215290633511352, 7.749803909438212, 1.7367526512387834, 3.674775469315047, 2.1132482511775033, 1.482322220922318, -4.571880648011349, 2.384510052543779, 0.6786576921818643, 1.5522297606812023, 4.049450719835195, 3.7451255340848646, 4.408992489330441, 2.8161564940072883, 3.749332415624585, 2.3000534237863035, -5.379184403406055, -0.10496072463587544, 0.33573868701104026, 1.6424879016435732, 1.0315160243840733, 2.3008688035208253, 0.626470627481239, -1.679890885482347, -1.0172190962982235, -0.5643201603642002, -2.4410146783644366, 0.3681416464765037, 3.528987468389165, -1.6765173619860778, 3.662042889663341, 0.4143613572552636, 0.9793209983030361, 0.20867726182303295, 3.4367101788207792, 3.9902192805252867, 3.1139889595830814, 0.6036512200434936, 4.078412018027114, 1.8507283207989, 5.50754246051332, 1.6188258274287712, 3.582875573131148, 1.341195021799071, 0.7342713240210106, -0.8285242623935967, -0.37256836046339753, -1.3230955094770036, 0.7053642215308316, 1.088314653759665, 2.3763463462337975, 3.2155407451974596, 4.428578096115766, 5.055942560677377, -0.6648851319216531, 3.620042902055416, -1.9309480370625016, 3.757487025293229, 1.7539561836756226, 1.7589525224644982, 0.5456580141953637, 0.20028623015509397, 0.2408846085389257, 3.5242658006490526, 0.21914589189004413, -2.0364403872651704, 1.990677466134506, -1.876144010783293, 2.289912062422193, 0.14952955324164308, 2.111198783679705, -0.045824986057017014, 1.3269562013699039, -0.23817027587699005, -1.117104382493561, 5.155003700198837, 0.8413670748647968, 2.9374344205718184, 5.464136432804107, 1.4641136656605183, 0.6764334009538847, 1.5644458918136557, 1.876610611288591, -0.6917314835035568, 3.3654726222216067, 0.11877405672421987, -0.4660392040394076, -1.364514370355593, 0.07725331040173886, 3.8115866332173263, -3.669056363140539, 4.561497787074081, -0.3341058934864282, 1.5528135572054114, 0.8824270696518851, 4.883858908508358, -1.92963617740629, 3.8625375151440315, 5.025159491548565, 1.6971083820952833, 0.8425310346862106, 0.5689000696800887, -1.0422184968659056, 1.2622469399738117, 2.5747430232705506, 1.0708251007266993, -1.9613441679111903, 1.338879541413031, -5.620122238358258, -0.3337630977497437, -3.308253792355154, 0.5450161109076572, -0.4313047693681816, -1.0040426389104784, -0.12036792342580258, 4.147499293637122, -0.8483000774412331, 0.19535011023078946, 1.8309300799043544, 1.5634056105010328, 3.2890731176565895, -1.5194040147226398, -1.3283070926616483, 2.280588098529064, -2.67780618353364, 0.4652035971040711, -0.3188008176689972, -1.4273750360347812, -3.415839843130446, -2.8861003350487873, 0.22193834701275267, 1.1379001050710202, -0.9275761833958035, 1.4733304376574028, 0.009105220627803015, 4.006294230207501, -2.075403035392471, 0.08170047754821631, 0.6452586036580286, 2.498094636141136, 0.0024573731428289697, -1.4903805172659128, -2.206976451557352, -1.2174938456169444, -0.7185857746465109, -4.523617007823218, -1.2646030327046374, -4.850098819513715, -2.0703727268612875, -1.4469109871085324, -0.677975122446855, 1.1345905101379379, 0.30980320862738947, -0.6886568342870268, 0.89824506276457, 2.3282466648377484, -2.318381854971173, 0.014446064452143085, 1.331944754450617, 0.7648851753983048, -0.952245682851964, 2.2594011263466602, -0.7510618095649707, -1.554266470083791, 2.1457514525134886, -3.144365827112366, 2.7141652551796085, -3.188076639322919, -2.9722637855027507, -0.004804862579122458, -0.19751135190614397, -0.629940320595719, -2.7378233746256915, -1.9118481684259174, 1.5080756509013427, 1.0802550107612612, 0.6785633186951261, 5.78463406440185, 0.01059902721457846, 3.627966874048892, 1.456391228903215, -0.148249013080055, 1.6138004428225432, 1.6227764493229364, 1.8757671067047856, -1.3518658445828098, 1.7773601901765521, 3.087334525653757, -0.15167665918751322, 1.5573896135172172, -2.0072357245623285, 2.0829470088266446, -0.6966821989696375, -0.8951837370435036, -2.0251803088942584, -1.6354991859145476, 0.15655045031978582, 2.019240236259668, 0.9363859093741951, 2.6018982616311965, 1.3909576837271966, 2.374182704108699, 0.43316884288317303, -0.8781891862528908, -0.36217985509043205, 3.652715601250858, -0.29012295595911897, 1.1683470080643692, 1.513442802691978, -1.4055593071288273, -1.1310425883341686, -2.590978770571647, -2.41262677925105, -0.8988211092405386, 1.5302978343899274, 0.3140263682138022, 0.8584926051514976, 1.1821582278432539, 1.4150446768914402, 0.3384877244306603, 1.3919347322028757, -0.36683833119257137, -0.8274812536854724, 0.054386595922832605, 2.895078751194776, -0.18620003146818018, -0.11170899366567322, 0.3168466907401185, 0.9652561849727883, -1.3533760429388468, -2.622922482219929, -3.685860228742761, -2.4186486802074407, -1.6937012238638165, 1.1575782180426901, 1.720718280105712, -3.0460910034114588, 0.10966329716157025, -1.003061078792758, 0.2528793156889916, -1.4374332017069666, -1.7134024615836478, 0.135238944707719, -0.8228265717864417, -2.1513830121807858, -4.537922392012938, -1.9090475745853361, -1.0186555341075976, -0.07438392795457868, -1.3468389468177606, 0.3497152107624755, 2.4533435792194807, -5.194052919230519, -2.781483103855109, -1.1365467442726547, -0.02368875561275929, -1.0958173385725731, -0.1310271199906086, -0.373233038899577, -1.2219024326524561, -3.028474900568442, -4.0654318505711835, -0.3338034654717225, -2.125713202740595, -0.7485659837464541, -2.0336706334288785, 0.2032191866336762, -4.0330031824994785, 1.6885594871123863, -1.3681089309752037, -0.37372906025801317, 0.25342028072493616, -3.699110269166717, -1.963859870790405, 1.1732656932492584, 1.9939305740961426, -2.4260191081152636, 1.1283874821924378, 0.6653122631400923, -5.053850094295654, -0.14423523072897101, 0.21253057745037443, -1.1119617826270494, 1.4741494987544654, -4.480482515892991, 1.308629329975891, -3.1181292073204294, 1.1116902259533654, -0.887914284959247, -1.4697493859588675, 1.3150145399832678, -0.7246905197157655, -0.09857653304614719, 2.6496659512468264, -0.48917198282487845, 1.824427851540767, -1.4944061002819635, -2.582672010021671, 0.8665496960287343, 0.43545934468620395, -2.3883758510518796, -0.6065136925950528, -3.1181356781645335, -0.15637989218489964, -2.9398109133169674, 0.665935014920462, -0.1270608428560079, -1.1441782757782204, -2.9707334775984093, -0.5783697598262146, -0.5697706503110542, 1.0036044588421624, 1.2425335364370624, 1.3457984727215446, -2.4014460833540388, 2.990608960359052, -1.4795986639545609, -0.2908629584474761, -0.7285141596765095, -0.2029711087185258, 2.2591187635822894, 0.40712433293043937, 0.8360994671902083, -1.6686214732831037, -3.330617086191081, -0.7461100942254194, 1.3339927288810163, -2.3445840742351662, -1.1996480192252243, -1.3669113682426306, -0.31270230627362283, -1.232379509559707, 0.016457265538235885, -0.34374668445368445, -0.008579520155964367, 2.288462241167354, -0.9345524394701843, -0.2937425651309593, -0.08190830405620791, -0.3511604095483265, 0.5031414023227763, -0.9904797959685839, -1.640165130715622, -0.30153531592444677, -1.7768537511712021, -2.2345832381723727, -2.46942173132933, -1.7758416725172648, -0.4025711368164472, -1.2603165962597915, -1.5968758638825324, -2.9554652075950694, 0.7140078609254726, -1.8426772184385396, 0.3661933449520536, 1.490659203002582, -0.9542612487900888, 2.067318711950212, -1.5711148651486389, 0.7311264248532492, 0.4962003762499361, 1.8013773096484698, -0.45647124295716596, -0.48487974792152805, -4.449869226040029, 0.6151332626607591, -1.4451967062633417, -0.5567050556606166, -2.8975563666292636, 0.45851726308946666, -0.836642578194666, -1.589665860294039, -3.1094308129081094, 1.416126541501967, -1.356362445875473, 2.7130818798570777, -0.42196918621811424, -3.444384588917891, -2.239362476787388, -1.5247197794877974, 1.6689640770263003, 0.9466135900662438, -2.4426532510938235, -0.16010984748860618, -1.3479438642078214, -0.7405632446143076, 0.747874753536294, -0.35930022827359864, -1.1240747180827753, -0.5501338198680754, 1.251478072063165, 0.39314105891186374, -2.0688053704270177, -1.3060208335520689, -0.5791498407300514], [-0.8226419182745905, 3.732923432451934, 0.9493410397632316, 1.0622619992936007, 0.10980034155583407, 1.6328248174433306, 1.5092827125984742, 1.9559516248161297, -0.5745916687881476, -0.2522037135035951, 0.359191719296691, 1.5129524300511625, -0.9269945944284027, 0.34970780611986174, -0.8690662796651552, 1.563177950553843, 1.981055963861853, 0.923040191740048, 0.3964696423539368, 1.8307374795160347, -0.14187479310753118, -0.38348058260122997, -3.001006856209835, -1.2732399577560753, -2.465250878452286, -0.6497795594285907, -0.44495236808190947, -0.6164074055558644, -0.8204075922679382, -2.672863743114743, -3.5061702763084734, -2.5404923345971535, -1.1462354607935608, -2.03367894601333, -1.5257259781150365, 0.5252301712932214, -0.8269568536171167, -1.57791335847533, -1.4620920809147806, -0.4097503161482502, 0.550787364613406, -0.3307774837555614, -1.736869909833584, -1.010218945795113, 0.044676581060154735, -1.8597930099263524, -2.0368488853051216, -2.955309408897643, -0.1688671469467956, -0.6526687836144803, -0.8313019738031661, -2.0383903090640056, -1.4985512925279794, 0.17679926774625418, -1.3287189571525528, -1.2910573373096075, -0.48505585181359967, -1.153203457164827, -1.3077846859170832, 0.35252730868644777, -0.559236655817271, -0.6300661862520125, -2.5055829988632716, 0.207213557725977, -0.22786416725177847, 0.36156510919074686, -1.3010672622583956, -0.35475670742896614, -0.9560851532930488, 0.05968019276163795, -1.1452984540477573, -0.21393182176675135, -0.4573540718145957, -0.5481585416665359, -0.9164681474882745, -1.4003870973595445, -0.7545060153449406, -0.7652805281545277, -1.1706603131924325, -0.8063775629024835, 1.3720553999560132, -0.8052588935538352, -1.4125824968241585, -0.3001768256579541, -0.0075284757807550645, -0.7615830381649408, -0.902102455064426, -0.3001584952002332, -0.915408761319539, 1.328754478904769, -1.1056557631493087, -0.6965054764342121, -0.7798749222005242, -0.18766628371877117, -1.1215340891506103, -0.9127750957186339, -0.2106564097740394, 0.05502319958044336, -0.1549102979209621, 0.8080367959260193, 0.9281238073118625, -0.602237288700868, -0.8531343161309406, -1.1264437068144364, 0.21442447247762983, -1.5077133993131153, 0.2400133816538128, -1.0731985091728617, -0.2268806221654188, 1.469906861599771, -0.14249761594764476, -0.10098300627702408, -1.4715519353685185, 0.15610861172085105, -1.9143027862236783, -1.570872818341494, -1.879525346512886, -1.0482475737486987, -2.312510815140399, -0.9524140390496877, 0.6446411481619985, -1.218700013998277, -0.2673444367878685, -1.134247966657132, 0.3916765118162715, -0.8684917284525335, 0.3634099090041189, -0.7189032447038419, -0.26991085354046407, 2.1175590800583146, 0.6554546139001833, -0.06609409243043778, -0.7444112224104761, -1.695497295766416, -2.427016489697671, -2.5851529976184846, -2.3816735511005622, -2.0856520619341175, -2.4216065294369167, -0.9266503222665197, 0.38891293913981995, -1.7490200854207931, -1.3797179332171674, -0.025365721618874616, -1.0480893768553148, -0.09064624331456746, 0.520105690263554, 2.537077129230316, 1.6811674803829386, 1.2265546368516518, 2.44778534121885, 2.5578652242149644, 1.1344012698817587, 0.5422331990760015, -2.0497440468007175, -1.3202171413050756, -2.369454691389154, -0.49725594986559574, -1.3831237122400093, -0.6357409415342276, -1.3060908181300992, -1.5295355582680574, -1.5200645869399945, -0.9651707770321168, -1.6210769049891507, -0.3352370917640063, -0.5757350549299168, 1.9279124725250563, 1.4229738899745206, 4.665699664413119, 5.0279576623375375, 3.051673584702805, 0.818321190268577, 2.7048224732522876, -0.05586248168413846, -0.7995508831093747, -1.1113453626566514, -0.06754590957979739, -1.94274756383184, -0.9275052774710865, -0.648619557564754, -0.1511888195006575, 0.08698647316061626, -0.9173697314095635, -0.8029385883007837, 0.7430953685385814, 1.762515634808158, 2.065585619339497, 2.27925554180964, 5.804975880822001, 4.742631669526841, 4.62486960174877, 2.1883680316737424, 2.211871777583394, 1.0293169905856685, 0.07297762447431591, -0.42827277189885715, -1.5006741184985724, -1.5042016637360078, -3.05338243699265, -0.8107500192551497, -0.27455139584899907, -1.362519670112516, -2.0175029186324296, 0.1459320392126941, -0.03891673368657307, 0.45522108662348487, 2.43220687537338, 3.4399252491192183, 4.404923189424411, 5.473248282910343, 3.8532374366785493, 2.254809128785265, 1.4984629637444333, 2.0464927559271, 0.3566202514951631, -0.9597034356218272, -0.9739529261134448, -1.8052887460059421, 0.5814206186459187, -0.42468347441977095, -0.7484582913208777, -2.6624780554389367, -1.7716458271333626, -0.6945986160917514, 0.25502056932043754, 0.40946471881215935, 0.22008781894074986, 2.4487342390960305, 4.648060244919459, 3.9353939179829784, 2.5856939401999037, 2.1529479279252466, 0.6240852429230184, -0.054342513012890906, 0.10718833409148544, -1.6499808470578543, -0.28929702734340385, 0.09431667022844936, -1.9544441623737812, -0.3073853575709537, -1.3849225515318755, -1.5348301061804543, -2.602171795655128, -1.0525860742269733, -1.9778746517419965, 0.39211877269961604, -0.36767985203279663, 1.750833976999775, 1.9610687542661922, 1.2247066474662067, 2.055703764269978, -0.028585248237898424, -1.0815559905224645, 0.4765649232960696, -0.6068361207644942, -0.5570305400623685, -0.8681814929168237, -1.8041874365403372, -1.4931131781159541, 1.7745041286256915, 0.6122425213509471, -1.4316380728820486, -0.798791068052182, -1.32991410171218, -2.215473244824205, -0.03141530003157905, 1.1667992772331994, 0.12064179761372051, 0.7827282380591074, 0.17071278636035025, -0.3504742663752343, 0.05292442798233493, 1.1554937174465945, 0.46143095460875755, -0.5418615863413703, -0.611548279900814, -1.2413487438445108, -2.2395338506984768, -1.09909529252844, 0.9481288265473043, -1.106946823657119, -1.0430015633801937, -0.5350788929543873, -2.209804847379042, -0.7877507902212877, -0.43267355580300776, 0.4501603092927262, 0.039878782632241934, -0.13614083406955252, 1.2010105585681514, -0.3837586395122939, 0.03712913382979272, -1.8704576471586438, -0.4270591909769071, -0.8188892823294095, -1.5170969719075775, -0.30616597741404267, -0.5926618563157975, -0.3606998593602818, -0.6710942276977355, -0.9508090571259808, -1.7394885133682183, -1.0362512166060243, 0.12488325556348083, -1.073180984381937, 0.7243812152084845, -0.625279200468963, -1.5249459252879467, -1.2235992173840233, 0.15631132222074962, 0.7647800255135851, -1.0136183151096925, -1.296947031087889, -0.16756549979169932, -0.3771915557540926, 0.11467309561350195, -0.37694824346610994, -1.344342691392169, -1.6983813233718508, -0.17541593454353793, 0.3638359330145677, -1.081422380670573, -1.6023764389358248, -0.5703099962323884, -1.3304950121955963, 0.9979819520865133, 0.6599337912464441, -0.05158437707053484, -0.03678237110634651, 0.22260834245811464, 0.22515037360834533, -0.857457389912388, -1.2363702343430205, -2.0325847103120056, -1.7187035357152207, -1.6908820463518255, -1.295455659668244, -1.8079850992232507, -2.0378533133288417, 0.19209892565339157, 1.4081497936764082, -0.2646999297930748, -1.1975843382525635, -0.5299742775887271, -1.0309586101816857, -0.5027327234895496, 0.5669540908851787, 0.39934527469970865, -0.33601215605607976, -0.16934305968347468, -0.4865298025239933, 0.6389159680792342, -0.9400223636212377, -1.3735690869429111, -0.8885383276774022, -1.8526850983550547, -1.843558762824771, -2.45140907774891, -0.6690134660322646, 0.21712239860999769, 0.41330613337323363, -1.0572147253953987, -0.3614374331636353, 0.031174774984499307, -1.062603324684698, 0.782308603341546, -0.3843464049889089, -0.49763683048333485, -2.205509203201374, -0.9076634367468792, -0.6694043861620921, 0.20503569654894888, -0.6815182335901626, -0.11885666569738611, -0.1279872082937719, -0.9929472137748079, -0.4917451223315274, -1.63182230657418, -1.833031993392366, 0.2548623201239972, -0.7495797698936986, -1.1469828475555814, 0.10521231176032034, 0.8985602979143491, 0.22330293244001415, -0.8630379647339674, -0.5193420543327633, -1.0073882989147012, -1.8549610953235907, -1.93193796722797, -1.59174379011568, 0.5650217573764517, -0.3280244195506201, -0.4691583053726644, -1.4044613909429917, -2.0942126213215424, -1.9141182591857202, -1.5077462790940117, -1.4870187189455497], [0.4223662257695199, -0.15261163211584744, -0.8068565165668289, -0.5818970183929306, 1.3282800928035923, -2.4940119864692836, -0.3261108966109835, -0.36772796680064795, -0.894747960234706, 0.046993369196713985, -1.200466933170231, -2.6902320529516834, -1.103318278475115, -0.9039980891924276, -0.03772157199552544, -3.263775374148798, -0.28956645665428693, -2.7394822485839208, 1.382908164598421, -1.1331218613574412, -0.27944245277440644, 0.12615365469601722, -0.848780736772874, -0.837315180420518, -0.24017847823768962, -1.3752310041710951, -1.8646029481369188, -0.9959202411397994, -1.1998316100638131, 0.18910502467813992, -0.35941012239706144, 0.5681743833286108, 1.2983664611767958, -0.21800490289908425, 0.6787826591734761, -1.2291760898108555, -1.89270703285864, -0.015499341971445743, -0.005984240796762775, -0.8682899124946913, -0.7968898351691247, -1.1203011256457407, 1.004634625436491, -0.41479951085421723, -0.7888550590174382, -0.7334810626176097, -0.2316033057336489, -0.951650209300889, 1.7281894540121072, -1.549991503573829, 1.8782988826059528, -2.2532337474170854, 2.2860602869914297, 0.6143922465936682, -0.15636691288578808, 1.8943174243016367, 0.6328801652683538, -1.9202154453929703, -1.0502662066524786, 2.5591940095893824, 0.9262760950235456, 0.20361065470180076, 0.09102527291222627, 0.5040774383792506, -2.064505853563216, 0.1971825107306942, -1.0018757932540858, 0.019941599748720507, -1.2220962436898954, -0.45264641428775915, 1.209561029750746, -1.3118140299645784, 1.9648127966026672, -1.7702980887040918, -0.23332725567208987, 0.9229916238913588, -0.4152868672767836, 0.8345608383115863, 0.879820371129015, 0.1480436408224069, 0.7408269986852591, 0.182681550380969, 0.6017658187859865, -0.05606176113890884, 1.0415560646228477, -2.371536098475692, 1.4028149140474722, -1.7478441245243672, 0.15664941492523873, -1.249671526411359, 0.9871884535084269, -0.7418341599869895, -1.3086483886622422, -0.5178467441415727, 2.2275232745354008, -1.1391566686548826, -1.5165609297303697, 0.7653372038979848, -0.6609382895430658, 2.1516715939738393, 0.8523571545591796, 0.5234577803539858, 0.7934591185393072, 0.1296354390248929, -1.0834718270511163, 1.0285297266787579, -1.8766243206497715, -0.8786157747877305, 0.8157605093741953, -0.2581051575169722, -1.088567088278365, 1.2947277730733335, 1.858972760820759, 1.2408806507916217, -0.356024426163498, 3.498579623069535, -1.2609933124336647, -1.1455034038834404, 0.6174752533043729, 0.28461325396196474, 0.5842303333401986, -0.31941339282777786, 1.6044846804025075, -0.6929216120289236, 2.1132002391323708, -0.013789906570658645, -0.26849558211646474, 0.9363486592836979, -2.2271312437130812, 1.2215137058444787, -0.2981359004228802, 0.21621670640879567, -0.22170621204240992, 2.833241023116779, 0.21013105749431854, -0.02382013752506411, 0.8345031807011032, 0.4354329457016944, 0.04402211543930087, 0.7826568799169531, 0.717009346990069, 0.8825054260612234, 0.8226286072507372, -0.45097353347781854, -0.2200069503148384, 1.194630879928785, -2.562865189168286, -1.3834065671899907, 0.38620832570226205, -2.4186580095934476, 0.5018637288690926, 2.386633032687561, -2.137794783229281, 0.5843195367010453, 2.8716787592605635, 0.037612524351069064, -1.0219650453093785, 0.8099223207458174, -0.5719593013592174, -0.02727067816213684, -1.3563272582856405, 0.591898298072546, -0.38773928054091894, 0.14400609343500162, -0.5513872597374062, 0.21427619928309427, 1.1401361791042612, 0.5851117648963233, -0.2338114508099028, -1.0867116506048968, 0.11361183856289726, -1.357558162633915, 0.7172095318779624, -1.344751004109997, 1.4881858769368659, 0.030273035047631267, 0.8337587506978041, 1.1940535868148592, 1.405475915901834, -0.7402952515735292, -1.8815145953449914, -0.0026375950050899436, -1.0431057524726997, -0.7534377721395523, -0.36101486996690557, 0.15227711302381206, -0.42665994938361324, 0.9875290792403308, 0.5737907992196251, -0.9308868198929446, 0.7709956412742901, -0.34667886844180446, 1.2433209274867554, -2.433779123702628, -0.6046695165505542, 1.4401171191463435, 1.3925754506276793, 0.0860923158414305, 1.3826841607632776, 1.4332860067056532, -2.5423491192955443, -0.41418749158469786, 0.6331986462484183, -1.978526930346717, -0.4759600230320966, 1.6872296584445352, -0.4682850195104734, 0.47938796636273473, -1.177703436349347, 1.6365277166352665, -2.2549693609439836, -3.1226022093429107, 1.0204064597283042, -0.5085807636305913, 0.5644852350937727, 0.9905098730736916, 0.35717173180335937, -1.1103965405240552, 0.7449427004874328, 0.6389999619468948, 0.8379624365617905, 2.336903243818005, 2.5576677833761616, 0.21237674329458095, 0.5938679366759815, 1.4022677809899013, 0.9294815503597688, -0.08988775141077864, 0.8565984859589425, 0.28337278880336836, -0.7761675069852831, 0.10361687876438194, -0.27162645441288025, -0.020472592233141098, -0.3637598842099185, 1.984951102379016, -0.8134227628266216, 0.5833455267815653, 0.4857831332794125, -0.39017599186655544, 0.9807820595793233, -0.6893828214972175, -0.2132103453539754, 1.2783939769538348, 0.289244454743809, -1.2519723480488858, 0.9576860618129671, -2.708768611183138, 0.11086939978014862, -0.8860182416346618, -0.7546816125886542, 0.0917233148678067, -1.2452460435808819, 0.4504828155707504, -2.5704547945643297, -0.01644507317544079, -1.3235752689038303, 0.04624112126097617, -0.28277084992810075, 0.23285154735593053, 0.9260664828705651, 0.12829101660855766, -0.37888768879000584, 0.2602842057803291, 2.4953362012048035, -0.2550556319331094, 1.9242046438776688, 1.7696620596933206, 1.1675846727960941, 1.2434063328619405, 0.928512899481116, -0.6404538838493167, 2.1114929052535483, -1.3100166564691385, -1.4257492526067148, -1.33903270136745, -0.4801867948097681, -2.868413150150323, 0.15003467368116166, -1.4033630746272978, 1.881816611341602, 1.1978106530258215, 2.4294927317909543, 0.9408742749544202, 1.3361531949451488, 0.8023473752431267, 0.8809668454637944, -0.31116627351578846, 0.8372693913678623, 1.764731493919578, -1.366884669452814, 1.998202349599779, -0.36533272713389625, -1.2872359896230479, 0.9406085542918741, 0.02360368406359794, -1.764015921018984, 0.39799347618251296, -0.7866000976394223, -0.07124195234092698, 1.9297568862967307, 1.640433407776619, 0.4865309527317543, 0.7808047622877903, 0.550631034563411, -0.11682492722426134, 0.47155663875190096, 1.904874217143882, -0.20122988504993275, 3.1949376140284587, 0.5998149201409548, -0.28259045330948496, 0.6878238001195637, -0.10590691661427308, -2.083302815176492, -1.1747201031377437, -0.1512530473702199, 1.4116919927257328, 0.39256550869464285, -0.6736456521962055, 2.7915817891152344, 2.7361115292718114, 3.9296882177337435, 1.8422033535118025, 2.831166855266428, 1.736140160893565, 2.2220917872660326, -3.0950243220859184, 0.035750957468555666, -3.2362916567452857, 0.21765735116643228, 0.3185271910525346, -0.02890154992335296, -1.1665990782484366, 1.1530748039197873, -0.5979443974112932, -0.06349252105682904, -0.5814124028022359, -0.08140092253614364, -0.022725973253815507, -0.45942999171990867, 1.311364506772529, 1.2613030821693612, 0.6006528000769851, 2.2531861234907566, 0.23411419215634624, 2.900887357007751, 0.08490240075722127, -1.382720076699656, -0.8372202791865507, -1.4634494254661863, 0.7546212314937084, -1.0961332834478952, 1.0466000898748922, 0.4858228062207971, 0.5041165647598419, -2.853737945805406, 0.2295070463044639, -0.569017767044881, 0.9755032654761565, 1.2180465027281315, 0.0996857674683142, 3.8564816192011064, 0.37253842485220495, 3.7340840651869898, 0.9679228433314909, 1.0462830403922228, -1.7137610255794777, 0.6876225398176664, 0.061808113031607194, -0.9628781321278469, 0.6925273581778976, 0.34811825165246923, -0.4887718913572348, -0.090436475115005, 2.0566857804297416, -1.638138940297094, 2.624500967342867, -0.6310393949303147, 0.5758058603453755, 0.47290011996876297, 1.0617533062877325, -0.6817386896704318, 2.5988606302380695, 1.8814204166583242, 2.879691392337037, -1.2876793266283422, 1.0101508684482878, -0.9749045861311789, -0.810009248875869, -1.3748031702952124, -0.2607276684954208, 0.15811328100928013, -1.3195315969736652, -1.1542145062612512, -0.8153289580089776, -0.9727551549018705, 0.9606164745702589, 0.7617898793148241, 0.20096714070286925], [-1.3401708443642844, 2.4024222764561114, 1.0059866097671923, 1.3161610120824223, -0.5551748469696031, 0.9904074322515207, -0.2836743420804877, -0.12178638553264262, 0.26900258792665294, -0.6368524214744029, -0.4380628261198139, 0.35340363975657046, -0.7241373299302594, 1.4182401768325896, -0.9402430921829403, 0.5902842415697354, 1.6767507850443388, 0.005289617003391232, 0.458520062894439, -0.5432936761284036, -0.0401027364677183, 1.121496937250842, 1.8323930236167987, -0.45610775602847775, 1.739414040151616, -0.7366032186337068, 0.5701530946907543, 0.010477466335155844, 1.5106510283685228, -0.4020401970914826, 1.3247424791552802, 0.4687113515513238, 0.583368020220951, 1.5549887725827958, -0.5249466346244765, -0.39780951276370474, 1.7765096049997353, 0.9057185902593876, 2.1964129477624286, 0.7358106329162055, -1.6273348588131056, 0.8505886208761775, 0.3255503382345784, 2.8619660414291044, 0.27468273241576086, 1.4124474093880663, 1.1917955220186522, 1.7990620126804406, -0.545964542382004, 0.3205935182877844, 1.079440146041248, 0.9836096867605179, 0.37836467711029226, 1.3088873754235473, -0.2861404862406594, -1.310770157400526, 1.5278502336595359, -0.36538309513651984, 1.8642086453220916, 0.7487206239676775, -1.6735197623591362, -0.2723881447555694, 0.43604734268280343, -0.4852658032679181, -0.4174742961788301, 