{"sizes": [1200, 50, 1], "num_layers": 3, "weights": [[[0.7287730277645522, -0.11883501441893679, 0.48272430057315835, 0.5728064391306936, 0.6897027852287555, -1.3568775176098378, -1.3275598728240532, 1.8198043470080851, -1.0610287901981892, 0.6866788040120544, 1.0196193734924, -0.807140041694096, 0.4592927747574284, 0.7210295418367396, -0.46729487555970056, 0.274298220044226, -1.2319369966162537, -0.8887039124800568, 1.9129933483560466, 0.15048430919562591, -1.2687264283517852, -0.6706987149483302, -0.33845069542818823, -1.221670521106035, -0.5239688681446654, 0.6875918530665105, -0.04735181506570121, -0.35961097332171144, -0.02601594015027828, 0.6566576935228032, 1.2001708695904407, 0.2802951654687908, 0.9820394309827697, -0.9925948314335982, -1.2335429131838855, -0.8926354039324452, -0.45528549705581245, 3.6869297096331852, 0.9794503755659101, -0.8647354798333013, 0.8477364595339255, -0.0003176162144990321, 1.522601819659831, -0.02127673533607296, -0.5227943809822391, 0.8385946907674953, -0.18551961068989548, 0.33564549019675194, -1.1738333227220397, -1.4990318964268483, -0.8868273777560827, -0.3905165711523636, -1.0223199751564045, 0.6719428452514438, -0.986788931951591, 1.361603535939035, 0.23029686093979868, -1.045528413200352, -0.006579031605807953, -0.7452617156423825, 0.24633609195537165, 1.3496989633039227, 0.2914671242156028, -0.4725508173906394, 1.1846170323553997, -1.0825263140398094, -0.578054070286942, -0.4016804258952296, -1.6950816972418334, -0.8284604622588563, -0.5792197950578795, -1.1118818338484857, -1.0401261892844693, 1.3189986635015973, 0.6792173404423855, 0.9232050620789056, 1.521783145054402, -1.0418357769255875, -0.08475544032106311, -1.6291235931437908, 0.7540095614921256, -2.342029092854829, -1.4198526413864574, 1.0604348989473846, -0.699524148740055, 0.7418726035967831, 1.6635545351367198, -0.397755663344442, -0.5371342231879033, 0.14380554915762556, -0.7415752124466072, 0.8538232577718963, -0.8664979598502692, 0.7087635390023662, -0.7014652171264473, -0.7831376643035377, -0.3684213967604886, -3.3780929722760726, 1.80917942263404, 1.1558001346661535, -0.40562709470745567, -0.4708995518363199, 1.4006175321442542, -0.17032056931414535, 1.7230002612041082, 0.9152557804876347, -1.0474037454631329, 0.39520304542491547, -2.1828999291990687, 1.1730930783580265, 0.16721485867609723, -0.6444361546967877, 0.7848011648065307, 1.0415979485580518, -1.1815225040154944, 0.449389519522439, -1.2319491089143328, 2.5114453141178146, 0.9231698698477772, -0.6054075899467429, -1.351188667502281, 0.2415962344030612, 1.704590991751655, -0.2654438331391272, -0.040055268507293615, 0.14015271007536245, 0.09052256420391096, 0.1756545852114082, -1.3079912383017707, -0.9124485452097946, 0.03658086714645484, 0.2343496319472537, -0.2939654865562607, -0.3932473655048163, -1.6407539789584669, -0.8309199225043916, 1.372109361603787, 0.8895645464000105, 0.7423578455178306, -0.20039666978283271, 0.3658111136447206, 0.1745097101085408, -1.3329620187485725, 0.6948502717644225, -1.1471010057054465, 2.3945081828803496, 0.8648281494675318, 0.23428846226381145, 0.19988732270517215, 0.5951409675714132, -0.8230751233068128, -1.9545580924186539, 0.2798262174503027, 0.8311268871383403, 0.6569191471015406, -0.40135608743423007, -1.2892538946057925, 0.5671599659624765, -0.39743201690004315, -3.002459664745782, -1.8244777671979853, 0.9714562996939967, 1.350858908719282, 0.045029903328827225, -0.07687459484028993, 0.2480819580399637, -1.3123325094558547, -1.8425925942687131, -1.0921790346105351, -0.5193174139738381, -0.6731535385959406, -0.9233266080536097, 0.6372799024564942, 1.7280284836442936, -1.1911236417404651, -0.6124112623866111, 1.2928078732042902, -1.3151532448161731, -0.09266800456302828, -0.17345522310085193, 0.8561158055923617, 0.14449365412814313, -1.2935705777954927, -0.3932732115564581, -0.4083665352987961, -0.3212577776840951, -1.1216732822134734, 1.2687455118083284, -0.6448523230846279, 0.1357739267203074, -0.5947544505471787, -0.2355201600090104, 0.4359791854151239, -0.9022910900402853, -0.29847103662202584, -0.18848397568344286, -1.3696685409023461, 0.6676260530738609, -0.823568121418071, 1.3265405767494685, -0.10297623807423704, -0.9660416295351582, 1.199244085861898, 0.45652648445731037, 1.1996945573455882, 1.1879861623687877, 0.820728916514421, 0.8724382467792314, 0.6324790786935972, -0.5851019003576287, 0.0041994763683954285, -1.0119321559468417, -1.0011166549478525, -0.017524684585795525, -1.3217585736053834, -0.45775054401975546, 0.5227877385189972, 0.39637602790704435, -0.5414797897054219, 0.6367935884450013, 0.08474280340449387, -2.1203060292035834, -0.3083152742716444, -0.11080415388318632, -0.7631714577018025, -1.6474355011024289, 0.10251867203109308, 1.1514549546776713, -0.367552494180623, -0.08117401319959934, 0.07422046576985489, 1.7130136747239246, 0.5669346793055257, -0.7537957922997087, -0.3512310266656762, 0.20962739407034908, -0.27594222657315437, -0.18313807226588014, -0.7889642011490148, -0.03187252145809968, 0.5411368699463046, -1.5327318281027493, 0.6394994116758258, 0.28593848618801615, 0.08801190540805756, 2.2333056108222187, 0.10412987436238504, 0.4089152792955173, 1.077044002394621, 0.5833376926659556, 0.7864809131031212, 0.46158759566592966, 0.49569561073464585, 0.24295627615073498, 1.3629495975472385, 1.01527610809459, 0.219806039677307, -0.16891171010736053, -0.37960346795217886, -1.8619451220213044, -0.4490743972370422, 1.7661733680198324, 0.5055947199690183, 0.666792794435506, 0.45119109177143574, 1.2397932014514752, 0.545579343159223, 0.4035678591752748, -0.5976652739187752, 0.32255609345645025, -0.07491368854440518, 1.0268759505433076, -1.1709704970268489, -0.6207281201794362, -1.2193324814820852, -1.5007967453113125, -1.3770962473410027, -1.3067538845181854, -0.2110116026235858, -0.2160276559706515, 1.9569786899873223, 0.7146192489420784, 0.3637028535381471, 0.014134265648275619, -0.6510355914799252, 1.7014508739186571, 1.157794033118254, -0.7471135811613263, -2.0129957131626153, 0.37048892767847136, -0.3838442951815066, 0.3829561307214871, -1.9324315481671133, 1.1238487477602457, -1.1611369145094221, -1.117128651915084, 0.6601481434594955, 1.0207016473639048, -0.2938435557458842, 0.9769722545929505, 0.0363657752781175, -0.6487320743590045, -0.7173735875887212, -0.4306377722062535, -0.693081450049766, 0.6748310673460538, 0.510128777480257, -1.6976566553478176, -0.05800340605207871, 1.9115587179972384, 0.3341855444027427, -0.18845609174484454, 0.8026324198628347, 1.1939008198499086, -1.776246172622626, -0.796138314888022, 0.9811203729003488, -1.300657792892582, -1.0047395711918432, 2.0783046619548027, 0.801345767067643, -1.004784443098768, 1.2554647138959154, -0.01342767648317374, -0.8066779628673549, 1.3026692918098473, -0.3937918892448411, 1.4955126822660043, 1.268357075228212, -0.6676586914915156, -0.07686953392284403, -1.2826467180712204, -0.8897915778015377, 0.12548416365232185, 0.6949438410109475, 1.3124164700502485, 1.938769289460372, -0.8027159578690618, -2.3961691355860655, -0.3485183485068055, -1.233105151306423, 0.26321711706214035, -0.23914226845543016, 1.527415327637847, -1.1409829337982371, -0.5554032932937082, 0.4976653918976401, -2.9183078317073963, 0.4844639842926921, -0.17389409119098606, 1.6527737151602988, -0.4115220422998962, -0.8861856978189684, -0.41811591956401095, -1.1920028286345286, 1.5818723313479606, -1.760112622685024, 0.5866606120034836, 0.30905875743499694, -1.8611723404777842, 1.0185593826183987, 0.23443515524305095, -0.8634246087335669, 1.5656821586598346, 0.6018023911892534, -1.5906340532692533, -0.29407572375947394, -1.1507040181475192, -0.7532900785814414, -0.9973047699591487, -0.445501375263741, 0.5165762746708789, 0.026287762962480872, -0.4827754338658979, -1.7854086309903479, -0.9246618404226394, 0.6705290081590488, 0.42908252691422577, -0.5476683686125273, -0.3978906609009887, 0.7662198011738517, -0.059830015831805985, 1.1582107158876807, 0.322705410404162, 0.5782598708066216, 1.037403856998757, 0.022797792806256056, 2.089400884916509, 0.195797898807115, 0.5336431280737037, -0.42728332909254935, -1.7831309124801917, 0.7940174350404975, -0.9683609529523362, 1.0487472448447885, 0.04568600470119097, 0.9072807144649044, -0.8397322144439529, -0.05709334642647456, 0.9790428638776697, 1.6216969366328635, 0.004965361660843252, 0.8629322930134493, -1.4462633584986522, 0.8991603753731356, 0.7833371304649835, 0.3125033593727755, 1.3528153047230964, -0.8152023836852593, -0.186144489000434, -0.5334052535201548, -0.1770517811651743, -0.7985975702746192, 0.5897715065917701, 1.9806591688018085, -0.06849181916184992, -1.288250695192862, -0.40652131599265967, -1.037686978445331, -0.9966205917854861, -2.343758925928954, -3.2325955490725238, -0.3406379618557793, 1.2174393679692106, -2.931927240821673, 0.6116681237224075, -1.4302061920271427, 1.2942807137645023, 4.194743480166616, 0.9181133378520423, 1.4633427620289026, -0.5168525501137657, -0.3595474049500214, 1.0501587894194284, 0.958034433712353, -1.2727308202155572, 1.8056711544320148, -0.6501459233005608, 0.24161667347745291, 0.057929534898802384, -2.6155079522187603, 0.6826111141351646, 1.8457590206914074, 1.08438033088821, 0.05351483108681871, -1.3533849837526561, -0.8155046369734233, -0.5385096139081333, 0.8801946970961165, 0.9290295613749433, -1.157942951609738, 1.3275981018860403, -1.6236778400875411, -0.7018533264268518, 0.6081905693171451, -0.055897285823108316, -0.7862388172967115, 0.9401291044272632, 2.083611039872645, 1.4018035334747339, 0.8802536653073404, -0.010965901839082411, 1.7384384603829581, 0.32530700726639833, -0.6695479711330038, 0.6561774453759524, -1.166801053351765, 0.7180446145592297, 1.3356626298819811, 0.26874020933475673, 0.7041942951015251, -1.0947787486433127, -0.7188705971128035, -0.4858885997443808, -0.7100180691871787, -0.32557139988069383, 0.19632215117582705, -1.3383057465920811, -1.4021478795113491, 0.7107758681693138, 0.04522041323314422, 0.5498490835126213, 1.0871754427342097, 1.6593045683722942, 0.6430587247589895, -0.458456764331778, -0.524571213697881, -1.5352179799115429, -1.136780288100122, 0.32101515666962954, -1.5485622611799015, -0.9618865547322342, 0.28821526346998694, 2.3317646845728603, -0.20404061775028795, -0.4689539648183562, 0.7698806362011814, 0.6257474162664771, -1.3786460957673385, -0.8343865992908747, -1.7374302242476585, -1.1646417686622246, -0.7397384438709793, 0.045842843019925875, -0.7897807656756106, 0.547025831835653, 0.40110855239111043, 0.39962086830839766, -0.09751924683888993, 1.3202599492217637, 0.41536233841731224, -1.5435123611122286, -0.4162466655549803, 0.8819964058688727, -0.5563164471745078, -0.8880199842112446, -0.970314731922604, 2.4383343984777643, -1.9197913926332182, 0.0921752651451782, -0.052287553140713705, 0.1030527540874139, -2.09689582640175, 0.29655531574790767, -0.7289866205193973, 1.6193116561708953, 0.44231403665229224, -1.6220007682895274, -0.5290058643102656, 0.32982982910875674, 0.8308491461601886, 0.1638285147195494, 0.17160838149605903, 0.5611059135687914, 0.9578114455119704, -0.3748179508432535, 1.6155354215759925, -0.24418797074610188, 1.4496412921520068, 0.03525595879056889, 0.8724648125815002, -0.859227670514259, -0.38469825479722114, 1.3978175542361784, -1.2125125677815047, 1.4632691993430504, -1.0960841329416164, -1.2782729600742258, -0.018649279924579817, -0.49966036335426456, 1.2905062693472105, 0.4643804461360745, 1.1426674318665908, 0.10462146492067531, 1.1238874024886647, 0.9619136216518909, -0.9341609858576957, -0.6986914611840437, -0.5698975994018315, 0.570253965170389, 0.1305973578128703, -0.6338475743824371, -0.12749842120621457, 1.072654505351319, 0.5952457857370151, 0.8265213133090947, 0.4654589482240618, 0.39891201501072, -0.23975140038017942, 1.373224846553081, 0.9659024144508023, 2.263463339719513, -1.2624706697255808, 0.576547736039474, 0.729556101486495, 0.8082161599712817, 0.13224055141594196, 0.23491381798123878, -0.48105701956448915, -0.36842155098836255, 0.6498268150500345, -0.20234285695470702, 0.2385292073979697, -0.697059022711718, -1.750928527211741, 1.0009782835437502, 0.5050321434515203, 1.5248524984402476, -0.8584566684308343, 2.256676985057545, -0.94017485430342, -0.5612018730158544, -0.2557455041356078, 0.05999378290570051, 0.006623963081592025, -0.3475726230832267, 1.8240638940995735, -0.036716140091701786, -0.32313190193863534, -0.5576780795332222, 1.4786402968235959, -0.6913227338171265, -1.7745068213155728, -1.0127793960606395, 1.7294600101569169, -0.6962895484159944, -0.8950203621765993, -1.9747759669591762, -0.32977819571461325, -0.6382825956919013, 1.8695791076366854, 1.0636068844149835, -0.6644376860760033, 0.9869909720225523, 0.8194058329054323, 0.9635533360363914, 1.1402365097982323, 0.14229425193350387, -0.2174469914447531, -1.979613494489672, -0.4522357471830631, 0.9546605385227606, -2.3014379326612504, 0.6434994914046781, -1.6845428967616483, -0.39161974773732355, -0.08074986254081164, 0.3951516989747413, 1.4737460202681798, 0.2220245508628239, -0.23511192341956405, 0.9595296607918941, -0.4972621639583382, 0.8719315785059578, -2.0849508293804777, -0.002414031675876645, -0.494769467762569, -0.31926568587893706, 1.164851816238206, -0.2902142827821893, 1.0352060097983127, 1.2736964166457798, -0.005443976565250103, -2.067879394941212, -0.01908054640751062, -0.4792944715971242, 0.7864902897315674, 1.1085399018277162, -1.4917179863389418, -0.5825682733598209, 0.12303656252912945, -0.11958723910791692, 0.7341903893121315, 0.08653239276300545, 1.6349864463723962, -0.4130505823246844, -1.2493670632679623, -1.8026985704187026, -1.2183133239435473, -0.8489859966055843, -0.23032896888688323, -0.017599796376357134, -1.1939128408868813, -2.427915500209704, 0.9117211289659154, -0.1292656850684527, 0.7984794756923903, 0.34211179781338236, 0.19202687034522117, -0.6690869699218943, -0.44192299740898733, -0.4788999644740635, -0.7798748543478201, 0.5378116658963267, 0.9704743232664242, -0.5127125329040216, -0.9301252460993572, -0.9980719836069545, 0.6150927790841938, -1.137278867438227, -1.0586923606541903, 0.3179855608167139, 0.7667642855226198, -0.1477779119472091, -0.552854946113979, 1.4598883425476348, -1.3978326836552415, 0.6955070146985186, 0.24463434858252553, -0.03850807073331865, -0.8754542193249163, 0.31443771276203514, 1.4023065570908484, 0.8851377540286106, -1.5022733589612214, 0.6551624383134462, 3.096870131306346, 0.6260134949393958, -2.87014093074573, -0.8973821432936824, 1.0022420052652663, -0.6257533887536372, -0.5842540170189899, -0.7442566651182388, 1.01286416210506, -1.0576563888850279, 0.7441057177933196, 0.30010648141020085, -0.06662283210814737, 0.24857454098854903, 0.1599755889009805, -0.07218405888958769, -0.829673649417035, -0.26517115147221465, 0.543773994954366, 0.7655560020916652, 0.35221316578272405, -2.269770231060523, 0.6089047469080443, -0.5099744177403907, 0.4826313754824349, 0.14826704764143225, -0.030980882885472082, 0.4014711039273302, -0.1774293475047826, -0.8187383197752834, -0.43012752733415327, 0.4594597426358826, 0.010119199567208859, 1.0794015826116292, -0.6077588833666222, -1.5346171720849269, 0.9261412637466075, 0.7849644387869704, 0.6338232046739639, 0.388107889025563, 1.2616865631916965, -0.5690458922851239, 1.1237388038596923, 0.3291114460248545, -0.5049108550694011, 0.7569104991576644, 0.29798134682554034, -0.4362822941386945, 1.1907709403601758, -1.0902320091399702, 0.9252152308959081, -0.09916720559451446, -1.3944921625295486, 2.0454862000054033, 0.808752451672745, 0.9912588168763452, 1.2232452663809188, 1.0772456562626032, 1.2579687668178932, -0.4912818970636362, -0.13460992793217194, -0.06157302061430905, 0.566415372179011, 0.032772934737865154, 1.015327603452872, 0.045679002379092636, -1.0208889703144053, -0.6499293613005168, -1.8217932630037381, 1.0943949353237712, 0.4864105257171436, -1.5473245959504547, 0.8077746150354504, 0.6254271616321266, 0.5494750869392724, 0.2944881179114146, 0.8789427960041601, 0.8436898837285636, -1.2456654058803593, -0.07715927295649697, 1.7050344158105188, 1.091044517578233, 0.03975961040152122, -1.3662857341529677, -1.0193954771804956, -0.9527741306908823, -0.07738207283365153, -0.761865383481365, 1.0286067984221836, 1.4224300146446978, -2.0355760201993154, -0.02918942323000959, -0.21070832575051124, 0.8009972744089533, 0.45175981737361837, 0.34839579076051064, -0.5164272251924069, -1.1189811763359616, 0.4474620659928971, -0.7690382707643543, -0.33275840095629083, 0.5084643292820206, -0.1629699860506382, 0.3332628105553616, -0.9191231223542309, 0.002063463566000918, -0.9526517785127481, 0.37643064674789317, 1.2738654143708956, -0.29785322416370297, 1.3321647941706711, -0.4099633153934476, -0.8875290141066768, 0.15432524538578898, 0.8340273514325155, -1.4000606547569874, 0.6837784631288953, -0.37564175224158086, 0.7108696687283451, -1.4393411707149855, -1.205175993550111, -0.10131825249189415, 0.053572438053149554, -0.5490786844580504, -0.18229105334023968, 0.003811640881397135, -1.837596560374428, -0.1105577071545502, 0.03838389127524731, -0.1933408729496634, 0.001346134936147655, -0.1486804718953439, -0.9427599056382135, -0.15759023353854823, 0.6973645463631579, -1.62758816535843, -1.5908897445450911, 0.4977037493016826, -2.4651315687744595, 0.8415104141423562, -1.7532640150901582, 0.4096587920442227, 0.03904401624451451, 0.10782894503490012, 0.7058623438721835, 0.4997277555365579, -2.3389938922756697, 1.282360639231129, -0.6155150178969088, 1.332783802463799, 0.6931575965470278, 0.8507732388808036, 0.2968322486141923, 1.278515450768453, 0.5196747362680582, -0.11972276699456519, -0.11029708087532787, -1.6051251083369389, 1.4812998498483303, -0.16726801047667259, 0.46445537258936137, -0.9847662679307265, -0.5943368553054281, 2.3777300701052413, -0.33762930917978917, -0.9004276322001056, 0.8109030107331787, -0.2681599194398597, 0.7907588311897656, 0.36806421404303646, 1.57367890753026, -0.9813374233450242, 1.1774216667305681, 0.9486759793060355, 1.5330380637900296, -0.02631658785495837, 0.5216177209375231, 0.7244329389978429, -0.7911716923985772, 3.335351423923563, 1.5330430796797716, 1.8051318199321742, 1.404949399770011, 1.078639750218283, -0.25538099293680444, -2.5671374808687544, -1.9436537101105955, 0.019309965446871524, -0.6750014043583605, -1.3078862671497737, -0.23249340357976872, 1.3021760601047652, 0.30447838765059343, -0.15073955750063125, 1.1519563647083408, -1.1057945070789634, -1.1914391833422833, 0.6989443090030439, -1.5155888317580692, -2.343145516012316, -1.6649149488412986, -0.06706670964677917, 0.75836567051627, -1.1886351687296475, 1.1033604998860373, 0.48372349185099617, 0.8077480973196548, 1.2717798471958768, 0.3634659642256354, 0.489866027840878, 0.7501932352263028, -0.7813248381157547, -0.5772576321022953, -0.3134156096226772, -0.7760540578124849, 1.2084506654126839, -1.6804524904129639, -0.1681360533087281, 0.104177337201264, 0.5016058284162447, 0.02375099433966534, -0.4703971721038063, -1.3993511298719667, 0.7963150318148565, -0.4018460756222131, 1.004733379425021, 0.6063296204042407, -1.1487183760726631, -0.18251143425281838, -0.33823492479708617, 0.19899228285319645, -1.766047724705483, -0.9360578194264342, 1.4631911034024114, 0.13118779396034008, -1.0240591182055951, 0.10169376039121616, -0.6386930256031724, -0.15544534644716188, 2.9161431455075064, -0.395529263821456, -1.8337815621582936, 1.4414536237755016, 0.3210008211605327, 0.9190632656877212, -1.2195893867675696, -1.046346981852719, -0.8131519424333252, 0.9736048490441801, -0.34219884539962275, 2.4945457847908212, 1.4167019090227786, -0.24888581318878525, 0.5066540174842291, 0.7180410466084818, -1.455749738860344, -0.9626762970234305, -0.49816174951186415, 1.3263346266220757, 1.2773340219478793, 0.6497376828758316, -0.010219101174959971, 0.7070763225607694, 0.1358654825009519, -2.21904740388063, 0.44587382733391145, 0.2951711411314021, 0.10097002922707297, 0.6669718147531686, -0.2799334274502213, 0.946351722459816, 0.7925049130841385, -1.5790103626015308, -0.8402638824398667, -1.3990841055988363, 1.189752377194275, -1.354866448056582, -0.13198983350734467, -0.932620359349156, -0.2355348131328057, 0.25525228920376697, 0.40079483485482004, 1.305092202036034, 1.0872091894711662, 1.1742838360730599, 0.5615481803091654, -0.02030663935859633, 0.6890418444377567, 0.9793746196353147, -1.8317932696960608, 1.270016196475887, -0.1647846555910804, -0.38434196047435343, 0.3990034088610472, 0.15469102468749205, 0.6977986477555818, 0.9803386681956683, -0.2609072267969021, 0.9911345971316045, -0.28638934236041724, -0.7787830874220149, 0.45371686748720047, -1.1525608858454823, -0.4669275414621311, -0.06970406733957787, 1.0650211690337503, -1.1229894913307559, 0.44857454387523116, -1.2379735309642403, -0.13136288780602137, -0.5587108184194407, -0.7202717444140293, 0.43503326929743086, 0.012854125564605518, 1.1915713428670778, -1.2487570687780487, -0.46182498629247576, 0.285632079783086, -1.6924344645246916, 1.4338934874126192, 0.6695098424480078, 1.592188253432912, -0.4391791805990224, 0.34795883810227063, 1.9925123628815353, 1.0130244443636047, 0.6072184059277836, 0.6985831977198318, -0.3626914303871316, -0.9061299748119086, -0.19501502551345118, 0.16658935585365472, 1.5235169333301557, -1.0055831005459914, -1.0108725886594663, 0.07119228679266666, 0.3500805984282377, -0.60283143706153, 0.8289735656685765, -0.0994680431594555, 0.34405345276082056, -0.4428289036133422, -1.7704405083820751, 1.1579283576828339, 1.3052172684659205, -0.8113297231168117, 0.20170764482905248, 0.7998581882292305, -0.5458649119580772, 0.010284500203135582, -2.039726610423305, 0.6201029847584999, 1.1410028351616148, -1.2342869973586608, -1.2741129578213275, -0.9150328569282693, 0.3774531308589812, -0.664220176451467, -1.5847393260021085, -0.2526297119291201, -0.6157112453787256, -1.4323541495945455, 0.27300661816999766, 1.9938977678512368, -1.4794400796703557, 0.713245451640469, 0.04043970759907757, -1.167347040968281, -0.5091339433743476, 1.4659013929383813, 0.29473216678857317, -0.3997525717117292, -1.3145911594825814, -1.540806309369912, -0.0642674547450051, 0.06540067525766367, 0.7252916184867919, 1.5974279101062066, -0.669360984203934, 0.38262031930229135, 0.2720948740358853, 0.8995812821102346, 1.1409816743164038, 1.1933227914148614, -0.8005172580170685, -0.3200692372974958, 0.968690172454916, -0.11421427780767285, -0.11041281448409741, -0.6056076149771472, -0.08588473970426569, 1.0441035205109452, 1.4311074063141977, 0.9069745727500109, -0.9240333981117869, 0.5648629704222846, 0.8500562766194687, -0.08429577091125849, 0.7812646466567342, -1.681124768092871, -0.43844083577161164, -0.4158417752115178, 1.1800040168196588, -0.4196589467000951, -0.9164302565888975, -0.01598502511893591, -0.587733633911775, 0.7438151173274492, -0.2516388079887569, 0.29711915427907787, 0.6592341151518559, -0.733436180510015, -1.0480349350555944, 0.5646468289536392, 1.5581387223476981, -1.337228891332481, 0.9112668717420269, -0.3199117811187438, -2.8603831059318416, 1.2921833213832479, 0.657745562016097, 0.560074258782321, -0.5001660012818514, 0.7600860028637996, 0.9507512988953154, -1.2375943034045045, 1.6066877799644752, 1.2080827364793996, -1.506539852481233, -0.2591222322068798, 0.20867781555434473, 1.281845082632013, 0.0076148411607823065, 0.40003752403917825, 0.18178621012849489, -0.18881712994655195, -1.2682870590846527, 0.41507700125214875, 0.9010443148512479, -0.19384106177143062, 1.7897770168889395, 0.35718134509029625, -0.09771048524057467, 2.3933409156414287, 0.2981328195485, -3.0078446749864294, -0.34800819028698515, 0.5023286810544151, -0.2672174901069535, -2.031685373698073, -0.694149729440502, -0.9520999568501918, -0.5172020801851754, -0.3809425776045794, -0.3629939465023989, 1.5375278377327803, 0.2675015854497293, 1.0950340932339764, 0.30445257459710556, -1.7649576222566334, 0.21819710590035285, -0.49301745468987485, -0.1683335288918149, -1.067149957702436, -1.2934525813026352, 2.4338807283517183, -0.9352517414199449, 0.09972275523555499, 0.5724855914824964, 0.7991292949800685, -1.025784909486148, 1.0092074493405458, 0.31878524104176054, -0.5751282571708329, -0.641899269847825, -0.2796266554919419, -0.0035238246640146753, -1.4138231381041624, 0.06167735020812532, 0.4831761668201252, -0.7761118462536324, 0.6421971012217327, 1.5584859556940482, -2.279378209478135, -0.4498596931693675, 0.5675779015307799, 0.4584353492840293, 0.7347904599498982, -0.15568841754517437, 0.8230834363412901, 0.9483911086381838, 0.1176019321977918, 0.7901408216213839, -0.6970985725550506, 0.7436977452508444, -0.4582537968320739, -0.1335474089193066, 0.07861863525249739, -1.9223904657129494, 1.4760383857334054, -0.9221502683684764, 0.7777190396778666, 4.010231621539592, 1.3724934332927827], [-1.08750514264279, 2.185160808497753, 0.8834171860088229, -0.6545654779961441, 0.5709055993304616, -0.5432271365089656, -0.8400895925930715, -0.6686120702749055, -1.0819046810011108, -0.5070393349393185, -1.5712603664316636, -0.7485620319886296, 0.6732144761923884, 1.6331020209947105, 0.9646415802762648, 0.07045373346669985, -0.9723073340955501, -2.3321716399156047, 0.2870120258974061, -0.273517127282921, -0.4739417130407913, 0.33420989196172757, -0.9354248043354377, 1.3000911032659908, -1.6770330901463792, -0.9737295959337269, 0.3300558030606766, -0.8362149286890641, 0.7306876525031349, 0.5288277785434415, -1.117322294763383, 1.1822934896748218, 0.25985424341250835, -0.36903917110379325, 0.44403088840125815, -0.4686728143158507, 0.5939046783246928, 2.259641560182548, 0.3409112908181602, -0.6017993685044024, 0.6663016770184716, -0.5526089808425697, 0.07578716663017883, -1.085097670993097, 1.7932150437633014, -1.02618496592438, -0.9747501055007657, -0.6190243116074284, 0.2603140540365011, 1.0469738437471725, 0.6260125709385228, 1.0156332768218916, 0.4900906722600502, 0.7464590090456162, 0.43243302888848334, 1.2047868100795076, 2.0130189610524747, 0.7738373015439003, 0.47080895010154344, 1.1121764495657365, 1.210367773930257, -0.30325175033523544, 0.799743387819955, -0.8879422185684482, -1.2785939176895416, 0.5877754145879227, -0.4725758728273184, 0.14458468698699825, -1.1973551010847299, -1.4465978547652187, -0.3103904349805808, 0.752025767611025, 0.7863876555325091, 1.2860055785830617, 0.4056859025634401, -2.7130114669673415, 1.121742094235265, -0.1375099812420853, -0.2703438358935013, 1.2523600629482377, -0.3247878571514256, 0.34373827519859806, 1.0001037665484556, 0.15751821097389765, -1.1484122431992363, -0.12676601488497255, -1.607644711229017, 1.4943818918407357, 0.674223203791706, -0.05885642647109703, 0.14774331927862894, -1.6192020885672493, 0.7937079607528316, 0.28019652316582533, 0.652620000336674, -0.25521437547378256, 0.11219029783404279, -0.4199638201324932, -0.5540937482886584, -0.6089200396861255, -0.4857558159232678, 0.47869032973766606, 2.7839563532748284, 0.34965892671027693, 1.4822855407450866, -0.5540135132796883, -0.0801080566733729, -1.3584221041447295, 0.35765015860425814, -2.369643461889457, 0.5259392135251365, -0.6065842925687763, -0.4059258693010219, -1.1145944269318244, -0.8077062785521995, -1.9353464370022295, 0.23938465957619778, -1.3380251180399652, 0.5814072296464248, 2.0420666927737274, -1.7513145149562244, -0.4054773718348559, -1.1039942340889768, -1.1120209454843741, -0.004089861756704405, -2.014003255735019, -0.6085051810976092, 0.25500874491635145, 1.6940723943541482, 0.13990261562935585, 0.4855814222835459, -0.6026230445403675, 0.23042182862529592, 2.1503887595573916, -1.0006203161085006, -0.5438058455612236, 2.3181874987345537, 0.6454567162291478, -0.2120212729071209, 0.23482283938086712, -0.6671797022720689, -0.531351982541567, 1.178303843094644, 0.7907404337964534, -0.6678935161242715, 1.2152591102343664, -1.3839730712723106, 1.0758911053093583, 0.34822282570844204, 0.30681203442264027, 1.2155016019080058, -0.8138760784766689, 0.5157310432853109, -0.2970310086786096, -0.11290538148609146, 1.9576013495429567, 0.3866372472627775, -0.16842824321145652, -1.9092058149815552, 1.4724025474674562, -0.7290049424395958, -0.6437172495371907, -1.1410007030385119, 0.9327151176543307, -0.17111916467926586, -0.8834397622804986, -0.3230434538804591, -0.28299407881489735, -0.09645018285261561, 0.21241604912430448, 0.18704980150409678, -0.6519878185632015, -1.2869701327460528, 0.7760071686396119, -1.59409610705795, -0.15352325849272638, 0.30335905570358257, 1.2717334586405864, -1.4856685797672025, -0.2535266704424211, -0.6689906689741867, -0.09147097097082146, -1.8087577553427645, -1.6530022432536962, -0.9312517939223689, 0.8452940671219512, 1.820110720129857, -0.9681652682681349, -0.6694995713375317, -1.15874388474037, 0.5168470208637772, -1.4999702193179556, 0.9853643161324257, 1.5626615573508855, 1.2773312441934248, -1.374790594142354, 0.2730297775930873, -0.14110940688317364, 0.5114406880528304, 0.02807890836516491, -0.3300321084216433, 0.6680603618889354, 1.4660809116162563, -0.9155320061347042, -0.8917789904402682, -0.2546125813719749, 1.0117790532318163, -0.6749935461349171, 0.9269612245230141, -0.8400967337307085, -0.5962136205053076, -0.7054807678529673, 0.25465683924609445, -0.40610219869403114, -1.023768032615997, -1.1108687207084424, 1.0780325888504487, 0.018016547094269662, 0.37070212168717975, 0.7483868022859196, -2.010813439968084, -1.5220846442197344, 0.4047201832804217, -0.19596150727300252, -0.8436057258773506, -2.038279493126978, -0.40924739003472255, -1.1572739406236363, 1.8611508954333984, -0.03121409984324567, -0.3503607866792691, -0.28975680094292805, 0.23075606518405187, -1.3224274489712058, 0.021183126728313757, 0.006087063312124595, 0.5552621925217409, -0.8298712513399928, -1.6215378368361901, -0.21053842735132747, 0.4324038970756114, 0.2638562328518547, -0.7575196254926716, 0.8642785139671678, 0.49390514895008236, -0.3735523541401414, 0.6067810962038008, -0.14241722844438404, 1.1207927335976182, 0.583067422549734, -0.18837553570261256, 0.31923722406160265, -0.5116012439915005, -0.6598328565448837, -0.1169996435454122, -1.0513248283698513, -1.3603026996741794, 1.6248875659243662, -0.5394673775267596, 1.3788092675587762, -1.1658195413970982, 1.539774932984519, 0.35240268382921375, 0.6558620034255959, -0.06451981295382901, -0.6104760937882627, -0.19864880198673304, -0.013545146079953992, 0.920981170065319, 0.8553811948841097, 1.155384155355317, -0.3381508865995824, -1.5031593723653676, 1.122216246575724, -1.8223522425805507, -1.3711500019933014, -0.4469162894606508, -0.2556943665884618, 0.5232347610794178, -0.5700637430342472, 1.0681119757703643, -1.9912565039764238, 0.8700334724549159, -0.9567187724898677, -1.4004432193447727, -0.3765266447138509, 0.3224502212709551, -0.8573205179268963, 0.35776532212067963, -0.9936976707936134, 1.0137636140695159, -0.6232539891438874, 0.6464910308774647, 1.737736876807614, -1.8092573819255855, 0.06244742753918914, -0.37417608073249053, -0.7410557924426621, 0.5401786047259954, 0.27903922280746585, 1.9214731896051604, 0.8317324918940061, -0.6960238288579631, 1.1328943717435642, 2.353199086816309, -0.5612612117897481, -2.0665423031448036, -0.7076999155918478, -0.29810604256949486, -1.3296284157501934, 0.5909415334577994, -1.0029781083600775, -0.7715424243688457, -1.236522257296697, 1.7016924644001423, -0.1628206250447335, 0.7108544023937545, 0.15662782260141156, -1.0168132669375372, 0.4015117265332237, 0.8851171562071446, -0.205779372537137, 0.957426734904927, 1.812706196574179, 0.13867799912547912, -0.3807340979082091, 0.5010971794180746, 0.11758645200387646, 0.7124502090263412, -1.0722048304421448, 0.5222044853568668, -0.08680001078536569, -0.5145070353417165, 1.6546269244558993, 0.5825954461569606, 0.8714807018029062, -2.7055908391109886, -0.3975762705335585, -0.8300383177237493, -1.0095802800066924, -0.8354942822872908, -0.8094146471189001, -1.6173742777644862, -1.353931628324517, -0.1797245499361825, -0.22739645872398218, -1.1154383017748577, 0.43103297802246315, 0.73906514526248, 1.1977791905429602, -1.0707143095644478, 0.965598437377952, -1.701773403886879, 0.6626119921262721, -0.44454810843366727, -2.563553017548083, -1.6306641665293324, 0.4388977647340154, 0.04415292992075074, -0.9132581684706127, -0.3401004413909352, -0.6746071424022863, 0.5840717768303905, 1.2002627311501655, 0.7834867623223977, -1.3958903053517593, 0.2521256001304908, -0.5836877377958426, -0.9816881072056234, 1.2378707011820334, 0.5633147180768483, 0.6057861045505153, -1.6888205499370332, -0.39331148152198225, -0.9027660881040532, 2.075478170037526, 1.1159360216738998, 0.6296164075816761, -1.0760276257438897, 0.09609793795244144, 0.4784899464304657, 0.053180285718017216, -0.5564903031315853, 0.16879210070551834, 0.5619074845525253, -1.5656915967907266, 0.6923702335512982, -0.10234677780541279, 2.4893648507300483, -0.47238528089398235, -0.18546166002442674, -0.06672166364650083, -0.4027210179070731, 1.285416488880411, 0.8559823328398979, -0.8854617321940109, 0.1547364541330374, 0.3548088066217789, 1.9683754775002702, -2.7397546460560624, -2.2186198983133125, 0.23574587609874548, -0.29227518061997226, -0.5307406227280395, -0.18729825852715548, 0.12756243019979513, -2.314809300642179, 3.14842520584153, 0.03681222382432011, -0.7322774871403641, -1.6747973802644855, 1.2665390894388677, -0.36713779862905477, -0.4796166954938079, 0.8056145600999745, -1.3653799409287986, -1.1380091518176454, -1.0895025063663275, -0.7049150510569588, 1.3804348064115912, -0.09729634080184885, -1.23813193007682, -1.1086668145844598, -0.09820047662618078, 0.8880549832451693, -1.4491928685431588, -2.129855161408557, -1.396688826691144, 1.49640753429293, 0.8799401381019357, 0.695241728615689, -0.3213903621544995, -0.9270644487683661, -0.5208482680042824, 1.1051196846785611, 0.7494159073549804, 0.7512228249749308, -0.7336731865024969, -0.8040166798231574, -0.7449741758725508, -0.41219245742024846, -0.9572867658327147, -0.7671031446063774, -0.3172572741773466, 0.46907732744187913, -1.093023688853404, -0.02336044224890105, -0.8211551399706928, -1.2276314445611827, -1.4566042054423736, -0.8067809867955613, -0.14828353573005115, 0.8654444021956635, -0.08802486944806247, 1.1083367692240436, 0.5606798731752309, 0.08543845339161694, -0.026295188409237412, 0.09295362039492809, 0.5649267307059626, -0.018973103702223538, -0.05496387559918568, 0.42984925532376045, -1.2496832048901034, -0.20264000317843248, 0.2157822119187238, -0.8987617154504196, 1.4055791152863277, -0.025043969686618643, 0.2845514764479093, -2.347945076343822, -1.3833653025689292, -0.3403824913009265, -1.0068881976466013, -0.5461519697382985, -2.5820456465813986, 1.8702742982995908, 0.1658629663428548, 1.2688580898844686, -0.8066122686820254, 0.36764696594181273, 1.4867221766136118, -0.20632409715959205, -0.7986248273376036, 1.112301874193758, -0.3789306888867647, 0.16854862636431533, -0.7992702316849855, -1.1008472160115181, 0.7140952102987655, -0.30193802477295156, 0.01693735712320366, -0.13721212480082484, 1.0171487571923672, 1.0656446641354627, 0.45427035673523186, 0.707867752764196, -0.5776681038403254, -0.7366009355516699, 1.9350526527162963, -0.04067578712186398, 1.3267063879053227, -0.9535415422610313, 0.35749586460085203, 0.25315820525072624, -0.8831630093966152, -0.39724215323905065, -0.1409223756479992, -0.21414798169108964, 0.3975950318737772, 1.2327615360186819, 1.5454188273683374, -0.2412816215806877, 0.21316469068704047, -0.6069149375881465, -0.13044289637112036, -1.6596627813174416, 0.42489075286134237, 1.3560414796719562, -0.6905987349091927, -1.701498256122175, -0.5038800396084805, -1.033011952135292, -1.070204103711507, -0.17143597797660604, 0.481081016615698, 0.9209986278845795, -0.11052271505383743, 0.5527192979310842, 1.0820881053690519, -0.499075799156711, -1.1067239235174007, -0.27752343986764927, -1.5779655969437685, 1.1944609981495946, 1.2031481296535393, -0.8617804202126551, -1.5345964741062195, 0.6664395684573657, 1.3250695812821152, 0.08493118713984316, -1.4391198487893264, -1.6619660019453557, 1.829067041955828, -0.18525225739596937, -2.7852806010738322, -0.02713827482225894, -1.3800205160829064, -0.6351431193885685, -1.5254102490948316, 1.4107014861093001, -0.18649118544382884, -1.2003463317957592, 1.1001618415742371, -0.18642408916696343, 0.6961311805554264, 0.7759450620827225, -0.9769290212069526, -0.42142273143265124, -0.7870641125024163, -0.29013183895209793, -0.2324642999337635, 1.6767641495155903, 1.2947095667253607, 1.6857545319285376, -0.9769182876568239, 0.9792163192038065, -0.9360006898053373, 0.12211056655982822, 0.6711596235061169, 1.4311288939663742, 0.7337852369069499, 0.21322592685508088, 0.9628132910607448, 1.166616359257367, -0.5576140531078887, -0.712292577920051, -0.011950828115271966, 2.2716490987955624, 0.06243855106971342, 1.1014040811537107, -0.3200605879635224, 1.2269957002502998, -2.2079285435566156, -0.7283330771114851, -0.4829228909440485, -0.4873156082192509, -0.2909468910748987, -0.6737366963029836, 1.351892422648173, 0.561659327804968, -1.026589705262173, 0.852919666848986, -1.5333826845337497, 0.4390687833452724, 0.7558322544502833, 0.9038355717922189, -0.8349282133807168, -0.1946270608507757, -0.3641937085741699, 0.028927604616957828, -1.073472727862813, -1.1162364273034382, -0.4598505004362006, 0.5155159140897947, -1.0351500551007613, -0.7347795196965237, -2.045537872264517, -1.149050346405562, -2.047137789766263, -1.6595244271502103, -1.9525696797111765, 0.33801322177700577, 0.3416682228166614, -1.2080000037347822, 0.8004311636859746, -1.5175436590931606, -0.28160199457918994, -0.8516468669253119, -0.7841591398012167, -0.4433601225659097, 1.5043923140384527, -0.23153200033119975, 1.5069507895109684, -0.07057669810016076, 0.9860980286429974, -0.5851935951017828, -0.08259087644038031, 0.1108024490957043, 2.07251841106141, -1.8090666875289738, -0.23626246899022446, -0.04759102665989644, 0.7516156324539105, 0.11405473575665433, 1.7191191899604668, 1.312702451640306, 2.6366029295597397, 2.210382981012601, -0.16154034112762128, -1.6630557595649362, 0.6929315895786337, 0.029802899817689764, 0.8460954242261768, 0.6803888775557021, -1.4652271841682203, 1.0560253542574511, -1.7659424823082495, 0.7961188185191842, 0.21520676057406787, -0.8451462954103907, 0.18849034002809917, 0.20745069271045974, -0.5739238452442177, -1.3469720719019564, -0.7593151162163891, 1.1975613407992334, 1.0143666351592557, 0.12370825440012563, 2.4499573540416715, -0.5754795657312456, 0.38170567822003704, -0.09518381703621331, 0.7774979712637107, 1.5193550897895944, 0.27654643849849336, -1.5300016746506468, 0.6320269570480597, 1.6451144537418787, -0.2936182051373049, -0.3971790820044921, -2.3113288036972097, -0.4303373290813365, -1.27022060297571, 0.6328975819956152, -0.8953429573355468, 1.3428361622098732, 0.8510905818555948, 1.0823147577835923, 1.8449995953711105, -1.2409394163976075, -0.13676065233485737, -0.7322858411537889, 2.36549027886769, 0.13453700838200636, 0.8410196813369087, -0.7328388100619492, 1.9182966742223433, 0.003937934569535798, 1.0396630646954668, -2.0833674935048396, 0.8406020805708712, 0.5719585695492293, -1.165268525723216, -1.9663782114166324, -0.033930710182769185, -0.437254598181868, -0.11220624421226046, -0.18231457213738672, 0.4263333013249288, -0.43164241393691216, -0.900139272800072, 0.6670221373103441, -0.24986089477713222, -0.12984578648372133, 0.715612749983964, 2.246489659128573, 1.011560649912837, -2.375008591873292, -0.9243370972143263, -0.9254673405145177, -0.4467125398572119, 1.1649090487706761, 1.1310247787080445, -0.049520425584846046, 0.13696374216671453, 0.7137215831210904, -1.3901840207952416, -0.6929537234581015, 0.9128519725814437, -0.7229160796074326, -0.3403936993213776, 1.0779346721380645, 0.5140202240698545, -0.38043328805012344, -0.38716674460992156, -0.3888953276727979, -1.2248350019083618, 0.5719396940799046, 1.3834789245771246, 0.585464223518567, 1.0572943557881784, 0.855399863915767, 0.8775264002240413, -0.7685497372186656, -0.012087996378409684, 0.4390572465221397, -0.17327360216411844, -0.6875283883572694, -0.06956125101065568, -1.0447020256827364, 0.46443876296412273, -0.7896245228937401, -1.0005039642453153, -1.047905240778862, -0.9222937696463024, -0.7619768015038665, -0.535766334343026, -0.7904037405069005, -1.201378655431461, 0.13173596015742386, 1.6815878934295614, 1.1714675392379787, -1.2539243922221, 0.10826655444903555, -0.6197772158289807, -0.07863900883679872, -0.5790194321335375, 1.7485626430717458, -0.33553605095406736, -0.2209780991446829, 0.24129962310040953, 1.490291566518958, 0.6136110758665119, 1.7661250047808226, -1.48697215243396, 1.322532905164406, 0.4765743725891021, 0.6122908210156305, -1.2588294461827976, 1.0969512899154088, -0.5626017568029009, -0.4669321248511365, 0.6631518531233727, -1.3157918215041184, -2.2829576421906825, -1.3912417228455325, -0.3314256365639752, 0.3912943506079345, -2.5294141867360587, 0.15682947872564082, -0.19960824218965245, -0.09213547622682508, 1.4287329141762766, 0.6851409945380578, -0.6539780479159192, 1.1176992403136523, 0.0432456000174077, -0.29154832754606747, -0.012610805490970003, -1.2800566091356425, -0.0729779556225778, 0.6676725809269757, 2.5527507749104137, -0.12288978311623826, -1.2139620326628464, -1.0934858001933805, 0.9159349016305655, 0.8241301200433346, 1.1433582275653162, -0.017016507229146348, -0.7176359046403049, 1.2500619223971245, -0.22651720482298038, 0.0962093263000722, 1.06980217810331, 0.3312084885929915, 1.0594189247350079, 0.5148213687305973, 0.4261123169993691, 0.08968309850798728, 0.4176777295741156, 0.7043227763718026, 0.9163674440042293, -1.7341866351569752, -0.7206671495027179, -0.47115283974629396, 0.4331080523915084, 1.068900768277997, -0.29610193906541526, 0.11931628954265121, 1.056330926149362, 0.786885518127547, -0.8922756176060344, -0.7855221132524789, -0.322148629451926, -1.2658032102358814, -0.8664273942347417, -1.2934173805216205, -0.5300672412469268, -0.28156837208515473, 0.3172587374210297, -1.4900070428207213, -1.5304755557402885, 0.2547780996901055, 1.0095500310637073, -0.8641223883083504, -1.1692198866275687, -1.3674635877051637, -1.1189887951609723, -1.9573111438715056, -0.1024726635284849, 0.3722090407410008, 0.14966291690893138, -1.3547707036400136, -1.030031362310353, -1.809387990385131, 1.2108583582417372, 0.6440948433927467, -1.6672299289215127, -0.05689235366877033, -0.3644231061007377, -0.9112793786287208, 0.23931481609541275, -0.09611150659813006, -0.056993327702555524, -0.41480081873192065, 1.192008910590081, -1.264147357151409, -0.3238868215206753, -1.236088497285342, 0.4618970087111658, 0.19817451172961031, 0.02618083447365413, -0.5580158348717952, -0.34723925804699757, 0.2062182355843138, 0.9895119647980037, 0.6573838525150422, 0.5147478439825914, -0.4655426893827171, -0.3372629164689429, 0.8765623640253495, 0.8911559591307944, -0.2439982775593426, -0.7416282809762452, 1.335696043379815, -1.3285874741650325, -0.30408452734895114, -0.8248738865632197, -0.30502578445868384, 0.3540446532157117, -0.15745343327792222, 1.2376178582197408, 0.29865857918805544, 0.3356018438552628, -0.6531821067776032, -0.08320741233828678, 0.9039651851189634, -0.6140060760137614, -0.08041612627933367, 0.9080023170126461, 1.479911967806651, 0.8151398528718765, 1.1945798768801512, -0.5000058403103376, 0.6566961830384661, -0.37026075735639613, 1.5416624438600477, -1.1336893223864062, 0.39785366876082157, 0.06349680067375531, 1.7250404474935657, 0.5875259022381002, 0.6216183334603752, -0.5371256044869442, -0.3587005682093593, -0.9930182920168148, 0.3692594149278724, -0.3710644735380137, 0.637497838431663, 0.8611980772276873, -0.3522286358760994, -0.613635880338931, -1.8101822553144167, 2.167322079119879, 0.01734555274906301, 1.7953878528269447, 0.672479764134453, 0.6173957422172772, 0.12241230709273558, -0.08292050637641893, -0.6109463461746452, -0.527304888548017, 1.0500431846788296, 0.31041035756311675, 0.9172057470548818, -0.191982274196549, 0.0006247294304307702, 0.21662348204712858, -0.030367931577482105, 0.4314065102639121, 0.31565892418224456, -0.238385424843289, 0.653654440150861, -0.3459319796749198, 0.8328097265333275, 1.3024631169989633, -0.5266254133439022, -0.30071995177970345, -1.5516995999318897, -1.8305586618948964, -0.2999012721533778, 0.7552554350037142, -0.10499907713499396, -0.38771794574708524, 0.45363659406603557, -1.7478542164834832, -1.5082556908556617, -0.09628750137968645, -1.3269299298648471, -0.6705546707187714, 1.0947318789316123, 0.38206363275644306, 0.1437709872195176, 0.1620289461059201, -0.8378930789805431, 0.17340690504016287, -0.4371779471302854, -0.0606583444532898, 3.8700165404276237, -0.7697634627653573, 1.0287818957034052, 0.6772671634905962, 1.2501464354697776, -2.296568507583497, -0.5373050846457003, 0.6782605698064919, -0.07568402616810298, -0.8617294136181868, 1.1340436712834046, -0.39038565046962476, -0.5439514703711528, -1.3807321446602079, 0.3760715988851566, -0.2447370140334252, -0.8666694838084273, -0.08979274842915481, -0.7269949099536115, 1.137598882375815, 0.08851082065247087, 0.8540565611301485, 0.15472307340302596, 0.7634670750257629, 0.3364992624405912, 0.05562639779136744, 0.062281299401246146, -1.2849037063736624, -1.1592435822384415, -0.6826392992036231, 0.4891962944055264, 1.576499551193367, 0.13576436446221285, 1.0193119270324777, 0.8568774181420669, 0.509957656764459, -0.21200396845577338, 2.108955240423767, 0.7574472635788286, 1.1948292681604196, -0.3147018612779712, -0.47048426597224885, 1.1366094579103867, -0.34911328292992144, 2.2037191052565186, 0.7676635933849342, -0.8292316057010591, 0.2635975840896354, -0.6614101975491413, 1.0918780193055548, 1.0207052522007887, 0.008666770802394653, -0.2850412195657119, 0.5462832930522331, 0.18782420419542611, -0.9583741481825768, 0.7637762155397445, 0.21272313530139322, -0.42206061837542197, -0.4337116219210754, 0.23547072621498488, 1.4405292638882454, 0.250592312773669, -0.6086231417369434, -1.4294602781008685, 0.9900267761107193, 0.7274932527741773, 0.5624249264399965, 0.2011151569297195, -0.014890997844595306, -1.3928983784038371, 2.3740064102247826, 0.04425623708955798, 0.589155649574481, 0.3515061643652177, -1.3976451524947116, -0.35307026198222685, 1.782763273425238, -1.4537876871426323, 0.5227591295457037, -0.4215133099394491, -0.0633950281018701, 1.6571432913524442, -1.8337016185382322, -0.42553568882906234, 0.38757133302244784, -0.43083832328174243, 0.47443192288981517, 1.1280980693333575, 0.47928733598144324, 0.4207875084842227, 0.2629812023335015, 0.36021632702709466, -1.313182969746574, -1.1704543012462152, 1.1460967745528496, -2.200983059281712, 0.5988219664673513, 0.5423459456245368, -0.37161733218192383, -0.9718737125575734, 0.13976018755745548, 1.03734264893517, 1.0964197221641618, -1.5858944753986854, 0.011333678142270437, -1.99487062923092, -0.2566059415901595, 1.1031302699363281, -1.0921856547947812, 0.14555840996806801, 1.4981777858700105, -0.1304742845268422, 0.6291172787108998, 0.6257408825384795, -0.999467464736157, 0.27834247030439324, -0.3006056965792058, 0.8459245595093127, -0.11886211906061177, 2.608066035466472, -0.1740478381203638, -2.112137060466378, -0.5066173160436555, 1.3801986693860724, 1.4583675646565504, -3.3523141308691726, -0.9672877215884086, 0.7225832733850556, 1.7734223831129343, -2.334999736611893, -0.4106420882767383, 0.45688700060157805, -0.4459395832745417, 0.04229289009263081, -1.2531031544878597, 0.5270184356050963, -0.5274146696802581, 1.2002161522183497, 0.9948071844521531, -1.2221415642493574, 0.4893332993606986, -0.14760070562355534, -1.0811738581437083, -1.3956585930719012, -0.3827752589563129, -0.34030118375339613, 1.9965639917668128, 0.10553461715357317, -2.073503521937332, -0.42542396597592486, 1.1991361772072267, 1.0758619804115463, 1.0334600201755724, -1.5839389240588513, 0.5542160549945964, 0.32121734685142544, 0.9477696185586307, 0.781222299859019, 0.48931544498699436, 0.2450839635936701, -1.1265968001736755, -0.05694175482730291, -0.5189912009211487, 0.9990879395566264, 0.17539391046364045, 1.189655144712574, 2.3761097577117303, -0.8353244922704125, -0.05530295742500139, -1.1032598923383337, 0.702080310709928, -1.4317947538702231, -0.7028647272959231, -0.21072724765937154, 0.19524503621063846, 0.39921779205741664, 0.4126162137513589, 0.2560219340280146, 1.5148502035733284, -0.8838198946973259, 0.23038575515925266, 0.05551314760716012, -1.0346312086829335, -0.332851648162076, -0.27365676904748826, -0.3927366004525633, 0.5148397857720097, 0.33806158388460683, 0.3075425013416897, 1.2855277750094176, 0.35263899382636815, -1.1402780545161637, 0.6223925345556067, 1.0111843584385283, -0.4748379320772066, 2.2999757840930775, 2.325642287219954, -0.21685802741475732, -0.5557631531270619, 3.1249509444648966, 0.32024442658296254, -0.7260824197840208, 1.8778081940460638, -0.2886470189757994, -0.9721808738039832, 1.8000082528971026, -0.3892421367082178, -0.63887507824179, -0.9378853392818634, -0.6956315845965654, -0.7262895229381418, -0.1960793800944054, -0.38261562350782463, 1.884597091033435, -1.8482185083635094, 1.4937265884972906, -0.3744688766010455, 0.0759763583039638, 0.6400089111702856, -1.2771623600653506, 1.4182568439230672, 0.4426089415927237, 0.3904252818456401, 0.06757026229154053, -0.11925652934609624, -0.8440519440248201, 0.31059202259487273, 0.24473546259827744, 0.5267397809777693, 0.989282677400358, -0.8346765970541894, -0.9546785296529968, -0.5223870519598205, -0.7478847815471477, -0.3006101068162236, -3.5803778873958403, -0.0879511199754547, -0.03073665789674172, -1.9279506759949236], [-0.4507837655249297, 0.4276842131341937, -0.06858653325722283, -0.9714153098068464, 0.12035435065757477, -0.655802436164969, 0.7294095713343842, 0.5768035958133937, 0.2820926210828091, 1.1247214482608625, -0.9698980644586408, -1.0737170890375696, 2.263543577759138, -0.04388178350441865, 0.38576966239338106, -1.6885490927698221, -0.5421585232291471, -0.8622227419477748, 0.5915370608034668, 0.6792305384911604, -2.0920670619846415, -0.49913444815869246, -0.9654549783755177, -1.1046509095388335, 0.35503789343676057, 0.7627916179915798, 0.9535936822272376, 1.121558087263169, -1.021781113055948, -0.8207574391652928, -0.28159991230766007, 0.763771742587222, 0.0617716024684879, -0.04883377576034627, -0.09424452596031528, -0.7386224383332748, 1.1312427964029435, -0.044711133721407094, 1.1376043119484789, -0.6189223272180225, 0.07764132339934722, 0.2907421617993221, 2.2749721443082715, 0.8013480915158645, 1.3468869219036066, -0.21827136392978508, -0.42037557143175147, -0.4345419637512444, -0.27585218883178314, -0.9590690450761922, 0.9231210112785408, -0.9148343755102449, 0.14634848665932068, 0.9511715245381781, -0.7699565377115867, -0.2799935229247145, 0.7214994133828747, -0.830547660896669, -1.7713956320275155, -0.952282589070229, 1.088212481912496, -0.1081335129324249, -0.5634103397273651, 1.203346923856303, 0.36669298206874973, -2.492281866840141, -0.10523534723014845, 0.2201631805644768, -0.06480533191750612, -0.08006492200550475, -1.0622686115637339, -1.5979567457872386, 1.0934670983998647, -1.1531309144942952, -1.0526622754050767, -1.975688058650517, -1.896444266953309, -1.1712372312617396, 0.11772674805598715, 0.5136528448960428, -0.6173523501404822, -0.09367716648316048, -0.6689902031314342, -1.0111361395730374, 0.05308192833264444, 1.237672462472469, 0.3466792605773718, 1.118498250106813, -0.9033728393409076, 0.7398326886210118, -1.4409708575451323, -1.398383818804541, 0.01691996466148473, -2.265054690355364, 0.3228108043966327, 1.4493854706711122, 1.6569588609796062, -0.014564770685745286, 0.06312083207044424, -0.13300002803030425, -0.654026879805801, -0.27508251894550445, -0.7904883992250958, -0.6275476694915915, -0.15052274827937728, 1.0201316809339382, -0.30488678588343987, 0.576324205381673, -0.5016722993824969, 1.1377773441160604, -1.2942119916948476, 1.1978724284297393, -1.006310809212944, -0.13653797696807093, -0.09889210655218399, 0.6517870977328507, 0.8105766045118951, -1.3416713183772344, 1.584840527948308, -1.7901908415967474, -0.5156070487195853, 0.636771742266896, 1.0287753465836313, 0.24273175414455764, 0.1615658853773401, -1.2182606941024587, 0.8632148327426825, -1.8648224463031349, -1.3076778409965895, -0.013504230987768921, 0.4920907369165231, -0.36343187200979427, -0.760154602748224, -1.5673808882754954, -0.47308490040441514, 0.9798219602453262, -1.4390567923369224, 0.621912719565154, 0.05830512326799097, -1.0913498799755432, -0.3009696265739194, -0.3704249565392236, -1.3498522710835725, 0.6850348615045906, -0.533490501005334, -0.16802631478976257, -0.3214584018444615, 1.017607511290278, -0.9598450735673691, -1.489899883881099, -1.0885158485826183, -1.0160821414464865, 0.8247804160939693, -1.9661505273466429, -0.23615918825003815, 2.005705042525251, 0.26965496509545267, 0.023372892317623885, -0.017318234602523647, 0.9644796151985018, -0.3856280150391901, -2.153468899801715, 0.5725308711563682, 0.9922846055592242, 0.08562276864342017, -0.9125953888277524, 1.0698934591976963, -0.05908004041411884, -1.6818065755498215, 0.5370842215048613, 0.7461123353318313, 2.212106945489497, 0.13875298791744117, -1.6636020115889818, -0.8178087863569048, -0.37550351059259385, 0.7416538366123564, 0.8877113172432743, -0.198416819834843, 0.48338237640010945, -0.30940901418688166, 2.489710149453515, -1.20672813775903, -1.1291013477897218, 1.8039839891544853, 1.261562423976928, -0.04498389876334245, 0.6224823686680097, 0.4286384019265813, -0.049774872460941894, 0.018382323649079622, -0.2782911328005347, -0.30292551923641636, -0.9287116206307933, 0.22579761257939102, 1.4873384396682283, 1.3011016058264158, 0.1430810811079242, 1.0005918805773644, -1.3644698463426845, 0.5864228645280725, 1.063799778014891, 0.05918191622545362, -0.24900784248115743, 0.49444949872486105, 0.41884306813406014, 0.4449992222847095, -0.5381630988639011, -1.665801592476125, -0.2730974089663563, -0.3295670024155941, 0.19297704654815903, -1.1180554920988595, 0.8190085076989096, -1.1535392084944158, -0.5412578353117945, 0.7128207856047188, -0.23310442746233997, -0.24682218930609573, 0.29339310705368526, 0.22610544982542, 0.9438527557679565, 0.6426217706036375, -1.2167406883405623, -1.2821606348912056, 0.3025471041331754, -0.3242513732605998, 0.6862674283929623, -0.7830535785550633, 2.3372676498540383, 0.5962553156433616, 0.8459992157076972, 0.7696411315700371, -1.1471522786883448, -0.836859144324999, -0.5804664677517568, 0.9184782213261821, -0.6211987385209669, -0.6425473693998187, -0.5917105421567247, -0.7198311789951033, 1.3115860590143327, 0.10295295266664117, -0.3269794966230813, 2.2862243207518147, -0.522591437940998, 1.6228952980472444, 0.2014071926165407, 0.6307266735610063, -0.12605764905214517, -0.1627153484131526, -0.9717246345187702, 1.1393701703227366, 0.36389305906921443, -0.2729170924452455, 1.173571250162896, 2.9090490463748684, -0.11580255418218711, -0.931542820902742, 0.9301572154505166, -0.8077597089261606, -0.717934114477248, 0.008950663466596705, 0.5145108925236137, -1.2694702975232803, 0.08400726816165442, 0.8141114918251893, 0.2415119350074786, 1.0974838203214659, 0.13394897253260057, -0.03255622343835391, -0.098731462023329, 0.015026920133165006, -1.1868430525973233, 0.10406497744909615, 0.2686371672536429, -0.6013950051820939, 0.085598231831538, -0.10672212319949091, -0.3831384468594768, -1.1596753286835575, 1.2449442484806934, 0.7166110845693751, 0.4168797953805393, -0.5853565038869052, -0.21564668563950115, -1.1525517600346862, 0.5296238715848107, -0.6580811678617109, -0.5404695272012048, -0.034005262368058765, -0.06225171496652182, -1.1714607529254946, -0.29663357210049174, -1.8214021723557647, 1.295593855006842, -0.5315290296596064, -1.4228387799699187, -0.05743238363595846, 1.0714265662122107, 0.39860552747004996, -1.0406992128915191, 1.5662297566182501, -0.25406765873710546, 0.7746781703722034, -0.4491092167072395, -0.6464528948605766, -0.2657854421558954, -0.42505551359349636, 0.5726442543311802, -0.20230607480753296, -0.8754886600570699, 0.4262535044662509, -0.07512298565630984, -0.40368289873625435, -0.9547264502754098, 1.2725611630286189, -0.23694180996335334, -1.034976618546242, -0.4910278313256896, 0.8662270347232844, -0.7464284910956985, 0.5700972793182993, 1.4337861872747235, -0.22835030826808222, 2.4170307045341692, 0.279986214085125, -0.0802282864781568, -1.2600696283448145, 0.13766194317453903, -0.4541683895840517, -0.6151379735323627, 0.8066629842762675, 0.5395965432316456, 1.3148490412022693, -1.6144768147037862, 1.2246783839165798, -0.45948832234898274, -0.6924457700872119, 1.3707545090341549, -0.15175867409413513, -0.67664564117326, -0.5604562870443972, 1.73279150229608, -0.20555447357994763, 0.2660744744323964, -0.674393059822351, -1.066589420224054, 0.9058341714227738, 0.6264844199504129, 0.4095239340277542, -0.4357176554567791, -1.705043847938003, 0.5558324091597382, -0.36898151150790304, 2.3456689414278835, -0.2922311999677822, -0.04825063586170662, 0.6617698664506233, 0.5370805001274592, 0.48367095123873416, -0.3203683109248971, -0.8159533756375588, 0.16514572181257206, -0.36049114925126136, 1.0162397119046986, 0.2723559186306218, -0.010472887949393482, 0.4920291785330633, -0.0701761587607755, -0.8092937254559045, 0.16997471589838736, 0.1022506606343793, 0.1635584327181884, -1.8343742449008977, -1.0948842129576815, 0.13973865608507985, -0.2249255729863747, -1.8429623567156797, -1.0751916781938544, -1.2598725614052857, -1.2950538180207012, -0.2075450133112479, -1.8575822939818571, -0.23889697570697868, -0.3373756475694558, -1.009918223740564, -0.29095819542345785, -0.9055300731519741, 1.2071422927606588, 0.65541498738258, 1.3228248146984816, -0.6054903741915685, 0.09466611447423587, -0.7529620643720752, 0.4131594194077775, 2.2490643962084804, 0.917973708890067, -0.6114931742738865, -0.5341520293478855, -0.43059364026130686, 1.857991483129808, -0.52625318531297, 0.12179696399957068, 0.4687237115665166, 0.7655910589301603, 0.598061264492688, 0.45643465240407305, 0.2866169167818839, 0.5892198640816688, -0.993163837287484, -0.0246201178683273, 0.5231341053822005, -1.0415135738529526, -0.9113543879345587, 0.7208024806309051, 0.4642097918816224, 1.2883994547899833, 1.5543234179500856, -0.11323138669764628, -0.6729634990205708, 0.3173523259937503, -0.8443406221859336, 1.260006310667209, -0.8842730876719954, 0.8416354429798721, -1.0606126949677863, -0.7351195134469367, -0.5705997378966092, -0.1424937570417191, -1.0393425156594156, 0.3645862268506046, -0.25423155075364184, 0.2757862526866194, 0.2570482565529099, -0.42025403034749315, 1.4632296182033357, -2.254868187313977, 0.13069746227480716, 1.657492405627093, -1.893991741971947, 0.19051292469010733, 0.5708764168895292, 1.5782209826176574, -0.10893568491717394, 0.09082540023275996, -1.3200230140206177, -0.2026877962609029, -0.4080231689508093, 0.44476084970442303, 0.5595706456071363, 1.1240412045167283, -1.504807387345486, -0.6585701274438958, 0.8573964117634695, -1.859594125217765, -0.29430695439106475, 0.17593626363349266, -1.3598422900839022, 0.2880411588158046, 0.23367677539013212, 0.09941694622598832, 0.5229779456490087, 0.7256240790587773, -0.9285242878830281, -0.13464278069276384, -0.24041715471959635, -0.485678617396598, -0.15477228397949108, 1.133316985355259, -0.6390765351206045, -0.21236895417684395, 0.2739519222613747, -1.5296282599044952, 0.30118771567752073, -0.23811591322572062, 0.3076215685017809, 2.0321660626330487, 1.2818701648612105, 0.07015637213052608, 0.03805417349186523, -0.5053287218269648, 0.11278016454645616, -1.3184807065302955, 0.487939168216821, 1.1777816748539545, 0.33651079761790104, -1.2284270633574768, 0.24741577229069195, -0.8054479959882141, -1.212488422978171, 1.5025004858557176, -0.036058389691418634, 0.5835212409524558, -0.04666863196550004, -1.1196679619188292, 2.0875382015762853, -1.0760140428262528, 1.0561811765623847, -0.0931696002195962, 0.6752741854004695, -0.4655515539910018, -1.2497143088457185, -0.6278499187628839, 0.3426080629112006, -0.08056675782497887, -0.2898019813252279, 0.411357490707983, 2.2118146656694297, 1.7711827133344327, 1.1197555369649894, -0.9353229867787588, 0.9621618810998454, -0.6257507764479087, -0.39120216673246094, -1.0267439676879146, -0.20769883754500912, -0.3557329238246417, 0.6115082797402664, 0.5452380898959222, -0.5408648131468263, 0.4118672994778214, -0.4964982012634521, 0.5363015193282491, -0.6436092012008312, 0.5005913049969426, 0.23342139213687124, -0.3374095238559058, -2.3160140008810317, -0.7445227236845054, -0.009974408101706739, 1.012294334790124, 0.026005619232316833, -0.18276473640410182, -0.860379048129788, -0.5248029225701313, -0.9330242836991578, -0.9626266225740537, -0.5396186790096832, 0.27413465286442523, -1.289633766251478, 0.5606344167441504, 1.8516220486882986, 0.4041678900170278, -1.6875637206372642, 1.7547753265808095, -0.12780122696589585, 0.5608669478251472, 0.9860581681051674, 0.8159000805449503, 0.976040461904998, 0.3393375779325249, 1.215683368448396, -1.4638116196688902, 0.3618916662361207, -1.3137181514249947, -0.3571076478888497, 0.2491121225886584, 0.5765855032963845, 0.9188526482387325, -0.16228859789421599, 1.3346565873989757, -2.350815507288828, -0.2848142310489168, 0.7059546536726353, 0.5599915256350957, -0.02003565494784518, -1.419440622544779, -0.09004924057238163, -1.2468065894791114, -0.7752315382431076, -0.04465907979440122, 0.060919847888497136, 0.04144498510698174, -0.8378969056462829, -0.4229347293272898, -0.5373108199372549, 1.0450627805771184, -1.0088916735162523, -0.31993965156846305, -0.23866175952626684, 1.7074066001609993, -0.8780792105686696, 0.3099296097279776, -0.3702093799058675, -0.30695170482464956, 0.7097903276023465, 1.0514515392314123, -0.636128617659129, -0.31487112470413675, -0.5401170064080177, -1.0269121316068677, -0.43547363175330317, -0.31034763931531884, -0.8617607113768556, -1.0367765134043239, 1.8890848819718526, -0.10834940902731362, -0.6523691912204957, 0.07901565872102144, 1.8511752091820373, -0.9996106197488873, 0.05444759503038769, -0.35726926077452115, -1.03894712402999, -0.3825442673320309, -0.174358526969218, -2.241881814995346, 1.5014861417906205, 0.6896026615124754, -0.034834370847688506, -1.1811370856849812, 0.17725828936854537, 1.2235477190575, 0.10344640787086642, 0.6256297173285007, -2.040310211200458, 1.260344864338147, 1.1976990788763688, 0.5121835471373987, 0.9723594950202379, 1.2641146949424567, -0.5166658754559601, 0.23925071601063047, -1.2338862117604776, -1.9780846306358775, 1.1063521474141351, -0.7369420965865657, 0.3590129167712759, -0.3720600426165226, -0.09006872376866584, -1.482852963096706, 0.04263294808131275, -1.690401910611249, -1.216940088131999, -0.6820622618627448, -1.8800564140695646, -1.092227260116849, 0.712185961038428, -0.7760778246785376, 1.4896576552853238, -1.1689882519087702, -0.6289462264274901, 0.8858040559216528, 0.6556491898260057, -0.663506230240845, 1.4324746090060798, -0.9048744035421152, 0.410343077240942, 0.29091387915924766, -0.42328891927395784, -0.17446562843975935, -1.106662365075754, 1.5218008708524662, -0.08899074597958329, -0.8780312544998157, 0.3656754588848089, -1.7388688814940878, 0.29904528950832615, 0.268856567489592, 1.129305304816297, 0.6913658778504931, 1.4556672209525485, -2.200193380223019, -0.8969495214807275, 0.6169855428355429, -0.9409989889390198, 0.3442684631980849, -0.7182625304581884, 0.32846731000779705, 0.9360719233748757, 0.3891116503934668, 0.7568992367946064, -0.06685450496823317, 0.05621963502893454, -0.9206191485255257, 0.09461902645285984, -1.7331890659497984, -0.428007776192218, 0.4952534571768928, -0.9140763741696254, -0.8182552395180063, -1.5244457823398896, 1.0410480566467246, -0.3272848878638522, -0.9047813353879041, 0.6835680195291296, -0.3488133453128841, -0.33111636567686087, -0.18474461607641054, -1.0377708229144589, 1.017445480934439, -0.7012471864130537, 1.4230629478972234, 2.6480591320460625, -0.8009336340511953, -0.1198986437170939, 0.30623977871561553, 1.0256319166580414, -0.18056448099061656, 1.4743802071140457, 0.916637730104651, -0.7242605836856888, -0.10388297688303298, -1.3976268849647353, -0.9759171518624716, 0.8957454432530623, -0.2714930800201033, -1.2044647702078413, -0.29098713467749454, 1.6634943410978087, 0.1549958929390486, 0.015112749633614652, -0.6534568557131135, -0.7235205868997948, -0.2982593085838215, 1.2247847797702593, 0.5191430317740795, -0.22215947091614724, -0.30403485814522047, 0.9994819304122812, 1.0624609650568584, -1.1798095629819862, -0.016714278811925554, -0.11564473613772477, -0.9704694429772294, 0.12148442195114487, -0.3159709773280604, -0.7025157616039143, 0.5926298400767624, -1.2153059120614118, -0.15617262726302608, -0.05624636806803266, -0.7098311747154151, -0.7286089882912065, 1.4434350951786177, 0.5595993063793989, -0.4402819767342032, 1.3845404601235212, -0.12668927991881518, -0.5301057399163301, -1.0521798270577616, 0.2803942574499796, -0.6207728876641493, -1.1337247523547154, 1.5543585053868842, 0.4327138528202886, 0.7344910406697418, -0.9802789131332174, 1.1571865301103277, -0.6814849197267516, 1.1614708324321028, 1.1332780126285562, 0.8786713122670686, -1.5881743954587315, 1.9942476553892772, -0.30385868928679444, 2.1212024993227954, 0.30960036167624705, 0.34573997405813744, 0.4758892625277888, 0.038825448899891576, -1.936062149406843, -0.46715555867902064, 0.14291204215028097, -0.3288568114058253, 0.480346822807882, -1.6320410639662015, 0.7757235438475276, -0.5778689672818556, 0.1987015531192086, -1.170838363842522, 1.0073046046002834, 1.122034167063186, -1.2329958975534079, -1.4548913358400082, -0.11072144630514753, -0.2623678431159945, -1.4212259581940194, -0.29731761994703076, 0.8585490194045616, 0.008978670824569933, 0.3418695918565898, 1.2151125146271393, 0.09778007909189432, -0.7927658446130352, -0.28442351055286325, 1.310829254968956, -0.046124025350009215, -2.2242924139188367, 1.0142798270340503, -0.22285786273079333, 0.4001864449280653, -0.35288223999464513, -0.2054054499028533, 0.1754478320485058, 0.40886277105535607, -0.48195756007004265, 0.08772699333691786, 0.44942498690468213, -0.8093582798987101, 1.3339815276760274, -1.5975351249657126, -0.07844474460743885, -0.7098114089284645, 1.2359909995460887, -1.2052642320648002, -0.3624379016162557, 0.27759717585920723, -0.09280288195076901, 0.5052433092116889, -1.4221332420859238, 0.6253138476599645, -0.011612809031695235, -0.06806509168432606, -0.869478527239501, 0.3311998685087405, -1.9650479805701326, -0.43757710596361665, -0.6204658392976005, 0.1521136508204089, 1.554391137448513, -0.5701441115236991, 0.5918350680699519, -0.7562800588715297, 0.46730758480408646, -1.0255598627503437, -0.3208553091404129, 1.2392158550711854, 0.176975532747449, 0.30174730929201327, 0.18199854990062325, -0.550519738721537, -0.3603012251594054, 2.181694999020621, -0.2648456454959263, 0.32172755530805197, 0.006680901299689284, -0.013871272964878249, -0.15551624254031665, -2.0084025883464816, 0.42131946120742975, 1.36383632758761, 0.7965038223569886, 0.32177875281409424, -0.07639535426284362, 0.08455114738020687, -0.038961572715985306, 1.0067332439249426, -0.669573267336293, 0.20754694051212252, 0.4727902578735442, -2.2280138553022195, 0.4999906855889952, 0.4671919226644751, -0.4283828326035418, -0.8831838445267342, 0.27452487465843406, 0.6430530120919777, 0.6826581294631513, -1.4868124235380342, 0.672283109576847, -0.17700293407546114, 1.0162892015145621, -1.0499657585114142, 0.36570423923228346, 0.549591854965011, 1.4895642939750786, 0.041468319689433555, -1.7244779896751032, 1.6033344670102945, 0.31917851439008615, -1.570843758292669, 0.3270682615867871, -1.0958467152291977, 2.112237685802601, -0.6585687625819442, -0.86540104899888, -0.7650113023595557, 1.3328502758977934, -0.7690963593337724, -0.10910299239131357, -0.8981755073374387, 1.3681550436301577, -1.371406805408498, 0.36108663801312024, -0.13909353326963989, -0.5681366259486763, 1.6614744338986789, 0.33012782648758066, 0.09402124338736281, -0.8400260601448662, -0.8049588296003977, 1.4814665425253954, -0.8698528543575702, 0.773269904635581, -1.4316251133258273, 1.049609176570555, -0.8116127830380977, 0.6229201019669357, -1.5687495656786574, -0.18880964756100907, 0.9838480007689541, -0.9001855005158919, -0.28064777887980524, -0.8838346061802641, -0.877136225805189, 0.19039711754177113, -0.30005445652573287, 0.14776864536215048, -1.0123745964698565, -1.157981492868996, -0.9902396977488146, -0.9190087932753449, -0.7874176778080058, 0.3144003851388977, 0.5253854244449744, 0.44259559366561846, 0.8375340499646903, 0.3029803790994394, 0.3144667659301944, -1.1417848138373135, -0.991028064913511, -1.958333486360996, 0.1137747708734585, -0.785025889340684, 0.04322826821247851, 1.0010037642750091, 1.251071422745376, -0.9670039789632344, 0.43443986501278953, 0.08278294620609643, 0.6190235631355802, 0.2791208429654948, 1.3814615850352945, 0.5299983980709969, -0.9436558910314765, 0.44466459007373904, -0.8029014800083449, 0.31714900685360375, -2.3594510915922324, -0.7766488461169682, -0.5461048452333644, 0.09895946139760309, 0.6484248387853836, 0.10472837672613629, -0.3291478435360536, -0.2692874746704465, 0.742488922221966, 0.8113137991579766, -0.12309684413473714, -1.368413292778448, -0.9598864770203561, -1.5373611919603993, 2.032091931049285, 0.26346723295805236, 0.9740805800057539, 0.19918205757461255, -0.32780511747332747, 0.2024545059942538, 0.20745721868325073, 1.2941243524308925, -1.5548883498804336, 0.5904880129036968, -1.7024249162812284, 1.460027844747777, 0.5291285615275688, 1.11692974542262, -0.14789883306760115, 0.82207886387382, -0.2905648472123612, 0.35246134523854294, 0.004864507067796849, 1.8421298568024933, -0.4958753539777613, 1.1223906054164459, 1.2080852398158441, -1.6687446374113717, 0.7495724586821401, 1.0502575630158626, 0.2863749479992883, 1.9400016589951576, 0.13672101208498533, 0.5489880012138165, 0.18689194063619535, -0.03631412157404474, -0.6909834173615728, -0.9780780126315349, -1.0444863206979365, 0.3815752809936159, 0.7947873950072533, 1.8597902897285659, 1.2682841363402406, -0.05107118139830481, 0.08862388844411698, 0.8303586188232112, 0.2250283115834593, -1.3147860208771784, 0.8645557350752191, -0.7252965724001235, 0.7113394474480599, -0.31201305123170003, 0.18986661329331886, 0.4496987171217428, 0.09072421687987998, 0.35172638427730074, -0.8510741015706039, -0.8839619497122132, -1.5723362215541865, 0.3871629620927561, -0.8762322406047411, 1.0479049198701975, -0.48777150972875083, 1.7409212087651005, -1.6973001443649098, 1.6030959892704884, -0.11062399411102154, -0.7319899814736976, 0.5344531477406883, -0.33321339481526663, 0.08213989293800911, -1.369850676086612, -1.0225594214842337, 0.9025319367907378, -0.3750405747052208, -0.43075188563438066, -1.0722188279391192, 0.6259171418415408, 0.7367472290650898, 0.24461625772508683, -0.48213149262857824, 0.7552140485560257, -1.0845878242448639, -1.0320267593480104, -1.2766527812266646, 2.410699154517163, -0.07298409697912871, -0.13709751054789865, -2.0650391725165833, 0.6860968573088883, -0.3791348885753658, -0.17941854672373106, -0.7287177616186892, 0.19169929104404318, -0.23471367642590352, 0.9055206283253614, 0.6247802801592974, -0.1329022467156294, 0.0926197590361135, 0.7406697164148179, 0.11191049879068925, -1.0694143323225382, 1.8165296103592474, -0.3804235594521357, -0.6676093914056609, -0.09692760450961106, -0.14297290895096698, 0.6857272643719949, -1.2784444171677678, -0.13303812126235023, 0.15114206738708094, 0.5928628513673831, 1.9295596344123636, 0.7469380957089218, 0.11114175521665243, 0.10458087755013286, 0.07148078321331994, -0.13656380103431262, -0.9318606814637079, 1.030394204541981, -1.5683159516651317, -1.137709242262354, -0.4382036720776589, -2.119113294965101, 0.91884379015449, 1.3067056733774207, -0.8172188091275018, -0.42803923162484697, 1.019299331590273, 0.68922285527941, 0.07534174286626717, -1.6688440920434255, -0.6287886575644843, 0.353220068265819, -0.31754756326980366, 0.05403259644484425, -0.27471792215288043, -1.4813713984451857, -0.01224175185115351, -1.5790115833053764, -1.6433497966861093, 0.8169259197503221, 0.1995286061065575, -0.5373616160294232, 0.3703196475136998, 3.020934943864928, 0.24291672262145592, -0.05236680421527082, -0.3657722039023177, 0.946520275124549, 2.496041152215983, 0.6713339193116697, -0.6196972042109075, 1.0243055507131913, -1.4928914526405932, -0.708713938642998, -0.852323969508273, 0.2767786649676008, -0.1458320846339103, -0.8708619157309655, 0.2660936336337508, -0.9314751026251922, -0.9707337756649849, -0.47973394678539266, 0.2812848251993288, -1.3903665834920231, 0.6366136410014921, 1.7072118016667235, -0.5360785734170282, -0.6771299893964973, 1.0702527238920243, 1.7545718285491831, 0.302228972624714, -0.6338065498799744, 0.05602131901546457, -0.9320434712875248, -0.3786682910481102, -0.42827974165423033, -0.672524556006164, -0.5495003875018646, -1.0638695074661444, -0.8973853350749464, 0.13353615611404002, -0.16554232896914534, -0.2439206331470661, -0.5417035341719852, -0.4337912002896451, -0.7833530703093998, 1.4222429875975127, -1.2944438779745286, 0.40492272043407795, 0.12080692955572753, -0.27215470018566473, 1.7571164328008053, -0.17997264394722273, 0.41604804171546894, -0.5576344762289402, 1.1926927695294083, -0.4533888451531699, 0.290351343319146, -1.7344015825916304, 0.7402283209317579, 2.919006054550757, -0.30538342345181574, -0.3951984432509941, 0.08917707550986055, 0.05466293686196649, -0.6853094786560342, -1.068701025118031, -1.263014459490056, -0.30616339382749774, 0.03379992944772299, -1.5988512091659086, 0.36423616586452096, 0.10650593915457211, 0.5094920083035716, -0.24750097484184827, 0.47974990583835286, 0.2572062000932927, -0.03357280129860295, -0.8891245467238215, 0.3587462129271552, 1.2142619407157293, -0.9025159190929793, 0.06757138524352016, 0.49364896963356747, 0.37011426871091135, -0.6354160140466, -1.945842525306205, -1.8004124703339237, -0.6246149713520164, 0.7743401432068466, -1.238218286682611, -0.43275539288472714, 0.23805882111905077, 1.1844998934919555, 0.13216397167047333, 1.515941180993027, -0.7282089277143301, 0.5456561189150704, -0.5245936690431334, -1.6905760461090813, -0.9041875968621319, 0.3269401663043672, -0.36845269221530647, -0.4912037277785176, -2.882468768646544, 0.07939967912978702, -1.0079476570295078, 0.16259181795640298], [0.47941243429643143, -0.3001193250366591, 0.37859660956751817, 1.3228213898189805, -1.6576330470106848, 0.17167017474623245, 0.9860298592230659, -0.5786021556519487, 0.521665738100355, 0.06398097031791924, 0.648782851946772, -0.5816896889128673, -1.7950907730845183, 1.2689072300026387, -0.391132800739287, 0.7134436559146901, 0.20195904440649842, -1.1185266864897248, 0.9379829438111145, -0.15883711605360545, 0.521555454334916, -2.3207936630583785, 0.5133836882290763, -1.3536879970726978, -0.6270040124522589, -1.6661670447290684, 0.03369300765658938, -1.9413435940967227, -1.1592003797169728, 0.943587974344549, -0.725559365278475, 0.5353876157001953, 1.7416883762883089, -0.02747292286560345, 1.2106243394868492, 2.5797523811815593, 0.42293054121404355, 0.6053280309884028, -0.016236081997475234, -1.0894591123116628, 0.3492927780485006, -1.0402128573062785, -1.1408204582944748, -0.5191096987879134, -0.24025010120974147, 0.3624017332696445, 1.4012211307112374, 0.2701208223931219, 0.38121967422610803, 1.2064437321730819, 0.1918852242437664, 1.5319704937399525, 2.6003590385608, 1.2992135864089351, -0.235850145099688, 0.22511221110454557, -0.3742994542925489, 1.2763254184462778, 0.5937487739036333, 1.292930830084627, -0.46842890326218334, 0.91682435952033, 0.9613841428726356, 0.9578147598967258, -1.6962177839268613, 0.3775432885654504, 0.4252073020958049, -0.37364691614986184, 0.3839054059120788, -0.2006795545149984, 0.5087035527215941, -0.3053575305517518, 0.8350444733470876, -1.0241718695362048, 1.266088529144044, -0.47628930776362605, 1.660761306465016, -0.24356414209594646, -0.8716768473228661, -0.033422464234008624, -2.491992362149733, 0.9243892217253163, -1.8811565784649145, -0.3115173142314235, 0.2174885702060855, -1.0808304549958943, 0.1710222607011846, 1.3419483608138707, 0.20403435194241717, 2.740963394043493, 0.18094431315384624, -1.0500269174500403, -2.458226334852318, -1.5040452575271719, -1.09644226482644, -0.996404935292038, 0.5409790020144974, -0.8761267813363173, -3.3449713492090285, -1.7877558856464388, -0.299896624187021, -1.0210636975410896, 0.1136936081455924, 0.8770537907811734, 0.20120387894912764, 0.8652369363192023, 0.5139264403542082, -0.02826204245316881, 2.4671016212454195, 1.0749409782875456, 0.2859572518657404, -0.1834866283505142, -0.9083647671153873, -0.1961054790706659, 0.12478304642542994, 1.58160982573229, -0.04464489500746975, -1.7494960303373643, 1.529797749432304, -0.6990861579549936, -0.7564571856782686, 0.4338649246336192, -0.818901763572956, -0.30514319169178694, 1.2736001761851363, -0.4459325952512676, -1.9101810666411227, 0.43604081931593164, -1.3367715079354763, -1.3796481678253858, -0.2792975542959189, -1.5512472307813903, 0.4420208660117117, -1.4353067965178394, 0.469876897622773, 1.6002580882711437, 0.4756395038044881, 0.22432193252291102, -0.009282048413319003, 1.8966518311317948, 0.6218843930038591, -0.205481767748728, 1.1402899492470329, -1.7977425871255202, 0.7262015026775229, -0.6864086700507892, 0.21738165997665657, 0.30001612413318307, -0.3561775030695661, -1.8790822806331242, -0.45395929650932776, -1.5393615731588381, 0.336837357152612, -0.002244351075929134, 1.511470925266394, -0.761205189295674, -0.17978849446008896, -1.1300312034427655, 2.1186595995797917, 0.712780309998988, 0.6711566140501347, -0.3057268846887315, -0.37358192567370896, 0.30375790567574523, -0.7841587433131187, -0.3906884398643013, 0.20605504258429336, 0.08961415741474138, -0.7243496599384392, -0.746703990415231, 1.2197641099676622, -1.3152116579558382, 0.5317342048080161, 0.19587475391283535, -1.1264505249638392, 1.5630290712963821, 1.2320008511856573, 0.31306080003554326, 0.13129495237486422, -0.5190204109194348, -1.5108918420203334, -1.48629762766721, -1.4078334410058633, 0.567047616376732, -1.4261774982338244, 0.5363136425151837, 2.1699256448434343, -0.6094301310824419, 0.4238717731097106, -0.2054624174447808, -0.44155746312173616, 1.2175596643894895, -0.008208428487936048, 1.222483136624516, -0.6462596770983773, -0.12183490274274694, -1.27117976732459, -0.5190959164693623, -1.1530343013145377, -1.9671165970359337, -0.45927117141741075, -1.149263280536779, 0.9665392936771918, -1.2079947607121548, 0.15082057189423445, 0.020115780237723344, -1.497902363073342, 1.507654478087461, -0.5036283211478579, -0.45298027737102986, -0.3217638185591906, 0.41433483591756226, 0.8960686336894568, -0.34175207382277184, -1.3552603279761544, 1.0057293256291846, 1.6114353197918139, 0.368311538967276, 0.8275329007936756, 0.5785239998433084, 1.3196126600055245, 0.14798176234483246, 0.2838921454947761, 0.9734029849391753, 0.2932429026087931, -1.9095365989536377, -0.2943114027897947, -0.9265315425462654, 2.2989680976853655, 1.7652358792382963, -0.2725365147896361, -0.04068809158509641, 0.06997845925986805, 0.20812794093531392, 1.0627135424104146, -0.30769156274498727, 0.7678957541610412, -0.12432580949513503, 0.4477270173471834, 0.69253876884579, -1.2652510983062477, -1.4078462543395132, -0.822610782993283, -0.24984304836829846, 1.14634928862699, -0.8996210243013987, 2.047042169862184, 1.6606271945775677, 0.10203382474528565, -0.25955426177160684, 1.3342933275476734, -2.433238708467895, 1.422280446273712, -0.42414028256097835, -0.8925871080292014, 1.2871038250024205, 0.4884040630142399, -0.7083635446204201, 0.6840684825597065, 2.7042183105672066, -1.8144064724546558, 0.26824157622774797, 1.4274357631173016, -1.0932144916138025, 0.7732276092239049, -0.09881752302084722, 1.0029967101638764, 1.3507483104306897, -0.017876220252912262, -1.6178214373382462, 1.9826457986090733, -0.80428112994287, 0.5503852532254566, -0.4171147688703228, -1.8685640467608358, -1.327473850591358, -1.116494277685111, -1.4527074528702744, 0.02653400721935904, 0.22991533133923892, 1.2373171797449567, 0.7705436067000968, -1.1215491008321035, -1.1766585145562014, -2.404360560483232, 0.3077590488735474, -0.363428902809088, 0.24375407449478526, -0.4050925989030489, 0.4244495642988929, -0.9764158861566037, -0.5184784161075187, -0.5064747974741607, 1.224554260650641, -0.7172013409565123, -0.9049380956610321, -1.1411768589626636, 0.13797340562434582, -1.0575151462679104, 0.33349098484533884, -2.1822345880501706, -0.34743032237290494, -1.2464348145477453, -0.34222575177302456, 0.1600644161337102, 2.0085083774992714, 0.24421817729278086, -0.24093923771327716, -0.6747712949118025, 0.5249680597460096, 1.157550840189928, 0.3880874731908016, -1.3609046652820513, -0.7218613969197516, -0.7864779767175236, 1.0641525190184233, -0.031418416215021276, -2.501589335573915, 0.15380737144440743, -0.16138654586178075, -0.24910534578412444, 1.6438847166583295, -1.9268664579326003, -1.3671071335198948, 0.8642211611101943, 0.6499047049162262, -1.70097416002817, 0.398690156921706, 0.48693848138953, -0.5393942516481608, -1.7204587648454193, -0.35251187653361654, 0.3805252621978189, -0.4780547978380927, -1.1535187086983993, 0.2768152996085945, -0.9931453274452755, -0.16225906302901832, 0.2395436925041258, -1.652817607260394, -0.6741691475320452, -1.4925005490551426, -0.29984723732532836, 0.8654632923952547, 0.2677249460391606, 0.4790600507899618, 2.8307232108871947, 0.26927089593356335, -2.0816618504570457, -0.2643270776324308, -0.9742667862404027, -0.13001341922838341, 0.43972035493626155, 1.2053451629185468, 0.3372205074572345, -0.3928500238306018, -0.5278379510121592, -1.424123211787289, -0.6167230923605198, -0.2578193220713996, 1.230199264124051, -1.1030592634995005, 0.6637773535643807, -1.3970115015607498, -0.0027454732771099734, 0.19603046405492808, 0.5678796892661164, -0.08512186624045123, 0.8327778307666259, 2.331578688875899, 0.1260461593635112, 0.692183191938319, 0.22257580248017858, -0.4988351728016329, 0.4214120752187842, -0.8632710548220874, 0.333690480746504, -0.3038526669688436, 0.26231908845476987, -0.9556142130806106, 0.5323100628485774, -0.4429717891297198, 0.6644324798037503, -0.7991388270586046, 0.8524702801751419, -0.04972533713720914, -1.3897850696166485, 0.546179722399112, -0.7882698416478174, 0.2622760860389102, -0.5822887343020434, -0.22720757146885384, 0.3340524871702455, 0.4466749105305254, -0.4627266455769564, -1.5228740255550914, 0.2024265082245386, 0.049283782822907116, -0.13060905390620192, 0.6939185507887401, 1.6483554654744839, 1.4468695011073898, 0.5417372190304547, 0.6221469060321831, -0.5683428185224616, -0.526210326608782, -0.9502254092328288, -1.438947757587779, -0.34658310161345846, 0.1683141227575186, 1.3719595620443155, -0.32968837063950046, -0.20147038805590106, -0.3818552510924468, -1.9122276453000446, -1.101271299078424, 1.8574076518712637, -0.4890284645939242, -0.21067958653564406, -1.0890340898990147, 0.469062870060783, 0.21314706933619273, 0.35770837846404147, 0.22181840532182726, -0.49310415568654764, 1.2453623146569557, -0.8821892650397769, 1.0733262027364392, -0.6830917536407692, 1.880620781405173, -0.4943217554846573, -1.4908799337071768, -0.2427596038951717, -0.9635697873577178, 0.29087654826146736, -1.1754006970209867, -0.4871626031645366, 0.057466947640883184, 1.259858847375083, 0.10091671489568509, 0.7379562742896472, 0.9920216852246725, 0.4432309703910068, 1.2380291303943867, -0.008331513658948726, -0.18248227873486375, 0.8072624631906685, -0.44181431100469476, -3.0181305153319387, -0.9896123778583147, 1.7588782430347636, -1.1706858327157783, -0.12390492760614691, -1.9340998667839049, -1.1547891155812875, -0.23241590591761507, 1.1292425795507117, -0.5982688282703263, 0.17240730910542942, -0.4472742454575995, -0.2675486560727092, -1.6663755388237456, 0.18762650259263358, 0.516326335261465, 2.8744091408330292, 3.2260481070528026, -0.39982920174727116, 1.075068056299374, -0.290900242079354, 0.22323344331454764, 2.2337940086635206, -1.7351276950292245, 0.2364309851564718, 0.6563283840128425, -1.247669357174896, 1.804320594157917, 0.6125540104260548, -0.4383134376505597, 1.36312032735241, -0.25680087739347573, -1.3118544999845938, 0.02027634544968246, 0.5388055330722737, 0.7336648071876957, 1.0981784177082472, 1.5048215062309334, 0.2155437070073079, 0.3388060323472844, -0.2353248528753782, -1.8454930567129544, -0.3599346259997657, 1.0278257301223181, 1.655977011179947, -0.23058712410478896, -1.2812495199587293, -1.098004752189997, 0.1090660448391092, -1.087300281892239, 0.9414695002785242, 0.18444327896597276, 2.0379310923116245, -0.29325421715322847, -0.29436912549018557, -0.8754064975339155, 0.6996938869705619, 1.3893978859449747, 0.3386902304529031, 0.6945357213793039, 0.4195403731145927, -0.36554181531024826, -0.7148451480103635, 1.246924490086287, -0.2744508721890951, 0.7008566118161201, -1.2330017858604796, -1.8359462292329685, 0.40237548795310407, -1.2559284433202764, 0.6244133955619344, 1.1193698088607766, 0.9978704468277636, -0.9884506375391312, -1.0360045454978801, 0.12586103718119246, -0.28839088961929693, 0.5842554646383424, -0.16139734216870516, 0.1901513008862694, -0.08678290754971925, -0.24716752251246146, -1.185914452335776, -0.5942007725787548, -1.1627863550304642, 0.16131743540066537, 0.3953478476035417, -0.7663661808228522, -0.34716808919544784, -0.4128658857218834, 1.0951845285580697, 0.08570974590274778, -0.7582064179953966, -0.3308358407522901, -0.02616062265812428, 0.8622039906147357, -0.6261208479454773, -0.7849523031900669, 1.3157802049467853, -0.5143024525879288, 0.6969630846128632, -1.3131753971703608, 0.14303364385337988, -0.954502292124719, 0.568163646111663, 0.9121756321555526, -1.0626199235102116, -0.5433161693807145, 1.1501382212012086, -1.6397856839702452, -1.1852397368464087, 0.25592569443118396, 1.5760399439580435, 0.042637627887948795, 0.37599832925012716, 0.9913865529628201, 0.6203578558896266, -1.6487405538339017, 0.5685695392220448, 0.0643732841379243, 1.5622093660593193, 0.4126697811695259, -0.9617639669382038, -1.0359509347921774, -1.3972180567548542, -1.5242189395289067, 1.2126313958293213, -0.6914301596011503, -0.734036373269901, 1.056128705121282, 1.1752482536466387, -0.7870803288705772, 1.3234496205001747, 0.5916478750197361, 0.8155681076600454, 0.8468490427955916, 0.8701155750693554, 1.1387398804111717, -1.4894238605385712, 1.0346493203830718, 0.3320531763142387, 0.6164160191181385, -0.47776688096441605, 0.16798025127383787, 1.718731818413001, -0.636443968765656, -1.274163987529816, -0.8158540284877089, -0.1998403383753969, 1.137433481011135, -1.2379526799044114, 1.1784350271592836, 0.6463429989199952, -1.1671024370021212, 0.34002921785277745, -0.1507304071122587, 0.9172156723668488, -0.37459061308571084, -0.5773299588455352, -1.7281085545078956, 0.3733726895181465, 0.10036056531489482, -0.9843715688581804, -0.44262389213235764, -0.7932538766426644, -0.43190852553664755, -1.2248297522455414, 0.14149270405130543, -0.5348888315819511, -0.6502530462296244, -0.5855524718455649, -0.08086084200472769, 0.877182684282878, -0.6317261651511816, -2.1190918567110306, -0.013458828583431146, 1.5953958589789503, -1.0397439776220185, -0.05987479053870836, -0.12024958357132157, -0.1398183633137826, 0.32513356312880465, -1.0748405256453264, -0.8226723944814008, 0.32880350652227464, 0.659653461389626, 0.4784597625530779, -0.669370945693595, -1.1329501300554579, -0.11851641108891238, -0.08627628379308995, -0.9449501168528902, 0.16515776105791005, -1.2727418153176397, -0.7553128389903091, -2.215163011732527, -1.0405414213765285, -0.5820286611818387, 0.007125920733531483, -0.1698392869670354, 0.1107341822672371, 1.3064875747717821, -0.8566548237835059, -2.6997599177766314, 0.179526260439435, -0.34711679627464864, -0.5221581365948158, -0.36847834789355177, -0.7479714525528613, 1.3506165788982951, -1.8089903103439202, -0.11027078624290206, -0.11535018412750254, -0.4228302766126678, 0.9739475993045345, -2.6708735196741618, 1.7889925392563568, -1.0036408055179986, -0.5055595101564498, -0.5246152500049519, -0.6153607537400092, 1.1446980531973934, 0.22895285997590767, 1.8477756020173477, 0.2594683961659018, 0.4608256632578079, 0.8159660107264421, 1.609044548233886, -0.7872205438540537, -1.569252681387046, -1.2828656698962937, -0.5227327740014551, 1.5259409213764836, 0.7854145824406439, -0.40419148165492846, 0.3631519760088056, -0.3587383900514689, 1.1207953857949182, -1.5007577676627075, 0.3199329361273665, -1.1888316541192634, 0.5941340183233135, -0.6782296858200824, -1.8202331851655622, -0.41008296207163275, 0.29187568710387035, 0.5942921385646697, -1.4256086562222559, 1.1875084216170526, 0.32473536501135003, 0.11677920148097218, 0.17678672774800402, 0.710976592854444, 0.6076652396047774, -0.5917839308386322, 0.028048902701709583, -2.0102404665616036, -1.1895072152280801, -0.9925081141061148, 0.7765851115327097, -1.2642366335397524, 1.2297442081585002, 0.6865622852566113, -0.04486557369662188, 2.101629874111433, -0.004987376397482255, -0.3182660721271127, -0.7472376032455563, 0.5818718520459827, 0.4466724984108326, 0.22802959927622327, 0.033564549538893124, -0.2471011619963459, -0.9289118666276692, -1.3850598172457436, 0.12236288768021371, -0.04207798092037443, 1.3951007564901303, 0.552692018088699, 0.053882280163148506, -1.3613276436873145, 0.6184503384295543, 0.2910158948907504, 0.34285126086700674, 1.077090939629424, 1.3249540069151542, -1.1256506694798496, -0.2952750123631282, -1.0204611276017224, -0.03357936052696625, -0.9973140944289153, -0.06774897098793171, 0.0891441265650761, 0.0365449248269847, 0.21201191480184367, 0.4031857044784471, -0.3345031962677227, -2.163621509569455, 1.689091535015155, 1.0724773116383293, 0.2073390514076406, -1.3325028317534713, -0.3203037341822495, -1.4268483607179212, 0.8390196734927442, 0.8188620207680652, 1.4573233695426653, -0.14622373261069854, 1.5424943825266562, 0.1081034097762761, 1.6854358982117528, 0.11945269080029668, 1.1903675144738861, 0.22904180064410354, -0.8180460698704878, -0.7041491489107372, -0.27128657667381656, 0.02615477354024578, 2.4062749422097625, 0.3028559208399903, -0.8559891771905901, -1.40054145264646, -1.0726778341260903, 0.7248802549732413, -0.35684121296608273, 0.6162831456899428, -1.8247163893694267, 0.7337745859551879, -0.37370688991243306, 0.4035648520784441, 0.526463229772815, 0.35338715179138414, -0.42532579924682534, 1.0439499780598984, -1.2349849000975601, 0.042644244704606885, -1.0037421601144403, 0.9888551667676643, 0.15207659053067463, -0.4571724120569121, 1.2854624618539299, 0.06974236293672685, -0.5906612111704704, -0.4474708725777139, -0.1651352213656809, -0.979703829311176, 0.18592905572530585, -0.30621973976458355, -1.2690209943620714, 0.31583474353395213, -0.026108655547294475, -1.6248322185049862, 1.5599912694207219, 1.2778246740670027, -1.3324174520762404, -1.0102900937192825, 0.35120960912383226, 2.117264551190854, 0.36912142520551966, 1.3263427770091973, -1.2719725835217293, 1.0243158739718026, -0.9443347096793103, 0.6020654057330181, -0.3403184927711957, 0.2029940541718556, -1.384845165096391, -0.21688797011819597, 2.1040328615583253, -1.3182958440468509, 0.6945394943901405, -0.48903501192726173, -0.8671401500518379, -0.7306491332098969, -0.1606403750837563, 0.032089897464204556, -1.0535561214543891, -0.21251733113989724, -0.3446797670927277, -0.8149620434554661, 1.0990542600296533, 0.45227154195918523, -2.0874851590046704, 2.3415797242992347, -0.06504907132279514, -0.22653780224156667, 1.144752638296602, -0.4498572928763601, -0.6635114255818452, -0.24498247836366638, -0.9122676435646772, -0.855372218791483, -0.4868129510818735, 0.6962552883680233, -0.407856593448195, -0.6281106795637402, -0.6262190602400389, 0.5571159749701773, 0.48906235097901657, -1.2321511851521285, 1.14132864366069, -0.7559661391281975, 0.39895148979972384, 1.5315554336057597, 1.2785860003750413, -0.9105763315458559, 0.9278943681788147, -0.8787754769990266, 2.1945156011481295, 0.5036104155565678, -1.2571118516862878, 0.32529771766391957, 2.0691236784133507, 0.5104361496248065, 0.02789878992276472, -1.7819864333775708, -0.27863016607679636, -0.5359562958363099, -0.5634666795675416, 0.6483538187895375, 0.23037998759429013, 1.249987237756132, 0.4434555072055011, -0.4474070901877009, -0.46197999131820655, 0.13429823716884684, -0.7897603726099445, 0.7825626947096321, 0.7588490697225546, -0.28447459765443445, -2.298377362686895, 1.7281075037241893, 0.34180585876244274, 0.4485152560871735, -0.2357120705868338, 0.9511503385371353, 0.8876411875372796, -0.5425872766703311, 0.300259800062761, -0.09871425953277717, 0.07275387550125338, -0.510695402066816, -1.4436191011635537, -1.5328193227210352, -0.9400307525337082, -0.38155766029522487, 0.9475166251103305, 0.4440172352435692, -1.2402285514318754, 0.09973988044524722, 1.1388406040023338, -0.39494002067495904, -0.27549255577612386, 1.0308832583446954, -1.8853072137888542, 0.4953333542215967, 1.4239095989459734, -0.1757226373905369, -1.1586303015708121, 0.4503747327824977, -0.9743205971494455, 0.4690614862658282, -0.6782479972514601, 0.3833842119169585, 2.650609126356005, 2.287534645473157, -0.7753785650541625, 0.3828974284373328, 0.5159284493398976, 0.8409649595540988, 0.48706030384369764, -1.7275529156478815, -0.11383841332808095, -1.3099681406827308, -1.5712947805155288, 0.426024115188539, -0.784603703845885, -1.9171020611331455, 0.22318038171466306, -1.9280918946660957, -1.5528068974787763, -0.7394096512294244, 0.7509825166622592, -0.6292760030550489, 0.6670285568791431, 0.15776803141459278, 0.18240414710505662, -0.24124393854106752, 0.3184306371863096, -0.9693047701860972, -0.5170780763986659, 0.44401936798571917, 0.7997992736753147, 0.6782102534947727, -1.7216021227228775, 1.0999347607954313, 1.04227212318867, 0.8437746295977597, -0.6193062518421277, -0.1359728652647542, -0.40064029934854045, 0.8263036137661693, 0.5176929802804923, 0.6695337991908751, -0.6902165945105933, -1.84982188119995, 0.17086464830306047, 0.7644028307865092, 0.6038626395519512, -0.5980013309253308, -0.13763517287869736, 0.5069444353640956, 2.369741721669737, 0.0784349527653273, 1.2893922677790692, -1.5011926572956382, -1.8055201506715413, -0.46408042855799375, -0.49491407762387385, 0.005617462775102901, 0.2682003336165678, 0.12864877215675538, 0.07458889647795669, 0.45958151966165306, -1.2982462972954776, -0.4653716361923835, -0.4639441531135772, -0.6133576422163874, -2.7584057703036606, -0.163551826550217, 0.426965971872295, 0.18873618694871036, -0.929215387419145, -0.8562737944682157, -2.5516413599357404, -0.6346481123982182, 0.2549557999430796, 0.3326566264309979, -0.4025676511953298, 0.15243977044062157, -0.4424705422708162, -1.013146865756496, 1.3053053622150015, -0.34837362132798905, -1.1171990655493567, -0.5760863424730348, -1.4052881000691542, -0.4234315814040478, -0.1270930845639547, 1.7228832907684637, -0.3262230961447612, 0.6104890094309486, 0.2546519606974752, 1.035098270294547, 1.4989494835246842, 0.28050476397313606, 1.351802473610837, 2.266990279737056, 0.36725940921917605, 0.7881761338349669, 0.9793359949878386, 0.4422359320861506, -0.7386359229986356, 0.6741675587423315, -0.6372712859900802, 1.021408395775206, -1.111717020030767, -0.6443395361493415, -1.3113109717190283, -1.0523992392022021, 0.43272709537674836, 1.4695480568075237, 1.0216684204868298, -0.9070555957163222, 0.36996800829758836, -0.026934077264910414, 0.6034266331969266, 1.2015907943260244, -1.1549406626761358, 0.7499614428341224, -1.2554663231364498, 0.9718260838350681, 2.3642877929476045, -1.4416203308101414, -0.48123234389970565, 0.8839189811620798, -1.4246929585923451, -2.8160707411524446, 1.9780545496164272, 2.077997189700183, 1.6223836821164543, 0.8980381467914214, 1.08686865905243, 0.3088130901265518, -0.7111772143577415, -0.5512911488712826, -1.1001065234821923, -0.8629877558807821, 0.04782831356419661, 0.2152560837756899, 0.0124106857694311, -1.4345909510439936, -0.5718744086473376, 0.9463695001223692, -0.8474261373831776, -0.2798700647192952, 1.480659926598761, 0.45365345346411706, 0.5326018421064675, 0.6112208644887958, 0.2918224382275154, 0.023846659297431325, -0.8701626161610431, 0.2855643510509841, -0.4879595553280623, -2.6208101700319775, 2.1814256102116594, -0.09051971984162105, -0.495158831175553, 0.8521528478409369, 1.3664795144039545, 0.134667117573339, -1.8343761878785074, 0.22804157991764698, 0.5092743247233793, 0.5910223523184486, -1.0344386409750295, -0.08898425499409975, -0.35930230274046593, -0.04570726553585934, 1.3037573641868743, 0.78338763404461, 0.6401890464010714, -0.14807880673221618, -0.8091330324468144, 0.7322605421179074, -0.8090942062117352, 0.8525817508267581, 2.102725259687127, 0.8963278363606026, -0.1283974474336501, 0.3092388533048022, -0.454542801567707, 1.5350789156463682, -0.253254681163466, 0.7823161165244964, 1.122799647869005, 1.0995655072520378, -0.7630601627749554, 0.480444774444284, -0.12206918895303996, 1.1777347488187935, 0.1320679496868248, 2.0811109206252354, -0.06782453929389896, -0.7187905757889496, -0.30807647747934286, 0.27052108225705856, -0.5156649082129355, -0.5897983032769722, 0.9313201115621599, -1.3379787339052664, 1.1232986051856304, -1.4026510108697023, 0.027570711352272438, 0.9119695913657228, 0.10548102165511748, 0.6407547569959589, -0.6097219063997317, -1.5458922876141064, -0.9090397861841, -0.4719817746811215, -2.409232993876559, -1.4088722381132655, -0.2150876536179103, 1.5806035774971354, 0.7593284345389285, 2.279263530002332, -0.10272188425334107, -0.3412364584336737, 0.2993375728209317, -0.6479848951627315, 1.483446324586554, 0.4991653751638334, -1.0589121921667228, -0.18824823624495085, -0.10530084904104649, -1.5170803062287015, 0.5243841925009534, 0.9225446376273405, -1.6108512885420152, 0.7120866588579142, -0.2806035897461968, -0.20742070375099736, -0.18753361135862, 0.4710553442602819, 0.2986101525391515, -0.2620466003003878, 0.43849651826358027, 1.4458968626046633, 0.4387130542610641, -0.6687532266870885, 1.4735689575888717, 0.4784421081842152, -0.8622752122293833, 1.5249526035463328, -1.0366038124093477, 1.323668517136681, -0.20159909461650713, 2.5135039517306996, 0.6503988566250597, -0.1931888860787041, -1.469684078285457, -0.855617717422126, 0.3400784925084917, 0.9050708301306806, 0.6223190895377972, 0.3821869334594995, -0.13750263687919134, -1.2060423359646684, 0.7800674346981868, -2.5540513348517493, 0.08481000309325441, -1.0459502122740354, -0.06469166907624989, -0.6163333173367983, -0.10250336235041453, 0.7134401968079903, -0.33178899113963, -1.1900775749844938, -0.37734205362233697, 1.3192775373888106, -0.8506253851557422, -1.0453558123587727, -0.51132862467581, 0.09069189247101594, -1.1359976096619724, -0.46854976695410055, 0.8011700961819153, -0.9002546934694753, -1.4091749059535204, -1.5702436568531846, -0.25206508044240417, -0.35267755769374637, -0.6100774234780555, 0.06057874005819152, 0.15120767923276396, 0.6371106078614799, -0.4667090858862561, 1.1492715896218875, -0.06699822680566075, 0.47857905890991975], [-0.3848724867078949, -0.4678480819391736, 0.05056673490056183, -1.623641398866647, -0.15967191191721403, 1.016255875647619, -1.5509436913624395, -0.4257818800922184, 1.3527911387449298, -0.26604928214487256, 0.9478948619633039, -0.45142104166071495, 0.4159317185757689, -0.4620365697355604, 0.016856843893587905, 0.5258494827106514, 0.3209584363695507, -0.6850197246177157, 0.47087377925538115, 0.7247511465703711, 0.7297492569631844, -0.11748455547259191, -0.07942396283070584, 0.49069338849630184, 1.5984260022887429, -1.0171350324083201, -0.4828519878402547, 0.5566973420217791, 0.9243708558905803, 1.1247735411664586, 1.229657713282694, 1.4577079799093569, -2.520839970345045, -0.93533176691949, 1.0127680154380374, -0.008761153125693744, 1.8656650921035147, -0.9981278687318841, 0.49641685136769564, 1.0383700992476999, 1.0645888417856897, 1.1551399914155254, 